~o
<STREAMINFO> 1 39
<VECSIZE> 39<NULLD><MFCC_D_A_0><DIAGC>
~s "silst"
<MEAN> 39
 -1.263598e+01 3.224846e+00 -1.702807e+00 1.606544e+00 -5.935895e+00 5.058104e-01 -7.394485e+00 -3.399315e-01 -4.819098e+00 4.441799e-01 1.413380e-02 7.312176e-01 5.229771e+01 -1.156220e-01 -3.221284e-02 5.343688e-02 1.411845e-01 -1.241681e-02 1.465906e-03 -1.095012e-01 -6.208788e-03 4.898437e-02 1.727942e-02 -1.220198e-02 2.666307e-03 -1.165460e-01 4.366837e-02 1.265792e-03 1.022224e-01 -3.780471e-02 1.763090e-02 -2.407236e-02 -2.353690e-02 -1.017716e-02 -6.080010e-02 -3.969632e-02 -7.974383e-02 -4.601958e-02 7.647574e-02
<VARIANCE> 39
 1.235584e+01 9.906130e+00 1.354349e+01 2.001148e+01 2.362507e+01 2.335969e+01 2.874135e+01 1.947451e+01 2.135502e+01 1.472677e+01 1.577139e+01 1.289584e+01 1.439711e+01 3.016932e-01 6.347027e-01 8.550967e-01 1.039512e+00 1.195447e+00 1.197251e+00 1.302578e+00 1.217164e+00 1.134543e+00 1.227263e+00 1.284854e+00 1.058254e+00 1.939095e-01 6.525200e-02 1.719051e-01 2.070064e-01 2.434840e-01 2.618982e-01 2.579765e-01 2.835651e-01 2.683156e-01 2.402629e-01 2.661189e-01 2.614354e-01 2.146986e-01 5.411613e-02
<GCONST> 8.521199e+01
~h "a"
<BEGINHMM>
<NUMSTATES> 5
<STATE> 2
<MEAN> 39
 1.455329e+00 -4.735613e+00 -2.530531e+00 -1.332265e+01 -3.704059e+00 -8.374059e+00 -9.652239e+00 -7.902056e-01 -1.144020e+01 -1.572137e+00 -2.204944e+00 1.439454e+00 7.106544e+01 1.150822e+00 -8.995984e-01 -1.007580e+00 -1.137166e+00 -2.297738e-01 -4.430832e-01 7.293286e-01 6.857246e-01 -4.464705e-01 -3.852820e-01 3.186425e-01 2.064994e-01 1.264241e+00 -1.791397e-01 9.320530e-02 1.528589e-01 3.483003e-01 6.078664e-02 1.364167e-01 2.940514e-02 -5.199536e-02 7.485136e-02 7.723317e-02 -1.314335e-01 -1.312302e-01 -2.016777e-01
<VARIANCE> 39
 4.420444e+01 5.169659e+01 5.559475e+01 8.726723e+01 9.460233e+01 9.491010e+01 9.577914e+01 6.435461e+01 6.897955e+01 6.891283e+01 4.646163e+01 3.017247e+01 6.538927e+01 4.250587e+00 5.572728e+00 4.308412e+00 5.798282e+00 4.177843e+00 5.545369e+00 6.472935e+00 5.419654e+00 4.357153e+00 4.677342e+00 4.119677e+00 2.712709e+00 5.036559e+00 8.781379e-01 7.918733e-01 7.342888e-01 1.046281e+00 7.248110e-01 9.092385e-01 1.003682e+00 8.494825e-01 7.482572e-01 8.123852e-01 7.700354e-01 4.953895e-01 6.533055e-01
<GCONST> 1.426580e+02
<STATE> 3
<MEAN> 39
 5.401269e+00 -6.872331e+00 -5.481747e+00 -1.638206e+01 -2.325009e+00 -1.042264e+01 -9.160692e+00 1.071721e+00 -1.275662e+01 -2.892795e+00 -3.315753e-01 1.566704e+00 7.524355e+01 -1.082721e-02 9.362748e-01 1.112734e-01 6.826336e-01 -2.533975e-01 6.883383e-01 1.071412e-01 2.070538e-01 -2.415103e-01 -3.873659e-01 -3.873084e-01 -2.786134e-01 -7.944146e-01 -2.726361e-01 4.429404e-01 3.779634e-01 4.724875e-01 7.500432e-02 2.791256e-01 -2.219205e-01 -2.808129e-01 1.083399e-01 3.115950e-02 -3.033370e-01 -1.551363e-01 -4.388889e-01
<VARIANCE> 39
 1.136744e+01 2.722325e+01 3.719407e+01 5.824334e+01 8.067944e+01 9.290181e+01 1.090988e+02 6.254770e+01 8.323413e+01 8.604724e+01 5.705902e+01 3.357815e+01 1.495682e+01 6.110551e-01 3.084634e+00 1.776368e+00 2.882931e+00 2.158989e+00 2.674323e+00 3.423342e+00 3.653993e+00 2.686243e+00 3.524232e+00 2.908518e+00 1.939425e+00 1.653348e+00 1.559740e-01 2.410259e-01 2.518548e-01 4.682896e-01 3.596674e-01 4.703427e-01 6.250255e-01 6.312242e-01 5.170041e-01 6.867555e-01 5.002760e-01 4.195536e-01 1.156932e-01
<GCONST> 1.201315e+02
<STATE> 4
<MEAN> 39
 3.996748e+00 -4.345534e+00 -5.258290e+00 -1.057043e+01 -5.788166e+00 -8.450336e+00 -4.424515e+00 -1.254217e+00 -1.454228e+01 -8.030673e-01 -1.988012e+00 9.376216e-01 7.099799e+01 -4.817947e-01 1.010990e+00 4.718928e-01 8.589354e-01 6.649267e-03 7.017993e-01 -3.913334e-01 -2.114323e-01 2.053872e-01 -1.260603e-01 -4.215945e-01 -8.784661e-02 -1.073196e+00 -1.463815e-01 5.797500e-02 1.401399e-01 1.001877e-01 9.227823e-02 5.305754e-02 -1.073667e-01 -2.965767e-02 1.006787e-01 3.404305e-02 -2.656774e-02 -6.726290e-03 -1.051768e-01
<VARIANCE> 39
 1.897929e+01 5.454062e+01 3.496831e+01 6.006844e+01 6.973245e+01 9.998997e+01 1.117662e+02 5.925457e+01 7.332710e+01 5.091421e+01 5.173906e+01 3.473906e+01 4.714476e+01 8.370756e-01 2.324842e+00 1.663882e+00 2.961624e+00 1.984262e+00 3.181467e+00 2.973738e+00 2.514541e+00 2.615504e+00 2.700241e+00 2.505137e+00 1.728777e+00 1.636360e+00 1.273571e-01 3.119201e-01 2.116868e-01 3.786805e-01 2.732930e-01 4.643808e-01 4.761428e-01 4.165927e-01 4.487588e-01 3.768187e-01 3.322851e-01 2.804431e-01 1.608267e-01
<GCONST> 1.181088e+02
<TRANSP> 5
 0.000000e+00 1.000000e+00 0.000000e+00 0.000000e+00 0.000000e+00
 0.000000e+00 5.755861e-01 4.244140e-01 0.000000e+00 0.000000e+00
 0.000000e+00 0.000000e+00 6.529457e-01 3.470543e-01 0.000000e+00
 0.000000e+00 0.000000e+00 0.000000e+00 7.441478e-01 2.558522e-01
 0.000000e+00 0.000000e+00 0.000000e+00 0.000000e+00 0.000000e+00
<ENDHMM>
~h "b"
<BEGINHMM>
<NUMSTATES> 5
<STATE> 2
<MEAN> 39
 -1.091384e+00 7.009739e+00 4.655275e+00 -3.491015e+00 -1.606436e+00 -1.525261e+00 -7.685669e+00 -2.014645e+00 -1.054898e+01 -3.438637e+00 -7.927579e+00 -1.614360e+00 6.320518e+01 -5.243534e-01 8.932155e-01 5.602817e-01 1.160612e+00 1.030964e-01 1.306775e+00 6.634785e-01 -5.605186e-01 3.363474e-01 1.224270e-01 -1.097905e-01 3.003989e-01 -9.355218e-01 1.755423e-01 -4.725373e-01 -3.744160e-01 -4.436682e-01 -2.086908e-01 -3.435875e-01 -1.579583e-01 2.706257e-01 -3.231429e-01 -4.650544e-02 3.934337e-01 1.237619e-01 2.985257e-01
<VARIANCE> 39
 3.858611e+01 7.888714e+01 4.976625e+01 9.374936e+01 5.240424e+01 5.045633e+01 6.762912e+01 5.803390e+01 5.716188e+01 2.682353e+01 3.065106e+01 2.162314e+01 5.618404e+01 3.316853e+00 3.356580e+00 3.528345e+00 7.581355e+00 2.148755e+00 4.682819e+00 4.990795e+00 3.420203e+00 6.903357e+00 4.038321e+00 2.660495e+00 3.183266e+00 3.396284e+00 2.132044e-01 5.428239e-01 5.446532e-01 8.469698e-01 5.966723e-01 5.214078e-01 7.647094e-01 6.880197e-01 7.725068e-01 6.194177e-01 4.631017e-01 5.173433e-01 3.194965e-01
<GCONST> 1.316440e+02
<STATE> 3
<MEAN> 39
 -1.163485e+00 9.080445e+00 3.392590e+00 -1.490577e+00 -3.325955e+00 4.448498e-01 -6.145864e+00 -6.172171e-01 -9.340742e+00 -3.428999e+00 -7.102091e+00 -1.339113e+00 6.069787e+01 -1.010358e-01 2.157950e-01 -2.288671e-01 6.549549e-01 -4.526710e-01 5.771469e-01 2.344649e-01 -1.524333e-02 6.370345e-02 1.019253e-02 3.243793e-01 3.094998e-01 -6.056947e-01 2.036668e-01 -5.044404e-01 -1.690971e-01 -5.749040e-01 -2.298176e-02 -4.815499e-01 -4.334241e-01 1.551305e-01 -3.169321e-01 -1.558719e-01 1.835608e-01 5.914382e-02 4.764239e-01
<VARIANCE> 39
 3.973548e+01 6.123730e+01 4.003909e+01 8.371128e+01 3.952151e+01 4.165612e+01 5.310266e+01 3.617769e+01 4.476408e+01 2.612367e+01 3.290339e+01 2.042478e+01 3.978840e+01 1.404330e+00 1.797350e+00 2.209305e+00 1.974736e+00 2.208941e+00 1.928362e+00 2.160274e+00 1.960437e+00 2.937314e+00 2.124023e+00 1.807828e+00 1.217668e+00 1.016347e+00 2.032512e-01 5.466095e-01 3.303164e-01 7.293925e-01 4.400120e-01 5.160097e-01 8.595859e-01 4.104993e-01 6.704754e-01 5.250315e-01 4.982988e-01 3.941157e-01 3.388862e-01
<GCONST> 1.178455e+02
<STATE> 4
<MEAN> 39
 -1.366975e+00 9.515132e+00 2.112643e+00 -1.083980e+00 -6.151340e+00 4.906595e-01 -6.317356e+00 6.103941e-01 -8.772132e+00 -2.889181e+00 -5.782324e+00 -9.925363e-01 5.891297e+01 -1.913546e-01 -2.653937e-01 2.471915e-01 8.286120e-02 -1.283497e-01 1.001236e-01 -3.424914e-01 4.345438e-02 1.701729e-03 3.445005e-02 2.636219e-01 2.160229e-01 -6.812384e-02 1.123837e-01 -4.075257e-01 9.240013e-02 -4.523242e-01 3.164652e-01 -2.897808e-01 -2.924837e-01 3.304311e-02 -3.290484e-01 -1.481268e-01 -1.495948e-02 -4.982467e-02 4.920530e-01
<VARIANCE> 39
 2.693099e+01 4.527417e+01 4.938520e+01 7.159137e+01 3.877368e+01 3.391338e+01 4.236603e+01 2.778617e+01 4.930604e+01 2.395684e+01 2.113476e+01 1.941092e+01 3.202349e+01 7.750778e-01 1.856279e+00 1.532604e+00 1.726694e+00 1.851557e+00 1.597343e+00 2.062485e+00 1.561260e+00 1.801257e+00 1.602717e+00 1.506639e+00 1.119183e+00 1.005050e+00 2.141859e-01 5.464313e-01 3.441114e-01 6.622919e-01 3.370639e-01 6.649523e-01 6.067727e-01 3.610395e-01 5.190451e-01 3.282196e-01 3.776149e-01 2.939725e-01 3.269728e-01
<GCONST> 1.112184e+02
<TRANSP> 5
 0.000000e+00 1.000000e+00 0.000000e+00 0.000000e+00 0.000000e+00
 0.000000e+00 2.770395e-01 7.229604e-01 0.000000e+00 0.000000e+00
 0.000000e+00 0.000000e+00 2.239826e-01 7.760174e-01 0.000000e+00
 0.000000e+00 0.000000e+00 0.000000e+00 6.182754e-01 3.817246e-01
 0.000000e+00 0.000000e+00 0.000000e+00 0.000000e+00 0.000000e+00
<ENDHMM>
~h "c"
<BEGINHMM>
<NUMSTATES> 5
<STATE> 2
<MEAN> 39
 1.448220e+00 -9.630739e+00 -4.788210e+00 -7.865573e+00 -3.883132e+00 -1.037969e+01 -1.238835e+01 -4.134670e+00 -1.162077e+01 4.481907e+00 -3.052215e+00 -1.588459e+00 7.102368e+01 2.164461e-01 -5.194069e-01 -3.425092e-01 -4.592141e-01 4.339701e-01 -6.066802e-01 3.136654e-01 2.976213e-01 6.232111e-01 5.019571e-01 3.329296e-02 2.338134e-02 6.128901e-01 2.390324e-02 1.259018e-01 1.025482e-01 -1.131010e-02 8.278543e-02 -1.294059e-01 7.133473e-02 5.368740e-02 -1.733395e-02 -1.563062e-01 -1.471695e-01 7.157157e-02 2.229889e-02
<VARIANCE> 39
 1.657359e+01 4.698381e+01 5.557357e+01 5.561980e+01 7.542712e+01 1.204878e+02 5.006182e+01 4.253710e+01 9.270152e+01 5.928908e+01 4.190111e+01 5.189102e+01 5.271198e+01 1.366324e+00 5.675230e+00 2.234603e+00 4.089032e+00 3.572347e+00 7.788880e+00 2.140776e+00 2.239026e+00 5.322222e+00 5.337560e+00 2.816591e+00 4.946525e+00 3.644235e+00 2.471634e-01 1.334526e+00 4.129297e-01 7.252930e-01 5.311987e-01 1.171155e+00 4.276658e-01 3.764710e-01 9.835039e-01 9.264863e-01 5.535613e-01 9.456100e-01 6.955801e-01
<GCONST> 1.341193e+02
<STATE> 3
<MEAN> 39
 3.225761e+00 -6.414356e+00 -3.221185e+00 -1.136976e+01 8.322968e+00 -1.621073e+01 -1.536299e+01 -6.378034e-01 -7.230363e+00 4.988122e+00 -6.054640e+00 1.556956e+00 7.412073e+01 5.948189e-02 1.096709e+00 4.056144e-01 4.657297e-01 1.991412e-01 9.890037e-01 -3.629967e-01 2.263052e-01 -1.104090e-03 -9.455623e-01 -2.972134e-01 3.359676e-01 -5.933809e-01 -3.321110e-02 1.859702e-01 2.836772e-02 3.281665e-01 -3.478401e-01 4.483224e-01 -7.407080e-02 4.533909e-02 -2.699363e-01 -9.861560e-02 4.216482e-02 -2.624843e-01 -3.013842e-01
<VARIANCE> 39
 3.879106e+00 4.346889e+01 1.511609e+01 4.121236e+01 7.455900e+01 1.027559e+02 5.239713e+01 2.877606e+01 5.654959e+01 5.057250e+01 3.685542e+01 4.950445e+01 1.656448e+01 2.375776e-01 3.962929e+00 1.046754e+00 3.556862e+00 2.545611e+00 4.444792e+00 2.389764e+00 2.217129e+00 2.071660e+00 2.593616e+00 2.631235e+00 3.904347e+00 2.424563e+00 4.413703e-02 4.686434e-01 1.966681e-01 6.117153e-01 3.000648e-01 5.216425e-01 4.147423e-01 4.090998e-01 3.086551e-01 4.937643e-01 5.408899e-01 6.867666e-01 3.410771e-01
<GCONST> 1.144493e+02
<STATE> 4
<MEAN> 39
 2.058861e+00 -3.161891e+00 -8.372862e-01 3.394299e+00 -1.933728e+00 -9.052217e+00 -1.312420e+01 -6.569432e+00 -1.622156e+01 -2.709600e-01 -2.915865e+00 -1.346509e+00 6.666234e+01 -1.071509e-01 -1.284700e-01 1.698689e-01 6.965575e-01 -2.571076e-01 6.050040e-01 2.072697e-01 3.985033e-02 -1.839520e-01 -4.741220e-01 7.881542e-02 -6.976777e-01 -1.901438e-01 7.976409e-03 -2.380222e-01 -6.624592e-02 -3.006219e-01 2.153651e-01 -1.920157e-01 1.020316e-01 1.965432e-02 1.280775e-01 1.555471e-01 -2.114868e-02 4.505710e-03 2.650460e-01
<VARIANCE> 39
 8.043179e+00 6.079730e+01 1.749183e+01 6.372368e+01 3.578344e+01 4.501119e+01 7.252535e+01 3.994762e+01 9.320628e+01 3.014996e+01 5.357307e+01 3.558479e+01 2.966559e+01 7.197627e-01 6.686245e+00 1.755597e+00 4.312582e+00 2.775340e+00 4.523774e+00 7.762755e+00 3.104360e+00 3.565071e+00 3.216588e+00 3.580935e+00 3.437728e+00 4.577603e+00 1.456891e-01 8.610238e-01 3.105906e-01 3.896471e-01 3.514697e-01 5.464407e-01 9.520060e-01 7.313141e-01 6.630640e-01 2.814288e-01 6.193888e-01 5.038210e-01 4.585546e-01
<GCONST> 1.250819e+02
<TRANSP> 5
 0.000000e+00 1.000000e+00 0.000000e+00 0.000000e+00 0.000000e+00
 0.000000e+00 8.756026e-01 1.243974e-01 0.000000e+00 0.000000e+00
 0.000000e+00 0.000000e+00 8.231247e-01 1.768753e-01 0.000000e+00
 0.000000e+00 0.000000e+00 0.000000e+00 7.004192e-01 2.995807e-01
 0.000000e+00 0.000000e+00 0.000000e+00 0.000000e+00 0.000000e+00
<ENDHMM>
~h "d"
<BEGINHMM>
<NUMSTATES> 5
<STATE> 2
<MEAN> 39
 -1.530592e+00 7.382944e+00 7.014067e+00 6.596412e-01 -9.367908e-01 1.539404e+00 -1.249666e+01 -2.888604e+00 -8.579279e+00 -3.235924e+00 -4.914528e+00 -5.902637e-02 6.178276e+01 3.476709e-01 -2.357027e+00 -5.906047e-01 -2.711073e+00 1.355825e+00 1.387088e+00 -6.838002e-01 5.572679e-02 -3.580936e-01 -1.451628e+00 3.661678e-02 -3.403673e-01 1.916448e+00 3.480589e-01 -1.609910e-01 -2.346403e-01 -7.172273e-01 2.526371e-01 -7.127707e-01 -4.926206e-01 5.975478e-01 -6.718571e-01 -5.428219e-01 -2.984417e-01 -2.819383e-01 4.386973e-01
<VARIANCE> 39
 2.005984e+01 7.726691e+01 2.585307e+01 1.218515e+02 4.129266e+01 9.270131e+01 6.342209e+01 4.040512e+01 4.462680e+01 3.264542e+01 3.563800e+01 2.733424e+01 3.957032e+01 2.742657e+00 8.849480e+00 3.851139e+00 9.543254e+00 4.615735e+00 1.150489e+01 8.568237e+00 5.631179e+00 6.204461e+00 5.594610e+00 4.560193e+00 4.464668e+00 3.705561e+00 3.640674e-01 2.155464e+00 5.788566e-01 2.479158e+00 8.567167e-01 2.313187e+00 1.444149e+00 1.048446e+00 9.551011e-01 1.172974e+00 1.100541e+00 9.317112e-01 9.877175e-01
<GCONST> 1.448774e+02
<STATE> 3
<MEAN> 39
 2.983178e+00 2.268599e+00 3.912551e+00 -1.300603e+01 5.099708e+00 -2.394018e+00 -2.108512e+01 6.740594e+00 -1.624998e+01 -1.468724e+01 -7.501073e+00 -5.220981e+00 7.005733e+01 5.344554e-01 3.691919e-01 6.364788e-01 -1.690607e+00 -9.146098e-01 -2.947544e+00 -2.844070e-01 2.509198e+00 -2.218772e+00 -1.294244e+00 -3.470174e-01 -1.244400e+00 7.196747e-01 -2.286665e-01 6.793613e-01 4.281033e-01 6.930467e-01 -8.119386e-01 -3.280194e-01 8.768499e-01 -1.622539e-01 2.327899e-01 9.655372e-01 2.232847e-01 5.384263e-02 -5.528377e-01
<VARIANCE> 39
 4.958950e+00 5.320954e+01 5.483284e+01 6.886101e+01 9.177731e+01 1.190225e+02 1.125705e+02 6.848158e+01 6.463459e+01 6.815032e+01 9.895042e+01 4.169326e+01 1.418816e+01 1.112598e+00 6.429914e+00 3.877691e+00 6.506847e+00 7.422150e+00 9.519220e+00 1.268742e+01 5.345504e+00 6.034277e+00 1.016481e+01 7.147838e+00 4.261770e+00 2.376970e+00 1.699307e-01 1.189938e+00 9.233950e-01 8.682135e-01 1.334790e+00 2.310364e+00 1.684850e+00 1.019193e+00 1.341925e+00 1.425302e+00 1.055669e+00 7.776020e-01 3.040728e-01
<GCONST> 1.442828e+02
<STATE> 4
<MEAN> 39
 5.028913e+00 1.358522e+00 3.156552e+00 -1.641238e+01 -5.402541e+00 -1.383244e+01 -1.127621e+01 1.085883e+01 -2.097340e+01 -7.057834e+00 -4.517182e+00 -5.364799e+00 7.181474e+01 1.750089e-01 -3.750002e-01 -5.550491e-01 -9.367037e-02 -3.466319e-01 -3.798282e-01 4.388953e-01 -2.925172e-01 -9.258204e-03 5.283437e-01 3.543188e-01 3.168080e-01 1.922569e-01 -3.195122e-02 6.848568e-02 -2.291996e-02 1.610758e-01 8.607589e-02 2.154421e-01 -5.021021e-02 -1.127629e-01 9.074184e-02 -7.802602e-02 -1.072904e-01 1.501436e-02 -1.049828e-01
<VARIANCE> 39
 5.009390e+00 7.038474e+01 5.634602e+01 6.226605e+01 5.954115e+01 5.775321e+01 1.252498e+02 6.006332e+01 5.947011e+01 7.491538e+01 7.089806e+01 4.580672e+01 1.889581e+01 1.385995e-01 2.581411e+00 1.460012e+00 1.443193e+00 1.730409e+00 2.301304e+00 2.121289e+00 2.561703e+00 2.535447e+00 3.144095e+00 2.373259e+00 2.138875e+00 7.425403e-01 2.703950e-02 2.982168e-01 2.040381e-01 2.916661e-01 2.920884e-01 3.979863e-01 3.993749e-01 4.023184e-01 4.170329e-01 4.651725e-01 4.230425e-01 3.619401e-01 1.060051e-01
<GCONST> 1.110120e+02
<TRANSP> 5
 0.000000e+00 1.000000e+00 0.000000e+00 0.000000e+00 0.000000e+00
 0.000000e+00 7.575359e-01 2.424641e-01 0.000000e+00 0.000000e+00
 0.000000e+00 0.000000e+00 7.100392e-01 2.899608e-01 0.000000e+00
 0.000000e+00 0.000000e+00 0.000000e+00 9.292360e-01 7.076400e-02
 0.000000e+00 0.000000e+00 0.000000e+00 0.000000e+00 0.000000e+00
<ENDHMM>
~h "e"
<BEGINHMM>
<NUMSTATES> 5
<STATE> 2
<MEAN> 39
 1.297827e+00 -3.438620e-01 -1.558279e+00 -2.774337e+00 -1.353328e+00 -8.204729e+00 -1.399948e+01 -2.992532e+00 -7.184451e+00 4.919405e+00 -4.267280e+00 -2.624028e+00 6.590553e+01 -5.349203e-01 6.870092e-01 3.051791e-02 4.337767e-01 -2.557751e-01 5.860506e-01 8.065270e-02 2.726399e-01 2.804539e-01 -1.753243e-01 -4.891778e-04 9.599062e-02 -9.647753e-01 -7.875708e-02 -9.267234e-02 -8.349387e-04 -6.814426e-02 -3.198565e-02 9.409229e-02 5.680645e-02 6.865699e-02 -1.935684e-02 -8.596186e-02 5.210999e-02 4.792466e-02 -1.295869e-02
<VARIANCE> 39
 2.069221e+01 5.307749e+01 3.014966e+01 1.215957e+02 7.521339e+01 1.238335e+02 7.283030e+01 5.989949e+01 3.711366e+01 5.419935e+01 2.184430e+01 2.743711e+01 4.983328e+01 9.600194e-01 1.257962e+00 1.098906e+00 1.422326e+00 1.915331e+00 2.451750e+00 1.731254e+00 1.652518e+00 1.779037e+00 1.997285e+00 1.469634e+00 1.580516e+00 5.946482e-01 8.683258e-02 2.139576e-01 1.482149e-01 1.779942e-01 2.791219e-01 3.512754e-01 2.888293e-01 2.467822e-01 2.580187e-01 2.585507e-01 2.316446e-01 2.297065e-01 9.134300e-02
<GCONST> 1.065225e+02
<STATE> 3
<MEAN> 39
 -5.076351e+00 4.274701e+00 -2.515386e+00 -9.444843e-01 -6.092949e+00 -7.347218e-02 -9.430187e+00 1.560207e+00 -4.604458e+00 1.671414e+00 -2.587822e+00 -4.420397e-01 5.638801e+01 -1.127869e+00 -2.043961e-01 -5.010930e-02 1.371334e-01 -4.939047e-01 4.028880e-01 6.587583e-01 2.715997e-01 -1.190810e-01 -2.030575e-01 1.716089e-01 2.882893e-01 -9.015966e-01 1.775273e-01 -5.600306e-02 -5.665876e-03 -1.070101e-01 9.919590e-02 -1.228113e-01 -1.392854e-01 -2.776336e-02 -1.078431e-01 -1.161101e-01 -7.141959e-02 -3.908404e-02 2.039825e-01
<VARIANCE> 39
 2.463000e+01 2.072871e+01 1.917342e+01 5.486938e+01 4.012809e+01 4.154861e+01 6.544572e+01 5.129409e+01 2.026750e+01 2.400142e+01 1.464205e+01 1.381384e+01 2.499913e+01 6.460715e-01 1.085662e+00 1.180706e+00 1.752059e+00 1.945137e+00 2.107337e+00 1.946675e+00 1.772335e+00 1.440779e+00 1.924928e+00 1.291260e+00 1.399498e+00 1.638817e-01 8.077619e-02 1.597609e-01 1.997280e-01 3.021455e-01 2.923504e-01 3.595655e-01 2.854303e-01 3.972826e-01 2.745950e-01 2.319384e-01 2.198374e-01 2.928187e-01 4.828152e-02
<GCONST> 9.783422e+01
<STATE> 4
<MEAN> 39
 -8.839516e+00 5.282051e+00 -2.602498e+00 -6.456481e-01 -1.026684e+01 -1.765361e+00 -9.613471e+00 1.245047e+00 -5.014413e+00 1.451673e+00 -2.032965e+00 4.176047e-02 5.241827e+01 -2.540548e-01 1.715762e-02 5.201006e-02 1.284735e-01 -3.502790e-02 3.165617e-02 -3.267146e-03 1.035894e-01 -4.756843e-03 -1.048226e-01 -1.494218e-02 -1.080919e-02 -2.389932e-01 9.020825e-02 -4.403776e-02 -8.608994e-03 -4.385936e-02 9.336805e-02 -1.131313e-02 -5.461621e-02 -1.040459e-02 -1.632710e-02 1.993178e-02 -9.171356e-03 -2.893052e-02 1.077142e-01
<VARIANCE> 39
 1.164264e+01 7.752760e+00 9.499932e+00 2.163320e+01 3.013793e+01 2.289244e+01 2.254779e+01 1.753342e+01 1.328026e+01 1.328529e+01 1.218583e+01 1.188266e+01 1.310183e+01 2.353772e-01 3.640952e-01 4.592455e-01 6.225721e-01 9.650604e-01 1.064009e+00 1.138161e+00 1.107565e+00 1.000140e+00 1.165183e+00 1.046294e+00 1.074215e+00 9.473027e-02 6.044587e-02 8.282118e-02 1.119684e-01 1.518887e-01 1.764807e-01 1.955699e-01 2.147816e-01 2.265043e-01 2.080565e-01 2.321509e-01 2.151129e-01 2.344454e-01 5.758275e-02
<GCONST> 7.657236e+01
<TRANSP> 5
 0.000000e+00 1.000000e+00 0.000000e+00 0.000000e+00 0.000000e+00
 0.000000e+00 7.350398e-01 2.649602e-01 0.000000e+00 0.000000e+00
 0.000000e+00 0.000000e+00 4.378093e-01 5.621907e-01 0.000000e+00
 0.000000e+00 0.000000e+00 0.000000e+00 8.171501e-01 1.828499e-01
 0.000000e+00 0.000000e+00 0.000000e+00 0.000000e+00 0.000000e+00
<ENDHMM>
~h "g"
<BEGINHMM>
<NUMSTATES> 5
<STATE> 2
<MEAN> 39
 -4.934019e+00 1.616132e+00 6.631151e+00 8.104676e-01 7.320088e-01 -4.009234e+00 -1.151498e+01 -4.859671e-01 -8.198306e+00 1.005815e+00 -6.291940e+00 -2.790531e+00 6.271463e+01 -2.155104e-01 -2.207747e+00 2.986668e-01 -2.416083e+00 3.306522e-01 -8.291561e-01 4.486893e-02 -7.914428e-01 -9.355863e-01 3.337165e-01 -5.397542e-01 -1.192822e+00 1.930268e+00 3.122901e-01 -7.269118e-02 1.410360e-01 -1.843144e-01 1.067222e-01 -7.692547e-01 -4.246245e-01 -1.425266e-01 -3.614418e-01 -1.920220e-01 -1.246731e-01 -2.587957e-01 4.576088e-01
<VARIANCE> 39
 2.101545e+01 1.266408e+02 5.279028e+01 1.331476e+02 7.451009e+01 6.563219e+01 5.508497e+01 4.707029e+01 5.349409e+01 3.110252e+01 4.118800e+01 3.473594e+01 6.276701e+01 2.539256e+00 1.339618e+01 4.583611e+00 1.113280e+01 6.599587e+00 1.046923e+01 9.889597e+00 7.690444e+00 5.038453e+00 4.340120e+00 4.006661e+00 3.266654e+00 7.725385e+00 5.731423e-01 3.297765e+00 9.330176e-01 2.302643e+00 1.091637e+00 1.272695e+00 1.992729e+00 1.048589e+00 9.835427e-01 6.871232e-01 6.860627e-01 5.908061e-01 1.280625e+00
<GCONST> 1.487462e+02
<STATE> 3
<MEAN> 39
 -1.898107e+00 -1.574877e+00 7.889052e+00 -1.102734e+01 -3.924029e-01 -1.093372e+01 -1.176482e+01 -3.710263e+00 -1.672942e+01 -6.825907e-01 -8.111567e+00 -9.156758e+00 7.131348e+01 2.024399e+00 6.067939e-01 6.275642e-02 -9.049487e-01 2.892001e-01 -2.643688e+00 -1.433258e+00 6.140485e-01 -2.427630e+00 -9.175780e-01 1.072918e-01 -8.773852e-01 1.251184e+00 1.399863e-01 2.504081e-01 -5.506969e-01 6.418042e-01 -2.425494e-01 2.266087e-01 -1.857083e-01 4.453662e-01 5.198025e-01 7.914282e-02 5.443761e-01 7.311111e-01 -5.713605e-01
<VARIANCE> 39
 2.469452e+01 7.429640e+01 5.639501e+01 1.069737e+02 1.398385e+02 7.998811e+01 1.330789e+02 1.195963e+02 6.239336e+01 4.918121e+01 5.832423e+01 5.914872e+01 2.609730e+01 2.348459e+00 6.138756e+00 6.539216e+00 9.421650e+00 6.432439e+00 8.116208e+00 1.161872e+01 8.750458e+00 4.877321e+00 5.105446e+00 6.328788e+00 5.199542e+00 2.119353e+00 5.405240e-01 1.284093e+00 8.953967e-01 2.052031e+00 1.158599e+00 1.425935e+00 2.840746e+00 1.414894e+00 7.652676e-01 9.865194e-01 9.565011e-01 6.331600e-01 3.717360e-01
<GCONST> 1.495211e+02
<STATE> 4
<MEAN> 39
 2.447564e+00 1.004959e+00 7.559509e+00 -1.551597e+01 -4.992257e+00 -1.529715e+01 -1.549569e+01 6.341007e+00 -2.215715e+01 -4.612881e+00 -9.176402e+00 -1.162090e+01 7.151648e+01 3.019685e-01 -1.081424e+00 -6.525691e-01 -4.097364e-02 -8.199924e-02 -4.254461e-01 -3.277764e-01 -2.004090e-01 6.481693e-02 -1.866435e-02 6.530191e-01 6.228440e-01 5.647522e-01 -2.176656e-01 -1.063216e-01 -1.272674e-02 1.416794e-01 3.240351e-02 3.760228e-01 3.064438e-01 -2.880846e-01 3.419129e-01 1.944398e-01 5.864079e-02 1.291445e-01 -8.024747e-02
<VARIANCE> 39
 4.702496e+00 5.916703e+01 3.026451e+01 5.855414e+01 1.060099e+02 6.777801e+01 1.639886e+02 8.239451e+01 5.535080e+01 8.021810e+01 5.575709e+01 6.613587e+01 1.498480e+01 5.925227e-01 1.849475e+00 1.788091e+00 3.885773e+00 2.641055e+00 4.539896e+00 6.040565e+00 4.793427e+00 2.766239e+00 4.598511e+00 2.652726e+00 2.255268e+00 4.605877e-01 1.114677e-01 3.912306e-01 2.824163e-01 5.147399e-01 4.368016e-01 7.292607e-01 1.071361e+00 7.144986e-01 6.026853e-01 6.582077e-01 4.220128e-01 3.610429e-01 8.170609e-02
<GCONST> 1.221486e+02
<TRANSP> 5
 0.000000e+00 1.000000e+00 0.000000e+00 0.000000e+00 0.000000e+00
 0.000000e+00 6.919768e-01 3.080232e-01 0.000000e+00 0.000000e+00
 0.000000e+00 0.000000e+00 5.426309e-01 4.573691e-01 0.000000e+00
 0.000000e+00 0.000000e+00 0.000000e+00 8.014288e-01 1.985712e-01
 0.000000e+00 0.000000e+00 0.000000e+00 0.000000e+00 0.000000e+00
<ENDHMM>
~h "h"
<BEGINHMM>
<NUMSTATES> 5
<STATE> 2
<MEAN> 39
 -4.448667e+00 -3.445470e+00 6.588815e+00 -1.052404e+00 -3.152585e+00 -6.944212e+00 -1.405753e+01 9.896367e-01 -1.039319e+01 -2.531024e+00 -7.427806e+00 -2.729923e+00 6.467829e+01 -6.418042e-02 -7.516514e-01 1.089406e-01 -6.159554e-02 7.264241e-01 -5.531487e-01 -2.605630e-01 -3.664407e-01 2.456986e-01 2.131576e-01 -3.431891e-01 1.180796e-01 6.760070e-01 1.860666e-01 4.037622e-02 -1.071613e-01 -1.704791e-01 -4.493119e-03 -1.976242e-01 1.618670e-01 1.421302e-01 -1.183096e-01 -7.923370e-02 -6.403445e-02 -2.802770e-02 1.562134e-01
<VARIANCE> 39
 4.990879e+01 8.897137e+01 6.843930e+01 2.179789e+02 8.011157e+01 1.634825e+02 8.335303e+01 6.456436e+01 7.120294e+01 7.000701e+01 4.591574e+01 3.520213e+01 3.546246e+01 3.472723e+00 7.357517e+00 6.124086e+00 1.090895e+01 7.188695e+00 1.089709e+01 8.318701e+00 5.895545e+00 8.037918e+00 4.813805e+00 3.512997e+00 3.221166e+00 3.566739e+00 4.969704e-01 1.162478e+00 7.593346e-01 1.886528e+00 1.341145e+00 2.113477e+00 1.422832e+00 1.069478e+00 1.148891e+00 1.037412e+00 6.601394e-01 5.272138e-01 7.474243e-01
<GCONST> 1.503785e+02
<STATE> 3
<MEAN> 39
 -3.414781e+00 -4.022861e+00 2.253885e+00 -1.137399e+01 -3.696198e+00 -6.822410e+00 -1.040894e+01 3.120372e-01 -1.013506e+01 -3.716595e+00 -5.686709e+00 4.683515e-01 6.838751e+01 2.794860e-01 -3.168095e-01 5.002653e-01 9.852424e-01 7.845922e-01 -5.154141e-01 -9.395964e-02 2.549030e-01 6.048421e-01 8.216657e-02 -4.877999e-01 -1.213276e-01 4.283302e-01 6.525254e-02 6.023794e-01 3.197297e-01 6.826470e-01 -6.768760e-02 -4.968467e-03 -1.982637e-01 4.235074e-02 -1.522044e-01 -8.179208e-02 -1.717157e-01 -2.114065e-01 -4.180738e-01
<VARIANCE> 39
 6.800407e+01 6.281914e+01 5.836660e+01 1.538257e+02 9.175616e+01 9.854992e+01 1.117698e+02 4.490645e+01 1.257446e+02 7.159119e+01 6.354341e+01 2.398892e+01 3.992613e+01 3.710813e+00 6.144466e+00 5.749947e+00 1.135282e+01 8.499935e+00 9.677751e+00 9.189734e+00 4.943332e+00 6.043792e+00 7.278874e+00 5.500080e+00 2.825975e+00 5.219643e+00 6.419138e-01 8.658026e-01 7.929229e-01 1.891080e+00 1.257253e+00 1.609092e+00 1.379013e+00 1.013281e+00 1.664402e+00 1.313760e+00 9.943350e-01 4.818616e-01 5.319771e-01
<GCONST> 1.508757e+02
<STATE> 4
<MEAN> 39
 -2.654271e+00 2.602116e+00 6.174935e+00 -1.010005e+01 -1.788173e-01 -5.994205e+00 -1.234549e+01 2.037161e-01 -8.311199e+00 -3.855548e+00 -8.566792e+00 1.558924e+00 6.796964e+01 -2.747017e-01 4.610569e-01 2.330268e-01 5.714746e-01 2.095951e-01 2.369667e-01 3.585902e-01 -2.985652e-01 3.244664e-01 5.335699e-01 -7.151690e-03 2.184231e-01 -4.148352e-01 -4.306623e-02 6.471582e-03 -6.358957e-02 -5.380024e-02 -2.767052e-02 -2.953469e-02 2.177400e-02 -5.409565e-02 1.743869e-02 9.393835e-03 8.788821e-02 -2.061802e-02 -3.324801e-02
<VARIANCE> 39
 3.316010e+01 1.053795e+02 1.545633e+02 1.453592e+02 1.093568e+02 8.443276e+01 1.073701e+02 5.208331e+01 6.919013e+01 5.370052e+01 6.268110e+01 4.511333e+01 2.588686e+01 1.806200e+00 4.321718e+00 5.079154e+00 5.310362e+00 3.320697e+00 5.226163e+00 4.472128e+00 5.758784e+00 4.939262e+00 4.852292e+00 3.135185e+00 2.022240e+00 1.430512e+00 2.331300e-01 6.015723e-01 1.048980e+00 8.524810e-01 4.269610e-01 8.639556e-01 7.271354e-01 9.669679e-01 8.152488e-01 8.443837e-01 6.101876e-01 3.597890e-01 1.915052e-01
<GCONST> 1.369025e+02
<TRANSP> 5
 0.000000e+00 1.000000e+00 0.000000e+00 0.000000e+00 0.000000e+00
 0.000000e+00 6.033683e-01 3.966316e-01 0.000000e+00 0.000000e+00
 0.000000e+00 0.000000e+00 4.599834e-01 5.400167e-01 0.000000e+00
 0.000000e+00 0.000000e+00 0.000000e+00 7.358642e-01 2.641358e-01
 0.000000e+00 0.000000e+00 0.000000e+00 0.000000e+00 0.000000e+00
<ENDHMM>
~h "i"
<BEGINHMM>
<NUMSTATES> 5
<STATE> 2
<MEAN> 39
 3.014041e+00 4.187551e+00 1.571863e+00 -3.189801e+00 1.278511e+00 -4.684696e+00 -1.483315e+01 -2.047858e+00 -1.070681e+01 -3.313630e+00 -9.498422e+00 -1.208281e+00 6.618584e+01 -9.277403e-02 -2.739566e-01 3.321892e-01 5.820311e-01 2.345766e-01 -8.753643e-01 -4.579802e-01 -1.107186e-01 4.568292e-01 4.340019e-01 -3.461727e-01 -4.591537e-01 1.643676e-01 -1.607604e-01 -4.511018e-01 1.251690e-01 4.777792e-02 2.857507e-01 -6.320539e-01 2.671404e-02 1.494963e-01 -2.798854e-01 2.271926e-01 1.504070e-01 -8.794166e-02 2.377190e-01
<VARIANCE> 39
 2.231020e+01 6.457668e+01 3.912956e+01 9.016000e+01 4.170915e+01 8.775844e+01 5.531625e+01 4.908892e+01 5.805873e+01 2.929841e+01 5.758178e+01 4.347594e+01 3.428270e+01 3.682828e-01 1.847554e+00 1.436138e+00 2.562954e+00 2.509485e+00 4.685752e+00 2.243869e+00 1.973259e+00 3.346859e+00 2.099070e+00 1.971342e+00 1.608898e+00 7.197924e-01 7.157445e-02 4.964420e-01 3.818403e-01 4.334727e-01 4.263326e-01 7.986521e-01 4.025413e-01 4.238967e-01 6.220942e-01 4.656140e-01 5.459008e-01 3.445523e-01 2.189448e-01
<GCONST> 1.172648e+02
<STATE> 3
<MEAN> 39
 1.289284e+00 -1.869726e+00 3.692434e+00 -8.935055e-02 5.385005e+00 -1.643402e+01 -1.664754e+01 -1.120778e+00 -1.332517e+01 7.904215e-01 -8.772128e+00 -5.346262e+00 6.978101e+01 -8.489268e-01 -2.075996e+00 1.625443e+00 1.023603e+00 1.151810e+00 -4.187347e+00 -5.298430e-01 9.070193e-01 -6.019709e-01 9.080256e-01 -2.419338e-01 -9.192142e-01 1.275046e+00 -1.128238e-01 1.976906e-01 2.933508e-01 -1.035705e-01 -3.022799e-01 1.207083e-01 8.075970e-02 1.914303e-01 8.566314e-02 -3.392945e-01 -1.183007e-01 2.095052e-01 -1.134419e-01
<VARIANCE> 39
 2.023597e+01 5.998075e+01 4.564286e+01 7.281871e+01 5.744821e+01 1.770395e+02 7.066064e+01 6.407964e+01 8.285472e+01 4.647648e+01 6.606837e+01 4.339666e+01 3.418779e+01 6.652455e-01 5.183302e+00 3.049101e+00 4.292839e+00 4.377218e+00 8.853127e+00 3.718086e+00 4.227190e+00 5.375728e+00 4.504885e+00 5.139321e+00 2.924459e+00 1.945602e+00 1.132066e-01 8.082774e-01 5.190753e-01 6.210382e-01 8.094147e-01 1.932587e+00 6.542261e-01 7.278893e-01 8.868898e-01 7.653496e-01 7.929340e-01 5.161424e-01 3.055758e-01
<GCONST> 1.347816e+02
<STATE> 4
<MEAN> 39
 -1.897887e+00 -2.970650e+00 1.241578e+01 3.978475e+00 4.895154e+00 -2.688101e+01 -1.910962e+01 2.537818e+00 -1.306287e+01 -7.748212e-01 -1.148805e+01 -5.869663e+00 7.075710e+01 3.600952e-02 8.307986e-01 -8.967131e-02 -2.273699e-01 -3.860275e-01 1.117808e+00 -2.321038e-01 -2.834806e-01 3.026728e-01 -2.968323e-01 2.669268e-01 1.413885e-01 -5.175289e-01 4.818179e-02 1.769911e-01 -2.480389e-01 -1.502041e-01 -7.028244e-02 5.510685e-01 1.516698e-01 -2.177164e-01 7.949850e-02 8.101428e-03 9.478729e-02 4.579996e-02 -1.296630e-01
<VARIANCE> 39
 1.292111e+01 5.312798e+01 5.653077e+01 8.449821e+01 3.688099e+01 1.440433e+02 5.880836e+01 8.464626e+01 5.320714e+01 4.825289e+01 6.727182e+01 3.469697e+01 2.961234e+01 6.861451e-01 1.922602e+00 3.337770e+00 2.670770e+00 1.947416e+00 6.524698e+00 2.673389e+00 3.245167e+00 2.779272e+00 2.941535e+00 2.668231e+00 1.623217e+00 9.238107e-01 1.135131e-01 4.060396e-01 3.799273e-01 4.250336e-01 4.304855e-01 9.275646e-01 5.099511e-01 4.934058e-01 5.141315e-01 5.216476e-01 5.000399e-01 3.334431e-01 1.728151e-01
<GCONST> 1.213588e+02
<TRANSP> 5
 0.000000e+00 1.000000e+00 0.000000e+00 0.000000e+00 0.000000e+00
 0.000000e+00 4.987864e-01 5.012136e-01 0.000000e+00 0.000000e+00
 0.000000e+00 0.000000e+00 6.184194e-01 3.815806e-01 0.000000e+00
 0.000000e+00 0.000000e+00 0.000000e+00 8.583310e-01 1.416690e-01
 0.000000e+00 0.000000e+00 0.000000e+00 0.000000e+00 0.000000e+00
<ENDHMM>
~h "j"
<BEGINHMM>
<NUMSTATES> 5
<STATE> 2
<MEAN> 39
 -8.451006e+00 1.944970e+00 1.237907e+01 -3.063678e+00 -1.936343e+00 -3.675960e+00 -8.409420e+00 -2.454620e+00 -9.185212e+00 -1.701532e+00 -5.088350e+00 -3.461915e+00 6.353899e+01 -1.923695e+00 -2.937411e+00 2.706460e+00 -1.997546e+00 1.116117e+00 -1.084282e+00 9.891931e-01 -6.440533e-01 2.027166e-01 3.633930e-02 -1.249915e-01 -3.704257e-01 2.447452e+00 2.122083e-01 -2.817658e-01 5.414471e-03 2.619291e-02 2.772701e-01 -5.617555e-01 -5.685617e-01 -3.351720e-01 -2.751397e-01 1.884332e-02 -8.185862e-02 -5.350005e-02 3.584513e-01
<VARIANCE> 39
 6.992712e+01 1.387563e+02 7.787071e+01 1.485587e+02 5.036925e+01 4.700928e+01 6.606812e+01 5.902995e+01 4.201450e+01 3.561303e+01 2.971301e+01 2.769849e+01 6.586727e+01 5.856872e+00 1.294803e+01 6.082806e+00 1.026960e+01 4.835309e+00 6.867866e+00 6.141033e+00 6.424967e+00 4.850923e+00 3.111774e+00 3.675505e+00 2.539502e+00 5.858139e+00 1.862532e+00 3.300411e+00 1.842048e+00 2.980994e+00 9.504973e-01 1.239528e+00 1.754846e+00 1.260778e+00 9.411746e-01 6.440503e-01 6.732747e-01 5.348583e-01 1.359392e+00
<GCONST> 1.500825e+02
<STATE> 3
<MEAN> 39
 -1.059749e+01 -8.488210e+00 2.074722e+01 -6.022521e+00 4.907083e+00 -1.235109e+01 -1.390193e+01 -9.942374e+00 -1.203230e+01 -2.288697e+00 -6.345350e+00 -5.174502e+00 7.407932e+01 3.932388e+00 4.147615e-01 -2.541168e+00 1.634137e+00 7.328946e-01 -2.203262e+00 -3.755106e+00 -1.531893e+00 -2.434246e+00 2.883852e-01 -3.880468e-01 1.732429e-01 7.919166e-01 8.340846e-01 5.549163e-01 -1.531776e+00 -1.403097e-01 -4.257499e-01 2.957494e-01 3.580143e-01 6.122212e-01 -1.116454e-01 1.814606e-01 3.391196e-01 3.056074e-01 -4.041733e-01
<VARIANCE> 39
 7.110888e+01 3.811464e+01 4.609851e+01 7.108004e+01 2.661360e+01 5.003108e+01 1.224736e+02 5.907169e+01 7.670864e+01 3.126923e+01 3.903783e+01 2.387122e+01 9.794789e+00 5.173722e+00 4.795069e+00 7.366112e+00 4.821123e+00 3.165567e+00 7.275651e+00 8.251386e+00 5.710225e+00 5.354559e+00 3.918773e+00 3.352699e+00 2.548089e+00 1.135999e+00 2.088687e+00 1.040540e+00 1.295774e+00 1.792836e+00 5.457268e-01 9.826096e-01 2.426576e+00 9.061458e-01 1.579525e+00 7.402691e-01 6.839392e-01 3.765801e-01 3.332963e-01
<GCONST> 1.392310e+02
<STATE> 4
<MEAN> 39
 1.706879e+00 -9.343077e+00 5.323133e+00 -8.643831e+00 4.882045e+00 -1.866063e+01 -1.638421e+01 -9.591380e+00 -1.704561e+01 3.493339e+00 -4.909343e+00 -2.083130e+00 7.758585e+01 1.134904e+00 8.025704e-02 -2.568110e+00 -1.691355e+00 -3.426274e-01 3.769257e-01 1.206456e+00 1.222387e+00 -6.368019e-02 2.754397e-01 1.162464e+00 9.550036e-01 2.583351e-01 -5.234377e-01 2.089001e-01 4.798444e-01 -1.088288e-01 -2.252093e-01 6.175440e-01 5.279115e-01 4.593359e-01 1.708400e-01 -3.783872e-01 -1.169999e-02 -3.447220e-02 -3.231465e-01
<VARIANCE> 39
 5.762843e+00 1.947628e+01 3.003920e+01 4.177603e+01 1.939191e+01 5.939617e+01 1.329898e+02 4.006536e+01 4.539309e+01 6.139669e+01 3.212619e+01 2.108129e+01 7.991962e+00 1.198853e+00 1.118945e+00 2.321932e+00 2.182157e+00 1.583729e+00 4.306286e+00 2.868204e+00 3.244022e+00 3.698334e+00 3.844595e+00 1.957551e+00 1.524719e+00 6.314398e-01 4.127329e-01 2.509917e-01 3.835796e-01 7.079014e-01 2.769893e-01 7.231996e-01 1.108347e+00 5.207042e-01 9.712650e-01 5.986876e-01 5.554417e-01 3.198355e-01 8.436742e-02
<GCONST> 1.145757e+02
<TRANSP> 5
 0.000000e+00 1.000000e+00 0.000000e+00 0.000000e+00 0.000000e+00
 0.000000e+00 8.175463e-01 1.824537e-01 0.000000e+00 0.000000e+00
 0.000000e+00 0.000000e+00 6.970249e-01 3.029752e-01 0.000000e+00
 0.000000e+00 0.000000e+00 0.000000e+00 7.793571e-01 2.206430e-01
 0.000000e+00 0.000000e+00 0.000000e+00 0.000000e+00 0.000000e+00
<ENDHMM>
~h "k"
<BEGINHMM>
<NUMSTATES> 5
<STATE> 2
<MEAN> 39
 -7.245076e+00 -2.844318e+00 -1.079906e+00 -1.285624e+01 -7.439462e+00 1.249480e-01 -3.786358e+00 -3.095414e+00 -1.080102e+01 5.217399e-01 -1.622907e+00 2.811129e+00 6.244651e+01 9.047754e-01 -1.347512e+00 7.743761e-03 -1.825531e+00 2.022034e-01 -4.739701e-01 6.370537e-01 -5.703505e-01 -5.410606e-01 2.015558e-01 -5.266421e-01 -2.148032e-01 2.006754e+00 5.825211e-01 5.035788e-02 -2.087932e-01 3.323702e-01 -9.802492e-02 -3.768102e-01 -3.138424e-01 1.231981e-01 2.250546e-02 -2.147575e-02 -3.386655e-02 -2.206149e-01 2.433996e-01
<VARIANCE> 39
 3.111551e+01 8.010223e+01 3.237211e+01 1.540464e+02 7.010427e+01 5.184656e+01 9.606445e+01 6.123874e+01 4.559135e+01 3.546822e+01 2.675331e+01 3.123655e+01 8.114784e+01 6.459214e+00 9.327946e+00 4.805634e+00 1.885092e+01 6.491998e+00 8.302485e+00 1.117703e+01 6.008841e+00 5.970711e+00 3.564392e+00 3.312119e+00 4.155208e+00 9.567160e+00 5.943046e-01 2.013883e+00 1.079808e+00 4.122455e+00 1.355426e+00 1.273665e+00 2.179878e+00 1.261416e+00 1.067214e+00 7.679027e-01 6.993538e-01 7.515150e-01 1.827945e+00
<GCONST> 1.511323e+02
<STATE> 3
<MEAN> 39
 4.625732e+00 -7.877555e+00 -4.066031e+00 -1.457220e+01 -6.870765e+00 -3.553108e+00 -1.284525e+01 -5.022420e+00 -6.768543e+00 3.095338e+00 -3.489181e+00 -1.711739e+00 7.290370e+01 1.164748e+00 -4.016729e-01 -9.799572e-01 7.705840e-01 -3.118484e-01 -5.508403e-01 -1.543849e-01 2.832221e-01 6.368154e-01 4.065666e-01 2.629316e-01 -4.611329e-01 5.447522e-01 -6.481568e-01 2.335919e-03 2.110736e-01 -2.783449e-01 2.202186e-01 1.255428e-01 5.031477e-01 8.649369e-02 -1.347710e-01 -1.189341e-01 1.116739e-01 3.897939e-01 -2.622968e-01
<VARIANCE> 39
 2.344127e+01 3.331165e+01 3.438520e+01 6.586565e+01 7.749002e+01 1.540950e+02 1.375503e+02 3.921267e+01 1.189010e+02 3.946910e+01 3.728014e+01 3.444704e+01 3.235204e+01 3.901983e+00 2.769809e+00 3.028638e+00 5.045233e+00 3.529167e+00 5.745575e+00 6.359743e+00 3.864804e+00 3.504028e+00 3.495777e+00 3.205581e+00 3.203252e+00 2.293926e+00 6.291910e-01 5.059481e-01 4.903003e-01 8.046209e-01 5.294993e-01 9.602228e-01 8.262479e-01 5.029482e-01 6.737281e-01 3.245015e-01 5.290936e-01 5.733457e-01 3.356413e-01
<GCONST> 1.326807e+02
<STATE> 4
<MEAN> 39
 5.849669e+00 -3.703451e+00 -9.459332e+00 -1.142513e+01 -8.613348e+00 -1.666862e+00 -7.573987e+00 -1.294178e+00 -4.187433e+00 7.706015e-01 -4.984486e-01 2.043761e+00 6.931441e+01 -6.556257e-02 2.453482e-01 -7.012282e-02 -3.300370e-02 3.111962e-01 -2.221730e-01 1.881424e-01 5.477030e-01 3.373153e-02 -3.435651e-01 -1.292998e-01 2.305922e-01 -9.163538e-02 -1.223854e-01 9.006044e-02 1.691023e-01 -1.229997e-01 6.448177e-02 9.074289e-02 -3.527625e-02 -1.329750e-02 -1.688606e-01 -7.230794e-02 -7.247709e-02 -6.551809e-03 -6.536879e-02
<VARIANCE> 39
 2.337175e+01 5.755418e+01 5.824503e+01 6.752788e+01 5.499405e+01 1.199730e+02 7.085705e+01 4.820483e+01 9.103439e+01 3.544477e+01 2.916715e+01 3.329548e+01 4.417247e+01 6.891603e-01 1.731905e+00 1.404048e+00 2.589190e+00 1.740514e+00 3.058254e+00 2.682532e+00 2.175978e+00 2.556734e+00 2.091144e+00 1.443537e+00 1.764981e+00 9.830815e-01 1.661365e-01 3.738641e-01 2.760358e-01 3.459805e-01 2.282069e-01 5.110250e-01 4.751898e-01 3.337598e-01 4.480410e-01 3.351271e-01 2.343239e-01 2.443702e-01 2.108650e-01
<GCONST> 1.149032e+02
<TRANSP> 5
 0.000000e+00 1.000000e+00 0.000000e+00 0.000000e+00 0.000000e+00
 0.000000e+00 8.264444e-01 1.735557e-01 0.000000e+00 0.000000e+00
 0.000000e+00 0.000000e+00 6.953679e-01 3.046321e-01 0.000000e+00
 0.000000e+00 0.000000e+00 0.000000e+00 6.923978e-01 3.076023e-01
 0.000000e+00 0.000000e+00 0.000000e+00 0.000000e+00 0.000000e+00
<ENDHMM>
~h "l"
<BEGINHMM>
<NUMSTATES> 5
<STATE> 2
<MEAN> 39
 3.511564e+00 -1.456103e+00 3.799426e-01 -7.200106e+00 -1.823973e+00 -7.260214e+00 -1.165855e+01 9.335949e-01 -1.864308e+01 -7.067298e+00 -1.422541e+00 1.267124e+00 6.966528e+01 3.603192e-01 -7.038147e-01 -7.104462e-01 -9.637563e-01 2.982851e-01 -8.685792e-01 2.832834e-01 3.630570e-02 5.105634e-01 6.488826e-01 7.992749e-01 2.213386e-01 8.976446e-01 -4.219646e-02 -2.987237e-02 -2.164209e-02 2.379795e-02 1.609397e-02 -7.720491e-02 9.263846e-02 -8.295950e-02 2.220275e-01 2.371034e-01 -9.833751e-03 -6.164113e-02 1.536558e-02
<VARIANCE> 39
 2.949977e+01 3.527323e+01 5.447209e+01 7.347356e+01 8.654987e+01 7.177029e+01 8.522918e+01 7.187700e+01 1.036775e+02 8.270362e+01 7.241521e+01 4.125402e+01 3.948673e+01 1.886053e+00 2.441821e+00 3.531404e+00 3.942866e+00 4.128445e+00 5.071718e+00 3.317675e+00 4.037903e+00 7.608887e+00 4.677246e+00 3.119186e+00 3.073812e+00 2.305313e+00 3.267905e-01 3.518627e-01 5.795559e-01 7.034147e-01 6.590844e-01 8.466355e-01 5.585566e-01 6.200636e-01 1.043280e+00 6.637931e-01 5.867249e-01 5.515785e-01 3.562447e-01
<GCONST> 1.343419e+02
<STATE> 3
<MEAN> 39
 3.888920e+00 -3.955072e+00 -1.622927e-01 -1.660319e+01 4.586561e+00 -9.747097e+00 -1.745398e+01 1.876923e+00 -1.281755e+01 -4.827177e+00 -4.210706e+00 5.410433e+00 7.442854e+01 -6.346977e-02 -5.646291e-01 -7.163869e-02 -4.268759e-01 -6.645153e-01 2.521092e-02 6.854432e-01 -1.090545e-01 6.851875e-01 7.009369e-01 3.803545e-01 -6.474762e-02 2.973804e-01 -4.028249e-03 1.060892e-01 6.531270e-02 1.944503e-01 -1.412388e-01 1.000653e-01 9.637481e-03 -8.415291e-02 -1.212543e-01 -7.476539e-02 -8.134613e-02 -1.514067e-01 -1.148585e-01
<VARIANCE> 39
 7.550042e+00 2.918255e+01 2.353642e+01 7.688733e+01 6.698157e+01 6.268238e+01 8.423161e+01 5.232159e+01 6.546877e+01 4.690155e+01 7.298652e+01 4.634575e+01 2.160483e+01 1.843218e-01 1.229316e+00 8.775296e-01 2.286831e+00 1.399965e+00 2.588768e+00 2.264134e+00 1.883374e+00 2.348167e+00 1.965111e+00 2.564710e+00 2.039221e+00 5.053250e-01 4.411929e-02 1.586292e-01 1.900614e-01 4.389890e-01 2.718722e-01 4.906257e-01 3.769527e-01 3.408488e-01 5.337012e-01 4.225945e-01 5.168544e-01 3.377048e-01 8.938425e-02
<GCONST> 1.078246e+02
<STATE> 4
<MEAN> 39
 4.545760e+00 -4.996031e+00 -3.797857e+00 -1.188282e+01 -3.565957e+00 -1.438137e+01 -4.044102e+00 1.243472e+00 -1.496383e+01 9.013782e-02 -2.725422e+00 1.814738e-01 7.376297e+01 -1.200716e-01 1.693515e-01 2.141818e-03 2.631728e-01 -2.166571e-01 2.013166e-02 3.790968e-02 -5.408397e-01 2.193979e-01 3.101178e-01 -1.422097e-01 -2.013215e-01 -2.140780e-01 -5.394059e-02 1.470838e-01 1.188029e-01 6.172079e-02 4.233242e-02 4.471106e-02 -1.583462e-01 -1.646722e-02 -7.472128e-02 -1.098629e-01 -2.444178e-02 3.637061e-03 -1.085717e-01
<VARIANCE> 39
 9.659978e+00 3.799870e+01 2.960416e+01 5.910320e+01 6.739474e+01 9.250845e+01 1.138127e+02 8.051976e+01 1.109975e+02 6.778133e+01 4.781399e+01 2.773676e+01 2.840206e+01 2.077522e-01 9.017791e-01 7.813301e-01 1.041701e+00 1.219288e+00 1.448659e+00 1.603190e+00 2.112641e+00 1.891369e+00 1.616092e+00 1.259915e+00 1.207816e+00 3.162269e-01 3.341629e-02 1.217385e-01 1.153268e-01 1.732846e-01 1.935057e-01 2.476159e-01 2.469115e-01 2.782283e-01 2.863812e-01 2.732983e-01 2.074643e-01 2.014028e-01 4.328421e-02
<GCONST> 9.867060e+01
<TRANSP> 5
 0.000000e+00 1.000000e+00 0.000000e+00 0.000000e+00 0.000000e+00
 0.000000e+00 7.140875e-01 2.859125e-01 0.000000e+00 0.000000e+00
 0.000000e+00 0.000000e+00 7.223352e-01 2.776649e-01 0.000000e+00
 0.000000e+00 0.000000e+00 0.000000e+00 8.355501e-01 1.644499e-01
 0.000000e+00 0.000000e+00 0.000000e+00 0.000000e+00 0.000000e+00
<ENDHMM>
~h "m"
<BEGINHMM>
<NUMSTATES> 5
<STATE> 2
<MEAN> 39
 3.290578e+00 6.852266e+00 1.197978e+00 -4.726285e+00 1.890808e+00 -4.462194e+00 -1.312215e+01 1.202427e+00 -1.838753e+01 -7.160494e+00 -1.299086e+01 -4.364464e+00 6.481194e+01 -5.589517e-02 8.845817e-01 4.317177e-01 1.039024e+00 1.790023e-01 5.117888e-01 -5.976074e-01 -1.785129e-01 2.346148e-01 -1.817512e-01 -5.993884e-01 -2.530571e-01 -6.804953e-01 -8.013885e-03 -3.399822e-01 -4.182096e-02 -2.164395e-01 -2.289302e-01 -2.840835e-01 1.383584e-01 -3.780755e-02 8.674745e-02 1.376557e-01 3.165824e-01 1.822501e-01 2.363910e-01
<VARIANCE> 39
 8.912107e+00 1.787868e+01 1.613058e+01 6.140083e+01 7.466637e+01 4.368565e+01 4.899712e+01 5.257568e+01 4.246819e+01 2.557765e+01 3.984804e+01 2.220535e+01 1.081393e+01 7.445197e-01 1.374424e+00 1.113316e+00 2.585131e+00 2.493346e+00 3.179725e+00 2.285530e+00 2.460467e+00 2.289502e+00 3.165247e+00 2.265684e+00 1.714207e+00 8.762473e-01 6.120007e-02 2.267814e-01 1.809573e-01 4.374743e-01 4.107669e-01 4.259702e-01 4.019721e-01 4.490589e-01 3.868549e-01 4.345047e-01 3.518140e-01 2.781584e-01 1.090047e-01
<GCONST> 1.072374e+02
<STATE> 3
<MEAN> 39
 2.184102e+00 6.064381e+00 3.357004e+00 -3.086012e+00 3.124284e+00 -5.814145e+00 -1.710956e+01 1.038362e+00 -1.489740e+01 -5.879090e+00 -1.007397e+01 -2.921731e+00 6.488946e+01 9.435783e-02 -6.268421e-01 2.114859e-01 2.396159e-01 -3.693897e-01 -6.002206e-01 1.064683e-01 1.208584e-01 2.113209e-01 1.679984e-01 2.065465e-01 -4.185663e-02 4.185649e-01 -2.520196e-01 -3.420592e-01 6.406946e-02 -2.251912e-01 -2.549907e-01 4.251372e-02 4.373068e-01 4.529854e-02 2.015206e-01 1.835662e-01 2.864355e-01 1.563957e-01 7.388262e-02
<VARIANCE> 39
 1.671047e+01 5.474342e+01 5.324594e+01 8.650661e+01 7.252956e+01 8.552641e+01 7.846540e+01 6.868019e+01 5.578038e+01 4.762226e+01 5.485332e+01 2.975791e+01 2.612126e+01 2.525676e+00 5.260076e+00 5.316295e+00 5.560206e+00 5.650654e+00 6.348912e+00 7.075718e+00 5.649954e+00 4.239740e+00 4.037024e+00 4.152302e+00 2.374048e+00 2.862340e+00 3.725655e-01 1.089059e+00 9.825259e-01 8.364534e-01 9.460488e-01 1.033894e+00 1.291088e+00 1.095079e+00 8.193229e-01 7.966332e-01 8.883061e-01 4.861859e-01 3.533661e-01
<GCONST> 1.391420e+02
<STATE> 4
<MEAN> 39
 2.013561e+00 5.611168e+00 2.500685e+00 5.456603e-01 -2.232677e+00 -5.667010e+00 -1.253115e+01 -1.950925e-01 -1.388914e+01 -5.015019e+00 -1.024196e+01 -3.322358e+00 6.346783e+01 -3.998280e-01 -2.342503e-01 1.246375e-01 -3.607369e-01 -7.216260e-01 3.851294e-01 7.732375e-01 -8.448114e-02 4.650995e-01 3.402565e-01 8.792029e-01 5.639674e-01 -1.027958e-01 -1.302540e-01 -3.013315e-01 -6.927786e-02 -3.775192e-01 1.000939e-01 4.995520e-02 1.472892e-01 3.224887e-02 -3.353596e-02 -4.585058e-03 2.066214e-01 1.113883e-01 1.657494e-01
<VARIANCE> 39
 2.074607e+01 5.042633e+01 4.519579e+01 6.864594e+01 4.275164e+01 6.069411e+01 4.504893e+01 5.647165e+01 5.274158e+01 3.516119e+01 4.459789e+01 2.891738e+01 2.486164e+01 1.776796e+00 3.584008e+00 3.661279e+00 5.008031e+00 3.075625e+00 3.697681e+00 3.551721e+00 4.319029e+00 3.375006e+00 2.482150e+00 2.878580e+00 1.929167e+00 2.023651e+00 2.600211e-01 5.636284e-01 4.575561e-01 6.628447e-01 4.095319e-01 6.023351e-01 5.797216e-01 5.840074e-01 5.874311e-01 4.626034e-01 4.738286e-01 3.344064e-01 2.757510e-01
<GCONST> 1.247106e+02
<TRANSP> 5
 0.000000e+00 1.000000e+00 0.000000e+00 0.000000e+00 0.000000e+00
 0.000000e+00 7.852837e-01 2.147162e-01 0.000000e+00 0.000000e+00
 0.000000e+00 0.000000e+00 5.131074e-01 4.868926e-01 0.000000e+00
 0.000000e+00 0.000000e+00 0.000000e+00 6.374902e-01 3.625097e-01
 0.000000e+00 0.000000e+00 0.000000e+00 0.000000e+00 0.000000e+00
<ENDHMM>
~h "n"
<BEGINHMM>
<NUMSTATES> 5
<STATE> 2
<MEAN> 39
 2.632393e+00 5.379335e+00 1.976573e+00 -9.976327e-01 -5.658687e-01 -6.416351e+00 -1.757440e+01 -1.708843e+00 -1.266400e+01 -3.618359e+00 -5.424947e+00 -1.176711e+00 6.449973e+01 7.802201e-02 1.509447e+00 2.109289e-01 1.713739e+00 -7.382013e-01 8.906553e-01 -7.026192e-01 -3.513376e-01 5.024777e-01 -3.393388e-01 -6.820532e-01 -2.467355e-01 -1.326337e+00 -4.862967e-02 -4.422937e-01 -9.005813e-02 -5.295013e-01 2.296377e-02 -3.683252e-01 3.981994e-01 -1.578196e-03 3.959575e-02 1.524141e-01 1.759246e-01 4.623472e-02 3.997260e-01
<VARIANCE> 39
 1.409011e+01 2.533946e+01 2.830529e+01 6.926339e+01 4.754892e+01 6.404886e+01 4.862090e+01 4.920424e+01 5.432296e+01 3.356053e+01 3.550197e+01 3.074519e+01 1.393992e+01 5.209786e-01 1.599606e+00 1.703232e+00 3.251227e+00 2.378542e+00 3.120472e+00 3.771973e+00 3.680722e+00 2.862421e+00 2.601516e+00 2.602542e+00 2.569559e+00 8.809084e-01 7.651430e-02 2.150986e-01 2.393253e-01 4.636345e-01 3.870704e-01 4.803753e-01 4.457796e-01 5.526151e-01 3.614756e-01 4.465807e-01 4.139240e-01 2.907708e-01 1.228158e-01
<GCONST> 1.125945e+02
<STATE> 3
<MEAN> 39
 2.765359e+00 6.852661e+00 2.246619e+00 -9.172657e-01 -2.457538e+00 -7.878500e+00 -1.842614e+01 -2.224587e+00 -1.268599e+01 -4.859569e+00 -8.547298e+00 -2.900173e+00 6.382737e+01 -1.476050e-01 6.634866e-01 2.836474e-01 1.926962e-01 -2.780528e-01 3.663022e-01 1.548993e-01 -1.761981e-01 2.936631e-02 -9.298685e-02 -1.240318e-01 -7.401055e-04 -4.735660e-01 -9.013417e-02 -1.227126e-01 6.281835e-02 -1.176767e-01 6.790239e-02 -1.193612e-02 1.994843e-01 2.712774e-02 -9.246815e-02 4.560449e-02 1.048344e-01 4.551900e-02 7.180429e-02
<VARIANCE> 39
 1.242262e+01 1.987049e+01 2.548146e+01 7.414629e+01 6.909254e+01 6.222020e+01 4.900296e+01 7.274979e+01 5.026905e+01 2.631702e+01 3.826078e+01 5.199049e+01 1.239593e+01 2.403578e-01 4.710640e-01 5.791806e-01 1.023544e+00 9.820282e-01 1.251284e+00 1.379757e+00 1.218826e+00 1.401987e+00 1.279132e+00 1.227365e+00 9.437271e-01 1.741833e-01 3.855003e-02 1.028131e-01 1.207099e-01 2.433872e-01 2.213831e-01 2.722112e-01 2.725473e-01 2.738494e-01 2.449262e-01 2.619914e-01 2.376587e-01 2.151682e-01 4.563674e-02
<GCONST> 9.231458e+01
<STATE> 4
<MEAN> 39
 -8.406442e-01 9.646891e+00 4.820656e+00 4.601439e+00 -2.475177e+00 -2.451445e+00 -1.460570e+01 -3.410411e+00 -1.098743e+01 -2.757755e+00 -5.494223e+00 -9.907700e-01 5.885319e+01 -6.057754e-01 -7.417984e-02 2.130782e-03 1.844796e-01 -4.463631e-02 5.090985e-01 7.017108e-01 2.576736e-01 2.039870e-01 2.090422e-01 1.489709e-01 3.088480e-02 -5.089766e-01 -7.640205e-02 -2.100042e-01 -1.010982e-01 -1.110622e-01 2.560697e-02 -4.391500e-02 8.219943e-02 8.278468e-02 8.270223e-02 7.201829e-02 5.273462e-02 3.443890e-02 5.491233e-02
<VARIANCE> 39
 2.399635e+01 1.745938e+01 1.863830e+01 3.991200e+01 2.679659e+01 4.599827e+01 3.174088e+01 3.400497e+01 3.060423e+01 2.358449e+01 2.841763e+01 1.965309e+01 1.452423e+01 4.318082e-01 8.855504e-01 9.338076e-01 8.850617e-01 1.057779e+00 1.301114e+00 1.329116e+00 1.338476e+00 1.414745e+00 1.261223e+00 1.189535e+00 9.993504e-01 1.784148e-01 5.629433e-02 1.417919e-01 1.317455e-01 1.925244e-01 2.102535e-01 2.617447e-01 2.378797e-01 2.336295e-01 2.437606e-01 2.080311e-01 2.062178e-01 1.859522e-01 4.260305e-02
<GCONST> 8.908915e+01
<TRANSP> 5
 0.000000e+00 1.000000e+00 0.000000e+00 0.000000e+00 0.000000e+00
 0.000000e+00 5.764993e-01 4.235007e-01 0.000000e+00 0.000000e+00
 0.000000e+00 0.000000e+00 6.772814e-01 3.227185e-01 0.000000e+00
 0.000000e+00 0.000000e+00 0.000000e+00 7.493519e-01 2.506481e-01
 0.000000e+00 0.000000e+00 0.000000e+00 0.000000e+00 0.000000e+00
<ENDHMM>
~h "o"
<BEGINHMM>
<NUMSTATES> 5
<STATE> 2
<MEAN> 39
 5.904809e+00 7.716164e+00 -8.327011e-01 -1.005994e+01 -1.026607e+01 -1.360686e+01 -9.601462e+00 1.247043e+01 -1.208139e+01 -5.645568e+00 -8.868939e+00 -5.089781e+00 6.599392e+01 1.764172e-01 6.281950e-02 -2.776432e-01 1.292672e-01 9.407797e-01 2.756795e-01 -5.613161e-01 -1.550782e-01 -4.597367e-02 -3.915260e-01 -2.209610e-01 4.548955e-01 6.610043e-02 -1.065557e-01 -4.754357e-02 3.242281e-02 2.129477e-01 1.112650e-01 2.166832e-01 -1.132652e-01 -3.089270e-01 7.809711e-02 1.228504e-01 7.757956e-02 7.328629e-02 -9.123268e-02
<VARIANCE> 39
 8.220480e+00 2.833107e+01 2.263576e+01 7.878534e+01 7.199252e+01 8.245928e+01 5.599248e+01 4.943398e+01 6.554980e+01 4.438931e+01 2.479688e+01 2.965780e+01 1.061744e+01 1.230562e+00 1.606874e+00 2.076480e+00 6.708463e+00 4.269898e+00 4.087217e+00 4.780315e+00 7.087189e+00 4.631710e+00 2.766596e+00 2.696844e+00 2.826678e+00 9.852085e-01 1.715636e-01 3.197476e-01 4.480503e-01 1.197589e+00 7.689703e-01 6.767775e-01 1.061305e+00 1.319018e+00 9.106029e-01 6.040149e-01 5.141758e-01 5.011945e-01 1.572451e-01
<GCONST> 1.247864e+02
<STATE> 3
<MEAN> 39
 4.786011e+00 7.124262e+00 -2.774510e-01 -1.156819e+00 2.626026e+00 -5.895290e+00 -2.042516e+01 -6.405071e-01 -1.242575e+01 -6.036407e+00 -7.712258e+00 -1.698412e-01 6.452199e+01 -6.366233e-01 -4.950449e-01 1.843345e+00 2.918502e+00 -2.453988e-02 -1.447540e+00 -1.052151e+00 -6.412372e-01 6.879036e-01 7.388588e-01 3.972438e-01 -1.186208e+00 -1.805102e-01 -1.557876e-01 -5.194561e-01 3.029149e-01 -3.767154e-01 -1.427647e-01 -1.010343e+00 4.436598e-01 8.763180e-01 -1.603134e-01 -1.856362e-01 3.065498e-02 -2.661680e-01 4.254615e-01
<VARIANCE> 39
 3.080720e+00 2.973263e+01 3.103502e+01 7.626718e+01 5.722857e+01 4.517082e+01 1.905474e+01 3.913721e+01 8.920151e+00 2.602538e+01 2.557192e+01 2.825509e+01 1.091054e+01 2.483279e-01 6.692754e+00 1.355124e+00 3.148138e+00 4.607038e+00 7.359704e+00 4.069202e+00 8.338836e+00 2.744954e+00 3.573502e+00 4.104752e+00 2.894166e+00 2.611797e+00 4.904580e-02 1.391875e+00 3.990473e-01 8.534672e-01 1.282902e+00 6.351150e-01 7.859198e-01 1.014435e+00 3.252094e-01 6.667720e-01 1.037187e+00 8.894333e-01 4.576221e-01
<GCONST> 1.209968e+02
<STATE> 4
<MEAN> 39
 -1.138922e+00 -3.120811e+00 1.097534e+01 9.346691e+00 4.215063e+00 -2.287427e+01 -2.225527e+01 2.636274e+00 -1.113716e+01 -5.055665e+00 -4.840451e+00 -3.948690e+00 6.853812e+01 -7.765105e-01 -3.757657e-01 7.206455e-01 9.543230e-02 7.676488e-01 -1.452279e+00 -3.013248e-02 1.355850e-01 1.645649e-01 5.848983e-01 -2.515887e-01 2.677332e-01 1.026563e-01 1.602048e-01 6.135635e-01 -3.895058e-01 -3.489869e-01 -1.277971e-01 8.864856e-01 -1.194100e-02 -3.749256e-01 2.248022e-02 1.641017e-01 -9.039270e-02 2.156971e-01 -3.602081e-01
<VARIANCE> 39
 1.553168e+01 3.498461e+01 2.758987e+01 8.989208e+01 4.061251e+01 1.358448e+02 7.143025e+01 6.737048e+01 9.909266e+00 2.431777e+01 2.259232e+01 1.528821e+01 1.901329e+01 4.544119e-01 6.605281e+00 4.398640e+00 3.757250e+00 2.665831e+00 9.359919e+00 4.878543e+00 2.777841e+00 9.789962e-01 2.207750e+00 3.084390e+00 1.419410e+00 2.654468e+00 7.978828e-02 8.719559e-01 3.332317e-01 4.589269e-01 6.983370e-01 1.175634e+00 8.495827e-01 6.469544e-01 2.036045e-01 4.064091e-01 5.491590e-01 2.415299e-01 2.782679e-01
<GCONST> 1.189810e+02
<TRANSP> 5
 0.000000e+00 1.000000e+00 0.000000e+00 0.000000e+00 0.000000e+00
 0.000000e+00 9.392618e-01 6.073815e-02 0.000000e+00 0.000000e+00
 0.000000e+00 0.000000e+00 8.082272e-01 1.917728e-01 0.000000e+00
 0.000000e+00 0.000000e+00 0.000000e+00 8.262044e-01 1.737955e-01
 0.000000e+00 0.000000e+00 0.000000e+00 0.000000e+00 0.000000e+00
<ENDHMM>
~h "p"
<BEGINHMM>
<NUMSTATES> 5
<STATE> 2
<MEAN> 39
 1.575278e-01 5.498820e-03 -1.395968e+00 -8.454366e-01 -2.245721e+00 -5.398728e+00 -1.576144e+01 -5.204144e+00 -7.375291e+00 3.767503e+00 -3.283469e+00 -2.822481e+00 6.391991e+01 -6.615732e-01 3.916954e-01 -4.353904e-02 9.185670e-01 -1.836441e-01 7.711338e-01 1.483113e-01 -3.290857e-01 3.369103e-01 5.029048e-01 3.870786e-01 1.449731e-01 -1.034424e+00 -1.497593e-01 -6.410218e-02 -8.417578e-02 -2.097152e-01 -8.163145e-02 -9.249859e-02 8.222514e-02 9.516246e-02 -9.884283e-02 -7.046861e-02 9.300689e-02 1.258054e-01 -6.335203e-02
<VARIANCE> 39
 4.222020e+01 5.701394e+01 3.657070e+01 6.359607e+01 4.539361e+01 1.107041e+02 9.909324e+01 7.118466e+01 7.098883e+01 5.758933e+01 2.981075e+01 3.382678e+01 5.403392e+01 4.008145e+00 3.266850e+00 2.719422e+00 3.372443e+00 2.895665e+00 7.929570e+00 4.252956e+00 4.510944e+00 4.834859e+00 3.379410e+00 2.488387e+00 3.173229e+00 5.848765e+00 4.342369e-01 5.080276e-01 5.117760e-01 5.695425e-01 4.777760e-01 1.057728e+00 6.747726e-01 6.677799e-01 7.536511e-01 4.788901e-01 3.537667e-01 4.831659e-01 5.195982e-01
<GCONST> 1.336585e+02
<STATE> 3
<MEAN> 39
 -1.365742e+00 3.822184e+00 -1.532321e+00 -6.861179e-01 -5.694289e+00 -1.497853e+00 -1.061324e+01 -6.271601e-01 -9.089191e+00 -2.899258e-01 -3.123404e+00 -2.047304e+00 5.988136e+01 -1.406028e+00 2.951685e-01 -1.874387e-01 3.996557e-01 -4.509122e-01 6.836916e-01 4.287856e-01 -4.839559e-01 4.272110e-01 4.465179e-01 5.971552e-01 8.076033e-01 -1.476302e+00 1.123446e-01 -2.921047e-01 -4.658666e-02 -5.164068e-01 -4.780837e-02 -5.344737e-01 -1.497448e-01 1.952807e-01 -2.138724e-01 -2.062467e-01 -1.369107e-01 1.394811e-02 3.712771e-01
<VARIANCE> 39
 2.129853e+01 5.253443e+01 3.122025e+01 6.133169e+01 6.497443e+01 5.315910e+01 9.370805e+01 5.099324e+01 5.475464e+01 5.098129e+01 3.936635e+01 3.627887e+01 2.221846e+01 1.503449e+00 1.902727e+00 1.652226e+00 2.158171e+00 2.367579e+00 2.874650e+00 3.741369e+00 2.083283e+00 2.531044e+00 1.889041e+00 2.672302e+00 1.647130e+00 1.041816e+00 1.415243e-01 4.622510e-01 3.678313e-01 6.248199e-01 5.249164e-01 6.609185e-01 6.997014e-01 6.302790e-01 5.739318e-01 4.460317e-01 4.900005e-01 4.382652e-01 2.710152e-01
<GCONST> 1.202734e+02
<STATE> 4
<MEAN> 39
 -5.414885e+00 5.489795e+00 -2.537838e+00 -2.161040e+00 -8.324715e+00 -2.355199e-01 -8.559868e+00 5.832633e-01 -7.071216e+00 1.218865e-01 -2.102095e+00 1.152102e+00 5.549583e+01 -7.603320e-01 -2.423657e-01 3.801122e-02 3.252105e-02 -2.239453e-01 -1.088148e-03 1.187192e-01 1.583448e-01 1.953633e-01 2.126740e-01 1.065753e-01 1.538077e-01 -5.174952e-01 2.268821e-01 -2.380263e-01 1.514767e-01 -2.561709e-01 1.324018e-01 -1.465710e-01 -1.034779e-01 1.302821e-01 -1.173232e-01 -1.489636e-01 -1.425191e-01 -1.334964e-01 4.338312e-01
<VARIANCE> 39
 2.246217e+01 1.857225e+01 2.488749e+01 5.230679e+01 3.718693e+01 2.315966e+01 3.390793e+01 2.312463e+01 2.514563e+01 2.105502e+01 1.755065e+01 2.362501e+01 1.591386e+01 5.184635e-01 9.453399e-01 9.215728e-01 1.490546e+00 1.521383e+00 1.318753e+00 1.971514e+00 1.768393e+00 1.417907e+00 1.335083e+00 1.402323e+00 1.427635e+00 3.320358e-01 1.776750e-01 2.742323e-01 2.609526e-01 5.018521e-01 3.372150e-01 4.012502e-01 4.002930e-01 4.708363e-01 3.587277e-01 3.257900e-01 3.141946e-01 3.288874e-01 2.759130e-01
<GCONST> 1.007233e+02
<TRANSP> 5
 0.000000e+00 1.000000e+00 0.000000e+00 0.000000e+00 0.000000e+00
 0.000000e+00 6.784379e-01 3.215621e-01 0.000000e+00 0.000000e+00
 0.000000e+00 0.000000e+00 2.579275e-01 7.420725e-01 0.000000e+00
 0.000000e+00 0.000000e+00 0.000000e+00 7.538417e-01 2.461583e-01
 0.000000e+00 0.000000e+00 0.000000e+00 0.000000e+00 0.000000e+00
<ENDHMM>
~h "r"
<BEGINHMM>
<NUMSTATES> 5
<STATE> 2
<MEAN> 39
 -7.290033e+00 -2.279335e+00 8.758671e-01 -6.245803e+00 -2.209230e+00 -1.815410e+00 -1.007801e+01 -1.365298e+00 -1.081261e+01 1.558655e+00 -1.153841e+00 1.928584e+00 6.127887e+01 1.343574e+00 -4.128711e-01 -4.279082e-01 -8.096799e-01 5.499330e-01 -4.906916e-01 -8.681278e-01 -2.977507e-01 -4.147866e-01 -1.284699e-02 -1.160936e-02 -1.159676e-01 1.385385e+00 4.593537e-01 9.098244e-02 -4.027905e-01 -1.631945e-02 -7.929996e-02 -2.627434e-01 -1.579902e-01 6.282002e-02 7.727145e-02 -2.115852e-01 2.530890e-02 -1.258485e-01 2.198387e-01
<VARIANCE> 39
 6.324613e+01 6.568037e+01 9.828963e+01 9.251317e+01 8.177698e+01 7.125508e+01 6.989752e+01 4.463522e+01 6.034584e+01 4.116520e+01 4.180457e+01 2.273583e+01 6.747169e+01 6.786641e+00 7.505110e+00 9.879392e+00 8.789335e+00 7.617125e+00 8.360524e+00 9.550340e+00 5.448323e+00 6.489687e+00 4.292098e+00 5.292736e+00 3.223303e+00 6.699366e+00 9.597110e-01 1.387518e+00 1.623430e+00 1.503316e+00 1.270413e+00 1.249105e+00 1.933887e+00 9.920447e-01 1.409094e+00 8.657597e-01 9.131127e-01 6.343771e-01 6.779628e-01
<GCONST> 1.508486e+02
<STATE> 3
<MEAN> 39
 3.642040e+00 -3.014657e+00 -3.417070e+00 -1.023421e+01 -3.646816e+00 -4.733871e+00 -1.383730e+01 -9.945638e-01 -1.113072e+01 -2.966620e+00 -1.726692e-01 1.160951e+00 6.960963e+01 1.140314e+00 9.161556e-01 -1.111742e+00 4.273272e-01 2.416077e-01 1.516568e-01 -7.635126e-01 1.557854e-01 4.924605e-01 -5.077589e-01 1.040534e-01 6.338150e-02 -3.565677e-02 -4.791729e-01 -3.857264e-02 1.854112e-01 1.562474e-01 2.181946e-02 2.159223e-02 2.710610e-01 -8.739497e-03 1.474826e-01 5.494948e-02 -8.060300e-02 4.695684e-02 -2.665228e-01
<VARIANCE> 39
 3.831630e+01 6.032021e+01 9.242348e+01 7.985341e+01 7.895879e+01 5.668612e+01 6.195094e+01 4.435635e+01 4.702795e+01 4.013108e+01 7.939272e+01 2.969234e+01 3.207642e+01 4.361785e+00 5.910773e+00 4.786626e+00 4.871418e+00 5.104486e+00 5.956840e+00 6.444428e+00 5.602865e+00 5.801462e+00 3.609011e+00 4.496777e+00 2.958749e+00 4.550745e+00 6.464403e-01 1.119413e+00 9.472266e-01 9.972191e-01 6.977305e-01 1.190667e+00 1.100506e+00 9.170098e-01 1.125193e+00 6.816182e-01 9.237148e-01 6.366637e-01 6.035765e-01
<GCONST> 1.421179e+02
<STATE> 4
<MEAN> 39
 4.100909e-01 2.965168e+00 3.081301e-01 -2.524510e+00 -4.711092e+00 -3.915014e+00 -1.144597e+01 -3.505569e+00 -1.277457e+01 -1.239282e+00 -2.694103e+00 3.496684e-02 6.338276e+01 -1.137155e-01 1.625426e-01 -5.129430e-02 1.953859e-01 5.980675e-03 7.259422e-02 1.425372e-01 5.734403e-02 3.713527e-01 5.618903e-02 8.192708e-02 -1.686175e-02 -1.657978e-01 -2.386472e-01 -5.376592e-01 2.667419e-01 -4.380111e-01 9.674475e-02 -2.689316e-01 1.524669e-01 9.703786e-02 -4.159251e-02 -3.460268e-02 -4.365348e-02 -5.891646e-02 3.718931e-01
<VARIANCE> 39
 3.061698e+01 6.663885e+01 6.547810e+01 6.337649e+01 5.307563e+01 6.802328e+01 5.011778e+01 4.091542e+01 4.991983e+01 4.727686e+01 3.176257e+01 2.652732e+01 4.412067e+01 2.769185e+00 6.172217e+00 3.832939e+00 4.041889e+00 2.958419e+00 5.773865e+00 4.829769e+00 4.315745e+00 4.850934e+00 4.430383e+00 3.032383e+00 3.268210e+00 4.039214e+00 5.267027e-01 1.502843e+00 7.895842e-01 9.324431e-01 6.463350e-01 9.765059e-01 9.722070e-01 8.545739e-01 9.189271e-01 6.617641e-01 5.818937e-01 6.611426e-01 8.607605e-01
<GCONST> 1.371594e+02
<TRANSP> 5
 0.000000e+00 1.000000e+00 0.000000e+00 0.000000e+00 0.000000e+00
 0.000000e+00 6.601976e-01 3.398024e-01 0.000000e+00 0.000000e+00
 0.000000e+00 0.000000e+00 5.648612e-01 4.351387e-01 0.000000e+00
 0.000000e+00 0.000000e+00 0.000000e+00 7.042302e-01 2.957698e-01
 0.000000e+00 0.000000e+00 0.000000e+00 0.000000e+00 0.000000e+00
<ENDHMM>
~h "s"
<BEGINHMM>
<NUMSTATES> 5
<STATE> 2
<MEAN> 39
 -1.589754e+01 -6.601042e+00 1.619821e+01 -1.625087e+01 2.053087e+00 -3.597377e+00 -8.176105e+00 -6.544473e+00 -6.627687e+00 9.240235e-01 -4.246652e+00 4.427667e-01 6.876326e+01 -4.177887e+00 -1.639316e+00 2.942437e+00 -2.782184e+00 1.714268e+00 -1.325705e-01 2.181522e+00 -8.263431e-01 2.224561e+00 -1.329495e-01 4.961033e-01 3.681777e-01 1.546455e+00 4.649258e-02 1.467896e-01 -9.395214e-01 3.129038e-01 -3.276786e-02 -5.125485e-01 1.852442e-01 1.102465e-01 9.454937e-02 -1.656080e-01 2.267954e-01 -1.335140e-01 3.856365e-02
<VARIANCE> 39
 9.712160e+01 4.478926e+01 7.929684e+01 9.414420e+01 5.030383e+01 8.279419e+01 8.194163e+01 5.887748e+01 7.308669e+01 5.193438e+01 3.792992e+01 3.126377e+01 5.187424e+01 3.652152e+00 3.319126e+00 8.892935e+00 7.227448e+00 3.880476e+00 8.872984e+00 7.112725e+00 4.614218e+00 6.405607e+00 3.651826e+00 3.757647e+00 2.716015e+00 2.098555e+00 1.115476e+00 6.267523e-01 1.342608e+00 1.586442e+00 8.185226e-01 1.234053e+00 1.666679e+00 9.222835e-01 1.233319e+00 6.855860e-01 6.029204e-01 4.952228e-01 3.292657e-01
<GCONST> 1.433133e+02
<STATE> 3
<MEAN> 39
 -2.764816e+01 -1.017868e+01 1.658018e+01 -1.935733e+01 7.144731e+00 -7.149163e+00 -2.008449e+00 -8.327807e+00 -2.668855e-02 -7.150256e-01 -1.132825e+00 -2.877508e-01 7.332529e+01 3.643491e-01 -3.361381e-03 -5.901093e-01 4.510915e-01 -2.901010e-01 1.041574e-01 -1.972419e-01 2.466908e-01 -3.843962e-01 1.885558e-01 3.764722e-02 1.604781e-01 -4.310521e-01 8.875014e-01 2.683680e-01 -1.995046e-01 2.238196e-01 -2.971012e-01 1.101537e-01 -3.582488e-01 1.061898e-01 -5.402633e-01 7.833086e-02 -1.641241e-01 8.461380e-02 -2.577171e-01
<VARIANCE> 39
 1.431860e+01 4.709680e+01 2.707645e+01 3.226777e+01 3.070843e+01 2.226476e+01 3.717999e+01 3.417727e+01 2.428374e+01 4.115537e+01 2.466796e+01 2.234029e+01 1.289803e+01 4.734900e+00 1.506827e+00 1.898632e+00 1.541983e+00 1.800468e+00 1.879488e+00 2.446700e+00 1.898025e+00 2.723628e+00 1.784287e+00 1.721306e+00 1.451897e+00 1.157297e+00 5.492342e-01 4.120859e-01 3.383424e-01 3.382075e-01 3.425102e-01 4.811634e-01 5.116114e-01 4.059061e-01 5.683886e-01 3.667631e-01 3.584704e-01 2.930538e-01 1.330969e-01
<GCONST> 1.099852e+02
<STATE> 4
<MEAN> 39
 -1.423575e+01 -4.647429e+00 1.040339e+01 -1.253118e+01 1.915413e-01 -2.803172e+00 -8.080893e+00 -4.309587e+00 -7.594864e+00 2.380955e+00 -3.033675e+00 2.534693e+00 6.424293e+01 3.517274e+00 2.064548e+00 -1.858071e+00 1.201131e+00 -1.380188e+00 3.227851e-01 -1.372225e+00 5.279996e-01 -1.517685e+00 -4.707811e-01 -5.622717e-01 -9.114927e-02 -8.326039e-01 -1.606948e-02 -7.253093e-03 -4.889116e-02 -1.968679e-01 8.218324e-02 -2.952880e-01 1.920264e-01 -1.087982e-01 1.541871e-01 -2.860990e-01 -7.545387e-02 -1.514211e-01 4.847403e-01
<VARIANCE> 39
 6.374754e+01 7.196154e+01 5.648277e+01 5.160371e+01 3.843286e+01 5.040305e+01 4.807032e+01 4.039783e+01 3.694692e+01 4.588328e+01 2.561329e+01 2.152550e+01 3.956805e+01 6.605537e+00 5.008224e+00 3.689045e+00 3.859446e+00 3.769832e+00 5.818822e+00 4.744014e+00 3.987432e+00 6.592579e+00 3.818066e+00 3.431832e+00 2.479844e+00 3.731546e+00 5.086223e-01 1.040208e+00 5.906817e-01 6.123860e-01 5.016062e-01 9.062243e-01 7.897105e-01 6.909991e-01 6.963663e-01 6.087946e-01 6.320308e-01 4.329334e-01 4.394648e-01
<GCONST> 1.334950e+02
<TRANSP> 5
 0.000000e+00 1.000000e+00 0.000000e+00 0.000000e+00 0.000000e+00
 0.000000e+00 7.710039e-01 2.289961e-01 0.000000e+00 0.000000e+00
 0.000000e+00 0.000000e+00 8.692200e-01 1.307800e-01 0.000000e+00
 0.000000e+00 0.000000e+00 0.000000e+00 7.059175e-01 2.940824e-01
 0.000000e+00 0.000000e+00 0.000000e+00 0.000000e+00 0.000000e+00
<ENDHMM>
~h "t"
<BEGINHMM>
<NUMSTATES> 5
<STATE> 2
<MEAN> 39
 -1.323311e+00 -1.339356e+00 2.971142e-01 -9.960197e+00 -5.331959e+00 -4.753187e+00 -9.626068e+00 -2.214488e+00 -8.877094e+00 -1.386833e+00 -3.579466e+00 1.953759e+00 6.652385e+01 -7.855351e-01 4.850266e-01 3.765894e-01 3.679944e-01 9.898936e-02 6.917896e-01 6.343039e-02 1.794030e-01 1.641560e-01 2.323504e-02 3.159564e-01 -6.551471e-02 -9.081464e-01 -2.224471e-02 -4.089661e-02 -1.847832e-01 1.742315e-01 -2.470145e-02 3.521680e-03 1.087092e-01 2.552510e-01 3.073358e-02 1.208851e-01 3.125897e-02 -1.083542e-01 -1.254738e-01
<VARIANCE> 39
 6.022308e+01 7.986782e+01 6.950332e+01 1.286083e+02 8.755566e+01 8.495664e+01 8.909463e+01 5.145475e+01 5.902134e+01 4.147149e+01 3.211542e+01 2.579739e+01 8.367431e+01 3.338943e+00 1.014670e+01 5.463803e+00 9.317822e+00 3.638243e+00 7.408624e+00 5.569793e+00 4.196716e+00 3.303801e+00 3.790299e+00 3.128245e+00 2.085075e+00 8.273941e+00 5.921547e-01 1.292845e+00 1.167649e+00 1.781760e+00 8.625463e-01 1.341948e+00 1.028448e+00 1.061288e+00 8.949672e-01 7.597411e-01 6.202050e-01 3.777958e-01 1.191527e+00
<GCONST> 1.450003e+02
<STATE> 3
<MEAN> 39
 -1.071277e+00 1.769188e+00 1.019297e-01 -4.787627e+00 -6.752621e+00 -3.499722e+00 -8.143484e+00 -1.843859e+00 -1.175571e+01 -6.836044e-01 -3.202903e+00 -2.341237e-01 6.323845e+01 -1.025220e+00 8.564353e-01 -2.070527e-01 1.481369e+00 -3.660546e-01 1.312113e+00 4.274948e-01 7.167635e-01 6.313500e-01 5.834827e-01 3.805360e-01 -6.407508e-02 -1.958282e+00 -6.252874e-02 -5.045511e-01 -1.996743e-01 -4.001305e-01 -1.500094e-02 -3.046726e-01 -2.702456e-04 3.608107e-02 1.122715e-01 1.156332e-01 2.325185e-02 1.138024e-01 2.863914e-01
<VARIANCE> 39
 4.396858e+01 6.316672e+01 3.699127e+01 6.872543e+01 6.623148e+01 5.308083e+01 6.353904e+01 4.155444e+01 8.950670e+01 3.213901e+01 2.424743e+01 2.328771e+01 4.771282e+01 2.625072e+00 9.405180e+00 3.285792e+00 6.842480e+00 4.676211e+00 7.912703e+00 5.904561e+00 4.949029e+00 7.088913e+00 3.183175e+00 3.317525e+00 2.114400e+00 8.290484e+00 3.799600e-01 1.280371e+00 5.861101e-01 1.209827e+00 5.578682e-01 8.139694e-01 7.186266e-01 8.387737e-01 1.134368e+00 6.108204e-01 5.384880e-01 4.040175e-01 8.410848e-01
<GCONST> 1.377160e+02
<STATE> 4
<MEAN> 39
 -5.569359e+00 3.983942e+00 -3.875480e+00 -4.023524e+00 -9.679970e+00 -1.137556e-02 -7.150360e+00 1.333657e+00 -6.886236e+00 6.723488e-01 -9.943818e-01 1.429602e+00 5.602515e+01 -7.561035e-01 -8.312935e-01 1.580940e-01 -2.390513e-01 -9.688795e-03 -9.811373e-02 1.390738e-01 -1.635297e-01 7.886325e-03 2.229069e-01 -3.927171e-02 4.294746e-02 -8.557637e-03 2.016931e-01 -4.259148e-01 3.446809e-01 -4.098159e-01 1.491003e-01 -3.827481e-01 -8.815506e-03 -2.518342e-01 -3.597768e-01 -1.558309e-01 -2.221337e-01 -5.412033e-02 6.984408e-01
<VARIANCE> 39
 2.027622e+01 1.909863e+01 2.460205e+01 4.131985e+01 3.104752e+01 2.149507e+01 2.600210e+01 1.772307e+01 1.926200e+01 1.654940e+01 1.438075e+01 1.342319e+01 1.805675e+01 1.624266e+00 7.019303e+00 2.893289e+00 4.723660e+00 2.905776e+00 3.291868e+00 2.560646e+00 2.819336e+00 3.883122e+00 2.459534e+00 2.147972e+00 1.795921e+00 5.250848e+00 2.572400e-01 6.868256e-01 4.304548e-01 7.742638e-01 4.423137e-01 4.898083e-01 4.487117e-01 4.747891e-01 6.515426e-01 4.481966e-01 3.631354e-01 3.240365e-01 5.015973e-01
<GCONST> 1.156977e+02
<TRANSP> 5
 0.000000e+00 1.000000e+00 0.000000e+00 0.000000e+00 0.000000e+00
 0.000000e+00 5.290764e-01 4.709237e-01 0.000000e+00 0.000000e+00
 0.000000e+00 0.000000e+00 3.185832e-01 6.814168e-01 0.000000e+00
 0.000000e+00 0.000000e+00 0.000000e+00 7.872053e-01 2.127947e-01
 0.000000e+00 0.000000e+00 0.000000e+00 0.000000e+00 0.000000e+00
<ENDHMM>
~h "u"
<BEGINHMM>
<NUMSTATES> 5
<STATE> 2
<MEAN> 39
 -4.247020e+00 -4.314476e+00 6.654044e+00 -8.454427e+00 -3.470945e+00 -7.750570e+00 -9.968185e+00 -1.897192e+00 -1.606563e+01 -2.308440e+00 -6.375134e+00 -2.493626e+00 6.794436e+01 1.156832e+00 5.974891e-01 8.941903e-01 -1.198756e+00 -3.359482e-01 -1.442860e+00 -3.817237e-01 4.248806e-01 -1.508820e+00 -9.630193e-01 -1.009685e+00 -9.382401e-01 1.180314e+00 1.746107e-01 8.012606e-01 -1.541857e-01 3.202245e-01 -2.941593e-01 -6.393521e-02 -9.681690e-02 5.064031e-01 1.284681e-01 -1.063315e-01 1.263816e-01 -1.896667e-01 -4.916793e-01
<VARIANCE> 39
 6.974531e+01 1.170940e+02 5.955389e+01 8.596257e+01 7.223055e+01 9.399786e+01 8.700942e+01 6.543984e+01 1.160561e+02 6.990736e+01 4.915054e+01 4.200908e+01 5.009122e+01 5.041981e+00 1.233720e+01 4.617209e+00 1.020260e+01 6.120414e+00 1.003811e+01 8.866883e+00 7.456579e+00 9.499047e+00 5.491357e+00 4.763345e+00 4.343824e+00 7.429157e+00 7.539571e-01 2.377093e+00 7.698867e-01 1.445088e+00 9.117237e-01 1.577686e+00 1.346496e+00 1.169406e+00 1.268376e+00 1.062204e+00 9.380703e-01 7.143844e-01 1.023370e+00
<GCONST> 1.539543e+02
<STATE> 3
<MEAN> 39
 2.779959e+00 4.149916e+00 7.185919e+00 -1.301240e+01 -5.990211e+00 -1.003883e+01 -1.655288e+01 7.076468e+00 -1.862243e+01 -9.775538e+00 -6.696582e+00 -6.746377e+00 6.859856e+01 7.097654e-03 8.446476e-01 -3.508314e-02 8.809139e-01 -5.066159e-01 1.086018e-01 4.604390e-01 6.784704e-01 3.305748e-01 7.428788e-02 -1.541114e-03 -4.001929e-01 -7.357798e-01 -2.970929e-01 -2.746997e-01 -1.431499e-01 2.769390e-01 1.459222e-01 3.367737e-01 2.319743e-01 -4.027640e-01 3.641156e-01 3.606665e-01 1.469091e-01 3.346861e-01 -1.492313e-01
<VARIANCE> 39
 9.939900e+00 5.781922e+01 4.876194e+01 9.659534e+01 1.019833e+02 7.289622e+01 1.289065e+02 6.237342e+01 8.970215e+01 6.607435e+01 5.942037e+01 4.098383e+01 1.993324e+01 1.224338e+00 4.291206e+00 2.066104e+00 5.825552e+00 5.356353e+00 6.806636e+00 7.420059e+00 6.313425e+00 4.886839e+00 4.997093e+00 4.496669e+00 3.868679e+00 2.448494e+00 1.998394e-01 6.657363e-01 3.581978e-01 8.696987e-01 8.212263e-01 1.033143e+00 1.022471e+00 9.999923e-01 8.341025e-01 8.503580e-01 8.122764e-01 6.116522e-01 2.288330e-01
<GCONST> 1.365659e+02
<STATE> 4
<MEAN> 39
 1.557132e+00 5.583094e+00 5.479578e+00 -5.967597e+00 -1.260078e+01 -1.347550e+01 -7.553442e+00 4.693407e+00 -2.017862e+01 -4.711246e+00 -7.631299e+00 -8.647156e+00 6.485800e+01 -3.593126e-01 1.542009e-01 -3.968254e-01 6.165608e-01 2.925206e-01 8.429816e-01 -2.014672e-01 -3.427247e-01 9.550950e-01 1.612993e-01 1.653785e-01 4.960580e-01 -6.386369e-01 -7.108749e-02 -1.863230e-01 -4.071016e-03 -7.352550e-02 1.720540e-01 1.131718e-01 -7.439243e-02 -9.401496e-02 6.731371e-02 -2.451600e-03 1.288238e-02 1.318932e-01 7.479227e-02
<VARIANCE> 39
 1.589111e+01 4.439900e+01 4.253747e+01 6.939176e+01 1.026953e+02 1.152794e+02 6.876167e+01 5.903198e+01 1.240092e+02 4.993668e+01 3.912893e+01 5.485460e+01 3.251106e+01 6.068222e-01 2.815183e+00 1.346334e+00 3.096841e+00 3.819399e+00 4.301456e+00 3.185592e+00 4.255310e+00 4.999883e+00 3.348132e+00 2.476284e+00 2.370441e+00 1.379906e+00 8.982358e-02 4.597074e-01 2.269725e-01 5.713709e-01 5.832059e-01 6.862345e-01 5.807114e-01 7.336241e-01 8.090405e-01 5.999953e-01 4.106844e-01 4.396833e-01 2.233905e-01
<GCONST> 1.251453e+02
<TRANSP> 5
 0.000000e+00 1.000000e+00 0.000000e+00 0.000000e+00 0.000000e+00
 0.000000e+00 6.924132e-01 3.075868e-01 0.000000e+00 0.000000e+00
 0.000000e+00 0.000000e+00 6.443393e-01 3.556607e-01 0.000000e+00
 0.000000e+00 0.000000e+00 0.000000e+00 8.334841e-01 1.665159e-01
 0.000000e+00 0.000000e+00 0.000000e+00 0.000000e+00 0.000000e+00
<ENDHMM>
~h "w"
<BEGINHMM>
<NUMSTATES> 5
<STATE> 2
<MEAN> 39
 1.111316e+00 3.719860e-01 -3.564492e+00 -9.893719e+00 -1.898428e+01 -3.922185e+00 -3.588173e+00 5.156069e+00 -7.014903e+00 -3.811563e+00 -2.237521e+00 -1.161418e+00 6.359238e+01 -1.218091e-01 4.115833e-01 1.121074e-01 2.107055e-01 -8.992606e-02 -7.750116e-02 1.089023e-01 2.182226e-02 1.786413e-01 -3.136439e-02 -4.460625e-02 -4.554093e-02 -2.802354e-01 6.929886e-03 3.225248e-02 -1.120949e-02 -5.732178e-02 1.037569e-01 -6.440086e-02 -1.382212e-01 -4.943647e-02 -7.536271e-02 2.834236e-02 4.287386e-02 2.485788e-02 3.340195e-03
<VARIANCE> 39
 5.140670e+01 3.890307e+01 4.289049e+01 3.667914e+01 5.011910e+01 2.804012e+01 6.768045e+01 3.509616e+01 4.050912e+01 5.673706e+01 4.732156e+01 1.930337e+01 4.462151e+01 4.011347e+00 3.604161e+00 5.208072e+00 2.652876e+00 5.716722e+00 2.231972e+00 7.391942e+00 2.513234e+00 3.528666e+00 4.706889e+00 3.828587e+00 2.185409e+00 3.502813e+00 3.959808e-01 7.586922e-01 9.555823e-01 4.778495e-01 1.034565e+00 3.791949e-01 1.431925e+00 4.529261e-01 5.628701e-01 8.768669e-01 7.433695e-01 4.276798e-01 4.152345e-01
<GCONST> 1.308823e+02
<STATE> 3
<MEAN> 39
 -8.412924e-01 8.659116e+00 1.306289e+00 -4.258882e+00 -1.760927e+01 -6.332733e+00 -6.673790e+00 -6.355254e-01 -8.409955e+00 -6.532618e-01 -1.002425e+00 -2.385426e+00 5.911495e+01 -8.443204e-01 5.358229e-01 -7.246532e-01 4.387695e-01 3.181950e-01 -4.407279e-01 -8.346831e-01 -5.031794e-01 1.634437e-01 5.993584e-01 1.983451e-01 2.718074e-01 -1.249334e+00 1.362219e-01 -5.579603e-01 -6.842966e-02 -3.411647e-01 1.074636e-01 8.865743e-02 7.005125e-02 3.397194e-02 -6.864538e-03 -1.586999e-01 -3.873639e-01 7.787142e-02 4.170915e-01
<VARIANCE> 39
 2.919612e+01 1.902211e+01 4.020188e+01 1.400652e+01 8.007535e+01 4.729988e+01 4.635242e+01 3.904115e+01 1.894566e+01 1.345943e+01 1.760774e+01 3.628273e+01 1.448697e+01 7.238644e-01 9.824330e-01 6.415868e-01 1.580435e+00 1.918391e+00 1.917016e+00 2.110154e+00 1.695258e+00 1.961864e+00 1.232218e+00 1.801087e+00 6.579708e-01 9.314697e-01 2.829826e-01 2.133946e-01 3.562500e-01 4.389872e-01 6.149032e-01 3.042868e-01 5.033268e-01 4.632552e-01 4.265392e-01 4.130703e-01 4.094548e-01 3.268880e-01 3.796483e-01
<GCONST> 1.054660e+02
<STATE> 4
<MEAN> 39
 -6.788515e+00 6.169185e+00 -2.426697e+00 -2.677426e+00 -1.223718e+01 -1.736670e+00 -6.638681e+00 1.422075e+00 -6.483468e+00 7.140933e-02 -2.531340e+00 4.686478e-01 5.398208e+01 -5.277994e-01 -5.186095e-01 2.922141e-01 1.135955e-01 5.048763e-01 1.714230e-01 -4.020606e-01 -2.326433e-01 6.398603e-02 1.294197e-01 7.894564e-03 2.498006e-01 -9.273067e-02 2.680337e-01 -3.164727e-01 1.936752e-01 -2.316104e-01 1.909269e-02 -4.737392e-02 1.044723e-01 -3.427437e-02 -1.417955e-01 -1.749532e-02 3.101428e-02 -2.151234e-02 5.118474e-01
<VARIANCE> 39
 1.798183e+01 1.267310e+01 1.524891e+01 2.018468e+01 3.731186e+01 2.500574e+01 2.900851e+01 1.945971e+01 1.173389e+01 7.156328e+00 1.131437e+01 1.047397e+01 7.512882e+00 3.604107e-01 1.733819e+00 9.004260e-01 2.781677e+00 1.983909e+00 1.184169e+00 2.347159e+00 1.585002e+00 1.878681e+00 7.834355e-01 1.087979e+00 1.151337e+00 1.382705e+00 1.796818e-01 3.558392e-01 1.999921e-01 4.992386e-01 5.431359e-01 2.994838e-01 6.749749e-01 3.610686e-01 4.361626e-01 2.065453e-01 2.421284e-01 1.924148e-01 4.307407e-01
<GCONST> 9.618610e+01
<TRANSP> 5
 0.000000e+00 1.000000e+00 0.000000e+00 0.000000e+00 0.000000e+00
 0.000000e+00 8.600321e-01 1.399679e-01 0.000000e+00 0.000000e+00
 0.000000e+00 0.000000e+00 4.798414e-01 5.201585e-01 0.000000e+00
 0.000000e+00 0.000000e+00 0.000000e+00 8.212128e-01 1.787872e-01
 0.000000e+00 0.000000e+00 0.000000e+00 0.000000e+00 0.000000e+00
<ENDHMM>
~h "eu"
<BEGINHMM>
<NUMSTATES> 5
<STATE> 2
<MEAN> 39
 -4.145924e+00 6.609526e-01 6.565377e+00 -8.623105e+00 -2.611432e+00 -2.973896e+00 -8.040508e+00 -3.460046e+00 -1.268556e+01 -3.778431e+00 -4.457632e+00 5.020999e-01 6.625410e+01 1.573073e+00 -1.089682e+00 -4.895513e-01 -1.728471e+00 4.703437e-01 -1.767063e+00 -8.438987e-01 -1.266062e-01 -1.922629e+00 -6.196443e-01 1.609508e-01 2.550938e-01 2.084825e+00 1.737523e-01 -4.356152e-02 -2.568722e-01 -1.032719e-01 2.308781e-01 -4.719860e-01 -2.014470e-01 1.942958e-01 -1.536860e-01 -6.296615e-02 -6.420167e-02 -4.915055e-03 1.987810e-01
<VARIANCE> 39
 8.356281e+01 7.993576e+01 6.774598e+01 1.136855e+02 5.852566e+01 5.719062e+01 6.763058e+01 6.847294e+01 6.873867e+01 4.124594e+01 2.889470e+01 3.091453e+01 4.877059e+01 1.029890e+01 9.347493e+00 6.940499e+00 9.532089e+00 5.998895e+00 6.468446e+00 1.107255e+01 5.445129e+00 9.669914e+00 5.006208e+00 4.096941e+00 3.432636e+00 5.418698e+00 1.025349e+00 1.445517e+00 1.119922e+00 1.542708e+00 8.625027e-01 1.028559e+00 1.497148e+00 9.210150e-01 1.266819e+00 7.813103e-01 5.293376e-01 6.008223e-01 7.698213e-01
<GCONST> 1.490759e+02
<STATE> 3
<MEAN> 39
 2.828370e+00 -2.821382e+00 2.066747e+00 -1.347070e+01 -3.607751e-01 -1.158163e+01 -1.068471e+01 -1.481962e+00 -2.029146e+01 -6.448800e+00 -5.438773e+00 1.532256e+00 7.330907e+01 1.421136e+00 -6.331570e-01 -1.171490e+00 -5.325467e-01 5.327629e-01 -1.452789e+00 -4.590650e-01 8.643352e-01 -1.263124e+00 -2.768729e-01 5.805497e-02 3.478861e-01 1.091906e+00 -8.047670e-01 3.922803e-01 4.044309e-01 7.165803e-01 2.797962e-02 8.042274e-01 2.243209e-01 2.801244e-02 7.784959e-01 2.817445e-01 6.933770e-03 -2.030570e-01 -8.107005e-01
<VARIANCE> 39
 1.368041e+01 3.104900e+01 3.807056e+01 7.777557e+01 6.004282e+01 6.424910e+01 1.313040e+02 7.634296e+01 9.439552e+01 6.054190e+01 4.105927e+01 4.005388e+01 1.478062e+01 3.199425e+00 5.469005e+00 3.952306e+00 5.582237e+00 5.112290e+00 6.688715e+00 8.805081e+00 5.961543e+00 6.505219e+00 4.432555e+00 3.869952e+00 3.377721e+00 3.139917e+00 6.904331e-01 9.230889e-01 7.302471e-01 1.113701e+00 7.687261e-01 1.056155e+00 1.544986e+00 1.126487e+00 1.352166e+00 8.108448e-01 7.439006e-01 5.514232e-01 3.445462e-01
<GCONST> 1.402909e+02
<STATE> 4
<MEAN> 39
 3.931551e+00 -8.875185e-01 4.816129e-02 -1.081720e+01 -1.352441e+00 -1.201580e+01 -8.715052e+00 2.379764e+00 -2.054656e+01 -4.985405e+00 -5.526235e+00 5.507265e-01 7.109419e+01 8.103954e-03 4.731290e-01 6.909727e-02 6.591596e-01 1.161597e-01 3.615576e-01 -3.573035e-01 5.413559e-02 4.226170e-01 5.647641e-02 -1.540190e-01 -6.020349e-03 -4.317645e-01 -1.913991e-01 1.368545e-01 2.082362e-01 1.044264e-01 -8.056070e-02 2.577764e-01 -1.364107e-02 -1.472598e-01 2.511851e-01 -4.173444e-03 -3.947584e-02 -2.192820e-02 -1.734754e-01
<VARIANCE> 39
 6.807869e+00 4.607049e+01 2.355321e+01 7.864967e+01 7.382574e+01 6.768753e+01 1.004886e+02 7.281738e+01 8.091301e+01 5.046067e+01 3.922652e+01 3.504132e+01 2.104836e+01 5.668840e-01 3.119202e+00 1.815080e+00 3.861394e+00 2.425246e+00 3.781413e+00 4.455711e+00 3.529773e+00 3.882485e+00 3.018509e+00 2.397283e+00 1.858889e+00 1.735968e+00 1.498449e-01 5.609780e-01 3.132772e-01 6.975604e-01 4.389469e-01 6.689536e-01 9.729252e-01 5.263124e-01 7.675323e-01 5.389092e-01 5.174128e-01 3.762670e-01 3.033478e-01
<GCONST> 1.233435e+02
<TRANSP> 5
 0.000000e+00 1.000000e+00 0.000000e+00 0.000000e+00 0.000000e+00
 0.000000e+00 5.904163e-01 4.095837e-01 0.000000e+00 0.000000e+00
 0.000000e+00 0.000000e+00 5.421785e-01 4.578216e-01 0.000000e+00
 0.000000e+00 0.000000e+00 0.000000e+00 7.910439e-01 2.089561e-01
 0.000000e+00 0.000000e+00 0.000000e+00 0.000000e+00 0.000000e+00
<ENDHMM>
~h "ng"
<BEGINHMM>
<NUMSTATES> 5
<STATE> 2
<MEAN> 39
 6.079546e-01 2.782569e+00 -7.509578e-02 -6.238868e+00 -5.193758e+00 -3.949419e+00 -1.152608e+01 1.700293e+00 -1.060489e+01 -4.000792e+00 -6.114965e+00 1.538535e+00 6.407907e+01 -1.315728e+00 -3.240064e-01 1.041214e+00 1.910382e-01 -2.552004e-01 1.294752e+00 7.569975e-01 -1.029451e+00 2.146201e-01 4.492471e-01 4.197794e-01 -1.447665e-01 -5.375359e-01 -9.720057e-02 -5.465114e-01 1.194885e-01 -6.780446e-01 8.533302e-02 -1.804307e-01 3.993520e-01 -4.475153e-03 -2.773603e-01 1.053421e-01 5.067259e-02 3.030745e-03 4.863203e-01
<VARIANCE> 39
 3.506242e+01 5.141338e+01 3.679430e+01 7.476411e+01 7.090290e+01 4.470272e+01 8.663628e+01 5.982798e+01 5.032752e+01 3.371761e+01 4.305707e+01 2.559816e+01 4.310302e+01 2.284065e+00 6.596004e+00 4.438232e+00 1.094878e+01 3.503792e+00 5.902215e+00 8.298410e+00 5.523187e+00 5.424042e+00 3.963074e+00 4.494462e+00 3.114641e+00 4.364004e+00 3.524287e-01 1.065770e+00 7.451258e-01 1.614074e+00 6.236006e-01 9.820135e-01 1.227248e+00 9.291075e-01 1.038986e+00 7.845783e-01 6.675891e-01 5.951864e-01 7.150164e-01
<GCONST> 1.399274e+02
<STATE> 3
<MEAN> 39
 -4.665583e+00 -2.880216e+00 4.925837e+00 -1.150959e+01 -3.966165e+00 -2.500535e+00 -6.463975e+00 -4.179221e+00 -1.010594e+01 -3.387457e+00 -5.467891e+00 1.428970e+00 6.810175e+01 -2.678905e-01 -1.293407e+00 8.495024e-01 -1.354848e+00 3.619978e-01 -3.245812e-01 7.985031e-01 -9.896339e-01 -8.090652e-01 4.412186e-01 2.437438e-01 -1.509886e-01 1.350944e+00 6.613430e-01 4.758858e-01 -4.557104e-01 3.151105e-01 3.135482e-02 -6.776511e-01 -5.209994e-01 6.724737e-01 -3.850727e-01 3.130358e-02 -4.598513e-02 -2.161209e-01 -1.305149e-01
<VARIANCE> 39
 6.744845e+01 8.533998e+01 4.997823e+01 1.268499e+02 9.788611e+01 8.253102e+01 1.545394e+02 9.417792e+01 8.388731e+01 4.116861e+01 3.798023e+01 5.622058e+01 3.392894e+01 6.710700e+00 7.423830e+00 7.088573e+00 1.281679e+01 4.333725e+00 9.246344e+00 1.289125e+01 7.067910e+00 8.431251e+00 4.168076e+00 3.825093e+00 3.287550e+00 4.565809e+00 9.427063e-01 1.331142e+00 1.409070e+00 2.769893e+00 1.003426e+00 2.140087e+00 2.134640e+00 1.800390e+00 1.426388e+00 1.024758e+00 9.560002e-01 7.429712e-01 6.288190e-01
<GCONST> 1.545133e+02
<STATE> 4
<MEAN> 39
 4.082777e-02 -2.015134e+00 3.536507e+00 -8.596090e+00 -1.338977e+00 -7.657715e+00 -1.059455e+01 -5.714582e+00 -1.664382e+01 -1.523514e+00 -6.509090e+00 2.565740e-01 6.922193e+01 -1.798421e-01 6.906150e-01 3.089296e-01 4.571036e-01 2.709809e-01 2.360053e-01 -1.215572e-01 3.720978e-01 -3.006545e-01 3.223257e-01 1.176461e-01 -2.171111e-01 -6.265949e-01 7.869226e-03 2.925330e-01 -7.857610e-02 7.892803e-02 -2.128689e-01 2.769048e-01 -2.533436e-02 2.445658e-01 2.170458e-01 -7.364330e-02 5.583909e-02 2.030551e-02 -2.778671e-01
<VARIANCE> 39
 2.373351e+01 6.652117e+01 4.677856e+01 8.213636e+01 9.007838e+01 6.606393e+01 1.122216e+02 6.147567e+01 5.852085e+01 4.890192e+01 3.442526e+01 2.523770e+01 4.573788e+01 2.833668e+00 5.876012e+00 4.602215e+00 7.705825e+00 5.557059e+00 7.671550e+00 8.357219e+00 4.757373e+00 6.437065e+00 4.465858e+00 3.071224e+00 2.404673e+00 3.691417e+00 3.631755e-01 1.076832e+00 8.608608e-01 1.094694e+00 9.936865e-01 1.422403e+00 1.562078e+00 9.592816e-01 1.162744e+00 8.305761e-01 5.897674e-01 4.628822e-01 4.730652e-01
<GCONST> 1.415261e+02
<TRANSP> 5
 0.000000e+00 1.000000e+00 0.000000e+00 0.000000e+00 0.000000e+00
 0.000000e+00 6.966095e-01 3.033905e-01 0.000000e+00 0.000000e+00
 0.000000e+00 0.000000e+00 4.326295e-01 5.673705e-01 0.000000e+00
 0.000000e+00 0.000000e+00 0.000000e+00 7.329224e-01 2.670775e-01
 0.000000e+00 0.000000e+00 0.000000e+00 0.000000e+00 0.000000e+00
<ENDHMM>
~h "sp"
<BEGINHMM>
<NUMSTATES> 3
<STATE> 2
~s "silst"
<TRANSP> 3
 0.000000e+00 2.155566e-01 7.844434e-01
 0.000000e+00 8.847181e-01 1.152819e-01
 0.000000e+00 0.000000e+00 0.000000e+00
<ENDHMM>
~h "wa"
<BEGINHMM>
<NUMSTATES> 5
<STATE> 2
<MEAN> 39
 -1.391212e+00 5.962828e+00 4.750374e+00 -1.009420e+01 -9.736369e+00 -9.384804e+00 -1.532268e+01 3.494746e+00 -1.113030e+01 -4.904215e+00 -5.659457e+00 -2.220548e+00 6.303943e+01 1.150872e+00 7.211367e-01 8.444568e-01 -9.333819e-01 -9.682713e-02 -1.230251e+00 -1.067596e+00 1.371259e+00 -6.695707e-03 -1.078273e+00 -6.086085e-01 -7.808666e-01 1.043715e+00 1.795217e-01 1.417542e-01 -2.399802e-01 -4.268464e-02 6.639791e-03 9.738537e-02 5.774836e-02 8.168796e-02 3.058459e-03 -1.888270e-01 -1.798898e-01 -2.101473e-02 -9.963265e-03
<VARIANCE> 39
 4.457425e+01 8.930125e+01 3.972111e+01 5.605955e+01 6.494422e+01 1.075474e+02 7.095024e+01 4.193701e+01 2.569668e+01 3.781592e+01 4.160904e+01 2.892485e+01 2.732094e+01 4.071359e+00 1.334707e+01 2.965578e+00 4.220255e+00 9.978381e+00 1.130155e+01 4.187603e+00 3.813163e+00 3.014992e+00 3.812251e+00 4.458905e+00 2.510338e+00 2.821434e+00 8.550678e-01 2.928514e+00 5.178284e-01 6.591576e-01 2.304848e+00 2.345610e+00 8.581240e-01 1.010667e+00 5.151795e-01 5.725319e-01 8.166693e-01 4.871034e-01 5.181007e-01
<GCONST> 1.403045e+02
<STATE> 3
<MEAN> 39
 6.516428e+00 6.528323e+00 -2.259637e+00 -1.513464e+01 -5.586446e-01 -5.141308e-03 -1.908442e+01 2.199509e+00 -1.660145e+01 -1.352480e+01 -9.994407e+00 -2.662624e+00 6.751410e+01 1.279750e-02 -4.615559e-01 -3.804033e-01 -1.153299e-01 6.613742e-01 5.640177e-01 1.822350e-02 2.529812e-02 -3.966151e-01 -3.560749e-01 1.022497e-01 3.169276e-01 1.793083e-01 -1.096113e-01 7.604451e-02 2.050227e-01 1.234193e-01 -1.809054e-01 -2.187362e-01 2.200316e-01 7.363084e-04 -1.234724e-01 2.555765e-01 2.399519e-01 -6.933358e-02 -7.445636e-02
<VARIANCE> 39
 8.064384e+00 1.983349e+01 5.576698e+01 7.680401e+01 6.060940e+01 1.334380e+02 9.112779e+01 1.086542e+02 7.791956e+01 4.310767e+01 7.373176e+01 2.873142e+01 1.051945e+01 5.244139e-01 1.607366e+00 4.831239e+00 4.563214e+00 5.980631e+00 1.610797e+01 8.318192e+00 1.485428e+01 8.737103e+00 3.109525e+00 8.849151e+00 3.678536e+00 1.154687e+00 7.546377e-02 3.304799e-01 5.199652e-01 8.462900e-01 8.362876e-01 1.985411e+00 1.902874e+00 2.303736e+00 1.840275e+00 7.454181e-01 1.951253e+00 8.227477e-01 2.004422e-01
<GCONST> 1.373345e+02
<STATE> 4
<MEAN> 39
 4.514424e+00 4.527326e+00 3.121804e+00 -9.587615e+00 -1.093014e+01 -1.366218e+01 -1.026337e+01 9.162626e+00 -1.834084e+01 -1.224141e+01 -1.305924e+01 -7.830519e+00 6.780099e+01 -2.845453e-01 -1.212644e-02 -1.307727e-02 4.689132e-01 -1.312506e-01 5.541326e-01 8.210050e-01 -4.497777e-01 1.131883e-02 3.520532e-01 8.136370e-02 4.627850e-02 -3.337332e-01 -4.400560e-03 -6.508016e-02 -1.342112e-01 1.398621e-01 7.614967e-02 3.267218e-01 -8.613133e-02 -2.960606e-01 1.254970e-01 1.018466e-01 4.564470e-02 9.300652e-02 -7.923728e-02
<VARIANCE> 39
 1.299128e+01 1.950022e+01 5.604516e+01 1.001681e+02 1.068310e+02 9.705219e+01 1.065643e+02 4.619384e+01 5.957756e+01 4.221284e+01 5.505737e+01 3.517904e+01 1.123744e+01 5.998572e-01 1.655249e+00 3.849291e+00 2.314645e+00 5.210652e+00 6.843388e+00 4.750135e+00 5.032566e+00 4.122476e+00 2.826998e+00 3.143669e+00 2.308993e+00 6.954172e-01 7.219392e-02 3.343586e-01 4.816178e-01 3.621467e-01 6.451011e-01 9.152827e-01 8.542830e-01 9.774734e-01 6.116602e-01 4.703126e-01 4.586547e-01 3.972982e-01 9.953628e-02
<GCONST> 1.229808e+02
<TRANSP> 5
 0.000000e+00 1.000000e+00 0.000000e+00 0.000000e+00 0.000000e+00
 0.000000e+00 8.076406e-01 1.923594e-01 0.000000e+00 0.000000e+00
 0.000000e+00 0.000000e+00 8.311252e-01 1.688748e-01 0.000000e+00
 0.000000e+00 0.000000e+00 0.000000e+00 8.514268e-01 1.485732e-01
 0.000000e+00 0.000000e+00 0.000000e+00 0.000000e+00 0.000000e+00
<ENDHMM>
~h "sil"
<BEGINHMM>
<NUMSTATES> 5
<STATE> 2
<MEAN> 39
 -1.269997e+01 5.544384e+00 -2.930270e+00 3.823798e+00 -8.960403e+00 1.675095e+00 -9.889500e+00 1.701072e+00 -5.288455e+00 1.414304e+00 -8.806084e-01 7.241884e-01 4.748480e+01 -3.198811e-02 3.096952e-02 -9.889181e-03 2.745402e-02 -2.753558e-02 6.944535e-03 -3.639801e-03 1.927072e-02 1.026692e-02 5.604407e-03 -2.379972e-03 -1.308875e-02 -6.096838e-02 2.806619e-03 -9.265139e-03 -1.513687e-03 -5.349641e-03 6.467443e-03 4.602629e-03 -5.990702e-03 -6.395207e-03 -5.806306e-03 -1.310309e-04 3.004448e-03 1.690669e-03 8.565902e-03
<VARIANCE> 39
 3.866881e+00 4.260072e+00 6.039714e+00 9.763415e+00 1.362372e+01 1.290794e+01 1.350708e+01 1.180602e+01 1.007036e+01 9.672739e+00 9.912483e+00 9.218920e+00 5.399006e+00 7.623773e-02 1.883455e-01 2.798351e-01 3.975925e-01 5.730525e-01 7.233445e-01 7.944879e-01 8.195840e-01 7.984906e-01 8.353565e-01 8.473516e-01 7.532102e-01 3.811119e-02 1.506048e-02 3.959887e-02 5.652368e-02 7.763052e-02 1.174084e-01 1.468114e-01 1.631455e-01 1.692453e-01 1.643235e-01 1.728141e-01 1.752612e-01 1.524753e-01 6.791356e-03
<GCONST> 5.502792e+01
<STATE> 3
~s "silst"
<STATE> 4
<MEAN> 39
 -9.352862e+00 1.502548e+00 -3.519465e-01 8.439887e-01 -5.438401e+00 -3.068901e+00 -9.538455e+00 -1.625245e+00 -9.660387e+00 9.089277e-01 -2.907458e+00 -1.196093e-01 5.553527e+01 5.321605e-02 -7.140741e-02 2.951557e-01 -2.259473e-01 1.098993e-01 6.538559e-02 -1.575740e-01 -3.779956e-02 -1.178915e-01 -2.909674e-02 -1.584241e-01 -4.765707e-02 2.144352e-01 -2.561309e-02 -3.291912e-02 1.576134e-01 -1.453008e-01 4.161840e-02 -2.834276e-03 -1.444365e-02 -2.443821e-02 5.502726e-04 4.708831e-03 -3.873914e-02 1.036808e-02 9.395430e-02
<VARIANCE> 39
 6.434927e+01 6.235566e+01 5.010478e+01 6.018823e+01 5.556079e+01 1.321300e+02 6.016485e+01 4.816520e+01 7.433401e+01 3.280389e+01 5.055246e+01 3.360172e+01 8.429124e+01 1.646335e+00 4.391901e+00 3.695171e+00 3.960627e+00 3.181351e+00 4.914358e+00 3.878402e+00 2.795109e+00 3.696555e+00 2.355829e+00 2.743113e+00 2.132944e+00 1.592238e+00 3.122332e-01 7.638153e-01 7.648486e-01 8.329640e-01 6.059756e-01 7.825106e-01 7.278700e-01 4.940036e-01 7.049779e-01 4.127946e-01 4.970207e-01 3.905520e-01 3.314505e-01
<GCONST> 1.310892e+02
<TRANSP> 5
 0.000000e+00 1.000000e+00 0.000000e+00 0.000000e+00 0.000000e+00
 0.000000e+00 9.706886e-01 1.773360e-02 1.157778e-02 0.000000e+00
 0.000000e+00 0.000000e+00 8.641041e-01 1.358959e-01 0.000000e+00
 0.000000e+00 1.127550e-01 0.000000e+00 6.677210e-01 2.195240e-01
 0.000000e+00 0.000000e+00 0.000000e+00 0.000000e+00 0.000000e+00
<ENDHMM>
