~o
<STREAMINFO> 1 39
<VECSIZE> 39<NULLD><MFCC_D_A_0><DIAGC>
~h "a"
<BEGINHMM>
<NUMSTATES> 5
<STATE> 2
<MEAN> 39
 3.104472e+00 -7.606229e+00 -4.910162e+00 -1.090173e+01 -1.195389e+00 -1.691324e+01 -4.584732e+00 -3.680269e+00 -1.698106e+01 3.740187e+00 -2.172635e+00 -8.008636e-01 7.437899e+01 5.441446e-01 -1.904665e-01 -6.543161e-01 -2.751288e-01 -1.791986e-01 -2.625580e-01 6.826410e-01 3.685992e-01 -5.463297e-01 8.550633e-02 8.241713e-02 5.321815e-02 2.996643e-01 -1.767894e-01 2.274233e-01 2.743205e-01 3.258853e-01 1.622812e-02 3.363954e-01 -2.396429e-01 -9.777743e-03 1.133327e-01 -1.827003e-01 -2.022317e-01 -5.320710e-02 -2.888249e-01
<VARIANCE> 39
 2.407023e+01 4.392435e+01 3.142724e+01 5.558113e+01 6.649202e+01 7.191673e+01 7.506951e+01 5.556715e+01 5.163385e+01 5.964594e+01 3.041979e+01 2.898830e+01 5.392580e+01 1.744225e+00 3.311251e+00 2.789526e+00 3.852421e+00 2.645280e+00 3.485351e+00 3.736759e+00 3.692511e+00 3.223028e+00 3.390516e+00 2.737272e+00 2.057684e+00 2.685086e+00 3.413960e-01 4.692754e-01 4.449617e-01 5.914077e-01 4.123603e-01 6.564980e-01 5.966874e-01 5.638807e-01 5.817775e-01 5.756488e-01 5.276906e-01 4.355400e-01 2.911206e-01
<GCONST> 1.264380e+02
<STATE> 3
<MEAN> 39
 4.349904e+00 -5.724860e+00 -5.891770e+00 -1.032737e+01 -1.632441e+00 -1.628403e+01 -4.324174e+00 -2.466923e+00 -1.781280e+01 2.112420e+00 -2.040016e+00 -8.482410e-01 7.350339e+01 -2.276695e-01 1.529113e+00 4.801302e-01 1.318413e+00 -4.850660e-01 1.586072e+00 -5.982500e-01 2.694667e-01 1.282243e-01 -9.858949e-01 -6.320412e-01 6.214874e-02 -1.549925e+00 -2.505369e-01 2.590651e-01 2.844777e-01 3.595205e-01 1.761960e-03 4.462852e-01 -2.252010e-01 -1.499651e-02 3.170120e-01 -6.761068e-02 -1.811594e-01 -2.454812e-02 -3.795536e-01
<VARIANCE> 39
 1.694552e+01 3.782057e+01 2.707475e+01 4.460543e+01 6.910799e+01 6.179219e+01 8.415406e+01 5.888610e+01 5.101953e+01 5.099792e+01 3.737800e+01 3.219021e+01 3.628638e+01 9.625612e-01 2.960347e+00 2.066482e+00 3.624570e+00 2.260054e+00 3.862277e+00 4.063115e+00 3.285589e+00 3.008588e+00 3.230388e+00 3.169688e+00 1.723650e+00 2.503197e+00 1.817206e-01 3.923509e-01 3.364184e-01 5.579799e-01 3.887454e-01 5.740432e-01 6.394161e-01 5.989396e-01 5.450648e-01 5.543846e-01 5.417254e-01 4.094904e-01 2.317866e-01
<GCONST> 1.224231e+02
<STATE> 4
<MEAN> 39
 4.897423e-01 -1.955210e-01 -4.332817e+00 -3.795711e+00 -6.954049e+00 -6.056894e+00 -4.017039e+00 -1.249841e+00 -1.415756e+01 -2.907651e-01 -2.351082e+00 6.388295e-01 6.423751e+01 -6.798433e-01 8.457201e-01 5.193756e-01 7.288430e-01 -1.000650e-02 9.745624e-01 -5.353155e-01 1.254684e-01 5.535048e-01 -2.161883e-01 -2.934220e-01 2.489491e-02 -1.156140e+00 -5.504885e-02 -1.655310e-01 8.006644e-02 -8.599247e-02 1.062028e-01 -1.089886e-01 -2.504208e-02 -3.643128e-02 1.231131e-02 5.023695e-02 -3.160850e-02 -5.190930e-02 1.319450e-01
<VARIANCE> 39
 3.862341e+01 5.746885e+01 2.991632e+01 4.474752e+01 5.633123e+01 6.864006e+01 6.895982e+01 4.861591e+01 6.300251e+01 2.593094e+01 3.590179e+01 2.548979e+01 7.647562e+01 9.742540e-01 1.991244e+00 1.730633e+00 2.638236e+00 1.813721e+00 3.206509e+00 2.455779e+00 2.234992e+00 2.501983e+00 2.076036e+00 2.616419e+00 1.705520e+00 1.577711e+00 1.463646e-01 3.327383e-01 2.489115e-01 4.611010e-01 2.678068e-01 4.559429e-01 3.390827e-01 3.890050e-01 4.434126e-01 3.224749e-01 3.457480e-01 2.670976e-01 1.838150e-01
<GCONST> 1.154213e+02
<TRANSP> 5
 0.000000e+00 1.000000e+00 0.000000e+00 0.000000e+00 0.000000e+00
 0.000000e+00 6.678057e-01 3.321943e-01 0.000000e+00 0.000000e+00
 0.000000e+00 0.000000e+00 6.327609e-01 3.672391e-01 0.000000e+00
 0.000000e+00 0.000000e+00 0.000000e+00 7.826222e-01 2.173778e-01
 0.000000e+00 0.000000e+00 0.000000e+00 0.000000e+00 0.000000e+00
<ENDHMM>
~h "b"
<BEGINHMM>
<NUMSTATES> 5
<STATE> 2
<MEAN> 39
 -2.980273e+00 9.700522e+00 7.199882e+00 3.598634e+00 -1.621662e+00 1.317622e+00 -7.402691e+00 -1.352020e+00 -1.176415e+01 -3.167458e+00 -7.356831e+00 -2.139774e+00 5.869487e+01 -1.195674e-02 -1.566136e+00 3.733565e-01 -1.240757e+00 7.222922e-01 -8.091089e-01 -3.950180e-01 1.344399e-02 -1.153634e+00 -2.015537e-01 1.620002e-01 -1.954151e-01 1.519133e+00 1.501367e-01 -8.933813e-01 -2.877034e-01 -8.106266e-01 3.845127e-02 -9.262035e-01 -2.719239e-01 1.293024e-01 -6.395836e-01 -6.919105e-04 3.967099e-02 -1.018585e-01 7.526149e-01
<VARIANCE> 39
 4.843907e+01 5.866965e+01 3.505648e+01 5.763271e+01 2.139861e+01 3.631071e+01 1.449977e+01 3.120213e+01 4.931846e+01 3.010054e+01 2.962860e+01 1.673301e+01 3.940926e+01 3.787822e+00 6.384883e+00 3.338846e+00 7.363023e+00 3.003357e+00 4.952833e+00 2.923071e+00 3.695812e+00 7.445302e+00 3.180013e+00 3.646389e+00 2.818622e+00 3.241709e+00 3.548803e-01 7.821600e-01 6.147679e-01 1.120276e+00 5.427606e-01 9.722944e-01 6.767768e-01 4.890991e-01 1.359089e+00 4.674829e-01 7.447672e-01 5.914996e-01 5.124440e-01
<GCONST> 1.299901e+02
<STATE> 3
<MEAN> 39
 -6.587999e+00 -3.512627e+00 8.080705e+00 -4.388378e+00 1.235608e+00 -6.116444e+00 -9.743237e+00 -3.426368e+00 -1.579507e+01 -1.514456e+00 -4.835573e+00 -2.416147e+00 6.709568e+01 7.813061e-01 -2.193451e+00 -7.152627e-01 -1.523192e+00 3.840927e-01 -2.350233e+00 -8.727215e-01 1.376909e-01 -1.782292e+00 1.990997e-01 -8.865327e-02 -3.831927e-01 1.898230e+00 2.437590e-01 1.977379e-01 -2.325073e-01 1.541086e-01 -1.246081e-01 -2.396212e-01 9.599889e-02 -6.962096e-03 -5.421354e-03 1.197822e-01 -9.972753e-02 4.404325e-03 -8.242687e-02
<VARIANCE> 39
 1.145893e+02 1.023882e+02 5.863353e+01 1.172292e+02 5.764524e+01 7.684843e+01 4.581693e+01 8.819601e+01 9.524017e+01 5.661483e+01 3.439800e+01 4.314549e+01 5.081761e+01 5.944147e+00 1.089704e+01 5.724179e+00 1.141243e+01 6.204706e+00 1.000829e+01 6.395459e+00 7.454154e+00 1.146721e+01 4.835351e+00 3.665968e+00 5.139385e+00 6.802269e+00 7.718749e-01 1.487280e+00 1.007753e+00 1.230519e+00 1.024458e+00 1.560175e+00 8.647694e-01 1.451064e+00 1.164788e+00 1.034251e+00 6.234220e-01 8.814490e-01 7.542747e-01
<GCONST> 1.519734e+02
<STATE> 4
<MEAN> 39
 2.906271e+00 -1.799442e+00 9.668882e-01 -4.530940e+00 -4.726675e+00 -1.327236e+01 -7.650110e+00 -4.168281e-01 -2.122446e+01 -9.640468e-01 -6.494523e+00 -5.508594e+00 6.934826e+01 3.466873e-01 -7.222477e-01 -3.495089e-01 -5.703592e-01 4.080929e-01 -1.253840e+00 -2.969628e-01 -2.313859e-01 -8.020111e-01 -1.337758e-01 -3.641701e-01 -4.139136e-02 7.984135e-01 -1.985659e-01 4.701390e-01 2.002491e-01 3.707909e-01 -8.179794e-02 4.343241e-01 3.638579e-02 -8.118016e-02 5.040368e-01 1.367033e-02 -7.438920e-02 2.117204e-01 -4.621859e-01
<VARIANCE> 39
 2.396867e+01 6.900598e+01 3.657924e+01 6.234803e+01 1.842462e+02 9.399931e+01 9.996740e+01 5.350105e+01 8.605969e+01 7.185355e+01 3.229244e+01 3.987170e+01 4.203221e+01 1.480574e+00 7.376066e+00 3.269435e+00 5.387606e+00 4.381605e+00 1.073673e+01 5.860372e+00 4.823589e+00 7.180955e+00 4.133238e+00 2.898347e+00 4.866010e+00 4.343416e+00 2.245536e-01 8.229584e-01 3.691286e-01 1.018726e+00 8.032852e-01 1.088849e+00 1.145790e+00 1.007746e+00 1.111761e+00 7.590048e-01 5.722874e-01 7.216210e-01 3.825327e-01
<GCONST> 1.400791e+02
<TRANSP> 5
 0.000000e+00 1.000000e+00 0.000000e+00 0.000000e+00 0.000000e+00
 0.000000e+00 6.601414e-01 3.398586e-01 0.000000e+00 0.000000e+00
 0.000000e+00 0.000000e+00 5.979167e-01 4.020833e-01 0.000000e+00
 0.000000e+00 0.000000e+00 0.000000e+00 5.994760e-01 4.005240e-01
 0.000000e+00 0.000000e+00 0.000000e+00 0.000000e+00 0.000000e+00
<ENDHMM>
~h "c"
<BEGINHMM>
<NUMSTATES> 5
<STATE> 2
<MEAN> 39
 -1.821315e+01 -1.227333e+01 1.516258e+01 -5.912598e+00 2.464430e-01 -1.002748e+01 -8.431080e+00 -4.065478e+00 -7.151278e+00 1.537688e+00 -2.693242e+00 -5.657186e+00 6.768592e+01 2.477915e-01 -1.131074e+00 6.845567e-01 1.532526e-01 6.636545e-01 -1.938207e+00 -6.423127e-01 -5.964114e-01 -3.008884e-01 4.992096e-01 -6.493686e-01 -4.577429e-01 1.247554e+00 3.699489e-01 1.917955e-01 -1.695154e-01 1.422934e-01 7.000475e-02 -2.335142e-01 -9.180912e-02 -1.551849e-01 -3.133339e-01 5.760696e-02 -9.752951e-02 3.355326e-02 9.738171e-02
<VARIANCE> 39
 6.534121e+01 1.254443e+02 7.413965e+01 7.754531e+01 6.538969e+01 7.897639e+01 7.620187e+01 3.060541e+01 4.716631e+01 2.420452e+01 5.109436e+01 3.312307e+01 6.150801e+01 1.217474e+01 1.354510e+01 7.147400e+00 1.250364e+01 2.641833e+00 9.849462e+00 7.889869e+00 4.207635e+00 7.178783e+00 2.048655e+00 6.796924e+00 3.504981e+00 6.324015e+00 1.008201e+00 1.779054e+00 1.151996e+00 1.921078e+00 5.157536e-01 2.501368e+00 1.207781e+00 8.000649e-01 8.898135e-01 4.097744e-01 1.400082e+00 6.802946e-01 1.294893e+00
<GCONST> 1.491056e+02
<STATE> 3
<MEAN> 39
 -3.462262e-01 -9.545619e+00 6.569334e+00 -7.298773e+00 1.805003e+00 -2.024338e+01 -1.542901e+01 -1.099866e+01 -2.018174e+01 2.393752e+00 -8.241878e+00 -2.154073e+00 7.525603e+01 7.660882e-01 2.161579e-01 -1.288334e+00 -1.378548e+00 -1.099065e+00 1.231948e+00 8.150573e-01 6.780899e-01 -6.385091e-01 -9.069408e-01 4.818353e-01 4.274521e-01 6.229926e-02 -2.377305e-01 -2.126673e-02 4.999983e-02 9.922681e-02 -1.671533e-01 3.087580e-01 5.363501e-02 4.286636e-01 3.040090e-01 -1.727581e-01 7.041143e-02 -6.833175e-02 -2.305115e-01
<VARIANCE> 39
 7.667745e+00 2.437214e+01 2.483268e+01 1.107277e+02 3.061878e+01 8.710941e+01 3.769077e+01 3.160088e+01 4.029554e+01 2.869204e+01 2.198225e+01 1.738781e+01 9.333421e+00 1.279470e+00 2.282508e+00 1.935216e+00 6.312346e+00 1.669546e+00 5.119243e+00 3.159241e+00 3.922167e+00 3.596558e+00 2.666216e+00 2.462395e+00 2.183320e+00 1.696382e+00 4.868367e-01 5.818771e-01 3.468356e-01 1.519500e+00 3.288592e-01 1.462505e+00 6.794449e-01 5.195159e-01 8.375519e-01 5.091252e-01 6.764396e-01 3.523290e-01 2.040801e-01
<GCONST> 1.201880e+02
<STATE> 4
<MEAN> 39
 1.331199e+00 -4.932413e+00 -3.723773e+00 -3.261766e+00 -2.838044e+00 -1.325460e+01 -1.122274e+01 -9.452639e-01 -1.571206e+01 1.458532e+00 -4.400465e+00 -1.219638e+00 6.770695e+01 -5.840615e-02 -1.141664e-02 -7.843964e-02 2.201344e-01 4.089794e-01 -6.908785e-02 5.319741e-03 1.653703e-02 2.957661e-01 2.156610e-01 6.292347e-02 -5.028824e-02 -1.823813e-02 -1.990221e-02 -3.255489e-02 5.874079e-02 -6.214499e-02 6.685618e-02 1.167887e-02 2.359147e-02 -7.566354e-02 -6.740175e-03 3.020956e-02 -8.577568e-03 3.071397e-03 5.418867e-02
<VARIANCE> 39
 2.300446e+01 6.701310e+01 2.413181e+01 6.907080e+01 1.306776e+02 8.620540e+01 4.602229e+01 4.045323e+01 5.452271e+01 1.101931e+02 3.391410e+01 3.269810e+01 5.452054e+01 1.678434e+00 6.079225e+00 2.630480e+00 4.531735e+00 3.612753e+00 7.220600e+00 3.262820e+00 3.323349e+00 3.341681e+00 6.076817e+00 2.989297e+00 3.160391e+00 4.430562e+00 2.730030e-01 1.045630e+00 5.383443e-01 7.983376e-01 5.729306e-01 1.019427e+00 5.286435e-01 5.529581e-01 6.028224e-01 8.616799e-01 5.783351e-01 6.656020e-01 6.460087e-01
<GCONST> 1.342846e+02
<TRANSP> 5
 0.000000e+00 1.000000e+00 0.000000e+00 0.000000e+00 0.000000e+00
 0.000000e+00 9.270245e-01 7.297540e-02 0.000000e+00 0.000000e+00
 0.000000e+00 0.000000e+00 9.077929e-01 9.220713e-02 0.000000e+00
 0.000000e+00 0.000000e+00 0.000000e+00 9.697067e-01 3.029332e-02
 0.000000e+00 0.000000e+00 0.000000e+00 0.000000e+00 0.000000e+00
<ENDHMM>
~h "d"
<BEGINHMM>
<NUMSTATES> 5
<STATE> 2
<MEAN> 39
 3.029358e+00 7.154999e+00 3.046561e+00 -4.234228e+00 2.025962e+00 -7.529201e+00 -1.279893e+01 6.193383e+00 -1.703441e+01 -1.016510e+01 -1.338667e+01 -4.413692e+00 6.522463e+01 1.583996e-01 3.140795e-01 1.501011e-01 -1.105985e+00 -5.449108e-01 -5.653449e-01 4.856468e-02 7.839755e-01 -1.777057e-01 -3.495668e-01 -2.319959e-01 -5.824397e-01 2.179948e-01 -1.885507e-02 7.849295e-02 1.109292e-01 1.365574e-02 -2.032946e-01 -2.559513e-01 2.733321e-01 -6.964626e-02 -1.328773e-01 2.732888e-01 1.377730e-01 -2.105810e-03 -4.344394e-03
<VARIANCE> 39
 4.292558e+00 3.679048e+01 4.499332e+01 6.839897e+01 4.868143e+01 7.352522e+01 4.215145e+01 5.165244e+01 5.102388e+01 3.785984e+01 2.591546e+01 5.332736e+01 1.324975e+01 3.990797e-01 3.129431e+00 3.054973e+00 5.910291e+00 3.746725e+00 8.917604e+00 4.915154e+00 3.336684e+00 5.609997e+00 4.634764e+00 3.219085e+00 3.451395e+00 1.706418e+00 6.744833e-02 7.771052e-01 6.385955e-01 1.081390e+00 6.648825e-01 1.903017e+00 9.637198e-01 6.650996e-01 7.596393e-01 8.437383e-01 6.178862e-01 6.647575e-01 3.189118e-01
<GCONST> 1.276380e+02
<STATE> 3
<MEAN> 39
 4.860847e+00 5.119208e+00 9.115507e-01 -1.072774e+01 -1.426606e+00 -1.211066e+01 -9.116900e+00 7.462647e+00 -2.061971e+01 -8.936748e+00 -1.145493e+01 -6.056246e+00 6.858944e+01 9.821328e-02 -3.185610e-01 -8.643639e-02 1.963334e-01 -6.552935e-01 -2.435841e-02 1.974383e-01 -3.971102e-01 3.071301e-01 4.889310e-01 1.053792e+00 3.536643e-01 1.148894e-01 -2.498214e-02 -1.004189e-01 -8.176953e-02 2.917551e-01 1.396073e-01 8.740636e-02 -1.464224e-01 -3.187308e-01 4.677648e-02 9.613112e-02 2.404612e-01 1.878963e-01 -3.936400e-02
<VARIANCE> 39
 3.725207e+00 3.269978e+01 1.964901e+01 6.341459e+01 4.523802e+01 4.739300e+01 3.993489e+01 5.065893e+01 1.999778e+01 1.184076e+01 5.396201e+01 3.272972e+01 2.153290e+01 1.184978e-01 2.069037e+00 1.115913e+00 1.979645e+00 1.334390e+00 1.342698e+00 3.687089e+00 2.373704e+00 1.542368e+00 1.508491e+00 2.246850e+00 2.403119e+00 5.729952e-01 2.006401e-02 2.248721e-01 1.446839e-01 4.062987e-01 2.372092e-01 4.628174e-01 5.682542e-01 4.169798e-01 2.637279e-01 2.959653e-01 4.022028e-01 3.597000e-01 7.466363e-02
<GCONST> 1.000542e+02
<STATE> 4
<MEAN> 39
 2.158321e+00 3.317850e+00 5.113440e-01 -2.444200e+00 -7.314490e+00 -9.262637e+00 -7.556321e+00 -1.731434e+00 -1.928683e+01 -4.232172e+00 -8.741488e+00 -4.200666e+00 6.461615e+01 -2.871084e-01 4.151690e-02 6.385434e-02 4.534754e-01 1.278507e-01 2.645957e-01 -3.575163e-01 -2.105023e-01 3.735872e-01 3.342772e-01 5.820469e-01 3.989476e-01 -3.482152e-01 -3.706684e-02 2.262370e-02 2.353039e-02 1.946668e-02 4.920898e-02 4.583160e-02 3.786125e-02 5.433490e-02 3.370284e-02 -2.452381e-02 -5.464452e-02 -5.470512e-02 -2.977000e-02
<VARIANCE> 39
 2.478599e+01 6.112495e+01 2.739471e+01 7.151308e+01 2.733345e+01 5.723840e+01 7.909203e+01 4.718956e+01 3.680958e+01 5.155718e+01 4.298386e+01 3.752033e+01 5.697335e+01 4.039718e-01 1.570084e+00 7.746902e-01 1.163531e+00 8.430719e-01 1.765654e+00 1.514379e+00 1.740892e+00 2.037870e+00 1.975451e+00 1.358386e+00 1.320852e+00 6.016188e-01 3.978368e-02 2.584558e-01 1.012832e-01 1.906170e-01 1.571952e-01 2.977779e-01 2.996802e-01 2.818234e-01 3.407475e-01 3.120998e-01 2.088967e-01 2.139063e-01 7.570540e-02
<GCONST> 1.014268e+02
<TRANSP> 5
 0.000000e+00 1.000000e+00 0.000000e+00 0.000000e+00 0.000000e+00
 0.000000e+00 7.118217e-01 2.881784e-01 0.000000e+00 0.000000e+00
 0.000000e+00 0.000000e+00 6.654067e-01 3.345934e-01 0.000000e+00
 0.000000e+00 0.000000e+00 0.000000e+00 9.128844e-01 8.711562e-02
 0.000000e+00 0.000000e+00 0.000000e+00 0.000000e+00 0.000000e+00
<ENDHMM>
~h "e"
<BEGINHMM>
<NUMSTATES> 5
<STATE> 2
<MEAN> 39
 1.244195e+00 -2.824994e+00 -2.904668e+00 2.164463e+00 -1.214255e+00 -1.344399e+01 -1.542377e+01 -2.341173e+00 -9.294462e+00 6.385321e+00 -3.423063e+00 -5.335254e+00 6.588629e+01 -7.008285e-01 6.254664e-01 8.528651e-02 6.034237e-01 -4.610939e-01 3.962150e-01 -1.073075e-01 1.561549e-02 7.235675e-01 -1.970621e-01 -1.576854e-01 3.864102e-01 -1.066064e+00 -8.902501e-02 -1.554433e-01 -7.246728e-03 -1.744661e-01 4.181542e-02 1.391779e-02 4.322891e-02 9.314892e-02 -8.381279e-02 -7.409772e-02 3.366981e-02 7.589556e-02 4.282089e-02
<VARIANCE> 39
 2.226736e+01 5.628257e+01 1.528354e+01 9.947517e+01 5.937769e+01 9.388871e+01 8.167302e+01 3.802069e+01 3.338213e+01 6.379025e+01 1.851536e+01 3.637031e+01 5.409044e+01 9.699330e-01 1.131462e+00 9.184368e-01 1.192713e+00 1.687095e+00 2.239854e+00 1.769820e+00 1.854254e+00 1.515713e+00 1.866324e+00 1.841976e+00 1.533497e+00 6.067685e-01 8.924812e-02 1.927446e-01 1.542288e-01 1.998181e-01 2.501630e-01 3.514997e-01 2.826183e-01 2.623500e-01 2.942849e-01 1.940368e-01 2.699513e-01 2.300287e-01 1.050740e-01
<GCONST> 1.047811e+02
<STATE> 3
<MEAN> 39
 -3.577144e+00 2.260694e+00 -2.638319e+00 1.599736e+00 -5.087680e+00 -5.338852e+00 -1.263106e+01 1.402245e+00 -6.286079e+00 1.103532e+00 -4.223956e+00 -1.190682e+00 5.839552e+01 -9.629325e-01 2.379537e-02 -9.356717e-02 -3.284826e-01 -5.339299e-01 8.869504e-01 7.840619e-01 3.589967e-01 2.091051e-01 -1.126874e-01 2.737655e-01 5.515757e-01 -8.548674e-01 1.197442e-01 -1.153455e-01 -3.664634e-02 -1.698123e-01 1.302233e-01 -1.248941e-01 1.186753e-01 2.129068e-02 -1.620882e-01 -5.032824e-02 -4.371700e-02 -4.616170e-02 2.059744e-01
<VARIANCE> 39
 3.482065e+01 2.986881e+01 1.311093e+01 7.324106e+01 4.332266e+01 5.232183e+01 1.045925e+02 5.923053e+01 3.368088e+01 3.925247e+01 2.039151e+01 1.501456e+01 4.374220e+01 7.734276e-01 1.043806e+00 9.730565e-01 1.628595e+00 2.237256e+00 2.250690e+00 2.283090e+00 1.964608e+00 1.312589e+00 1.360941e+00 1.915551e+00 2.069754e+00 2.850202e-01 9.307366e-02 1.914209e-01 1.798286e-01 1.738708e-01 3.402945e-01 3.956687e-01 3.599952e-01 3.451770e-01 2.284282e-01 2.029991e-01 2.559999e-01 2.377953e-01 7.141566e-02
<GCONST> 1.026119e+02
<STATE> 4
<MEAN> 39
 -9.401598e+00 3.889998e+00 -1.770988e+00 2.399339e+00 -6.987685e+00 -1.372821e-01 -9.604344e+00 7.338886e-01 -6.097995e+00 1.918883e+00 -1.398141e+00 8.707259e-01 5.236814e+01 -3.715524e-01 -1.371783e-01 -8.639703e-03 1.171901e-01 1.134847e-01 1.938353e-01 1.866662e-01 1.425559e-01 3.367687e-02 -6.814057e-02 -3.411752e-02 1.906405e-02 -2.587777e-01 1.354188e-01 -7.391781e-02 -4.864422e-03 -3.483238e-02 1.507875e-01 -8.062938e-02 -8.673389e-02 -4.788417e-03 -9.130324e-02 2.135537e-02 -3.547002e-02 -9.013458e-02 1.658055e-01
<VARIANCE> 39
 1.706242e+01 1.123184e+01 7.580479e+00 1.781632e+01 1.753559e+01 2.234867e+01 2.580274e+01 1.895577e+01 1.529599e+01 1.597734e+01 1.290311e+01 1.134745e+01 2.248924e+01 3.164121e-01 4.953762e-01 6.180274e-01 7.591735e-01 1.170376e+00 1.215206e+00 1.251547e+00 1.074575e+00 1.061859e+00 1.100880e+00 1.318755e+00 1.248390e+00 2.281146e-01 9.357542e-02 1.210238e-01 1.618789e-01 1.824895e-01 2.107220e-01 2.620843e-01 2.127317e-01 2.375564e-01 2.192126e-01 2.228089e-01 2.985336e-01 2.991319e-01 9.425177e-02
<GCONST> 8.313500e+01
<TRANSP> 5
 0.000000e+00 1.000000e+00 0.000000e+00 0.000000e+00 0.000000e+00
 0.000000e+00 6.669897e-01 3.330103e-01 0.000000e+00 0.000000e+00
 0.000000e+00 0.000000e+00 3.965141e-01 6.034859e-01 0.000000e+00
 0.000000e+00 0.000000e+00 0.000000e+00 7.798154e-01 2.201847e-01
 0.000000e+00 0.000000e+00 0.000000e+00 0.000000e+00 0.000000e+00
<ENDHMM>
~h "g"
<BEGINHMM>
<NUMSTATES> 5
<STATE> 2
<MEAN> 39
 -4.041926e+00 3.160791e+00 6.434381e+00 5.253841e+00 -1.466658e-02 -2.407167e+00 -1.050448e+01 1.170121e-01 -8.775842e+00 -8.012289e-01 -7.021241e+00 -3.147074e+00 6.084601e+01 -5.306318e-01 -4.090370e+00 -4.495564e-01 -3.535520e+00 5.447946e-01 3.153225e-01 -4.375698e-02 -8.096714e-01 -8.180097e-01 1.085880e+00 1.379557e-01 -9.182172e-01 2.449781e+00 1.789842e-01 -6.882051e-01 1.250525e-01 -1.995153e-01 1.254832e-01 -1.406434e+00 -4.493794e-01 -8.510242e-02 -3.423081e-01 2.439148e-02 -2.090350e-01 -1.986082e-01 8.077584e-01
<VARIANCE> 39
 1.189104e+01 1.315233e+02 2.535005e+01 1.060112e+02 3.767086e+01 7.384844e+01 3.619626e+01 3.586404e+01 4.888805e+01 3.008737e+01 1.600653e+01 2.076550e+01 5.793865e+01 1.851862e+00 1.512425e+01 2.453752e+00 1.017600e+01 4.031275e+00 1.238080e+01 7.514514e+00 4.102184e+00 4.983627e+00 2.372454e+00 2.919001e+00 3.580274e+00 7.997402e+00 4.062489e-01 3.803508e+00 6.451933e-01 2.087973e+00 5.819143e-01 1.304611e+00 6.231806e-01 7.794547e-01 9.468725e-01 7.041998e-01 2.639500e-01 3.675583e-01 1.119911e+00
<GCONST> 1.370826e+02
<STATE> 3
<MEAN> 39
 -4.725191e+00 -8.408120e+00 7.979255e+00 -5.411739e+00 5.174877e+00 -1.075469e+01 -1.467204e+01 -5.198722e+00 -1.400382e+01 1.073945e+00 -7.093943e+00 -6.664170e+00 7.280440e+01 1.240875e+00 -1.309952e-01 -2.868599e-01 -1.064178e+00 5.445812e-01 -3.419798e+00 3.146397e-01 -1.113539e+00 -2.729310e+00 6.084654e-01 2.509503e-01 -6.562809e-01 1.733698e+00 4.887592e-01 1.196951e+00 -4.261820e-01 8.172308e-01 -3.277288e-01 -5.986876e-01 3.883574e-01 2.739164e-01 2.272092e-01 -6.813667e-02 7.451369e-02 3.408618e-01 -6.431044e-01
<VARIANCE> 39
 3.732463e+01 8.438161e+01 3.172458e+01 9.247938e+01 8.596175e+01 1.056486e+02 9.039365e+01 4.621747e+01 6.344348e+01 3.250926e+01 4.727760e+01 5.013940e+01 2.319266e+01 4.103861e+00 1.118785e+01 4.745950e+00 1.489212e+01 6.854706e+00 1.529913e+01 7.114398e+00 4.953130e+00 5.393105e+00 5.760235e+00 3.314955e+00 5.347425e+00 3.921780e+00 7.164049e-01 2.548914e+00 9.563501e-01 2.623958e+00 1.194276e+00 2.843794e+00 1.548440e+00 7.152848e-01 1.405851e+00 5.822742e-01 1.142261e+00 9.289179e-01 4.986691e-01
<GCONST> 1.497020e+02
<STATE> 4
<MEAN> 39
 4.062093e-01 -2.285727e+00 4.705654e+00 -5.892035e+00 2.203978e+00 -1.430214e+01 -1.148530e+01 -3.583510e+00 -1.741762e+01 9.394772e-01 -5.968595e+00 -9.686226e+00 7.199392e+01 7.351684e-01 -3.019624e-01 -1.079628e+00 -1.700251e+00 -6.711395e-01 -1.336059e+00 2.262919e+00 -1.440155e-01 -1.045976e+00 6.924078e-01 5.658767e-01 -4.603162e-01 9.802629e-01 -2.859523e-02 -6.478319e-02 -3.802401e-02 1.114685e-01 -1.515516e-01 2.962953e-01 -2.081615e-02 3.021744e-01 4.279310e-01 4.208604e-02 -2.682883e-01 2.754371e-01 -1.910185e-01
<VARIANCE> 39
 1.767516e+01 6.546934e+01 2.253785e+01 1.406025e+02 9.144942e+01 1.477511e+02 1.105991e+02 1.046599e+02 7.179407e+01 4.105364e+01 4.067168e+01 1.003884e+02 3.515728e+01 1.737950e+00 2.900657e+00 4.428660e+00 1.123322e+01 3.070453e+00 1.168765e+01 5.840526e+00 4.630593e+00 5.552740e+00 2.752051e+00 5.968306e+00 6.353778e+00 1.454545e+00 4.059066e-01 8.016169e-01 5.492114e-01 3.664239e+00 6.156489e-01 3.092870e+00 1.807271e+00 9.677551e-01 1.077348e+00 4.931352e-01 9.543289e-01 7.541658e-01 4.150591e-01
<GCONST> 1.436014e+02
<TRANSP> 5
 0.000000e+00 1.000000e+00 0.000000e+00 0.000000e+00 0.000000e+00
 0.000000e+00 5.866663e-01 4.133337e-01 0.000000e+00 0.000000e+00
 0.000000e+00 0.000000e+00 5.651386e-01 4.348613e-01 0.000000e+00
 0.000000e+00 0.000000e+00 0.000000e+00 4.629621e-01 5.370380e-01
 0.000000e+00 0.000000e+00 0.000000e+00 0.000000e+00 0.000000e+00
<ENDHMM>
~h "h"
<BEGINHMM>
<NUMSTATES> 5
<STATE> 2
<MEAN> 39
 -2.012950e+00 -2.119167e+00 6.085249e+00 1.649111e+00 -4.667200e+00 -1.334898e+01 -1.353608e+01 4.523517e+00 -1.147880e+01 -2.985200e+00 -1.115275e+01 -6.635162e+00 6.514235e+01 1.083910e+00 2.251365e-01 -5.702276e-01 7.863776e-02 2.644582e-01 -7.062225e-01 -5.866870e-02 -2.156274e-01 -8.834187e-01 -2.363185e-01 -1.033795e+00 -5.922478e-01 6.078826e-01 5.765404e-02 5.759292e-02 -2.361356e-01 -9.469713e-02 -1.302008e-01 4.105791e-01 2.981368e-01 -1.700492e-01 -6.451186e-02 6.226556e-02 1.097042e-01 1.356626e-01 -7.807083e-02
<VARIANCE> 39
 6.858678e+01 1.062600e+02 8.382437e+01 1.239951e+02 9.981425e+01 1.348498e+02 3.752549e+01 9.109570e+01 7.044704e+01 7.917937e+01 6.157465e+01 2.987790e+01 2.574033e+01 3.763410e+00 7.406962e+00 5.436446e+00 8.346485e+00 8.766763e+00 1.530991e+01 4.411736e+00 7.418276e+00 5.693366e+00 4.445512e+00 2.811314e+00 2.122660e+00 2.451232e+00 6.704512e-01 1.447711e+00 7.346902e-01 1.444844e+00 1.589916e+00 3.228831e+00 8.125539e-01 1.510873e+00 1.178746e+00 1.097382e+00 6.465260e-01 4.377957e-01 3.889738e-01
<GCONST> 1.482229e+02
<STATE> 3
<MEAN> 39
 6.873573e+00 3.498244e+00 -5.814742e+00 -3.766454e+00 -1.076127e+00 -4.575019e+00 -1.304934e+01 -7.834042e-01 -1.732957e+01 -9.686543e+00 -1.365992e+01 -6.534704e+00 6.647258e+01 -2.379893e-01 -2.691949e-01 7.081938e-01 -9.059013e-02 -1.194244e+00 2.644852e-01 1.019718e+00 2.395508e-01 -3.873705e-01 7.757712e-02 6.032535e-01 9.081773e-02 2.884180e-02 -1.717382e-01 -1.221749e-01 3.857090e-01 1.209720e-01 -3.719503e-01 -4.579810e-01 1.459823e-01 3.009479e-01 1.166027e-01 1.119624e-01 1.349440e-01 -8.587959e-02 2.048697e-02
<VARIANCE> 39
 1.705619e+01 3.174929e+01 5.867199e+01 3.589881e+01 8.402300e+01 1.108305e+02 6.579197e+01 6.715960e+01 7.305528e+01 5.408149e+01 6.021639e+01 2.665241e+01 1.328176e+01 4.689689e-01 3.566551e+00 5.482314e+00 2.306553e+00 7.552952e+00 1.991638e+01 7.696290e+00 1.027179e+01 7.033395e+00 4.946280e+00 3.833813e+00 2.333685e+00 1.755559e+00 9.698838e-02 3.961546e-01 6.892849e-01 4.752813e-01 9.942191e-01 1.885607e+00 1.881438e+00 1.184281e+00 1.492700e+00 7.431117e-01 7.996781e-01 5.561787e-01 2.221916e-01
<GCONST> 1.349883e+02
<STATE> 4
<MEAN> 39
 1.723425e+00 -3.390044e+00 2.597790e-01 -4.022685e+00 -1.452755e+01 -9.391613e+00 -3.138217e-01 4.861385e+00 -2.256147e+01 -7.418804e+00 -8.517585e+00 -5.424615e+00 6.668620e+01 -5.989407e-01 -4.404725e-01 -2.373965e-01 2.873804e-01 3.701749e-01 9.278418e-01 2.676345e-01 -3.992967e-01 6.200728e-01 5.094640e-01 5.683373e-01 6.272915e-01 -3.794574e-01 -6.340154e-02 5.377897e-02 5.881251e-03 -2.527104e-02 2.517969e-01 -1.969960e-02 -2.928199e-01 -6.956919e-02 2.258511e-01 5.432916e-02 -1.020822e-01 1.052960e-01 -3.609873e-02
<VARIANCE> 39
 2.726284e+01 6.457354e+01 8.052629e+01 2.410361e+01 8.856856e+01 1.513381e+02 6.410621e+01 2.052649e+01 9.454948e+01 4.763628e+01 5.991773e+01 4.138195e+01 3.142592e+01 5.164086e-01 2.836584e+00 2.777716e+00 1.742367e+00 3.712781e+00 8.414200e+00 4.304105e+00 3.068898e+00 6.253397e+00 4.503459e+00 3.201350e+00 2.499698e+00 8.135649e-01 7.570539e-02 4.504815e-01 5.467672e-01 3.338518e-01 4.698175e-01 1.278793e+00 5.942143e-01 4.703373e-01 7.435963e-01 7.379539e-01 5.645351e-01 3.959076e-01 1.336795e-01
<GCONST> 1.253016e+02
<TRANSP> 5
 0.000000e+00 1.000000e+00 0.000000e+00 0.000000e+00 0.000000e+00
 0.000000e+00 7.511874e-01 2.488127e-01 0.000000e+00 0.000000e+00
 0.000000e+00 0.000000e+00 6.755103e-01 3.244897e-01 0.000000e+00
 0.000000e+00 0.000000e+00 0.000000e+00 8.308216e-01 1.691784e-01
 0.000000e+00 0.000000e+00 0.000000e+00 0.000000e+00 0.000000e+00
<ENDHMM>
~h "i"
<BEGINHMM>
<NUMSTATES> 5
<STATE> 2
<MEAN> 39
 1.475782e+00 -2.770354e+00 3.544677e+00 3.081283e+00 5.489781e+00 -1.995731e+01 -1.629614e+01 -2.555621e+00 -1.466212e+01 7.711564e-01 -1.058352e+01 -5.520663e+00 6.994503e+01 -5.546369e-01 -1.825162e+00 1.255182e+00 1.419807e+00 8.820084e-01 -3.656625e+00 -1.003696e-01 3.367833e-01 -1.648024e-01 7.181989e-01 1.855482e-02 -5.507860e-01 1.125913e+00 -2.302378e-01 3.517729e-02 2.818418e-01 -1.598323e-01 -1.821255e-01 1.321804e-02 2.642315e-01 1.545314e-01 -3.681967e-02 -2.397146e-01 8.102699e-02 1.751219e-01 -3.891335e-02
<VARIANCE> 39
 1.331884e+01 5.782602e+01 4.997113e+01 9.653381e+01 5.079255e+01 1.137682e+02 5.308098e+01 4.437795e+01 8.033842e+01 3.209166e+01 4.122118e+01 4.994745e+01 3.142982e+01 8.966330e-01 5.069051e+00 3.026772e+00 5.344928e+00 4.793746e+00 9.934329e+00 3.247077e+00 3.879112e+00 5.481628e+00 3.928919e+00 3.997404e+00 1.792144e+00 2.264802e+00 1.028043e-01 7.669101e-01 5.205074e-01 9.016905e-01 1.012863e+00 1.776184e+00 6.120363e-01 5.796896e-01 9.660811e-01 6.703853e-01 7.319797e-01 4.205633e-01 3.652211e-01
<GCONST> 1.323493e+02
<STATE> 3
<MEAN> 39
 -2.553376e+00 -7.171854e+00 1.223052e+01 6.827642e+00 6.879994e+00 -3.066171e+01 -1.531559e+01 -7.731292e-02 -1.670003e+01 3.761165e-01 -1.113501e+01 -6.368444e+00 7.274056e+01 -5.300810e-01 -1.056878e-01 1.159392e+00 2.955240e-01 -3.315029e-01 -9.637546e-01 4.105290e-01 1.027569e-01 2.199459e-01 -4.043226e-01 -7.435416e-02 2.236354e-01 1.857204e-01 1.450840e-01 4.593968e-01 -3.482008e-01 -2.165087e-01 -2.173201e-01 8.016196e-01 -9.250547e-02 -1.229423e-01 1.069122e-01 -1.120720e-01 5.447079e-02 1.208639e-01 -3.130589e-01
<VARIANCE> 39
 1.143536e+01 3.495122e+01 6.560256e+01 7.138045e+01 3.475975e+01 9.791254e+01 4.833493e+01 7.124124e+01 6.056360e+01 4.365601e+01 4.159526e+01 4.343829e+01 2.213603e+01 5.008288e-01 1.746902e+00 2.896123e+00 4.577045e+00 2.606460e+00 6.379554e+00 3.240711e+00 3.152834e+00 2.638794e+00 2.912118e+00 2.417252e+00 1.569583e+00 1.097958e+00 8.373673e-02 4.052854e-01 3.652124e-01 5.603845e-01 5.839792e-01 1.009472e+00 5.368249e-01 5.129034e-01 5.970303e-01 6.388097e-01 4.330349e-01 3.456757e-01 2.252164e-01
<GCONST> 1.207832e+02
<STATE> 4
<MEAN> 39
 -1.710992e+00 -2.568524e+00 1.107968e+01 8.919997e+00 2.050482e+00 -2.857608e+01 -1.587585e+01 -1.287611e+00 -1.362004e+01 -8.403713e-01 -1.108656e+01 -6.869794e+00 6.957731e+01 2.173338e-01 1.153964e+00 -4.893253e-01 -2.746354e-01 -4.532924e-01 1.711963e+00 -4.235013e-01 -1.775302e-01 4.584335e-01 -6.604000e-02 1.614312e-01 4.562869e-02 -8.267087e-01 -1.703692e-02 1.376095e-02 -6.668074e-02 -1.312810e-01 7.310466e-03 3.258919e-01 3.979800e-02 -2.400224e-02 4.041835e-02 -1.662989e-02 4.188826e-03 2.272974e-02 -4.529355e-02
<VARIANCE> 39
 1.328974e+01 6.315160e+01 4.312016e+01 6.666706e+01 3.063003e+01 1.686577e+02 3.230099e+01 8.754408e+01 4.139853e+01 4.517243e+01 5.140059e+01 3.344221e+01 4.089539e+01 5.952920e-01 2.122585e+00 2.202488e+00 2.719604e+00 2.035039e+00 6.304066e+00 1.747429e+00 2.343270e+00 2.663147e+00 2.569972e+00 2.567290e+00 1.844537e+00 1.094681e+00 1.178254e-01 3.870447e-01 3.267576e-01 4.050917e-01 3.400985e-01 8.571494e-01 2.898933e-01 3.744137e-01 4.966053e-01 5.017305e-01 4.414809e-01 3.335378e-01 1.775286e-01
<GCONST> 1.175220e+02
<TRANSP> 5
 0.000000e+00 1.000000e+00 0.000000e+00 0.000000e+00 0.000000e+00
 0.000000e+00 6.043099e-01 3.956901e-01 0.000000e+00 0.000000e+00
 0.000000e+00 0.000000e+00 6.910055e-01 3.089945e-01 0.000000e+00
 0.000000e+00 0.000000e+00 0.000000e+00 8.561660e-01 1.438340e-01
 0.000000e+00 0.000000e+00 0.000000e+00 0.000000e+00 0.000000e+00
<ENDHMM>
~h "j"
<BEGINHMM>
<NUMSTATES> 5
<STATE> 2
<MEAN> 39
 -8.670383e+00 -1.952224e+00 1.522869e+01 -3.824534e-01 9.142895e-01 -5.138022e+00 -8.802195e+00 -4.567583e+00 -1.073064e+01 -1.906516e-01 -6.231484e+00 -4.768485e+00 6.650088e+01 -8.844712e-01 -2.381635e+00 1.946609e+00 -1.263255e+00 1.146890e+00 -1.280296e+00 -5.183725e-02 -1.070721e+00 -3.615072e-01 2.089838e-01 -2.866795e-01 -4.769094e-01 2.136044e+00 4.789086e-01 5.023326e-02 -5.261720e-01 1.387964e-01 2.499679e-02 -5.756317e-01 -3.585589e-01 -2.484770e-01 -3.836537e-01 1.017613e-01 -5.280398e-02 2.095803e-02 8.068304e-02
<VARIANCE> 39
 6.051001e+01 1.560393e+02 9.150107e+01 9.513503e+01 4.450261e+01 5.806452e+01 4.338151e+01 4.290313e+01 4.372577e+01 2.694317e+01 2.619174e+01 2.844883e+01 7.676691e+01 8.284873e+00 1.620946e+01 7.981720e+00 1.171428e+01 4.077586e+00 8.104854e+00 8.517473e+00 6.078211e+00 5.446188e+00 3.170563e+00 3.043912e+00 2.939299e+00 6.219851e+00 2.006088e+00 3.960001e+00 2.603094e+00 2.823170e+00 1.002193e+00 1.173747e+00 1.523511e+00 1.088755e+00 1.032269e+00 7.176826e-01 6.555388e-01 6.506515e-01 1.518751e+00
<GCONST> 1.510658e+02
<STATE> 3
<MEAN> 39
 -2.011853e+00 -9.460263e+00 1.226237e+01 -1.763481e+00 5.522248e+00 -1.927063e+01 -1.525785e+01 -1.374128e+01 -1.885572e+01 3.040136e+00 -8.200688e+00 -6.069215e+00 7.613693e+01 3.144070e+00 8.011106e-02 -4.505922e+00 -8.607230e-02 -9.599742e-02 -2.472355e+00 1.149982e-01 -1.953972e-01 -1.568657e+00 1.328967e+00 6.630727e-01 6.946286e-01 7.540408e-01 -5.752914e-01 -9.453133e-02 -7.064616e-02 -8.639041e-01 -2.093026e-01 7.198204e-01 1.132497e+00 8.835009e-01 7.001424e-01 -9.144700e-03 4.516397e-01 3.150847e-01 -6.748462e-02
<VARIANCE> 39
 2.089389e+01 1.658777e+01 5.563901e+01 2.871665e+01 1.952564e+01 6.028585e+01 4.258551e+01 3.264286e+01 3.746167e+01 3.392209e+01 2.482109e+01 2.026052e+01 1.061594e+01 3.173933e+00 2.424363e+00 3.228755e+00 4.926733e+00 2.075660e+00 5.251818e+00 7.063525e+00 5.247317e+00 5.449721e+00 3.485332e+00 3.353092e+00 2.131488e+00 5.684730e-01 7.433767e-01 5.420246e-01 1.630855e+00 7.107905e-01 5.117956e-01 8.973035e-01 9.192153e-01 6.234651e-01 6.841020e-01 7.398201e-01 4.961301e-01 4.566026e-01 1.280673e-01
<GCONST> 1.237774e+02
<STATE> 4
<MEAN> 39
 1.859852e+00 -1.029079e+01 1.867431e+00 -8.351674e+00 4.389365e+00 -2.131187e+01 -8.638718e+00 -1.037051e+01 -1.743245e+01 5.768384e+00 -2.758323e+00 -1.821935e+00 7.857545e+01 5.543633e-01 3.228982e-01 -1.680765e+00 -1.507259e+00 -5.416736e-01 4.261917e-01 1.319598e+00 1.697202e+00 -4.908087e-02 -2.350211e-01 1.066765e+00 9.310683e-01 -3.019333e-02 -1.621224e-01 2.745865e-01 4.246872e-01 2.547171e-01 -1.939254e-01 3.528780e-01 -8.955717e-02 2.571844e-01 -1.966821e-01 -3.405003e-01 -3.311221e-01 -1.485514e-01 -3.606026e-01
<VARIANCE> 39
 9.367795e+00 1.687238e+01 2.251913e+01 2.794886e+01 2.290091e+01 4.116819e+01 4.999966e+01 4.093501e+01 5.293796e+01 4.056193e+01 2.863947e+01 2.220722e+01 1.129481e+01 6.596599e-01 1.027735e+00 1.705830e+00 2.357724e+00 1.750834e+00 2.303102e+00 2.577663e+00 2.463438e+00 3.718194e+00 3.209594e+00 2.259298e+00 2.098366e+00 5.784763e-01 2.426605e-01 1.648486e-01 4.221117e-01 4.604257e-01 2.423073e-01 5.545427e-01 5.205305e-01 5.067261e-01 7.885438e-01 6.412238e-01 4.886432e-01 3.522714e-01 7.212701e-02
<GCONST> 1.086758e+02
<TRANSP> 5
 0.000000e+00 1.000000e+00 0.000000e+00 0.000000e+00 0.000000e+00
 0.000000e+00 8.642579e-01 1.357421e-01 0.000000e+00 0.000000e+00
 0.000000e+00 0.000000e+00 6.954718e-01 3.045282e-01 0.000000e+00
 0.000000e+00 0.000000e+00 0.000000e+00 7.438655e-01 2.561344e-01
 0.000000e+00 0.000000e+00 0.000000e+00 0.000000e+00 0.000000e+00
<ENDHMM>
~h "k"
<BEGINHMM>
<NUMSTATES> 5
<STATE> 2
<MEAN> 39
 -9.079035e+00 -3.032820e+00 -2.029367e+00 -9.363282e+00 -6.511470e+00 1.303719e+00 -3.746369e+00 -2.717577e+00 -1.014304e+01 1.114331e+00 -5.260789e-01 2.766232e+00 6.007661e+01 3.274854e-01 -2.154072e+00 2.002704e-01 -3.065173e+00 5.853212e-01 -6.258283e-01 1.422192e+00 -9.859541e-01 -1.285042e+00 -1.652851e-02 -2.376161e-01 1.940252e-01 2.611525e+00 6.401098e-01 9.702317e-02 -2.145830e-02 1.607910e-01 -1.210817e-03 -8.152297e-01 -1.914700e-01 -2.961223e-02 -3.418606e-01 2.940326e-02 -2.193018e-01 -2.077507e-01 4.409320e-01
<VARIANCE> 39
 1.357453e+01 9.168298e+01 2.747886e+01 1.601929e+02 4.854086e+01 3.875491e+01 5.117545e+01 4.729949e+01 3.722474e+01 1.745472e+01 1.671311e+01 2.525648e+01 8.461728e+01 3.366580e+00 9.444974e+00 4.134930e+00 1.601620e+01 6.944961e+00 7.252148e+00 6.480613e+00 4.488028e+00 5.223863e+00 2.398872e+00 2.379676e+00 3.299780e+00 1.028944e+01 3.873039e-01 2.525444e+00 1.028164e+00 4.864560e+00 1.431597e+00 1.172576e+00 1.457831e+00 1.003162e+00 8.957617e-01 5.052168e-01 4.791947e-01 7.125804e-01 2.018040e+00
<GCONST> 1.426676e+02
<STATE> 3
<MEAN> 39
 5.526748e-01 -6.932216e+00 -2.272017e+00 -1.379300e+01 -4.234951e+00 -1.120935e+01 -2.878874e+00 -6.629910e+00 -1.752892e+01 2.301282e+00 -4.839100e+00 -1.322359e-01 7.238333e+01 3.047263e+00 3.044486e-01 -1.507600e+00 2.314138e+00 -4.305660e-01 -3.850757e+00 -3.622996e-01 7.058077e-01 -4.858189e-01 1.242602e+00 -8.066821e-01 -1.704134e+00 1.196941e+00 -4.334032e-01 -1.975936e-01 -3.323301e-01 3.251852e-01 -7.168719e-02 4.581317e-01 2.704302e-01 3.589124e-01 5.519600e-01 2.717351e-01 4.180091e-01 8.144452e-02 -4.680013e-01
<VARIANCE> 39
 3.846441e+01 3.897011e+01 4.023253e+01 5.071914e+01 5.780626e+01 7.297065e+01 6.776514e+01 4.078872e+01 3.332142e+01 3.216797e+01 3.022325e+01 4.689123e+01 3.485487e+01 2.746951e+00 4.616226e+00 4.060728e+00 5.016384e+00 5.186939e+00 4.850768e+00 4.985097e+00 2.951908e+00 3.737914e+00 2.773678e+00 3.907820e+00 3.164132e+00 2.040267e+00 7.457982e-01 1.009018e+00 9.181986e-01 2.205814e+00 8.409650e-01 1.167246e+00 9.826283e-01 6.066171e-01 5.385649e-01 5.387334e-01 5.522225e-01 8.314184e-01 5.485421e-01
<GCONST> 1.349713e+02
<STATE> 4
<MEAN> 39
 3.522253e+00 -8.774858e+00 -7.845912e+00 -7.462010e+00 -4.740968e+00 -1.463426e+01 -3.736120e+00 -2.174153e+00 -1.452365e+01 6.163105e+00 -1.838804e+00 -3.055722e+00 7.185651e+01 -4.527701e-02 1.002810e-01 -1.896109e-01 5.616045e-02 2.969685e-01 -2.808400e-01 -7.103259e-02 5.771163e-01 7.466245e-02 8.535042e-02 5.103600e-01 -5.675926e-01 -6.842400e-02 -2.569740e-01 1.923385e-01 2.404353e-01 -2.980935e-01 9.315066e-02 3.383186e-01 -1.548535e-01 -1.339273e-01 -1.135330e-01 -2.997398e-01 -1.385284e-02 1.963653e-01 -1.558971e-01
<VARIANCE> 39
 3.972110e+01 4.630403e+01 2.092133e+01 4.455238e+01 5.397535e+01 7.543045e+01 1.031189e+02 2.734644e+01 5.674969e+01 2.454402e+01 3.148310e+01 2.355479e+01 8.591110e+01 8.973985e-01 1.610307e+00 1.211589e+00 2.045246e+00 1.389392e+00 2.386570e+00 2.044449e+00 1.612000e+00 1.943905e+00 1.917314e+00 1.524339e+00 1.997780e+00 8.002815e-01 2.736917e-01 3.485775e-01 2.760563e-01 3.931320e-01 3.151160e-01 4.475941e-01 3.230389e-01 2.795040e-01 4.385176e-01 3.231131e-01 2.853383e-01 3.060054e-01 2.219809e-01
<GCONST> 1.116312e+02
<TRANSP> 5
 0.000000e+00 1.000000e+00 0.000000e+00 0.000000e+00 0.000000e+00
 0.000000e+00 8.136707e-01 1.863293e-01 0.000000e+00 0.000000e+00
 0.000000e+00 0.000000e+00 6.508920e-01 3.491080e-01 0.000000e+00
 0.000000e+00 0.000000e+00 0.000000e+00 7.561225e-01 2.438775e-01
 0.000000e+00 0.000000e+00 0.000000e+00 0.000000e+00 0.000000e+00
<ENDHMM>
~h "l"
<BEGINHMM>
<NUMSTATES> 5
<STATE> 2
<MEAN> 39
 4.190586e+00 -4.973142e+00 -2.430409e+00 -7.864792e+00 1.270949e+00 -1.145367e+01 -1.116333e+01 2.675963e+00 -1.887036e+01 -3.956176e+00 -5.524035e+00 1.107039e-01 7.184404e+01 4.575921e-01 -2.149455e-01 -5.859028e-01 -8.882039e-01 4.409681e-02 -7.319221e-01 1.141997e-01 5.695243e-01 2.518266e-01 2.121823e-01 5.245625e-01 5.227122e-01 5.625514e-01 -6.458962e-02 3.684606e-02 9.032761e-02 1.467354e-01 -1.186492e-01 -7.638267e-02 1.214780e-01 -1.037443e-01 8.463784e-02 1.970949e-01 6.111835e-02 -1.137980e-01 -5.325767e-02
<VARIANCE> 39
 2.103852e+01 2.869750e+01 3.111217e+01 4.674269e+01 7.800043e+01 5.719695e+01 7.670952e+01 5.648465e+01 6.397552e+01 4.746611e+01 3.889851e+01 3.894035e+01 3.315493e+01 1.463558e+00 2.191511e+00 2.408639e+00 4.119299e+00 3.059856e+00 4.958659e+00 2.952749e+00 3.840124e+00 5.743141e+00 4.242280e+00 3.193315e+00 3.675604e+00 2.251820e+00 2.364029e-01 2.179945e-01 4.527817e-01 7.292564e-01 4.965325e-01 7.811214e-01 5.554715e-01 5.427369e-01 9.611265e-01 6.455532e-01 4.377222e-01 6.359683e-01 2.397748e-01
<GCONST> 1.266542e+02
<STATE> 3
<MEAN> 39
 4.999787e+00 -4.556651e+00 -1.557083e+00 -1.214118e+01 3.650033e+00 -1.373739e+01 -1.264478e+01 2.350386e+00 -1.645350e+01 -3.796823e+00 -4.665302e+00 3.055842e+00 7.438493e+01 -5.461440e-02 -1.068575e-01 -2.438227e-01 -3.907900e-01 -4.324824e-01 -4.175896e-01 6.621187e-01 6.878142e-02 3.415021e-01 7.448177e-01 7.786981e-01 -2.798316e-01 1.516239e-01 -5.310907e-02 6.948587e-02 4.667623e-02 1.543854e-01 -5.061925e-02 9.348246e-02 6.386240e-02 -1.661413e-01 -1.187016e-02 1.481454e-02 -1.018179e-01 -1.803045e-01 -8.293459e-02
<VARIANCE> 39
 8.603897e+00 2.361730e+01 2.350274e+01 4.704104e+01 7.510895e+01 4.929932e+01 8.173952e+01 7.022800e+01 8.751834e+01 5.548013e+01 4.190258e+01 3.854120e+01 2.532588e+01 3.413976e-01 1.170089e+00 1.128276e+00 2.086317e+00 1.826687e+00 2.481761e+00 2.655722e+00 2.451375e+00 2.335228e+00 3.499014e+00 2.704755e+00 1.914756e+00 6.532841e-01 6.396233e-02 1.670431e-01 2.185114e-01 3.735735e-01 2.717246e-01 4.140572e-01 3.521612e-01 3.756258e-01 4.625614e-01 5.341420e-01 5.362241e-01 2.934164e-01 1.169769e-01
<GCONST> 1.099759e+02
<STATE> 4
<MEAN> 39
 4.891517e+00 -5.539559e+00 -5.080499e+00 -1.154522e+01 -3.567564e+00 -1.864706e+01 2.501081e-01 1.615742e+00 -1.897592e+01 1.126041e+00 -2.902354e+00 -4.714618e-01 7.459976e+01 -1.399579e-01 8.801009e-02 -6.786487e-02 2.778205e-01 -1.922234e-01 1.368725e-02 1.233076e-01 -7.390518e-01 3.157537e-01 3.719087e-01 -1.022005e-01 -2.305094e-01 -1.581993e-01 -5.391285e-02 1.092018e-01 1.351839e-01 8.121548e-02 3.441034e-02 6.291866e-02 -1.537551e-01 -4.459171e-02 -4.235208e-02 -1.031337e-01 -5.290398e-02 -8.948261e-03 -8.716673e-02
<VARIANCE> 39
 6.914194e+00 2.703077e+01 1.713026e+01 2.604272e+01 6.076791e+01 4.413741e+01 7.498983e+01 8.455338e+01 8.975949e+01 6.364159e+01 3.267714e+01 2.436925e+01 2.271757e+01 2.352457e-01 1.056092e+00 7.946867e-01 1.098923e+00 1.272220e+00 1.450087e+00 1.588015e+00 2.143757e+00 1.843893e+00 1.892187e+00 1.141928e+00 1.138529e+00 3.816451e-01 3.456835e-02 1.286554e-01 1.167290e-01 1.732900e-01 2.102916e-01 2.411804e-01 2.389017e-01 2.854295e-01 2.735575e-01 3.041509e-01 2.064832e-01 1.908441e-01 4.461636e-02
<GCONST> 9.515616e+01
<TRANSP> 5
 0.000000e+00 1.000000e+00 0.000000e+00 0.000000e+00 0.000000e+00
 0.000000e+00 6.920824e-01 3.079176e-01 0.000000e+00 0.000000e+00
 0.000000e+00 0.000000e+00 7.166831e-01 2.833169e-01 0.000000e+00
 0.000000e+00 0.000000e+00 0.000000e+00 8.848919e-01 1.151081e-01
 0.000000e+00 0.000000e+00 0.000000e+00 0.000000e+00 0.000000e+00
<ENDHMM>
~h "m"
<BEGINHMM>
<NUMSTATES> 5
<STATE> 2
<MEAN> 39
 2.670551e+00 3.729489e+00 -2.577551e-02 -3.451474e+00 1.322540e+00 -1.061435e+01 -8.264561e+00 2.439853e+00 -2.075958e+01 -6.019453e+00 -1.429234e+01 -4.086166e+00 6.610619e+01 2.839081e-02 1.149441e+00 6.541874e-01 1.568209e+00 1.405737e-01 1.329037e+00 -1.079771e+00 -1.185086e-01 4.348380e-02 -1.029332e+00 -1.335065e+00 -7.789470e-01 -9.897421e-01 2.260809e-02 -3.860260e-01 -1.852715e-01 -2.489540e-01 -1.230426e-01 -2.260693e-01 7.119620e-02 -1.362759e-01 9.647514e-02 2.057343e-01 4.811805e-01 1.954746e-01 2.842868e-01
<VARIANCE> 39
 1.266730e+01 3.013363e+01 2.647439e+01 5.589196e+01 5.178902e+01 5.190258e+01 4.021909e+01 5.561635e+01 3.617370e+01 2.467105e+01 3.283700e+01 2.450762e+01 2.242404e+01 1.272917e+00 2.215951e+00 1.717510e+00 3.754199e+00 2.049526e+00 4.039742e+00 2.640208e+00 2.700329e+00 2.822677e+00 2.304296e+00 3.297341e+00 2.350827e+00 2.041607e+00 9.306601e-02 3.398834e-01 3.024279e-01 5.933189e-01 3.760550e-01 6.492723e-01 4.418573e-01 5.332057e-01 4.702508e-01 3.508451e-01 4.533433e-01 3.961393e-01 1.862821e-01
<GCONST> 1.155118e+02
<STATE> 3
<MEAN> 39
 2.330569e+00 3.628814e+00 2.118324e+00 1.403197e+00 1.764020e+00 -1.047060e+01 -1.135990e+01 9.314245e-01 -1.993791e+01 -6.496784e+00 -1.447505e+01 -4.717072e+00 6.534141e+01 2.842067e-01 1.345581e-01 -8.674523e-02 1.950422e-01 -3.457181e-01 2.220046e-01 -1.605345e-01 6.074287e-02 1.431514e-01 -2.539142e-01 4.982997e-02 -8.178008e-02 -5.731890e-03 -1.212631e-01 -3.204418e-01 -1.364621e-01 -3.887435e-01 -1.489612e-01 -1.299147e-01 3.290250e-01 4.128688e-02 9.101367e-02 3.071170e-01 5.098661e-01 1.662399e-01 1.447700e-01
<VARIANCE> 39
 1.293917e+01 5.489509e+01 5.512915e+01 4.559915e+01 6.625500e+01 7.884215e+01 3.711845e+01 5.917098e+01 3.875790e+01 3.184092e+01 3.373056e+01 2.941514e+01 2.247944e+01 1.638494e+00 3.528062e+00 3.171442e+00 3.972896e+00 2.911382e+00 6.234792e+00 2.710145e+00 3.351853e+00 3.137446e+00 2.643317e+00 3.369780e+00 2.206963e+00 2.659681e+00 1.932491e-01 6.250918e-01 5.434246e-01 5.161380e-01 5.123342e-01 8.590406e-01 5.146999e-01 6.713070e-01 6.022193e-01 5.187402e-01 6.108734e-01 4.704530e-01 2.455091e-01
<GCONST> 1.248690e+02
<STATE> 4
<MEAN> 39
 1.889646e+00 7.154962e+00 1.979047e+00 1.430420e+00 -3.644722e+00 -5.667863e+00 -1.072779e+01 -1.552232e+00 -1.738956e+01 -7.180654e+00 -1.377157e+01 -4.684308e+00 6.211961e+01 -3.154223e-01 -2.599623e-01 6.719295e-02 -2.157159e-01 -1.458134e-01 6.329474e-03 3.662501e-02 -6.239064e-02 2.299295e-01 4.846213e-01 9.313564e-01 3.153817e-01 -4.546440e-02 -1.234120e-01 -3.397147e-01 7.433665e-03 -2.270327e-01 1.252916e-01 -2.132856e-01 1.497917e-01 4.792162e-02 -9.477403e-02 1.574207e-01 2.142121e-01 6.636506e-02 1.928450e-01
<VARIANCE> 39
 1.249335e+01 2.729343e+01 2.148819e+01 3.725413e+01 3.168683e+01 2.912724e+01 2.340236e+01 4.964384e+01 3.688787e+01 1.874506e+01 3.438809e+01 2.704906e+01 1.514773e+01 1.032027e+00 3.010449e+00 2.063962e+00 3.840069e+00 1.827225e+00 3.279459e+00 2.133591e+00 2.645768e+00 2.807332e+00 1.835380e+00 2.712035e+00 1.665493e+00 1.834197e+00 1.764596e-01 4.302380e-01 3.492478e-01 5.596479e-01 2.808539e-01 5.190242e-01 3.732216e-01 3.610643e-01 4.463501e-01 3.063045e-01 4.594543e-01 2.832096e-01 2.079065e-01
<GCONST> 1.109102e+02
<TRANSP> 5
 0.000000e+00 1.000000e+00 0.000000e+00 0.000000e+00 0.000000e+00
 0.000000e+00 6.364532e-01 3.635469e-01 0.000000e+00 0.000000e+00
 0.000000e+00 0.000000e+00 4.847657e-01 5.152344e-01 0.000000e+00
 0.000000e+00 0.000000e+00 0.000000e+00 7.908282e-01 2.091718e-01
 0.000000e+00 0.000000e+00 0.000000e+00 0.000000e+00 0.000000e+00
<ENDHMM>
~h "n"
<BEGINHMM>
<NUMSTATES> 5
<STATE> 2
<MEAN> 39
 2.954458e+00 4.122232e+00 1.474664e+00 4.359612e+00 -1.345524e+00 -1.168371e+01 -1.758954e+01 -2.962539e+00 -1.550018e+01 -3.005061e+00 -8.139791e+00 -2.661639e+00 6.419862e+01 7.444125e-02 1.163414e+00 1.218391e-01 1.210434e+00 -5.551971e-01 8.124021e-01 -1.021434e+00 -5.691085e-03 8.619681e-01 -6.740592e-01 -7.833912e-01 7.605632e-02 -1.037951e+00 -9.410451e-02 -3.682539e-01 -3.365970e-02 -7.329322e-01 2.018175e-01 -3.012210e-01 5.048646e-01 -1.030196e-01 -1.411746e-01 2.097286e-01 3.367995e-01 5.655501e-03 4.156298e-01
<VARIANCE> 39
 7.457805e+00 2.512710e+01 2.128187e+01 3.412156e+01 4.160105e+01 3.655700e+01 3.060150e+01 4.516792e+01 4.070641e+01 2.944992e+01 1.858862e+01 3.546314e+01 1.500090e+01 3.830682e-01 1.015453e+00 1.302000e+00 2.385643e+00 1.861030e+00 2.414337e+00 2.596555e+00 2.032133e+00 2.329922e+00 1.703141e+00 1.542729e+00 2.189619e+00 6.788509e-01 6.553432e-02 1.804414e-01 2.007913e-01 3.845458e-01 3.335507e-01 5.176760e-01 4.425650e-01 4.459642e-01 3.133713e-01 3.038487e-01 2.795049e-01 2.659138e-01 1.521037e-01
<GCONST> 1.026962e+02
<STATE> 3
<MEAN> 39
 2.694116e+00 5.857331e+00 2.224815e+00 4.119271e+00 -2.016668e+00 -1.050066e+01 -1.836603e+01 -3.278009e+00 -1.487664e+01 -4.279079e+00 -9.883307e+00 -3.455933e+00 6.312967e+01 -2.721137e-01 6.971887e-01 4.049035e-01 4.533238e-02 -3.140761e-01 6.366276e-01 1.536151e-01 -3.651915e-02 2.516976e-01 -1.922305e-01 -9.233087e-02 -6.086824e-02 -5.561363e-01 -1.103680e-01 -1.086676e-01 4.554449e-02 -1.203942e-01 4.742747e-02 -7.904289e-03 2.272676e-01 -1.397457e-02 -5.407619e-02 1.417134e-01 1.768099e-01 -2.583773e-02 4.564549e-02
<VARIANCE> 39
 6.682809e+00 2.127180e+01 1.851923e+01 3.251816e+01 4.251964e+01 3.640823e+01 2.563951e+01 4.760832e+01 3.386490e+01 2.404431e+01 3.190574e+01 4.980190e+01 1.169755e+01 3.488909e-01 4.966576e-01 5.901130e-01 1.023505e+00 1.024734e+00 1.552371e+00 1.357358e+00 1.271453e+00 1.612561e+00 1.296181e+00 1.162239e+00 9.977207e-01 2.417186e-01 4.535499e-02 1.369117e-01 1.288812e-01 2.393372e-01 1.898003e-01 2.529310e-01 2.447031e-01 2.581459e-01 2.387813e-01 2.755610e-01 2.071128e-01 1.966117e-01 5.032635e-02
<GCONST> 8.896715e+01
<STATE> 4
<MEAN> 39
 -2.786755e+00 8.114496e+00 3.800775e+00 5.858408e+00 -4.787826e+00 -5.054021e+00 -1.489212e+01 -3.750552e+00 -1.134114e+01 -2.704148e+00 -7.403317e+00 -2.621687e+00 5.719374e+01 -5.128756e-01 -6.164419e-02 -4.462344e-02 1.531935e-02 -3.632467e-02 4.894831e-01 4.544940e-01 2.666195e-01 3.658158e-01 1.782651e-01 2.207737e-01 1.150729e-01 -4.265254e-01 -1.533920e-02 -1.390846e-01 -5.708477e-02 -6.067946e-02 3.836446e-02 -2.790553e-02 4.987425e-02 2.849234e-02 -6.996941e-03 4.674305e-02 5.569212e-02 1.821696e-02 6.779859e-02
<VARIANCE> 39
 3.329709e+01 1.938343e+01 1.785850e+01 1.443590e+01 2.799461e+01 3.853535e+01 2.760732e+01 3.260058e+01 2.535967e+01 1.984462e+01 2.572316e+01 2.209050e+01 2.114874e+01 5.067771e-01 9.874474e-01 7.908865e-01 7.400936e-01 1.022003e+00 1.363107e+00 1.346412e+00 1.312519e+00 1.105728e+00 1.380627e+00 1.141994e+00 1.078921e+00 2.307872e-01 6.063682e-02 1.973767e-01 1.274811e-01 1.591512e-01 1.971744e-01 2.355682e-01 2.328342e-01 2.263335e-01 2.110519e-01 2.324847e-01 2.163350e-01 2.062969e-01 5.368804e-02
<GCONST> 8.855473e+01
<TRANSP> 5
 0.000000e+00 1.000000e+00 0.000000e+00 0.000000e+00 0.000000e+00
 0.000000e+00 5.279732e-01 4.720269e-01 0.000000e+00 0.000000e+00
 0.000000e+00 0.000000e+00 6.640221e-01 3.359778e-01 0.000000e+00
 0.000000e+00 0.000000e+00 0.000000e+00 8.707802e-01 1.292198e-01
 0.000000e+00 0.000000e+00 0.000000e+00 0.000000e+00 0.000000e+00
<ENDHMM>
~h "o"
<BEGINHMM>
<NUMSTATES> 5
<STATE> 2
<MEAN> 39
 6.447378e+00 6.826905e+00 -1.224676e+00 -7.732512e+00 -1.217224e+01 -1.713016e+01 -7.450915e+00 1.304278e+01 -1.309826e+01 -4.298822e+00 -9.363967e+00 -5.462928e+00 6.630378e+01 1.807438e-01 6.138334e-02 -2.671974e-01 3.954439e-01 8.931843e-01 1.694184e-01 -7.580962e-01 -2.541469e-01 1.137973e-01 -2.072672e-01 -2.072256e-02 5.404021e-01 7.036843e-04 -1.378054e-01 -1.243837e-02 3.657853e-02 4.835688e-02 5.866536e-02 2.080593e-01 -6.951584e-02 -2.563187e-01 1.104370e-01 1.236912e-01 5.754416e-02 1.886898e-03 -8.555048e-02
<VARIANCE> 39
 3.878735e+00 3.563495e+01 2.528060e+01 4.613130e+01 7.626152e+01 5.643102e+01 3.667510e+01 4.979252e+01 7.153443e+01 4.251779e+01 2.240759e+01 3.505203e+01 1.124410e+01 1.089074e+00 1.792878e+00 2.150118e+00 5.215110e+00 4.118077e+00 4.334103e+00 3.701383e+00 7.384826e+00 4.896217e+00 2.888766e+00 2.253236e+00 2.738503e+00 7.624962e-01 1.201469e-01 4.320652e-01 4.748644e-01 8.422909e-01 7.898110e-01 6.902950e-01 7.441699e-01 1.191240e+00 9.087987e-01 5.882344e-01 3.849935e-01 5.788598e-01 1.360753e-01
<GCONST> 1.214014e+02
<STATE> 3
<MEAN> 39
 2.252382e+00 1.003550e+00 4.715753e+00 6.827744e+00 1.924897e+00 -1.464928e+01 -2.265910e+01 -2.077795e-01 -1.203050e+01 -4.774338e+00 -6.194931e+00 -2.359447e+00 6.604724e+01 -7.936754e-01 -2.272676e-03 1.650890e+00 1.527870e+00 -4.303010e-01 -7.583939e-01 -1.965859e-01 -3.500194e-01 9.582934e-01 2.815567e-01 -1.656833e-01 -6.420150e-01 -3.310010e-01 -7.510667e-02 -2.587042e-01 -7.717890e-02 -4.514322e-01 -1.127476e-01 -4.996043e-01 5.470313e-01 5.387970e-01 -2.080504e-01 -2.427477e-01 5.730229e-02 3.228779e-02 2.218875e-01
<VARIANCE> 39
 1.388627e+01 9.088680e+01 9.314732e+01 4.308208e+01 4.221537e+01 6.273938e+01 2.626312e+01 4.357752e+01 8.679960e+00 1.703348e+01 1.917184e+01 1.674966e+01 2.243996e+01 3.277215e-01 8.328974e+00 4.415073e+00 5.142125e+00 3.981529e+00 7.112430e+00 5.622687e+00 7.073828e+00 2.231411e+00 3.753211e+00 2.483902e+00 3.211857e+00 3.724336e+00 5.639536e-02 1.569750e+00 5.151821e-01 6.015851e-01 1.223820e+00 1.469871e+00 9.981087e-01 1.442784e+00 2.974526e-01 6.888692e-01 7.446441e-01 5.108230e-01 6.103674e-01
<GCONST> 1.268990e+02
<STATE> 4
<MEAN> 39
 -3.462787e+00 1.303159e+00 6.301829e+00 1.101545e+01 3.830063e-01 -2.493368e+01 -1.418428e+01 -4.079534e+00 -1.074169e+01 -2.205735e+00 -5.583176e+00 -2.144709e+00 6.386584e+01 -4.798692e-01 -1.191945e+00 1.117952e-01 -1.700864e-01 8.649586e-01 -2.622348e+00 5.582288e-01 -2.063443e-01 -2.942652e-01 7.469699e-01 -1.693030e-01 9.202524e-02 8.372039e-01 2.835929e-01 4.199837e-02 2.467213e-03 -3.785594e-01 1.488842e-01 6.006114e-01 -3.757211e-01 -1.724594e-01 -7.096779e-02 8.420089e-02 -1.960167e-01 4.532170e-02 1.673457e-01
<VARIANCE> 39
 4.537879e+01 2.277845e+01 2.332887e+01 1.086415e+02 5.914819e+01 1.819043e+02 1.440657e+01 4.770726e+01 5.355107e+00 1.582162e+01 1.828912e+01 1.242439e+01 4.408842e+01 1.055753e+00 5.544886e+00 2.109537e+00 1.020950e+01 7.459949e+00 1.525852e+01 1.467968e+00 3.378340e+00 1.041861e+00 9.057409e-01 2.772340e+00 1.260109e+00 3.955956e+00 1.098623e-01 1.197577e+00 3.090122e-01 1.013960e+00 1.617128e+00 2.624541e+00 1.767915e-01 6.292212e-01 1.664478e-01 3.129269e-01 4.579184e-01 2.224668e-01 8.834829e-01
<GCONST> 1.203627e+02
<TRANSP> 5
 0.000000e+00 1.000000e+00 0.000000e+00 0.000000e+00 0.000000e+00
 0.000000e+00 9.608594e-01 3.914060e-02 0.000000e+00 0.000000e+00
 0.000000e+00 0.000000e+00 8.824699e-01 1.175301e-01 0.000000e+00
 0.000000e+00 0.000000e+00 0.000000e+00 8.100104e-01 1.899896e-01
 0.000000e+00 0.000000e+00 0.000000e+00 0.000000e+00 0.000000e+00
<ENDHMM>
~h "p"
<BEGINHMM>
<NUMSTATES> 5
<STATE> 2
<MEAN> 39
 -2.204781e+00 9.324332e-01 -2.805309e+00 1.045869e+00 -4.467778e+00 -5.266374e+00 -1.038779e+01 -2.138628e+00 -9.857125e+00 2.024477e+00 -1.886731e+00 -1.719597e+00 6.055536e+01 -2.433088e-01 -4.308917e-01 -1.355440e-01 3.051192e-01 1.618460e-01 -9.093954e-02 2.929330e-02 -2.030426e-01 -7.127437e-04 5.434745e-01 3.115603e-01 2.655581e-02 -5.998838e-02 4.992478e-02 -1.624619e-01 -9.174103e-02 -2.345824e-01 -7.331995e-02 -1.464742e-01 4.820981e-02 5.849423e-02 -1.125926e-01 -2.873070e-02 -4.777842e-03 -3.430295e-02 1.505236e-01
<VARIANCE> 39
 5.286781e+01 6.126358e+01 2.639380e+01 3.994891e+01 5.045028e+01 7.816489e+01 5.717596e+01 4.850989e+01 3.459876e+01 3.493305e+01 2.733101e+01 2.559442e+01 7.123637e+01 5.776692e+00 3.636445e+00 2.661534e+00 2.634959e+00 2.872412e+00 8.137592e+00 3.313219e+00 3.957972e+00 3.786415e+00 2.603973e+00 2.472663e+00 2.779158e+00 6.560321e+00 6.392620e-01 6.036752e-01 5.079765e-01 5.865090e-01 5.205314e-01 1.170683e+00 5.644469e-01 6.323342e-01 6.444799e-01 4.613014e-01 3.753581e-01 3.336458e-01 6.724194e-01
<GCONST> 1.302811e+02
<STATE> 3
<MEAN> 39
 1.925892e+00 -4.862708e-01 -2.488977e+00 1.232854e+00 -7.263116e+00 -1.146745e+01 -1.019503e+01 -2.253247e+00 -1.308601e+01 2.107337e+00 -6.437171e+00 -5.777690e+00 6.466307e+01 -7.000284e-01 4.552920e-01 -1.271505e-01 2.395800e-02 -4.041538e-01 1.067409e+00 -1.367055e-01 -8.673219e-02 3.812106e-01 -2.401706e-01 2.563433e-01 3.859181e-01 -1.010572e+00 7.630610e-03 8.580136e-02 7.347743e-03 -2.022194e-01 -6.032535e-02 -2.666466e-02 2.228797e-03 5.043584e-02 2.723023e-02 -1.243356e-01 -3.063381e-02 6.245696e-02 7.934092e-03
<VARIANCE> 39
 2.174770e+01 7.065601e+01 3.580465e+01 4.508595e+01 1.337549e+02 8.600295e+01 8.841153e+01 7.338036e+01 3.196650e+01 8.080190e+01 7.530377e+01 4.207429e+01 3.899269e+01 9.537548e-01 2.181071e+00 1.603940e+00 1.936665e+00 3.059459e+00 3.553871e+00 3.572470e+00 2.635226e+00 2.358447e+00 2.479954e+00 2.077057e+00 1.988840e+00 1.492367e+00 1.647573e-01 3.778735e-01 2.458326e-01 4.114885e-01 4.563765e-01 7.565355e-01 5.762720e-01 5.558870e-01 5.163028e-01 5.173143e-01 3.953111e-01 3.764428e-01 3.057635e-01
<GCONST> 1.225102e+02
<STATE> 4
<MEAN> 39
 -6.971738e+00 4.890801e+00 -2.963303e+00 -2.229576e-01 -8.213416e+00 3.108669e-01 -8.315615e+00 3.130639e-01 -8.676553e+00 -2.163487e-01 -1.874330e+00 1.706875e+00 5.380942e+01 -4.524331e-01 1.879071e-02 1.815959e-01 9.802851e-02 3.001175e-02 9.820145e-02 -1.659432e-01 6.110416e-02 2.853436e-01 1.229458e-01 1.133873e-01 3.385644e-02 -3.383523e-01 1.027369e-01 -7.094239e-02 9.657581e-02 -4.559485e-02 4.003443e-02 -9.286625e-02 1.375398e-02 1.232880e-02 -1.140675e-01 -1.711799e-02 -8.168890e-02 -1.034973e-01 1.728733e-01
<VARIANCE> 39
 1.484129e+01 1.601939e+01 2.128918e+01 3.401994e+01 2.897543e+01 2.233668e+01 3.181835e+01 2.378943e+01 2.117590e+01 2.807737e+01 3.289545e+01 2.130384e+01 1.661889e+01 5.364850e-01 9.995719e-01 9.213873e-01 1.395746e+00 1.298931e+00 1.089496e+00 1.345980e+00 1.229265e+00 1.267704e+00 1.458840e+00 1.371535e+00 1.099809e+00 4.440284e-01 1.123913e-01 1.951679e-01 2.055388e-01 2.928413e-01 2.641661e-01 2.623079e-01 3.078915e-01 2.675731e-01 3.054062e-01 3.232853e-01 2.870589e-01 2.394451e-01 1.334912e-01
<GCONST> 9.447712e+01
<TRANSP> 5
 0.000000e+00 1.000000e+00 0.000000e+00 0.000000e+00 0.000000e+00
 0.000000e+00 7.519717e-01 2.480284e-01 0.000000e+00 0.000000e+00
 0.000000e+00 0.000000e+00 6.825610e-01 3.174390e-01 0.000000e+00
 0.000000e+00 0.000000e+00 0.000000e+00 8.580451e-01 1.419549e-01
 0.000000e+00 0.000000e+00 0.000000e+00 0.000000e+00 0.000000e+00
<ENDHMM>
~h "r"
<BEGINHMM>
<NUMSTATES> 5
<STATE> 2
<MEAN> 39
 -3.916205e+00 -3.833930e+00 -1.891467e+00 -6.358091e+00 8.184003e-01 -6.241588e+00 -1.176293e+01 -1.660048e+00 -1.274746e+01 4.764382e-01 -3.230267e-01 2.318802e+00 6.493172e+01 1.335554e+00 -2.743335e-01 -9.108940e-01 -4.419706e-01 8.225738e-01 -8.601954e-01 -5.523389e-01 1.209804e-02 -1.790948e-01 -3.719310e-01 1.358464e-01 -1.319845e-01 1.177635e+00 1.644559e-01 1.028743e-01 -2.199354e-01 -3.009305e-02 -1.324734e-01 -2.035220e-01 2.513755e-01 1.260080e-01 7.049035e-02 -7.047446e-02 2.646481e-02 -1.261898e-01 6.646456e-02
<VARIANCE> 39
 5.957047e+01 6.430638e+01 8.484458e+01 8.333986e+01 7.176181e+01 8.388393e+01 5.204007e+01 4.153227e+01 4.911047e+01 4.295912e+01 4.098562e+01 2.631071e+01 7.093619e+01 5.727054e+00 8.383763e+00 7.474688e+00 7.794327e+00 6.065996e+00 9.092235e+00 8.073861e+00 4.504519e+00 6.151529e+00 4.672389e+00 4.707718e+00 3.726271e+00 4.830609e+00 1.066561e+00 1.558252e+00 1.363397e+00 1.453566e+00 1.114005e+00 1.466346e+00 1.503016e+00 7.855824e-01 1.235716e+00 8.772002e-01 9.833362e-01 8.067132e-01 5.571024e-01
<GCONST> 1.485235e+02
<STATE> 3
<MEAN> 39
 3.874599e+00 -3.739535e+00 -5.880547e+00 -7.578829e+00 2.183895e+00 -1.109119e+01 -1.239703e+01 -1.851858e+00 -1.359256e+01 -2.712985e+00 1.283699e-01 -3.889883e-01 7.122258e+01 4.126529e-01 1.103089e+00 -6.563068e-01 3.344387e-01 -3.659480e-01 3.127601e-01 8.091637e-01 5.845339e-01 3.599128e-01 -2.247784e-01 1.730919e-01 -8.219460e-02 -3.938729e-01 -4.905355e-01 -1.124972e-01 4.880131e-01 2.124544e-01 -2.417922e-01 3.926865e-01 1.163995e-01 -1.158658e-01 1.711389e-01 2.928371e-01 -3.301570e-03 -8.828624e-02 -2.474048e-01
<VARIANCE> 39
 3.396130e+01 4.269137e+01 9.148403e+01 6.958955e+01 7.479472e+01 6.567516e+01 4.819440e+01 4.316572e+01 4.608755e+01 5.048779e+01 5.799038e+01 2.276988e+01 4.084028e+01 2.704721e+00 4.506458e+00 4.155114e+00 3.743045e+00 3.292716e+00 6.379295e+00 4.644615e+00 2.951858e+00 4.394983e+00 3.792032e+00 3.435037e+00 2.703236e+00 3.716111e+00 4.051575e-01 6.823045e-01 7.977800e-01 5.837327e-01 6.759278e-01 8.978456e-01 6.723641e-01 4.047462e-01 7.462174e-01 7.431750e-01 5.701821e-01 4.747142e-01 4.411081e-01
<GCONST> 1.331991e+02
<STATE> 4
<MEAN> 39
 2.552508e-04 -4.403927e-01 -4.431741e+00 -3.022595e+00 -5.656551e+00 -7.791315e+00 -6.459648e+00 -1.221816e+00 -1.355163e+01 2.042751e+00 -1.839962e+00 2.128908e-02 6.400482e+01 2.725178e-02 2.986457e-02 6.616717e-02 1.980803e-01 -3.910798e-01 2.618741e-01 1.229738e-01 -1.176234e-01 2.459986e-01 2.105052e-01 1.722316e-01 -1.800719e-01 -6.004752e-02 -7.743143e-02 -2.492955e-01 1.390835e-01 -1.128260e-01 5.923625e-02 -7.121893e-02 -5.606452e-03 -6.875839e-02 -5.138392e-02 -4.574040e-02 -4.492101e-02 -2.143428e-02 1.632076e-01
<VARIANCE> 39
 4.353872e+01 5.795401e+01 5.227246e+01 5.330343e+01 6.331244e+01 1.103806e+02 8.272280e+01 5.525372e+01 5.955740e+01 3.511275e+01 5.222838e+01 3.199787e+01 7.285178e+01 3.435040e+00 4.664771e+00 3.046899e+00 3.222656e+00 2.947830e+00 6.928887e+00 4.529508e+00 3.928033e+00 4.692359e+00 3.540724e+00 3.446799e+00 3.810982e+00 4.967004e+00 6.058284e-01 8.581254e-01 6.010548e-01 7.337455e-01 5.457610e-01 1.068583e+00 7.714808e-01 7.703827e-01 9.045764e-01 5.614849e-01 7.148697e-01 7.208639e-01 7.594593e-01
<GCONST> 1.378721e+02
<TRANSP> 5
 0.000000e+00 1.000000e+00 0.000000e+00 0.000000e+00 0.000000e+00
 0.000000e+00 7.900515e-01 2.099486e-01 0.000000e+00 0.000000e+00
 0.000000e+00 0.000000e+00 5.820009e-01 4.179991e-01 0.000000e+00
 0.000000e+00 0.000000e+00 0.000000e+00 7.708811e-01 2.291189e-01
 0.000000e+00 0.000000e+00 0.000000e+00 0.000000e+00 0.000000e+00
<ENDHMM>
~h "s"
<BEGINHMM>
<NUMSTATES> 5
<STATE> 2
<MEAN> 39
 -1.621928e+01 -9.453167e+00 1.642447e+01 -1.131769e+01 2.000639e+00 -4.197378e+00 -7.572710e+00 -7.642537e+00 -9.086071e+00 4.087664e+00 -4.713661e+00 -5.097749e-01 6.866368e+01 -4.167279e+00 -2.260426e+00 3.186293e+00 -2.918612e+00 1.544673e+00 3.227609e-01 1.669278e+00 -2.650878e-01 2.385611e+00 2.240473e-01 5.408370e-01 4.850261e-01 1.734095e+00 3.417246e-02 2.165132e-01 -9.823841e-01 2.992603e-01 7.972687e-02 -6.438177e-01 2.774305e-01 2.984752e-02 1.345986e-01 -1.236373e-01 2.142462e-01 -9.748560e-02 7.469731e-02
<VARIANCE> 39
 9.167049e+01 4.911193e+01 8.493011e+01 6.788321e+01 4.939515e+01 1.005598e+02 6.192410e+01 4.623057e+01 6.753036e+01 3.764008e+01 3.118583e+01 2.415829e+01 5.410815e+01 4.015999e+00 4.067573e+00 1.019812e+01 5.061467e+00 4.818511e+00 1.171447e+01 6.374676e+00 4.577896e+00 7.411429e+00 3.760823e+00 3.756637e+00 2.643030e+00 2.104591e+00 1.169817e+00 8.192917e-01 1.635253e+00 1.488062e+00 8.657556e-01 1.393910e+00 1.321526e+00 8.835911e-01 1.387330e+00 6.469404e-01 6.098826e-01 5.059896e-01 3.688189e-01
<GCONST> 1.430953e+02
<STATE> 3
<MEAN> 39
 -2.685684e+01 -1.421729e+01 1.623405e+01 -1.589369e+01 8.222013e+00 -6.957888e+00 -3.362337e+00 -8.037478e+00 -1.679473e+00 3.382212e+00 -1.250135e+00 -3.026962e-02 7.348818e+01 9.210455e-01 3.583184e-01 -7.851410e-01 3.576284e-01 -3.249841e-01 9.360306e-02 -1.684885e-01 9.306650e-02 -7.826680e-01 7.549348e-02 -4.115834e-03 1.773511e-01 -4.489295e-01 7.149429e-01 3.310148e-01 -1.484644e-01 1.405364e-01 -3.023956e-01 -1.688696e-03 -1.529066e-01 3.113625e-02 -5.559371e-01 5.107743e-03 -1.689998e-01 1.949569e-02 -1.978706e-01
<VARIANCE> 39
 2.968419e+01 2.658584e+01 2.233677e+01 1.575367e+01 3.043252e+01 2.500862e+01 2.885613e+01 2.123787e+01 3.034163e+01 2.518829e+01 1.953072e+01 1.701103e+01 1.508341e+01 6.436297e+00 2.475223e+00 2.289343e+00 1.487793e+00 2.501567e+00 2.315554e+00 2.535784e+00 1.831668e+00 4.941357e+00 1.900521e+00 2.029883e+00 1.475184e+00 1.476243e+00 5.557937e-01 5.142601e-01 3.527216e-01 3.470635e-01 3.620620e-01 5.800231e-01 5.474419e-01 3.442585e-01 6.710325e-01 3.820566e-01 4.163390e-01 3.103082e-01 2.294283e-01
<GCONST> 1.119729e+02
<STATE> 4
<MEAN> 39
 -1.320282e+01 -1.984794e+00 6.698413e+00 -5.048778e+00 -2.148108e+00 2.585166e-01 -8.108518e+00 -1.515349e+00 -9.002266e+00 3.197681e+00 -2.834693e+00 1.884509e+00 5.832553e+01 1.776385e+00 1.567109e+00 -1.144765e+00 9.853287e-01 -8.440436e-01 -1.423070e-01 -4.495752e-01 2.916421e-01 -9.306102e-01 -6.260964e-01 -3.658121e-01 -1.963641e-01 -6.556267e-01 -1.218523e-01 -1.223766e-01 1.147882e-01 -3.613131e-02 1.351286e-01 -1.854090e-01 7.983968e-02 -5.579750e-02 1.974609e-01 -1.698861e-01 -7.353538e-02 -1.109522e-01 3.008098e-01
<VARIANCE> 39
 3.449559e+01 5.212303e+01 5.924146e+01 6.528844e+01 3.649051e+01 5.032906e+01 3.639133e+01 3.811412e+01 3.268722e+01 3.656441e+01 2.073151e+01 1.637810e+01 6.019089e+01 4.485648e+00 3.905151e+00 3.943221e+00 2.809896e+00 3.239108e+00 4.388938e+00 3.550384e+00 2.422352e+00 5.530106e+00 3.000447e+00 3.308993e+00 1.545038e+00 2.071282e+00 2.642018e-01 5.195546e-01 5.007119e-01 4.018192e-01 3.920042e-01 6.295661e-01 5.612095e-01 4.170789e-01 5.489680e-01 5.174893e-01 5.306072e-01 2.777237e-01 2.342434e-01
<GCONST> 1.233717e+02
<TRANSP> 5
 0.000000e+00 1.000000e+00 0.000000e+00 0.000000e+00 0.000000e+00
 0.000000e+00 7.744439e-01 2.255561e-01 0.000000e+00 0.000000e+00
 0.000000e+00 0.000000e+00 8.914446e-01 1.085553e-01 0.000000e+00
 0.000000e+00 0.000000e+00 0.000000e+00 7.768499e-01 2.231501e-01
 0.000000e+00 0.000000e+00 0.000000e+00 0.000000e+00 0.000000e+00
<ENDHMM>
~h "t"
<BEGINHMM>
<NUMSTATES> 5
<STATE> 2
<MEAN> 39
 -4.578095e+00 2.334623e-01 -1.201238e+00 -1.574224e+00 -7.017644e+00 -2.821198e+00 -7.567297e+00 -6.034582e-01 -8.965211e+00 5.487418e-01 -2.421341e+00 -1.280879e-01 5.987056e+01 -5.321536e-01 -1.708211e+00 3.963326e-01 -9.660404e-01 -9.101272e-02 -9.823387e-02 3.389009e-01 3.603269e-02 6.557475e-02 4.653210e-01 -1.120550e-01 -5.612193e-02 8.151586e-01 2.524537e-01 -5.152667e-01 1.499977e-01 -4.479252e-01 1.010498e-01 -5.852907e-01 -3.448017e-02 -2.141470e-01 -5.085390e-01 1.214964e-02 -2.015836e-01 -1.194027e-01 7.223300e-01
<VARIANCE> 39
 6.137201e+01 5.997105e+01 4.833854e+01 6.433651e+01 5.736120e+01 6.086463e+01 5.439082e+01 3.418549e+01 3.676493e+01 2.361551e+01 2.436299e+01 1.626962e+01 7.965307e+01 4.264617e+00 1.066380e+01 4.923168e+00 7.323571e+00 4.402777e+00 6.935779e+00 4.603156e+00 4.140645e+00 5.650823e+00 3.783534e+00 2.922318e+00 1.925808e+00 9.200787e+00 6.613564e-01 1.548040e+00 1.030467e+00 1.273889e+00 7.562036e-01 1.133885e+00 8.570425e-01 7.756921e-01 1.077404e+00 7.294897e-01 6.291825e-01 3.855874e-01 1.267960e+00
<GCONST> 1.398349e+02
<STATE> 3
<MEAN> 39
 -6.967536e+00 -9.776052e+00 1.682857e+00 -7.057038e+00 -6.025411e+00 -5.928703e+00 -7.586719e+00 -2.262346e+00 -1.077990e+01 3.451363e+00 -2.355825e+00 -7.817586e-01 6.594122e+01 8.129354e-01 -1.504152e+00 1.033992e+00 -1.276618e+00 5.096919e-01 -1.546359e+00 -4.091196e-01 -6.398877e-01 -2.056519e+00 -2.959579e-01 -7.446699e-01 -6.682968e-01 2.312865e+00 5.741587e-01 1.379172e+00 -1.129260e-01 6.373906e-01 -9.565658e-02 -2.017945e-01 -7.150893e-02 2.171943e-01 -4.409186e-01 -5.718588e-01 -2.690956e-01 -1.922643e-01 -4.663527e-01
<VARIANCE> 39
 4.332682e+01 1.288469e+02 4.099899e+01 8.079596e+01 6.110609e+01 7.495959e+01 4.619583e+01 5.369228e+01 7.044448e+01 4.799012e+01 3.345528e+01 2.619171e+01 8.603139e+01 3.713597e+00 1.355701e+01 5.114796e+00 1.076717e+01 4.376526e+00 9.635476e+00 4.228679e+00 5.714313e+00 9.824989e+00 5.539928e+00 4.556571e+00 2.639296e+00 1.266707e+01 4.385684e-01 2.613901e+00 9.507455e-01 1.893692e+00 7.963889e-01 1.073647e+00 7.501577e-01 1.302860e+00 1.392406e+00 1.287274e+00 8.008164e-01 5.696012e-01 1.327786e+00
<GCONST> 1.485163e+02
<STATE> 4
<MEAN> 39
 -6.865606e+00 5.129306e-01 -2.792315e-01 -1.673588e+00 -6.656377e+00 -8.058247e-01 -8.322888e+00 -4.063208e-01 -1.008957e+01 3.863776e-01 -2.054548e+00 -4.601692e-03 5.791953e+01 4.983783e-01 4.051390e-01 5.135705e-01 6.195541e-02 8.130173e-02 -6.360152e-01 -1.314377e-01 -3.756260e-02 -9.967057e-01 -3.924610e-01 -6.701619e-01 -5.402093e-01 4.190282e-01 1.557884e-01 1.615301e-01 3.477515e-02 4.606101e-02 -1.824336e-01 -2.049308e-01 1.824261e-01 1.357043e-01 -1.159522e-01 -8.428277e-02 -8.030204e-02 -1.146318e-01 4.291570e-02
<VARIANCE> 39
 2.510767e+01 8.018823e+01 4.644098e+01 5.540034e+01 3.166781e+01 4.612214e+01 2.939667e+01 3.090055e+01 4.709641e+01 2.637002e+01 2.694843e+01 2.163823e+01 7.070232e+01 3.188810e+00 8.111092e+00 3.281681e+00 6.165323e+00 3.056658e+00 5.006535e+00 2.716650e+00 3.349253e+00 7.440586e+00 3.880446e+00 3.271007e+00 2.645703e+00 5.381077e+00 2.665901e-01 1.704127e+00 4.447173e-01 1.032205e+00 5.275635e-01 6.078709e-01 4.254879e-01 8.312367e-01 6.667588e-01 6.129739e-01 3.991325e-01 4.915133e-01 1.036905e+00
<GCONST> 1.311558e+02
<TRANSP> 5
 0.000000e+00 1.000000e+00 0.000000e+00 0.000000e+00 0.000000e+00
 0.000000e+00 6.985267e-01 3.014733e-01 0.000000e+00 0.000000e+00
 0.000000e+00 0.000000e+00 4.911640e-01 5.088360e-01 0.000000e+00
 0.000000e+00 0.000000e+00 0.000000e+00 6.730050e-01 3.269950e-01
 0.000000e+00 0.000000e+00 0.000000e+00 0.000000e+00 0.000000e+00
<ENDHMM>
~h "u"
<BEGINHMM>
<NUMSTATES> 5
<STATE> 2
<MEAN> 39
 -8.199221e-01 1.630830e+00 3.337359e+00 -6.677080e+00 -6.636829e+00 -8.406666e+00 -8.623865e+00 1.598151e+00 -1.978251e+01 -2.843836e+00 -7.794899e+00 -5.085113e+00 6.480897e+01 1.262672e+00 1.558421e+00 4.005006e-01 -3.297517e-01 -1.190665e+00 -1.874283e+00 5.699955e-01 1.233555e+00 -1.317020e+00 -9.390509e-01 -9.056190e-01 -1.338783e+00 3.583877e-01 -8.965711e-02 1.346084e-01 -2.028621e-01 3.655868e-01 -6.374167e-02 1.757212e-02 9.377545e-02 2.285790e-01 4.922518e-01 6.078468e-02 1.856927e-01 9.887795e-02 -2.838778e-01
<VARIANCE> 39
 4.157393e+01 7.434917e+01 4.268118e+01 6.546268e+01 7.353217e+01 9.652381e+01 5.673843e+01 5.322582e+01 1.307480e+02 3.870164e+01 3.837501e+01 4.815930e+01 5.615647e+01 4.376658e+00 1.193849e+01 2.921566e+00 5.965582e+00 6.735252e+00 1.148507e+01 4.809854e+00 5.226881e+00 6.770606e+00 4.532361e+00 4.305075e+00 4.629829e+00 4.381108e+00 6.823418e-01 2.113076e+00 5.217442e-01 1.076563e+00 1.201137e+00 1.610523e+00 8.389135e-01 7.383632e-01 1.095399e+00 7.241859e-01 7.019904e-01 6.587996e-01 7.407543e-01
<GCONST> 1.455561e+02
<STATE> 3
<MEAN> 39
 2.808397e+00 2.708204e+00 3.935601e+00 -5.318319e+00 -5.334721e+00 -1.390732e+01 -7.674786e+00 6.815658e+00 -2.597265e+01 -6.600009e+00 -8.019079e+00 -8.726199e+00 6.735938e+01 4.293147e-02 6.320578e-01 -3.069287e-01 1.061510e+00 1.353922e-01 4.929945e-01 -2.663642e-02 1.658134e-01 1.029352e+00 1.867801e-02 7.128397e-02 2.111988e-01 -6.466647e-01 -2.973894e-01 -2.199597e-01 -3.054237e-02 1.001291e-01 1.025434e-01 5.382476e-01 -1.725071e-01 -3.590628e-01 6.132943e-01 2.852767e-01 1.643578e-01 3.287216e-01 -1.648315e-01
<VARIANCE> 39
 2.060227e+01 4.447795e+01 4.364726e+01 7.203567e+01 1.034641e+02 6.486716e+01 7.691367e+01 8.330730e+01 1.464406e+02 6.360369e+01 5.134218e+01 5.294838e+01 2.833688e+01 1.118381e+00 4.458560e+00 2.371307e+00 4.297670e+00 7.284575e+00 7.768805e+00 5.714683e+00 6.485105e+00 8.763844e+00 4.424127e+00 3.100354e+00 3.962065e+00 2.439830e+00 1.983104e-01 8.862697e-01 4.309769e-01 8.836179e-01 1.253927e+00 9.353736e-01 1.136360e+00 9.772248e-01 1.014911e+00 8.153996e-01 6.291677e-01 6.749521e-01 2.820793e-01
<GCONST> 1.384024e+02
<STATE> 4
<MEAN> 39
 5.844496e-01 5.440001e+00 5.244338e+00 -3.987451e+00 -1.189128e+01 -1.388146e+01 -6.473833e+00 5.072308e+00 -1.997203e+01 -4.019553e+00 -8.995188e+00 -9.499785e+00 6.387835e+01 -2.350641e-01 1.439369e-01 -2.143549e-01 5.089411e-01 2.809204e-01 6.527632e-01 -3.766025e-01 -3.080485e-01 8.959830e-01 5.935243e-02 2.021957e-01 4.353048e-01 -4.475898e-01 -3.807342e-02 -1.510126e-01 9.018937e-03 -5.795467e-02 1.262841e-01 6.952352e-02 -4.309334e-02 -9.011902e-02 -5.534724e-02 2.887562e-03 1.647328e-02 5.283808e-02 7.503262e-02
<VARIANCE> 39
 2.984939e+01 3.848109e+01 4.008986e+01 6.613354e+01 8.128304e+01 1.269552e+02 4.921401e+01 6.406314e+01 1.164685e+02 3.909426e+01 4.231727e+01 5.565218e+01 4.681981e+01 5.983558e-01 2.110921e+00 1.239751e+00 2.132596e+00 3.004160e+00 3.554424e+00 2.453408e+00 3.277791e+00 3.996396e+00 2.473831e+00 2.225727e+00 2.262480e+00 1.038877e+00 8.029990e-02 3.825736e-01 1.895549e-01 3.843046e-01 3.862436e-01 6.021320e-01 4.249481e-01 5.402404e-01 6.744732e-01 4.641627e-01 3.785064e-01 4.003656e-01 1.668844e-01
<GCONST> 1.196719e+02
<TRANSP> 5
 0.000000e+00 1.000000e+00 0.000000e+00 0.000000e+00 0.000000e+00
 0.000000e+00 6.311470e-01 3.688530e-01 0.000000e+00 0.000000e+00
 0.000000e+00 0.000000e+00 5.408149e-01 4.591850e-01 0.000000e+00
 0.000000e+00 0.000000e+00 0.000000e+00 8.856976e-01 1.143024e-01
 0.000000e+00 0.000000e+00 0.000000e+00 0.000000e+00 0.000000e+00
<ENDHMM>
~h "w"
<BEGINHMM>
<NUMSTATES> 5
<STATE> 2
<MEAN> 39
 6.725546e-01 1.183635e+00 3.754601e+00 -6.884135e+00 -1.874756e+01 -1.016752e+01 -2.712033e+00 3.974794e+00 -2.179993e+01 -2.484815e+00 -7.754241e+00 -8.969260e+00 6.454156e+01 1.180886e+00 5.641221e-01 -4.715539e-01 -2.689385e-01 -2.323325e-01 -1.267282e+00 4.065398e-01 1.019336e+00 -5.318948e-01 -4.218250e-01 -7.670044e-01 -1.440876e-01 5.899208e-01 -1.382620e-01 -1.913851e-01 -2.332475e-01 -2.261838e-02 2.297133e-01 2.306657e-01 2.571585e-04 3.309177e-02 3.737976e-01 1.439238e-01 3.008015e-01 2.869638e-01 -5.008924e-02
<VARIANCE> 39
 3.367147e+01 5.566398e+01 3.870760e+01 4.991537e+01 4.160768e+01 1.108759e+02 4.577230e+01 9.498672e+01 4.894585e+01 4.387382e+01 3.859377e+01 3.439188e+01 3.346115e+01 2.876365e+00 7.739828e+00 3.707167e+00 3.384903e+00 5.254617e+00 4.296618e+00 4.331260e+00 6.368050e+00 4.044117e+00 5.395161e+00 4.114678e+00 3.091865e+00 2.586210e+00 3.986046e-01 1.556524e+00 5.314471e-01 3.392933e-01 1.143243e+00 5.268211e-01 8.187034e-01 1.107248e+00 5.934966e-01 1.121733e+00 7.483869e-01 4.777680e-01 2.979193e-01
<GCONST> 1.351680e+02
<STATE> 3
<MEAN> 39
 5.606511e+00 -1.813020e+00 -2.776857e+00 -7.242970e+00 -1.689717e+01 -1.178013e+01 5.454391e-01 7.217798e+00 -1.887982e+01 -3.986621e+00 -6.138196e+00 -2.532023e+00 6.854156e+01 -7.530264e-01 -1.722095e-01 -4.101020e-01 6.313165e-01 6.163567e-01 1.312772e+00 -5.624490e-01 -9.000676e-01 1.013230e+00 3.415152e-01 1.014448e+00 9.214918e-01 -7.885130e-01 -1.761497e-01 9.386850e-02 2.609719e-02 4.188849e-02 7.341564e-02 -5.472815e-02 -1.964914e-01 -2.448636e-01 1.914060e-01 2.328269e-01 -2.794323e-02 -5.501767e-02 -1.633606e-01
<VARIANCE> 39
 1.815650e+01 3.911405e+01 3.241885e+01 2.362461e+01 3.140189e+01 4.441806e+01 5.893141e+01 3.736257e+01 4.020062e+01 1.812776e+01 5.294498e+01 2.540260e+01 1.933990e+01 2.230111e+00 5.460439e+00 2.734805e+00 2.719669e+00 2.264524e+00 1.757239e+00 2.465749e+00 3.319583e+00 2.329339e+00 1.898368e+00 3.892024e+00 1.567687e+00 3.337827e+00 2.561150e-01 7.504866e-01 4.707367e-01 5.901486e-01 4.041240e-01 3.739315e-01 2.196240e-01 4.105875e-01 4.158570e-01 3.637834e-01 9.019251e-01 3.191225e-01 2.916245e-01
<GCONST> 1.174769e+02
<STATE> 4
<MEAN> 39
 -7.148969e+00 4.640254e+00 -3.085041e+00 -1.393845e+00 -1.050404e+01 -1.245482e-01 -5.100470e+00 2.867186e+00 -6.960046e+00 -1.382134e-01 -2.826572e+00 1.505766e+00 5.387722e+01 -5.089378e-01 2.875065e-02 -3.484777e-02 3.967746e-01 5.924162e-01 1.777785e-01 -7.263029e-01 -1.479950e-01 5.725373e-01 4.360815e-01 1.161635e-01 -5.043636e-02 -4.746177e-01 1.373492e-01 -2.303469e-01 1.118005e-01 -5.388769e-02 -1.493672e-01 -1.485018e-01 1.687434e-01 6.245201e-02 -1.757037e-01 -2.936690e-02 -7.140972e-02 -7.113381e-02 2.593310e-01
<VARIANCE> 39
 2.008010e+01 8.605837e+00 9.674129e+00 1.737109e+01 1.735923e+01 1.923772e+01 2.451717e+01 1.566065e+01 1.715333e+01 5.774528e+00 6.568233e+00 9.065331e+00 1.763001e+01 2.967456e-01 9.674090e-01 9.009432e-01 1.403711e+00 1.343852e+00 1.256487e+00 1.445291e+00 1.526737e+00 1.781948e+00 9.121123e-01 1.215571e+00 7.716756e-01 6.092332e-01 7.711110e-02 2.700781e-01 1.374093e-01 3.189026e-01 3.103178e-01 3.228555e-01 2.987569e-01 2.981154e-01 2.985473e-01 1.448428e-01 2.219749e-01 1.712954e-01 1.681454e-01
<GCONST> 8.558366e+01
<TRANSP> 5
 0.000000e+00 1.000000e+00 0.000000e+00 0.000000e+00 0.000000e+00
 0.000000e+00 8.831942e-01 1.168058e-01 0.000000e+00 0.000000e+00
 0.000000e+00 0.000000e+00 8.448866e-01 1.551134e-01 0.000000e+00
 0.000000e+00 0.000000e+00 0.000000e+00 8.614219e-01 1.385781e-01
 0.000000e+00 0.000000e+00 0.000000e+00 0.000000e+00 0.000000e+00
<ENDHMM>
~h "eu"
<BEGINHMM>
<NUMSTATES> 5
<STATE> 2
<MEAN> 39
 -3.421728e-01 -2.228528e+00 2.450245e+00 -8.540404e+00 -5.751010e-01 -1.202084e+01 -8.898016e+00 -4.237770e+00 -2.060133e+01 -2.657493e+00 -4.882176e+00 -7.195715e-01 7.009195e+01 1.970572e+00 -9.637865e-01 -1.175884e+00 -1.210219e+00 -2.274472e-01 -2.608524e+00 8.559013e-01 2.147235e-01 -2.157307e+00 3.573294e-02 3.219489e-01 1.415604e-01 1.885523e+00 -4.176630e-01 -1.000812e-01 2.002104e-01 3.489710e-01 1.527181e-01 3.787256e-01 2.770771e-01 3.012257e-01 4.986537e-01 7.879546e-02 -1.544394e-01 -6.189576e-02 -2.159923e-01
<VARIANCE> 39
 3.986584e+01 5.758171e+01 5.236746e+01 8.950980e+01 4.922319e+01 6.211304e+01 6.154413e+01 7.468178e+01 8.142875e+01 4.943578e+01 3.149541e+01 3.125008e+01 5.134906e+01 7.264510e+00 8.519421e+00 4.982512e+00 5.827523e+00 4.684276e+00 6.711122e+00 7.097551e+00 4.109141e+00 7.525508e+00 4.051458e+00 4.929893e+00 3.683029e+00 3.793693e+00 1.057722e+00 1.658914e+00 1.016908e+00 1.184080e+00 6.731955e-01 1.624150e+00 9.198046e-01 1.096362e+00 1.564083e+00 7.103056e-01 6.490762e-01 6.230621e-01 1.091047e+00
<GCONST> 1.455551e+02
<STATE> 3
<MEAN> 39
 2.534754e+00 -5.557259e+00 1.208177e+00 -1.028839e+01 5.782919e-03 -1.634343e+01 -5.254941e+00 -2.560373e+00 -2.445687e+01 -1.857201e+00 -5.456187e+00 -1.070810e+00 7.403223e+01 3.353055e-01 -1.495478e-02 -7.826194e-02 5.591159e-01 1.976625e-01 -6.916411e-02 4.234987e-01 8.615159e-01 -1.734510e-01 -8.064736e-02 -2.186770e-01 -6.272295e-02 -2.970394e-02 -4.551699e-01 5.580301e-01 3.310497e-01 4.959412e-01 2.570371e-02 8.097496e-01 -3.865035e-01 6.552213e-02 7.581762e-01 -1.380119e-01 -1.841005e-01 -7.003214e-02 -6.647543e-01
<VARIANCE> 39
 1.264636e+01 3.528790e+01 3.982722e+01 5.001881e+01 5.975037e+01 4.023048e+01 7.814754e+01 6.957491e+01 6.739040e+01 5.649713e+01 2.984195e+01 3.120629e+01 1.540521e+01 1.389109e+00 3.685492e+00 3.527781e+00 3.860799e+00 3.759641e+00 4.671320e+00 5.316823e+00 5.476101e+00 4.368476e+00 3.392234e+00 3.315851e+00 3.085217e+00 2.398241e+00 5.773164e-01 7.325804e-01 8.467025e-01 8.725079e-01 7.067580e-01 1.207007e+00 1.120769e+00 9.316433e-01 1.051065e+00 6.588835e-01 7.582005e-01 5.967296e-01 3.289520e-01
<GCONST> 1.324030e+02
<STATE> 4
<MEAN> 39
 3.489716e+00 -1.209931e+00 -1.462636e-02 -8.633162e+00 -1.666021e+00 -1.579713e+01 -5.290890e+00 1.234070e+00 -2.363885e+01 -4.052052e+00 -5.479802e+00 -1.104251e+00 7.100416e+01 5.904114e-03 4.957102e-01 9.070743e-02 7.201246e-01 1.948431e-01 3.837849e-01 -6.577481e-01 -7.841877e-02 7.154686e-01 2.110460e-02 -2.824816e-01 7.077946e-02 -4.287709e-01 -1.108438e-01 4.757487e-02 8.332004e-02 1.898460e-02 -1.773385e-02 1.805046e-01 -1.262238e-01 -1.020052e-01 1.982418e-01 -6.232123e-03 3.727373e-03 -6.486845e-03 -7.252039e-02
<VARIANCE> 39
 5.573672e+00 5.075940e+01 2.476234e+01 6.937754e+01 6.858180e+01 4.107814e+01 7.257641e+01 4.611916e+01 5.942157e+01 4.002694e+01 2.482998e+01 3.392778e+01 2.646902e+01 7.225318e-01 3.085211e+00 1.701059e+00 3.900453e+00 2.267390e+00 4.065091e+00 4.563684e+00 3.629051e+00 3.842865e+00 2.795062e+00 2.339552e+00 1.909142e+00 1.900875e+00 1.269718e-01 5.346666e-01 2.911330e-01 6.197961e-01 3.956194e-01 7.971051e-01 9.545968e-01 5.188028e-01 8.076534e-01 4.665061e-01 4.609437e-01 3.614584e-01 3.141734e-01
<GCONST> 1.206672e+02
<TRANSP> 5
 0.000000e+00 1.000000e+00 0.000000e+00 0.000000e+00 0.000000e+00
 0.000000e+00 4.919963e-01 5.080038e-01 0.000000e+00 0.000000e+00
 0.000000e+00 0.000000e+00 4.609149e-01 5.390851e-01 0.000000e+00
 0.000000e+00 0.000000e+00 0.000000e+00 7.778687e-01 2.221313e-01
 0.000000e+00 0.000000e+00 0.000000e+00 0.000000e+00 0.000000e+00
<ENDHMM>
~h "ng"
<BEGINHMM>
<NUMSTATES> 5
<STATE> 2
<MEAN> 39
 1.565184e+00 2.764689e+00 2.401843e+00 -2.392245e+00 -5.393266e-01 -1.225927e+01 -9.988929e+00 -2.538488e+00 -1.647539e+01 -3.157924e+00 -6.293481e+00 -1.747978e+00 6.774434e+01 -1.035620e+00 -2.682654e-01 1.559527e+00 1.091094e+00 -3.965305e-01 2.358716e+00 -2.942081e-01 -1.420975e+00 1.255896e+00 2.296147e-01 2.792759e-01 -4.756689e-02 -5.828908e-01 -1.054556e-01 -6.382419e-01 2.140098e-01 -6.152154e-01 -2.146405e-02 8.432422e-02 3.302658e-01 -2.689604e-02 -3.739447e-01 1.373812e-01 1.613918e-01 2.130849e-02 3.618047e-01
<VARIANCE> 39
 1.248182e+01 6.036334e+01 2.491761e+01 5.898132e+01 7.869564e+01 5.264408e+01 8.379593e+01 4.409626e+01 8.558949e+01 4.444133e+01 4.397689e+01 2.779105e+01 3.185629e+01 7.748046e-01 5.341371e+00 2.758907e+00 6.485647e+00 3.465182e+00 5.975067e+00 5.188413e+00 3.859103e+00 6.090944e+00 4.215336e+00 4.279036e+00 3.406779e+00 2.783847e+00 1.955506e-01 1.222883e+00 3.993983e-01 1.091744e+00 7.959913e-01 1.893242e+00 1.125845e+00 7.112954e-01 1.125396e+00 8.315047e-01 7.280688e-01 4.571709e-01 6.799896e-01
<GCONST> 1.346079e+02
<STATE> 3
<MEAN> 39
 -2.108535e+00 -1.550374e+00 8.636190e+00 -2.229613e+00 -4.384533e-03 -9.192158e+00 -1.231921e+01 -5.778266e+00 -1.189489e+01 -2.321872e+00 -7.311955e+00 -1.170534e+00 6.864236e+01 -7.459784e-01 -1.686035e+00 1.260262e+00 -6.607265e-01 2.733207e-01 9.843088e-01 -2.214171e-01 -1.213492e+00 -2.288090e-01 2.348237e-01 3.606341e-01 -1.972392e-01 8.003913e-01 3.952352e-01 1.845523e-01 -6.445626e-01 -3.576762e-01 1.575658e-01 -3.704685e-01 2.979609e-01 3.368853e-01 -7.886996e-01 2.137412e-01 2.226022e-01 -9.320258e-02 9.328088e-02
<VARIANCE> 39
 3.201827e+01 1.038158e+02 8.050079e+01 7.881430e+01 5.525565e+01 6.863638e+01 6.914655e+01 3.319038e+01 7.578685e+01 3.174571e+01 2.707262e+01 2.335025e+01 3.635520e+01 3.880358e+00 8.500507e+00 8.594317e+00 7.471684e+00 4.076746e+00 1.161020e+01 8.136866e+00 3.913991e+00 6.631295e+00 4.490149e+00 4.410928e+00 2.478611e+00 3.476725e+00 6.908193e-01 1.777707e+00 1.181723e+00 1.828509e+00 8.504198e-01 1.866191e+00 1.382105e+00 5.139478e-01 1.111730e+00 6.794327e-01 6.339900e-01 8.513343e-01 7.061940e-01
<GCONST> 1.442076e+02
<STATE> 4
<MEAN> 39
 5.797829e-01 -3.779235e+00 4.496571e+00 -4.018440e+00 -6.757795e-01 -1.044606e+01 -8.973509e+00 -8.671429e+00 -1.789178e+01 1.742743e-02 -5.022684e+00 -1.427347e+00 7.078690e+01 -1.849791e-01 1.828746e-01 8.296859e-02 2.881033e-01 7.879859e-01 9.001096e-01 -2.894621e-02 -8.136117e-02 -4.867940e-01 6.405300e-01 2.677255e-01 8.876021e-02 -4.041430e-01 8.582174e-02 4.674941e-01 -2.890909e-01 -6.713341e-03 -7.862606e-02 1.411413e-01 1.265075e-01 4.749113e-01 4.516193e-03 -6.277754e-02 7.981908e-02 1.129032e-02 -3.085066e-01
<VARIANCE> 39
 1.540714e+01 5.733307e+01 3.301588e+01 5.144226e+01 5.174761e+01 9.653075e+01 6.742146e+01 4.040807e+01 8.101022e+01 3.558260e+01 2.384288e+01 2.044713e+01 2.820410e+01 1.664642e+00 7.845756e+00 4.487584e+00 9.086127e+00 5.279576e+00 1.254113e+01 7.595860e+00 4.761604e+00 7.272223e+00 4.076339e+00 3.127726e+00 2.892482e+00 4.126433e+00 2.581994e-01 1.042296e+00 7.842264e-01 1.079674e+00 6.081602e-01 2.781468e+00 1.211043e+00 7.681510e-01 1.524540e+00 1.023908e+00 5.093924e-01 6.066943e-01 5.087687e-01
<GCONST> 1.384573e+02
<TRANSP> 5
 0.000000e+00 1.000000e+00 0.000000e+00 0.000000e+00 0.000000e+00
 0.000000e+00 4.784562e-01 5.215439e-01 0.000000e+00 0.000000e+00
 0.000000e+00 0.000000e+00 2.659672e-01 7.340328e-01 0.000000e+00
 0.000000e+00 0.000000e+00 0.000000e+00 5.303177e-01 4.696823e-01
 0.000000e+00 0.000000e+00 0.000000e+00 0.000000e+00 0.000000e+00
<ENDHMM>
~h "wa"
<BEGINHMM>
<NUMSTATES> 5
<STATE> 2
<MEAN> 39
 2.933620e+00 1.114754e+01 3.142575e+00 -2.842971e+00 -6.874728e+00 -7.203491e+00 -1.088230e+01 1.635798e+00 -1.204591e+01 -4.433286e+00 -1.006390e+01 -5.277606e+00 6.194904e+01 1.086857e+00 -8.894726e-01 -1.231579e+00 -2.349307e+00 1.127465e+00 2.411170e-01 -1.277232e-01 1.039331e+00 -9.634795e-01 -1.005699e+00 -6.328629e-01 -3.177142e-04 1.514073e+00 -1.710052e-01 -5.447375e-01 -1.896585e-01 -3.458546e-01 5.887318e-01 -5.111519e-02 -2.166766e-01 2.987749e-01 -6.226739e-01 -3.667066e-01 2.250002e-02 2.186543e-02 2.028421e-01
<VARIANCE> 39
 9.372426e+00 2.553930e+01 2.732508e+01 1.237477e+02 8.923308e+01 1.392628e+02 4.396996e+01 6.651333e+01 2.185057e+01 2.604266e+01 4.690542e+01 2.775482e+01 1.741975e+01 1.613371e+00 6.094496e+00 4.576687e+00 6.794125e+00 6.700856e+00 1.357388e+01 7.280811e+00 5.665606e+00 2.672726e+00 4.813949e+00 5.292063e+00 3.774625e+00 2.013866e+00 2.355591e-01 7.192451e-01 5.659214e-01 1.127279e+00 7.690472e-01 2.654311e+00 1.338855e+00 1.748913e+00 6.975146e-01 1.110114e+00 1.075319e+00 6.600062e-01 3.593864e-01
<GCONST> 1.369824e+02
<STATE> 3
<MEAN> 39
 6.242996e+00 5.406335e+00 -4.668472e+00 -9.348659e+00 3.914466e+00 -2.100927e+00 -1.628047e+01 1.908202e+00 -1.891005e+01 -9.925102e+00 -1.053721e+01 -4.209301e+00 6.682602e+01 6.583966e-02 -4.231018e-01 1.037980e-01 -6.343349e-01 2.198531e-01 -1.141384e+00 1.122528e-01 1.294256e+00 -1.210495e+00 -7.329143e-01 -4.029637e-01 -4.800622e-01 5.036502e-01 -1.271866e-01 3.106383e-01 3.885721e-01 2.482802e-01 -5.377746e-01 -3.990984e-01 4.346376e-01 6.586940e-02 -7.973764e-02 3.157251e-01 1.593188e-01 -1.439465e-01 -1.928132e-01
<VARIANCE> 39
 6.749019e+00 2.849841e+01 3.827329e+01 4.914591e+01 5.714283e+01 1.705307e+02 7.922718e+01 1.306553e+02 6.358026e+01 3.998500e+01 5.536496e+01 2.994156e+01 1.469150e+01 5.274003e-01 3.288031e+00 3.824117e+00 6.912527e+00 5.882617e+00 2.238798e+01 9.960110e+00 1.607643e+01 8.935361e+00 5.413482e+00 7.614276e+00 3.648371e+00 2.121371e+00 1.093262e-01 7.747500e-01 6.768533e-01 9.773055e-01 9.737859e-01 2.998055e+00 2.079040e+00 2.180065e+00 1.633247e+00 1.099729e+00 1.479530e+00 5.184258e-01 4.066980e-01
<GCONST> 1.417050e+02
<STATE> 4
<MEAN> 39
 4.596801e+00 1.593849e+00 1.872680e+00 -1.111073e+01 -9.630479e+00 -1.861168e+01 -3.626032e+00 9.127093e+00 -2.444940e+01 -4.699459e+00 -9.832683e+00 -8.717451e+00 7.017696e+01 -1.314620e-01 -2.402002e-01 -2.271710e-01 1.608021e-01 -3.889259e-01 1.239187e-01 5.450845e-01 -6.668485e-01 7.992765e-02 5.024567e-01 2.999760e-01 3.248357e-01 -8.805773e-02 -2.533583e-02 -2.270021e-02 -8.782830e-02 1.286830e-01 1.231985e-01 2.338113e-01 -2.046590e-01 -1.251002e-01 1.673061e-01 -7.110676e-02 2.416090e-02 1.262650e-01 -8.451441e-02
<VARIANCE> 39
 7.058496e+00 7.087198e+01 5.009996e+01 3.021931e+01 6.367136e+01 4.220411e+01 6.514120e+01 8.926204e+01 3.956620e+01 6.599273e+01 4.015091e+01 4.456530e+01 2.492330e+01 4.546528e-01 3.407365e+00 2.482646e+00 1.904505e+00 2.924468e+00 3.642146e+00 3.690626e+00 3.618119e+00 3.657493e+00 3.194715e+00 2.484791e+00 2.555880e+00 1.354403e+00 7.198838e-02 3.705262e-01 3.113516e-01 3.120301e-01 3.705023e-01 5.351048e-01 6.548001e-01 7.113472e-01 6.366295e-01 4.656293e-01 4.521787e-01 4.869315e-01 1.403800e-01
<GCONST> 1.188806e+02
<TRANSP> 5
 0.000000e+00 1.000000e+00 0.000000e+00 0.000000e+00 0.000000e+00
 0.000000e+00 5.338328e-01 4.661672e-01 0.000000e+00 0.000000e+00
 0.000000e+00 0.000000e+00 8.486227e-01 1.513774e-01 0.000000e+00
 0.000000e+00 0.000000e+00 0.000000e+00 9.317654e-01 6.823459e-02
 0.000000e+00 0.000000e+00 0.000000e+00 0.000000e+00 0.000000e+00
<ENDHMM>
~h "sil"
<BEGINHMM>
<NUMSTATES> 5
<STATE> 2
<MEAN> 39
 -1.287093e+01 4.813538e+00 -2.504315e+00 4.736372e+00 -6.786488e+00 2.280223e+00 -8.732948e+00 1.198818e+00 -5.047888e+00 1.309449e+00 -6.063299e-01 7.910958e-01 4.850691e+01 -4.817396e-02 4.328580e-02 5.014380e-03 3.593813e-02 -2.560456e-02 1.544336e-02 -1.424594e-02 8.290160e-03 1.218157e-02 -5.664423e-03 -4.881823e-03 -7.260826e-03 -7.778515e-02 7.110366e-03 -3.476416e-03 1.408662e-03 -2.552319e-03 3.422585e-03 -5.392199e-03 -5.133301e-03 -2.929643e-04 -4.180750e-03 4.483651e-04 -3.584461e-03 -3.397902e-03 8.933201e-03
<VARIANCE> 39
 5.100094e+00 7.473362e+00 7.066843e+00 1.032316e+01 1.487278e+01 1.543915e+01 1.929547e+01 1.311875e+01 1.143573e+01 1.075020e+01 1.148758e+01 9.677895e+00 1.139536e+01 9.536507e-02 2.804858e-01 3.721342e-01 4.587618e-01 7.094418e-01 8.039200e-01 9.343509e-01 9.209138e-01 8.268686e-01 8.955097e-01 9.575347e-01 7.994027e-01 6.198136e-02 1.692182e-02 6.008346e-02 7.621281e-02 9.123386e-02 1.467167e-01 1.604795e-01 1.909605e-01 1.925534e-01 1.656304e-01 1.825719e-01 1.985638e-01 1.626909e-01 1.082086e-02
<GCONST> 6.271537e+01
<STATE> 3
<MEAN> 39
 -1.414067e+01 3.239049e+00 -1.949795e+00 3.140353e+00 -4.982970e+00 1.857485e+00 -7.326070e+00 -4.056597e-01 -5.177791e+00 1.956109e-01 4.514048e-01 8.374780e-01 5.072301e+01 2.866847e-02 -5.976320e-02 8.635301e-02 4.762979e-03 -1.373951e-02 2.560859e-02 -1.127420e-01 -4.260416e-02 -1.161940e-01 4.599743e-04 -8.573590e-02 -5.503312e-03 3.016062e-02 2.024490e-02 -4.754283e-02 1.182312e-01 -3.804823e-02 3.598610e-02 3.234196e-02 -4.160323e-02 -6.928265e-02 -6.421462e-02 6.782087e-03 -5.505524e-02 -4.508266e-02 8.595286e-02
<VARIANCE> 39
 9.334676e+00 2.194355e+01 1.719850e+01 1.703144e+01 2.735132e+01 2.059891e+01 4.186580e+01 1.933462e+01 2.665684e+01 1.275507e+01 1.329105e+01 1.297201e+01 2.233770e+01 3.352000e-01 1.843148e+00 1.138711e+00 1.317292e+00 1.664646e+00 1.766421e+00 2.172496e+00 1.382299e+00 2.287912e+00 1.125150e+00 1.271521e+00 1.404319e+00 4.689063e-01 1.045012e-01 4.410293e-01 3.464640e-01 3.369426e-01 3.756257e-01 3.786746e-01 5.030935e-01 2.994124e-01 4.688322e-01 2.360242e-01 2.587344e-01 2.871784e-01 1.324234e-01
<GCONST> 9.677403e+01
<STATE> 4
<MEAN> 39
 -6.249512e+00 8.492054e-01 9.677900e-01 -1.580349e-01 -6.617661e+00 -5.347321e+00 -5.951283e+00 -3.500473e-01 -1.255470e+01 7.340395e-02 -4.655295e+00 -2.196408e+00 5.924052e+01 7.093859e-02 -4.627524e-02 1.243461e-01 -6.415843e-02 3.181431e-02 -1.161577e-02 -1.175666e-01 -7.610603e-02 -7.767436e-02 1.018663e-02 -5.659067e-02 -3.556707e-02 1.243599e-01 -4.885853e-03 -3.428034e-02 5.122441e-02 -5.175238e-02 -4.089198e-04 -9.962562e-03 1.160969e-04 -6.046763e-03 6.063826e-03 2.224124e-02 -1.113092e-02 7.318833e-05 4.431734e-02
<VARIANCE> 39
 7.076186e+01 8.037650e+01 6.858215e+01 5.172939e+01 5.451079e+01 1.243078e+02 8.286469e+01 4.466566e+01 8.641393e+01 2.768635e+01 5.236070e+01 4.320658e+01 1.161607e+02 1.825688e+00 4.143252e+00 2.951944e+00 2.601705e+00 2.262624e+00 4.668187e+00 3.684924e+00 3.452171e+00 3.835516e+00 1.990340e+00 2.512270e+00 1.844290e+00 2.364936e+00 2.758666e-01 6.381456e-01 5.099005e-01 5.361443e-01 3.468073e-01 7.176315e-01 6.111456e-01 6.027601e-01 5.973569e-01 3.551035e-01 4.148462e-01 3.252272e-01 3.087877e-01
<GCONST> 1.290312e+02
<TRANSP> 5
 0.000000e+00 1.000000e+00 0.000000e+00 0.000000e+00 0.000000e+00
 0.000000e+00 9.788549e-01 2.114513e-02 0.000000e+00 0.000000e+00
 0.000000e+00 0.000000e+00 8.250199e-01 1.749801e-01 0.000000e+00
 0.000000e+00 0.000000e+00 0.000000e+00 8.704509e-01 1.295491e-01
 0.000000e+00 0.000000e+00 0.000000e+00 0.000000e+00 0.000000e+00
<ENDHMM>
