~o
<STREAMINFO> 1 39
<VECSIZE> 39<NULLD><MFCC_D_A_0><DIAGC>
~h "a"
<BEGINHMM>
<NUMSTATES> 5
<STATE> 2
<MEAN> 39
 2.278427e+00 -5.676947e+00 -2.870367e+00 -1.374628e+01 -2.918997e+00 -9.246698e+00 -9.539184e+00 -1.263713e+00 -1.214430e+01 -1.025925e+00 -2.062081e+00 1.482924e+00 7.216458e+01 9.583656e-01 -5.431545e-01 -7.302775e-01 -7.842183e-01 -2.032266e-01 -2.406932e-01 5.450189e-01 6.177167e-01 -4.109046e-01 -2.652164e-01 1.842824e-01 9.458426e-02 8.881745e-01 -2.228703e-01 2.152342e-01 2.254574e-01 3.709281e-01 4.152788e-02 2.020904e-01 -2.605049e-02 -4.946639e-02 7.138386e-02 2.945327e-04 -1.577726e-01 -1.376959e-01 -2.833242e-01
<VARIANCE> 39
 3.432936e+01 5.027013e+01 4.461399e+01 8.777682e+01 7.866353e+01 1.015480e+02 9.631915e+01 6.448236e+01 6.657896e+01 7.572176e+01 4.836491e+01 3.136032e+01 6.263079e+01 3.245914e+00 5.152370e+00 3.804714e+00 5.185378e+00 3.455212e+00 5.028836e+00 5.639908e+00 4.995497e+00 3.948034e+00 4.198428e+00 3.455553e+00 2.698417e+00 4.642502e+00 6.608191e-01 6.874985e-01 5.986179e-01 9.195955e-01 5.957324e-01 8.229225e-01 9.470074e-01 8.367062e-01 6.804001e-01 7.952526e-01 6.813943e-01 5.049303e-01 5.231350e-01
<GCONST> 1.390179e+02
<STATE> 3
<MEAN> 39
 4.632789e+00 -5.339886e+00 -3.974153e+00 -1.470799e+01 -2.713881e+00 -9.573596e+00 -9.605635e+00 2.542315e-01 -1.274762e+01 -2.421999e+00 -1.287166e+00 9.781176e-01 7.367883e+01 -7.542160e-02 9.579907e-01 1.420436e-01 7.393063e-01 -1.492290e-01 8.766435e-01 6.329802e-02 2.558932e-01 -8.012731e-02 -2.719407e-01 -3.313102e-01 -1.579805e-01 -8.741899e-01 -3.453128e-01 2.730229e-01 3.495737e-01 3.469460e-01 9.299127e-02 2.466767e-01 -1.403834e-01 -2.186985e-01 1.649403e-01 5.386326e-02 -2.005195e-01 -7.262323e-02 -3.545128e-01
<VARIANCE> 39
 1.731242e+01 4.100243e+01 4.498224e+01 6.630606e+01 8.517238e+01 9.388677e+01 1.097706e+02 6.246099e+01 7.695956e+01 8.511057e+01 5.323676e+01 3.581454e+01 3.185275e+01 1.109438e+00 3.510466e+00 2.588213e+00 3.711045e+00 2.703346e+00 3.525719e+00 4.500053e+00 4.033619e+00 3.027320e+00 4.302950e+00 3.082457e+00 2.316423e+00 2.155601e+00 2.409984e-01 3.793966e-01 3.270326e-01 5.887924e-01 4.275036e-01 5.253283e-01 7.392119e-01 6.992822e-01 5.767320e-01 7.121759e-01 5.548990e-01 4.828870e-01 1.804996e-01
<GCONST> 1.278283e+02
<STATE> 4
<MEAN> 39
 3.443572e+00 -2.918292e+00 -4.593061e+00 -9.712529e+00 -5.387939e+00 -7.086049e+00 -6.405020e+00 -9.120838e-01 -1.351230e+01 -1.015528e+00 -1.546870e+00 6.933866e-01 6.953328e+01 -4.617866e-01 8.743772e-01 4.093229e-01 7.730762e-01 -5.134714e-02 6.493582e-01 -3.146231e-01 -7.434781e-02 2.330720e-01 -1.143932e-01 -3.523302e-01 -6.353161e-02 -9.754346e-01 -1.369484e-01 3.781264e-02 1.279000e-01 5.492980e-02 7.466838e-02 3.322883e-04 -6.012981e-02 -3.522599e-02 7.493487e-02 -4.091122e-03 -4.903246e-02 -1.517203e-02 -6.430379e-02
<VARIANCE> 39
 2.635740e+01 6.262366e+01 3.889991e+01 7.336034e+01 6.890235e+01 9.714690e+01 9.954935e+01 5.734521e+01 7.204436e+01 4.999434e+01 5.101148e+01 3.260697e+01 6.072231e+01 9.795604e-01 2.166868e+00 1.801257e+00 2.714943e+00 1.990423e+00 2.964137e+00 3.028396e+00 2.620821e+00 2.566820e+00 2.761290e+00 2.347399e+00 1.755403e+00 1.392329e+00 1.366680e-01 3.301627e-01 2.244422e-01 4.463493e-01 2.898610e-01 4.345258e-01 4.990085e-01 4.235388e-01 4.440792e-01 3.878089e-01 3.625343e-01 3.065641e-01 1.788712e-01
<GCONST> 1.194026e+02
<TRANSP> 5
 0.000000e+00 1.000000e+00 0.000000e+00 0.000000e+00 0.000000e+00
 0.000000e+00 5.518655e-01 4.481345e-01 0.000000e+00 0.000000e+00
 0.000000e+00 0.000000e+00 4.739968e-01 5.260032e-01 0.000000e+00
 0.000000e+00 0.000000e+00 0.000000e+00 7.882649e-01 2.117351e-01
 0.000000e+00 0.000000e+00 0.000000e+00 0.000000e+00 0.000000e+00
<ENDHMM>
~h "b"
<BEGINHMM>
<NUMSTATES> 5
<STATE> 2
<MEAN> 39
 -3.657416e+00 1.662588e+00 6.321200e+00 -8.513384e+00 1.415025e+00 -4.009695e+00 -1.174194e+01 -2.892578e+00 -1.144035e+01 -2.431113e+00 -6.348104e+00 5.978721e-01 6.644591e+01 -2.837192e-01 2.438482e-02 2.700289e-01 -3.094555e-01 1.761453e-01 3.107008e-01 5.346460e-01 -3.192624e-01 -1.285499e-01 -1.435938e-02 2.484361e-01 2.357735e-01 2.477369e-01 1.790297e-01 -4.142995e-02 -2.635768e-01 -3.228636e-03 -1.327885e-01 -1.527873e-01 -7.441796e-02 2.448595e-01 -2.131098e-01 -1.330249e-01 1.594960e-01 -6.775134e-02 3.696473e-02
<VARIANCE> 39
 6.087989e+01 9.012779e+01 8.100117e+01 1.477169e+02 9.144917e+01 6.817420e+01 1.267156e+02 7.701484e+01 7.009146e+01 5.179491e+01 3.668404e+01 2.664269e+01 8.990452e+01 4.497458e+00 4.080145e+00 5.174440e+00 5.858453e+00 3.759506e+00 4.417677e+00 6.174247e+00 3.806913e+00 6.878361e+00 3.499239e+00 2.804976e+00 2.389526e+00 3.405147e+00 4.685773e-01 8.515880e-01 8.359963e-01 1.061216e+00 6.670802e-01 8.245215e-01 1.250902e+00 8.922573e-01 1.017079e+00 6.596071e-01 5.160285e-01 4.310913e-01 6.054100e-01
<GCONST> 1.418483e+02
<STATE> 3
<MEAN> 39
 -2.452055e+00 2.932960e+00 4.511170e+00 -9.154865e+00 3.068343e+00 -2.983405e+00 -1.194400e+01 -4.839185e-01 -1.086837e+01 -2.477300e+00 -6.417760e+00 9.910707e-01 6.663774e+01 3.053024e-01 8.635274e-02 -2.763680e-01 2.667688e-01 -3.120610e-01 2.052554e-01 1.314698e-01 1.165580e-01 -3.394258e-01 -1.949388e-01 3.250960e-01 2.401972e-02 -6.676277e-02 1.608709e-01 -1.110226e-01 -2.670166e-02 -6.598904e-02 -2.678720e-02 -1.391660e-01 -3.128998e-01 9.473649e-02 -1.281291e-01 -4.705995e-02 6.741254e-02 -4.488769e-02 7.674870e-02
<VARIANCE> 39
 6.300471e+01 8.116514e+01 5.515742e+01 1.674304e+02 9.738217e+01 6.945738e+01 1.293777e+02 6.274133e+01 7.507320e+01 4.269032e+01 3.970499e+01 3.241191e+01 8.040508e+01 2.096939e+00 2.478175e+00 3.113052e+00 2.455910e+00 3.001433e+00 2.847498e+00 3.493423e+00 3.171100e+00 4.059655e+00 2.479964e+00 2.334427e+00 1.647009e+00 1.684318e+00 3.950456e-01 6.269200e-01 4.891898e-01 6.755153e-01 5.275862e-01 7.613397e-01 8.118764e-01 6.183673e-01 6.955829e-01 5.126039e-01 5.173119e-01 3.706928e-01 4.409771e-01
<GCONST> 1.315927e+02
<STATE> 4
<MEAN> 39
 4.634239e-01 1.320956e+00 9.543848e-01 -7.741771e+00 -1.766130e+00 -8.487400e+00 -7.670147e+00 6.846263e-01 -1.711975e+01 -3.058003e+00 -4.633795e+00 -7.290077e-01 6.752736e+01 2.912193e-01 1.318270e-01 3.124717e-03 1.829438e-01 -4.412622e-01 1.885821e-01 -3.173230e-01 8.338609e-02 -2.108575e-01 -2.399036e-01 1.841376e-01 5.491038e-03 -1.473307e-01 -3.346798e-02 -1.884303e-02 1.157760e-01 -4.457097e-02 9.388421e-02 -3.167630e-02 -1.794145e-01 -3.272609e-03 3.788080e-02 -8.166733e-02 -4.377332e-02 -1.195248e-02 5.759244e-02
<VARIANCE> 39
 4.729728e+01 6.324072e+01 5.873904e+01 1.406542e+02 1.093288e+02 1.573546e+02 1.284824e+02 7.127554e+01 1.457013e+02 3.742516e+01 3.688233e+01 5.972009e+01 9.479318e+01 8.690000e-01 2.070672e+00 1.894466e+00 2.353963e+00 2.462959e+00 2.573567e+00 3.022135e+00 2.856515e+00 2.785710e+00 2.024702e+00 1.941845e+00 1.448068e+00 1.406937e+00 2.223619e-01 5.114922e-01 3.439810e-01 6.281543e-01 4.219398e-01 8.349071e-01 5.980202e-01 4.892955e-01 7.337415e-01 3.972005e-01 4.562400e-01 2.864468e-01 3.576626e-01
<GCONST> 1.273439e+02
<TRANSP> 5
 0.000000e+00 1.000000e+00 0.000000e+00 0.000000e+00 0.000000e+00
 0.000000e+00 4.070066e-01 5.929934e-01 0.000000e+00 0.000000e+00
 0.000000e+00 0.000000e+00 3.356938e-01 6.643062e-01 0.000000e+00
 0.000000e+00 0.000000e+00 0.000000e+00 5.747064e-01 4.252936e-01
 0.000000e+00 0.000000e+00 0.000000e+00 0.000000e+00 0.000000e+00
<ENDHMM>
~h "c"
<BEGINHMM>
<NUMSTATES> 5
<STATE> 2
<MEAN> 39
 1.688248e+00 -9.824722e+00 -5.191141e+00 -7.872657e+00 -2.753916e+00 -1.155013e+01 -1.214754e+01 -4.680112e+00 -1.112254e+01 5.204094e+00 -3.734897e+00 -1.997210e+00 7.164770e+01 3.044883e-01 -5.537969e-01 -2.081440e-01 -4.880514e-01 3.381971e-01 -6.447086e-01 3.142363e-01 3.397444e-01 4.809332e-01 3.827844e-01 -2.839190e-02 1.265338e-01 7.500934e-01 -2.272343e-02 1.703225e-01 1.663356e-01 -1.387229e-02 3.828955e-02 -2.745095e-02 5.677222e-02 5.844149e-02 -3.342011e-02 -1.311065e-01 -7.481788e-02 1.046968e-01 -4.030031e-02
<VARIANCE> 39
 1.591404e+01 4.173161e+01 5.519507e+01 5.287340e+01 8.163957e+01 1.267024e+02 4.814309e+01 3.976323e+01 9.471439e+01 6.214353e+01 3.650033e+01 5.115041e+01 5.130783e+01 1.165103e+00 5.881227e+00 2.421584e+00 3.891555e+00 3.781894e+00 7.127499e+00 2.406905e+00 2.119212e+00 4.874936e+00 5.354638e+00 2.168330e+00 5.107801e+00 3.487751e+00 2.659872e-01 1.205165e+00 4.010252e-01 6.714734e-01 5.512210e-01 1.200331e+00 4.313502e-01 3.546259e-01 9.945585e-01 8.943634e-01 4.250303e-01 9.486252e-01 6.737738e-01
<GCONST> 1.329528e+02
<STATE> 3
<MEAN> 39
 3.351312e+00 -7.783352e+00 -2.901624e+00 -1.005079e+01 7.751287e+00 -1.530868e+01 -1.554031e+01 -1.691862e+00 -7.475530e+00 4.221239e+00 -5.432705e+00 1.581972e+00 7.465899e+01 8.726606e-02 9.351478e-01 4.424950e-01 4.481881e-01 -9.525131e-02 8.017307e-01 -3.801412e-01 2.042328e-01 -4.453767e-02 -1.041709e+00 -3.846184e-01 1.405193e-01 -5.330752e-01 -2.912359e-02 2.623129e-01 -8.306983e-02 2.193936e-01 -2.424175e-01 2.885447e-01 -7.294917e-03 7.663260e-02 -2.822312e-01 -4.925748e-02 1.471485e-02 -2.490913e-01 -3.150219e-01
<VARIANCE> 39
 3.764895e+00 4.636098e+01 1.434286e+01 4.086136e+01 8.034889e+01 7.724898e+01 6.610768e+01 2.649289e+01 6.420773e+01 4.608475e+01 3.852330e+01 4.700799e+01 1.844637e+01 1.843122e-01 4.276395e+00 1.209952e+00 4.445652e+00 1.730011e+00 4.198110e+00 2.530402e+00 2.351871e+00 1.816117e+00 2.852258e+00 2.077408e+00 3.887792e+00 2.856285e+00 4.751186e-02 6.439356e-01 1.767101e-01 7.755864e-01 2.285510e-01 3.796839e-01 4.500642e-01 4.645384e-01 3.197711e-01 5.242964e-01 4.799913e-01 7.023617e-01 4.652427e-01
<GCONST> 1.146954e+02
<STATE> 4
<MEAN> 39
 2.025464e+00 -4.089601e+00 -8.572873e-01 2.984900e+00 -1.832554e+00 -1.011883e+01 -1.317167e+01 -6.849904e+00 -1.612564e+01 3.324730e-01 -2.734701e+00 -1.688398e+00 6.733723e+01 -7.289785e-02 -4.311876e-02 6.001619e-02 4.589525e-01 -9.418531e-02 3.001842e-01 1.866437e-01 1.401671e-01 -2.414697e-01 -3.796618e-01 5.206861e-02 -4.180220e-01 -1.501540e-01 5.810406e-03 -1.302249e-01 -1.243172e-01 -2.347683e-01 2.173963e-01 -8.408404e-02 7.457568e-02 5.232270e-02 1.086197e-01 8.691303e-02 1.283176e-02 5.565589e-02 1.609524e-01
<VARIANCE> 39
 7.822375e+00 5.648394e+01 1.368276e+01 6.863170e+01 3.474391e+01 5.264223e+01 8.708977e+01 3.784241e+01 9.202145e+01 3.194397e+01 5.542450e+01 3.367609e+01 3.288337e+01 7.123435e-01 6.943387e+00 1.369825e+00 3.429996e+00 2.249844e+00 3.870941e+00 7.474479e+00 3.110548e+00 3.541475e+00 2.950817e+00 3.608904e+00 3.197073e+00 4.321404e+00 1.423478e-01 9.001732e-01 3.476775e-01 4.834682e-01 3.476990e-01 7.078198e-01 9.839855e-01 7.141982e-01 6.139619e-01 3.003936e-01 6.730737e-01 5.645243e-01 5.424216e-01
<GCONST> 1.250856e+02
<TRANSP> 5
 0.000000e+00 1.000000e+00 0.000000e+00 0.000000e+00 0.000000e+00
 0.000000e+00 8.696548e-01 1.303452e-01 0.000000e+00 0.000000e+00
 0.000000e+00 0.000000e+00 7.661544e-01 2.338457e-01 0.000000e+00
 0.000000e+00 0.000000e+00 0.000000e+00 7.062655e-01 2.937346e-01
 0.000000e+00 0.000000e+00 0.000000e+00 0.000000e+00 0.000000e+00
<ENDHMM>
~h "d"
<BEGINHMM>
<NUMSTATES> 5
<STATE> 2
<MEAN> 39
 -8.782111e-01 5.123507e+00 7.521775e+00 -2.471312e+00 9.925868e-03 1.700737e-02 -1.249881e+01 -1.339756e+00 -9.827145e+00 -4.109739e+00 -6.295393e+00 -5.944074e-01 6.453376e+01 1.544520e-01 -1.962375e+00 -2.271642e-01 -2.252291e+00 1.067561e+00 7.819049e-01 -7.219782e-01 4.561092e-01 -5.519900e-01 -1.601882e+00 1.785353e-03 -3.471584e-01 1.520419e+00 3.378204e-01 1.177863e-01 -1.952796e-01 -4.348041e-01 9.241460e-02 -6.731169e-01 -4.529352e-01 4.993581e-01 -5.835772e-01 -3.843844e-01 -1.341585e-01 -2.451995e-01 2.364265e-01
<VARIANCE> 39
 1.573061e+01 9.686908e+01 3.231111e+01 1.345056e+02 5.211163e+01 1.225405e+02 8.623905e+01 5.120375e+01 6.571154e+01 4.014955e+01 3.701995e+01 3.144934e+01 4.267311e+01 2.173582e+00 1.202533e+01 3.505235e+00 1.273827e+01 4.718110e+00 1.257946e+01 8.567101e+00 5.970990e+00 6.879810e+00 5.706688e+00 5.052974e+00 4.112357e+00 5.081339e+00 3.487262e-01 2.557620e+00 6.903552e-01 2.690416e+00 9.434806e-01 2.259401e+00 1.438793e+00 1.050415e+00 1.091916e+00 1.138601e+00 1.128376e+00 8.714722e-01 1.087913e+00
<GCONST> 1.485995e+02
<STATE> 3
<MEAN> 39
 1.988889e+00 1.164000e+00 6.469954e+00 -1.232640e+01 2.705468e+00 -6.387806e+00 -2.092292e+01 6.025348e+00 -1.623317e+01 -1.160484e+01 -6.487589e+00 -5.453675e+00 7.067007e+01 5.467190e-01 2.441924e-01 -2.728883e-02 -9.832681e-01 -3.246296e-01 -1.770676e+00 -7.521311e-01 1.520245e+00 -1.461560e+00 -8.143013e-01 2.086852e-02 -7.740694e-01 4.196655e-01 -1.440302e-01 3.837587e-01 2.233263e-01 4.482158e-01 -4.453737e-01 -1.092077e-01 6.749107e-01 -1.341375e-01 1.644846e-01 5.450580e-01 -2.473862e-03 1.097213e-01 -3.577583e-01
<VARIANCE> 39
 7.754949e+00 7.516425e+01 6.084346e+01 9.355756e+01 8.778294e+01 1.172839e+02 1.133016e+02 7.586511e+01 5.080069e+01 7.714081e+01 1.022885e+02 3.660492e+01 2.049727e+01 1.048573e+00 6.525934e+00 4.120516e+00 8.893496e+00 5.781172e+00 1.161980e+01 1.004004e+01 7.441618e+00 5.676534e+00 7.626377e+00 7.086595e+00 4.407101e+00 2.714375e+00 1.845286e-01 1.418993e+00 8.003236e-01 1.155508e+00 1.245905e+00 2.080191e+00 1.621929e+00 1.041367e+00 1.144362e+00 1.361978e+00 1.190832e+00 6.778948e-01 4.365388e-01
<GCONST> 1.462249e+02
<STATE> 4
<MEAN> 39
 4.909998e+00 2.365466e+00 2.866981e+00 -1.651817e+01 -2.336230e+00 -1.146629e+01 -1.482174e+01 1.033094e+01 -2.004627e+01 -8.651498e+00 -5.280006e+00 -4.178206e+00 7.111436e+01 1.242824e-01 -1.016675e-02 -3.863376e-01 1.330398e-01 -3.228657e-01 -1.472447e-01 4.130408e-01 -1.415581e-01 9.552369e-02 3.211552e-01 1.805033e-01 1.843181e-01 -6.103066e-02 -5.762270e-02 4.394460e-02 3.080673e-03 1.511295e-01 1.542687e-02 1.948415e-01 3.513467e-02 -1.155670e-01 1.436228e-01 2.697201e-02 -3.422317e-02 3.026933e-02 -9.884132e-02
<VARIANCE> 39
 5.398266e+00 5.605046e+01 5.062873e+01 7.670827e+01 6.590776e+01 7.119012e+01 1.161475e+02 5.670871e+01 5.979496e+01 7.002861e+01 8.283380e+01 4.069088e+01 1.823723e+01 2.216207e-01 2.845868e+00 1.729987e+00 3.586974e+00 2.561755e+00 3.484818e+00 2.996492e+00 2.950292e+00 2.638560e+00 3.563806e+00 3.163072e+00 2.300147e+00 1.267645e+00 4.061843e-02 3.106760e-01 2.611162e-01 5.530578e-01 4.374498e-01 5.025649e-01 5.417709e-01 4.362084e-01 4.260059e-01 5.569805e-01 5.299637e-01 3.815837e-01 1.463367e-01
<GCONST> 1.182385e+02
<TRANSP> 5
 0.000000e+00 1.000000e+00 0.000000e+00 0.000000e+00 0.000000e+00
 0.000000e+00 7.445151e-01 2.554849e-01 0.000000e+00 0.000000e+00
 0.000000e+00 0.000000e+00 6.612482e-01 3.387518e-01 0.000000e+00
 0.000000e+00 0.000000e+00 0.000000e+00 9.315925e-01 6.840754e-02
 0.000000e+00 0.000000e+00 0.000000e+00 0.000000e+00 0.000000e+00
<ENDHMM>
~h "e"
<BEGINHMM>
<NUMSTATES> 5
<STATE> 2
<MEAN> 39
 1.432575e-01 1.321564e+00 -1.343440e+00 -2.142207e+00 -1.887060e+00 -7.108034e+00 -1.321486e+01 -2.332290e+00 -7.039775e+00 3.906160e+00 -4.215460e+00 -2.499868e+00 6.398525e+01 -6.359306e-01 4.548118e-01 -1.301396e-02 3.749420e-01 -3.585832e-01 5.050864e-01 2.527739e-01 2.389101e-01 1.946814e-01 -9.884871e-02 -4.427173e-02 9.184001e-02 -9.359597e-01 -1.352684e-03 -1.485532e-01 -3.698834e-02 -1.201722e-01 -4.016437e-02 1.754124e-02 4.271508e-02 5.310521e-02 -5.346678e-02 -4.999576e-02 2.514201e-02 3.960668e-02 7.446124e-02
<VARIANCE> 39
 2.600743e+01 4.032324e+01 2.885561e+01 9.807452e+01 7.368782e+01 1.133756e+02 7.740960e+01 5.808316e+01 3.905270e+01 4.545615e+01 1.885777e+01 2.413176e+01 5.392895e+01 8.417237e-01 1.187435e+00 9.007296e-01 1.295790e+00 1.924574e+00 2.145283e+00 1.884143e+00 1.614089e+00 1.615998e+00 1.621742e+00 1.393100e+00 1.403631e+00 3.973688e-01 8.876364e-02 1.801636e-01 1.455378e-01 1.797648e-01 2.555995e-01 3.109103e-01 2.940203e-01 2.631371e-01 2.625813e-01 2.136646e-01 2.201877e-01 2.038555e-01 9.120265e-02
<GCONST> 1.037578e+02
<STATE> 3
<MEAN> 39
 -5.179546e+00 4.210825e+00 -2.841369e+00 -7.924485e-01 -6.020340e+00 -6.857409e-02 -9.631502e+00 1.029177e+00 -5.181211e+00 1.527282e+00 -2.474200e+00 -2.647084e-01 5.623462e+01 -9.210829e-01 -1.331903e-01 1.500181e-02 1.907877e-01 -5.040059e-01 2.988473e-01 5.956253e-01 3.533774e-01 -1.651002e-01 -2.624776e-01 6.781803e-02 2.507797e-01 -7.929206e-01 1.657780e-01 -7.398035e-02 -8.326711e-03 -9.285784e-02 1.113201e-01 -7.194459e-02 -1.290551e-01 -3.208279e-02 -4.244910e-02 -8.653753e-02 -4.482217e-02 -4.413238e-02 1.958612e-01
<VARIANCE> 39
 2.783750e+01 1.828222e+01 1.907306e+01 5.195252e+01 3.542356e+01 4.224410e+01 6.142884e+01 4.756236e+01 1.923589e+01 2.413694e+01 1.531368e+01 1.415946e+01 2.628340e+01 6.435239e-01 1.109511e+00 1.147327e+00 1.525240e+00 1.662798e+00 1.770800e+00 2.060193e+00 1.781750e+00 1.361248e+00 1.541852e+00 1.300240e+00 1.335749e+00 1.677935e-01 8.702340e-02 1.371523e-01 1.813577e-01 2.427106e-01 2.502476e-01 3.139280e-01 2.631132e-01 3.712633e-01 2.472245e-01 2.221125e-01 2.128704e-01 2.597246e-01 4.392735e-02
<GCONST> 9.565514e+01
<STATE> 4
<MEAN> 39
 -9.257473e+00 5.267732e+00 -2.671162e+00 3.026562e-02 -9.959110e+00 -1.499965e+00 -9.969060e+00 7.393480e-01 -5.410122e+00 1.439920e+00 -1.697703e+00 4.943022e-01 5.187609e+01 -2.348948e-01 -5.934134e-03 4.215489e-02 1.335256e-01 -2.359025e-02 7.103794e-02 1.768223e-02 1.081025e-01 -9.470975e-05 -8.329210e-02 8.230559e-03 -1.484636e-02 -2.206349e-01 7.519927e-02 -3.727533e-02 -1.186808e-02 -4.423205e-02 8.135869e-02 -2.861888e-03 -4.770753e-02 -2.074275e-02 -8.262248e-03 2.611039e-02 9.607043e-03 -2.864569e-02 9.661558e-02
<VARIANCE> 39
 1.178709e+01 6.924826e+00 8.900761e+00 2.060948e+01 2.932902e+01 2.446235e+01 2.270325e+01 1.560075e+01 1.204315e+01 1.345256e+01 1.302245e+01 1.201882e+01 1.292473e+01 2.367707e-01 3.756627e-01 4.725037e-01 6.482468e-01 9.060645e-01 1.047321e+00 1.102859e+00 1.115314e+00 1.021449e+00 1.096405e+00 9.823809e-01 9.863648e-01 9.843715e-02 5.539074e-02 8.084904e-02 1.123891e-01 1.391336e-01 1.766953e-01 2.023388e-01 2.083160e-01 2.249367e-01 2.107898e-01 2.303999e-01 2.055020e-01 2.229186e-01 4.781384e-02
<GCONST> 7.564490e+01
<TRANSP> 5
 0.000000e+00 1.000000e+00 0.000000e+00 0.000000e+00 0.000000e+00
 0.000000e+00 6.773829e-01 3.226171e-01 0.000000e+00 0.000000e+00
 0.000000e+00 0.000000e+00 3.549114e-01 6.450886e-01 0.000000e+00
 0.000000e+00 0.000000e+00 0.000000e+00 8.284836e-01 1.715164e-01
 0.000000e+00 0.000000e+00 0.000000e+00 0.000000e+00 0.000000e+00
<ENDHMM>
~h "g"
<BEGINHMM>
<NUMSTATES> 5
<STATE> 2
<MEAN> 39
 -5.657365e+00 1.498154e+00 1.119415e+01 5.199335e-01 3.088158e+00 -8.187276e+00 -1.397288e+01 2.312765e-01 -1.090481e+01 7.589298e-03 -7.287712e+00 -2.952430e+00 6.442210e+01 -8.016434e-02 -1.153446e+00 2.883427e-01 -1.004179e+00 2.024427e-01 -7.963737e-01 -1.528560e-02 -1.032314e-01 -5.484726e-01 7.324526e-02 -3.877582e-01 -8.197346e-01 1.080523e+00 2.050116e-01 1.834600e-02 -7.851718e-02 -5.689840e-02 3.848795e-02 -3.952229e-01 -2.505087e-01 -1.187804e-01 -9.723479e-02 -6.687497e-02 -4.751830e-02 -1.100368e-01 1.970083e-01
<VARIANCE> 39
 2.545461e+01 1.054946e+02 7.275796e+01 1.276367e+02 7.142102e+01 1.310556e+02 7.168446e+01 5.169489e+01 6.415931e+01 3.486316e+01 3.815681e+01 3.137716e+01 6.116702e+01 3.352155e+00 1.327136e+01 6.863129e+00 1.238461e+01 5.807005e+00 1.065748e+01 7.853574e+00 6.793432e+00 6.046126e+00 4.105919e+00 3.991392e+00 3.094574e+00 7.677752e+00 6.354105e-01 2.426659e+00 1.405202e+00 2.118242e+00 1.034972e+00 1.624408e+00 1.823954e+00 1.052336e+00 1.046968e+00 7.017334e-01 6.847452e-01 5.249327e-01 1.264255e+00
<GCONST> 1.506875e+02
<STATE> 3
<MEAN> 39
 -1.504395e+00 5.898404e-01 8.344007e+00 -9.247663e+00 -2.310982e+00 -1.147347e+01 -1.375377e+01 -2.532624e+00 -1.536661e+01 -2.177181e+00 -8.291336e+00 -7.167881e+00 6.968970e+01 1.562172e+00 2.136968e-01 -3.476764e-01 -7.877178e-01 1.589365e-01 -1.660582e+00 -1.148604e+00 1.737048e-01 -1.379826e+00 -4.568780e-01 3.929279e-01 -6.489744e-01 1.057898e+00 4.782943e-02 -3.064790e-02 -4.495161e-01 2.874869e-01 -4.199849e-02 3.494478e-01 3.939912e-03 2.568235e-01 3.970904e-01 2.057152e-01 4.065723e-01 5.157313e-01 -3.200581e-01
<VARIANCE> 39
 2.387520e+01 8.611807e+01 5.679240e+01 1.221331e+02 1.617825e+02 8.614759e+01 1.167346e+02 1.219133e+02 5.088748e+01 5.632991e+01 6.609512e+01 4.396157e+01 3.577914e+01 3.005079e+00 6.417126e+00 5.213707e+00 9.091549e+00 7.088036e+00 1.200906e+01 1.204584e+01 9.470988e+00 6.156980e+00 4.980277e+00 5.524726e+00 4.198764e+00 3.028750e+00 5.673598e-01 1.452350e+00 9.262339e-01 1.805158e+00 1.068201e+00 1.395748e+00 2.653765e+00 1.600744e+00 8.381985e-01 8.570700e-01 9.583588e-01 7.136081e-01 5.366431e-01
<GCONST> 1.512758e+02
<STATE> 4
<MEAN> 39
 2.151459e+00 1.423651e+00 7.406422e+00 -1.439847e+01 -4.466949e+00 -1.409744e+01 -1.613494e+01 5.215942e+00 -2.004804e+01 -3.479793e+00 -9.357947e+00 -1.119092e+01 7.085944e+01 3.840995e-01 -9.946437e-01 -5.747658e-01 -4.489261e-01 -1.379662e-01 -4.245423e-01 -2.212939e-01 4.299123e-02 2.214978e-01 3.450301e-02 7.249196e-01 3.400949e-01 6.872881e-01 -1.679026e-01 -1.561200e-01 -6.593873e-02 1.139341e-01 -7.820754e-02 2.967881e-01 3.325239e-01 -1.429368e-01 2.893397e-01 1.046970e-01 7.337911e-02 2.202201e-01 -7.935176e-02
<VARIANCE> 39
 6.062545e+00 7.022031e+01 3.214021e+01 8.426384e+01 1.187362e+02 9.044634e+01 1.384082e+02 9.364434e+01 6.064938e+01 6.066824e+01 5.707437e+01 6.844176e+01 2.122396e+01 9.461507e-01 2.380174e+00 2.463336e+00 6.146386e+00 2.784486e+00 5.501488e+00 8.496889e+00 4.837547e+00 4.125313e+00 4.965572e+00 3.083165e+00 3.196325e+00 8.022668e-01 1.530461e-01 5.160743e-01 3.415267e-01 7.802700e-01 5.113735e-01 1.128187e+00 1.222736e+00 7.308480e-01 6.510333e-01 6.273541e-01 5.049442e-01 4.802755e-01 1.416099e-01
<GCONST> 1.301938e+02
<TRANSP> 5
 0.000000e+00 1.000000e+00 0.000000e+00 0.000000e+00 0.000000e+00
 0.000000e+00 7.900105e-01 2.099896e-01 0.000000e+00 0.000000e+00
 0.000000e+00 0.000000e+00 5.535814e-01 4.464186e-01 0.000000e+00
 0.000000e+00 0.000000e+00 0.000000e+00 7.470216e-01 2.529785e-01
 0.000000e+00 0.000000e+00 0.000000e+00 0.000000e+00 0.000000e+00
<ENDHMM>
~h "h"
<BEGINHMM>
<NUMSTATES> 5
<STATE> 2
<MEAN> 39
 -2.251123e+00 -1.411354e+00 5.491154e+00 -2.401523e+00 2.392254e-01 -5.376207e+00 -1.586590e+01 1.320784e+00 -1.235477e+01 -4.480781e+00 -6.902585e+00 -1.844062e+00 6.539771e+01 3.706200e-01 -7.996329e-01 -1.252972e-01 -4.816454e-01 7.488592e-01 -7.190396e-01 -5.379611e-01 -2.235782e-01 -3.353126e-01 -1.095126e-01 -3.882494e-01 1.888917e-01 9.711845e-01 2.061689e-01 1.543984e-01 -1.305628e-01 -7.065114e-02 -1.018259e-01 -2.132828e-01 4.294330e-02 9.306093e-02 -1.320413e-01 -1.873623e-02 -3.551651e-02 -6.991167e-02 5.453146e-02
<VARIANCE> 39
 5.422102e+01 9.318123e+01 6.753329e+01 1.664336e+02 9.293276e+01 1.481343e+02 1.233214e+02 6.762190e+01 7.645290e+01 7.002377e+01 4.724088e+01 3.289281e+01 3.481533e+01 3.599176e+00 8.981013e+00 5.205588e+00 1.146987e+01 8.521604e+00 1.456549e+01 1.354845e+01 8.292291e+00 7.180412e+00 4.725171e+00 4.340564e+00 3.517745e+00 4.163486e+00 5.441776e-01 1.400390e+00 6.442755e-01 1.812120e+00 1.317275e+00 2.635189e+00 2.330648e+00 1.578653e+00 1.129030e+00 1.002465e+00 7.615235e-01 5.168630e-01 7.447616e-01
<GCONST> 1.536865e+02
<STATE> 3
<MEAN> 39
 -1.647029e+00 -3.526211e+00 1.664004e+00 -1.211502e+01 -1.363390e+00 -7.726109e+00 -1.242173e+01 -3.299672e-01 -1.007649e+01 -3.745370e+00 -7.039351e+00 1.584811e+00 6.986646e+01 5.994399e-01 -4.419192e-01 2.838727e-02 1.717518e-01 3.088782e-01 -9.493193e-01 1.785711e-01 -1.458939e-02 -1.887910e-01 2.000352e-01 -1.889579e-01 -9.719457e-02 8.051133e-01 -1.404835e-01 4.744750e-01 3.191785e-01 5.000214e-01 -1.767444e-01 1.382916e-01 5.282317e-02 -5.633157e-02 -4.501163e-02 -2.234221e-02 2.142698e-02 -2.326302e-01 -4.269414e-01
<VARIANCE> 39
 7.556908e+01 6.266678e+01 7.132584e+01 1.171179e+02 1.330158e+02 1.031786e+02 1.386634e+02 5.029972e+01 1.184681e+02 6.988580e+01 6.349081e+01 3.169205e+01 3.728679e+01 4.157078e+00 7.041354e+00 5.727361e+00 1.069668e+01 6.866128e+00 1.111427e+01 7.476773e+00 5.732132e+00 6.659060e+00 7.073605e+00 4.977406e+00 2.661566e+00 5.283034e+00 7.589864e-01 9.078334e-01 9.898744e-01 1.717204e+00 1.176449e+00 2.021298e+00 1.529463e+00 1.018806e+00 1.276046e+00 1.049837e+00 9.339201e-01 4.323924e-01 5.914075e-01
<GCONST> 1.518080e+02
<STATE> 4
<MEAN> 39
 -3.715421e-01 1.415002e+00 5.100276e+00 -1.303380e+01 -3.181975e-01 -6.008062e+00 -1.533503e+01 -6.872479e-01 -1.110070e+01 -3.982247e+00 -9.066491e+00 9.862787e-01 6.960517e+01 -3.102642e-01 1.570747e-01 2.501252e-01 2.739170e-01 -1.149682e-01 3.342007e-01 4.508102e-01 -3.381954e-01 3.548461e-01 6.064783e-01 7.274402e-03 7.944768e-03 -2.561699e-01 -9.555674e-02 4.909982e-02 1.914463e-02 5.478976e-02 -2.593826e-02 -9.444262e-03 -1.756160e-02 2.248121e-02 1.377155e-01 -6.401019e-02 4.483557e-02 -3.383297e-02 -9.541608e-02
<VARIANCE> 39
 3.729349e+01 9.138489e+01 1.050409e+02 1.411961e+02 1.252135e+02 8.271763e+01 1.445146e+02 4.728752e+01 9.219370e+01 5.743023e+01 6.065469e+01 5.132333e+01 2.746464e+01 1.697332e+00 4.403032e+00 5.086497e+00 5.746126e+00 3.811160e+00 5.847529e+00 4.473574e+00 5.231339e+00 5.213681e+00 4.775157e+00 3.102942e+00 2.085652e+00 1.668526e+00 2.027984e-01 6.279109e-01 9.839056e-01 7.608587e-01 5.170875e-01 9.597354e-01 7.232817e-01 9.140899e-01 8.637258e-01 9.070235e-01 6.540082e-01 3.673719e-01 2.163642e-01
<GCONST> 1.379930e+02
<TRANSP> 5
 0.000000e+00 1.000000e+00 0.000000e+00 0.000000e+00 0.000000e+00
 0.000000e+00 7.720932e-01 2.279067e-01 0.000000e+00 0.000000e+00
 0.000000e+00 0.000000e+00 5.050301e-01 4.949699e-01 0.000000e+00
 0.000000e+00 0.000000e+00 0.000000e+00 7.800184e-01 2.199816e-01
 0.000000e+00 0.000000e+00 0.000000e+00 0.000000e+00 0.000000e+00
<ENDHMM>
~h "i"
<BEGINHMM>
<NUMSTATES> 5
<STATE> 2
<MEAN> 39
 2.657219e+00 3.159764e+00 2.043712e+00 -3.027191e+00 6.694247e-01 -6.066628e+00 -1.440338e+01 -1.477434e+00 -1.147130e+01 -2.960231e+00 -9.693254e+00 -1.796270e+00 6.650522e+01 -1.996148e-01 -1.402550e-02 4.852866e-01 6.930378e-01 9.060581e-02 -8.476366e-01 -3.438168e-01 -2.346973e-01 4.820222e-01 4.078289e-01 -3.251515e-01 -3.442215e-01 -1.039534e-02 -1.204576e-01 -2.800212e-01 4.801508e-02 -3.224158e-02 1.561971e-01 -4.192716e-01 1.253883e-01 1.092217e-01 -1.589626e-01 1.413461e-01 1.426471e-01 -1.829843e-02 1.563755e-01
<VARIANCE> 39
 2.163519e+01 6.862109e+01 4.481353e+01 8.623477e+01 4.184987e+01 1.096500e+02 6.528002e+01 4.564331e+01 5.688929e+01 3.732210e+01 5.954236e+01 4.332393e+01 4.237368e+01 4.527330e-01 1.932042e+00 1.387819e+00 2.518740e+00 2.159565e+00 4.856688e+00 2.149093e+00 1.964217e+00 3.139716e+00 2.145430e+00 1.904857e+00 1.738140e+00 7.308870e-01 6.540515e-02 4.397710e-01 3.109245e-01 3.638934e-01 3.863011e-01 9.366769e-01 3.681272e-01 3.828577e-01 4.852296e-01 4.081660e-01 5.074337e-01 2.843545e-01 1.789892e-01
<GCONST> 1.166532e+02
<STATE> 3
<MEAN> 39
 9.323529e-01 -9.941492e-01 3.774800e+00 -6.101083e-01 3.283898e+00 -1.433591e+01 -1.565538e+01 -1.337829e+00 -1.155322e+01 6.003326e-01 -8.810369e+00 -4.002258e+00 6.877632e+01 -7.021967e-01 -1.324572e+00 1.017492e+00 7.031072e-01 8.808528e-01 -3.161743e+00 -9.379104e-02 5.732584e-01 -3.254300e-01 7.249615e-01 -7.287974e-02 -6.089932e-01 8.166338e-01 -1.059189e-01 2.509018e-02 1.695506e-01 -1.328337e-01 -1.028677e-01 -3.321697e-03 9.741756e-02 1.501467e-01 -3.186334e-02 -2.756352e-01 -2.221590e-02 1.359621e-01 -4.257465e-03
<VARIANCE> 39
 2.370414e+01 6.899661e+01 4.876371e+01 6.887366e+01 5.363632e+01 1.820975e+02 6.575531e+01 6.206711e+01 6.454189e+01 4.547026e+01 5.253536e+01 4.291684e+01 4.712068e+01 5.844141e-01 4.833516e+00 1.986103e+00 3.561330e+00 3.755279e+00 1.045476e+01 2.586720e+00 3.264876e+00 3.935274e+00 3.608301e+00 3.979798e+00 2.579498e+00 1.864512e+00 9.748765e-02 6.339495e-01 4.266132e-01 4.419910e-01 6.538607e-01 1.313788e+00 5.707192e-01 5.531394e-01 5.940789e-01 5.988209e-01 6.233847e-01 3.847225e-01 2.288219e-01
<GCONST> 1.289653e+02
<STATE> 4
<MEAN> 39
 -1.506487e+00 -1.796385e+00 1.086726e+01 3.378637e+00 3.895913e+00 -2.485682e+01 -1.841949e+01 1.850637e+00 -1.186505e+01 -5.582125e-01 -1.100579e+01 -5.576507e+00 6.988570e+01 -3.534375e-02 7.427879e-01 3.363147e-04 -5.162398e-02 -4.359380e-01 9.974908e-01 -2.374765e-01 -2.272358e-01 2.988448e-01 -3.414874e-01 1.629144e-01 6.922323e-02 -5.460775e-01 1.245488e-02 9.912139e-02 -1.376873e-01 -1.341115e-01 -5.372887e-02 4.320229e-01 1.074742e-01 -1.699568e-01 4.557253e-02 -6.913340e-03 8.159506e-02 4.333915e-02 -7.572891e-02
<VARIANCE> 39
 1.489885e+01 6.070400e+01 5.788699e+01 8.019197e+01 3.847816e+01 1.895376e+02 5.280046e+01 8.537225e+01 4.615326e+01 4.786692e+01 6.222681e+01 3.846383e+01 3.749013e+01 7.185460e-01 2.257659e+00 3.187288e+00 2.418006e+00 2.229410e+00 7.310144e+00 2.467557e+00 3.250970e+00 2.629757e+00 2.672701e+00 2.792219e+00 1.591614e+00 9.537420e-01 1.180278e-01 4.320178e-01 3.630091e-01 3.899233e-01 4.639195e-01 1.000717e+00 4.423579e-01 4.506502e-01 5.143244e-01 4.745202e-01 4.680800e-01 3.207537e-01 1.869316e-01
<GCONST> 1.218391e+02
<TRANSP> 5
 0.000000e+00 1.000000e+00 0.000000e+00 0.000000e+00 0.000000e+00
 0.000000e+00 5.296243e-01 4.703756e-01 0.000000e+00 0.000000e+00
 0.000000e+00 0.000000e+00 4.709938e-01 5.290062e-01 0.000000e+00
 0.000000e+00 0.000000e+00 0.000000e+00 8.580910e-01 1.419090e-01
 0.000000e+00 0.000000e+00 0.000000e+00 0.000000e+00 0.000000e+00
<ENDHMM>
~h "j"
<BEGINHMM>
<NUMSTATES> 5
<STATE> 2
<MEAN> 39
 -9.410110e+00 2.830093e-01 1.281504e+01 -4.663805e+00 -1.634165e+00 -4.277590e+00 -7.874327e+00 -3.312485e+00 -9.048635e+00 -2.027220e+00 -5.083991e+00 -3.440841e+00 6.466022e+01 -1.737872e+00 -2.664274e+00 2.534389e+00 -1.771358e+00 1.171808e+00 -1.037166e+00 9.101569e-01 -8.559242e-01 1.883309e-01 5.949014e-02 -1.656376e-01 -3.325627e-01 2.300020e+00 3.872435e-01 -1.114295e-01 -1.536380e-01 9.147270e-02 1.840290e-01 -5.198563e-01 -6.167750e-01 -2.621937e-01 -3.485529e-01 -1.239565e-02 -6.063031e-02 -6.174079e-02 2.724489e-01
<VARIANCE> 39
 7.526089e+01 1.414996e+02 8.387679e+01 1.425372e+02 5.104985e+01 5.253064e+01 8.038908e+01 6.014955e+01 4.672396e+01 3.589762e+01 3.182872e+01 3.076486e+01 6.595732e+01 6.850169e+00 1.331620e+01 6.607223e+00 1.172942e+01 4.833604e+00 7.683805e+00 7.314610e+00 6.687497e+00 5.191720e+00 3.421514e+00 3.513752e+00 2.584623e+00 6.698727e+00 2.098977e+00 3.335742e+00 2.117899e+00 3.090435e+00 1.029751e+00 1.299577e+00 1.844112e+00 1.371183e+00 1.080338e+00 6.814293e-01 6.829919e-01 5.401054e-01 1.460272e+00
<GCONST> 1.526906e+02
<STATE> 3
<MEAN> 39
 -8.608247e+00 -7.815013e+00 1.880560e+01 -5.986277e+00 4.451711e+00 -1.241594e+01 -1.507559e+01 -9.460933e+00 -1.366947e+01 -2.697963e+00 -6.496175e+00 -4.790899e+00 7.369458e+01 3.701250e+00 4.062198e-01 -2.488402e+00 1.334483e+00 5.811058e-01 -2.018083e+00 -3.348897e+00 -9.919998e-01 -2.291640e+00 2.147537e-01 -2.866216e-01 5.984179e-02 7.505050e-01 5.366616e-01 3.873852e-01 -1.254574e+00 -2.475303e-01 -3.737225e-01 2.665063e-01 4.078628e-01 6.560174e-01 6.167572e-02 1.955453e-01 3.371783e-01 2.429541e-01 -3.342549e-01
<VARIANCE> 39
 6.516019e+01 3.889598e+01 6.397525e+01 6.718389e+01 2.815150e+01 5.929614e+01 1.282770e+02 6.430428e+01 6.925140e+01 3.477262e+01 3.561241e+01 2.554611e+01 1.697093e+01 6.185724e+00 5.730293e+00 7.786001e+00 5.732583e+00 3.010401e+00 7.648537e+00 1.138744e+01 6.287238e+00 6.530769e+00 4.227275e+00 3.670511e+00 2.549968e+00 1.522147e+00 1.892082e+00 1.149747e+00 1.555276e+00 1.629433e+00 5.804881e-01 1.105128e+00 2.506510e+00 9.145805e-01 1.356790e+00 7.057750e-01 6.846306e-01 4.136679e-01 3.957507e-01
<GCONST> 1.423597e+02
<STATE> 4
<MEAN> 39
 1.450057e+00 -9.056249e+00 5.416226e+00 -8.136546e+00 4.499850e+00 -1.835406e+01 -1.602537e+01 -9.538857e+00 -1.730800e+01 2.620863e+00 -4.826191e+00 -2.639170e+00 7.726506e+01 1.176120e+00 1.272710e-01 -2.569884e+00 -1.605932e+00 -3.180559e-01 2.119048e-01 1.113600e+00 1.312407e+00 -9.387157e-02 2.480923e-01 1.123663e+00 8.677733e-01 2.664099e-01 -5.324531e-01 1.881681e-01 4.633211e-01 -1.327883e-01 -2.071880e-01 5.974882e-01 5.514043e-01 4.320929e-01 2.270390e-01 -2.851158e-01 -9.938530e-03 1.940470e-02 -3.231244e-01
<VARIANCE> 39
 8.450087e+00 2.476232e+01 3.314256e+01 4.331482e+01 2.514115e+01 6.758692e+01 1.248130e+02 4.531353e+01 4.513416e+01 7.308275e+01 3.577539e+01 2.094590e+01 1.427486e+01 1.443320e+00 1.376598e+00 2.617849e+00 2.663256e+00 1.755426e+00 4.534846e+00 3.701603e+00 3.579087e+00 3.716162e+00 4.157690e+00 2.224210e+00 1.816031e+00 7.367263e-01 4.324661e-01 2.958284e-01 4.548410e-01 7.496374e-01 3.051375e-01 8.040332e-01 1.149901e+00 5.710046e-01 1.037504e+00 7.405465e-01 6.083370e-01 3.472056e-01 1.040757e-01
<GCONST> 1.198233e+02
<TRANSP> 5
 0.000000e+00 1.000000e+00 0.000000e+00 0.000000e+00 0.000000e+00
 0.000000e+00 8.139433e-01 1.860567e-01 0.000000e+00 0.000000e+00
 0.000000e+00 0.000000e+00 6.782130e-01 3.217870e-01 0.000000e+00
 0.000000e+00 0.000000e+00 0.000000e+00 7.524350e-01 2.475650e-01
 0.000000e+00 0.000000e+00 0.000000e+00 0.000000e+00 0.000000e+00
<ENDHMM>
~h "k"
<BEGINHMM>
<NUMSTATES> 5
<STATE> 2
<MEAN> 39
 -5.841305e+00 -2.965075e+00 -1.833362e+00 -1.254901e+01 -6.115656e+00 2.505132e-02 -6.416108e+00 -3.419564e+00 -1.047166e+01 1.375396e+00 -2.094742e+00 1.928646e+00 6.317958e+01 9.565989e-01 -1.394915e+00 -3.231778e-01 -1.673172e+00 5.482822e-01 -5.382940e-01 4.601845e-01 -5.486686e-01 -3.251798e-01 4.315141e-01 -4.223886e-01 -2.114991e-01 1.982543e+00 3.945846e-01 -2.369061e-02 -1.314995e-01 2.373651e-01 -5.951754e-02 -3.538528e-01 -1.132197e-01 6.851479e-02 3.045790e-02 -3.374939e-02 -5.841101e-02 -1.174932e-01 2.225559e-01
<VARIANCE> 39
 4.699959e+01 8.024428e+01 3.351232e+01 1.591480e+02 6.463198e+01 6.968242e+01 9.237555e+01 5.482719e+01 5.630178e+01 3.563905e+01 2.951255e+01 3.077368e+01 8.902705e+01 6.362163e+00 9.018021e+00 4.749928e+00 2.076566e+01 6.480404e+00 8.731099e+00 9.433707e+00 5.779379e+00 6.609284e+00 3.485175e+00 3.347174e+00 4.020778e+00 9.341908e+00 7.858868e-01 1.940398e+00 9.365253e-01 4.307302e+00 1.391718e+00 1.294790e+00 1.878622e+00 1.128201e+00 1.141075e+00 7.113158e-01 6.797447e-01 8.432366e-01 1.732653e+00
<GCONST> 1.519290e+02
<STATE> 3
<MEAN> 39
 2.345702e+00 -6.773159e+00 -3.495166e+00 -1.285565e+01 -5.178160e+00 -3.786746e+00 -1.408449e+01 -4.856233e+00 -5.076066e+00 3.815274e+00 -2.847685e+00 -9.593253e-01 7.063180e+01 5.360736e-01 -3.509797e-01 -6.897541e-01 5.334912e-01 -1.780622e-01 -1.705390e-01 3.717116e-01 1.343463e-02 6.297381e-01 2.984399e-01 7.027100e-02 -1.665831e-01 2.543679e-01 -3.679536e-01 -9.200697e-03 2.316528e-01 -2.297459e-01 7.689276e-02 1.664023e-01 3.510911e-01 2.357999e-02 -1.911889e-01 -1.496839e-01 2.761357e-02 2.508617e-01 -1.078425e-01
<VARIANCE> 39
 3.576281e+01 5.531148e+01 4.298918e+01 7.750482e+01 6.163696e+01 1.432377e+02 1.404938e+02 3.485669e+01 1.224633e+02 3.710161e+01 2.815936e+01 3.046268e+01 6.307524e+01 2.948169e+00 2.852147e+00 2.173404e+00 5.396723e+00 3.647679e+00 5.403667e+00 4.680903e+00 2.991466e+00 3.402723e+00 3.342312e+00 2.356755e+00 3.145599e+00 2.826136e+00 6.783659e-01 5.890955e-01 4.911553e-01 8.125464e-01 4.938989e-01 8.729459e-01 7.140892e-01 4.607569e-01 6.683946e-01 3.482347e-01 3.653467e-01 4.845195e-01 5.231574e-01
<GCONST> 1.323401e+02
<STATE> 4
<MEAN> 39
 6.979312e-01 -2.325928e+00 -7.157419e+00 -7.623677e+00 -7.360488e+00 -1.601598e+00 -8.064168e+00 -9.709489e-01 -4.099156e+00 9.823948e-01 -3.325232e-01 2.209733e+00 6.457172e+01 -1.409665e-01 5.188518e-02 6.409561e-02 -1.013842e-01 2.262715e-01 2.929336e-02 1.797258e-01 3.126259e-01 8.073093e-02 -2.476018e-01 -1.002710e-01 1.885740e-01 -4.055000e-02 -1.338446e-02 -3.292412e-02 1.204201e-01 -2.021985e-01 2.571130e-03 1.099738e-02 2.493873e-03 3.011484e-02 -1.981134e-01 -5.734513e-02 -3.607883e-02 -1.653721e-02 8.216716e-02
<VARIANCE> 39
 6.288883e+01 6.169159e+01 4.812700e+01 7.401541e+01 4.065628e+01 9.353098e+01 6.508453e+01 3.593332e+01 7.533824e+01 3.031565e+01 2.039164e+01 2.452146e+01 9.662724e+01 8.548226e-01 2.936725e+00 1.499097e+00 3.291626e+00 1.634007e+00 3.109883e+00 2.719187e+00 2.552611e+00 2.481642e+00 2.017395e+00 1.236946e+00 1.741186e+00 1.808454e+00 1.818842e-01 6.439375e-01 3.017513e-01 5.835219e-01 3.029552e-01 5.550066e-01 4.404480e-01 3.905675e-01 4.497609e-01 3.138811e-01 2.302233e-01 2.785525e-01 3.840694e-01
<GCONST> 1.186030e+02
<TRANSP> 5
 0.000000e+00 1.000000e+00 0.000000e+00 0.000000e+00 0.000000e+00
 0.000000e+00 7.883657e-01 2.116343e-01 0.000000e+00 0.000000e+00
 0.000000e+00 0.000000e+00 5.014172e-01 4.985828e-01 0.000000e+00
 0.000000e+00 0.000000e+00 0.000000e+00 7.522032e-01 2.477968e-01
 0.000000e+00 0.000000e+00 0.000000e+00 0.000000e+00 0.000000e+00
<ENDHMM>
~h "l"
<BEGINHMM>
<NUMSTATES> 5
<STATE> 2
<MEAN> 39
 3.176464e+00 -1.802688e+00 5.318093e-01 -8.948129e+00 -1.039544e+00 -7.114252e+00 -1.273474e+01 8.480089e-01 -1.744240e+01 -6.333988e+00 -1.949657e+00 1.769482e+00 7.010550e+01 2.690731e-01 -6.055673e-01 -5.337561e-01 -8.400717e-01 4.738963e-02 -6.180714e-01 3.013934e-01 -2.638311e-02 4.469704e-01 6.339456e-01 7.733071e-01 1.411616e-01 7.144294e-01 -4.128829e-02 8.628456e-03 6.720859e-03 8.790344e-02 -2.875049e-02 -5.905382e-02 1.088278e-01 -5.808612e-02 1.487699e-01 1.427032e-01 3.185482e-02 -8.342226e-02 -1.668468e-02
<VARIANCE> 39
 2.657100e+01 3.403366e+01 4.527407e+01 8.660666e+01 8.531001e+01 7.036312e+01 9.239330e+01 6.142919e+01 1.005049e+02 7.248955e+01 6.954338e+01 3.962597e+01 4.593161e+01 1.767691e+00 2.223585e+00 2.719961e+00 3.786782e+00 3.218645e+00 3.926102e+00 3.014229e+00 3.346983e+00 6.333479e+00 3.562694e+00 3.078479e+00 2.609329e+00 2.286806e+00 3.005134e-01 2.937305e-01 4.621548e-01 6.905898e-01 5.412167e-01 7.003201e-01 4.982695e-01 4.953952e-01 9.344844e-01 5.415452e-01 5.249892e-01 4.902352e-01 3.219008e-01
<GCONST> 1.302102e+02
<STATE> 3
<MEAN> 39
 4.008550e+00 -3.355508e+00 -1.073058e+00 -1.523349e+01 2.289134e+00 -9.535243e+00 -1.521878e+01 1.983317e+00 -1.296585e+01 -4.678154e+00 -3.189691e+00 4.072134e+00 7.348964e+01 -7.530332e-02 -4.597988e-01 -2.059939e-01 -2.806158e-01 -5.169078e-01 1.983280e-02 6.344376e-01 -1.074222e-01 6.876846e-01 6.135511e-01 3.921549e-01 -5.623901e-02 2.016181e-01 -3.077081e-02 1.042139e-01 1.002633e-01 1.821819e-01 -1.144497e-01 7.422191e-02 7.711774e-03 -8.206040e-02 -9.773602e-02 -1.224971e-01 -1.467920e-01 -8.942503e-02 -1.129636e-01
<VARIANCE> 39
 1.041367e+01 3.340266e+01 2.370004e+01 7.971733e+01 7.020999e+01 6.822797e+01 9.614935e+01 5.992517e+01 7.803275e+01 5.855485e+01 7.478680e+01 5.404004e+01 3.018963e+01 3.187037e-01 1.310631e+00 1.125500e+00 2.377648e+00 1.638911e+00 2.702991e+00 2.194276e+00 2.205352e+00 2.232593e+00 2.131618e+00 2.204805e+00 1.867875e+00 6.478847e-01 6.581683e-02 1.702661e-01 1.872116e-01 4.446186e-01 2.482267e-01 4.910780e-01 3.363546e-01 3.678837e-01 4.919633e-01 4.362606e-01 4.766307e-01 3.164745e-01 9.678684e-02
<GCONST> 1.111261e+02
<STATE> 4
<MEAN> 39
 4.140882e+00 -4.170038e+00 -3.358239e+00 -1.148934e+01 -3.448909e+00 -1.293952e+01 -5.309077e+00 8.996527e-01 -1.499297e+01 -4.320977e-01 -2.718449e+00 3.622394e-01 7.276482e+01 -1.445767e-01 1.918697e-01 3.375681e-02 2.745439e-01 -2.133290e-01 1.143388e-02 1.501371e-02 -4.341148e-01 2.313311e-01 2.447960e-01 -1.333830e-01 -1.604358e-01 -2.473892e-01 -5.127648e-02 1.384494e-01 1.154865e-01 6.684614e-02 3.540928e-02 4.734731e-02 -1.405325e-01 -9.791585e-03 -7.199714e-02 -9.213766e-02 -5.235237e-02 -9.365081e-03 -1.057244e-01
<VARIANCE> 39
 1.269039e+01 4.799820e+01 2.808909e+01 6.702126e+01 5.966957e+01 9.581014e+01 1.070565e+02 7.455104e+01 1.071448e+02 6.868062e+01 4.910673e+01 2.947807e+01 4.297412e+01 2.936126e-01 1.015696e+00 9.441677e-01 1.189791e+00 1.175087e+00 1.614217e+00 1.609009e+00 2.085112e+00 1.823479e+00 1.797891e+00 1.369408e+00 1.240973e+00 4.326625e-01 4.130920e-02 1.395153e-01 1.439323e-01 2.035189e-01 1.919624e-01 2.922223e-01 2.452797e-01 2.912952e-01 2.730803e-01 3.001797e-01 2.386949e-01 1.969217e-01 5.553427e-02
<GCONST> 1.021886e+02
<TRANSP> 5
 0.000000e+00 1.000000e+00 0.000000e+00 0.000000e+00 0.000000e+00
 0.000000e+00 6.786845e-01 3.213154e-01 0.000000e+00 0.000000e+00
 0.000000e+00 0.000000e+00 6.028852e-01 3.971148e-01 0.000000e+00
 0.000000e+00 0.000000e+00 0.000000e+00 8.717765e-01 1.282235e-01
 0.000000e+00 0.000000e+00 0.000000e+00 0.000000e+00 0.000000e+00
<ENDHMM>
~h "m"
<BEGINHMM>
<NUMSTATES> 5
<STATE> 2
<MEAN> 39
 2.854700e+00 5.709041e+00 1.099235e+00 -6.597208e+00 3.018803e+00 -4.650802e+00 -1.357635e+01 1.601247e+00 -1.773924e+01 -6.455975e+00 -1.130770e+01 -2.789194e+00 6.565302e+01 1.029257e-02 1.032511e+00 4.375372e-01 1.208881e+00 4.749158e-01 5.793180e-01 -7.041284e-01 -1.355000e-01 -9.910226e-02 -4.827538e-01 -8.668587e-01 -4.734810e-01 -7.329287e-01 -1.492911e-02 -3.762064e-01 -1.769463e-02 -1.615071e-01 -1.855630e-01 -2.495356e-01 7.470313e-02 -1.261951e-01 6.864043e-02 1.833791e-01 2.540954e-01 1.298846e-01 2.477944e-01
<VARIANCE> 39
 1.694392e+01 3.299866e+01 2.537024e+01 7.319669e+01 7.849260e+01 5.963887e+01 6.353101e+01 4.848113e+01 5.233663e+01 3.754194e+01 4.533493e+01 2.146655e+01 2.139945e+01 1.184636e+00 2.559660e+00 1.565519e+00 3.242794e+00 2.887749e+00 3.596869e+00 3.056966e+00 2.896731e+00 2.601932e+00 3.751156e+00 3.071257e+00 2.050483e+00 1.587204e+00 9.725682e-02 3.404646e-01 2.791357e-01 5.373229e-01 5.135189e-01 5.328139e-01 5.740341e-01 5.544627e-01 4.477158e-01 5.797784e-01 4.602779e-01 3.543754e-01 1.744347e-01
<GCONST> 1.187232e+02
<STATE> 3
<MEAN> 39
 2.161401e+00 5.174627e+00 3.498061e+00 -4.048624e+00 3.919976e+00 -7.077220e+00 -1.711721e+01 1.840104e+00 -1.642466e+01 -5.710789e+00 -9.815473e+00 -2.994265e+00 6.576907e+01 -1.296879e-02 -5.870162e-01 3.307031e-01 1.632027e-01 -3.500656e-02 -7.273409e-01 -6.543662e-02 2.008113e-01 2.587912e-03 1.497010e-01 -1.403366e-02 -7.464665e-02 4.057053e-01 -1.774508e-01 -2.658618e-01 6.139633e-02 -1.886551e-01 -2.801934e-01 -9.745538e-03 3.600329e-01 2.097705e-02 2.270961e-01 1.472956e-01 2.313952e-01 1.513312e-01 7.616271e-02
<VARIANCE> 39
 1.702871e+01 5.303318e+01 5.762986e+01 9.030250e+01 8.367138e+01 9.069139e+01 9.381493e+01 6.621851e+01 6.266488e+01 5.021221e+01 6.179014e+01 3.214092e+01 2.518363e+01 2.029961e+00 5.665726e+00 5.225956e+00 5.595291e+00 5.690950e+00 8.263654e+00 7.313564e+00 5.813436e+00 4.379033e+00 4.612128e+00 4.302993e+00 2.668413e+00 2.952500e+00 3.213443e-01 9.794396e-01 8.919756e-01 8.788484e-01 9.178405e-01 1.158762e+00 1.281808e+00 1.063943e+00 8.171208e-01 8.520930e-01 8.948216e-01 5.246940e-01 3.438959e-01
<GCONST> 1.403175e+02
<STATE> 4
<MEAN> 39
 1.689039e+00 3.970018e+00 2.685366e+00 2.963603e-01 -1.144325e+00 -7.465094e+00 -1.227637e+01 -4.542452e-01 -1.612012e+01 -5.192086e+00 -1.059445e+01 -3.655944e+00 6.445953e+01 -2.509552e-01 -2.531906e-01 2.057466e-01 -2.641713e-01 -4.923064e-01 1.689831e-01 4.056041e-01 -7.353059e-02 4.376855e-01 2.359051e-01 6.524636e-01 3.995939e-01 4.537702e-02 -9.143104e-02 -1.752119e-01 -1.895903e-02 -2.283744e-01 6.316572e-02 4.326332e-02 9.198930e-02 -1.965915e-02 2.795498e-02 1.881493e-02 1.564653e-01 7.794515e-02 1.083607e-01
<VARIANCE> 39
 2.158213e+01 6.016355e+01 5.067830e+01 8.309186e+01 5.362712e+01 8.809839e+01 4.860767e+01 6.360688e+01 5.802672e+01 4.365164e+01 4.769186e+01 2.949460e+01 3.084306e+01 1.679479e+00 4.032960e+00 3.792749e+00 4.651976e+00 2.936412e+00 4.677214e+00 3.789416e+00 4.041571e+00 3.384184e+00 2.927504e+00 3.336975e+00 2.020441e+00 2.162382e+00 2.100390e-01 5.726357e-01 4.330734e-01 7.145005e-01 4.649631e-01 7.185469e-01 5.450372e-01 5.814343e-01 5.861847e-01 5.000272e-01 5.209312e-01 3.567391e-01 2.628905e-01
<GCONST> 1.275260e+02
<TRANSP> 5
 0.000000e+00 1.000000e+00 0.000000e+00 0.000000e+00 0.000000e+00
 0.000000e+00 6.716896e-01 3.283104e-01 0.000000e+00 0.000000e+00
 0.000000e+00 0.000000e+00 6.146400e-01 3.853600e-01 0.000000e+00
 0.000000e+00 0.000000e+00 0.000000e+00 7.423561e-01 2.576439e-01
 0.000000e+00 0.000000e+00 0.000000e+00 0.000000e+00 0.000000e+00
<ENDHMM>
~h "n"
<BEGINHMM>
<NUMSTATES> 5
<STATE> 2
<MEAN> 39
 2.615351e+00 5.059876e+00 8.055068e-01 -1.496645e+00 -1.528117e+00 -6.038865e+00 -1.692041e+01 -1.463409e+00 -1.135067e+01 -3.589046e+00 -5.369093e+00 -6.721341e-01 6.429881e+01 -3.901491e-02 1.012563e+00 9.061517e-02 1.133791e+00 -5.332256e-01 6.192653e-01 -3.140392e-01 -3.090285e-01 3.616270e-01 -2.030167e-01 -3.831096e-01 -1.843393e-01 -9.506062e-01 -7.557740e-02 -3.445345e-01 -2.582346e-04 -4.800564e-01 9.399106e-02 -2.166493e-01 3.316426e-01 4.434316e-03 -5.823852e-02 1.377128e-01 1.803777e-01 3.868322e-02 3.109186e-01
<VARIANCE> 39
 1.907260e+01 3.319125e+01 3.121175e+01 7.776544e+01 5.013190e+01 6.217031e+01 4.772119e+01 5.217823e+01 5.926104e+01 3.106945e+01 3.660998e+01 3.538572e+01 2.112752e+01 5.522385e-01 1.439742e+00 1.402480e+00 2.942565e+00 1.908541e+00 2.594336e+00 2.502852e+00 2.846051e+00 2.646284e+00 1.976886e+00 2.095819e+00 1.959277e+00 7.369377e-01 8.029081e-02 2.240159e-01 2.315242e-01 5.103498e-01 3.425022e-01 4.593809e-01 4.735385e-01 4.962037e-01 3.241769e-01 4.235008e-01 3.521926e-01 2.884690e-01 1.471700e-01
<GCONST> 1.113953e+02
<STATE> 3
<MEAN> 39
 2.523090e+00 5.631923e+00 1.384680e+00 -2.485260e+00 -1.825717e+00 -5.174534e+00 -1.710898e+01 -1.362439e+00 -1.174742e+01 -4.434775e+00 -6.638027e+00 -1.173135e+00 6.415738e+01 -1.873856e-01 6.493717e-01 2.796566e-01 2.618495e-01 -3.049386e-01 3.738787e-01 2.466030e-01 -1.533291e-01 5.931423e-03 -6.681556e-02 -8.573635e-02 -2.763283e-02 -5.097920e-01 -8.763915e-02 -1.197571e-01 6.900922e-02 -1.443513e-01 4.127030e-02 -5.568362e-02 1.642191e-01 5.027260e-02 -6.521763e-02 1.485983e-02 7.885110e-02 3.684907e-02 7.571899e-02
<VARIANCE> 39
 1.909318e+01 3.681670e+01 3.176116e+01 8.076488e+01 6.534229e+01 6.900058e+01 5.792751e+01 7.456443e+01 6.143420e+01 3.080147e+01 4.113739e+01 5.729995e+01 2.338491e+01 3.577728e-01 6.249573e-01 7.463186e-01 1.315383e+00 1.094398e+00 1.354388e+00 1.497589e+00 1.331656e+00 1.569046e+00 1.324846e+00 1.343395e+00 9.723877e-01 2.552281e-01 4.893697e-02 1.316165e-01 1.484914e-01 2.623775e-01 2.438975e-01 2.788736e-01 3.049039e-01 2.841554e-01 2.583883e-01 2.839018e-01 2.480576e-01 2.113815e-01 6.069309e-02
<GCONST> 9.874369e+01
<STATE> 4
<MEAN> 39
 -2.133583e+00 7.650277e+00 2.294050e+00 2.658521e+00 -4.358530e+00 -2.389297e+00 -1.331831e+01 -2.307858e+00 -9.808552e+00 -2.240898e+00 -5.276265e+00 -6.776630e-01 5.813726e+01 -4.823600e-01 -5.610146e-03 -1.690309e-02 1.139504e-01 -1.059657e-01 2.979036e-01 4.480014e-01 2.243371e-01 1.800573e-01 1.215328e-01 1.063679e-01 5.057805e-02 -4.393734e-01 -2.907249e-02 -1.258849e-01 -2.542756e-02 -6.493964e-02 3.528431e-02 -1.893586e-02 3.914832e-02 2.632346e-02 1.031482e-02 3.072553e-02 2.631342e-02 6.871655e-03 5.935101e-02
<VARIANCE> 39
 3.999377e+01 2.195997e+01 3.601154e+01 5.666352e+01 3.763952e+01 5.150750e+01 3.660033e+01 3.503970e+01 3.869971e+01 2.479731e+01 3.498602e+01 2.810765e+01 2.638559e+01 4.114643e-01 8.060169e-01 9.208129e-01 8.687944e-01 1.002381e+00 1.382533e+00 1.310944e+00 1.157118e+00 1.301821e+00 1.293378e+00 1.212348e+00 1.028537e+00 1.754198e-01 5.635143e-02 1.623138e-01 1.475258e-01 1.875455e-01 1.936409e-01 2.519795e-01 2.324113e-01 2.139392e-01 2.596393e-01 2.318568e-01 2.218695e-01 1.931377e-01 4.334519e-02
<GCONST> 9.284811e+01
<TRANSP> 5
 0.000000e+00 1.000000e+00 0.000000e+00 0.000000e+00 0.000000e+00
 0.000000e+00 4.765101e-01 5.234899e-01 0.000000e+00 0.000000e+00
 0.000000e+00 0.000000e+00 5.319217e-01 4.680783e-01 0.000000e+00
 0.000000e+00 0.000000e+00 0.000000e+00 8.442206e-01 1.557794e-01
 0.000000e+00 0.000000e+00 0.000000e+00 0.000000e+00 0.000000e+00
<ENDHMM>
~h "o"
<BEGINHMM>
<NUMSTATES> 5
<STATE> 2
<MEAN> 39
 4.311872e+00 7.270087e+00 -3.252445e-01 -1.234688e+01 -9.981473e+00 -1.162630e+01 -8.376420e+00 1.171732e+01 -1.297221e+01 -5.033599e+00 -8.457870e+00 -5.437757e+00 6.578510e+01 4.893210e-01 5.246067e-02 -1.422644e-01 1.018275e-01 5.902739e-01 -1.641563e-01 -5.290925e-01 2.311698e-02 -2.174348e-01 -3.445744e-01 -3.314803e-01 1.894609e-01 3.209304e-01 -6.673468e-02 -3.625868e-04 3.367881e-03 3.086983e-01 1.187058e-01 1.038104e-01 -1.390470e-01 -2.293311e-01 1.166371e-01 1.204574e-01 7.278086e-02 1.005798e-01 -1.179889e-01
<VARIANCE> 39
 2.774972e+01 4.116330e+01 2.293133e+01 1.041253e+02 8.586035e+01 9.179578e+01 7.228705e+01 5.071606e+01 6.035954e+01 4.066382e+01 3.047592e+01 3.101602e+01 1.586306e+01 2.084399e+00 2.355816e+00 2.341995e+00 1.033785e+01 5.084769e+00 5.563262e+00 6.510856e+00 6.915456e+00 4.617152e+00 2.742464e+00 2.592013e+00 3.111325e+00 1.874401e+00 2.301796e-01 4.462825e-01 5.045096e-01 1.796667e+00 8.089222e-01 8.507433e-01 1.176448e+00 1.219142e+00 8.318294e-01 5.388231e-01 5.073758e-01 4.890540e-01 2.612000e-01
<GCONST> 1.323529e+02
<STATE> 3
<MEAN> 39
 3.880135e+00 6.354424e+00 1.706842e+00 -1.621761e+00 5.046115e+00 -6.089657e+00 -2.260782e+01 8.425254e-01 -1.200311e+01 -5.536373e+00 -6.572804e+00 -6.347861e-01 6.506538e+01 -7.325675e-01 -5.766635e-01 2.000064e+00 2.530470e+00 7.523026e-03 -1.704674e+00 -1.126611e+00 -6.551026e-02 6.964247e-01 7.329406e-01 2.528548e-01 -1.288325e+00 -6.628811e-02 -1.152111e-01 -3.726756e-01 1.736744e-01 -3.895509e-01 -1.311713e-01 -8.341163e-01 4.783699e-01 7.629521e-01 -1.215832e-01 -1.483846e-01 -1.669000e-01 -1.608656e-01 3.324645e-01
<VARIANCE> 39
 5.118759e+00 4.269188e+01 4.566735e+01 7.367390e+01 5.461026e+01 5.825951e+01 3.243601e+01 4.401617e+01 9.145526e+00 2.716584e+01 2.447588e+01 2.373856e+01 1.258011e+01 2.682518e-01 7.112601e+00 1.545464e+00 3.124770e+00 4.624510e+00 6.520691e+00 3.941083e+00 7.727528e+00 2.337867e+00 3.465819e+00 4.958202e+00 2.540966e+00 2.625231e+00 6.022408e-02 1.475197e+00 4.724882e-01 6.793703e-01 1.223029e+00 8.242916e-01 7.638305e-01 1.160905e+00 2.986636e-01 6.489908e-01 9.784977e-01 7.693502e-01 4.741424e-01
<GCONST> 1.232202e+02
<STATE> 4
<MEAN> 39
 -2.208076e+00 -2.076596e+00 9.977086e+00 9.255995e+00 4.016371e+00 -2.272436e+01 -2.076042e+01 1.735317e+00 -1.087195e+01 -3.571351e+00 -5.215223e+00 -3.546549e+00 6.705405e+01 -5.894174e-01 -6.277666e-01 5.803999e-01 -5.449830e-02 4.263169e-01 -1.294506e+00 4.037170e-03 -2.658787e-02 9.672151e-02 6.777875e-01 -1.869185e-01 1.923212e-01 2.691549e-01 1.807594e-01 4.032243e-01 -2.619247e-01 -3.705651e-01 -8.910788e-02 7.522509e-01 -5.530657e-02 -4.251128e-01 1.418984e-02 7.919666e-02 -3.643690e-02 1.953686e-01 -1.585619e-01
<VARIANCE> 39
 2.403844e+01 3.804850e+01 3.610909e+01 8.562549e+01 5.440944e+01 1.335462e+02 7.391665e+01 6.750733e+01 1.091540e+01 2.385168e+01 2.492343e+01 1.525255e+01 3.322604e+01 7.410787e-01 6.266491e+00 4.002549e+00 5.268919e+00 4.738488e+00 1.089537e+01 4.099309e+00 2.893816e+00 9.851339e-01 2.002652e+00 2.829610e+00 1.314046e+00 3.481354e+00 9.131470e-02 1.156200e+00 3.666223e-01 5.790829e-01 1.129186e+00 1.607788e+00 8.096998e-01 6.584341e-01 2.100599e-01 3.890562e-01 5.232112e-01 2.488135e-01 6.229678e-01
<GCONST> 1.243391e+02
<TRANSP> 5
 0.000000e+00 1.000000e+00 0.000000e+00 0.000000e+00 0.000000e+00
 0.000000e+00 9.546974e-01 4.530261e-02 0.000000e+00 0.000000e+00
 0.000000e+00 0.000000e+00 8.303428e-01 1.696572e-01 0.000000e+00
 0.000000e+00 0.000000e+00 0.000000e+00 8.315281e-01 1.684719e-01
 0.000000e+00 0.000000e+00 0.000000e+00 0.000000e+00 0.000000e+00
<ENDHMM>
~h "p"
<BEGINHMM>
<NUMSTATES> 5
<STATE> 2
<MEAN> 39
 -1.422454e+00 1.008900e+00 -1.524433e+00 -6.922125e-01 -2.808406e+00 -5.366971e+00 -1.470299e+01 -3.988770e+00 -6.925897e+00 3.188559e+00 -3.091908e+00 -2.047224e+00 6.222252e+01 -6.219902e-01 3.283672e-01 -1.749978e-01 7.920396e-01 -7.985379e-02 4.209350e-01 1.676783e-01 -1.510416e-01 1.838855e-01 3.270919e-01 2.711741e-01 3.032332e-02 -9.185317e-01 -4.118818e-02 -1.298854e-01 -8.736904e-02 -2.605422e-01 -9.020438e-02 -1.185947e-01 4.191847e-02 9.042244e-02 -1.508806e-01 -8.151812e-02 7.715300e-02 7.098220e-02 5.156682e-02
<VARIANCE> 39
 5.347725e+01 5.417429e+01 3.071351e+01 5.860658e+01 5.253379e+01 1.020783e+02 9.831931e+01 6.555293e+01 6.344348e+01 5.613050e+01 3.217336e+01 3.567383e+01 5.868624e+01 3.978423e+00 2.984778e+00 2.455180e+00 3.314873e+00 3.322990e+00 7.124695e+00 3.632694e+00 3.701319e+00 3.695593e+00 3.002115e+00 2.612522e+00 2.839457e+00 4.981347e+00 4.685349e-01 4.874346e-01 4.308358e-01 6.987512e-01 5.259936e-01 1.052620e+00 6.331217e-01 5.572822e-01 6.416657e-01 4.743292e-01 3.689334e-01 4.080715e-01 4.801030e-01
<GCONST> 1.320213e+02
<STATE> 3
<MEAN> 39
 3.975723e-02 3.224385e+00 -1.385880e+00 -2.468948e-01 -7.963252e+00 -6.553457e+00 -1.074890e+01 6.224813e-02 -9.797563e+00 -4.553519e-01 -5.900688e+00 -3.858192e+00 6.136954e+01 -8.739200e-01 2.101925e-01 -2.779413e-01 1.644411e-01 -3.777356e-01 4.464530e-01 2.036248e-01 -1.525295e-01 2.470571e-01 6.103687e-02 3.223845e-01 4.984356e-01 -9.965095e-01 5.645457e-02 -1.449600e-01 1.867977e-02 -3.153646e-01 -6.809632e-02 -2.464645e-01 -6.369119e-02 9.269026e-02 -1.040832e-01 -1.296667e-01 -5.706240e-02 4.951655e-02 2.037409e-01
<VARIANCE> 39
 2.945004e+01 4.566875e+01 3.637726e+01 7.398174e+01 1.301245e+02 9.308501e+01 1.062796e+02 5.678819e+01 5.362447e+01 7.082235e+01 6.962106e+01 4.267087e+01 2.433895e+01 1.348582e+00 1.579157e+00 1.793520e+00 1.841810e+00 3.337368e+00 3.315629e+00 4.136427e+00 2.469599e+00 2.840850e+00 2.005768e+00 2.265362e+00 1.806712e+00 1.276174e+00 1.581245e-01 3.543611e-01 3.007235e-01 4.206141e-01 5.259070e-01 6.132528e-01 7.100508e-01 6.415861e-01 5.670421e-01 4.589628e-01 4.256597e-01 4.001916e-01 2.475864e-01
<GCONST> 1.230099e+02
<STATE> 4
<MEAN> 39
 -5.732786e+00 5.618424e+00 -2.140251e+00 -8.428307e-01 -7.996856e+00 -4.802619e-01 -9.238707e+00 2.322695e-01 -7.893500e+00 -4.223231e-01 -2.632505e+00 4.414506e-01 5.503096e+01 -5.463276e-01 6.420511e-03 1.158906e-01 1.431543e-01 -1.507182e-01 1.276263e-02 -1.084142e-02 4.334513e-02 1.950167e-01 1.780208e-01 1.268207e-01 1.502111e-01 -4.561456e-01 1.241699e-01 -1.402483e-01 1.122323e-01 -1.349242e-01 8.940782e-02 -6.689566e-02 -2.687384e-02 7.288785e-02 -6.449891e-02 -7.567302e-02 -8.983895e-02 -7.385451e-02 2.543091e-01
<VARIANCE> 39
 2.763316e+01 1.953769e+01 2.643083e+01 4.804892e+01 3.582780e+01 2.381091e+01 3.967037e+01 2.725045e+01 3.007214e+01 2.783845e+01 2.524890e+01 2.703618e+01 1.964848e+01 6.618163e-01 1.001940e+00 1.046799e+00 1.465604e+00 1.610465e+00 1.354492e+00 2.112229e+00 1.663114e+00 1.554178e+00 1.583813e+00 1.388720e+00 1.182019e+00 4.144306e-01 1.368197e-01 2.475687e-01 2.454150e-01 3.841000e-01 3.326142e-01 3.135546e-01 4.147642e-01 3.817439e-01 3.631967e-01 3.327109e-01 2.806444e-01 2.548413e-01 2.152125e-01
<GCONST> 1.015153e+02
<TRANSP> 5
 0.000000e+00 1.000000e+00 0.000000e+00 0.000000e+00 0.000000e+00
 0.000000e+00 6.603928e-01 3.396072e-01 0.000000e+00 0.000000e+00
 0.000000e+00 0.000000e+00 4.520637e-01 5.479363e-01 0.000000e+00
 0.000000e+00 0.000000e+00 0.000000e+00 8.139759e-01 1.860241e-01
 0.000000e+00 0.000000e+00 0.000000e+00 0.000000e+00 0.000000e+00
<ENDHMM>
~h "r"
<BEGINHMM>
<NUMSTATES> 5
<STATE> 2
<MEAN> 39
 -6.098620e+00 -2.229635e+00 -7.012345e-01 -6.400435e+00 -2.957543e+00 -1.959069e+00 -9.886433e+00 -7.527784e-01 -1.047276e+01 1.314095e+00 -9.248412e-01 2.306107e+00 6.156581e+01 1.371814e+00 -3.688767e-01 -6.890963e-01 -6.751041e-01 3.500199e-01 -4.362339e-01 -6.412587e-01 -1.928516e-01 -3.100610e-01 -1.774437e-01 1.269630e-01 -1.949848e-02 1.249981e+00 2.887981e-01 -3.308160e-02 -2.005205e-01 -8.092558e-02 -5.358368e-02 -2.459818e-01 -3.445210e-02 2.355186e-02 4.335317e-02 -1.766461e-01 -1.197890e-02 -1.591087e-01 2.542378e-01
<VARIANCE> 39
 7.230389e+01 6.945497e+01 9.880343e+01 8.775077e+01 7.620647e+01 7.204658e+01 6.315125e+01 3.938828e+01 5.259720e+01 3.791066e+01 4.030219e+01 2.222768e+01 7.014973e+01 6.672725e+00 6.971544e+00 8.929490e+00 8.106815e+00 6.698369e+00 7.590225e+00 9.208918e+00 4.597694e+00 6.374978e+00 4.155693e+00 5.147573e+00 3.043519e+00 5.671249e+00 1.084128e+00 1.411179e+00 1.536645e+00 1.463876e+00 1.078022e+00 1.313903e+00 1.855824e+00 8.900878e-01 1.284271e+00 7.436541e-01 9.284696e-01 6.352965e-01 6.953496e-01
<GCONST> 1.490513e+02
<STATE> 3
<MEAN> 39
 3.447698e+00 -3.298005e+00 -3.786388e+00 -9.057245e+00 -4.453870e+00 -4.370365e+00 -1.223174e+01 -1.739381e+00 -1.092506e+01 -2.252419e+00 -4.444690e-02 1.899204e+00 6.925697e+01 9.187734e-01 6.202675e-01 -8.759322e-01 3.387543e-01 2.021985e-01 5.858820e-02 -5.701649e-01 3.190527e-01 4.752119e-01 -5.867792e-01 6.772557e-04 -1.546682e-01 4.038287e-02 -4.398545e-01 -2.591364e-02 2.561955e-01 4.723687e-03 8.022051e-02 -5.135736e-02 7.256036e-02 -5.094594e-03 1.050602e-01 6.120660e-02 -1.183000e-01 -5.533985e-02 -2.012695e-01
<VARIANCE> 39
 4.597327e+01 6.174734e+01 8.541946e+01 7.552081e+01 8.184984e+01 5.534069e+01 5.531836e+01 3.563885e+01 4.467546e+01 3.687446e+01 7.688387e+01 3.030901e+01 4.379886e+01 4.365421e+00 6.058795e+00 4.698938e+00 5.242034e+00 4.572743e+00 5.838649e+00 6.669998e+00 5.447430e+00 5.452783e+00 3.911800e+00 5.398842e+00 3.229736e+00 4.977005e+00 5.968137e-01 1.203485e+00 8.854246e-01 1.105485e+00 6.928818e-01 1.113842e+00 1.102548e+00 8.476536e-01 1.205721e+00 7.272800e-01 1.071352e+00 6.572532e-01 7.033466e-01
<GCONST> 1.427126e+02
<STATE> 4
<MEAN> 39
 3.380450e-01 1.199327e+00 -1.653326e+00 -2.209620e+00 -4.243532e+00 -4.050265e+00 -1.183342e+01 -3.807967e+00 -1.242478e+01 8.353418e-02 -2.009472e+00 -1.695012e-01 6.348281e+01 -1.295895e-01 -4.422904e-02 -2.756239e-02 -3.474407e-02 -2.383706e-02 1.382533e-02 1.508153e-01 -4.033397e-02 2.352580e-01 7.164618e-02 8.192069e-02 -1.111023e-01 -4.405916e-02 -1.797014e-01 -3.942186e-01 2.270094e-01 -3.493665e-01 6.325515e-02 -1.792417e-01 1.996192e-01 7.108548e-02 -8.978045e-02 -4.506082e-02 -8.469619e-03 2.485164e-02 2.842246e-01
<VARIANCE> 39
 4.003041e+01 6.220656e+01 5.667957e+01 7.416698e+01 4.854349e+01 7.142020e+01 5.267041e+01 4.456841e+01 5.257991e+01 4.151482e+01 3.447738e+01 3.005717e+01 5.577040e+01 3.212543e+00 5.533879e+00 3.152137e+00 4.448748e+00 2.476305e+00 5.616641e+00 5.013440e+00 4.506447e+00 4.889041e+00 4.065034e+00 3.058594e+00 3.392095e+00 4.297530e+00 5.353032e-01 1.048017e+00 6.556372e-01 7.864540e-01 5.648422e-01 1.012967e+00 9.198026e-01 8.979735e-01 9.248569e-01 6.836483e-01 5.737631e-01 6.627991e-01 7.979505e-01
<GCONST> 1.368209e+02
<TRANSP> 5
 0.000000e+00 1.000000e+00 0.000000e+00 0.000000e+00 0.000000e+00
 0.000000e+00 6.998832e-01 3.001168e-01 0.000000e+00 0.000000e+00
 0.000000e+00 0.000000e+00 5.653738e-01 4.346262e-01 0.000000e+00
 0.000000e+00 0.000000e+00 0.000000e+00 6.927923e-01 3.072077e-01
 0.000000e+00 0.000000e+00 0.000000e+00 0.000000e+00 0.000000e+00
<ENDHMM>
~h "s"
<BEGINHMM>
<NUMSTATES> 5
<STATE> 2
<MEAN> 39
 -2.052242e+01 -7.589686e+00 1.609698e+01 -1.735655e+01 3.604472e+00 -4.440989e+00 -5.885712e+00 -7.484184e+00 -3.433764e+00 2.838480e-01 -2.676231e+00 -1.617660e-01 7.006557e+01 -3.167286e+00 -1.119592e+00 1.805762e+00 -1.964535e+00 1.242762e+00 -1.553059e-01 1.640013e+00 -5.503483e-01 1.601992e+00 -1.582060e-01 4.365338e-01 2.178184e-01 1.160134e+00 3.112536e-01 1.664616e-01 -6.565777e-01 3.419502e-01 -8.740228e-02 -3.120090e-01 -5.715933e-02 1.172735e-01 -1.352580e-01 -6.474339e-02 6.425139e-02 -6.889950e-02 -6.358352e-02
<VARIANCE> 39
 8.130730e+01 4.801177e+01 6.494319e+01 8.201421e+01 5.080883e+01 6.613318e+01 7.546535e+01 5.502750e+01 5.658019e+01 4.765601e+01 3.384316e+01 2.648626e+01 5.524581e+01 4.956787e+00 3.229392e+00 8.642349e+00 7.238479e+00 3.469097e+00 6.097116e+00 5.949995e+00 3.622934e+00 5.449428e+00 2.943857e+00 2.834596e+00 2.288245e+00 2.085838e+00 7.905272e-01 4.581068e-01 1.261105e+00 1.189287e+00 6.544602e-01 1.045852e+00 1.262444e+00 7.342437e-01 9.172021e-01 5.802826e-01 5.172542e-01 4.197241e-01 2.598024e-01
<GCONST> 1.375287e+02
<STATE> 3
<MEAN> 39
 -2.719814e+01 -9.976533e+00 1.658017e+01 -1.905589e+01 6.736339e+00 -6.894674e+00 -1.883273e+00 -7.736401e+00 -3.392444e-01 -8.878946e-01 -1.404982e+00 -5.239062e-03 7.288965e+01 1.178236e+00 1.961826e-02 -8.261588e-01 5.369185e-01 -5.528514e-01 -2.131378e-02 -4.290039e-01 3.032250e-01 -7.798488e-01 2.532376e-01 -5.679087e-02 2.442314e-01 -4.988317e-01 9.681468e-01 3.143268e-01 -2.790111e-01 1.818123e-01 -3.173871e-01 7.818628e-02 -3.426653e-01 1.084073e-01 -5.691771e-01 4.526069e-02 -1.691131e-01 9.378666e-02 -2.290579e-01
<VARIANCE> 39
 2.821994e+01 4.644445e+01 3.409273e+01 3.674464e+01 3.472744e+01 2.468734e+01 3.607129e+01 3.386681e+01 2.526355e+01 4.078481e+01 2.540129e+01 2.391779e+01 1.502828e+01 6.299218e+00 2.179969e+00 2.414779e+00 2.016641e+00 2.245549e+00 2.169397e+00 2.770876e+00 2.170475e+00 3.089316e+00 1.980802e+00 1.911386e+00 1.525666e+00 1.497654e+00 6.815693e-01 5.010231e-01 4.051132e-01 4.261137e-01 4.201192e-01 5.274398e-01 5.981666e-01 4.447754e-01 6.214550e-01 4.245789e-01 3.874312e-01 3.156778e-01 2.116043e-01
<GCONST> 1.161245e+02
<STATE> 4
<MEAN> 39
 -1.413414e+01 -3.891195e+00 9.896769e+00 -1.192825e+01 -3.316414e-01 -2.306247e+00 -7.549917e+00 -3.266445e+00 -6.870981e+00 2.143744e+00 -3.374568e+00 2.417170e+00 6.340865e+01 2.868299e+00 1.747295e+00 -1.594252e+00 1.155773e+00 -1.220016e+00 4.684913e-01 -1.115913e+00 6.034913e-01 -1.295975e+00 -3.092449e-01 -4.394418e-01 -1.009821e-02 -9.091536e-01 -4.974591e-02 1.892298e-02 1.734021e-02 -8.793204e-02 8.613663e-02 -1.722018e-01 1.108344e-01 -1.011744e-01 1.050640e-01 -2.474467e-01 -5.257454e-02 -1.504525e-01 3.453712e-01
<VARIANCE> 39
 7.010464e+01 7.110138e+01 5.717550e+01 6.996487e+01 4.583517e+01 4.538877e+01 4.169534e+01 3.922011e+01 3.233118e+01 4.212704e+01 2.266475e+01 1.811534e+01 5.306618e+01 5.985945e+00 3.856273e+00 3.424168e+00 3.300802e+00 3.083104e+00 4.485681e+00 4.233720e+00 3.281844e+00 4.995496e+00 2.992800e+00 2.957881e+00 1.973840e+00 2.899739e+00 5.126873e-01 8.352860e-01 4.851426e-01 5.258800e-01 4.056079e-01 7.396004e-01 6.667026e-01 5.469946e-01 5.830069e-01 5.185016e-01 5.702859e-01 3.335806e-01 3.366654e-01
<GCONST> 1.287161e+02
<TRANSP> 5
 0.000000e+00 1.000000e+00 0.000000e+00 0.000000e+00 0.000000e+00
 0.000000e+00 8.303578e-01 1.696422e-01 0.000000e+00 0.000000e+00
 0.000000e+00 0.000000e+00 8.179291e-01 1.820709e-01 0.000000e+00
 0.000000e+00 0.000000e+00 0.000000e+00 7.082132e-01 2.917868e-01
 0.000000e+00 0.000000e+00 0.000000e+00 0.000000e+00 0.000000e+00
<ENDHMM>
~h "t"
<BEGINHMM>
<NUMSTATES> 5
<STATE> 2
<MEAN> 39
 -9.107292e-01 -1.579217e+00 -1.330968e+00 -9.228969e+00 -8.308059e+00 -4.660683e+00 -7.808999e+00 -3.975993e-01 -8.783234e+00 -1.711324e+00 -3.044508e+00 1.154157e+00 6.565596e+01 -2.930351e-01 -1.702003e-01 1.456130e-01 1.040194e-01 -1.188472e-01 2.822485e-01 2.898894e-01 8.623382e-02 6.650418e-02 -4.349955e-03 5.564607e-02 1.493693e-02 -1.589573e-01 4.317674e-02 -4.938625e-02 -5.811086e-02 3.918435e-02 -1.082159e-02 -3.985580e-02 6.724830e-02 7.730559e-02 -8.872502e-02 8.345670e-02 -6.482187e-03 -5.243100e-02 1.743030e-02
<VARIANCE> 39
 6.142053e+01 8.399312e+01 5.234541e+01 1.137697e+02 9.857470e+01 7.685374e+01 8.034126e+01 4.553062e+01 6.251508e+01 4.101292e+01 3.428782e+01 3.093741e+01 9.098483e+01 3.805036e+00 1.045037e+01 4.631947e+00 8.876586e+00 4.335820e+00 6.511720e+00 4.295409e+00 3.910595e+00 3.779877e+00 3.457570e+00 3.386591e+00 2.548486e+00 8.864192e+00 6.070029e-01 1.480413e+00 9.570963e-01 1.509925e+00 8.546461e-01 1.102342e+00 8.140141e-01 8.854605e-01 8.808793e-01 6.653758e-01 6.950738e-01 4.428606e-01 1.220775e+00
<GCONST> 1.442118e+02
<STATE> 3
<MEAN> 39
 -9.282987e-01 -4.572799e-01 -9.919184e-01 -6.332581e+00 -7.859403e+00 -4.056910e+00 -7.305365e+00 -1.250955e+00 -1.060021e+01 -4.860688e-01 -3.106508e+00 -1.200520e-01 6.443710e+01 -5.786179e-01 3.719469e-01 8.864509e-02 7.888849e-01 -1.525424e-01 6.680768e-01 1.422730e-01 1.895697e-01 -6.543764e-02 4.497862e-01 5.619156e-02 -1.101789e-01 -1.033308e+00 5.502136e-02 -7.979272e-02 -3.730893e-02 -1.859387e-01 -3.540292e-02 -2.093587e-01 -7.692090e-02 2.029753e-02 -1.117764e-01 -1.850530e-03 -4.729610e-02 1.241896e-02 1.261812e-01
<VARIANCE> 39
 5.298955e+01 8.627859e+01 4.068224e+01 7.594271e+01 9.085011e+01 6.500568e+01 7.014417e+01 4.406358e+01 7.539197e+01 3.832896e+01 2.584259e+01 2.796586e+01 6.842191e+01 3.163364e+00 1.194003e+01 3.411415e+00 8.155534e+00 4.342456e+00 6.703907e+00 4.559976e+00 4.215300e+00 6.864774e+00 3.579775e+00 3.656279e+00 2.397599e+00 9.921692e+00 4.486916e-01 1.621645e+00 6.013287e-01 1.181378e+00 6.372016e-01 8.549057e-01 6.376767e-01 7.766975e-01 1.245949e+00 7.109503e-01 5.567511e-01 4.189135e-01 9.336646e-01
<GCONST> 1.409744e+02
<STATE> 4
<MEAN> 39
 -5.540524e+00 2.997994e+00 -3.212945e+00 -4.359824e+00 -9.285702e+00 -6.221937e-01 -7.445522e+00 8.233976e-01 -7.497068e+00 4.953563e-01 -1.289990e+00 1.083183e+00 5.706238e+01 -4.948157e-01 -4.764781e-01 3.747720e-01 -1.278125e-01 4.292550e-03 -9.202837e-02 2.345803e-02 -2.518542e-01 -1.882156e-01 1.299288e-01 -1.525575e-01 -3.928760e-02 3.720029e-02 1.854256e-01 -2.047782e-01 2.323608e-01 -2.861367e-01 1.170842e-01 -2.953481e-01 -1.042737e-02 -1.576386e-01 -2.543252e-01 -1.749397e-01 -1.417684e-01 -7.218145e-02 4.907229e-01
<VARIANCE> 39
 2.679158e+01 4.156656e+01 2.924659e+01 5.111148e+01 3.532381e+01 2.437975e+01 3.312922e+01 2.396681e+01 2.485769e+01 2.136094e+01 1.673539e+01 1.548679e+01 3.011317e+01 2.045238e+00 5.984767e+00 2.820022e+00 4.612004e+00 3.078787e+00 3.133110e+00 2.580302e+00 3.066231e+00 4.456689e+00 2.739279e+00 2.317562e+00 1.888173e+00 5.335953e+00 2.957228e-01 1.056882e+00 4.246158e-01 7.787014e-01 4.831948e-01 4.761024e-01 4.652117e-01 5.251498e-01 6.475438e-01 5.563712e-01 3.994721e-01 3.528466e-01 5.845056e-01
<GCONST> 1.210670e+02
<TRANSP> 5
 0.000000e+00 1.000000e+00 0.000000e+00 0.000000e+00 0.000000e+00
 0.000000e+00 6.402888e-01 3.597112e-01 0.000000e+00 0.000000e+00
 0.000000e+00 0.000000e+00 4.177596e-01 5.822404e-01 0.000000e+00
 0.000000e+00 0.000000e+00 0.000000e+00 7.856829e-01 2.143171e-01
 0.000000e+00 0.000000e+00 0.000000e+00 0.000000e+00 0.000000e+00
<ENDHMM>
~h "u"
<BEGINHMM>
<NUMSTATES> 5
<STATE> 2
<MEAN> 39
 -2.518825e+00 -9.895730e-01 5.519902e+00 -8.036991e+00 -4.084653e+00 -7.001391e+00 -1.045995e+01 -4.225488e-01 -1.615273e+01 -3.458925e+00 -6.380411e+00 -3.076499e+00 6.671310e+01 9.068805e-01 9.206274e-01 6.201305e-01 -5.944062e-01 -5.239814e-01 -9.962231e-01 -1.712796e-01 7.190370e-01 -8.459925e-01 -9.130586e-01 -7.017092e-01 -8.516710e-01 5.441151e-01 -4.197305e-03 3.415036e-01 -1.593685e-01 2.625090e-01 -1.728025e-01 -6.818894e-02 -2.329328e-02 3.101302e-01 2.483225e-01 6.067087e-02 1.725916e-01 -6.616648e-02 -3.273439e-01
<VARIANCE> 39
 6.427633e+01 1.112912e+02 6.524747e+01 9.097588e+01 7.373500e+01 9.080153e+01 8.127151e+01 6.736360e+01 1.153111e+02 6.977854e+01 4.801299e+01 4.278442e+01 5.234791e+01 4.667397e+00 1.056020e+01 4.127441e+00 9.137790e+00 5.957012e+00 1.119908e+01 7.803261e+00 6.580249e+00 9.241559e+00 5.460883e+00 5.055362e+00 4.537381e+00 6.828997e+00 5.845526e-01 2.164793e+00 6.776146e-01 1.338696e+00 9.266847e-01 1.559710e+00 1.131847e+00 1.167744e+00 1.141520e+00 1.047371e+00 9.016817e-01 7.219967e-01 9.623196e-01
<GCONST> 1.523752e+02
<STATE> 3
<MEAN> 39
 2.387612e+00 5.238503e+00 5.306086e+00 -1.065249e+01 -5.997163e+00 -8.143743e+00 -1.346937e+01 5.460621e+00 -1.673080e+01 -8.237420e+00 -6.664037e+00 -5.810915e+00 6.683656e+01 9.596277e-05 4.129497e-01 3.368764e-02 4.365427e-01 -5.100027e-01 -1.933490e-01 2.363468e-01 5.721002e-01 1.303793e-01 8.967644e-02 1.478063e-01 -3.388730e-01 -3.848648e-01 -2.542276e-01 -3.719088e-01 -1.137369e-01 9.582185e-02 1.884957e-01 2.296743e-01 4.346154e-02 -3.117066e-01 2.137999e-01 2.936180e-01 1.377256e-01 2.463316e-01 -2.238400e-02
<VARIANCE> 39
 1.632560e+01 5.191587e+01 4.918283e+01 1.039830e+02 9.316125e+01 8.939495e+01 1.082318e+02 6.040512e+01 9.670198e+01 7.018538e+01 5.948167e+01 4.423675e+01 3.235335e+01 1.572458e+00 4.113458e+00 2.108266e+00 6.264533e+00 5.152181e+00 6.772678e+00 6.771417e+00 4.854285e+00 5.134701e+00 4.335360e+00 4.244916e+00 3.456816e+00 2.764843e+00 2.227936e-01 6.502523e-01 3.640921e-01 1.106145e+00 8.234959e-01 1.099577e+00 1.043972e+00 8.618938e-01 8.867200e-01 8.110049e-01 7.569413e-01 5.990763e-01 3.309530e-01
<GCONST> 1.379727e+02
<STATE> 4
<MEAN> 39
 1.312597e+00 5.224419e+00 4.882221e+00 -6.170135e+00 -1.067871e+01 -1.174457e+01 -8.611935e+00 4.796779e+00 -1.891204e+01 -5.535497e+00 -7.466286e+00 -7.870066e+00 6.486965e+01 -2.880703e-01 -9.635455e-02 -2.747606e-01 5.214990e-01 4.122554e-01 6.677524e-01 -1.176126e-01 -4.122262e-01 6.358973e-01 2.236819e-01 1.816678e-01 4.703414e-01 -3.550307e-01 -4.937586e-02 -1.478526e-01 1.079124e-02 -5.450406e-02 1.543927e-01 9.732395e-02 -2.657086e-02 -1.234169e-01 3.742602e-02 3.241403e-02 -6.005326e-03 1.044137e-01 7.744063e-02
<VARIANCE> 39
 2.083994e+01 4.642914e+01 4.144591e+01 8.249258e+01 9.237599e+01 1.098652e+02 7.147163e+01 6.662097e+01 1.227971e+02 5.484041e+01 4.389003e+01 5.437434e+01 4.080976e+01 7.880716e-01 3.311625e+00 1.687922e+00 3.791675e+00 4.024566e+00 4.559362e+00 3.594164e+00 4.628249e+00 5.374151e+00 3.629590e+00 2.595429e+00 2.498096e+00 1.769833e+00 1.393200e-01 5.392379e-01 2.957359e-01 6.493019e-01 6.190557e-01 7.656993e-01 6.364775e-01 7.840933e-01 8.360844e-01 6.513597e-01 4.485740e-01 4.661577e-01 2.702516e-01
<GCONST> 1.294702e+02
<TRANSP> 5
 0.000000e+00 1.000000e+00 0.000000e+00 0.000000e+00 0.000000e+00
 0.000000e+00 6.833901e-01 3.166100e-01 0.000000e+00 0.000000e+00
 0.000000e+00 0.000000e+00 4.928351e-01 5.071649e-01 0.000000e+00
 0.000000e+00 0.000000e+00 0.000000e+00 8.549576e-01 1.450423e-01
 0.000000e+00 0.000000e+00 0.000000e+00 0.000000e+00 0.000000e+00
<ENDHMM>
~h "w"
<BEGINHMM>
<NUMSTATES> 5
<STATE> 2
<MEAN> 39
 -9.859417e-02 1.784280e+00 -2.956238e+00 -9.998837e+00 -1.929855e+01 -3.335170e+00 -3.397165e+00 4.600015e+00 -6.603921e+00 -2.908183e+00 -1.013300e+00 -7.380857e-01 6.211977e+01 -3.359188e-01 5.075874e-01 1.287716e-01 3.408779e-01 -1.368062e-01 -1.157721e-01 3.617617e-02 -2.276583e-01 2.286604e-01 1.081976e-01 5.382827e-03 -3.236181e-02 -4.951482e-01 5.552845e-02 -8.033492e-02 -9.863116e-03 -9.285822e-02 3.235115e-02 -1.493042e-01 -1.622076e-01 -3.501506e-02 -4.974002e-02 -1.183741e-02 1.151234e-02 2.044594e-03 1.151035e-01
<VARIANCE> 39
 4.046122e+01 3.102130e+01 3.682565e+01 3.567570e+01 5.368984e+01 2.591496e+01 7.296153e+01 3.112588e+01 4.202545e+01 6.155035e+01 3.866032e+01 1.841656e+01 4.066364e+01 3.271565e+00 3.768590e+00 4.301854e+00 2.806438e+00 5.806874e+00 1.874765e+00 7.485217e+00 2.164214e+00 3.430425e+00 5.364350e+00 3.230939e+00 2.180134e+00 3.907931e+00 2.938864e-01 6.736816e-01 8.125544e-01 4.987626e-01 9.841279e-01 3.646687e-01 1.466472e+00 3.946740e-01 5.715874e-01 9.770396e-01 5.447042e-01 3.848212e-01 4.244180e-01
<GCONST> 1.283971e+02
<STATE> 3
<MEAN> 39
 -1.272486e+00 5.440347e+00 -2.083789e+00 -3.995717e+00 -1.492608e+01 -4.646623e+00 -5.634855e+00 -1.381671e-01 -8.616503e+00 -4.981704e-01 -2.114865e-01 -6.616635e-01 5.959634e+01 -1.042379e+00 4.041661e-01 -7.199284e-01 4.854128e-01 -1.259297e-01 -6.796939e-01 -8.259227e-01 -7.787702e-01 4.073772e-01 1.004572e+00 6.247410e-01 1.517109e-01 -1.337956e+00 2.248958e-01 -5.786139e-01 -1.372014e-01 -4.794489e-01 8.774180e-02 1.121158e-02 2.647316e-02 6.588762e-02 -1.112937e-01 -2.020305e-01 -5.882814e-01 3.773985e-02 4.757223e-01
<VARIANCE> 39
 4.207021e+01 3.637737e+01 4.715917e+01 1.675738e+01 7.336656e+01 3.521411e+01 6.075560e+01 3.862273e+01 2.933736e+01 1.431381e+01 1.688163e+01 2.911335e+01 2.721128e+01 1.386795e+00 2.177022e+00 9.763611e-01 1.708395e+00 2.445204e+00 1.570059e+00 2.887104e+00 2.132102e+00 2.809019e+00 1.602889e+00 1.533634e+00 9.138050e-01 1.601437e+00 3.103274e-01 3.002764e-01 4.363936e-01 4.497885e-01 7.403523e-01 3.472943e-01 6.887783e-01 4.422949e-01 4.803691e-01 5.102243e-01 2.655849e-01 3.484338e-01 3.384883e-01
<GCONST> 1.125162e+02
<STATE> 4
<MEAN> 39
 -5.531690e+00 6.540534e+00 -1.646695e+00 -2.633447e+00 -1.352342e+01 -3.030173e+00 -6.859223e+00 9.069123e-01 -6.960217e+00 -6.044203e-02 -2.432114e+00 -2.071586e-01 5.499772e+01 -5.102005e-01 -4.309527e-01 1.657623e-01 6.430545e-02 5.937189e-01 1.451865e-01 -3.722442e-01 -1.520909e-01 6.376579e-02 1.684318e-01 -9.834141e-02 3.004879e-01 -1.396612e-01 2.520230e-01 -2.637334e-01 1.550180e-01 -2.489302e-01 8.326589e-02 -1.159809e-02 4.832943e-02 4.679429e-03 -1.312820e-01 -2.178722e-02 -1.460382e-02 -6.956946e-03 4.522841e-01
<VARIANCE> 39
 3.119202e+01 2.058497e+01 2.556231e+01 1.921751e+01 4.994615e+01 3.679726e+01 3.049932e+01 2.075060e+01 1.271363e+01 8.183537e+00 1.204809e+01 1.596736e+01 1.635962e+01 5.028678e-01 1.861768e+00 9.802892e-01 2.669391e+00 2.022114e+00 1.310887e+00 2.496410e+00 1.568505e+00 1.898618e+00 8.211754e-01 1.167166e+00 1.044215e+00 1.643817e+00 2.081986e-01 3.171780e-01 1.978249e-01 4.719339e-01 5.049470e-01 3.216367e-01 6.455648e-01 3.277283e-01 4.081068e-01 2.226184e-01 2.647629e-01 1.873047e-01 4.388325e-01
<GCONST> 1.006936e+02
<TRANSP> 5
 0.000000e+00 1.000000e+00 0.000000e+00 0.000000e+00 0.000000e+00
 0.000000e+00 8.454995e-01 1.545005e-01 0.000000e+00 0.000000e+00
 0.000000e+00 0.000000e+00 3.077786e-01 6.922213e-01 0.000000e+00
 0.000000e+00 0.000000e+00 0.000000e+00 8.499635e-01 1.500365e-01
 0.000000e+00 0.000000e+00 0.000000e+00 0.000000e+00 0.000000e+00
<ENDHMM>
~h "eu"
<BEGINHMM>
<NUMSTATES> 5
<STATE> 2
<MEAN> 39
 -5.703702e+00 -1.092869e+00 7.070735e+00 -1.072976e+01 -1.032540e+00 -4.558838e+00 -8.629209e+00 -4.671305e+00 -1.211982e+01 -2.739508e+00 -3.640048e+00 9.710191e-01 6.771040e+01 1.183998e+00 -5.935814e-01 -3.491957e-01 -1.051988e+00 1.916244e-01 -1.387376e+00 -5.500754e-01 -1.582605e-01 -1.202218e+00 -2.814020e-01 5.304044e-02 1.619384e-01 1.343761e+00 1.322942e-01 -2.960192e-02 -1.897076e-01 -1.161044e-02 1.378333e-01 -2.295895e-01 -6.582951e-02 1.636161e-01 -2.578332e-02 2.974638e-03 -6.334112e-02 -2.615368e-02 1.141435e-01
<VARIANCE> 39
 1.075959e+02 7.216465e+01 8.325682e+01 1.061692e+02 6.045534e+01 5.740378e+01 7.656682e+01 7.578649e+01 8.147355e+01 5.042985e+01 3.526820e+01 2.983404e+01 4.803986e+01 1.249179e+01 8.712764e+00 8.235553e+00 9.010598e+00 5.203928e+00 7.243624e+00 9.176713e+00 5.585317e+00 9.965044e+00 4.971596e+00 3.892015e+00 3.185691e+00 5.917960e+00 1.381632e+00 1.360522e+00 1.413264e+00 1.607756e+00 8.829567e-01 1.148714e+00 1.429243e+00 1.043900e+00 1.361247e+00 8.205100e-01 6.114076e-01 6.226344e-01 9.321159e-01
<GCONST> 1.513932e+02
<STATE> 3
<MEAN> 39
 2.090477e+00 -3.221560e+00 2.117327e+00 -1.323417e+01 -8.421866e-01 -1.066936e+01 -1.023729e+01 -2.803433e+00 -1.797736e+01 -5.008832e+00 -4.328834e+00 1.852058e+00 7.295914e+01 1.402754e+00 -3.666454e-01 -1.213329e+00 -2.756781e-01 1.365105e-01 -8.043867e-01 -2.895194e-01 9.186139e-01 -8.173490e-01 -1.358846e-01 1.102915e-01 2.388625e-01 7.137097e-01 -7.416981e-01 1.800782e-01 3.052199e-01 4.352385e-01 8.889511e-02 5.837539e-01 1.895443e-01 1.043672e-01 6.409562e-01 2.418209e-01 2.166883e-02 -1.382224e-01 -5.774561e-01
<VARIANCE> 39
 2.130405e+01 3.242152e+01 4.613369e+01 7.971339e+01 5.573600e+01 6.478934e+01 1.050018e+02 7.795024e+01 9.267786e+01 6.727298e+01 4.298616e+01 3.454033e+01 2.336376e+01 4.298295e+00 4.462523e+00 4.337830e+00 5.731662e+00 4.483954e+00 6.736751e+00 7.573945e+00 5.167784e+00 7.145498e+00 4.388754e+00 3.851218e+00 3.229630e+00 3.071700e+00 8.576534e-01 8.680002e-01 8.312390e-01 1.257318e+00 6.827438e-01 1.101826e+00 1.281008e+00 9.777748e-01 1.258854e+00 8.243105e-01 7.649900e-01 5.419168e-01 4.815900e-01
<GCONST> 1.412652e+02
<STATE> 4
<MEAN> 39
 3.706447e+00 -1.518546e+00 -1.910487e-01 -1.082290e+01 -1.367670e+00 -1.051247e+01 -9.906181e+00 1.337064e+00 -1.805848e+01 -4.143456e+00 -4.998170e+00 1.021398e+00 7.105184e+01 -2.399864e-02 4.596774e-01 -4.494911e-02 5.420892e-01 1.261628e-01 3.697203e-01 -2.251502e-01 7.870695e-02 4.426172e-01 7.801270e-02 -1.682838e-01 -4.615567e-02 -4.442700e-01 -2.074311e-01 1.091336e-01 1.684631e-01 8.351097e-02 -5.443915e-02 1.995598e-01 2.035722e-02 -1.573166e-01 2.215398e-01 5.155327e-03 -2.736066e-02 -2.075380e-02 -1.622806e-01
<VARIANCE> 39
 8.898968e+00 5.109511e+01 2.737795e+01 8.244656e+01 6.225097e+01 7.921740e+01 9.084828e+01 6.748479e+01 8.352075e+01 5.436515e+01 4.301879e+01 3.195001e+01 2.582667e+01 8.662676e-01 3.519596e+00 2.073551e+00 4.319685e+00 2.453877e+00 4.193510e+00 4.373200e+00 3.423464e+00 4.181524e+00 3.158740e+00 2.481594e+00 2.004585e+00 2.106964e+00 1.859175e-01 5.903842e-01 3.302888e-01 7.210984e-01 4.367979e-01 8.085493e-01 8.866987e-01 5.346832e-01 7.948619e-01 5.248933e-01 4.936962e-01 3.923219e-01 3.436458e-01
<GCONST> 1.259011e+02
<TRANSP> 5
 0.000000e+00 1.000000e+00 0.000000e+00 0.000000e+00 0.000000e+00
 0.000000e+00 6.888500e-01 3.111500e-01 0.000000e+00 0.000000e+00
 0.000000e+00 0.000000e+00 4.845367e-01 5.154634e-01 0.000000e+00
 0.000000e+00 0.000000e+00 0.000000e+00 8.095664e-01 1.904336e-01
 0.000000e+00 0.000000e+00 0.000000e+00 0.000000e+00 0.000000e+00
<ENDHMM>
~h "ng"
<BEGINHMM>
<NUMSTATES> 5
<STATE> 2
<MEAN> 39
 -6.730490e-01 2.359573e+00 7.630123e-01 -7.098599e+00 -4.867160e+00 -3.083549e+00 -1.077087e+01 1.236950e+00 -9.994018e+00 -3.025268e+00 -5.836451e+00 2.150481e+00 6.385746e+01 -1.227579e+00 -3.323713e-01 8.098309e-01 8.853324e-02 -2.858855e-01 9.225466e-01 5.278386e-01 -7.800885e-01 4.332582e-01 3.817843e-01 3.197223e-01 1.953044e-02 -4.983379e-01 -1.680231e-02 -4.635436e-01 1.448216e-01 -4.803398e-01 6.983611e-02 -2.466792e-01 2.010805e-01 1.371189e-02 -3.313760e-01 3.519943e-02 5.350000e-03 -8.450522e-02 4.537725e-01
<VARIANCE> 39
 3.740179e+01 5.342313e+01 4.370417e+01 8.219393e+01 7.612673e+01 4.752110e+01 8.325966e+01 6.164036e+01 4.544727e+01 3.742344e+01 4.067057e+01 2.719987e+01 4.989788e+01 2.464370e+00 7.577735e+00 4.728414e+00 9.199418e+00 4.294657e+00 5.052422e+00 9.135568e+00 5.078958e+00 5.437297e+00 3.913106e+00 4.258404e+00 3.135079e+00 5.108996e+00 4.130856e-01 1.338678e+00 8.671776e-01 1.733121e+00 9.249375e-01 9.739855e-01 1.463841e+00 1.006289e+00 1.030120e+00 8.177065e-01 7.975355e-01 6.390414e-01 9.537717e-01
<GCONST> 1.426577e+02
<STATE> 3
<MEAN> 39
 -5.320354e+00 -3.247158e+00 5.614269e+00 -1.067838e+01 -3.486031e+00 -3.750298e+00 -7.218937e+00 -3.740700e+00 -9.971335e+00 -2.299769e+00 -6.109862e+00 1.583415e+00 6.774066e+01 3.244648e-01 -1.150851e+00 6.486065e-01 -1.153414e+00 1.846084e-01 -7.492136e-01 3.526431e-02 -5.447600e-01 -9.370593e-01 8.987961e-02 3.141620e-02 -4.383871e-01 1.504158e+00 6.164162e-01 5.275977e-01 -3.764317e-01 2.331029e-01 -1.156118e-01 -3.158300e-01 -4.169788e-01 4.261180e-01 -2.803409e-01 -4.489072e-02 1.120104e-01 -1.477985e-01 -1.523591e-01
<VARIANCE> 39
 7.142851e+01 7.853336e+01 9.594494e+01 1.186548e+02 9.718305e+01 7.071056e+01 1.445765e+02 7.917204e+01 7.081429e+01 4.076582e+01 4.623851e+01 4.484426e+01 4.198224e+01 8.229876e+00 8.002944e+00 9.013363e+00 1.292993e+01 5.552463e+00 9.280660e+00 1.371141e+01 8.083081e+00 7.220360e+00 4.549819e+00 5.083005e+00 3.191475e+00 6.056648e+00 1.299404e+00 1.544447e+00 1.703637e+00 2.312916e+00 1.068903e+00 1.644548e+00 2.503527e+00 1.787936e+00 1.420763e+00 9.038225e-01 1.032813e+00 7.669914e-01 7.818911e-01
<GCONST> 1.567495e+02
<STATE> 4
<MEAN> 39
 -1.538844e+00 -1.392677e+00 4.328373e+00 -8.729094e+00 -3.010689e+00 -7.845688e+00 -8.980941e+00 -3.603722e+00 -1.575634e+01 -1.935699e+00 -5.850934e+00 9.231609e-02 6.795979e+01 9.523961e-04 5.256345e-01 1.936118e-01 3.831003e-01 9.850147e-02 2.617953e-01 -1.120011e-01 3.043839e-01 -2.186518e-01 1.708924e-01 1.619082e-01 -1.380634e-01 -4.442758e-01 7.767874e-03 1.629640e-01 -9.179419e-02 7.444436e-02 -1.583561e-01 1.633390e-01 7.887369e-02 1.712914e-01 1.534136e-01 -4.769499e-02 6.708331e-03 3.284087e-02 -1.746156e-01
<VARIANCE> 39
 5.161946e+01 8.389712e+01 5.700213e+01 8.287735e+01 8.496201e+01 8.802849e+01 1.339599e+02 6.445360e+01 8.507961e+01 5.642220e+01 3.520520e+01 2.788728e+01 5.692959e+01 2.668037e+00 5.915480e+00 4.292733e+00 7.076975e+00 3.964512e+00 7.696827e+00 7.399853e+00 5.195029e+00 7.117652e+00 4.231776e+00 3.085746e+00 2.940664e+00 3.463832e+00 3.497151e-01 9.900152e-01 6.400821e-01 1.064345e+00 6.789432e-01 1.371744e+00 1.349432e+00 9.910212e-01 1.239574e+00 7.828574e-01 5.354816e-01 5.440718e-01 4.610781e-01
<GCONST> 1.427327e+02
<TRANSP> 5
 0.000000e+00 1.000000e+00 0.000000e+00 0.000000e+00 0.000000e+00
 0.000000e+00 7.259991e-01 2.740009e-01 0.000000e+00 0.000000e+00
 0.000000e+00 0.000000e+00 5.577296e-01 4.422704e-01 0.000000e+00
 0.000000e+00 0.000000e+00 0.000000e+00 8.007557e-01 1.992443e-01
 0.000000e+00 0.000000e+00 0.000000e+00 0.000000e+00 0.000000e+00
<ENDHMM>
~h "wa"
<BEGINHMM>
<NUMSTATES> 5
<STATE> 2
<MEAN> 39
 5.369183e-01 6.847639e+00 6.196795e+00 -1.067455e+01 -7.790928e+00 -8.604155e+00 -1.789861e+01 4.356866e+00 -1.079039e+01 -6.776883e+00 -6.001298e+00 -1.836636e+00 6.464214e+01 1.337622e+00 5.420488e-01 4.876756e-01 -1.268916e+00 1.719275e-02 -9.613395e-01 -1.522648e+00 1.164879e+00 -1.135461e-01 -1.361082e+00 -5.198708e-01 -6.025221e-01 1.182326e+00 5.055683e-02 2.507460e-02 -3.782057e-01 -2.630417e-02 4.962211e-02 8.339096e-02 9.035658e-02 -3.369346e-02 -1.453499e-01 -1.934331e-01 -1.759429e-01 4.531413e-03 -8.356363e-02
<VARIANCE> 39
 3.540919e+01 8.686321e+01 3.698520e+01 8.895116e+01 8.377344e+01 9.560243e+01 8.581734e+01 4.777873e+01 2.803412e+01 4.090396e+01 5.018986e+01 2.761844e+01 1.880470e+01 2.864192e+00 1.211563e+01 3.860933e+00 4.651823e+00 1.076434e+01 1.170482e+01 6.837460e+00 5.452472e+00 3.635068e+00 4.650253e+00 5.878139e+00 3.032621e+00 2.483126e+00 6.698164e-01 2.750198e+00 5.280128e-01 7.793285e-01 2.365659e+00 1.989894e+00 1.434994e+00 1.176486e+00 7.880177e-01 8.046677e-01 1.132934e+00 5.416192e-01 4.749430e-01
<GCONST> 1.439420e+02
<STATE> 3
<MEAN> 39
 5.283157e+00 5.965431e+00 -3.784336e-01 -1.453448e+01 7.032486e-01 1.412150e-01 -1.931045e+01 2.223415e+00 -1.624893e+01 -1.243758e+01 -8.940518e+00 -2.323551e+00 6.752225e+01 -4.808544e-02 -5.194358e-01 -1.215497e-01 -1.997500e-01 6.227028e-01 -1.121430e-02 3.570980e-02 1.404614e-01 -5.849673e-01 -2.371231e-01 2.405795e-02 1.659866e-01 3.056900e-01 -9.235590e-02 1.216064e-01 1.994784e-01 1.248689e-01 -2.268559e-01 -2.285380e-01 2.085894e-01 5.966292e-02 -1.679488e-02 2.294190e-01 1.411208e-01 -5.215022e-02 -9.473155e-02
<VARIANCE> 39
 1.546141e+01 3.002438e+01 6.659158e+01 8.108423e+01 7.061362e+01 1.215632e+02 1.014655e+02 1.006736e+02 7.624388e+01 5.156703e+01 6.269844e+01 2.951067e+01 1.535454e+01 6.888950e-01 2.739887e+00 5.271141e+00 5.912952e+00 5.864434e+00 1.440778e+01 1.005838e+01 1.317954e+01 9.297964e+00 4.129868e+00 7.869960e+00 4.130125e+00 1.859622e+00 9.821437e-02 5.715316e-01 6.800436e-01 1.002373e+00 1.009410e+00 1.989057e+00 2.066998e+00 2.103130e+00 1.769160e+00 8.446703e-01 1.771490e+00 8.116051e-01 3.228736e-01
<GCONST> 1.429179e+02
<STATE> 4
<MEAN> 39
 4.098492e+00 3.114062e+00 3.593409e+00 -1.033503e+01 -9.717828e+00 -1.305601e+01 -9.515206e+00 9.374825e+00 -1.813662e+01 -1.111388e+01 -1.112595e+01 -7.049252e+00 6.866518e+01 -1.754379e-01 -2.183918e-01 -2.093119e-01 2.551408e-01 -3.740580e-01 3.276380e-01 7.608411e-01 -4.916176e-01 2.158622e-01 5.289035e-01 1.842441e-01 1.741154e-01 -1.769123e-01 2.280464e-03 2.508634e-02 -1.314254e-01 1.376575e-01 2.812136e-02 1.726923e-01 -1.023364e-01 -1.973561e-01 1.051131e-01 5.463136e-02 7.895008e-03 5.739392e-02 -1.085093e-01
<VARIANCE> 39
 1.445406e+01 4.323589e+01 5.929050e+01 8.927979e+01 9.628118e+01 9.056544e+01 1.053349e+02 5.486266e+01 6.534906e+01 4.729239e+01 6.385886e+01 5.856059e+01 1.703690e+01 5.375277e-01 2.214390e+00 3.076768e+00 2.330008e+00 4.733368e+00 5.642657e+00 4.115219e+00 4.449984e+00 3.816791e+00 2.629827e+00 2.644415e+00 2.872109e+00 9.461194e-01 6.972203e-02 3.675631e-01 3.894268e-01 3.453209e-01 5.887960e-01 8.199577e-01 7.783616e-01 8.013510e-01 6.662962e-01 4.662844e-01 4.195205e-01 5.294163e-01 1.272943e-01
<GCONST> 1.245321e+02
<TRANSP> 5
 0.000000e+00 1.000000e+00 0.000000e+00 0.000000e+00 0.000000e+00
 0.000000e+00 7.518843e-01 2.481156e-01 0.000000e+00 0.000000e+00
 0.000000e+00 0.000000e+00 8.549190e-01 1.450810e-01 0.000000e+00
 0.000000e+00 0.000000e+00 0.000000e+00 8.722909e-01 1.277091e-01
 0.000000e+00 0.000000e+00 0.000000e+00 0.000000e+00 0.000000e+00
<ENDHMM>
~h "sil"
<BEGINHMM>
<NUMSTATES> 5
<STATE> 2
<MEAN> 39
 -1.277100e+01 5.240455e+00 -2.875312e+00 3.473367e+00 -8.740537e+00 1.429051e+00 -9.597800e+00 1.536057e+00 -5.053425e+00 1.347592e+00 -7.538098e-01 7.000933e-01 4.802456e+01 -3.782984e-02 2.949075e-02 -3.708242e-03 2.897034e-02 -2.990434e-02 9.718746e-04 -2.138480e-02 1.303541e-02 1.345136e-02 4.207210e-03 -1.539934e-03 -9.211480e-03 -6.448180e-02 4.204277e-03 -2.541583e-03 1.967197e-03 -4.122866e-03 3.637795e-03 1.840392e-04 -2.713019e-03 -7.181662e-04 -4.693298e-03 -2.155347e-03 -1.774463e-03 -1.891893e-03 6.663094e-03
<VARIANCE> 39
 4.629032e+00 5.523552e+00 6.633251e+00 1.191915e+01 1.642671e+01 1.539378e+01 1.657391e+01 1.323621e+01 1.151886e+01 1.047950e+01 1.073976e+01 9.637610e+00 9.158061e+00 9.003860e-02 2.302132e-01 3.155782e-01 4.413111e-01 6.397217e-01 7.810681e-01 8.630832e-01 8.750557e-01 8.332541e-01 8.754972e-01 8.967839e-01 7.822791e-01 5.102675e-02 1.706619e-02 4.731714e-02 6.328418e-02 8.769870e-02 1.296571e-01 1.569086e-01 1.771449e-01 1.811181e-01 1.693637e-01 1.819857e-01 1.849107e-01 1.593623e-01 8.731263e-03
<GCONST> 5.999805e+01
<STATE> 3
<MEAN> 39
 -1.407281e+01 4.108626e+00 -1.914703e+00 2.854727e+00 -6.199932e+00 1.554964e+00 -8.226160e+00 2.940983e-01 -4.796136e+00 8.306097e-01 1.012919e-01 9.022521e-01 4.967477e+01 -2.356218e-04 -1.332601e-02 3.882282e-02 -2.774919e-02 -3.212582e-02 2.307833e-02 -4.987090e-02 9.612275e-03 -3.147069e-02 -9.956417e-03 -4.511094e-02 -3.372936e-03 -5.481986e-03 5.052785e-03 -4.125369e-02 7.549366e-02 -4.034359e-02 4.278662e-02 2.579785e-02 -3.347755e-02 -3.035997e-02 -3.730237e-02 -9.613984e-03 -4.173104e-02 -1.190709e-02 5.849640e-02
<VARIANCE> 39
 7.975190e+00 1.739114e+01 1.521071e+01 2.696697e+01 2.836187e+01 2.156836e+01 3.180241e+01 1.827611e+01 2.021293e+01 1.377670e+01 1.461183e+01 1.197365e+01 2.134026e+01 2.803192e-01 1.255259e+00 9.270360e-01 1.285594e+00 1.529825e+00 1.441515e+00 1.672072e+00 1.244888e+00 1.543063e+00 1.117955e+00 1.260692e+00 1.155531e+00 3.625383e-01 7.136580e-02 3.071941e-01 2.579123e-01 2.941756e-01 3.331930e-01 3.040613e-01 3.554655e-01 2.557661e-01 3.218037e-01 2.377609e-01 2.587312e-01 2.338838e-01 9.125445e-02
<GCONST> 9.096814e+01
<STATE> 4
<MEAN> 39
 -5.793010e+00 1.498027e+00 1.213566e+00 -9.878539e-02 -6.521550e+00 -6.779784e+00 -7.284565e+00 -9.530699e-01 -1.303634e+01 -1.227429e-01 -5.058938e+00 -2.710327e+00 5.939100e+01 5.332322e-02 -5.217582e-02 1.441471e-01 -9.092274e-02 6.727746e-02 1.372949e-02 -1.043442e-01 -5.719267e-02 -8.087891e-02 -1.439081e-02 -7.285146e-02 -3.051651e-02 1.340217e-01 -1.104246e-02 -4.392628e-02 8.074708e-02 -8.635151e-02 3.305496e-02 1.814776e-04 -1.313152e-02 -1.827089e-02 -6.266356e-03 7.171029e-03 -2.034033e-02 7.678155e-03 6.835722e-02
<VARIANCE> 39
 7.101781e+01 7.839840e+01 6.425558e+01 5.832925e+01 5.193866e+01 1.466113e+02 7.496814e+01 5.102177e+01 8.855706e+01 3.130867e+01 5.435091e+01 4.261425e+01 1.149016e+02 1.662497e+00 3.900625e+00 2.815870e+00 2.993251e+00 2.137437e+00 4.840305e+00 3.289071e+00 3.040296e+00 3.490091e+00 2.093766e+00 2.543983e+00 1.870826e+00 2.015400e+00 2.771686e-01 6.408458e-01 5.285890e-01 6.297118e-01 3.628904e-01 7.111757e-01 6.049860e-01 5.365369e-01 5.832744e-01 3.808437e-01 4.431948e-01 3.257504e-01 2.933126e-01
<GCONST> 1.290533e+02
<TRANSP> 5
 0.000000e+00 1.000000e+00 0.000000e+00 0.000000e+00 0.000000e+00
 0.000000e+00 9.812328e-01 1.876714e-02 0.000000e+00 0.000000e+00
 0.000000e+00 0.000000e+00 8.344043e-01 1.655957e-01 0.000000e+00
 0.000000e+00 0.000000e+00 0.000000e+00 8.506759e-01 1.493240e-01
 0.000000e+00 0.000000e+00 0.000000e+00 0.000000e+00 0.000000e+00
<ENDHMM>
