~o
<STREAMINFO> 1 39
<VECSIZE> 39<NULLD><MFCC_D_A_0><DIAGC>
~s "silst"
<MEAN> 39
 -1.197985e+01 3.225040e+00 -1.914165e+00 1.217776e+00 -6.442181e+00 2.444617e-01 -7.472431e+00 -1.709862e-01 -5.010710e+00 4.468163e-01 -1.354778e-01 9.702257e-01 5.257866e+01 -1.721396e-01 -1.941429e-02 2.272354e-02 1.324660e-01 -3.089772e-02 -1.951593e-02 -1.023190e-01 1.689984e-02 8.619007e-02 3.698408e-02 -8.924305e-03 1.127079e-02 -1.753245e-01 3.774581e-02 1.609463e-02 7.168844e-02 -1.093133e-02 2.232170e-02 -1.931879e-02 -1.561019e-02 -5.793629e-03 -5.496380e-02 -3.683088e-02 -5.745261e-02 -4.751705e-02 5.078572e-02
<VARIANCE> 39
 1.351003e+01 8.469644e+00 1.344584e+01 1.961064e+01 2.352354e+01 2.267708e+01 2.754895e+01 1.970632e+01 2.165914e+01 1.503842e+01 1.542903e+01 1.342627e+01 1.232353e+01 2.613436e-01 4.992986e-01 7.397726e-01 9.058877e-01 9.973816e-01 1.120008e+00 1.216409e+00 1.148738e+00 1.082126e+00 1.233975e+00 1.187084e+00 9.976459e-01 1.551064e-01 4.466783e-02 1.128442e-01 1.505445e-01 1.839029e-01 2.046146e-01 2.269219e-01 2.502994e-01 2.412542e-01 2.194298e-01 2.597716e-01 2.382064e-01 2.042957e-01 3.103762e-02
<GCONST> 8.068846e+01
~h "a"
<BEGINHMM>
<NUMSTATES> 5
<STATE> 2
<MEAN> 39
 1.373061e+00 -4.627802e+00 -2.054988e+00 -1.364093e+01 -3.537815e+00 -8.471965e+00 -9.880202e+00 -7.726678e-01 -1.118045e+01 -1.769381e+00 -2.578803e+00 1.246574e+00 7.131003e+01 1.307407e+00 -9.989425e-01 -1.165865e+00 -1.262753e+00 -3.582141e-01 -4.981971e-01 7.619103e-01 7.705817e-01 -4.494730e-01 -4.705345e-01 4.027383e-01 2.600403e-01 1.389322e+00 -1.742999e-01 8.214830e-02 1.258498e-01 3.678988e-01 3.911323e-02 1.336753e-01 5.623690e-02 -5.293972e-02 5.621641e-02 8.210550e-02 -7.461584e-02 -1.241819e-01 -2.100475e-01
<VARIANCE> 39
 4.724112e+01 5.464584e+01 5.888150e+01 8.582462e+01 1.014657e+02 9.401526e+01 9.903056e+01 6.318173e+01 7.041964e+01 6.911491e+01 4.709550e+01 3.062625e+01 5.995607e+01 4.290746e+00 5.883474e+00 4.530270e+00 6.192039e+00 4.602220e+00 5.677273e+00 6.599835e+00 4.989707e+00 4.230709e+00 4.493424e+00 4.584275e+00 2.784722e+00 4.837907e+00 9.365243e-01 8.749359e-01 8.169228e-01 1.109358e+00 8.327280e-01 9.104944e-01 1.005976e+00 7.648194e-01 7.508548e-01 7.932339e-01 8.096654e-01 4.857799e-01 6.520122e-01
<GCONST> 1.434964e+02
<STATE> 3
<MEAN> 39
 5.462221e+00 -7.702346e+00 -5.495226e+00 -1.625356e+01 -2.636618e+00 -1.057060e+01 -7.301218e+00 8.385943e-01 -1.334761e+01 -2.068610e+00 -2.475313e-01 1.649135e+00 7.581447e+01 7.476993e-02 6.349208e-01 -4.558518e-02 4.503415e-01 -3.203436e-01 4.099620e-01 6.055570e-02 1.178214e-01 -2.069916e-01 -3.079160e-01 -2.922511e-01 -1.933982e-01 -5.517056e-01 -2.036920e-01 4.670071e-01 3.413728e-01 4.319619e-01 5.797074e-02 1.822975e-01 -2.409197e-01 -2.493806e-01 2.713761e-02 -5.552392e-02 -3.044302e-01 -1.542540e-01 -3.971960e-01
<VARIANCE> 39
 8.512706e+00 2.314024e+01 3.424277e+01 4.913652e+01 7.340497e+01 1.064438e+02 1.054595e+02 5.634186e+01 7.881124e+01 7.308059e+01 6.052040e+01 3.494148e+01 1.045708e+01 3.772099e-01 2.357211e+00 1.352436e+00 1.891429e+00 1.635798e+00 2.100565e+00 2.711692e+00 2.986959e+00 2.175571e+00 2.678581e+00 2.487835e+00 1.649764e+00 1.025226e+00 1.073829e-01 1.849798e-01 2.078056e-01 3.907979e-01 2.900941e-01 4.241624e-01 4.690657e-01 4.780524e-01 4.064527e-01 5.045654e-01 4.398203e-01 3.521175e-01 1.053969e-01
<GCONST> 1.123325e+02
<STATE> 4
<MEAN> 39
 4.088604e+00 -3.545402e+00 -5.240426e+00 -9.503170e+00 -6.732689e+00 -8.492372e+00 -4.235465e+00 -1.925251e+00 -1.530835e+01 -1.043313e+00 -2.916291e+00 6.482861e-01 7.019176e+01 -7.108297e-01 1.544735e+00 7.770236e-01 1.357247e+00 1.825511e-01 1.035800e+00 -5.461184e-01 -2.849479e-01 1.185084e-01 -2.117741e-01 -5.948820e-01 -2.651169e-01 -1.567593e+00 -2.307914e-01 3.571252e-03 1.564738e-01 1.206001e-01 1.582159e-01 1.658031e-01 -1.071133e-01 2.884325e-02 2.053212e-01 1.206369e-01 6.734943e-02 8.564513e-03 -1.452483e-01
<VARIANCE> 39
 1.835917e+01 5.054864e+01 3.159636e+01 5.348346e+01 7.397731e+01 9.209875e+01 1.082628e+02 6.141520e+01 7.406825e+01 5.265376e+01 5.061283e+01 3.003403e+01 3.839308e+01 8.902214e-01 2.798707e+00 1.818303e+00 3.772432e+00 2.531197e+00 3.885125e+00 3.429522e+00 2.931515e+00 3.037122e+00 3.327987e+00 2.905895e+00 2.082560e+00 1.981299e+00 1.731721e-01 3.220725e-01 2.497852e-01 4.060550e-01 3.263334e-01 5.898123e-01 5.530077e-01 5.430720e-01 4.983507e-01 4.846499e-01 3.510668e-01 3.033417e-01 1.962248e-01
<GCONST> 1.217298e+02
<TRANSP> 5
 0.000000e+00 1.000000e+00 0.000000e+00 0.000000e+00 0.000000e+00
 0.000000e+00 5.906698e-01 4.093302e-01 0.000000e+00 0.000000e+00
 0.000000e+00 0.000000e+00 7.607008e-01 2.392993e-01 0.000000e+00
 0.000000e+00 0.000000e+00 0.000000e+00 6.375844e-01 3.624156e-01
 0.000000e+00 0.000000e+00 0.000000e+00 0.000000e+00 0.000000e+00
<ENDHMM>
~h "b"
<BEGINHMM>
<NUMSTATES> 5
<STATE> 2
<MEAN> 39
 5.600031e-02 9.562701e+00 2.879365e+00 -2.936648e+00 -3.503939e+00 -9.683607e-01 -6.846882e+00 1.121835e+00 -1.149970e+01 -4.400434e+00 -7.298152e+00 -2.690177e+00 6.124695e+01 -7.816091e-01 1.997406e+00 8.506508e-01 2.895364e+00 1.774756e-01 2.311032e+00 9.116170e-01 -4.015767e-01 1.217557e+00 5.007530e-01 -1.810908e-01 -9.190236e-03 -2.100812e+00 2.642940e-02 -6.827944e-01 -3.269458e-01 -5.669853e-01 -2.044466e-01 -2.765942e-01 -8.699592e-02 1.277498e-02 -5.507122e-02 1.213023e-01 4.019437e-01 2.796300e-01 3.836810e-01
<VARIANCE> 39
 3.888981e+01 2.636163e+01 3.475941e+01 5.789262e+01 3.866910e+01 3.522005e+01 3.562690e+01 3.592876e+01 4.358617e+01 3.640684e+01 3.149922e+01 1.765564e+01 2.189229e+01 2.953734e+00 2.737321e+00 3.138416e+00 3.821780e+00 2.403428e+00 4.669870e+00 5.830682e+00 2.786589e+00 5.991289e+00 5.669774e+00 3.954866e+00 2.890979e+00 3.044248e+00 1.604271e-01 4.004246e-01 4.952550e-01 4.749883e-01 4.571158e-01 4.082799e-01 5.289620e-01 4.236021e-01 5.735065e-01 5.863294e-01 4.432407e-01 3.781849e-01 1.690119e-01
<GCONST> 1.222002e+02
<STATE> 3
<MEAN> 39
 1.702561e-01 1.130475e+01 2.499316e+00 -4.950113e-01 -4.058985e+00 1.942412e+00 -6.362355e+00 8.424343e-01 -9.353138e+00 -3.764710e+00 -6.536060e+00 -1.758465e+00 5.946352e+01 -5.631644e-01 5.239909e-01 -6.184548e-02 1.056282e+00 -6.211683e-01 9.888676e-01 4.694605e-01 -2.908424e-01 9.069858e-01 5.075763e-01 4.100003e-01 5.621125e-01 -1.136875e+00 1.889829e-01 -7.936551e-01 -2.240235e-01 -9.085312e-01 -9.028045e-02 -7.490202e-01 -3.763359e-01 8.229260e-02 -5.055702e-01 -2.120718e-01 1.086466e-01 4.990908e-02 7.024832e-01
<VARIANCE> 39
 2.208308e+01 1.730094e+01 3.389427e+01 3.757075e+01 2.897881e+01 2.610165e+01 3.019202e+01 3.330397e+01 3.505529e+01 2.448374e+01 3.039657e+01 1.553627e+01 7.251557e+00 1.427578e+00 1.266002e+00 1.863911e+00 2.287929e+00 2.337683e+00 2.131340e+00 2.061274e+00 1.761633e+00 2.688601e+00 2.011410e+00 1.651860e+00 1.414176e+00 9.289356e-01 1.181699e-01 2.065978e-01 2.319337e-01 4.906737e-01 4.042465e-01 3.173862e-01 7.990872e-01 3.616002e-01 5.606173e-01 5.789574e-01 5.103520e-01 3.499254e-01 1.182659e-01
<GCONST> 1.064444e+02
<STATE> 4
<MEAN> 39
 -3.108908e+00 9.899446e+00 7.624891e-01 -4.156943e-01 -7.785968e+00 1.081827e+00 -6.204264e+00 1.210360e+00 -7.277510e+00 -2.122851e+00 -4.762112e+00 -6.535009e-01 5.630499e+01 -4.445753e-01 -3.715267e-01 2.136123e-01 1.546484e-01 2.637465e-02 3.503207e-02 -2.081485e-01 -5.829465e-02 7.531840e-02 8.414392e-02 1.042547e-01 1.680891e-01 -1.815525e-01 1.174773e-01 -4.074821e-01 8.386716e-02 -3.825003e-01 2.588212e-01 -2.928657e-01 -1.885858e-01 5.855300e-02 -3.481323e-01 -1.357036e-01 -4.331578e-02 -9.728228e-02 4.686778e-01
<VARIANCE> 39
 2.652271e+01 2.542055e+01 4.837659e+01 4.974099e+01 2.788179e+01 1.729222e+01 1.983520e+01 2.004007e+01 1.784010e+01 1.771827e+01 2.297734e+01 1.796600e+01 1.146929e+01 5.407863e-01 1.111797e+00 1.031307e+00 1.487312e+00 1.634440e+00 1.238600e+00 1.239181e+00 1.124008e+00 1.281485e+00 1.271140e+00 1.291501e+00 1.069898e+00 5.205978e-01 1.562443e-01 4.376476e-01 2.984263e-01 5.941617e-01 3.699144e-01 4.985674e-01 5.088910e-01 3.251206e-01 4.762428e-01 3.127761e-01 3.305194e-01 2.661231e-01 2.215336e-01
<GCONST> 9.972869e+01
<TRANSP> 5
 0.000000e+00 1.000000e+00 0.000000e+00 0.000000e+00 0.000000e+00
 0.000000e+00 3.901355e-01 6.098645e-01 0.000000e+00 0.000000e+00
 0.000000e+00 0.000000e+00 2.231888e-01 7.768112e-01 0.000000e+00
 0.000000e+00 0.000000e+00 0.000000e+00 7.862269e-01 2.137731e-01
 0.000000e+00 0.000000e+00 0.000000e+00 0.000000e+00 0.000000e+00
<ENDHMM>
~h "c"
<BEGINHMM>
<NUMSTATES> 5
<STATE> 2
<MEAN> 39
 1.433504e+00 -9.299615e+00 -5.533859e+00 -1.018815e+01 -6.850533e+00 -6.607325e+00 -1.405151e+01 -2.036669e+00 -6.288241e+00 1.824500e+00 3.436587e-03 2.038939e+00 6.990520e+01 1.366131e-01 -7.392941e-01 -3.501976e-01 -2.350741e-01 6.749755e-01 -4.659658e-01 3.978279e-01 -2.600557e-01 1.105899e+00 1.133472e+00 1.819064e-03 -2.021133e-01 7.007521e-01 5.007981e-02 9.672601e-02 1.462897e-01 2.075510e-02 1.137123e-01 -1.731322e-01 1.177271e-01 3.383292e-03 -2.494899e-01 -2.605503e-01 -2.536416e-01 -7.323449e-03 7.431246e-02
<VARIANCE> 39
 1.498890e+01 5.088531e+01 4.181334e+01 7.246616e+01 7.274735e+01 8.947374e+01 9.353676e+01 3.396688e+01 1.410705e+02 5.863179e+01 2.987356e+01 4.623279e+01 4.875980e+01 1.485708e+00 6.199299e+00 2.659285e+00 3.362592e+00 2.523683e+00 6.494353e+00 2.681046e+00 2.382504e+00 5.939802e+00 5.307281e+00 3.528766e+00 3.820513e+00 3.381287e+00 2.366882e-01 1.419715e+00 4.105166e-01 6.119038e-01 4.732830e-01 8.475702e-01 4.409321e-01 3.945498e-01 7.471643e-01 9.239298e-01 5.425863e-01 7.313234e-01 5.979399e-01
<GCONST> 1.327021e+02
<STATE> 3
<MEAN> 39
 3.628164e+00 -8.762305e+00 -4.945737e+00 -1.217675e+01 3.534283e+00 -1.622016e+01 -8.935592e+00 -2.078390e+00 -5.308280e+00 5.187970e+00 -5.319023e+00 2.056291e+00 7.565485e+01 2.729624e-02 1.561553e+00 3.560974e-01 5.383607e-01 7.965270e-01 5.880533e-01 -3.162799e-01 5.867174e-01 -6.151665e-01 -1.206858e+00 -3.890347e-01 4.387238e-01 -7.624673e-01 -4.864157e-03 3.433621e-01 5.578782e-02 4.428837e-01 -4.164426e-01 6.705322e-01 -3.442267e-01 4.010771e-02 -2.437843e-01 -9.680301e-02 2.101877e-01 -3.016659e-01 -4.642439e-01
<VARIANCE> 39
 5.113746e+00 3.239139e+01 2.843840e+01 3.199937e+01 7.368736e+01 9.304330e+01 6.841850e+01 4.027886e+01 1.404885e+02 6.776061e+01 3.027192e+01 5.437517e+01 9.433908e+00 3.334011e-01 1.826475e+00 6.125441e-01 2.084007e+00 2.906619e+00 3.602211e+00 1.672654e+00 2.256572e+00 3.067208e+00 1.955780e+00 1.662651e+00 1.806893e+00 1.341244e+00 5.892040e-02 2.059781e-01 1.331469e-01 2.493284e-01 3.237607e-01 3.029941e-01 2.790051e-01 4.491686e-01 3.539203e-01 4.142732e-01 3.325804e-01 3.305291e-01 7.677282e-02
<GCONST> 1.068662e+02
<STATE> 4
<MEAN> 39
 2.714023e+00 -8.341411e-01 -1.296334e+00 3.284719e+00 -1.275348e+00 -8.173478e+00 -1.375628e+01 -6.090858e+00 -1.598951e+01 -1.105623e+00 -3.624289e+00 -1.109931e+00 6.584505e+01 -1.102668e-01 4.653300e-01 2.275750e-01 1.317491e+00 -3.133677e-01 1.099803e+00 -4.163316e-01 -3.208928e-01 -5.243606e-01 -3.554769e-01 4.041298e-02 -1.027830e+00 -7.873949e-01 -5.351259e-03 -4.166281e-01 -1.312183e-01 -3.527781e-01 1.956544e-01 -2.839453e-01 1.944561e-01 -8.664489e-02 3.079499e-01 2.908258e-01 -7.985923e-03 -4.389472e-02 3.737579e-01
<VARIANCE> 39
 1.060541e+01 4.788677e+01 2.116755e+01 5.554182e+01 3.760015e+01 4.611272e+01 6.481694e+01 5.115302e+01 6.624597e+01 4.023431e+01 3.890159e+01 3.063836e+01 2.114178e+01 6.769749e-01 7.327664e+00 1.538303e+00 4.499507e+00 2.137972e+00 5.489252e+00 8.167768e+00 3.906159e+00 4.206892e+00 4.223188e+00 3.525251e+00 3.336574e+00 4.578405e+00 1.396015e-01 6.986155e-01 2.682649e-01 4.483508e-01 3.741494e-01 4.350163e-01 8.925387e-01 7.279067e-01 7.464026e-01 3.466287e-01 5.123541e-01 4.904618e-01 3.422428e-01
<GCONST> 1.243916e+02
<TRANSP> 5
 0.000000e+00 1.000000e+00 0.000000e+00 0.000000e+00 0.000000e+00
 0.000000e+00 8.812587e-01 1.187414e-01 0.000000e+00 0.000000e+00
 0.000000e+00 0.000000e+00 8.229409e-01 1.770591e-01 0.000000e+00
 0.000000e+00 0.000000e+00 0.000000e+00 7.234233e-01 2.765767e-01
 0.000000e+00 0.000000e+00 0.000000e+00 0.000000e+00 0.000000e+00
<ENDHMM>
~h "d"
<BEGINHMM>
<NUMSTATES> 5
<STATE> 2
<MEAN> 39
 -1.861067e+00 8.010659e+00 7.210005e+00 1.728960e+00 -1.147739e+00 6.457775e-01 -1.318630e+01 -2.622302e+00 -8.662967e+00 -2.906018e+00 -4.811307e+00 -2.868848e-01 6.076181e+01 2.072660e-01 -2.297149e+00 -6.409347e-01 -2.677021e+00 1.458620e+00 1.662508e+00 -5.648983e-01 -1.606497e-01 -1.469465e-01 -1.468845e+00 3.563879e-02 -2.816072e-01 1.846145e+00 3.663387e-01 -1.964954e-01 -2.385558e-01 -7.183634e-01 3.180313e-01 -5.221364e-01 -4.739472e-01 5.084406e-01 -6.797246e-01 -6.024048e-01 -3.395959e-01 -2.482592e-01 4.573874e-01
<VARIANCE> 39
 2.414264e+01 6.709776e+01 2.148654e+01 1.162637e+02 3.827174e+01 7.976370e+01 5.298786e+01 3.999390e+01 4.195486e+01 3.024480e+01 3.326724e+01 2.748686e+01 3.759497e+01 2.522529e+00 7.920666e+00 3.865462e+00 9.416875e+00 4.453461e+00 1.020367e+01 8.112346e+00 5.286550e+00 5.242983e+00 5.192362e+00 4.074076e+00 4.171265e+00 3.076812e+00 3.709970e-01 1.997767e+00 5.704531e-01 2.496512e+00 8.269862e-01 1.978520e+00 1.389712e+00 1.088374e+00 8.552699e-01 1.134411e+00 1.060207e+00 9.021559e-01 8.660684e-01
<GCONST> 1.423311e+02
<STATE> 3
<MEAN> 39
 2.892141e+00 3.054484e+00 4.953473e+00 -1.339776e+01 4.732628e+00 -1.158609e+00 -2.070694e+01 6.939988e+00 -1.623294e+01 -1.488530e+01 -8.899596e+00 -5.226965e+00 6.938713e+01 5.627111e-01 4.720190e-01 5.804280e-01 -1.641947e+00 -9.739741e-01 -2.889761e+00 -6.672599e-02 2.329378e+00 -2.179634e+00 -1.006164e+00 -4.031421e-01 -1.298537e+00 6.979113e-01 -1.628146e-01 5.898953e-01 3.163893e-01 6.320536e-01 -7.177551e-01 -4.276921e-01 6.646727e-01 -8.499123e-02 2.510756e-01 9.395322e-01 3.084972e-01 3.496885e-02 -4.658737e-01
<VARIANCE> 39
 5.581438e+00 4.745240e+01 5.161416e+01 6.968316e+01 8.800978e+01 1.307007e+02 1.148086e+02 7.188797e+01 7.087965e+01 6.435354e+01 6.810052e+01 4.137181e+01 9.535851e+00 1.229729e+00 6.700808e+00 3.865152e+00 6.278398e+00 7.488015e+00 8.889528e+00 1.258700e+01 5.266452e+00 5.129205e+00 1.092619e+01 6.761203e+00 4.298070e+00 2.383524e+00 1.739285e-01 1.167129e+00 9.377852e-01 8.518512e-01 1.390770e+00 2.549286e+00 1.826765e+00 1.038889e+00 1.207710e+00 1.317088e+00 9.937677e-01 7.878174e-01 2.864873e-01
<GCONST> 1.434478e+02
<STATE> 4
<MEAN> 39
 4.887690e+00 1.359494e+00 3.403524e+00 -1.631810e+01 -5.590982e+00 -1.403490e+01 -1.107756e+01 1.102175e+01 -2.090627e+01 -6.815695e+00 -4.167381e+00 -5.750081e+00 7.193507e+01 1.876522e-01 -7.437683e-01 -6.992315e-01 -1.867142e-01 -2.752902e-01 -3.975941e-01 4.372362e-01 -4.031600e-01 7.188436e-02 6.445736e-01 5.102998e-01 5.096754e-01 3.851945e-01 -1.454601e-02 2.312971e-02 -2.612404e-02 8.886928e-02 7.106256e-02 1.659427e-01 -7.369915e-02 -8.861069e-02 5.385936e-02 -1.016397e-01 -9.006598e-02 3.666894e-02 -6.074271e-02
<VARIANCE> 39
 4.961557e+00 7.679857e+01 5.652447e+01 5.810549e+01 5.571048e+01 5.484514e+01 1.236345e+02 6.528204e+01 5.909143e+01 7.235593e+01 7.224262e+01 4.798541e+01 2.017251e+01 1.186189e-01 2.137172e+00 1.455750e+00 1.199215e+00 1.584166e+00 2.194181e+00 2.017806e+00 2.458809e+00 2.515787e+00 2.872579e+00 2.184721e+00 2.038741e+00 5.088590e-01 2.124510e-02 2.735193e-01 1.933428e-01 2.074981e-01 2.646816e-01 3.799016e-01 3.849166e-01 3.972076e-01 3.893451e-01 4.109181e-01 3.928840e-01 3.621551e-01 6.886312e-02
<GCONST> 1.080849e+02
<TRANSP> 5
 0.000000e+00 1.000000e+00 0.000000e+00 0.000000e+00 0.000000e+00
 0.000000e+00 7.391550e-01 2.608450e-01 0.000000e+00 0.000000e+00
 0.000000e+00 0.000000e+00 7.510788e-01 2.489212e-01 0.000000e+00
 0.000000e+00 0.000000e+00 0.000000e+00 9.198533e-01 8.014664e-02
 0.000000e+00 0.000000e+00 0.000000e+00 0.000000e+00 0.000000e+00
<ENDHMM>
~h "e"
<BEGINHMM>
<NUMSTATES> 5
<STATE> 2
<MEAN> 39
 2.854247e+00 -2.858440e+00 -3.228296e+00 -4.858897e+00 -1.845831e+00 -7.549483e+00 -1.376773e+01 -3.539605e+00 -6.918120e+00 3.986882e+00 -3.549811e+00 -1.759878e+00 6.828233e+01 -2.973092e-01 7.858175e-01 -6.680822e-03 3.073269e-01 -1.596043e-01 5.695293e-01 1.908279e-01 2.967493e-01 8.935785e-02 -1.419883e-01 -4.812396e-02 -2.738416e-02 -7.967247e-01 -1.524349e-01 5.602260e-02 4.882918e-02 1.364656e-02 -9.439263e-03 9.085967e-02 6.203381e-02 7.327440e-02 -4.071355e-02 -5.439611e-02 3.493526e-02 4.636867e-02 -1.507216e-01
<VARIANCE> 39
 1.673077e+01 5.872827e+01 3.499616e+01 1.157555e+02 7.662579e+01 1.514779e+02 7.858522e+01 6.107772e+01 6.583013e+01 6.779403e+01 3.129281e+01 3.109262e+01 4.022774e+01 1.155803e+00 2.230457e+00 1.384943e+00 2.340229e+00 2.428955e+00 3.732969e+00 2.450980e+00 2.529860e+00 2.267030e+00 2.449874e+00 1.711475e+00 1.693311e+00 1.561171e+00 1.399807e-01 3.352233e-01 2.290794e-01 3.259408e-01 3.421968e-01 5.018241e-01 4.058968e-01 4.110600e-01 3.788688e-01 3.636270e-01 2.920971e-01 2.863888e-01 1.504444e-01
<GCONST> 1.175006e+02
<STATE> 3
<MEAN> 39
 -4.772600e+00 4.732176e+00 -2.373140e+00 -3.132962e-01 -5.182953e+00 2.846537e-01 -1.045134e+01 7.229104e-01 -4.522094e+00 1.769877e+00 -2.672763e+00 -3.363231e-01 5.632869e+01 -1.429678e+00 -1.713852e-01 4.137414e-02 2.340483e-01 -5.148513e-01 4.413366e-01 8.390732e-01 2.804204e-01 -7.449044e-02 -1.074793e-01 1.831859e-01 3.471787e-01 -1.154792e+00 1.997391e-01 -1.450374e-01 -5.845225e-02 -2.364635e-01 -2.174512e-02 -1.607564e-01 -9.478890e-02 -5.170183e-02 -1.595591e-01 -1.043412e-01 -2.935093e-02 -3.522148e-02 2.721152e-01
<VARIANCE> 39
 2.095099e+01 2.184152e+01 2.020156e+01 6.120430e+01 4.081093e+01 4.368966e+01 5.962478e+01 4.124699e+01 2.504327e+01 2.671863e+01 1.622211e+01 1.311086e+01 1.671861e+01 8.281533e-01 1.217507e+00 1.345544e+00 2.502584e+00 2.131925e+00 2.784858e+00 2.104674e+00 2.035762e+00 2.105804e+00 2.543609e+00 1.718441e+00 1.763461e+00 3.590344e-01 9.876812e-02 2.249506e-01 2.328737e-01 3.567183e-01 2.962692e-01 4.692620e-01 3.441493e-01 4.386449e-01 3.706848e-01 3.160016e-01 2.571532e-01 2.986327e-01 7.867780e-02
<GCONST> 1.037083e+02
<STATE> 4
<MEAN> 39
 -8.918615e+00 5.469264e+00 -2.501662e+00 -6.720161e-01 -1.036931e+01 -1.830595e+00 -9.738123e+00 1.306553e+00 -4.975101e+00 1.314102e+00 -2.242991e+00 -1.206801e-01 5.226797e+01 -2.602225e-01 1.616661e-02 5.591398e-02 9.130303e-02 -8.034265e-02 5.064034e-02 3.866248e-02 1.044841e-01 -7.343643e-03 -9.199047e-02 -8.535938e-03 1.476529e-02 -2.432251e-01 1.145215e-01 -6.795060e-02 -1.392897e-02 -5.859590e-02 7.979447e-02 -2.545056e-02 -5.635513e-02 -2.090538e-02 -2.486927e-02 2.861309e-02 5.926061e-03 -3.508122e-02 1.424312e-01
<VARIANCE> 39
 1.100578e+01 7.365476e+00 9.533607e+00 2.043940e+01 2.901632e+01 2.088508e+01 2.348194e+01 1.783702e+01 1.414602e+01 1.423988e+01 1.264028e+01 1.183718e+01 1.068158e+01 2.444172e-01 3.462614e-01 4.508637e-01 5.527580e-01 9.301063e-01 1.079130e+00 1.197453e+00 1.097348e+00 9.843807e-01 1.060010e+00 1.056258e+00 1.105838e+00 9.907413e-02 7.566882e-02 1.165444e-01 1.288997e-01 1.707744e-01 1.843493e-01 2.099415e-01 2.349766e-01 2.362310e-01 2.223521e-01 2.364643e-01 2.302000e-01 2.514040e-01 8.681064e-02
<GCONST> 7.784612e+01
<TRANSP> 5
 0.000000e+00 1.000000e+00 0.000000e+00 0.000000e+00 0.000000e+00
 0.000000e+00 8.336837e-01 1.663163e-01 0.000000e+00 0.000000e+00
 0.000000e+00 0.000000e+00 5.488410e-01 4.511591e-01 0.000000e+00
 0.000000e+00 0.000000e+00 0.000000e+00 8.213059e-01 1.786940e-01
 0.000000e+00 0.000000e+00 0.000000e+00 0.000000e+00 0.000000e+00
<ENDHMM>
~h "g"
<BEGINHMM>
<NUMSTATES> 5
<STATE> 2
<MEAN> 39
 -4.919587e+00 4.234210e+00 5.281677e+00 2.866024e+00 -1.221472e+00 -1.639119e+00 -1.071845e+01 -7.454666e-01 -7.427404e+00 9.156986e-01 -5.370513e+00 -6.232605e-01 5.972590e+01 -4.479523e-01 -2.054637e+00 -2.912402e-01 -2.287166e+00 1.101712e-01 -5.556700e-02 8.107998e-01 -7.421495e-01 -7.215280e-01 4.586681e-01 -1.494393e-01 -9.781283e-01 1.412797e+00 1.700435e-01 -4.410447e-01 3.736309e-01 -5.816979e-01 1.772580e-01 -8.624762e-01 -3.396798e-01 -4.073512e-03 -4.791232e-01 -1.792025e-01 -2.509847e-01 -3.518150e-01 7.577468e-01
<VARIANCE> 39
 1.758536e+01 1.013563e+02 4.737215e+01 1.043796e+02 7.058854e+01 4.396641e+01 4.235916e+01 4.982497e+01 3.960862e+01 2.625489e+01 2.830405e+01 2.757209e+01 4.165646e+01 1.756094e+00 1.133660e+01 4.931670e+00 1.119998e+01 5.563431e+00 9.572741e+00 7.638451e+00 7.028540e+00 4.912698e+00 3.545934e+00 3.574871e+00 3.343783e+00 8.038822e+00 3.782479e-01 2.457685e+00 8.021134e-01 1.664321e+00 1.047039e+00 8.241355e-01 1.484304e+00 1.109538e+00 6.663770e-01 6.269718e-01 4.979912e-01 4.790707e-01 8.243355e-01
<GCONST> 1.411525e+02
<STATE> 3
<MEAN> 39
 -2.980364e+00 -2.067102e+00 8.157802e+00 -1.218004e+01 1.193985e+00 -1.061312e+01 -1.032374e+01 -4.106822e+00 -1.701668e+01 -3.191471e-01 -7.764586e+00 -9.102678e+00 7.183142e+01 1.832781e+00 4.514181e-01 2.258614e-01 -1.182621e+00 4.075920e-01 -2.885294e+00 -1.549708e+00 7.967687e-01 -2.573246e+00 -8.972471e-01 -1.231644e-01 -1.039208e+00 1.396482e+00 3.000904e-01 5.422366e-01 -4.649884e-01 8.542701e-01 -2.631966e-01 1.324145e-01 -3.928218e-01 5.469719e-01 5.136875e-01 -1.341346e-02 3.066899e-01 6.940981e-01 -6.842360e-01
<VARIANCE> 39
 3.307874e+01 8.681718e+01 5.532463e+01 1.017804e+02 9.915011e+01 7.945810e+01 1.479975e+02 1.108744e+02 7.068693e+01 4.982892e+01 6.598933e+01 6.618938e+01 2.254798e+01 2.554887e+00 7.216148e+00 6.687550e+00 1.135598e+01 4.885455e+00 6.474252e+00 1.162888e+01 9.396782e+00 3.741642e+00 4.497150e+00 6.418992e+00 4.686132e+00 2.749363e+00 6.511125e-01 1.523730e+00 1.055472e+00 2.247151e+00 7.928117e-01 1.636070e+00 2.880750e+00 1.270995e+00 9.732428e-01 9.139090e-01 1.044769e+00 5.928319e-01 4.021893e-01
<GCONST> 1.501551e+02
<STATE> 4
<MEAN> 39
 2.804832e+00 2.159878e+00 7.371019e+00 -1.480556e+01 -6.273776e+00 -1.571336e+01 -1.300227e+01 6.978150e+00 -2.270436e+01 -4.863996e+00 -9.481916e+00 -1.243138e+01 7.100673e+01 3.055901e-01 -1.061327e+00 -6.709526e-01 -1.185815e-01 -1.604804e-01 -5.620528e-01 -2.900555e-01 -8.564933e-02 4.783318e-02 2.433000e-02 6.674008e-01 6.911615e-01 5.646147e-01 -1.966383e-01 -1.613779e-01 -2.266970e-02 8.829460e-02 5.449665e-02 3.484452e-01 2.626096e-01 -2.988707e-01 2.628047e-01 2.189838e-01 9.680520e-02 1.078092e-01 -3.607175e-02
<VARIANCE> 39
 6.451399e+00 5.516461e+01 3.408211e+01 5.483181e+01 9.366037e+01 6.005541e+01 1.556693e+02 7.479722e+01 5.499958e+01 6.811043e+01 5.926215e+01 6.303664e+01 1.452391e+01 4.004301e-01 1.561736e+00 1.319696e+00 2.519784e+00 2.659616e+00 3.064110e+00 5.377890e+00 4.448248e+00 2.640450e+00 4.342587e+00 2.508483e+00 1.888274e+00 3.621318e-01 8.637150e-02 3.280058e-01 2.104986e-01 3.905265e-01 3.517483e-01 6.171204e-01 8.466401e-01 5.377391e-01 5.676954e-01 5.753584e-01 4.240381e-01 3.067553e-01 7.249825e-02
<GCONST> 1.170367e+02
<TRANSP> 5
 0.000000e+00 1.000000e+00 0.000000e+00 0.000000e+00 0.000000e+00
 0.000000e+00 7.477369e-01 2.522631e-01 0.000000e+00 0.000000e+00
 0.000000e+00 0.000000e+00 6.615065e-01 3.384936e-01 0.000000e+00
 0.000000e+00 0.000000e+00 0.000000e+00 8.028260e-01 1.971740e-01
 0.000000e+00 0.000000e+00 0.000000e+00 0.000000e+00 0.000000e+00
<ENDHMM>
~h "h"
<BEGINHMM>
<NUMSTATES> 5
<STATE> 2
<MEAN> 39
 -4.806970e+00 -5.336697e+00 8.187556e+00 -7.808945e-01 -3.581079e+00 -9.529830e+00 -1.276114e+01 2.753919e+00 -1.140590e+01 -1.756460e+00 -7.817335e+00 -4.203341e+00 6.590856e+01 -8.591008e-03 -4.157651e-01 5.195202e-02 7.545809e-01 6.203249e-01 -1.736896e-01 1.771169e-01 -5.680002e-01 9.467879e-02 5.097839e-01 -2.961851e-01 1.331618e-01 2.358776e-01 9.935186e-02 2.506660e-01 -2.453390e-01 1.531555e-02 -3.674617e-02 1.015865e-01 1.187114e-01 -4.744961e-02 -8.748277e-02 -6.878367e-02 -1.127750e-02 8.986061e-02 -1.461094e-01
<VARIANCE> 39
 4.340579e+01 8.816505e+01 7.150108e+01 2.043739e+02 9.125914e+01 1.365635e+02 7.908008e+01 6.935146e+01 9.078752e+01 7.074197e+01 5.602621e+01 3.124215e+01 2.291669e+01 2.509709e+00 6.682397e+00 6.086854e+00 8.796315e+00 6.585020e+00 1.034699e+01 4.966165e+00 4.981597e+00 7.740556e+00 4.889200e+00 3.157035e+00 2.991066e+00 2.329250e+00 3.178651e-01 9.454486e-01 5.465766e-01 1.647745e+00 1.126303e+00 1.738692e+00 8.598452e-01 7.461631e-01 1.045510e+00 1.141273e+00 3.708335e-01 3.973757e-01 3.367025e-01
<GCONST> 1.439727e+02
<STATE> 3
<MEAN> 39
 -4.098588e+00 -2.401268e+00 3.312106e+00 -1.033489e+01 -4.174632e+00 -4.912563e+00 -9.414154e+00 3.304165e-01 -1.201902e+01 -3.778355e+00 -6.089793e+00 -6.237393e-02 6.666925e+01 -3.483273e-01 -1.034481e-01 9.067490e-02 1.318090e+00 8.624689e-01 3.868748e-01 -1.154504e-01 -1.473862e-01 1.218128e+00 4.067948e-01 -6.832303e-01 2.575976e-01 -4.391981e-01 1.596133e-01 6.043580e-01 1.751667e-01 5.990941e-01 -2.738837e-02 -2.071130e-01 -2.678755e-01 1.734194e-01 6.310315e-02 -2.203809e-01 -2.999659e-01 -3.167487e-01 -3.111192e-01
<VARIANCE> 39
 5.892850e+01 8.186683e+01 5.714451e+01 1.231442e+02 8.241745e+01 8.691111e+01 9.023709e+01 6.640839e+01 1.268930e+02 5.892601e+01 5.481698e+01 2.766055e+01 2.428784e+01 1.499686e+00 5.578897e+00 3.603615e+00 8.193238e+00 6.731349e+00 6.224304e+00 7.483624e+00 4.281164e+00 4.898996e+00 5.802271e+00 4.338133e+00 2.660659e+00 2.321752e+00 3.346048e-01 1.029398e+00 7.666796e-01 1.694956e+00 8.813952e-01 8.537914e-01 9.699978e-01 1.083129e+00 1.483385e+00 1.170496e+00 6.402926e-01 4.516824e-01 3.718045e-01
<GCONST> 1.426564e+02
<STATE> 4
<MEAN> 39
 -4.412683e+00 5.832389e-01 4.324127e+00 -8.220398e+00 -3.096656e+00 -3.644603e+00 -7.114150e+00 6.597563e-01 -8.321177e+00 -3.711578e+00 -8.301389e+00 4.741625e-01 6.478133e+01 -1.573728e-01 4.810413e-01 -1.153795e-01 5.530551e-01 3.807569e-01 4.068719e-01 7.340299e-03 4.970732e-02 5.634225e-01 3.713569e-01 -1.818836e-01 1.395154e-01 -5.976944e-01 -2.687582e-02 3.555572e-02 7.000024e-02 -8.167987e-02 3.076894e-02 -1.873141e-01 -1.508483e-01 -1.564201e-02 -1.323381e-01 -5.514648e-02 1.062825e-01 -6.177874e-02 5.422969e-02
<VARIANCE> 39
 3.366664e+01 1.208740e+02 1.691460e+02 8.627462e+01 1.085678e+02 1.026303e+02 8.375400e+01 5.578652e+01 7.821598e+01 3.811949e+01 6.743661e+01 2.263965e+01 2.568173e+01 2.304528e+00 4.967642e+00 5.838135e+00 4.606654e+00 3.667680e+00 4.517062e+00 3.924850e+00 5.035592e+00 5.298503e+00 4.964219e+00 3.792489e+00 2.133634e+00 1.387781e+00 2.854363e-01 7.855326e-01 1.234308e+00 5.473402e-01 3.725374e-01 8.721303e-01 5.612093e-01 8.536021e-01 8.968432e-01 7.569369e-01 6.913226e-01 4.153623e-01 1.255818e-01
<GCONST> 1.356734e+02
<TRANSP> 5
 0.000000e+00 1.000000e+00 0.000000e+00 0.000000e+00 0.000000e+00
 0.000000e+00 5.108711e-01 4.891290e-01 0.000000e+00 0.000000e+00
 0.000000e+00 0.000000e+00 2.833162e-01 7.166838e-01 0.000000e+00
 0.000000e+00 0.000000e+00 0.000000e+00 5.975766e-01 4.024234e-01
 0.000000e+00 0.000000e+00 0.000000e+00 0.000000e+00 0.000000e+00
<ENDHMM>
~h "i"
<BEGINHMM>
<NUMSTATES> 5
<STATE> 2
<MEAN> 39
 2.828784e+00 5.675332e+00 1.211192e+00 -2.713522e+00 1.076442e+00 -4.025461e+00 -1.581312e+01 -1.145974e+00 -9.878894e+00 -3.322178e+00 -9.188615e+00 -1.867024e+00 6.482558e+01 -2.728275e-01 -1.656548e+00 2.739961e-01 5.168657e-01 1.223965e+00 -1.949302e+00 -6.832768e-01 -6.753282e-02 -2.665759e-01 6.502619e-01 1.345285e-01 -7.158952e-01 9.941468e-01 -2.254445e-01 -6.488321e-01 3.507652e-01 1.107857e-01 4.846577e-01 -1.045107e+00 -1.144847e-01 2.281065e-01 -3.629022e-01 2.126845e-01 1.558560e-01 -1.383081e-01 4.144886e-01
<VARIANCE> 39
 2.511792e+01 5.899690e+01 2.691731e+01 7.767916e+01 4.567569e+01 6.842761e+01 4.837614e+01 5.090554e+01 4.165859e+01 3.522969e+01 5.952871e+01 3.421948e+01 2.629901e+01 4.788821e-01 5.700916e+00 2.481939e+00 4.921221e+00 4.411166e+00 7.491387e+00 3.827022e+00 3.550386e+00 4.594340e+00 3.975544e+00 3.588749e+00 2.262909e+00 2.851588e+00 1.752890e-01 7.067512e-01 6.142952e-01 7.221999e-01 5.174224e-01 7.508605e-01 6.652594e-01 6.881055e-01 7.309587e-01 5.641502e-01 8.117533e-01 4.404142e-01 2.140807e-01
<GCONST> 1.282377e+02
<STATE> 3
<MEAN> 39
 8.802141e-02 -4.169094e+00 4.905710e+00 2.874465e-01 7.760350e+00 -1.863880e+01 -1.806409e+01 -9.325646e-01 -1.429180e+01 8.366455e-01 -8.145574e+00 -5.949651e+00 7.091292e+01 -7.813093e-01 -2.155253e+00 2.222427e+00 9.931602e-01 1.360374e+00 -4.581354e+00 -8.679411e-01 1.075330e+00 -5.483225e-01 5.638352e-01 -6.042967e-01 -9.311180e-01 1.605838e+00 -3.184992e-02 6.413182e-01 2.977538e-01 2.073694e-02 -6.576317e-01 5.249379e-01 2.370509e-01 1.169766e-01 1.904596e-01 -3.915214e-01 -2.337545e-01 3.295792e-01 -4.132013e-01
<VARIANCE> 39
 2.610395e+01 4.661602e+01 5.780408e+01 8.181532e+01 5.835680e+01 1.391067e+02 7.906904e+01 6.696720e+01 8.153516e+01 5.896125e+01 7.101204e+01 4.008540e+01 2.509990e+01 1.446781e+00 5.968588e+00 3.877571e+00 6.179734e+00 5.227307e+00 7.005486e+00 5.353870e+00 5.425331e+00 6.080098e+00 5.496891e+00 6.175832e+00 3.058080e+00 2.478219e+00 2.126576e-01 7.662442e-01 7.362770e-01 1.218556e+00 7.751049e-01 1.634771e+00 9.727717e-01 9.640381e-01 1.090414e+00 8.773817e-01 9.772033e-01 5.926858e-01 3.662930e-01
<GCONST> 1.407858e+02
<STATE> 4
<MEAN> 39
 -2.043669e+00 -3.501292e+00 1.319282e+01 4.369236e+00 5.559105e+00 -2.740839e+01 -1.954567e+01 2.704562e+00 -1.329894e+01 -1.110170e+00 -1.157977e+01 -5.807016e+00 7.115936e+01 4.883530e-02 8.355449e-01 -1.130353e-01 -2.103140e-01 -3.426031e-01 1.040386e+00 -1.837381e-01 -2.841120e-01 2.807704e-01 -1.917741e-01 2.620912e-01 1.645691e-01 -5.113266e-01 7.497317e-02 2.378835e-01 -3.311598e-01 -1.551599e-01 -9.744488e-02 6.752341e-01 1.442820e-01 -2.309864e-01 9.549178e-02 1.482300e-02 1.276100e-01 5.791308e-02 -1.895783e-01
<VARIANCE> 39
 1.156178e+01 4.613426e+01 5.747420e+01 8.812955e+01 3.490008e+01 1.208647e+02 6.252537e+01 8.590211e+01 5.140343e+01 5.140328e+01 6.556531e+01 3.278217e+01 2.406867e+01 6.641878e-01 1.887354e+00 3.537674e+00 2.930010e+00 1.844447e+00 6.320518e+00 2.939396e+00 3.292029e+00 2.788227e+00 2.851232e+00 2.614195e+00 1.709750e+00 9.361998e-01 1.135049e-01 3.530125e-01 4.221499e-01 4.523655e-01 4.282604e-01 8.275594e-01 5.611355e-01 5.557512e-01 5.601156e-01 5.292832e-01 5.321590e-01 3.564731e-01 1.407116e-01
<GCONST> 1.210359e+02
<TRANSP> 5
 0.000000e+00 1.000000e+00 0.000000e+00 0.000000e+00 0.000000e+00
 0.000000e+00 4.691946e-01 5.308054e-01 0.000000e+00 0.000000e+00
 0.000000e+00 0.000000e+00 6.570191e-01 3.429809e-01 0.000000e+00
 0.000000e+00 0.000000e+00 0.000000e+00 8.661972e-01 1.338029e-01
 0.000000e+00 0.000000e+00 0.000000e+00 0.000000e+00 0.000000e+00
<ENDHMM>
~h "j"
<BEGINHMM>
<NUMSTATES> 5
<STATE> 2
<MEAN> 39
 -7.490501e+00 3.102255e+00 1.136865e+01 -1.981467e+00 -1.991549e+00 -3.193673e+00 -8.989326e+00 -2.172888e+00 -9.566601e+00 -1.819892e+00 -5.261203e+00 -3.475569e+00 6.271689e+01 -1.922747e+00 -2.862724e+00 2.698499e+00 -2.054567e+00 1.042317e+00 -9.439953e-01 1.097385e+00 -5.434951e-01 2.160088e-01 -6.320074e-03 -1.212732e-01 -3.655547e-01 2.394313e+00 4.637276e-02 -4.413400e-01 1.562081e-01 -1.356526e-01 3.119599e-01 -6.059992e-01 -4.809072e-01 -3.435772e-01 -2.142413e-01 2.790151e-02 -6.239697e-02 -6.061007e-02 4.657513e-01
<VARIANCE> 39
 5.825021e+01 1.275126e+02 7.210632e+01 1.440245e+02 5.107099e+01 4.309550e+01 6.003021e+01 5.507817e+01 3.699543e+01 3.444914e+01 2.929157e+01 2.670782e+01 6.196280e+01 5.981958e+00 1.344816e+01 6.054546e+00 9.979106e+00 4.804808e+00 6.901760e+00 5.599680e+00 6.196950e+00 4.861355e+00 3.174808e+00 3.770514e+00 2.547846e+00 6.151512e+00 1.454409e+00 3.032324e+00 1.533546e+00 2.681075e+00 9.098080e-01 1.190071e+00 1.622110e+00 1.223961e+00 8.675494e-01 6.452094e-01 6.556903e-01 5.251832e-01 1.232611e+00
<GCONST> 1.481562e+02
<STATE> 3
<MEAN> 39
 -1.182516e+01 -8.510507e+00 2.116598e+01 -7.191081e+00 4.639551e+00 -1.193212e+01 -1.252087e+01 -9.600559e+00 -1.099832e+01 -2.202199e+00 -5.895916e+00 -5.149264e+00 7.397288e+01 3.539845e+00 2.100439e-01 -2.085355e+00 1.544495e+00 8.014973e-01 -2.172740e+00 -3.573066e+00 -1.644641e+00 -2.197330e+00 2.588013e-01 -3.878828e-01 1.670144e-01 9.074785e-01 1.057802e+00 6.929327e-01 -1.633390e+00 8.894111e-02 -4.166020e-01 2.921738e-01 1.459259e-01 5.432763e-01 -2.379622e-01 1.546916e-01 2.722393e-01 3.320816e-01 -4.707715e-01
<VARIANCE> 39
 7.847417e+01 4.235549e+01 4.340847e+01 8.175604e+01 2.804308e+01 5.049253e+01 1.285123e+02 6.322985e+01 8.255347e+01 3.238255e+01 4.151207e+01 2.474588e+01 9.634030e+00 6.819064e+00 5.141998e+00 8.816334e+00 4.808767e+00 3.325729e+00 7.206784e+00 7.879510e+00 5.412549e+00 5.598966e+00 3.674948e+00 3.324046e+00 2.641144e+00 1.283570e+00 2.196362e+00 1.160667e+00 1.192447e+00 2.123943e+00 5.579150e-01 9.851319e-01 2.621066e+00 1.018115e+00 1.630374e+00 7.265180e-01 7.408361e-01 3.773731e-01 3.667695e-01
<GCONST> 1.411299e+02
<STATE> 4
<MEAN> 39
 1.574211e+00 -9.462953e+00 5.784701e+00 -8.427144e+00 5.205604e+00 -1.891336e+01 -1.683087e+01 -9.866595e+00 -1.710479e+01 3.931094e+00 -5.512747e+00 -2.237312e+00 7.764469e+01 1.226600e+00 4.325556e-02 -2.726533e+00 -1.794555e+00 -2.437366e-01 3.202220e-01 1.164849e+00 1.139763e+00 -3.943293e-02 4.235204e-01 1.200044e+00 1.008690e+00 3.359641e-01 -5.668885e-01 1.908411e-01 4.853514e-01 -1.661827e-01 -2.310841e-01 6.643608e-01 5.877223e-01 5.132860e-01 1.915438e-01 -3.946014e-01 4.994527e-02 -1.919481e-02 -3.221132e-01
<VARIANCE> 39
 5.479908e+00 1.923439e+01 2.795217e+01 4.141566e+01 1.777448e+01 5.920212e+01 1.308905e+02 3.953390e+01 4.401807e+01 5.598573e+01 2.988048e+01 2.071551e+01 7.727978e+00 1.386511e+00 1.166796e+00 2.384699e+00 2.107255e+00 1.548558e+00 4.550447e+00 2.881898e+00 3.024448e+00 3.837613e+00 3.850356e+00 1.886931e+00 1.459729e+00 6.208824e-01 4.353542e-01 2.702232e-01 3.877378e-01 7.271888e-01 2.839352e-01 7.194565e-01 1.154773e+00 4.985442e-01 9.929404e-01 5.842937e-01 5.466919e-01 3.111251e-01 8.713168e-02
<GCONST> 1.143221e+02
<TRANSP> 5
 0.000000e+00 1.000000e+00 0.000000e+00 0.000000e+00 0.000000e+00
 0.000000e+00 8.103080e-01 1.896921e-01 0.000000e+00 0.000000e+00
 0.000000e+00 0.000000e+00 7.214937e-01 2.785062e-01 0.000000e+00
 0.000000e+00 0.000000e+00 0.000000e+00 7.551166e-01 2.448835e-01
 0.000000e+00 0.000000e+00 0.000000e+00 0.000000e+00 0.000000e+00
<ENDHMM>
~h "k"
<BEGINHMM>
<NUMSTATES> 5
<STATE> 2
<MEAN> 39
 -7.714211e+00 -2.122675e+00 -1.445446e+00 -1.143488e+01 -8.225375e+00 3.782219e-01 -3.376574e+00 -2.245986e+00 -1.071786e+01 3.092593e-02 -9.109889e-01 3.258502e+00 6.111432e+01 4.233197e-01 -1.177309e+00 1.543152e-01 -1.893989e+00 2.203028e-01 -3.262331e-01 7.038315e-01 -5.485113e-01 -3.955746e-01 5.117467e-02 -4.391540e-01 -1.494526e-02 1.633501e+00 6.430728e-01 2.636535e-03 -1.674444e-01 2.289364e-01 -6.054830e-02 -4.058344e-01 -3.117276e-01 1.328287e-01 -4.326924e-02 -2.518304e-02 -1.213586e-01 -2.272596e-01 3.526793e-01
<VARIANCE> 39
 2.127860e+01 7.658685e+01 2.949510e+01 1.501481e+02 6.065022e+01 4.269743e+01 8.762922e+01 6.661961e+01 4.097643e+01 3.586738e+01 2.539690e+01 3.008829e+01 7.265599e+01 5.730241e+00 8.931628e+00 3.896750e+00 1.569776e+01 5.398129e+00 7.370797e+00 9.977437e+00 6.248720e+00 5.577951e+00 3.738474e+00 3.064417e+00 3.730985e+00 9.899178e+00 5.150279e-01 1.896826e+00 9.867123e-01 3.712385e+00 1.189686e+00 1.166315e+00 2.211292e+00 1.492907e+00 9.758947e-01 8.260239e-01 6.349421e-01 7.386822e-01 1.604299e+00
<GCONST> 1.481465e+02
<STATE> 3
<MEAN> 39
 5.698697e+00 -6.556888e+00 -4.511571e+00 -1.540694e+01 -9.533741e+00 -5.871387e+00 -9.030860e+00 -2.711029e+00 -1.087839e+01 5.960058e-01 -4.385847e+00 -1.273324e+00 7.315524e+01 2.110039e+00 -6.649854e-01 -1.522960e+00 1.067112e+00 -4.396192e-01 -1.052836e+00 -1.113390e+00 6.751672e-01 7.729630e-01 5.372393e-01 4.749942e-01 -8.957050e-01 1.002781e+00 -8.596711e-01 -1.182201e-01 1.564369e-01 -3.414182e-01 2.586553e-01 2.784239e-01 6.464643e-01 4.929610e-02 5.258872e-02 -5.539231e-02 2.416943e-01 4.310511e-01 -3.276004e-01
<VARIANCE> 39
 1.514646e+01 4.642268e+01 3.885203e+01 5.594455e+01 6.469894e+01 1.220577e+02 1.117234e+02 5.923439e+01 8.185230e+01 4.350900e+01 6.426433e+01 3.941818e+01 2.098670e+01 4.739488e+00 2.862711e+00 3.481624e+00 5.459019e+00 3.718384e+00 7.391151e+00 9.468510e+00 7.062524e+00 3.783843e+00 4.077938e+00 5.107585e+00 3.757588e+00 1.422429e+00 4.785278e-01 5.168154e-01 7.035450e-01 7.174157e-01 5.325813e-01 1.136472e+00 9.877586e-01 7.853901e-01 7.062706e-01 5.160174e-01 7.218940e-01 6.091059e-01 2.503043e-01
<GCONST> 1.358068e+02
<STATE> 4
<MEAN> 39
 6.836506e+00 -7.532577e+00 -9.512470e+00 -1.405980e+01 -8.880244e+00 -4.098333e+00 -5.016746e+00 -1.398234e+00 -5.447656e+00 8.554769e-01 -2.312530e+00 1.294376e+00 7.313688e+01 -1.891501e-01 3.299089e-01 8.444451e-02 -1.554928e-01 3.975123e-01 -3.942949e-01 2.668813e-01 4.742435e-01 5.695456e-02 -2.929784e-01 -1.398606e-01 1.962728e-01 -6.569488e-02 -2.093961e-01 2.904370e-01 2.360846e-01 -2.147624e-02 1.338870e-01 1.252577e-01 -1.319042e-01 -1.815962e-02 -2.518872e-01 -8.911876e-02 -1.116049e-01 4.347505e-02 -2.384918e-01
<VARIANCE> 39
 1.395996e+01 3.936182e+01 4.555929e+01 6.480818e+01 6.162109e+01 1.187837e+02 1.086326e+02 7.264834e+01 9.194530e+01 4.520757e+01 5.801457e+01 4.431139e+01 3.017532e+01 4.549143e-01 9.015348e-01 1.343671e+00 1.235612e+00 1.538198e+00 2.219486e+00 2.244677e+00 1.986130e+00 2.186749e+00 2.113638e+00 1.642495e+00 1.846668e+00 4.512083e-01 1.460682e-01 2.313450e-01 2.506434e-01 2.568524e-01 1.912145e-01 4.554518e-01 5.162926e-01 3.921225e-01 3.898552e-01 3.463607e-01 3.363136e-01 2.714269e-01 9.360828e-02
<GCONST> 1.106896e+02
<TRANSP> 5
 0.000000e+00 1.000000e+00 0.000000e+00 0.000000e+00 0.000000e+00
 0.000000e+00 8.481378e-01 1.518622e-01 0.000000e+00 0.000000e+00
 0.000000e+00 0.000000e+00 6.795354e-01 3.204646e-01 0.000000e+00
 0.000000e+00 0.000000e+00 0.000000e+00 7.245487e-01 2.754513e-01
 0.000000e+00 0.000000e+00 0.000000e+00 0.000000e+00 0.000000e+00
<ENDHMM>
~h "l"
<BEGINHMM>
<NUMSTATES> 5
<STATE> 2
<MEAN> 39
 3.438409e+00 -1.988805e+00 -3.810323e-01 -7.510054e+00 -1.572060e+00 -7.321223e+00 -1.156748e+01 3.709612e-01 -1.771220e+01 -6.333485e+00 -2.158544e+00 6.611661e-01 6.984505e+01 4.618643e-01 -6.623341e-01 -8.758994e-01 -1.009088e+00 4.374245e-01 -6.852379e-01 2.609293e-01 -1.014320e-02 5.147325e-01 5.311032e-01 6.021585e-01 2.745003e-01 9.114419e-01 -3.778296e-02 -1.388057e-02 -1.245061e-02 4.878831e-03 7.297108e-03 -1.189734e-01 6.607968e-02 -3.087311e-02 2.329233e-01 1.970163e-01 -1.300706e-02 -2.511994e-02 1.708434e-02
<VARIANCE> 39
 2.936111e+01 4.355269e+01 6.280873e+01 7.139711e+01 8.215341e+01 7.277807e+01 9.970276e+01 7.352426e+01 1.159866e+02 7.231775e+01 8.010359e+01 4.424148e+01 3.770100e+01 1.995270e+00 3.015399e+00 3.883782e+00 4.167407e+00 4.217505e+00 5.924572e+00 3.767660e+00 5.181543e+00 8.412981e+00 4.637496e+00 3.529387e+00 3.461639e+00 2.547574e+00 3.477786e-01 4.771063e-01 6.931847e-01 7.273074e-01 7.140015e-01 9.276634e-01 6.191355e-01 8.039213e-01 1.280509e+00 7.036083e-01 7.133535e-01 6.223105e-01 4.044364e-01
<GCONST> 1.381304e+02
<STATE> 3
<MEAN> 39
 3.795417e+00 -4.128301e+00 2.767038e-01 -1.700100e+01 4.860971e+00 -9.890392e+00 -1.758230e+01 1.290045e+00 -1.225442e+01 -4.497659e+00 -4.883227e+00 5.982676e+00 7.461024e+01 -7.361385e-02 -5.152951e-01 -5.573284e-02 -4.405775e-01 -6.247225e-01 6.557488e-02 6.889807e-01 -1.361814e-01 7.524340e-01 6.998551e-01 3.133570e-01 -6.323432e-03 2.879354e-01 9.691309e-03 1.053164e-01 4.114155e-02 2.189281e-01 -1.367676e-01 1.102671e-01 -1.062676e-03 -7.949384e-02 -1.324572e-01 -9.247207e-02 -6.245165e-02 -1.632888e-01 -1.161086e-01
<VARIANCE> 39
 6.738136e+00 3.059227e+01 2.386240e+01 8.014870e+01 6.604372e+01 6.589310e+01 8.238008e+01 5.155716e+01 6.403802e+01 4.699586e+01 6.956902e+01 4.159894e+01 2.053597e+01 1.769341e-01 9.994547e-01 8.207811e-01 2.361867e+00 1.316195e+00 2.486106e+00 2.274224e+00 1.902261e+00 2.479301e+00 2.227106e+00 2.749131e+00 2.124381e+00 4.676133e-01 4.011486e-02 1.527802e-01 1.980605e-01 4.541624e-01 2.804951e-01 4.980089e-01 3.716607e-01 3.431555e-01 5.590199e-01 4.269353e-01 5.320215e-01 3.302518e-01 8.748832e-02
<GCONST> 1.074505e+02
<STATE> 4
<MEAN> 39
 4.999663e+00 -4.277522e+00 -4.103093e+00 -1.122279e+01 -3.696901e+00 -1.415868e+01 -4.271149e+00 2.080564e+00 -1.473561e+01 -9.317300e-01 -2.856689e+00 2.323898e-02 7.341011e+01 -7.403642e-02 1.301814e-01 -8.147317e-02 2.221966e-01 -2.749861e-01 1.401946e-01 6.666010e-02 -5.653991e-01 3.268272e-01 3.324045e-01 -6.021482e-02 -1.922447e-01 -1.846720e-01 -4.076763e-02 1.034241e-01 1.064840e-01 4.243439e-02 3.808774e-02 1.688847e-02 -1.719556e-01 -1.229630e-02 -6.388748e-02 -8.224986e-02 -2.290730e-02 -1.859996e-02 -7.734820e-02
<VARIANCE> 39
 9.223677e+00 3.697972e+01 2.849578e+01 5.766391e+01 7.250930e+01 8.578468e+01 1.126177e+02 7.902025e+01 1.092746e+02 7.103561e+01 5.452660e+01 3.239203e+01 2.713474e+01 1.883155e-01 7.504483e-01 6.276529e-01 9.009199e-01 1.221537e+00 1.383268e+00 1.541738e+00 2.004132e+00 1.806507e+00 1.531257e+00 1.141952e+00 1.108088e+00 2.708677e-01 2.716475e-02 1.045038e-01 1.007167e-01 1.541597e-01 1.801238e-01 2.262869e-01 2.424505e-01 2.703761e-01 2.863068e-01 2.793179e-01 1.958058e-01 2.040666e-01 3.705419e-02
<GCONST> 9.655409e+01
<TRANSP> 5
 0.000000e+00 1.000000e+00 0.000000e+00 0.000000e+00 0.000000e+00
 0.000000e+00 7.418984e-01 2.581016e-01 0.000000e+00 0.000000e+00
 0.000000e+00 0.000000e+00 7.135912e-01 2.864088e-01 0.000000e+00
 0.000000e+00 0.000000e+00 0.000000e+00 8.150987e-01 1.849013e-01
 0.000000e+00 0.000000e+00 0.000000e+00 0.000000e+00 0.000000e+00
<ENDHMM>
~h "m"
<BEGINHMM>
<NUMSTATES> 5
<STATE> 2
<MEAN> 39
 3.336328e+00 7.144868e+00 1.304045e+00 -3.118340e+00 1.005077e+00 -4.327320e+00 -1.293354e+01 1.040027e+00 -1.786913e+01 -7.139114e+00 -1.320377e+01 -4.968377e+00 6.424427e+01 -8.142241e-02 7.099524e-01 3.941871e-01 8.195903e-01 3.170530e-02 3.984777e-01 -4.984618e-01 -1.616397e-01 3.322430e-01 -4.939913e-02 -3.824474e-01 -9.444037e-02 -5.631406e-01 -1.566781e-02 -2.631721e-01 -4.630453e-02 -2.524283e-01 -2.139724e-01 -2.649832e-01 1.486307e-01 -6.610760e-03 8.170158e-02 1.239901e-01 2.901481e-01 1.732420e-01 1.959101e-01
<VARIANCE> 39
 8.148649e+00 1.673264e+01 1.495051e+01 5.780069e+01 6.960710e+01 4.083986e+01 4.312343e+01 5.535739e+01 4.462111e+01 2.504120e+01 4.067742e+01 2.552151e+01 8.884450e+00 5.715222e-01 1.114342e+00 9.319281e-01 2.197577e+00 2.382166e+00 2.649429e+00 1.995704e+00 2.265229e+00 2.134301e+00 2.740570e+00 2.015261e+00 1.490835e+00 6.607372e-01 5.477063e-02 2.131070e-01 1.549305e-01 3.866289e-01 3.597989e-01 3.962970e-01 3.447354e-01 4.102558e-01 3.652136e-01 3.963731e-01 3.259365e-01 2.643610e-01 1.040590e-01
<GCONST> 1.034851e+02
<STATE> 3
<MEAN> 39
 2.235145e+00 8.094017e+00 2.594778e+00 -3.619843e+00 9.026184e-01 -2.972416e+00 -1.501412e+01 1.262913e+00 -1.487842e+01 -6.364922e+00 -1.093274e+01 -2.730495e+00 6.319522e+01 2.471143e-01 -8.470555e-03 -3.964192e-02 1.581215e-01 -8.053522e-01 -6.980734e-02 3.383608e-01 -2.078659e-01 4.037245e-01 2.422672e-01 2.478864e-01 5.132774e-02 9.190091e-02 -2.431017e-01 -5.193177e-01 -6.760207e-03 -3.395630e-01 -1.874563e-01 -2.682171e-02 4.933986e-01 8.673448e-02 1.316589e-01 1.923910e-01 3.607187e-01 1.898777e-01 1.842975e-01
<VARIANCE> 39
 1.818506e+01 3.508327e+01 3.197637e+01 8.897680e+01 6.476817e+01 5.274894e+01 5.150094e+01 6.392537e+01 5.302423e+01 3.922660e+01 4.003007e+01 3.216963e+01 1.907164e+01 2.327208e+00 2.621196e+00 3.311771e+00 4.710126e+00 3.247706e+00 3.169796e+00 4.368815e+00 3.731263e+00 3.320034e+00 3.195980e+00 3.343540e+00 2.312009e+00 1.929328e+00 2.808431e-01 6.153800e-01 7.388132e-01 6.510413e-01 7.602470e-01 7.316195e-01 8.496532e-01 8.024331e-01 6.328397e-01 7.450447e-01 6.396984e-01 4.063298e-01 2.341696e-01
<GCONST> 1.278082e+02
<STATE> 4
<MEAN> 39
 1.940406e+00 8.783178e+00 2.407400e+00 -3.776031e-01 -2.353818e+00 -3.150671e+00 -1.317264e+01 -9.286995e-01 -1.295325e+01 -4.570424e+00 -1.002111e+01 -3.565550e+00 6.174405e+01 -4.997322e-01 -6.143178e-01 1.662701e-01 -6.477513e-01 -7.295238e-01 8.549078e-02 1.086735e+00 7.742494e-02 3.889786e-01 3.816266e-01 9.630410e-01 5.586029e-01 1.392083e-01 -2.272118e-01 -6.142097e-01 1.803034e-03 -5.000493e-01 1.833766e-01 -9.171789e-02 2.492666e-01 1.655040e-01 -7.404718e-02 -2.741937e-02 2.891789e-01 1.627773e-01 3.393448e-01
<VARIANCE> 39
 2.291812e+01 2.801911e+01 3.076413e+01 5.592181e+01 4.245861e+01 4.075610e+01 3.635566e+01 4.927765e+01 4.182167e+01 3.218120e+01 4.251997e+01 2.565407e+01 1.577887e+01 2.130898e+00 3.148998e+00 4.209427e+00 5.928809e+00 3.759634e+00 3.839389e+00 3.830041e+00 5.292950e+00 3.495448e+00 2.713624e+00 3.040738e+00 2.064619e+00 2.143969e+00 4.121840e-01 6.556736e-01 5.987368e-01 7.045649e-01 4.687467e-01 7.156649e-01 7.042560e-01 6.686804e-01 5.999867e-01 5.733157e-01 5.950313e-01 3.615298e-01 3.212841e-01
<GCONST> 1.253906e+02
<TRANSP> 5
 0.000000e+00 1.000000e+00 0.000000e+00 0.000000e+00 0.000000e+00
 0.000000e+00 8.139628e-01 1.860372e-01 0.000000e+00 0.000000e+00
 0.000000e+00 0.000000e+00 3.009824e-01 6.990176e-01 0.000000e+00
 0.000000e+00 0.000000e+00 0.000000e+00 4.098378e-01 5.901622e-01
 0.000000e+00 0.000000e+00 0.000000e+00 0.000000e+00 0.000000e+00
<ENDHMM>
~h "n"
<BEGINHMM>
<NUMSTATES> 5
<STATE> 2
<MEAN> 39
 2.319427e+00 5.498798e+00 3.111305e+00 -1.301539e+00 6.837081e-01 -7.554482e+00 -1.846483e+01 -2.267143e+00 -1.375793e+01 -3.201703e+00 -5.975364e+00 -1.460303e+00 6.480001e+01 1.407573e-01 1.949264e+00 2.871861e-01 2.091746e+00 -8.091434e-01 1.143755e+00 -1.023697e+00 -3.142604e-01 4.756393e-01 -4.541314e-01 -8.416295e-01 -2.522184e-01 -1.645828e+00 -9.145371e-03 -4.798877e-01 -1.328215e-01 -5.305647e-01 -5.994235e-02 -4.219878e-01 3.852001e-01 5.080323e-02 1.300153e-01 7.955628e-02 1.309229e-01 3.924716e-02 4.427170e-01
<VARIANCE> 39
 1.028343e+01 1.873897e+01 2.636904e+01 7.126785e+01 4.904455e+01 6.616633e+01 5.093239e+01 4.657371e+01 5.300100e+01 3.502302e+01 3.368919e+01 3.198146e+01 1.066940e+01 5.144142e-01 1.564760e+00 1.889939e+00 3.358433e+00 2.843227e+00 3.858238e+00 4.436435e+00 4.139314e+00 3.240222e+00 3.286118e+00 3.309700e+00 2.683618e+00 9.481612e-01 5.511686e-02 1.949001e-01 2.256113e-01 4.830322e-01 4.160122e-01 4.068388e-01 4.367655e-01 5.161059e-01 3.952877e-01 4.189033e-01 4.528724e-01 2.812799e-01 8.583489e-02
<GCONST> 1.123116e+02
<STATE> 3
<MEAN> 39
 2.943200e+00 7.034862e+00 2.695211e+00 1.064177e+00 -2.280821e+00 -8.577533e+00 -1.927157e+01 -3.730229e+00 -1.367379e+01 -4.495191e+00 -8.379136e+00 -2.603085e+00 6.357872e+01 -1.194564e-01 6.528385e-01 2.443901e-01 8.616365e-02 -2.164425e-01 3.020988e-01 6.912517e-02 -9.398890e-02 7.886696e-02 -1.579595e-01 -1.336742e-01 -4.797494e-02 -4.116437e-01 -8.408848e-02 -1.192799e-01 5.143699e-02 -1.265032e-01 6.093337e-02 -1.083339e-02 2.340305e-01 3.932728e-02 -9.059267e-02 4.186523e-02 1.025285e-01 2.562323e-02 7.630000e-02
<VARIANCE> 39
 8.189490e+00 1.701552e+01 2.146728e+01 6.280706e+01 5.250795e+01 5.205894e+01 3.444821e+01 6.424764e+01 3.691253e+01 2.531911e+01 3.249477e+01 3.604760e+01 9.185652e+00 1.566967e-01 4.614717e-01 5.228167e-01 8.259689e-01 8.557249e-01 1.136539e+00 1.221768e+00 1.121550e+00 1.271806e+00 1.137582e+00 1.093950e+00 9.256780e-01 1.531484e-01 2.979168e-02 1.005300e-01 1.013503e-01 2.278862e-01 2.123457e-01 2.643350e-01 2.783284e-01 2.733850e-01 2.343292e-01 2.539653e-01 2.302621e-01 1.993067e-01 4.686514e-02
<GCONST> 8.688795e+01
<STATE> 4
<MEAN> 39
 -5.787451e-01 1.062113e+01 5.390815e+00 4.462096e+00 -1.679950e+00 -1.870515e+00 -1.470843e+01 -3.290482e+00 -1.108011e+01 -3.160671e+00 -5.349733e+00 -1.001375e+00 5.891507e+01 -6.999753e-01 -7.996611e-02 7.404000e-02 3.407288e-01 -1.278921e-02 6.459821e-01 9.410640e-01 2.779335e-01 2.225147e-01 2.725253e-01 1.786777e-01 1.085332e-02 -5.688233e-01 -1.248436e-01 -3.267156e-01 -1.257409e-01 -1.282745e-01 3.642774e-02 -4.573236e-02 1.459546e-01 1.125314e-01 1.341225e-01 1.452860e-01 8.569796e-02 5.231138e-02 7.148831e-02
<VARIANCE> 39
 1.725251e+01 1.253344e+01 1.943893e+01 4.037288e+01 2.916452e+01 4.141234e+01 3.405002e+01 3.230276e+01 3.392664e+01 2.379984e+01 2.682583e+01 2.125081e+01 1.127742e+01 4.088703e-01 1.048669e+00 1.046893e+00 1.079769e+00 1.264373e+00 1.428921e+00 1.481692e+00 1.584497e+00 1.608614e+00 1.369387e+00 1.244772e+00 1.007843e+00 2.001807e-01 6.844433e-02 1.780869e-01 1.437389e-01 2.554709e-01 2.633691e-01 2.990984e-01 2.986548e-01 2.655382e-01 2.941440e-01 2.453234e-01 2.355266e-01 1.946978e-01 6.634443e-02
<GCONST> 9.219835e+01
<TRANSP> 5
 0.000000e+00 1.000000e+00 0.000000e+00 0.000000e+00 0.000000e+00
 0.000000e+00 5.837421e-01 4.162579e-01 0.000000e+00 0.000000e+00
 0.000000e+00 0.000000e+00 7.420897e-01 2.579103e-01 0.000000e+00
 0.000000e+00 0.000000e+00 0.000000e+00 6.882436e-01 3.117564e-01
 0.000000e+00 0.000000e+00 0.000000e+00 0.000000e+00 0.000000e+00
<ENDHMM>
~h "o"
<BEGINHMM>
<NUMSTATES> 5
<STATE> 2
<MEAN> 39
 6.189284e+00 7.049522e+00 -9.172738e-01 -7.202473e+00 -9.742446e+00 -1.252419e+01 -1.119468e+01 1.100480e+01 -9.808537e+00 -4.333910e+00 -8.397584e+00 -3.795800e+00 6.574454e+01 -9.019410e-02 2.233891e-01 -1.886613e-01 1.586880e-01 1.187700e+00 5.275950e-01 -4.338599e-01 -3.992171e-01 1.262486e-01 -1.919954e-01 -2.720952e-01 5.704312e-01 -1.632555e-01 -6.393441e-02 -4.198608e-02 8.777563e-02 1.094143e-01 3.620442e-02 1.365439e-01 -7.037584e-02 -1.945710e-01 -7.522336e-02 4.542119e-02 7.369705e-02 -5.022080e-02 -3.374890e-02
<VARIANCE> 39
 5.195369e+00 2.357010e+01 2.101033e+01 6.021638e+01 8.116592e+01 1.128532e+02 4.889820e+01 6.204432e+01 5.929748e+01 4.119499e+01 3.063096e+01 2.897344e+01 1.033010e+01 4.576806e-01 1.799326e+00 1.996982e+00 5.552957e+00 4.356341e+00 3.490101e+00 3.636742e+00 6.365309e+00 4.352784e+00 2.727117e+00 2.596698e+00 2.075297e+00 9.091530e-01 1.113315e-01 2.916673e-01 3.984859e-01 9.832227e-01 7.737312e-01 6.594653e-01 7.686086e-01 1.319703e+00 6.716933e-01 6.553705e-01 5.305898e-01 4.487478e-01 1.415254e-01
<GCONST> 1.205970e+02
<STATE> 3
<MEAN> 39
 5.152907e+00 6.898875e+00 -1.221117e+00 -3.065855e+00 4.582660e-01 -5.232479e+00 -1.886821e+01 2.594613e-01 -1.204340e+01 -5.758691e+00 -7.698659e+00 -4.297138e-01 6.466407e+01 -5.586497e-01 8.845322e-02 1.849508e+00 3.015682e+00 -3.572290e-01 -9.040376e-01 -8.327330e-01 -1.041182e+00 6.406496e-01 6.738854e-01 2.230700e-01 -8.047110e-01 -5.196468e-01 -1.429709e-01 -4.714276e-01 3.449309e-01 -2.277901e-01 -1.912191e-01 -8.734980e-01 4.167043e-01 8.036612e-01 -1.390713e-01 -9.472076e-02 -1.000541e-01 -2.612505e-01 3.510855e-01
<VARIANCE> 39
 5.150254e+00 2.026891e+01 3.966693e+01 9.338502e+01 1.065531e+02 5.287408e+01 4.096142e+01 4.968591e+01 1.185246e+01 2.257701e+01 1.455783e+01 1.777915e+01 7.360741e+00 1.968920e-01 5.426932e+00 1.422420e+00 3.007372e+00 4.840170e+00 8.158925e+00 4.917599e+00 7.461611e+00 2.731001e+00 1.826234e+00 3.560950e+00 1.511950e+00 1.971184e+00 5.307029e-02 1.142257e+00 5.377057e-01 7.538643e-01 1.414396e+00 7.085387e-01 7.482002e-01 1.003953e+00 3.135013e-01 4.830888e-01 8.246374e-01 5.366182e-01 3.802442e-01
<GCONST> 1.190468e+02
<STATE> 4
<MEAN> 39
 1.804092e+00 -1.238236e+00 8.008498e+00 4.083972e+00 1.717049e+00 -1.821535e+01 -2.178826e+01 4.902483e+00 -1.110135e+01 -5.990613e+00 -6.538565e+00 -3.029220e+00 6.872703e+01 -7.259845e-01 -5.630756e-01 1.647331e+00 7.815244e-01 6.644471e-01 -1.695863e+00 -6.504453e-01 1.750163e-01 1.758425e-01 3.252970e-01 -2.897849e-01 1.756869e-01 3.175285e-01 1.339017e-01 7.546581e-01 -3.194913e-01 -4.169460e-01 -5.891436e-02 9.710998e-01 -1.222118e-01 -3.247769e-01 1.284867e-01 4.046506e-02 9.881098e-02 1.686523e-01 -3.791240e-01
<VARIANCE> 39
 8.480917e+00 6.434612e+01 2.621296e+01 1.434096e+02 9.036422e+01 1.749518e+02 1.151378e+02 5.168074e+01 8.265060e+00 3.145895e+01 3.683698e+01 1.315848e+01 1.006240e+01 3.296847e-01 8.248927e+00 3.028891e+00 2.491607e+00 2.647524e+00 8.214874e+00 3.598823e+00 2.046656e+00 9.437127e-01 2.676396e+00 3.552051e+00 1.930847e+00 2.515417e+00 3.260748e-02 9.669018e-01 2.763556e-01 4.307885e-01 2.064683e-01 1.115367e+00 7.826759e-01 3.853227e-01 1.493569e-01 3.111593e-01 5.271137e-01 2.317751e-01 2.550740e-01
<GCONST> 1.157068e+02
<TRANSP> 5
 0.000000e+00 1.000000e+00 0.000000e+00 0.000000e+00 0.000000e+00
 0.000000e+00 9.173545e-01 8.264553e-02 0.000000e+00 0.000000e+00
 0.000000e+00 0.000000e+00 7.010085e-01 2.989915e-01 0.000000e+00
 0.000000e+00 0.000000e+00 0.000000e+00 6.471404e-01 3.528596e-01
 0.000000e+00 0.000000e+00 0.000000e+00 0.000000e+00 0.000000e+00
<ENDHMM>
~h "p"
<BEGINHMM>
<NUMSTATES> 5
<STATE> 2
<MEAN> 39
 8.370041e-01 -1.852548e+00 -1.255989e+00 -2.544945e+00 -1.534546e+00 -8.182400e+00 -1.546555e+01 -5.584374e+00 -9.149297e+00 4.009353e+00 -4.181799e+00 -3.501513e+00 6.652711e+01 -2.924896e-01 3.741614e-01 1.329550e-02 7.854816e-01 -2.356154e-02 5.719727e-01 -7.647741e-02 -2.845194e-01 3.895991e-01 3.769062e-01 2.911577e-01 3.040422e-02 -6.419328e-01 -2.128220e-01 2.721345e-02 -3.993661e-02 -6.784184e-02 -5.692906e-02 7.391956e-03 1.330465e-01 8.433754e-02 -7.257327e-03 3.663566e-03 1.066788e-01 1.718964e-01 -1.753975e-01
<VARIANCE> 39
 5.019717e+01 6.408298e+01 4.593705e+01 6.936700e+01 6.172635e+01 1.210171e+02 8.780316e+01 6.879803e+01 7.625836e+01 5.684133e+01 4.018556e+01 3.062674e+01 5.661865e+01 4.141439e+00 4.157660e+00 2.528149e+00 4.798482e+00 3.074836e+00 8.223040e+00 4.608986e+00 4.420866e+00 5.058539e+00 3.451342e+00 3.503421e+00 3.585583e+00 6.473144e+00 4.798943e-01 5.686377e-01 4.706272e-01 5.438915e-01 4.365435e-01 1.074250e+00 7.149744e-01 6.477273e-01 7.859319e-01 4.752475e-01 4.988624e-01 5.765178e-01 5.518304e-01
<GCONST> 1.368016e+02
<STATE> 3
<MEAN> 39
 -1.124509e+00 6.913086e+00 -3.741060e-01 -1.478969e-01 -4.678006e+00 1.272830e-01 -1.053680e+01 -3.829477e-02 -7.327944e+00 -3.138883e-01 -2.702801e+00 -3.704178e-01 5.889124e+01 -2.118956e+00 5.380688e-01 1.049539e-01 1.153847e+00 -5.878510e-01 9.324605e-01 6.688174e-01 -7.977136e-01 7.626749e-01 9.740999e-01 1.039431e+00 1.175569e+00 -2.236800e+00 1.592610e-01 -6.623450e-01 -3.213636e-01 -8.827968e-01 -8.880015e-02 -7.171314e-01 -2.814191e-01 1.509750e-01 -3.955325e-01 -1.710775e-01 -1.072789e-01 -2.997697e-02 5.753124e-01
<VARIANCE> 39
 1.503019e+01 2.944596e+01 2.993988e+01 4.946272e+01 3.532681e+01 4.396420e+01 5.575063e+01 3.286483e+01 2.717164e+01 3.566928e+01 2.647667e+01 2.130201e+01 1.789216e+01 1.551566e+00 1.718874e+00 2.046870e+00 2.545142e+00 2.279340e+00 3.693493e+00 3.649564e+00 2.689343e+00 2.571426e+00 2.197261e+00 3.087030e+00 1.744504e+00 1.362191e+00 1.158604e-01 2.970999e-01 3.091591e-01 6.637802e-01 4.567844e-01 6.214266e-01 6.300403e-01 5.402152e-01 3.603857e-01 4.233389e-01 4.407078e-01 3.482341e-01 1.954632e-01
<GCONST> 1.141211e+02
<STATE> 4
<MEAN> 39
 -5.476379e+00 5.713394e+00 -3.087002e+00 -3.039601e+00 -9.524702e+00 -7.155222e-01 -8.656489e+00 7.109115e-01 -6.768080e+00 3.296403e-01 -1.692281e+00 1.967258e+00 5.525374e+01 -8.550091e-01 -5.369675e-01 -3.782077e-02 -1.555919e-01 -1.956624e-01 -8.221970e-02 -3.181458e-02 7.557614e-02 8.112205e-02 1.809337e-01 8.817121e-02 1.013468e-01 -4.323175e-01 3.697282e-01 -2.892930e-01 1.633837e-01 -3.593708e-01 2.180305e-01 -1.838910e-01 -1.347574e-01 1.907512e-01 -1.698660e-01 -2.068221e-01 -2.420500e-01 -2.360689e-01 6.047604e-01
<VARIANCE> 39
 1.257551e+01 1.214528e+01 2.553696e+01 4.854908e+01 3.808812e+01 2.562029e+01 2.976226e+01 2.288048e+01 1.751337e+01 1.700942e+01 1.582028e+01 2.039700e+01 1.238709e+01 4.987484e-01 9.588255e-01 1.034909e+00 1.606933e+00 1.640075e+00 1.361075e+00 1.647986e+00 1.776509e+00 1.381012e+00 1.096779e+00 1.333671e+00 1.569367e+00 4.940050e-01 2.034547e-01 3.496602e-01 3.126006e-01 5.833724e-01 4.316960e-01 4.594278e-01 4.193336e-01 4.919730e-01 3.839558e-01 3.238861e-01 3.544047e-01 3.544416e-01 3.018984e-01
<GCONST> 1.004244e+02
<TRANSP> 5
 0.000000e+00 1.000000e+00 0.000000e+00 0.000000e+00 0.000000e+00
 0.000000e+00 7.343780e-01 2.656219e-01 0.000000e+00 0.000000e+00
 0.000000e+00 0.000000e+00 3.604169e-01 6.395832e-01 0.000000e+00
 0.000000e+00 0.000000e+00 0.000000e+00 7.233963e-01 2.766037e-01
 0.000000e+00 0.000000e+00 0.000000e+00 0.000000e+00 0.000000e+00
<ENDHMM>
~h "r"
<BEGINHMM>
<NUMSTATES> 5
<STATE> 2
<MEAN> 39
 -8.486831e+00 -1.970227e+00 2.869545e+00 -6.359980e+00 -2.684560e+00 -1.383144e+00 -8.082927e+00 -2.617399e+00 -1.109510e+01 9.805360e-01 -1.964590e+00 1.858778e+00 6.114989e+01 1.004895e+00 -2.103029e-01 1.619878e-01 -1.284413e+00 6.420799e-01 -5.430285e-01 -4.347491e-01 -4.716735e-01 -3.494922e-01 4.167258e-02 -2.542619e-01 -6.845551e-02 1.446473e+00 6.654878e-01 1.738501e-01 -6.114957e-01 3.485768e-02 -1.273909e-01 -2.319307e-01 -4.102001e-01 1.776609e-01 8.314654e-02 -1.817009e-01 6.105643e-02 -1.066290e-01 1.862641e-01
<VARIANCE> 39
 5.366978e+01 6.456478e+01 1.047640e+02 1.012924e+02 8.543390e+01 6.360101e+01 8.051740e+01 5.589138e+01 6.093454e+01 4.268332e+01 4.650114e+01 2.498835e+01 6.425610e+01 8.205965e+00 8.538694e+00 1.021197e+01 8.271584e+00 6.752963e+00 8.665568e+00 9.753242e+00 5.447490e+00 7.750098e+00 4.779142e+00 4.799242e+00 3.253564e+00 7.081385e+00 7.770005e-01 1.440369e+00 1.753835e+00 1.593267e+00 1.176749e+00 1.012023e+00 1.931294e+00 1.091689e+00 1.478320e+00 9.248418e-01 9.413170e-01 6.383382e-01 7.739315e-01
<GCONST> 1.518476e+02
<STATE> 3
<MEAN> 39
 2.342934e+00 -2.093710e+00 -6.542896e-01 -1.071338e+01 -1.581101e+00 -6.137582e+00 -1.448055e+01 -1.485494e+00 -1.339445e+01 -1.848701e+00 -2.607492e+00 5.745057e-01 6.941908e+01 1.247648e+00 9.400281e-01 -1.249344e+00 4.727718e-01 3.038256e-01 4.921566e-01 -9.871112e-01 2.867116e-01 6.414270e-01 -3.393815e-01 2.365751e-01 8.061571e-02 -1.139999e-01 -4.202972e-01 -3.846201e-02 -1.057075e-01 2.631471e-01 -3.000270e-02 1.222205e-01 2.451732e-01 9.451718e-02 3.618342e-01 -1.453748e-02 5.115713e-02 1.253395e-01 -3.534794e-01
<VARIANCE> 39
 3.582535e+01 5.462151e+01 9.801387e+01 8.459630e+01 6.966745e+01 6.521432e+01 8.739746e+01 4.469743e+01 6.765931e+01 4.537604e+01 6.601167e+01 3.190878e+01 2.276020e+01 4.948193e+00 6.612726e+00 4.541616e+00 5.430280e+00 5.449635e+00 7.143914e+00 7.280276e+00 5.315951e+00 6.796116e+00 3.741963e+00 4.165832e+00 2.812895e+00 5.245325e+00 6.981080e-01 1.058681e+00 1.021959e+00 9.615803e-01 7.910636e-01 1.238767e+00 1.219657e+00 8.476439e-01 1.320272e+00 7.492746e-01 8.651558e-01 6.221490e-01 4.730208e-01
<GCONST> 1.434580e+02
<STATE> 4
<MEAN> 39
 -8.492621e-01 5.022260e+00 1.183726e+00 -2.300755e+00 -2.157683e+00 -4.353994e-01 -1.236337e+01 -2.857883e+00 -1.138931e+01 -9.083210e-01 -1.972392e+00 1.818952e+00 6.154465e+01 -2.940772e-01 1.777184e-01 -3.363072e-01 2.481434e-01 -1.105243e-01 1.955577e-01 2.010768e-01 1.821874e-01 8.014656e-01 -5.659274e-02 2.923937e-01 1.764765e-01 -3.770230e-01 -3.186849e-01 -1.017015e+00 5.111263e-01 -6.826550e-01 2.790250e-01 -6.242172e-01 1.524912e-01 -1.196861e-02 -1.835260e-01 -7.558092e-02 -1.919985e-01 -2.112409e-01 8.082352e-01
<VARIANCE> 39
 3.119317e+01 4.620830e+01 7.491716e+01 7.859928e+01 4.041274e+01 4.199445e+01 4.584179e+01 2.674810e+01 4.190388e+01 2.685967e+01 2.432203e+01 1.554735e+01 3.527162e+01 3.194002e+00 6.338029e+00 5.537164e+00 4.679490e+00 3.860918e+00 4.607415e+00 4.684095e+00 3.525041e+00 4.487051e+00 4.038820e+00 2.333033e+00 2.818393e+00 4.073027e+00 7.648473e-01 1.468368e+00 1.188812e+00 1.082341e+00 7.895290e-01 9.044200e-01 1.020380e+00 7.837680e-01 8.231945e-01 6.929473e-01 5.478326e-01 5.195339e-01 8.024090e-01
<GCONST> 1.346038e+02
<TRANSP> 5
 0.000000e+00 1.000000e+00 0.000000e+00 0.000000e+00 0.000000e+00
 0.000000e+00 6.122255e-01 3.877745e-01 0.000000e+00 0.000000e+00
 0.000000e+00 0.000000e+00 5.772565e-01 4.227435e-01 0.000000e+00
 0.000000e+00 0.000000e+00 0.000000e+00 5.575932e-01 4.424068e-01
 0.000000e+00 0.000000e+00 0.000000e+00 0.000000e+00 0.000000e+00
<ENDHMM>
~h "s"
<BEGINHMM>
<NUMSTATES> 5
<STATE> 2
<MEAN> 39
 -1.380177e+01 -6.091045e+00 1.574062e+01 -1.538513e+01 1.658507e+00 -4.051676e+00 -9.172832e+00 -6.690822e+00 -8.354151e+00 9.015207e-01 -4.853765e+00 2.734948e-01 6.898863e+01 -4.354176e+00 -1.645018e+00 3.378534e+00 -2.856971e+00 1.768399e+00 7.107179e-02 2.206857e+00 -8.428077e-01 2.335949e+00 -1.796552e-02 4.070983e-01 4.748272e-01 1.450220e+00 -1.398927e-01 5.135780e-02 -8.997722e-01 2.104308e-01 3.866548e-02 -5.468392e-01 3.593666e-01 9.481943e-02 2.576955e-01 -1.754793e-01 2.934966e-01 -1.327634e-01 1.019700e-01
<VARIANCE> 39
 1.029270e+02 4.357148e+01 7.863426e+01 9.487429e+01 4.727653e+01 9.329446e+01 8.547496e+01 6.087213e+01 8.440240e+01 5.274967e+01 3.826832e+01 3.242378e+01 4.603140e+01 3.225750e+00 3.597509e+00 7.836392e+00 6.943568e+00 4.027585e+00 9.857851e+00 7.826069e+00 4.827649e+00 6.539173e+00 3.634568e+00 4.032918e+00 2.728164e+00 2.451260e+00 1.146241e+00 7.190345e-01 1.402210e+00 1.632115e+00 8.017053e-01 1.222066e+00 1.656677e+00 9.617044e-01 1.274325e+00 6.737043e-01 5.860552e-01 5.158805e-01 3.189907e-01
<GCONST> 1.441185e+02
<STATE> 3
<MEAN> 39
 -2.771609e+01 -1.006022e+01 1.686065e+01 -1.955413e+01 7.307670e+00 -7.126173e+00 -2.004406e+00 -8.473428e+00 -5.165386e-03 -7.606487e-01 -1.233904e+00 -3.470762e-01 7.339373e+01 -1.232879e-01 -1.272974e-01 -4.853993e-01 3.225598e-01 -1.343197e-01 6.361248e-02 1.532886e-02 1.726303e-01 -9.992084e-02 1.200772e-01 1.372386e-01 1.196575e-01 -2.974700e-01 8.705992e-01 2.264542e-01 -2.249582e-01 2.847080e-01 -3.112982e-01 1.288462e-01 -4.022887e-01 1.222146e-01 -5.426838e-01 1.085696e-01 -1.485308e-01 7.842462e-02 -2.914181e-01
<VARIANCE> 39
 1.296007e+01 4.687794e+01 2.673088e+01 3.326604e+01 2.966579e+01 2.249486e+01 3.790552e+01 3.332880e+01 2.395274e+01 4.107346e+01 2.432707e+01 2.235482e+01 1.336248e+01 3.625445e+00 1.221004e+00 1.692550e+00 1.400409e+00 1.701990e+00 1.883726e+00 2.453939e+00 1.854565e+00 2.497620e+00 1.883566e+00 1.669976e+00 1.469705e+00 1.059219e+00 5.266762e-01 3.526322e-01 3.592007e-01 3.342200e-01 3.347938e-01 4.685353e-01 5.044894e-01 4.002780e-01 5.634540e-01 3.547950e-01 3.400041e-01 2.896028e-01 1.143025e-01
<GCONST> 1.084869e+02
<STATE> 4
<MEAN> 39
 -1.542283e+01 -5.539102e+00 1.114954e+01 -1.303862e+01 1.233336e+00 -3.616995e+00 -8.016625e+00 -4.811714e+00 -7.632777e+00 2.260314e+00 -2.860856e+00 2.349033e+00 6.513800e+01 3.722875e+00 1.922355e+00 -1.903520e+00 1.190657e+00 -1.359872e+00 8.481525e-02 -1.358696e+00 4.779711e-01 -1.757373e+00 -4.145651e-01 -5.709931e-01 -2.977913e-02 -7.498897e-01 1.484804e-01 7.106923e-02 -9.954612e-02 -2.254470e-01 -7.137801e-03 -2.631571e-01 1.575946e-01 -4.847258e-02 1.009964e-01 -2.915800e-01 -1.131211e-01 -1.193120e-01 4.568077e-01
<VARIANCE> 39
 6.575919e+01 7.507678e+01 5.211944e+01 5.546607e+01 4.067676e+01 5.302137e+01 5.774101e+01 4.841505e+01 4.759037e+01 4.649909e+01 3.004128e+01 2.205777e+01 4.087157e+01 6.536279e+00 5.648009e+00 3.456596e+00 4.103895e+00 3.916845e+00 5.959502e+00 5.046892e+00 4.306697e+00 6.864962e+00 4.440901e+00 3.859134e+00 2.539769e+00 3.864760e+00 6.873596e-01 1.189048e+00 6.042809e-01 6.757259e-01 5.914515e-01 9.683055e-01 8.779522e-01 7.724721e-01 8.595653e-01 6.693522e-01 6.930665e-01 4.689154e-01 4.332555e-01
<GCONST> 1.366574e+02
<TRANSP> 5
 0.000000e+00 1.000000e+00 0.000000e+00 0.000000e+00 0.000000e+00
 0.000000e+00 7.583204e-01 2.416796e-01 0.000000e+00 0.000000e+00
 0.000000e+00 0.000000e+00 8.696747e-01 1.303253e-01 0.000000e+00
 0.000000e+00 0.000000e+00 0.000000e+00 7.601765e-01 2.398235e-01
 0.000000e+00 0.000000e+00 0.000000e+00 0.000000e+00 0.000000e+00
<ENDHMM>
~h "t"
<BEGINHMM>
<NUMSTATES> 5
<STATE> 2
<MEAN> 39
 -2.676991e+00 -3.302243e-01 2.559869e+00 -9.692326e+00 -4.943063e+00 -5.495743e+00 -1.081376e+01 -1.346414e+00 -9.707118e+00 -2.297432e+00 -3.985087e+00 8.011242e-01 6.577145e+01 -1.107607e+00 7.951319e-01 6.654158e-01 7.526731e-01 1.786225e-01 8.279528e-01 9.397681e-02 3.062509e-01 2.964438e-01 1.057048e-02 3.612669e-01 -2.577934e-02 -1.268328e+00 4.511506e-02 -3.534455e-02 -3.785469e-01 1.934623e-01 -1.514968e-01 1.531745e-01 8.843809e-02 1.911595e-01 1.397934e-01 1.513042e-01 5.433631e-02 -8.128168e-02 -2.020848e-01
<VARIANCE> 39
 5.615794e+01 7.081706e+01 6.940977e+01 1.266773e+02 9.415486e+01 6.203700e+01 1.142923e+02 5.722638e+01 6.242941e+01 4.899942e+01 3.077864e+01 2.661336e+01 7.146929e+01 3.414637e+00 8.593588e+00 4.621348e+00 8.103014e+00 4.958769e+00 7.166537e+00 7.794354e+00 4.326847e+00 3.766200e+00 4.203248e+00 3.026740e+00 2.201851e+00 6.596359e+00 6.112273e-01 1.142880e+00 9.912682e-01 1.600796e+00 9.821146e-01 1.078051e+00 1.402601e+00 1.045391e+00 8.517069e-01 8.335194e-01 4.872202e-01 4.105417e-01 7.957113e-01
<GCONST> 1.445074e+02
<STATE> 3
<MEAN> 39
 -3.149825e+00 4.767261e+00 1.416513e+00 -2.769659e+00 -5.752333e+00 -2.427241e+00 -9.108153e+00 -7.585177e-01 -1.036105e+01 -8.533937e-01 -2.867556e+00 -2.479755e-02 5.987394e+01 -1.211928e+00 8.465960e-01 -8.862477e-01 1.497452e+00 -8.811278e-01 1.774545e+00 6.140188e-01 9.470469e-01 1.462899e+00 8.558017e-01 5.261251e-01 -4.822734e-02 -2.471340e+00 4.645577e-02 -9.741540e-01 -3.159086e-01 -7.480185e-01 -8.919771e-02 -5.307291e-01 -3.580822e-02 -1.354503e-01 4.008649e-02 1.094764e-01 -1.329850e-02 9.517631e-02 7.037657e-01
<VARIANCE> 39
 3.234206e+01 2.661731e+01 3.431953e+01 6.146696e+01 4.438306e+01 2.952461e+01 4.655588e+01 2.799317e+01 5.867410e+01 2.253898e+01 2.134999e+01 2.340351e+01 2.620297e+01 2.292207e+00 3.788421e+00 2.883702e+00 4.609678e+00 4.422088e+00 4.733250e+00 5.411975e+00 4.131574e+00 4.806865e+00 2.854531e+00 2.368629e+00 2.050195e+00 3.174998e+00 2.626463e-01 5.375419e-01 4.495827e-01 7.562888e-01 5.529217e-01 7.435670e-01 7.601689e-01 6.254634e-01 9.112971e-01 5.017951e-01 5.102038e-01 4.702198e-01 5.026225e-01
<GCONST> 1.257921e+02
<STATE> 4
<MEAN> 39
 -6.446801e+00 4.313180e+00 -3.220819e+00 -3.102796e+00 -9.237854e+00 -3.586342e-01 -7.971288e+00 1.163051e+00 -6.686664e+00 8.409678e-01 -1.031046e+00 1.341669e+00 5.523825e+01 -6.648299e-01 -1.540243e+00 6.341299e-02 -7.081437e-01 -9.557524e-02 -1.871633e-01 2.945270e-01 -3.703074e-01 -1.687249e-01 2.988561e-01 -1.594087e-01 9.730674e-02 5.060339e-01 2.592825e-01 -5.757000e-01 5.081428e-01 -6.105460e-01 2.679294e-01 -4.935208e-01 -3.293778e-02 -3.240703e-01 -4.951200e-01 -2.035399e-01 -2.782041e-01 -6.074870e-02 9.606320e-01
<VARIANCE> 39
 1.572338e+01 1.253366e+01 2.554867e+01 4.351881e+01 2.797300e+01 1.736225e+01 2.664938e+01 1.794403e+01 1.622024e+01 1.616432e+01 1.464216e+01 1.334173e+01 1.288157e+01 1.394934e+00 8.106560e+00 3.077935e+00 5.542254e+00 2.880988e+00 3.498039e+00 2.778199e+00 3.090165e+00 3.791877e+00 2.559778e+00 2.007078e+00 1.854883e+00 5.977499e+00 2.714131e-01 6.514387e-01 4.058630e-01 8.098849e-01 4.973927e-01 5.702932e-01 5.552759e-01 5.565494e-01 7.232026e-01 5.180959e-01 3.766346e-01 3.537658e-01 5.089196e-01
<GCONST> 1.158754e+02
<TRANSP> 5
 0.000000e+00 1.000000e+00 0.000000e+00 0.000000e+00 0.000000e+00
 0.000000e+00 5.904964e-01 4.095036e-01 0.000000e+00 0.000000e+00
 0.000000e+00 0.000000e+00 3.470897e-01 6.529104e-01 0.000000e+00
 0.000000e+00 0.000000e+00 0.000000e+00 7.296851e-01 2.703149e-01
 0.000000e+00 0.000000e+00 0.000000e+00 0.000000e+00 0.000000e+00
<ENDHMM>
~h "u"
<BEGINHMM>
<NUMSTATES> 5
<STATE> 2
<MEAN> 39
 -4.240632e+00 -5.034402e+00 6.180202e+00 -8.948927e+00 -3.433606e+00 -7.271793e+00 -1.028116e+01 -2.761925e+00 -1.568006e+01 -2.031960e+00 -6.085022e+00 -2.112008e+00 6.817533e+01 1.246547e+00 2.763681e-01 9.775015e-01 -1.379752e+00 -2.380352e-01 -1.593559e+00 -6.243420e-01 3.175679e-01 -1.461124e+00 -9.318015e-01 -8.992296e-01 -8.247845e-01 1.522751e+00 2.355101e-01 9.267612e-01 -7.713985e-02 3.079523e-01 -3.734667e-01 -1.627503e-01 -1.163596e-01 5.960525e-01 2.900140e-02 -1.886057e-01 6.876352e-02 -2.619180e-01 -4.846670e-01
<VARIANCE> 39
 6.683414e+01 1.144240e+02 7.004859e+01 8.570142e+01 7.374541e+01 1.039026e+02 1.057266e+02 7.029604e+01 1.067403e+02 6.875202e+01 4.789761e+01 3.984832e+01 4.950080e+01 5.306392e+00 1.229025e+01 5.100051e+00 1.009068e+01 6.450896e+00 9.608920e+00 9.453087e+00 7.135742e+00 9.700082e+00 5.117919e+00 4.300693e+00 3.854134e+00 6.368697e+00 8.293140e-01 2.285575e+00 8.011016e-01 1.483779e+00 9.698437e-01 1.646431e+00 1.628229e+00 1.191995e+00 1.251666e+00 9.703779e-01 8.671738e-01 6.350052e-01 9.363412e-01
<GCONST> 1.540306e+02
<STATE> 3
<MEAN> 39
 3.146842e+00 2.601892e+00 7.387615e+00 -1.421570e+01 -7.515018e+00 -1.177107e+01 -1.676873e+01 7.000697e+00 -1.953877e+01 -1.026646e+01 -6.672453e+00 -7.074842e+00 6.997253e+01 1.877313e-01 7.328427e-01 -7.475343e-02 6.622329e-01 -3.635480e-01 -5.072540e-02 3.210357e-01 7.225268e-01 -2.272256e-02 -2.942871e-02 -1.271756e-01 -5.034171e-01 -5.019609e-01 -3.071032e-01 -1.118797e-01 -1.340141e-01 4.235267e-01 1.936593e-01 4.458901e-01 2.969088e-01 -4.321520e-01 4.380369e-01 3.856826e-01 7.692301e-02 2.731713e-01 -2.670045e-01
<VARIANCE> 39
 7.921493e+00 5.661597e+01 4.448139e+01 9.009182e+01 1.141354e+02 6.259504e+01 1.244719e+02 7.206442e+01 9.005471e+01 6.839252e+01 5.452863e+01 4.777031e+01 1.462214e+01 1.032066e+00 4.651883e+00 2.212880e+00 5.055115e+00 6.261708e+00 6.614329e+00 7.282057e+00 8.199829e+00 5.566086e+00 5.317538e+00 3.869861e+00 4.013276e+00 1.716037e+00 1.838063e-01 7.208522e-01 3.745146e-01 6.962872e-01 9.027632e-01 8.493761e-01 9.837655e-01 1.168191e+00 9.242302e-01 9.193974e-01 7.363394e-01 6.502792e-01 2.110821e-01
<GCONST> 1.358488e+02
<STATE> 4
<MEAN> 39
 2.318566e+00 5.424398e+00 5.810024e+00 -5.809879e+00 -1.406030e+01 -1.553777e+01 -6.341981e+00 4.958724e+00 -2.168258e+01 -4.277088e+00 -8.524206e+00 -9.328115e+00 6.556331e+01 -3.068964e-01 3.808956e-01 -4.257312e-01 6.484741e-01 2.565466e-01 8.715511e-01 -1.746571e-01 -2.635278e-01 1.079562e+00 5.939811e-02 1.278469e-01 4.638146e-01 -7.320266e-01 -8.965573e-02 -1.831440e-01 -4.081781e-02 -5.037621e-02 1.646764e-01 1.542923e-01 -1.142467e-01 -1.117618e-01 1.310411e-01 -1.308930e-02 3.389654e-02 1.803648e-01 3.373887e-02
<VARIANCE> 39
 1.311319e+01 4.139359e+01 4.154775e+01 5.927137e+01 1.089570e+02 1.119543e+02 7.903577e+01 5.843488e+01 1.107085e+02 4.977668e+01 4.195298e+01 4.930865e+01 2.340544e+01 5.328907e-01 2.565923e+00 1.317385e+00 2.665986e+00 3.537307e+00 4.568104e+00 3.378741e+00 3.799988e+00 4.426248e+00 3.175179e+00 2.708521e+00 2.230906e+00 1.233122e+00 6.170709e-02 3.756834e-01 2.084284e-01 4.820679e-01 5.108389e-01 6.602417e-01 5.827559e-01 6.370949e-01 7.258227e-01 5.280892e-01 3.981750e-01 3.776834e-01 1.575932e-01
<GCONST> 1.217461e+02
<TRANSP> 5
 0.000000e+00 1.000000e+00 0.000000e+00 0.000000e+00 0.000000e+00
 0.000000e+00 6.981342e-01 3.018657e-01 0.000000e+00 0.000000e+00
 0.000000e+00 0.000000e+00 7.320449e-01 2.679550e-01 0.000000e+00
 0.000000e+00 0.000000e+00 0.000000e+00 7.909655e-01 2.090345e-01
 0.000000e+00 0.000000e+00 0.000000e+00 0.000000e+00 0.000000e+00
<ENDHMM>
~h "w"
<BEGINHMM>
<NUMSTATES> 5
<STATE> 2
<MEAN> 39
 1.898440e+00 -4.490378e-01 -4.065311e+00 -1.017449e+01 -1.800314e+01 -4.917902e+00 -5.707922e+00 6.068625e+00 -6.603106e+00 -6.223503e+00 -7.435109e-01 -1.599118e+00 6.560871e+01 1.777072e-01 3.320655e-01 -7.398988e-03 -1.751779e-01 -4.236569e-01 6.558718e-02 8.118861e-02 1.561307e-01 2.323825e-01 -1.363433e-01 -1.809120e-01 -2.111287e-01 -1.396324e-01 1.504924e-02 4.797199e-02 -2.941560e-02 -4.773531e-02 5.064070e-02 -3.530826e-02 2.744552e-02 -4.583079e-02 -5.603884e-02 1.553822e-01 4.647044e-02 4.841645e-02 -5.571462e-03
<VARIANCE> 39
 4.687901e+01 4.276097e+01 3.642335e+01 4.347270e+01 5.092564e+01 3.010961e+01 3.046330e+01 3.050983e+01 5.773961e+01 5.695763e+01 3.750315e+01 2.298998e+01 4.992356e+01 3.549685e+00 4.341293e+00 4.990860e+00 2.976585e+00 3.864642e+00 2.881804e+00 2.824193e+00 2.050662e+00 5.199073e+00 5.650102e+00 4.132555e+00 2.683557e+00 3.437384e+00 4.244691e-01 1.040212e+00 8.161806e-01 5.147590e-01 8.958096e-01 3.930789e-01 5.093035e-01 3.499981e-01 8.098959e-01 8.243746e-01 7.785150e-01 4.960479e-01 4.203828e-01
<GCONST> 1.295317e+02
<STATE> 3
<MEAN> 39
 -1.516077e+00 7.830688e+00 4.643059e-01 -4.335114e+00 -1.830235e+01 -6.552291e+00 -7.633466e+00 3.726049e-01 -8.562945e+00 -1.518171e+00 -2.667634e+00 -2.700180e+00 5.804137e+01 -1.066836e+00 2.429626e-01 -5.154848e-01 -2.082892e-01 8.192362e-01 1.273261e-01 -6.171086e-01 -1.530292e-01 1.763555e-01 4.076402e-01 -5.366871e-02 2.884489e-01 -9.935863e-01 3.800011e-02 -7.081791e-01 2.101979e-01 -3.032394e-01 1.184261e-01 3.795940e-02 3.095505e-01 1.067512e-01 1.211262e-01 2.068885e-02 -3.461205e-01 1.049313e-01 5.857136e-01
<VARIANCE> 39
 2.309704e+01 1.224823e+01 4.168079e+01 2.404214e+01 6.123524e+01 3.641031e+01 3.769291e+01 3.116625e+01 1.750533e+01 1.014782e+01 2.229371e+01 3.383635e+01 1.521409e+01 8.177898e-01 1.164136e+00 1.470178e+00 1.739674e+00 2.517049e+00 1.875613e+00 1.402722e+00 7.278590e-01 1.888640e+00 1.625856e+00 1.909865e+00 8.305903e-01 1.085780e+00 2.039324e-01 3.948424e-01 4.388322e-01 4.624199e-01 6.668199e-01 4.149281e-01 4.314240e-01 5.406774e-01 4.514077e-01 3.296538e-01 6.851347e-01 3.155816e-01 5.039026e-01
<GCONST> 1.066901e+02
<STATE> 4
<MEAN> 39
 -7.746941e+00 5.396986e+00 -3.500676e+00 -4.588315e+00 -1.289164e+01 -1.241416e+00 -4.907199e+00 3.780784e+00 -5.344708e+00 3.308614e-01 -3.367320e+00 2.442351e-01 5.357684e+01 -6.539609e-01 -5.279131e-01 4.370359e-01 2.369954e-01 6.655593e-01 1.914711e-01 -2.494143e-01 -2.592661e-01 -3.211704e-02 2.029687e-01 2.715470e-02 1.538303e-01 -6.631255e-02 1.640715e-01 -2.837918e-01 2.489602e-01 -1.039244e-01 4.830407e-02 -4.933434e-02 1.774273e-01 -4.411149e-02 -2.058706e-01 -9.789858e-02 -6.762344e-03 2.391249e-02 4.214964e-01
<VARIANCE> 39
 5.294223e+00 3.423783e+00 7.795792e+00 3.442421e+01 3.260533e+01 1.802851e+01 2.108966e+01 1.343219e+01 1.705902e+01 7.111397e+00 9.267205e+00 1.064728e+01 4.156822e+00 3.375779e-01 1.790435e+00 8.043622e-01 2.609916e+00 3.258392e+00 1.398944e+00 1.831327e+00 1.676471e+00 2.371932e+00 9.520416e-01 1.353351e+00 1.227854e+00 7.809963e-01 1.234281e-01 3.774048e-01 2.867133e-01 4.928899e-01 5.623556e-01 3.805126e-01 4.709023e-01 3.103418e-01 4.412228e-01 1.661790e-01 3.179126e-01 2.375265e-01 3.486442e-01
<GCONST> 9.221833e+01
<TRANSP> 5
 0.000000e+00 1.000000e+00 0.000000e+00 0.000000e+00 0.000000e+00
 0.000000e+00 8.305181e-01 1.694820e-01 0.000000e+00 0.000000e+00
 0.000000e+00 0.000000e+00 4.554994e-01 5.445006e-01 0.000000e+00
 0.000000e+00 0.000000e+00 0.000000e+00 7.879587e-01 2.120413e-01
 0.000000e+00 0.000000e+00 0.000000e+00 0.000000e+00 0.000000e+00
<ENDHMM>
~h "eu"
<BEGINHMM>
<NUMSTATES> 5
<STATE> 2
<MEAN> 39
 -2.048641e+00 2.947341e+00 4.670970e+00 -6.176479e+00 -3.472510e+00 -2.006894e+00 -8.114457e+00 -1.765268e+00 -1.325711e+01 -4.677562e+00 -6.095665e+00 -1.227011e-01 6.448956e+01 2.111969e+00 -1.775919e+00 -6.782999e-01 -2.179783e+00 4.575698e-01 -2.147647e+00 -9.478042e-01 2.839864e-01 -2.618854e+00 -1.026442e+00 2.490207e-01 4.323979e-01 2.858991e+00 1.036544e-01 -1.765994e-01 -2.526335e-01 -1.484498e-01 2.905965e-01 -5.962729e-01 -2.153790e-01 2.162960e-01 -2.724372e-01 -8.561763e-02 4.130854e-02 4.593934e-02 2.605759e-01
<VARIANCE> 39
 3.892020e+01 7.527229e+01 4.543097e+01 1.047769e+02 5.026733e+01 6.396538e+01 5.536010e+01 6.125389e+01 5.275925e+01 4.181847e+01 2.390760e+01 2.863745e+01 5.052244e+01 5.817752e+00 8.508217e+00 5.166045e+00 9.303032e+00 6.538397e+00 6.589100e+00 1.141953e+01 6.607975e+00 8.295098e+00 4.852215e+00 4.409489e+00 3.445503e+00 3.841580e+00 7.569503e-01 1.326780e+00 6.956046e-01 1.256426e+00 8.044033e-01 1.135656e+00 1.446303e+00 8.443215e-01 1.122074e+00 7.922411e-01 5.382775e-01 5.467649e-01 6.562976e-01
<GCONST> 1.443227e+02
<STATE> 3
<MEAN> 39
 3.318745e+00 -2.569881e+00 1.236347e+00 -1.417243e+01 -5.843756e-01 -1.116541e+01 -1.087817e+01 1.919263e-02 -2.052033e+01 -6.967969e+00 -5.399448e+00 1.623783e+00 7.317421e+01 1.187554e+00 -8.671938e-01 -9.980335e-01 -6.462575e-01 6.742889e-01 -1.459165e+00 -4.489406e-01 7.280559e-01 -1.375449e+00 -3.405702e-01 2.436106e-01 4.617694e-01 1.166429e+00 -7.356780e-01 5.403416e-01 4.567828e-01 9.457126e-01 3.122869e-02 8.439238e-01 2.103142e-01 -7.103993e-02 6.924223e-01 2.763358e-01 -9.599724e-02 -2.529535e-01 -9.069206e-01
<VARIANCE> 39
 1.248499e+01 2.981468e+01 3.533985e+01 8.200706e+01 6.946474e+01 6.445187e+01 1.423421e+02 7.729288e+01 9.627304e+01 5.552504e+01 4.025296e+01 4.671484e+01 1.515901e+01 2.696512e+00 5.087962e+00 3.436148e+00 5.877745e+00 4.971571e+00 6.878981e+00 9.163592e+00 5.832610e+00 6.230416e+00 4.483115e+00 3.874616e+00 3.162623e+00 3.232297e+00 6.287378e-01 8.298769e-01 6.416126e-01 9.952410e-01 8.132347e-01 1.006874e+00 1.583919e+00 1.189699e+00 1.417235e+00 8.138951e-01 7.142345e-01 5.975027e-01 3.131730e-01
<GCONST> 1.397319e+02
<STATE> 4
<MEAN> 39
 4.045454e+00 2.550487e-01 6.669126e-01 -1.070518e+01 -1.675752e+00 -1.128088e+01 -8.882069e+00 3.576264e+00 -2.176055e+01 -6.619197e+00 -5.430933e+00 4.967332e-01 7.044869e+01 3.222609e-02 4.496846e-01 1.187482e-01 7.474880e-01 1.012464e-01 1.973917e-01 -4.133850e-01 -3.074749e-02 3.608295e-01 1.016653e-01 -7.018559e-02 2.258347e-02 -3.901751e-01 -1.466032e-01 1.313091e-01 1.539521e-01 7.924397e-02 -5.312349e-02 2.198109e-01 -4.524377e-02 -1.603235e-01 2.820310e-01 3.246379e-02 -4.906285e-02 -5.964511e-03 -1.390091e-01
<VARIANCE> 39
 6.923484e+00 4.296313e+01 2.661975e+01 7.558141e+01 7.575784e+01 7.083969e+01 9.915396e+01 7.741168e+01 7.965724e+01 4.941899e+01 3.755416e+01 3.429618e+01 1.926521e+01 4.259877e-01 2.559842e+00 1.595014e+00 3.422289e+00 2.189123e+00 2.982823e+00 4.067968e+00 3.685772e+00 3.649573e+00 2.820562e+00 2.442655e+00 1.816517e+00 1.350884e+00 1.276698e-01 4.952380e-01 3.361661e-01 6.480579e-01 4.126281e-01 5.806383e-01 9.618000e-01 5.267437e-01 7.053921e-01 5.406347e-01 5.144292e-01 3.568690e-01 2.567817e-01
<GCONST> 1.209880e+02
<TRANSP> 5
 0.000000e+00 1.000000e+00 0.000000e+00 0.000000e+00 0.000000e+00
 0.000000e+00 4.599443e-01 5.400558e-01 0.000000e+00 0.000000e+00
 0.000000e+00 0.000000e+00 5.611426e-01 4.388574e-01 0.000000e+00
 0.000000e+00 0.000000e+00 0.000000e+00 7.799441e-01 2.200559e-01
 0.000000e+00 0.000000e+00 0.000000e+00 0.000000e+00 0.000000e+00
<ENDHMM>
~h "ng"
<BEGINHMM>
<NUMSTATES> 5
<STATE> 2
<MEAN> 39
 4.196485e+00 4.901907e+00 -6.514909e-01 -3.419769e+00 -2.619673e+00 -6.584882e+00 -1.533028e+01 9.941761e-01 -1.030144e+01 -5.720153e+00 -6.506176e+00 8.694612e-01 6.580897e+01 -9.493254e-01 -2.232644e-01 1.034599e+00 1.045480e+00 -5.328549e-01 1.637484e+00 9.337901e-01 -1.434528e+00 2.098175e-01 5.540647e-01 3.970817e-01 -8.141540e-02 -5.075960e-01 -2.047548e-01 -6.862149e-01 2.883807e-01 -6.022263e-01 -3.910330e-02 -1.531831e-01 6.655390e-01 -5.564545e-02 -4.334517e-01 1.675546e-01 1.999658e-01 -1.034689e-02 4.800159e-01
<VARIANCE> 39
 1.622481e+01 4.413004e+01 3.008258e+01 6.168975e+01 7.229195e+01 5.375401e+01 9.386726e+01 3.818657e+01 6.093759e+01 3.279976e+01 2.960787e+01 2.404612e+01 2.378325e+01 1.544889e+00 6.064062e+00 4.127353e+00 9.797253e+00 3.157007e+00 6.213055e+00 6.886613e+00 4.305082e+00 6.396829e+00 3.081439e+00 2.990695e+00 2.744548e+00 2.922530e+00 1.865049e-01 6.886492e-01 4.919767e-01 1.112277e+00 5.995646e-01 9.640727e-01 1.249430e+00 7.082909e-01 9.362858e-01 5.501702e-01 5.194984e-01 3.526618e-01 3.717018e-01
<GCONST> 1.313495e+02
<STATE> 3
<MEAN> 39
 -1.511622e+00 -1.966117e+00 5.853058e+00 -8.785262e+00 -4.027235e+00 -3.499571e+00 -8.546745e+00 -4.034108e+00 -1.084850e+01 -4.032403e+00 -4.030993e+00 1.653103e+00 6.916390e+01 -5.709102e-01 -1.485148e+00 7.314413e-01 -7.755589e-01 4.590945e-01 5.094299e-01 1.003484e+00 -1.447420e+00 -6.719185e-01 8.259261e-01 6.562625e-01 -1.592402e-01 9.481831e-01 3.481376e-01 4.612690e-01 -4.802324e-01 4.603070e-02 3.154591e-01 -5.872645e-01 -3.671511e-01 3.975448e-01 -2.836748e-01 1.420685e-01 -1.324443e-01 -2.273838e-01 -1.419383e-01
<VARIANCE> 39
 7.000307e+01 8.594247e+01 7.407014e+01 1.026114e+02 9.666423e+01 7.373746e+01 9.933566e+01 8.715261e+01 1.020205e+02 3.886094e+01 3.019496e+01 3.607176e+01 2.970151e+01 4.890481e+00 7.345611e+00 6.310043e+00 1.024931e+01 3.894457e+00 6.830023e+00 1.196637e+01 4.196352e+00 8.755593e+00 3.762284e+00 3.378336e+00 2.789613e+00 3.652099e+00 6.279498e-01 1.152550e+00 7.803085e-01 2.331344e+00 9.439619e-01 2.008683e+00 1.183285e+00 1.250183e+00 1.655138e+00 8.463016e-01 4.930068e-01 6.011502e-01 4.451630e-01
<GCONST> 1.475222e+02
<STATE> 4
<MEAN> 39
 1.966514e+00 -2.940209e+00 1.300907e+00 -8.033844e+00 -1.268224e+00 -8.183928e+00 -9.878397e+00 -6.386939e+00 -1.588266e+01 -6.304443e-01 -4.749413e+00 1.134328e+00 7.126571e+01 -5.226089e-01 6.873755e-01 6.652271e-01 4.924172e-01 3.007850e-01 3.440602e-01 1.336590e-01 -2.966242e-01 -2.694147e-01 4.132849e-01 -7.253668e-02 -2.836696e-01 -6.590259e-01 -1.509375e-01 3.459617e-01 9.933899e-02 -5.719925e-02 -2.005476e-01 2.555652e-01 1.258794e-01 2.848310e-01 2.270384e-01 -9.578049e-02 7.207899e-02 2.219719e-02 -3.014966e-01
<VARIANCE> 39
 1.968238e+01 7.000206e+01 4.061611e+01 7.486323e+01 6.144548e+01 5.811839e+01 7.718586e+01 4.919448e+01 6.192044e+01 2.992192e+01 2.658894e+01 2.753559e+01 2.946265e+01 2.096181e+00 4.144906e+00 5.083757e+00 5.651794e+00 4.297633e+00 6.509008e+00 6.294250e+00 3.330644e+00 5.855368e+00 3.111047e+00 2.252392e+00 2.592590e+00 2.722959e+00 3.233907e-01 7.353463e-01 7.847390e-01 1.081140e+00 6.527966e-01 1.381592e+00 1.163961e+00 7.319161e-01 1.381041e+00 5.921311e-01 4.970107e-01 5.809440e-01 3.618776e-01
<GCONST> 1.340901e+02
<TRANSP> 5
 0.000000e+00 1.000000e+00 0.000000e+00 0.000000e+00 0.000000e+00
 0.000000e+00 6.208052e-01 3.791948e-01 0.000000e+00 0.000000e+00
 0.000000e+00 0.000000e+00 3.937293e-01 6.062707e-01 0.000000e+00
 0.000000e+00 0.000000e+00 0.000000e+00 7.426121e-01 2.573879e-01
 0.000000e+00 0.000000e+00 0.000000e+00 0.000000e+00 0.000000e+00
<ENDHMM>
~h "sp"
<BEGINHMM>
<NUMSTATES> 3
<STATE> 2
~s "silst"
<TRANSP> 3
 0.000000e+00 2.373387e-01 7.626613e-01
 0.000000e+00 9.150917e-01 8.490824e-02
 0.000000e+00 0.000000e+00 0.000000e+00
<ENDHMM>
~h "wa"
<BEGINHMM>
<NUMSTATES> 5
<STATE> 2
<MEAN> 39
 -1.642025e+00 5.446597e+00 2.230083e+00 -8.768225e+00 -9.844155e+00 -7.946833e+00 -1.299073e+01 1.872365e+00 -1.135905e+01 -2.874133e+00 -5.973785e+00 -1.669923e+00 6.167885e+01 5.058597e-01 5.256592e-01 6.936206e-01 -5.468827e-01 -2.140795e-01 -1.008364e+00 -1.037826e+00 8.735577e-01 1.321409e-02 -6.463540e-01 -2.808965e-01 -4.768058e-01 4.434692e-01 1.591286e-01 4.977996e-02 -8.569285e-04 -2.594451e-02 6.445065e-02 8.132830e-02 -2.921826e-02 2.100354e-01 6.083759e-02 -2.765281e-01 -6.506179e-02 -3.170484e-02 1.037707e-01
<VARIANCE> 39
 3.964746e+01 8.008801e+01 3.221008e+01 5.285601e+01 6.676243e+01 9.662936e+01 6.069352e+01 2.939938e+01 3.948705e+01 2.821223e+01 3.004466e+01 2.920931e+01 3.870629e+01 4.348474e+00 1.216421e+01 1.849781e+00 3.295861e+00 7.629447e+00 8.805068e+00 3.035235e+00 3.836331e+00 2.191126e+00 3.590976e+00 3.661375e+00 2.367024e+00 2.753790e+00 6.974465e-01 2.645556e+00 4.028435e-01 6.826071e-01 1.851126e+00 2.068349e+00 5.989882e-01 6.448860e-01 4.845806e-01 4.299246e-01 5.964676e-01 4.139391e-01 4.858349e-01
<GCONST> 1.345850e+02
<STATE> 3
<MEAN> 39
 6.640352e+00 6.152990e+00 -1.817786e+00 -1.459618e+01 -1.591650e+00 -2.730042e+00 -1.900527e+01 3.252190e+00 -1.690728e+01 -1.304608e+01 -9.479704e+00 -3.520525e+00 6.787299e+01 8.976578e-03 -3.067802e-01 -3.058850e-01 -2.258865e-01 4.875550e-01 6.297336e-01 -6.119136e-02 3.307997e-01 -1.171669e-01 -6.763780e-01 -2.004634e-01 1.986259e-01 9.730041e-02 -1.335836e-01 5.837918e-02 1.559847e-01 1.655871e-01 -1.285413e-01 -9.097362e-03 2.499134e-01 -1.036603e-01 -5.079786e-02 2.237545e-01 1.665005e-01 3.883439e-02 -1.131865e-01
<VARIANCE> 39
 7.160478e+00 2.254425e+01 6.114664e+01 7.233306e+01 6.976098e+01 1.530444e+02 9.131017e+01 1.069021e+02 7.234193e+01 5.026439e+01 8.628236e+01 3.266652e+01 8.673040e+00 4.833072e-01 2.129487e+00 4.195905e+00 5.034403e+00 5.522365e+00 1.494234e+01 7.394993e+00 1.353907e+01 7.679720e+00 3.091598e+00 8.887596e+00 3.796753e+00 1.608850e+00 9.002927e-02 2.711242e-01 5.058483e-01 8.245319e-01 8.623113e-01 2.084687e+00 1.825863e+00 2.257546e+00 1.494437e+00 7.094238e-01 1.879082e+00 8.237595e-01 2.023570e-01
<GCONST> 1.374941e+02
<STATE> 4
<MEAN> 39
 3.240913e+00 4.451328e+00 4.500274e+00 -1.483414e+01 -8.081993e+00 -1.226232e+01 -1.340429e+01 8.873389e+00 -1.937343e+01 -1.316421e+01 -8.865527e+00 -5.112471e+00 6.862079e+01 -5.965458e-01 6.385238e-01 3.834881e-01 1.359302e+00 -2.218359e-01 1.238774e+00 1.097491e+00 -9.697630e-01 3.440967e-01 5.494155e-01 1.601549e-01 1.145472e-01 -9.894556e-01 -4.413540e-02 -6.455323e-02 -2.115433e-01 3.289430e-01 1.892270e-01 5.088595e-01 1.956361e-02 -5.164849e-01 1.693250e-01 2.617470e-01 1.353282e-01 1.985984e-01 -1.457821e-01
<VARIANCE> 39
 8.845489e+00 1.870180e+01 4.506170e+01 9.205882e+01 8.980022e+01 9.305280e+01 9.598904e+01 3.707817e+01 6.503811e+01 5.925054e+01 2.755420e+01 2.994556e+01 1.230156e+01 5.769458e-01 2.789949e+00 3.347734e+00 4.052783e+00 3.978228e+00 7.869046e+00 5.474298e+00 3.744519e+00 4.816042e+00 3.458063e+00 3.007553e+00 2.491729e+00 1.522966e+00 9.689372e-02 4.071725e-01 4.577347e-01 3.776116e-01 3.638822e-01 8.860595e-01 8.077219e-01 9.279713e-01 5.572605e-01 5.646703e-01 6.171430e-01 4.751754e-01 1.089788e-01
<GCONST> 1.235937e+02
<TRANSP> 5
 0.000000e+00 1.000000e+00 0.000000e+00 0.000000e+00 0.000000e+00
 0.000000e+00 7.728725e-01 2.271275e-01 0.000000e+00 0.000000e+00
 0.000000e+00 0.000000e+00 8.308190e-01 1.691810e-01 0.000000e+00
 0.000000e+00 0.000000e+00 0.000000e+00 7.136372e-01 2.863629e-01
 0.000000e+00 0.000000e+00 0.000000e+00 0.000000e+00 0.000000e+00
<ENDHMM>
~h "sil"
<BEGINHMM>
<NUMSTATES> 5
<STATE> 2
<MEAN> 39
 -1.276804e+01 5.692605e+00 -2.991730e+00 3.979085e+00 -9.044654e+00 1.804716e+00 -9.933967e+00 1.786890e+00 -5.303463e+00 1.449406e+00 -8.959168e-01 7.013240e-01 4.720654e+01 -2.596341e-02 2.893649e-02 -1.333880e-02 2.307236e-02 -2.413672e-02 1.404687e-02 8.721487e-04 1.651819e-02 8.571347e-03 6.808810e-03 2.722692e-03 -1.021272e-02 -5.385382e-02 1.945019e-03 -1.156057e-02 -3.630737e-03 -7.530060e-03 4.348823e-03 2.150169e-03 -9.620021e-03 -9.579982e-03 -4.992199e-03 1.424559e-03 4.639414e-03 3.728744e-03 8.581790e-03
<VARIANCE> 39
 3.532103e+00 3.741356e+00 5.707108e+00 9.247808e+00 1.295322e+01 1.224779e+01 1.290326e+01 1.118304e+01 9.832690e+00 9.422575e+00 9.846494e+00 9.106948e+00 3.957383e+00 7.332694e-02 1.791824e-01 2.712083e-01 3.894091e-01 5.666251e-01 7.093810e-01 7.742027e-01 8.069025e-01 7.858456e-01 8.148060e-01 8.392257e-01 7.475170e-01 3.514798e-02 1.460624e-02 3.771267e-02 5.503691e-02 7.614296e-02 1.162544e-01 1.442553e-01 1.590644e-01 1.673439e-01 1.617110e-01 1.684649e-01 1.737210e-01 1.515568e-01 6.398809e-03
<GCONST> 5.345649e+01
<STATE> 3
~s "silst"
<STATE> 4
<MEAN> 39
 -1.045767e+01 1.656415e+00 -4.521591e-01 6.222129e-01 -5.280870e+00 -1.964026e+00 -9.574902e+00 -1.080920e+00 -8.727529e+00 1.112415e+00 -2.384599e+00 4.095507e-02 5.452776e+01 1.942528e-02 -1.274853e-01 3.564617e-01 -2.777089e-01 1.257279e-01 8.178193e-02 -1.795281e-01 -2.135492e-02 -1.332495e-01 -1.290403e-02 -1.270722e-01 -2.869019e-02 2.429452e-01 -2.826625e-02 -5.323037e-02 2.045413e-01 -1.617453e-01 5.205453e-02 -5.458855e-03 -9.491525e-03 -2.211057e-02 -5.484201e-03 7.725827e-03 -6.536445e-02 1.299383e-02 1.221914e-01
<VARIANCE> 39
 5.758299e+01 5.349795e+01 4.547821e+01 6.364991e+01 5.100889e+01 1.149881e+02 5.335804e+01 4.488302e+01 6.534124e+01 2.934554e+01 4.451512e+01 2.925566e+01 7.535291e+01 1.558468e+00 4.020117e+00 3.773000e+00 4.277962e+00 3.246746e+00 4.413689e+00 3.696784e+00 2.712341e+00 3.414276e+00 2.241453e+00 2.600802e+00 2.022670e+00 1.475336e+00 3.118675e-01 7.093533e-01 7.879497e-01 8.856516e-01 6.412199e-01 7.393507e-01 6.958150e-01 4.997633e-01 6.535522e-01 4.123015e-01 4.796413e-01 3.662906e-01 3.136621e-01
<GCONST> 1.289789e+02
<TRANSP> 5
 0.000000e+00 1.000000e+00 0.000000e+00 0.000000e+00 0.000000e+00
 0.000000e+00 9.686432e-01 1.916586e-02 1.219094e-02 0.000000e+00
 0.000000e+00 0.000000e+00 8.698277e-01 1.301722e-01 0.000000e+00
 0.000000e+00 9.227680e-02 0.000000e+00 7.312828e-01 1.764403e-01
 0.000000e+00 0.000000e+00 0.000000e+00 0.000000e+00 0.000000e+00
<ENDHMM>
