~o
<STREAMINFO> 1 39
<VECSIZE> 39<NULLD><MFCC_D_A_0><DIAGC>
~s "silst"
<MEAN> 39
 -1.217624e+01 3.156983e+00 -1.907749e+00 1.267904e+00 -6.261417e+00 3.122930e-01 -7.430194e+00 -2.891662e-01 -4.960602e+00 4.319015e-01 -5.406591e-02 8.857794e-01 5.256859e+01 -1.593871e-01 -1.737113e-02 3.310225e-02 1.310051e-01 -2.056026e-02 -1.599320e-02 -9.926680e-02 1.125702e-02 6.811732e-02 3.360890e-02 -1.290805e-02 3.278446e-03 -1.601612e-01 3.923314e-02 1.351334e-02 8.419091e-02 -1.898547e-02 2.337361e-02 -2.256745e-02 -1.853335e-02 -1.064011e-02 -5.812965e-02 -3.757084e-02 -6.527804e-02 -4.810858e-02 5.979121e-02
<VARIANCE> 39
 1.344991e+01 8.978455e+00 1.351967e+01 2.008332e+01 2.351843e+01 2.308004e+01 2.753801e+01 1.950991e+01 2.170891e+01 1.508972e+01 1.553808e+01 1.353411e+01 1.304946e+01 2.775498e-01 5.308007e-01 7.738642e-01 9.533234e-01 1.056867e+00 1.164569e+00 1.257828e+00 1.187447e+00 1.095472e+00 1.216414e+00 1.234471e+00 1.027577e+00 1.676484e-01 5.228123e-02 1.290511e-01 1.680401e-01 2.019383e-01 2.212989e-01 2.423299e-01 2.621035e-01 2.556517e-01 2.292295e-01 2.599281e-01 2.471094e-01 2.109397e-01 3.870362e-02
<GCONST> 8.245894e+01
~h "a"
<BEGINHMM>
<NUMSTATES> 5
<STATE> 2
<MEAN> 39
 1.437756e+00 -4.457426e+00 -2.098612e+00 -1.352569e+01 -3.613972e+00 -8.189242e+00 -9.872182e+00 -7.894927e-01 -1.118256e+01 -1.692664e+00 -2.466927e+00 1.346858e+00 7.115703e+01 1.272320e+00 -9.951205e-01 -1.132797e+00 -1.266529e+00 -3.322238e-01 -4.709294e-01 7.729948e-01 7.371529e-01 -4.637862e-01 -4.685701e-01 3.721440e-01 2.297678e-01 1.384921e+00 -1.658033e-01 7.243054e-02 1.278064e-01 3.550993e-01 4.033713e-02 1.251188e-01 4.343824e-02 -4.510198e-02 6.649867e-02 6.852517e-02 -8.499346e-02 -1.276797e-01 -1.934543e-01
<VARIANCE> 39
 4.426606e+01 5.542152e+01 5.657372e+01 8.559991e+01 1.017918e+02 9.685919e+01 1.004944e+02 6.347925e+01 7.015559e+01 6.839346e+01 4.701254e+01 3.137055e+01 6.151116e+01 4.349287e+00 5.911410e+00 4.451879e+00 6.187168e+00 4.597751e+00 5.760530e+00 6.818293e+00 5.130917e+00 4.199923e+00 4.490969e+00 4.522957e+00 2.776078e+00 4.931881e+00 9.476491e-01 8.627824e-01 7.842239e-01 1.127261e+00 8.254410e-01 9.157599e-01 1.051857e+00 7.900916e-01 7.316900e-01 7.887813e-01 8.107329e-01 4.860892e-01 6.674489e-01
<GCONST> 1.435987e+02
<STATE> 3
<MEAN> 39
 5.528432e+00 -7.453693e+00 -5.637808e+00 -1.667398e+01 -2.548187e+00 -1.044213e+01 -8.419173e+00 1.184997e+00 -1.292488e+01 -2.693589e+00 -2.315144e-01 1.756055e+00 7.568545e+01 4.868330e-02 7.725964e-01 1.634322e-02 5.570534e-01 -3.040192e-01 5.187296e-01 6.613284e-02 1.665461e-01 -2.649398e-01 -3.796920e-01 -3.500597e-01 -2.610022e-01 -6.658434e-01 -2.342027e-01 4.803128e-01 3.734893e-01 4.825446e-01 6.376628e-02 2.359785e-01 -2.351549e-01 -2.826648e-01 4.201546e-02 -8.557294e-03 -3.195571e-01 -1.686946e-01 -4.343076e-01
<VARIANCE> 39
 9.279490e+00 2.400670e+01 3.450673e+01 5.103049e+01 7.508787e+01 9.892740e+01 1.025204e+02 5.896598e+01 7.928313e+01 7.645406e+01 6.166193e+01 3.381425e+01 1.091724e+01 4.548779e-01 2.725931e+00 1.498410e+00 2.291734e+00 1.827883e+00 2.331631e+00 2.938448e+00 3.232119e+00 2.340558e+00 2.996524e+00 2.750786e+00 1.749616e+00 1.288790e+00 1.302886e-01 1.989358e-01 2.207683e-01 4.104213e-01 3.227975e-01 4.462707e-01 5.393240e-01 5.339488e-01 4.493626e-01 5.871567e-01 4.745552e-01 3.773794e-01 1.051566e-01
<GCONST> 1.153009e+02
<STATE> 4
<MEAN> 39
 4.116652e+00 -4.261824e+00 -5.214680e+00 -9.876028e+00 -6.475155e+00 -8.667743e+00 -3.487108e+00 -1.782467e+00 -1.535532e+01 -6.726003e-01 -2.459189e+00 6.345947e-01 7.085725e+01 -5.752427e-01 1.215773e+00 5.892298e-01 1.070517e+00 8.447865e-02 8.078146e-01 -4.645296e-01 -2.853678e-01 1.745472e-01 -1.239089e-01 -4.638029e-01 -1.380900e-01 -1.263678e+00 -1.833848e-01 3.257845e-02 1.412343e-01 9.766211e-02 1.295647e-01 9.939644e-02 -1.200887e-01 8.485753e-03 1.559367e-01 6.768115e-02 2.918600e-02 1.139810e-02 -1.219190e-01
<VARIANCE> 39
 1.806458e+01 5.243251e+01 3.251940e+01 5.366481e+01 7.199749e+01 1.009154e+02 1.101487e+02 5.814101e+01 7.391789e+01 5.017334e+01 5.256849e+01 3.299788e+01 4.254659e+01 8.774628e-01 2.685407e+00 1.721953e+00 3.352113e+00 2.243481e+00 3.467216e+00 3.061675e+00 2.631021e+00 2.785594e+00 2.901939e+00 2.724906e+00 1.869202e+00 1.923528e+00 1.465378e-01 3.058680e-01 2.185050e-01 3.589439e-01 2.858136e-01 5.228623e-01 4.830085e-01 4.506704e-01 4.611875e-01 4.108552e-01 3.301457e-01 2.817868e-01 1.672026e-01
<GCONST> 1.192953e+02
<TRANSP> 5
 0.000000e+00 1.000000e+00 0.000000e+00 0.000000e+00 0.000000e+00
 0.000000e+00 5.848299e-01 4.151701e-01 0.000000e+00 0.000000e+00
 0.000000e+00 0.000000e+00 7.279073e-01 2.720927e-01 0.000000e+00
 0.000000e+00 0.000000e+00 0.000000e+00 6.896619e-01 3.103381e-01
 0.000000e+00 0.000000e+00 0.000000e+00 0.000000e+00 0.000000e+00
<ENDHMM>
~h "b"
<BEGINHMM>
<NUMSTATES> 5
<STATE> 2
<MEAN> 39
 -3.226088e-01 9.746696e+00 3.107218e+00 -2.730687e+00 -3.419460e+00 -7.653171e-01 -6.660285e+00 7.342830e-01 -1.102181e+01 -3.952353e+00 -7.446124e+00 -2.498167e+00 6.098321e+01 -7.667886e-01 1.805259e+00 8.078467e-01 2.713610e+00 1.309491e-01 2.162825e+00 8.666637e-01 -3.918422e-01 1.092614e+00 4.565047e-01 -1.581052e-01 -1.704214e-02 -1.965057e+00 6.588249e-02 -6.949770e-01 -3.548827e-01 -6.145112e-01 -2.265950e-01 -2.948640e-01 -1.221945e-01 3.946918e-02 -9.970250e-02 4.718402e-02 4.043365e-01 2.535128e-01 4.147149e-01
<VARIANCE> 39
 3.907110e+01 2.712252e+01 3.392988e+01 6.034922e+01 3.910366e+01 3.469397e+01 3.599286e+01 3.434780e+01 4.237487e+01 3.410019e+01 3.159919e+01 1.772141e+01 2.208665e+01 3.040789e+00 2.784137e+00 3.216171e+00 3.760649e+00 2.216383e+00 4.533205e+00 5.667856e+00 2.581473e+00 5.620440e+00 5.416716e+00 3.639558e+00 2.683468e+00 3.034204e+00 1.577893e-01 4.164423e-01 4.883364e-01 5.364188e-01 4.742795e-01 4.638992e-01 5.657659e-01 4.274448e-01 6.051136e-01 5.831807e-01 4.590522e-01 4.010000e-01 1.831127e-01
<GCONST> 1.222956e+02
<STATE> 3
<MEAN> 39
 -4.616911e-01 1.102032e+01 2.605828e+00 -6.565214e-01 -3.996058e+00 1.493803e+00 -6.423296e+00 5.426293e-01 -9.117035e+00 -3.579553e+00 -6.541158e+00 -1.629939e+00 5.939974e+01 -4.751817e-01 4.025195e-01 -9.316993e-02 1.016919e+00 -5.880530e-01 8.826430e-01 3.614222e-01 -2.316528e-01 7.360201e-01 3.726189e-01 3.119941e-01 4.507223e-01 -1.029542e+00 2.109665e-01 -7.424204e-01 -2.254522e-01 -8.538651e-01 -1.146609e-01 -6.827070e-01 -3.590258e-01 7.818942e-02 -4.580348e-01 -2.143507e-01 1.305759e-01 4.992511e-02 6.673603e-01
<VARIANCE> 39
 2.732775e+01 2.131936e+01 3.385736e+01 4.544465e+01 2.978128e+01 2.686305e+01 3.033078e+01 3.462204e+01 3.759463e+01 2.572608e+01 3.089219e+01 1.611131e+01 9.548059e+00 1.389876e+00 1.363736e+00 1.860050e+00 2.078321e+00 2.360113e+00 2.055939e+00 2.145398e+00 1.648403e+00 2.623514e+00 1.949816e+00 1.782956e+00 1.537320e+00 9.461747e-01 1.393339e-01 2.593743e-01 2.419233e-01 5.441119e-01 3.694902e-01 3.831760e-01 7.854946e-01 3.567940e-01 6.000267e-01 5.758680e-01 4.918624e-01 3.531400e-01 1.459382e-01
<GCONST> 1.084721e+02
<STATE> 4
<MEAN> 39
 -2.299359e+00 1.062427e+01 1.575033e+00 5.687623e-02 -7.189600e+00 1.222059e+00 -6.165025e+00 1.155390e+00 -7.534483e+00 -2.609632e+00 -5.419514e+00 -1.142064e+00 5.684838e+01 -3.936621e-01 -4.072390e-01 2.423910e-01 8.382909e-02 3.187178e-04 7.650135e-02 -1.884449e-01 -9.948246e-02 3.287117e-02 7.115500e-02 1.806740e-01 2.153700e-01 -1.001230e-01 1.259990e-01 -4.639404e-01 8.483794e-02 -4.638717e-01 2.916254e-01 -3.328128e-01 -2.251495e-01 5.451577e-02 -3.899517e-01 -1.495910e-01 -2.727227e-02 -8.358062e-02 5.334269e-01
<VARIANCE> 39
 2.507975e+01 2.334187e+01 4.623629e+01 5.008672e+01 2.682531e+01 1.878097e+01 2.057918e+01 2.035315e+01 1.981884e+01 1.874356e+01 2.263729e+01 1.664554e+01 1.100100e+01 6.068561e-01 1.387175e+00 1.141450e+00 1.594327e+00 1.745503e+00 1.435500e+00 1.389006e+00 1.157796e+00 1.401246e+00 1.348733e+00 1.337738e+00 1.000634e+00 6.908151e-01 1.741495e-01 4.771597e-01 3.186758e-01 5.921247e-01 3.707044e-01 5.239095e-01 5.826696e-01 3.453843e-01 4.903178e-01 3.354012e-01 3.463147e-01 2.730907e-01 2.355129e-01
<GCONST> 1.016756e+02
<TRANSP> 5
 0.000000e+00 1.000000e+00 0.000000e+00 0.000000e+00 0.000000e+00
 0.000000e+00 3.493715e-01 6.506285e-01 0.000000e+00 0.000000e+00
 0.000000e+00 0.000000e+00 1.759111e-01 8.240889e-01 0.000000e+00
 0.000000e+00 0.000000e+00 0.000000e+00 7.594395e-01 2.405605e-01
 0.000000e+00 0.000000e+00 0.000000e+00 0.000000e+00 0.000000e+00
<ENDHMM>
~h "c"
<BEGINHMM>
<NUMSTATES> 5
<STATE> 2
<MEAN> 39
 1.402333e+00 -1.000536e+01 -5.996830e+00 -8.800199e+00 -6.784873e+00 -7.939926e+00 -1.208843e+01 -2.733314e+00 -6.731256e+00 2.418059e+00 -3.490913e-02 1.577366e+00 7.020361e+01 2.076816e-01 -6.582372e-01 -3.808230e-01 -3.279947e-01 6.552613e-01 -4.897526e-01 3.682069e-01 -1.867325e-01 9.013048e-01 9.501512e-01 3.087326e-02 -1.611242e-01 7.281365e-01 4.478423e-02 1.278321e-01 1.355329e-01 6.841375e-03 1.133660e-01 -1.743185e-01 5.772865e-02 6.115664e-02 -2.414672e-01 -2.450148e-01 -1.820231e-01 4.991977e-03 5.012520e-02
<VARIANCE> 39
 1.604434e+01 5.209500e+01 4.473406e+01 5.657391e+01 7.839618e+01 8.832616e+01 7.636823e+01 3.659449e+01 1.437053e+02 5.970175e+01 3.458255e+01 5.098880e+01 5.150702e+01 1.402223e+00 6.367564e+00 2.722638e+00 3.287688e+00 2.665938e+00 6.488703e+00 2.559810e+00 2.391212e+00 5.508347e+00 5.802998e+00 3.309037e+00 3.982292e+00 3.424664e+00 2.432738e-01 1.495495e+00 4.196207e-01 6.010966e-01 4.810994e-01 8.594471e-01 4.392310e-01 3.706073e-01 7.544017e-01 9.665986e-01 5.735936e-01 7.455198e-01 6.452230e-01
<GCONST> 1.331211e+02
<STATE> 3
<MEAN> 39
 3.667735e+00 -8.133423e+00 -5.035041e+00 -1.180400e+01 4.168745e+00 -1.693509e+01 -9.393074e+00 -1.321211e+00 -6.297376e+00 5.823123e+00 -4.841716e+00 1.509870e+00 7.531202e+01 3.603251e-02 1.455510e+00 4.131985e-01 5.963925e-01 5.881885e-01 6.907493e-01 -2.934347e-01 4.599593e-01 -4.914304e-01 -1.011209e+00 -4.309525e-01 4.427591e-01 -7.489543e-01 -2.467784e-03 2.940831e-01 5.756196e-02 4.669604e-01 -4.295813e-01 6.858078e-01 -2.483823e-01 -1.377324e-02 -2.855936e-01 -1.117645e-01 1.625538e-01 -2.936595e-01 -4.412807e-01
<VARIANCE> 39
 4.987571e+00 3.472907e+01 2.472567e+01 3.009811e+01 6.980766e+01 9.260512e+01 7.007552e+01 3.875909e+01 1.304357e+02 6.179146e+01 2.659501e+01 5.298113e+01 1.101030e+01 3.144627e-01 1.949354e+00 6.542222e-01 2.299570e+00 2.892267e+00 4.161819e+00 1.577245e+00 2.231230e+00 3.154700e+00 1.801371e+00 1.669690e+00 2.184034e+00 1.355368e+00 5.678942e-02 2.062810e-01 1.502815e-01 2.529827e-01 2.971631e-01 3.591822e-01 2.773324e-01 4.343246e-01 3.600099e-01 4.080203e-01 3.571354e-01 3.722119e-01 9.781862e-02
<GCONST> 1.074386e+02
<STATE> 4
<MEAN> 39
 2.529511e+00 -2.378295e+00 -1.540217e+00 3.274274e+00 -1.634587e+00 -8.866860e+00 -1.242223e+01 -6.487460e+00 -1.593126e+01 -1.019662e-01 -3.313493e+00 -1.183697e+00 6.653266e+01 -6.060772e-02 2.788616e-01 2.347202e-01 1.099817e+00 -1.822295e-01 1.048782e+00 -2.338261e-01 -2.882074e-01 -5.830195e-01 -2.439511e-01 7.588512e-02 -8.782412e-01 -5.719364e-01 -1.016236e-02 -2.751376e-01 -8.792773e-02 -3.382081e-01 2.089149e-01 -1.820720e-01 9.217951e-02 -4.059767e-02 2.433612e-01 2.130827e-01 7.535941e-03 -4.049714e-02 2.862944e-01
<VARIANCE> 39
 1.003567e+01 5.858245e+01 2.147162e+01 5.733278e+01 3.472070e+01 4.921378e+01 7.170655e+01 4.661188e+01 7.864602e+01 3.785693e+01 4.345930e+01 3.099005e+01 2.709106e+01 7.234297e-01 6.802821e+00 1.471734e+00 4.737046e+00 2.408003e+00 5.315156e+00 7.940425e+00 3.883373e+00 4.468587e+00 3.956460e+00 3.333729e+00 3.239765e+00 4.635445e+00 1.391241e-01 8.014774e-01 2.980619e-01 3.918196e-01 3.460481e-01 5.235944e-01 9.566404e-01 7.577369e-01 7.598858e-01 3.370454e-01 5.261341e-01 5.030314e-01 3.930565e-01
<GCONST> 1.255338e+02
<TRANSP> 5
 0.000000e+00 1.000000e+00 0.000000e+00 0.000000e+00 0.000000e+00
 0.000000e+00 8.708093e-01 1.291906e-01 0.000000e+00 0.000000e+00
 0.000000e+00 0.000000e+00 7.994187e-01 2.005812e-01 0.000000e+00
 0.000000e+00 0.000000e+00 0.000000e+00 7.260504e-01 2.739496e-01
 0.000000e+00 0.000000e+00 0.000000e+00 0.000000e+00 0.000000e+00
<ENDHMM>
~h "d"
<BEGINHMM>
<NUMSTATES> 5
<STATE> 2
<MEAN> 39
 -1.919220e+00 7.464404e+00 7.178171e+00 1.108498e+00 -1.111435e+00 9.713523e-01 -1.293940e+01 -2.601791e+00 -8.501607e+00 -2.940251e+00 -4.941783e+00 -1.414851e-01 6.109472e+01 2.803936e-01 -2.335196e+00 -5.730276e-01 -2.712075e+00 1.416640e+00 1.576194e+00 -6.276944e-01 -8.081201e-02 -2.417757e-01 -1.473739e+00 -2.327739e-02 -2.905754e-01 1.914996e+00 3.687904e-01 -1.782250e-01 -2.392536e-01 -7.183193e-01 2.878680e-01 -5.636956e-01 -4.663893e-01 5.233374e-01 -6.713632e-01 -5.664308e-01 -3.137423e-01 -2.415907e-01 4.525033e-01
<VARIANCE> 39
 2.428797e+01 7.232007e+01 2.374404e+01 1.214079e+02 3.923267e+01 8.106540e+01 5.390776e+01 3.750444e+01 4.151841e+01 3.158304e+01 3.321716e+01 2.853053e+01 4.013656e+01 2.704882e+00 8.145508e+00 3.887884e+00 9.754858e+00 4.409246e+00 1.031561e+01 8.067721e+00 5.269664e+00 5.454542e+00 5.255616e+00 4.216123e+00 4.251361e+00 3.598119e+00 3.713859e-01 2.049106e+00 5.653134e-01 2.599900e+00 8.388613e-01 2.102808e+00 1.378502e+00 1.070104e+00 8.710448e-01 1.147745e+00 1.059946e+00 9.408866e-01 9.695138e-01
<GCONST> 1.433684e+02
<STATE> 3
<MEAN> 39
 2.992754e+00 2.808273e+00 4.656964e+00 -1.326620e+01 4.910014e+00 -1.334843e+00 -2.094961e+01 6.916254e+00 -1.630277e+01 -1.485297e+01 -8.805300e+00 -5.215950e+00 6.949799e+01 5.451489e-01 4.760557e-01 6.221231e-01 -1.681973e+00 -9.895638e-01 -2.950508e+00 -5.373729e-02 2.354644e+00 -2.242942e+00 -1.080819e+00 -4.124766e-01 -1.327143e+00 7.264588e-01 -1.903636e-01 6.302447e-01 3.522463e-01 6.635762e-01 -7.596993e-01 -4.118598e-01 7.448710e-01 -1.044174e-01 2.567894e-01 9.631597e-01 2.974324e-01 3.044065e-02 -5.030661e-01
<VARIANCE> 39
 4.974702e+00 4.964131e+01 5.056543e+01 6.871515e+01 8.921740e+01 1.270429e+02 1.106660e+02 6.999849e+01 6.880369e+01 6.589949e+01 6.954154e+01 4.213974e+01 9.868831e+00 1.192203e+00 6.548342e+00 3.904716e+00 6.371641e+00 7.552305e+00 9.220639e+00 1.284024e+01 5.439321e+00 5.192589e+00 1.092078e+01 6.835758e+00 4.231204e+00 2.380305e+00 1.783118e-01 1.197073e+00 9.413064e-01 8.713301e-01 1.369129e+00 2.500040e+00 1.766124e+00 1.022485e+00 1.209571e+00 1.344230e+00 9.987344e-01 8.015698e-01 3.087968e-01
<GCONST> 1.435178e+02
<STATE> 4
<MEAN> 39
 4.911290e+00 1.277503e+00 3.280220e+00 -1.635921e+01 -5.528047e+00 -1.410359e+01 -1.092996e+01 1.085627e+01 -2.089782e+01 -6.756318e+00 -4.256927e+00 -5.542001e+00 7.200133e+01 1.863774e-01 -6.157421e-01 -6.644212e-01 -1.708435e-01 -3.008883e-01 -4.164447e-01 4.484189e-01 -3.570406e-01 4.139215e-02 6.275486e-01 4.602910e-01 4.630161e-01 3.227287e-01 -1.844565e-02 4.743786e-02 -2.135270e-02 1.193253e-01 7.276230e-02 1.822193e-01 -7.476731e-02 -8.445313e-02 6.091533e-02 -1.148415e-01 -1.023989e-01 1.982429e-02 -8.232631e-02
<VARIANCE> 39
 5.002802e+00 7.479717e+01 5.731208e+01 5.783832e+01 5.762534e+01 5.487445e+01 1.253932e+02 6.586585e+01 5.974068e+01 7.404333e+01 7.188060e+01 4.775277e+01 1.973716e+01 1.283712e-01 2.229162e+00 1.463633e+00 1.202813e+00 1.554543e+00 2.203150e+00 2.003465e+00 2.431219e+00 2.482302e+00 2.895178e+00 2.164727e+00 2.015434e+00 5.612046e-01 2.260035e-02 2.901022e-01 1.977569e-01 2.292682e-01 2.684524e-01 3.822654e-01 3.839831e-01 4.024460e-01 4.002681e-01 4.180847e-01 4.010178e-01 3.567709e-01 8.381223e-02
<GCONST> 1.088246e+02
<TRANSP> 5
 0.000000e+00 1.000000e+00 0.000000e+00 0.000000e+00 0.000000e+00
 0.000000e+00 7.489510e-01 2.510490e-01 0.000000e+00 0.000000e+00
 0.000000e+00 0.000000e+00 7.368414e-01 2.631586e-01 0.000000e+00
 0.000000e+00 0.000000e+00 0.000000e+00 9.231426e-01 7.685747e-02
 0.000000e+00 0.000000e+00 0.000000e+00 0.000000e+00 0.000000e+00
<ENDHMM>
~h "e"
<BEGINHMM>
<NUMSTATES> 5
<STATE> 2
<MEAN> 39
 2.335308e+00 -1.906849e+00 -2.000151e+00 -4.165303e+00 -1.855257e+00 -7.458013e+00 -1.396453e+01 -3.290344e+00 -6.926943e+00 4.099042e+00 -3.718639e+00 -1.807485e+00 6.762296e+01 -4.219369e-01 8.217422e-01 3.519962e-02 3.806064e-01 -1.826397e-01 6.587706e-01 9.942198e-02 3.273171e-01 2.217289e-01 -1.617889e-01 -4.274510e-02 1.249175e-02 -9.405684e-01 -1.251856e-01 -6.767950e-03 2.274622e-02 -2.188062e-02 3.358473e-03 8.670204e-02 5.274984e-02 5.892750e-02 -2.327473e-02 -4.893150e-02 5.224097e-02 4.086541e-02 -9.416019e-02
<VARIANCE> 39
 1.731498e+01 5.816920e+01 3.016685e+01 1.170647e+02 7.542291e+01 1.270422e+02 7.539104e+01 5.990486e+01 5.805929e+01 6.139619e+01 2.817089e+01 3.009286e+01 4.467735e+01 1.095621e+00 1.712092e+00 1.263373e+00 1.757389e+00 2.141825e+00 3.042296e+00 2.172726e+00 2.225620e+00 2.175666e+00 2.371808e+00 1.528760e+00 1.602113e+00 1.144756e+00 1.133386e-01 2.583699e-01 1.892506e-01 2.320941e-01 3.023879e-01 4.481590e-01 3.712025e-01 3.429174e-01 3.414625e-01 3.328626e-01 2.714455e-01 2.534639e-01 1.247404e-01
<GCONST> 1.129659e+02
<STATE> 3
<MEAN> 39
 -4.936061e+00 4.711074e+00 -2.281914e+00 -6.686105e-01 -5.723818e+00 2.618459e-01 -9.875968e+00 1.455709e+00 -4.417684e+00 1.607311e+00 -2.694482e+00 -3.226744e-01 5.625167e+01 -1.303475e+00 -2.042638e-01 -3.875844e-02 1.092112e-01 -5.294166e-01 4.271016e-01 7.964429e-01 2.548246e-01 -1.082483e-01 -1.317376e-01 2.556438e-01 3.310922e-01 -1.037983e+00 2.010376e-01 -9.676763e-02 -3.199010e-02 -1.731983e-01 1.869846e-02 -1.813708e-01 -1.383859e-01 -7.219742e-02 -1.334934e-01 -9.557836e-02 -5.836780e-02 -3.095570e-02 2.476858e-01
<VARIANCE> 39
 2.231928e+01 1.945016e+01 1.852009e+01 5.627332e+01 4.233915e+01 3.840726e+01 6.305902e+01 4.917113e+01 2.419096e+01 2.522361e+01 1.476952e+01 1.341669e+01 1.790185e+01 7.335115e-01 1.210613e+00 1.176690e+00 2.102855e+00 2.048274e+00 2.569164e+00 2.181623e+00 1.859773e+00 1.717596e+00 2.229105e+00 1.465925e+00 1.614697e+00 2.365836e-01 8.418799e-02 1.832649e-01 2.210893e-01 3.322626e-01 3.273287e-01 4.382630e-01 3.215196e-01 4.259447e-01 3.203557e-01 2.897331e-01 2.243256e-01 3.004227e-01 6.470981e-02
<GCONST> 1.008071e+02
<STATE> 4
<MEAN> 39
 -8.930212e+00 5.394171e+00 -2.506140e+00 -6.586186e-01 -1.031978e+01 -1.711137e+00 -9.703621e+00 1.334169e+00 -4.978025e+00 1.337140e+00 -2.182106e+00 -1.166305e-01 5.228370e+01 -2.505470e-01 2.488670e-02 4.802044e-02 1.103504e-01 -6.427950e-02 2.799264e-02 8.078151e-03 8.520011e-02 1.395925e-02 -8.040592e-02 -8.707137e-03 2.916093e-03 -2.404544e-01 1.001646e-01 -5.985923e-02 -9.924362e-03 -4.974328e-02 8.423216e-02 -2.594908e-02 -4.713357e-02 -1.111043e-02 -1.793959e-02 2.482754e-02 -4.018990e-03 -3.065303e-02 1.274928e-01
<VARIANCE> 39
 1.122853e+01 7.176102e+00 9.568502e+00 2.119204e+01 2.942173e+01 2.149428e+01 2.391134e+01 1.846477e+01 1.448856e+01 1.410520e+01 1.259879e+01 1.200939e+01 1.051391e+01 2.334539e-01 3.506048e-01 4.421524e-01 5.473928e-01 9.255836e-01 1.067060e+00 1.190828e+00 1.103942e+00 9.990556e-01 1.124143e+00 1.081876e+00 1.088882e+00 9.247319e-02 6.957537e-02 1.012366e-01 1.235861e-01 1.589048e-01 1.797677e-01 2.117312e-01 2.302596e-01 2.328188e-01 2.120964e-01 2.332395e-01 2.266117e-01 2.485891e-01 7.591414e-02
<GCONST> 7.730729e+01
<TRANSP> 5
 0.000000e+00 1.000000e+00 0.000000e+00 0.000000e+00 0.000000e+00
 0.000000e+00 8.018355e-01 1.981645e-01 0.000000e+00 0.000000e+00
 0.000000e+00 0.000000e+00 5.024846e-01 4.975154e-01 0.000000e+00
 0.000000e+00 0.000000e+00 0.000000e+00 8.226172e-01 1.773828e-01
 0.000000e+00 0.000000e+00 0.000000e+00 0.000000e+00 0.000000e+00
<ENDHMM>
~h "g"
<BEGINHMM>
<NUMSTATES> 5
<STATE> 2
<MEAN> 39
 -5.184543e+00 2.921078e+00 5.359189e+00 1.552661e+00 -5.679438e-01 -2.548012e+00 -1.066938e+01 -1.057081e+00 -7.954720e+00 1.159220e+00 -5.579211e+00 -1.883775e+00 6.107470e+01 -3.256833e-01 -2.412433e+00 1.355231e-02 -2.597366e+00 8.711863e-02 -5.221944e-01 4.799496e-01 -8.307227e-01 -1.008727e+00 4.220774e-01 -2.523764e-01 -1.168757e+00 1.892542e+00 2.862110e-01 -2.449499e-01 2.894983e-01 -3.967041e-01 1.600490e-01 -9.092684e-01 -4.320676e-01 -2.384952e-02 -4.972446e-01 -2.322763e-01 -2.361512e-01 -3.028283e-01 6.443332e-01
<VARIANCE> 39
 1.941817e+01 1.282664e+02 5.185549e+01 1.170522e+02 6.860805e+01 4.884618e+01 4.816154e+01 4.672570e+01 4.649856e+01 2.566386e+01 3.631850e+01 3.216668e+01 5.464379e+01 2.112379e+00 1.230189e+01 4.859370e+00 1.138270e+01 5.715863e+00 9.882547e+00 8.449472e+00 7.296147e+00 5.196084e+00 3.731103e+00 3.681307e+00 3.643688e+00 8.010826e+00 5.175217e-01 3.121305e+00 9.000124e-01 2.038884e+00 9.498248e-01 9.376246e-01 1.572287e+00 1.130106e+00 8.684600e-01 6.393830e-01 6.319690e-01 5.475980e-01 1.048564e+00
<GCONST> 1.452044e+02
<STATE> 3
<MEAN> 39
 -2.223712e+00 -1.731434e+00 7.812362e+00 -1.159260e+01 6.636726e-01 -1.068225e+01 -1.111113e+01 -3.903180e+00 -1.738087e+01 -6.161127e-01 -7.762396e+00 -9.433886e+00 7.165943e+01 1.987775e+00 7.599267e-01 1.944938e-01 -8.847322e-01 3.692511e-01 -2.976955e+00 -1.601879e+00 9.303187e-01 -2.540037e+00 -1.015265e+00 -6.806298e-02 -9.515254e-01 1.227676e+00 1.850942e-01 4.057586e-01 -4.749790e-01 7.755547e-01 -2.528816e-01 1.619587e-01 -2.680636e-01 5.490773e-01 5.891958e-01 2.844861e-03 3.685085e-01 7.191499e-01 -6.518605e-01
<VARIANCE> 39
 2.970696e+01 8.014890e+01 5.757800e+01 1.098698e+02 1.091618e+02 7.893986e+01 1.402632e+02 1.134854e+02 6.281357e+01 4.736555e+01 6.373780e+01 6.488629e+01 2.410713e+01 2.333832e+00 6.734887e+00 6.816528e+00 1.026968e+01 5.241476e+00 5.828213e+00 1.100561e+01 9.520448e+00 3.948437e+00 4.660077e+00 6.434622e+00 4.595138e+00 2.378621e+00 6.037748e-01 1.401555e+00 1.046372e+00 2.310953e+00 7.971710e-01 1.519917e+00 2.762186e+00 1.264781e+00 8.810109e-01 8.836895e-01 9.861618e-01 6.069091e-01 3.806275e-01
<GCONST> 1.491191e+02
<STATE> 4
<MEAN> 39
 2.782378e+00 1.749692e+00 7.262678e+00 -1.488967e+01 -5.715462e+00 -1.560820e+01 -1.386821e+01 6.688563e+00 -2.248741e+01 -4.986328e+00 -9.212778e+00 -1.209517e+01 7.121137e+01 3.014814e-01 -1.076347e+00 -6.692117e-01 -5.637332e-02 -8.939089e-02 -5.630831e-01 -3.184811e-01 -7.170768e-02 3.320382e-03 -1.783118e-02 6.702177e-01 6.860058e-01 5.600585e-01 -2.042183e-01 -1.396594e-01 -1.302255e-02 1.102673e-01 5.729203e-02 3.761850e-01 2.669633e-01 -3.026510e-01 2.897564e-01 2.240647e-01 7.517333e-02 1.005405e-01 -5.491531e-02
<VARIANCE> 39
 6.089782e+00 5.742398e+01 3.162647e+01 5.498657e+01 1.025986e+02 5.864414e+01 1.629965e+02 7.662205e+01 5.278552e+01 7.756272e+01 5.773179e+01 6.286125e+01 1.521280e+01 4.180470e-01 1.632439e+00 1.395866e+00 2.935406e+00 2.620377e+00 3.366057e+00 5.420196e+00 4.587121e+00 2.544611e+00 4.276908e+00 2.452837e+00 1.922084e+00 3.749422e-01 9.253617e-02 3.395974e-01 2.477849e-01 4.210202e-01 3.894044e-01 6.323363e-01 8.721404e-01 6.020325e-01 5.729570e-01 5.967270e-01 3.995712e-01 3.211091e-01 7.192662e-02
<GCONST> 1.182172e+02
<TRANSP> 5
 0.000000e+00 1.000000e+00 0.000000e+00 0.000000e+00 0.000000e+00
 0.000000e+00 7.130587e-01 2.869414e-01 0.000000e+00 0.000000e+00
 0.000000e+00 0.000000e+00 6.165753e-01 3.834247e-01 0.000000e+00
 0.000000e+00 0.000000e+00 0.000000e+00 8.076666e-01 1.923334e-01
 0.000000e+00 0.000000e+00 0.000000e+00 0.000000e+00 0.000000e+00
<ENDHMM>
~h "h"
<BEGINHMM>
<NUMSTATES> 5
<STATE> 2
<MEAN> 39
 -4.835897e+00 -5.210552e+00 7.782324e+00 -7.929842e-01 -3.728495e+00 -8.893889e+00 -1.327656e+01 2.031176e+00 -1.092964e+01 -2.158056e+00 -7.823074e+00 -3.574031e+00 6.568858e+01 -3.204608e-02 -5.149657e-01 8.341239e-02 5.697423e-01 7.064361e-01 -1.421867e-01 3.445300e-03 -4.948412e-01 1.988548e-01 4.105001e-01 -2.050157e-01 3.772684e-02 3.431265e-01 7.426684e-02 1.948897e-01 -1.500089e-01 -3.888582e-03 9.136774e-02 -2.122701e-02 1.369644e-01 -2.673686e-02 -5.110473e-02 -3.285899e-02 -7.621624e-02 5.358826e-02 -5.233061e-02
<VARIANCE> 39
 4.509692e+01 8.623989e+01 7.053590e+01 2.230047e+02 8.764881e+01 1.486483e+02 7.224210e+01 6.937549e+01 8.381343e+01 7.130562e+01 5.371839e+01 3.409587e+01 2.466902e+01 2.574927e+00 7.490027e+00 6.091298e+00 8.806355e+00 6.500295e+00 1.004685e+01 5.171123e+00 4.875478e+00 7.997162e+00 4.831274e+00 3.224197e+00 3.020857e+00 2.716767e+00 3.713566e-01 1.090196e+00 7.198028e-01 1.797607e+00 1.276514e+00 1.896884e+00 1.030724e+00 8.136969e-01 1.036773e+00 1.106506e+00 4.395330e-01 4.141492e-01 4.821029e-01
<GCONST> 1.460591e+02
<STATE> 3
<MEAN> 39
 -4.649945e+00 -2.745687e+00 3.129349e+00 -1.047680e+01 -3.159852e+00 -5.473163e+00 -1.067200e+01 7.176568e-01 -1.039354e+01 -4.022869e+00 -6.030219e+00 2.740445e-01 6.672328e+01 -3.177715e-01 8.852542e-02 4.781150e-01 1.504746e+00 1.191732e+00 -6.949821e-02 -1.211525e-01 -6.062249e-02 1.053486e+00 3.950048e-01 -7.715197e-01 1.031210e-01 -3.046640e-01 2.001729e-01 6.188669e-01 2.277393e-01 6.194361e-01 -1.207022e-01 -1.778328e-01 -2.438192e-01 1.327767e-01 -7.377130e-02 -1.273103e-01 -2.368189e-01 -2.449369e-01 -3.408623e-01
<VARIANCE> 39
 6.303026e+01 7.392565e+01 5.726147e+01 1.508347e+02 8.188882e+01 1.007604e+02 1.019452e+02 5.484246e+01 1.108128e+02 6.697397e+01 5.997272e+01 2.791738e+01 2.403246e+01 2.829408e+00 5.731886e+00 5.468132e+00 9.145598e+00 7.041590e+00 8.634018e+00 1.161086e+01 4.471403e+00 4.951617e+00 6.516114e+00 4.247731e+00 2.691190e+00 3.210206e+00 4.997628e-01 1.009885e+00 8.451804e-01 1.856649e+00 9.899575e-01 1.240627e+00 1.471476e+00 9.947016e-01 1.488450e+00 1.243890e+00 7.342360e-01 4.475106e-01 3.952084e-01
<GCONST> 1.471095e+02
<STATE> 4
<MEAN> 39
 -4.374512e+00 5.983585e-01 6.882045e+00 -7.456120e+00 -1.861571e+00 -4.666194e+00 -9.610092e+00 5.566278e-01 -8.138394e+00 -4.007194e+00 -8.995033e+00 5.505898e-01 6.550474e+01 -1.103389e-01 5.822946e-01 7.697524e-02 6.440505e-01 3.353434e-01 4.402000e-01 3.626736e-02 -4.709899e-02 3.942158e-01 4.188727e-01 -1.654317e-02 1.807540e-01 -5.826666e-01 -5.874063e-02 9.984007e-03 -5.843456e-02 -1.022207e-01 -1.790805e-02 -1.559279e-01 -2.348264e-02 -2.845992e-02 -8.257714e-02 -2.066704e-02 1.464848e-01 -4.766364e-02 1.821028e-02
<VARIANCE> 39
 3.182114e+01 1.083822e+02 2.005948e+02 1.063784e+02 1.068423e+02 1.085161e+02 1.138365e+02 5.124331e+01 7.096534e+01 4.606163e+01 6.893166e+01 2.374443e+01 2.562154e+01 2.223323e+00 4.750830e+00 6.436490e+00 4.356105e+00 3.626069e+00 5.543430e+00 4.435220e+00 4.938014e+00 5.468081e+00 4.951729e+00 3.559426e+00 2.128252e+00 1.341474e+00 2.704557e-01 7.239749e-01 1.332314e+00 7.309363e-01 3.656070e-01 9.316243e-01 7.005441e-01 8.506578e-01 9.059991e-01 8.155614e-01 7.201524e-01 4.288871e-01 1.608924e-01
<GCONST> 1.373961e+02
<TRANSP> 5
 0.000000e+00 1.000000e+00 0.000000e+00 0.000000e+00 0.000000e+00
 0.000000e+00 5.263700e-01 4.736300e-01 0.000000e+00 0.000000e+00
 0.000000e+00 0.000000e+00 3.909288e-01 6.090713e-01 0.000000e+00
 0.000000e+00 0.000000e+00 0.000000e+00 6.295541e-01 3.704460e-01
 0.000000e+00 0.000000e+00 0.000000e+00 0.000000e+00 0.000000e+00
<ENDHMM>
~h "i"
<BEGINHMM>
<NUMSTATES> 5
<STATE> 2
<MEAN> 39
 3.038305e+00 5.312058e+00 9.897223e-01 -3.149619e+00 7.075335e-01 -3.574165e+00 -1.520897e+01 -1.438254e+00 -9.739198e+00 -3.042485e+00 -8.966265e+00 -1.363328e+00 6.520972e+01 -1.620001e-01 -9.218540e-01 1.641397e-01 3.857046e-01 8.121603e-01 -1.209895e+00 -6.058527e-01 -1.120320e-01 1.202543e-01 4.640904e-01 -1.505075e-01 -5.510790e-01 5.449224e-01 -1.957546e-01 -5.971292e-01 2.390225e-01 9.355793e-02 4.280821e-01 -8.769568e-01 -7.248818e-02 1.880817e-01 -3.397068e-01 2.195540e-01 1.507124e-01 -1.517145e-01 3.493888e-01
<VARIANCE> 39
 2.561814e+01 6.477486e+01 2.852844e+01 8.896400e+01 4.466729e+01 7.138543e+01 4.722360e+01 4.619957e+01 4.011751e+01 3.116513e+01 5.416739e+01 3.700178e+01 3.280468e+01 3.309960e-01 3.580114e+00 1.764133e+00 3.570704e+00 3.327736e+00 5.744178e+00 3.085137e+00 2.593949e+00 3.549800e+00 2.675260e+00 2.784283e+00 1.755875e+00 1.704013e+00 1.343930e-01 7.060972e-01 5.255924e-01 6.389396e-01 5.060313e-01 7.539093e-01 5.453805e-01 5.716162e-01 7.210163e-01 5.334520e-01 6.344150e-01 3.811121e-01 2.425218e-01
<GCONST> 1.229546e+02
<STATE> 3
<MEAN> 39
 6.939474e-01 -2.614233e+00 4.312205e+00 4.584335e-01 6.526731e+00 -1.714242e+01 -1.739436e+01 -1.202622e+00 -1.392326e+01 6.383734e-01 -8.379479e+00 -5.637365e+00 6.996364e+01 -8.629856e-01 -2.348735e+00 1.976186e+00 9.686027e-01 1.436477e+00 -4.538678e+00 -8.070395e-01 1.024020e+00 -6.902767e-01 7.566222e-01 -4.312238e-01 -1.034892e+00 1.569965e+00 -7.588600e-02 4.442665e-01 3.434668e-01 -9.830174e-03 -5.036418e-01 3.015214e-01 1.755620e-01 1.774071e-01 1.398305e-01 -3.596344e-01 -1.910828e-01 2.467788e-01 -2.659163e-01
<VARIANCE> 39
 2.425827e+01 5.543639e+01 4.732364e+01 7.138199e+01 5.692491e+01 1.611273e+02 7.461307e+01 6.485646e+01 8.464481e+01 5.329983e+01 7.110863e+01 4.138282e+01 3.286752e+01 9.910957e-01 5.991198e+00 3.669078e+00 5.627860e+00 5.183745e+00 7.356396e+00 4.746260e+00 5.003350e+00 6.220391e+00 5.211599e+00 5.939095e+00 2.915856e+00 2.452332e+00 1.604871e-01 9.073703e-01 6.362585e-01 9.718566e-01 9.024728e-01 1.974769e+00 8.428860e-01 8.546961e-01 1.095672e+00 8.414121e-01 9.144549e-01 6.057747e-01 4.190816e-01
<GCONST> 1.396545e+02
<STATE> 4
<MEAN> 39
 -2.057764e+00 -3.318324e+00 1.297143e+01 4.174995e+00 5.388260e+00 -2.730678e+01 -1.927755e+01 2.757377e+00 -1.341113e+01 -1.020407e+00 -1.158759e+01 -5.992151e+00 7.102822e+01 4.130199e-02 8.238271e-01 -1.016163e-01 -2.541511e-01 -3.434694e-01 1.051880e+00 -1.857709e-01 -2.968283e-01 2.890985e-01 -2.474376e-01 2.646150e-01 1.798100e-01 -4.874660e-01 7.102801e-02 2.179814e-01 -2.981774e-01 -1.518983e-01 -9.239146e-02 6.239778e-01 1.369548e-01 -2.283478e-01 9.547684e-02 2.245529e-02 1.129515e-01 6.989501e-02 -1.670658e-01
<VARIANCE> 39
 1.265988e+01 4.922807e+01 5.739206e+01 8.512136e+01 3.584789e+01 1.316008e+02 6.129801e+01 8.795610e+01 5.203729e+01 4.996244e+01 6.727925e+01 3.258327e+01 2.672627e+01 6.826230e-01 1.841651e+00 3.421715e+00 2.944232e+00 1.854929e+00 6.311996e+00 2.764252e+00 3.362756e+00 2.828854e+00 2.852093e+00 2.590818e+00 1.691635e+00 9.224725e-01 1.170706e-01 3.612309e-01 4.046539e-01 4.555157e-01 4.395239e-01 8.558367e-01 5.408382e-01 5.578882e-01 5.479140e-01 5.293782e-01 5.268747e-01 3.546888e-01 1.545270e-01
<GCONST> 1.214002e+02
<TRANSP> 5
 0.000000e+00 1.000000e+00 0.000000e+00 0.000000e+00 0.000000e+00
 0.000000e+00 4.640354e-01 5.359647e-01 0.000000e+00 0.000000e+00
 0.000000e+00 0.000000e+00 6.640914e-01 3.359086e-01 0.000000e+00
 0.000000e+00 0.000000e+00 0.000000e+00 8.606744e-01 1.393257e-01
 0.000000e+00 0.000000e+00 0.000000e+00 0.000000e+00 0.000000e+00
<ENDHMM>
~h "j"
<BEGINHMM>
<NUMSTATES> 5
<STATE> 2
<MEAN> 39
 -7.907015e+00 2.516785e+00 1.183113e+01 -2.514873e+00 -1.994224e+00 -3.500997e+00 -8.762233e+00 -2.296378e+00 -9.448216e+00 -1.736516e+00 -5.107997e+00 -3.424170e+00 6.312985e+01 -1.967587e+00 -2.953047e+00 2.745432e+00 -2.062368e+00 1.098347e+00 -1.023172e+00 1.044660e+00 -5.725941e-01 2.188784e-01 1.181383e-02 -1.328087e-01 -3.748363e-01 2.447504e+00 1.132734e-01 -3.707585e-01 9.286289e-02 -6.480707e-02 3.042963e-01 -5.790191e-01 -5.164796e-01 -3.524673e-01 -2.327294e-01 2.177687e-02 -7.730184e-02 -6.218477e-02 4.187794e-01
<VARIANCE> 39
 6.322509e+01 1.338367e+02 7.481078e+01 1.475857e+02 4.927163e+01 4.567972e+01 6.216618e+01 5.698116e+01 3.936425e+01 3.483133e+01 2.923713e+01 2.694972e+01 6.340229e+01 5.764998e+00 1.305332e+01 5.956751e+00 9.937517e+00 4.803679e+00 6.874733e+00 5.786493e+00 6.367125e+00 4.863962e+00 3.163303e+00 3.749242e+00 2.560198e+00 5.922535e+00 1.630007e+00 3.194678e+00 1.689971e+00 2.838234e+00 9.253575e-01 1.235952e+00 1.688184e+00 1.235487e+00 8.968323e-01 6.442642e-01 6.607960e-01 5.287868e-01 1.310016e+00
<GCONST> 1.490005e+02
<STATE> 3
<MEAN> 39
 -1.135609e+01 -8.473932e+00 2.096158e+01 -6.819495e+00 4.763650e+00 -1.210409e+01 -1.310758e+01 -9.790069e+00 -1.136638e+01 -2.236167e+00 -5.995578e+00 -5.189896e+00 7.402070e+01 3.763488e+00 3.449570e-01 -2.338650e+00 1.588019e+00 7.358822e-01 -2.149677e+00 -3.639976e+00 -1.580474e+00 -2.282203e+00 2.726303e-01 -3.692649e-01 1.929333e-01 8.396739e-01 9.604844e-01 6.221859e-01 -1.584613e+00 -2.928867e-02 -4.226563e-01 2.942371e-01 2.501971e-01 5.832748e-01 -1.882689e-01 1.627270e-01 2.941703e-01 3.326010e-01 -4.304950e-01
<VARIANCE> 39
 7.805760e+01 4.099016e+01 4.450454e+01 7.886213e+01 2.707956e+01 5.039481e+01 1.287197e+02 6.079206e+01 8.093797e+01 3.241577e+01 4.126547e+01 2.435912e+01 9.798594e+00 5.993986e+00 4.855246e+00 7.985578e+00 4.730893e+00 3.199998e+00 7.184256e+00 7.916913e+00 5.513023e+00 5.440450e+00 3.821450e+00 3.316752e+00 2.587552e+00 1.160164e+00 2.222734e+00 1.114051e+00 1.233096e+00 1.994625e+00 5.442265e-01 9.543467e-01 2.529253e+00 9.515827e-01 1.621378e+00 7.304803e-01 7.220641e-01 3.688317e-01 3.500307e-01
<GCONST> 1.402354e+02
<STATE> 4
<MEAN> 39
 1.676204e+00 -9.440974e+00 5.487913e+00 -8.648520e+00 5.059483e+00 -1.880159e+01 -1.656537e+01 -9.706916e+00 -1.706678e+01 3.816902e+00 -5.236567e+00 -2.078591e+00 7.765697e+01 1.173711e+00 5.363654e-02 -2.643423e+00 -1.766943e+00 -2.867044e-01 3.516684e-01 1.202049e+00 1.196480e+00 -5.328370e-02 3.648554e-01 1.181143e+00 9.988310e-01 2.991184e-01 -5.519947e-01 1.983923e-01 4.913688e-01 -1.328626e-01 -2.242061e-01 6.324291e-01 5.546049e-01 4.848410e-01 1.787852e-01 -3.898293e-01 2.193911e-02 -3.342653e-02 -3.223964e-01
<VARIANCE> 39
 5.482805e+00 1.925711e+01 2.838078e+01 4.145355e+01 1.842319e+01 5.973230e+01 1.335454e+02 3.920837e+01 4.499049e+01 5.734569e+01 3.039218e+01 2.122586e+01 7.724255e+00 1.251884e+00 1.143162e+00 2.329613e+00 2.091646e+00 1.542493e+00 4.355002e+00 2.753182e+00 3.062549e+00 3.714408e+00 3.755632e+00 1.877636e+00 1.457495e+00 6.202136e-01 4.264137e-01 2.600722e-01 3.824967e-01 7.098929e-01 2.775481e-01 7.182834e-01 1.135168e+00 5.109548e-01 9.734504e-01 5.864376e-01 5.472022e-01 3.151518e-01 8.408234e-02
<GCONST> 1.140321e+02
<TRANSP> 5
 0.000000e+00 1.000000e+00 0.000000e+00 0.000000e+00 0.000000e+00
 0.000000e+00 8.131711e-01 1.868288e-01 0.000000e+00 0.000000e+00
 0.000000e+00 0.000000e+00 7.143402e-01 2.856598e-01 0.000000e+00
 0.000000e+00 0.000000e+00 0.000000e+00 7.640796e-01 2.359204e-01
 0.000000e+00 0.000000e+00 0.000000e+00 0.000000e+00 0.000000e+00
<ENDHMM>
~h "k"
<BEGINHMM>
<NUMSTATES> 5
<STATE> 2
<MEAN> 39
 -7.469400e+00 -2.467277e+00 -1.197235e+00 -1.219273e+01 -8.058307e+00 1.000580e-01 -3.114783e+00 -2.704095e+00 -1.100693e+01 9.198536e-02 -1.279859e+00 3.057454e+00 6.186888e+01 6.282424e-01 -1.266837e+00 1.113543e-01 -1.871858e+00 2.221726e-01 -4.135693e-01 7.251130e-01 -5.730037e-01 -5.260050e-01 5.912822e-02 -4.939108e-01 -9.316472e-02 1.807214e+00 6.343950e-01 1.900150e-02 -1.921689e-01 2.722023e-01 -6.376691e-02 -4.003937e-01 -3.578299e-01 1.451034e-01 -9.455218e-03 -3.631781e-02 -7.512302e-02 -2.252861e-01 3.161770e-01
<VARIANCE> 39
 2.453091e+01 7.981567e+01 3.022732e+01 1.533022e+02 6.492892e+01 4.450184e+01 9.277056e+01 6.567554e+01 4.325063e+01 3.490630e+01 2.602028e+01 3.253632e+01 7.546336e+01 6.187600e+00 9.268331e+00 4.255421e+00 1.714482e+01 5.741683e+00 7.673923e+00 1.060738e+01 6.598404e+00 5.655828e+00 3.805972e+00 3.188202e+00 4.059124e+00 9.907073e+00 5.345859e-01 1.966910e+00 1.046738e+00 3.879978e+00 1.230553e+00 1.181313e+00 2.245709e+00 1.465722e+00 1.027106e+00 8.229054e-01 6.815135e-01 7.695939e-01 1.692053e+00
<GCONST> 1.497918e+02
<STATE> 3
<MEAN> 39
 5.640682e+00 -7.442496e+00 -4.372256e+00 -1.501957e+01 -8.377823e+00 -5.448980e+00 -1.061138e+01 -3.620937e+00 -9.948174e+00 1.217642e+00 -4.000661e+00 -1.182983e+00 7.355373e+01 1.721198e+00 -5.863768e-01 -1.299755e+00 9.159232e-01 -2.394600e-01 -9.649699e-01 -8.570478e-01 5.066887e-01 8.137530e-01 5.948954e-01 3.962806e-01 -7.390317e-01 8.695422e-01 -8.063001e-01 -4.593936e-02 1.826081e-01 -3.549773e-01 2.439439e-01 2.252427e-01 6.489562e-01 6.000522e-02 -2.217736e-02 -6.194716e-02 1.770631e-01 4.354490e-01 -3.197914e-01
<VARIANCE> 39
 1.473614e+01 4.146341e+01 3.431906e+01 6.337399e+01 6.612257e+01 1.300092e+02 1.217336e+02 4.854199e+01 8.970354e+01 4.273029e+01 5.757257e+01 3.737669e+01 2.061338e+01 4.387451e+00 2.712891e+00 3.452251e+00 5.173576e+00 3.673512e+00 6.255494e+00 8.547628e+00 5.763632e+00 3.703595e+00 3.678432e+00 4.682442e+00 3.498747e+00 1.387852e+00 5.000629e-01 5.387226e-01 6.099252e-01 6.602764e-01 5.216403e-01 1.009729e+00 8.376974e-01 7.190498e-01 6.687800e-01 4.320640e-01 7.295402e-01 5.959798e-01 2.424032e-01
<GCONST> 1.337383e+02
<STATE> 4
<MEAN> 39
 6.566571e+00 -6.068610e+00 -9.936954e+00 -1.336005e+01 -8.509677e+00 -2.687764e+00 -7.029347e+00 -1.170411e+00 -4.319808e+00 7.825473e-01 -6.841799e-01 1.719799e+00 7.158816e+01 -1.384957e-01 3.232351e-01 -6.998700e-02 -1.566558e-01 4.416619e-01 -2.266726e-01 3.434795e-01 5.325271e-01 7.471920e-02 -2.910276e-01 -1.039645e-01 2.955827e-01 -9.234232e-02 -1.732420e-01 2.033455e-01 1.963839e-01 -3.746120e-02 8.364732e-02 1.098014e-01 -8.623390e-02 -1.925111e-02 -2.124578e-01 -7.137549e-02 -1.041693e-01 -2.482275e-04 -1.743515e-01
<VARIANCE> 39
 1.507539e+01 4.288362e+01 5.289914e+01 6.434262e+01 6.060896e+01 1.233755e+02 8.242726e+01 5.747229e+01 9.149252e+01 4.145613e+01 4.315865e+01 3.660960e+01 3.511027e+01 6.624255e-01 1.228908e+00 1.477056e+00 1.595127e+00 1.507544e+00 2.664549e+00 2.467753e+00 2.086917e+00 2.264944e+00 2.096788e+00 1.614273e+00 1.685354e+00 6.906601e-01 1.540748e-01 2.953737e-01 2.667264e-01 3.036373e-01 1.908788e-01 4.484717e-01 5.228425e-01 3.732805e-01 3.871455e-01 3.389470e-01 2.838812e-01 2.456687e-01 1.286002e-01
<GCONST> 1.122583e+02
<TRANSP> 5
 0.000000e+00 1.000000e+00 0.000000e+00 0.000000e+00 0.000000e+00
 0.000000e+00 8.354891e-01 1.645108e-01 0.000000e+00 0.000000e+00
 0.000000e+00 0.000000e+00 6.848193e-01 3.151807e-01 0.000000e+00
 0.000000e+00 0.000000e+00 0.000000e+00 7.209338e-01 2.790662e-01
 0.000000e+00 0.000000e+00 0.000000e+00 0.000000e+00 0.000000e+00
<ENDHMM>
~h "l"
<BEGINHMM>
<NUMSTATES> 5
<STATE> 2
<MEAN> 39
 3.382058e+00 -1.822640e+00 1.788469e-01 -6.918254e+00 -1.991514e+00 -7.528652e+00 -1.138059e+01 3.953090e-01 -1.809855e+01 -6.477833e+00 -1.494231e+00 1.094383e+00 6.970166e+01 4.427602e-01 -6.733565e-01 -8.139811e-01 -9.647018e-01 3.176407e-01 -7.687391e-01 2.721557e-01 3.735960e-02 4.709144e-01 5.042202e-01 6.967180e-01 2.675256e-01 8.998153e-01 -2.783940e-02 -3.947488e-02 -3.573082e-02 1.878229e-02 2.457716e-02 -9.706362e-02 7.521710e-02 -6.958362e-02 2.210323e-01 2.174844e-01 -2.363169e-02 -4.779116e-02 3.022985e-02
<VARIANCE> 39
 2.918240e+01 4.049961e+01 6.362157e+01 6.783812e+01 8.536487e+01 7.349113e+01 8.959068e+01 7.632558e+01 1.185314e+02 8.013399e+01 7.250263e+01 4.422304e+01 3.858566e+01 1.922555e+00 2.963226e+00 3.707931e+00 3.974981e+00 4.165071e+00 5.533875e+00 3.605311e+00 4.497284e+00 8.172528e+00 4.760172e+00 3.279652e+00 3.386541e+00 2.495925e+00 3.395329e-01 4.688005e-01 6.289661e-01 6.667461e-01 6.722705e-01 8.900972e-01 5.914069e-01 7.219834e-01 1.193398e+00 6.879673e-01 6.322100e-01 5.944085e-01 3.985538e-01
<GCONST> 1.367512e+02
<STATE> 3
<MEAN> 39
 3.814410e+00 -4.132257e+00 1.209169e-01 -1.700501e+01 4.810831e+00 -9.830128e+00 -1.761433e+01 1.473923e+00 -1.236357e+01 -4.515460e+00 -4.678999e+00 5.940688e+00 7.455252e+01 -7.026806e-02 -5.371951e-01 -6.384434e-02 -4.257621e-01 -6.549049e-01 7.254495e-02 6.733847e-01 -1.345628e-01 7.453834e-01 6.726375e-01 3.241512e-01 -5.366767e-02 2.902662e-01 3.081755e-03 1.068900e-01 5.969691e-02 2.063350e-01 -1.390191e-01 1.063129e-01 7.906681e-03 -6.817053e-02 -1.328748e-01 -8.346921e-02 -7.668624e-02 -1.608842e-01 -1.147347e-01
<VARIANCE> 39
 6.843941e+00 3.044563e+01 2.331449e+01 7.976949e+01 6.747517e+01 6.364575e+01 8.237988e+01 5.106827e+01 6.493412e+01 4.522078e+01 6.894275e+01 4.204124e+01 2.089376e+01 1.721643e-01 1.114226e+00 8.343968e-01 2.359142e+00 1.311553e+00 2.462682e+00 2.272818e+00 1.834890e+00 2.436310e+00 2.148699e+00 2.674637e+00 2.121102e+00 4.874741e-01 4.023774e-02 1.545290e-01 1.946549e-01 4.452417e-01 2.879888e-01 4.906392e-01 3.872740e-01 3.402238e-01 5.598437e-01 4.338393e-01 5.304163e-01 3.374282e-01 8.875366e-02
<GCONST> 1.074826e+02
<STATE> 4
<MEAN> 39
 4.841133e+00 -4.754281e+00 -4.113194e+00 -1.149674e+01 -3.767219e+00 -1.452553e+01 -4.142272e+00 1.510029e+00 -1.483979e+01 -4.291125e-01 -2.759309e+00 5.471272e-02 7.366724e+01 -9.173203e-02 1.360588e-01 -3.261143e-02 2.154956e-01 -2.473393e-01 8.793163e-02 3.808496e-02 -5.500060e-01 2.937974e-01 3.304605e-01 -1.196487e-01 -1.935400e-01 -1.835939e-01 -4.328134e-02 1.215405e-01 1.135876e-01 5.130129e-02 4.399126e-02 2.716280e-02 -1.640716e-01 -5.637756e-03 -7.806530e-02 -9.253713e-02 -2.041682e-02 -6.351629e-03 -8.914883e-02
<VARIANCE> 39
 9.723829e+00 3.678251e+01 2.867918e+01 5.773900e+01 7.266975e+01 9.019014e+01 1.179403e+02 7.957998e+01 1.076896e+02 7.120972e+01 5.157231e+01 3.017617e+01 2.652080e+01 1.834051e-01 8.447454e-01 6.638380e-01 1.006075e+00 1.254225e+00 1.456024e+00 1.572006e+00 2.135638e+00 1.854855e+00 1.579636e+00 1.215304e+00 1.180479e+00 2.924547e-01 2.798709e-02 1.132238e-01 1.054619e-01 1.665183e-01 1.962487e-01 2.362843e-01 2.372551e-01 2.817123e-01 2.860099e-01 2.783253e-01 1.990798e-01 2.037949e-01 3.980216e-02
<GCONST> 9.769567e+01
<TRANSP> 5
 0.000000e+00 1.000000e+00 0.000000e+00 0.000000e+00 0.000000e+00
 0.000000e+00 7.452612e-01 2.547387e-01 0.000000e+00 0.000000e+00
 0.000000e+00 0.000000e+00 7.170698e-01 2.829301e-01 0.000000e+00
 0.000000e+00 0.000000e+00 0.000000e+00 8.199757e-01 1.800244e-01
 0.000000e+00 0.000000e+00 0.000000e+00 0.000000e+00 0.000000e+00
<ENDHMM>
~h "m"
<BEGINHMM>
<NUMSTATES> 5
<STATE> 2
<MEAN> 39
 3.308221e+00 7.037663e+00 1.269097e+00 -3.521042e+00 1.224979e+00 -4.413198e+00 -1.287667e+01 1.020266e+00 -1.820473e+01 -7.156199e+00 -1.321791e+01 -4.833012e+00 6.438856e+01 -6.483973e-02 7.640092e-01 4.050061e-01 8.925160e-01 6.720863e-02 4.358448e-01 -5.407917e-01 -1.637405e-01 3.348937e-01 -6.177948e-02 -4.490299e-01 -1.478127e-01 -5.975197e-01 -1.294680e-02 -2.924391e-01 -4.340063e-02 -2.356939e-01 -2.234789e-01 -2.697073e-01 1.458627e-01 -1.037357e-02 8.776841e-02 1.229070e-01 3.059142e-01 1.754685e-01 2.107674e-01
<VARIANCE> 39
 8.205154e+00 1.599764e+01 1.494047e+01 5.927395e+01 7.200524e+01 4.044430e+01 4.388756e+01 5.451228e+01 4.199684e+01 2.427353e+01 3.941798e+01 2.555582e+01 9.384356e+00 6.421204e-01 1.151758e+00 9.935370e-01 2.328061e+00 2.401901e+00 2.878587e+00 2.087499e+00 2.333881e+00 2.190494e+00 2.883656e+00 2.111689e+00 1.598168e+00 7.254162e-01 5.864885e-02 2.121777e-01 1.650755e-01 4.069879e-01 3.654316e-01 3.938922e-01 3.576101e-01 4.239556e-01 3.732696e-01 4.092665e-01 3.291350e-01 2.665852e-01 1.027444e-01
<GCONST> 1.044716e+02
<STATE> 3
<MEAN> 39
 2.064900e+00 6.282356e+00 2.687530e+00 -3.628502e+00 2.285316e+00 -4.501259e+00 -1.591429e+01 1.088608e+00 -1.422045e+01 -5.854203e+00 -1.053445e+01 -2.330550e+00 6.442277e+01 2.069630e-01 -2.360274e-01 3.980977e-02 2.567644e-01 -6.792975e-01 -2.324671e-01 2.840113e-01 -1.475965e-01 3.583208e-01 2.508309e-01 2.741938e-01 8.710621e-03 2.050129e-01 -2.285609e-01 -3.778539e-01 -3.039227e-03 -2.738180e-01 -1.950976e-01 4.224062e-02 4.535262e-01 7.756773e-02 1.262289e-01 1.638879e-01 3.187611e-01 1.442824e-01 1.002252e-01
<VARIANCE> 39
 1.835668e+01 5.409772e+01 4.765926e+01 8.284186e+01 6.975260e+01 7.024810e+01 7.401517e+01 6.344981e+01 5.254321e+01 4.661058e+01 4.516756e+01 3.137087e+01 2.579882e+01 2.623731e+00 3.558325e+00 4.620417e+00 5.571372e+00 3.895684e+00 3.917555e+00 6.114205e+00 4.539097e+00 3.641548e+00 3.774059e+00 3.534637e+00 2.265151e+00 2.293676e+00 3.584773e-01 8.040339e-01 9.123240e-01 7.800761e-01 7.705057e-01 7.606513e-01 1.188616e+00 8.870807e-01 6.684644e-01 7.860441e-01 7.123619e-01 4.371889e-01 3.028555e-01
<GCONST> 1.341122e+02
<STATE> 4
<MEAN> 39
 2.199298e+00 7.681238e+00 2.262353e+00 5.904115e-01 -2.471524e+00 -3.978003e+00 -1.295329e+01 -5.985428e-01 -1.304291e+01 -4.561775e+00 -1.009973e+01 -3.657548e+00 6.228670e+01 -4.737754e-01 -3.206367e-01 1.571340e-01 -4.689111e-01 -7.571075e-01 3.408192e-01 9.576035e-01 -1.149673e-02 4.106133e-01 2.951749e-01 9.196293e-01 5.333052e-01 -7.166474e-02 -2.134385e-01 -4.718592e-01 -2.613242e-02 -4.749310e-01 1.674442e-01 -1.946643e-02 2.157648e-01 1.093337e-01 -6.524710e-02 -2.364480e-02 2.495818e-01 1.598271e-01 2.464975e-01
<VARIANCE> 39
 2.184088e+01 3.772686e+01 3.587664e+01 5.676365e+01 3.814327e+01 4.627860e+01 4.148466e+01 5.491476e+01 4.385157e+01 3.236069e+01 4.393975e+01 2.552359e+01 1.838065e+01 1.857119e+00 3.369080e+00 3.803161e+00 5.415587e+00 3.243020e+00 3.595655e+00 3.668786e+00 4.809561e+00 3.324604e+00 2.626370e+00 3.109724e+00 2.022369e+00 2.028791e+00 3.197111e-01 6.732884e-01 5.237557e-01 6.500776e-01 4.142846e-01 6.357149e-01 6.656715e-01 6.187920e-01 5.691490e-01 5.198116e-01 5.518901e-01 3.469445e-01 3.015008e-01
<GCONST> 1.244033e+02
<TRANSP> 5
 0.000000e+00 1.000000e+00 0.000000e+00 0.000000e+00 0.000000e+00
 0.000000e+00 8.082635e-01 1.917365e-01 0.000000e+00 0.000000e+00
 0.000000e+00 0.000000e+00 4.212738e-01 5.787262e-01 0.000000e+00
 0.000000e+00 0.000000e+00 0.000000e+00 4.837355e-01 5.162645e-01
 0.000000e+00 0.000000e+00 0.000000e+00 0.000000e+00 0.000000e+00
<ENDHMM>
~h "n"
<BEGINHMM>
<NUMSTATES> 5
<STATE> 2
<MEAN> 39
 2.480477e+00 5.404353e+00 2.659930e+00 -1.083659e+00 5.915189e-01 -7.478902e+00 -1.824233e+01 -1.978319e+00 -1.345025e+01 -3.423237e+00 -5.841099e+00 -1.192851e+00 6.477977e+01 1.400551e-01 1.783986e+00 2.516777e-01 1.959785e+00 -8.151174e-01 1.075810e+00 -9.230351e-01 -3.160212e-01 4.883822e-01 -4.485460e-01 -8.033190e-01 -2.318825e-01 -1.530065e+00 -2.441898e-02 -4.688587e-01 -1.125265e-01 -5.252155e-01 -3.193472e-02 -4.059250e-01 3.780469e-01 2.554028e-02 1.013182e-01 1.085257e-01 1.443856e-01 3.616849e-02 4.315984e-01
<VARIANCE> 39
 1.092007e+01 2.079571e+01 2.720619e+01 6.852151e+01 4.704158e+01 6.393018e+01 4.852827e+01 4.712689e+01 5.179691e+01 3.534629e+01 3.161645e+01 3.155479e+01 1.207750e+01 5.361719e-01 1.761229e+00 1.882368e+00 3.598208e+00 2.714044e+00 3.682111e+00 4.450007e+00 3.949658e+00 3.058363e+00 2.935399e+00 3.139767e+00 2.602833e+00 1.098953e+00 6.471952e-02 2.194130e-01 2.336375e-01 5.238609e-01 4.011544e-01 4.277847e-01 4.452336e-01 4.997577e-01 4.107920e-01 4.325185e-01 4.421071e-01 2.850455e-01 1.137470e-01
<GCONST> 1.131070e+02
<STATE> 3
<MEAN> 39
 2.972544e+00 6.851969e+00 2.438709e+00 4.721454e-01 -2.311426e+00 -8.532929e+00 -1.912890e+01 -3.169203e+00 -1.334444e+01 -4.714470e+00 -8.490049e+00 -2.590803e+00 6.375042e+01 -1.266194e-01 6.641754e-01 2.496970e-01 9.930015e-02 -2.570301e-01 3.326026e-01 9.389684e-02 -1.205737e-01 6.346398e-02 -1.579831e-01 -1.192799e-01 -4.207893e-02 -4.320894e-01 -9.013239e-02 -1.213930e-01 5.487399e-02 -1.269023e-01 7.194169e-02 -8.426153e-03 2.302305e-01 2.844775e-02 -9.719273e-02 6.349713e-02 1.074818e-01 2.344032e-02 7.458130e-02
<VARIANCE> 39
 9.201223e+00 1.695398e+01 2.292620e+01 6.640683e+01 5.887167e+01 5.538293e+01 3.872717e+01 6.722052e+01 4.209978e+01 2.540762e+01 3.283781e+01 3.895763e+01 9.444915e+00 1.818501e-01 4.474095e-01 5.348421e-01 8.902908e-01 9.516120e-01 1.188350e+00 1.297742e+00 1.141042e+00 1.293953e+00 1.189283e+00 1.136799e+00 8.997760e-01 1.657468e-01 3.283343e-02 1.012587e-01 1.061326e-01 2.361670e-01 2.195661e-01 2.609615e-01 2.761131e-01 2.677125e-01 2.442587e-01 2.530664e-01 2.346529e-01 2.037879e-01 4.634130e-02
<GCONST> 8.855235e+01
<STATE> 4
<MEAN> 39
 -5.977233e-01 1.047088e+01 5.300954e+00 4.785686e+00 -1.979471e+00 -2.111729e+00 -1.481088e+01 -3.664798e+00 -1.122604e+01 -3.094388e+00 -5.458359e+00 -1.018340e+00 5.883523e+01 -6.837766e-01 -8.204598e-02 6.396861e-02 2.635151e-01 -9.121856e-03 6.132088e-01 8.515951e-01 2.827220e-01 1.982022e-01 2.626073e-01 1.854703e-01 1.132836e-02 -5.523090e-01 -1.063848e-01 -2.807969e-01 -1.239541e-01 -1.257966e-01 2.704229e-02 -4.656171e-02 1.230075e-01 1.103108e-01 1.240122e-01 1.242592e-01 7.184976e-02 4.848035e-02 5.983507e-02
<VARIANCE> 39
 1.769348e+01 1.246121e+01 1.836062e+01 3.620237e+01 2.708925e+01 4.086983e+01 3.279038e+01 3.354655e+01 3.321972e+01 2.283610e+01 2.581674e+01 2.011474e+01 1.111909e+01 4.233738e-01 9.511662e-01 9.793392e-01 1.020045e+00 1.153141e+00 1.331031e+00 1.418882e+00 1.480079e+00 1.557718e+00 1.375067e+00 1.201438e+00 9.886684e-01 1.967359e-01 6.257950e-02 1.552219e-01 1.353061e-01 2.140429e-01 2.383202e-01 2.743224e-01 2.777086e-01 2.437368e-01 2.699520e-01 2.255725e-01 2.123834e-01 1.862538e-01 5.137806e-02
<GCONST> 8.985173e+01
<TRANSP> 5
 0.000000e+00 1.000000e+00 0.000000e+00 0.000000e+00 0.000000e+00
 0.000000e+00 5.964019e-01 4.035981e-01 0.000000e+00 0.000000e+00
 0.000000e+00 0.000000e+00 7.206304e-01 2.793696e-01 0.000000e+00
 0.000000e+00 0.000000e+00 0.000000e+00 7.131383e-01 2.868616e-01
 0.000000e+00 0.000000e+00 0.000000e+00 0.000000e+00 0.000000e+00
<ENDHMM>
~h "o"
<BEGINHMM>
<NUMSTATES> 5
<STATE> 2
<MEAN> 39
 6.144969e+00 7.795243e+00 -8.683123e-01 -8.722511e+00 -1.045190e+01 -1.391107e+01 -9.866703e+00 1.239447e+01 -1.143546e+01 -5.657331e+00 -9.028427e+00 -4.721353e+00 6.581616e+01 -4.380627e-02 3.623338e-02 -2.085641e-01 2.073649e-02 1.065861e+00 3.419933e-01 -4.803006e-01 -2.867830e-01 -2.053531e-02 -3.154671e-01 -9.550297e-02 5.818649e-01 -1.693579e-02 -8.739860e-02 -2.721897e-02 6.030321e-02 1.561863e-01 1.329710e-01 1.808455e-01 -8.137688e-02 -2.612081e-01 8.031871e-03 1.062178e-01 4.586878e-02 2.052720e-02 -6.415944e-02
<VARIANCE> 39
 4.597824e+00 2.546764e+01 2.250397e+01 6.002549e+01 7.391809e+01 8.447025e+01 5.112950e+01 5.191253e+01 6.236525e+01 4.717651e+01 2.504623e+01 3.047600e+01 1.040863e+01 4.958360e-01 1.682954e+00 2.124052e+00 6.063767e+00 4.480775e+00 3.205052e+00 3.883927e+00 6.769836e+00 4.517344e+00 2.582428e+00 2.593462e+00 2.837402e+00 8.999241e-01 1.222572e-01 3.073905e-01 4.082111e-01 1.047041e+00 7.947165e-01 5.939277e-01 8.701258e-01 1.390078e+00 8.276840e-01 6.557006e-01 5.210711e-01 5.253932e-01 1.508742e-01
<GCONST> 1.214051e+02
<STATE> 3
<MEAN> 39
 4.923742e+00 7.432988e+00 -5.374084e-01 -1.651184e+00 1.499276e+00 -6.018899e+00 -1.994395e+01 -1.063334e+00 -1.275575e+01 -5.607798e+00 -7.776345e+00 7.932892e-02 6.432085e+01 -5.466723e-01 -6.005443e-02 1.710754e+00 3.145696e+00 -3.075625e-01 -1.011281e+00 -8.307487e-01 -1.105549e+00 9.257040e-01 1.012512e+00 4.691024e-02 -1.247665e+00 -4.674366e-01 -1.475832e-01 -5.773399e-01 2.905127e-01 -2.766323e-01 -1.769544e-01 -1.012788e+00 5.097331e-01 8.694025e-01 -1.522003e-01 -2.354925e-01 3.323938e-02 -2.566641e-01 4.431664e-01
<VARIANCE> 39
 3.410740e+00 2.423091e+01 3.429902e+01 8.781144e+01 7.754754e+01 4.159744e+01 2.402356e+01 3.966201e+01 9.415083e+00 2.677965e+01 2.072593e+01 2.816648e+01 1.040492e+01 1.890857e-01 6.771318e+00 1.329740e+00 3.011793e+00 4.282408e+00 7.779415e+00 4.539611e+00 8.152659e+00 2.833997e+00 3.319816e+00 3.697150e+00 2.609575e+00 2.522539e+00 5.036315e-02 1.406328e+00 4.459792e-01 9.272857e-01 1.373539e+00 6.618100e-01 7.754186e-01 1.092441e+00 3.610322e-01 6.884596e-01 9.798614e-01 8.768952e-01 4.763697e-01
<GCONST> 1.213905e+02
<STATE> 4
<MEAN> 39
 5.324452e-01 -2.713484e+00 9.419052e+00 7.553065e+00 4.043194e+00 -2.374878e+01 -2.127033e+01 2.985155e+00 -1.148557e+01 -5.337284e+00 -5.714169e+00 -4.333617e+00 6.975095e+01 -7.601447e-01 -9.653638e-01 1.518683e+00 4.909452e-01 9.504139e-01 -2.128522e+00 -3.662200e-01 3.622530e-01 1.734483e-01 3.434156e-01 -2.765305e-01 3.895931e-01 6.207131e-01 1.741996e-01 7.845671e-01 -3.245436e-01 -3.803914e-01 -1.371518e-01 1.132658e+00 -1.380463e-01 -3.985560e-01 4.052720e-02 1.926104e-01 -1.181909e-01 1.910381e-01 -4.488352e-01
<VARIANCE> 39
 6.984951e+00 3.477635e+01 2.314225e+01 1.200559e+02 5.545000e+01 1.756207e+02 8.338070e+01 8.596560e+01 9.383842e+00 2.816133e+01 2.692113e+01 1.408438e+01 7.288781e+00 3.655376e-01 7.333858e+00 2.949535e+00 2.918414e+00 2.210528e+00 9.724476e+00 2.949049e+00 3.810995e+00 9.267241e-01 2.715645e+00 4.146914e+00 1.391450e+00 2.354371e+00 5.021775e-02 9.456323e-01 3.552433e-01 5.518599e-01 2.358584e-01 9.153332e-01 6.220269e-01 6.960570e-01 1.684890e-01 3.541714e-01 6.625455e-01 3.074568e-01 2.141431e-01
<GCONST> 1.158221e+02
<TRANSP> 5
 0.000000e+00 1.000000e+00 0.000000e+00 0.000000e+00 0.000000e+00
 0.000000e+00 9.310231e-01 6.897682e-02 0.000000e+00 0.000000e+00
 0.000000e+00 0.000000e+00 7.857990e-01 2.142010e-01 0.000000e+00
 0.000000e+00 0.000000e+00 0.000000e+00 7.531998e-01 2.468003e-01
 0.000000e+00 0.000000e+00 0.000000e+00 0.000000e+00 0.000000e+00
<ENDHMM>
~h "p"
<BEGINHMM>
<NUMSTATES> 5
<STATE> 2
<MEAN> 39
 3.305042e-01 -1.304713e+00 -1.045552e+00 -1.925514e+00 -1.182782e+00 -7.616986e+00 -1.562480e+01 -5.616507e+00 -8.619605e+00 4.275423e+00 -4.103202e+00 -3.511377e+00 6.578407e+01 -4.423468e-01 3.537924e-01 3.033063e-03 7.909038e-01 -7.712027e-02 5.389645e-01 6.878832e-02 -2.643259e-01 3.502278e-01 4.293983e-01 3.288957e-01 7.490677e-02 -7.524657e-01 -1.844319e-01 4.233206e-03 -5.488349e-02 -1.182671e-01 -6.041471e-02 -1.872767e-02 1.341711e-01 9.701411e-02 -2.677993e-02 -3.188486e-02 9.618331e-02 1.667003e-01 -1.322263e-01
<VARIANCE> 39
 5.074475e+01 6.157693e+01 4.278392e+01 7.206157e+01 5.631745e+01 1.214792e+02 8.735610e+01 6.600714e+01 7.374362e+01 5.826606e+01 3.516293e+01 3.153253e+01 5.984397e+01 4.144373e+00 3.785747e+00 2.579443e+00 4.331075e+00 3.227432e+00 8.223850e+00 4.374003e+00 4.342589e+00 5.095744e+00 3.537205e+00 3.279815e+00 3.581041e+00 6.059477e+00 4.463285e-01 5.441318e-01 4.810290e-01 5.793909e-01 4.572732e-01 1.047357e+00 6.691006e-01 6.419239e-01 7.792420e-01 4.742019e-01 4.697292e-01 5.525754e-01 5.409785e-01
<GCONST> 1.360300e+02
<STATE> 3
<MEAN> 39
 -1.458356e+00 5.579887e+00 -8.810916e-01 -1.732011e-01 -4.652800e+00 -1.120276e-01 -1.031606e+01 -3.235959e-02 -7.962231e+00 1.813307e-01 -2.434016e+00 -9.238115e-01 5.911142e+01 -1.893503e+00 4.255107e-01 5.318596e-03 8.157043e-01 -4.034978e-01 8.152171e-01 6.086539e-01 -6.501291e-01 6.064534e-01 8.277242e-01 8.911247e-01 1.059187e+00 -1.927561e+00 1.691190e-01 -5.352300e-01 -2.026076e-01 -7.709673e-01 -1.150748e-01 -6.480297e-01 -2.646651e-01 1.759385e-01 -3.049450e-01 -2.299542e-01 -2.001020e-01 -3.540227e-02 5.260422e-01
<VARIANCE> 39
 1.783067e+01 4.303144e+01 3.125556e+01 5.843469e+01 4.706273e+01 4.875568e+01 7.261931e+01 3.601233e+01 3.875096e+01 4.201344e+01 2.915882e+01 2.889059e+01 2.206042e+01 1.646122e+00 1.548637e+00 1.737602e+00 2.184167e+00 1.950170e+00 3.238100e+00 3.738042e+00 2.208574e+00 2.348722e+00 2.041110e+00 3.187227e+00 1.700576e+00 1.242462e+00 1.166885e-01 4.029871e-01 3.978580e-01 7.227895e-01 5.392355e-01 6.910255e-01 5.884303e-01 6.049278e-01 4.915711e-01 4.529401e-01 4.965050e-01 3.972663e-01 2.385185e-01
<GCONST> 1.174784e+02
<STATE> 4
<MEAN> 39
 -5.377699e+00 5.624501e+00 -2.822847e+00 -2.603830e+00 -8.895092e+00 -4.037138e-01 -8.558592e+00 8.276402e-01 -6.805449e+00 3.621807e-01 -1.804485e+00 1.545836e+00 5.542381e+01 -8.540212e-01 -4.260288e-01 -2.476526e-02 -1.049813e-01 -2.143037e-01 -2.811154e-02 3.321818e-02 8.342574e-02 1.241043e-01 2.054524e-01 1.103474e-01 1.391825e-01 -4.949271e-01 3.311364e-01 -2.861101e-01 1.547111e-01 -3.460037e-01 1.555111e-01 -1.774473e-01 -1.395432e-01 1.819385e-01 -1.579208e-01 -2.136119e-01 -2.285893e-01 -1.990658e-01 5.556346e-01
<VARIANCE> 39
 1.568817e+01 1.596312e+01 2.777154e+01 5.392483e+01 3.984914e+01 2.525884e+01 3.077036e+01 2.322249e+01 2.086671e+01 1.766757e+01 1.617221e+01 2.286458e+01 1.485323e+01 4.642341e-01 9.469354e-01 9.433447e-01 1.549637e+00 1.555749e+00 1.261484e+00 1.764700e+00 1.811398e+00 1.387628e+00 1.131485e+00 1.375661e+00 1.592366e+00 3.766639e-01 1.933323e-01 3.369071e-01 3.071562e-01 5.894644e-01 3.852029e-01 4.372253e-01 4.036950e-01 5.070455e-01 3.892393e-01 3.106269e-01 3.674396e-01 3.775577e-01 3.040652e-01
<GCONST> 1.010857e+02
<TRANSP> 5
 0.000000e+00 1.000000e+00 0.000000e+00 0.000000e+00 0.000000e+00
 0.000000e+00 7.357240e-01 2.642759e-01 0.000000e+00 0.000000e+00
 0.000000e+00 0.000000e+00 2.768087e-01 7.231913e-01 0.000000e+00
 0.000000e+00 0.000000e+00 0.000000e+00 7.183401e-01 2.816598e-01
 0.000000e+00 0.000000e+00 0.000000e+00 0.000000e+00 0.000000e+00
<ENDHMM>
~h "r"
<BEGINHMM>
<NUMSTATES> 5
<STATE> 2
<MEAN> 39
 -8.282932e+00 -2.113737e+00 2.596408e+00 -6.250900e+00 -2.510848e+00 -1.465214e+00 -8.728238e+00 -2.333004e+00 -1.108348e+01 1.179072e+00 -1.947096e+00 1.799440e+00 6.116261e+01 1.209758e+00 -4.148525e-01 -8.926818e-02 -1.183344e+00 6.253041e-01 -5.649540e-01 -6.518174e-01 -3.720409e-01 -4.527491e-01 8.877886e-03 -1.984161e-01 -8.630791e-02 1.539652e+00 5.934003e-01 1.842279e-01 -5.379787e-01 -2.465048e-03 -1.062359e-01 -2.704796e-01 -3.469711e-01 1.349973e-01 5.962037e-02 -2.203814e-01 4.646927e-02 -1.272071e-01 1.902897e-01
<VARIANCE> 39
 5.628665e+01 6.642960e+01 1.013878e+02 9.706709e+01 8.079496e+01 6.581377e+01 7.114526e+01 5.192560e+01 6.260888e+01 4.260807e+01 4.875615e+01 2.403591e+01 6.547903e+01 7.342181e+00 8.518504e+00 1.020500e+01 8.535851e+00 6.989974e+00 8.611425e+00 9.397642e+00 5.468440e+00 7.404052e+00 4.670557e+00 5.079393e+00 3.250761e+00 7.049841e+00 8.215675e-01 1.537743e+00 1.708304e+00 1.577743e+00 1.202940e+00 1.081114e+00 1.922975e+00 1.069607e+00 1.544515e+00 9.359664e-01 9.328789e-01 6.585388e-01 7.569150e-01
<GCONST> 1.517810e+02
<STATE> 3
<MEAN> 39
 2.722220e+00 -2.043046e+00 -1.070619e+00 -1.069365e+01 -1.437819e+00 -5.586572e+00 -1.545084e+01 -1.123418e+00 -1.329227e+01 -2.817480e+00 -2.521048e+00 8.040054e-01 6.936333e+01 1.151339e+00 9.626566e-01 -1.208580e+00 5.867769e-01 3.442852e-01 4.045844e-01 -9.736121e-01 2.888578e-01 5.976070e-01 -4.026665e-01 2.384759e-01 3.873746e-02 -1.743122e-01 -4.633736e-01 -4.343271e-02 2.875669e-02 2.497447e-01 -1.591359e-02 1.159045e-01 3.135829e-01 4.312550e-02 2.972260e-01 4.604330e-02 1.482049e-02 9.066038e-02 -3.280159e-01
<VARIANCE> 39
 3.378151e+01 5.476201e+01 9.547093e+01 8.325471e+01 7.380412e+01 6.070304e+01 8.837132e+01 4.103658e+01 6.752037e+01 4.989854e+01 6.755074e+01 3.011669e+01 2.536391e+01 4.546573e+00 6.108987e+00 4.559680e+00 5.529712e+00 5.590561e+00 6.465315e+00 7.233322e+00 5.267290e+00 6.520956e+00 3.912236e+00 4.152013e+00 2.869899e+00 4.690607e+00 6.362303e-01 1.074422e+00 9.737728e-01 9.883891e-01 8.560125e-01 1.234913e+00 1.167945e+00 8.277776e-01 1.245942e+00 7.368807e-01 8.808105e-01 6.189355e-01 5.409509e-01
<GCONST> 1.430964e+02
<STATE> 4
<MEAN> 39
 -4.131193e-01 3.501005e+00 3.757941e-01 -2.419623e+00 -3.124726e+00 -2.276757e+00 -1.222308e+01 -3.448298e+00 -1.223780e+01 -5.731460e-01 -2.402478e+00 1.263229e+00 6.246338e+01 -2.329889e-01 1.580094e-01 -2.816097e-01 2.171325e-01 -4.702793e-02 2.528930e-01 1.797062e-01 -1.586085e-02 6.902195e-01 7.650760e-02 2.713282e-01 1.356281e-01 -3.103488e-01 -2.576054e-01 -7.893457e-01 3.847122e-01 -5.748159e-01 2.007711e-01 -4.784463e-01 1.487549e-01 3.373172e-02 -1.301677e-01 -3.971630e-02 -1.385869e-01 -1.501670e-01 6.165475e-01
<VARIANCE> 39
 3.075084e+01 6.113686e+01 7.106338e+01 7.392964e+01 5.072100e+01 6.608128e+01 4.822955e+01 3.115485e+01 4.593543e+01 3.492331e+01 3.192295e+01 1.932562e+01 4.071506e+01 3.221063e+00 6.132238e+00 4.703475e+00 4.291558e+00 4.043171e+00 5.211514e+00 4.970042e+00 3.797506e+00 4.623802e+00 4.303783e+00 2.560895e+00 2.906803e+00 4.208185e+00 6.979676e-01 1.489566e+00 1.074582e+00 1.021174e+00 8.123255e-01 9.822785e-01 1.051560e+00 7.802604e-01 8.547318e-01 6.662919e-01 5.599471e-01 5.465512e-01 8.522906e-01
<GCONST> 1.369372e+02
<TRANSP> 5
 0.000000e+00 1.000000e+00 0.000000e+00 0.000000e+00 0.000000e+00
 0.000000e+00 6.297405e-01 3.702595e-01 0.000000e+00 0.000000e+00
 0.000000e+00 0.000000e+00 5.803768e-01 4.196232e-01 0.000000e+00
 0.000000e+00 0.000000e+00 0.000000e+00 6.063946e-01 3.936054e-01
 0.000000e+00 0.000000e+00 0.000000e+00 0.000000e+00 0.000000e+00
<ENDHMM>
~h "s"
<BEGINHMM>
<NUMSTATES> 5
<STATE> 2
<MEAN> 39
 -1.431851e+01 -6.216018e+00 1.595593e+01 -1.563253e+01 1.782869e+00 -3.949428e+00 -8.949348e+00 -6.722187e+00 -7.963723e+00 8.575848e-01 -4.735999e+00 3.115228e-01 6.898565e+01 -4.322409e+00 -1.642798e+00 3.250269e+00 -2.819989e+00 1.761617e+00 -4.570221e-04 2.203612e+00 -8.369222e-01 2.330988e+00 -4.812105e-02 4.357534e-01 4.455377e-01 1.465563e+00 -8.837099e-02 7.081816e-02 -9.191779e-01 2.386802e-01 1.771350e-02 -5.307447e-01 3.146634e-01 1.050378e-01 2.113635e-01 -1.667502e-01 2.807590e-01 -1.365206e-01 8.471632e-02
<VARIANCE> 39
 1.034794e+02 4.462236e+01 7.811788e+01 9.401585e+01 4.805747e+01 8.912534e+01 8.506464e+01 6.010953e+01 8.301414e+01 5.269295e+01 3.817717e+01 3.214680e+01 4.686018e+01 3.307770e+00 3.537785e+00 8.230043e+00 7.003374e+00 3.929145e+00 9.634660e+00 7.705248e+00 4.745817e+00 6.445398e+00 3.636698e+00 3.937346e+00 2.732333e+00 2.367511e+00 1.177708e+00 7.059934e-01 1.366741e+00 1.621027e+00 8.100313e-01 1.233491e+00 1.677478e+00 9.568032e-01 1.284912e+00 6.773015e-01 5.892067e-01 5.105464e-01 3.248602e-01
<GCONST> 1.440193e+02
<STATE> 3
<MEAN> 39
 -2.771317e+01 -1.010122e+01 1.675976e+01 -1.950240e+01 7.278485e+00 -7.144167e+00 -2.008272e+00 -8.428575e+00 -2.671408e-02 -7.564446e-01 -1.218967e+00 -3.222601e-01 7.337334e+01 3.092629e-02 -7.877105e-02 -5.114463e-01 3.735909e-01 -1.836443e-01 8.618628e-02 -4.861363e-02 1.970553e-01 -1.958933e-01 1.532784e-01 1.045527e-01 1.374027e-01 -3.521335e-01 8.785135e-01 2.437126e-01 -2.132695e-01 2.623315e-01 -3.097521e-01 1.207269e-01 -3.902195e-01 1.151551e-01 -5.446274e-01 9.786963e-02 -1.525765e-01 8.323752e-02 -2.810023e-01
<VARIANCE> 39
 1.266649e+01 4.694516e+01 2.657803e+01 3.329188e+01 2.977461e+01 2.231290e+01 3.745297e+01 3.346741e+01 2.389003e+01 4.069638e+01 2.446008e+01 2.228751e+01 1.321997e+01 3.958845e+00 1.303102e+00 1.722024e+00 1.460002e+00 1.715088e+00 1.865439e+00 2.480645e+00 1.866018e+00 2.564506e+00 1.857992e+00 1.672800e+00 1.455457e+00 1.108251e+00 5.301906e-01 3.761602e-01 3.453446e-01 3.335208e-01 3.378499e-01 4.720399e-01 5.072059e-01 3.998543e-01 5.676745e-01 3.597034e-01 3.443481e-01 2.884693e-01 1.188061e-01
<GCONST> 1.088241e+02
<STATE> 4
<MEAN> 39
 -1.497475e+01 -5.471464e+00 1.081739e+01 -1.288992e+01 9.069844e-01 -3.405177e+00 -8.245247e+00 -4.596157e+00 -7.608750e+00 2.457269e+00 -2.808216e+00 2.468455e+00 6.488695e+01 3.655666e+00 1.929932e+00 -1.898758e+00 1.160059e+00 -1.372676e+00 1.496587e-01 -1.338778e+00 4.598243e-01 -1.667823e+00 -4.162564e-01 -5.464070e-01 -5.426779e-02 -7.366011e-01 9.378887e-02 4.933535e-02 -7.393686e-02 -2.227017e-01 2.891552e-02 -2.740890e-01 1.651192e-01 -6.995632e-02 1.183045e-01 -2.944106e-01 -1.134187e-01 -1.353966e-01 4.731371e-01
<VARIANCE> 39
 6.418539e+01 7.345514e+01 5.380444e+01 5.487953e+01 4.039888e+01 5.373914e+01 5.815401e+01 4.837635e+01 4.366941e+01 4.618303e+01 2.859596e+01 2.212389e+01 4.072882e+01 6.684851e+00 5.743444e+00 3.550002e+00 4.131238e+00 3.946187e+00 5.905935e+00 5.069661e+00 4.399975e+00 7.018912e+00 4.312083e+00 3.874904e+00 2.589030e+00 3.911774e+00 6.230101e-01 1.159376e+00 6.027853e-01 6.839449e-01 5.799751e-01 9.669760e-01 8.642445e-01 7.692345e-01 7.999196e-01 6.724340e-01 6.919026e-01 4.709138e-01 4.510090e-01
<GCONST> 1.364484e+02
<TRANSP> 5
 0.000000e+00 1.000000e+00 0.000000e+00 0.000000e+00 0.000000e+00
 0.000000e+00 7.636890e-01 2.363110e-01 0.000000e+00 0.000000e+00
 0.000000e+00 0.000000e+00 8.706048e-01 1.293952e-01 0.000000e+00
 0.000000e+00 0.000000e+00 0.000000e+00 7.451098e-01 2.548902e-01
 0.000000e+00 0.000000e+00 0.000000e+00 0.000000e+00 0.000000e+00
<ENDHMM>
~h "t"
<BEGINHMM>
<NUMSTATES> 5
<STATE> 2
<MEAN> 39
 -2.286356e+00 -9.275301e-01 1.890026e+00 -1.015563e+01 -4.702775e+00 -5.543440e+00 -1.075735e+01 -1.565545e+00 -9.124119e+00 -1.787756e+00 -3.674897e+00 1.115119e+00 6.630601e+01 -1.017590e+00 7.219487e-01 6.585445e-01 5.022303e-01 1.436105e-01 7.158376e-01 1.017367e-01 2.208851e-01 2.403091e-01 6.545995e-02 3.058599e-01 -3.854664e-02 -1.095957e+00 4.552906e-02 -1.841173e-03 -3.369984e-01 1.993667e-01 -1.383237e-01 1.245422e-01 8.918454e-02 2.313679e-01 9.767327e-02 1.276231e-01 5.210359e-02 -9.428059e-02 -2.003512e-01
<VARIANCE> 39
 5.872065e+01 7.349477e+01 7.205628e+01 1.295064e+02 8.345487e+01 7.281678e+01 1.003215e+02 5.951432e+01 5.659900e+01 4.611716e+01 2.952498e+01 2.590041e+01 7.705424e+01 3.475278e+00 8.822733e+00 4.857186e+00 8.349354e+00 4.336573e+00 7.320432e+00 6.794438e+00 4.066356e+00 3.466780e+00 3.794699e+00 3.064935e+00 2.213186e+00 7.123658e+00 6.144971e-01 1.168994e+00 1.035660e+00 1.662084e+00 8.766605e-01 1.201635e+00 1.205052e+00 1.064188e+00 8.498362e-01 7.404381e-01 5.474236e-01 3.947843e-01 9.334269e-01
<GCONST> 1.442524e+02
<STATE> 3
<MEAN> 39
 -2.367504e+00 3.964951e+00 1.306266e+00 -3.486119e+00 -6.087933e+00 -2.761750e+00 -8.973950e+00 -1.413898e+00 -1.101670e+01 -9.513813e-01 -2.963305e+00 -7.082088e-02 6.108310e+01 -1.128727e+00 9.038482e-01 -6.907521e-01 1.545407e+00 -7.880666e-01 1.739971e+00 6.145414e-01 9.222693e-01 1.238485e+00 7.815138e-01 5.035820e-01 -7.703342e-02 -2.355780e+00 -1.841465e-02 -8.410951e-01 -3.265615e-01 -6.236207e-01 -5.497283e-02 -4.587051e-01 1.382590e-02 -1.506977e-02 1.340031e-01 1.477338e-01 2.280670e-03 9.428539e-02 5.411370e-01
<VARIANCE> 39
 3.656570e+01 3.729959e+01 3.620249e+01 6.307573e+01 5.022291e+01 4.125510e+01 5.176357e+01 3.386505e+01 7.105525e+01 2.716507e+01 2.220011e+01 2.313531e+01 3.453748e+01 2.491023e+00 5.602940e+00 3.038063e+00 5.461120e+00 4.322617e+00 5.549430e+00 5.437551e+00 4.604840e+00 5.598050e+00 2.902318e+00 2.505623e+00 1.946756e+00 4.715762e+00 3.112551e-01 7.044336e-01 4.912002e-01 8.854807e-01 5.496561e-01 7.881513e-01 7.597501e-01 7.447065e-01 1.044285e+00 5.385502e-01 5.352679e-01 4.455146e-01 6.449825e-01
<GCONST> 1.306456e+02
<STATE> 4
<MEAN> 39
 -6.207678e+00 4.181677e+00 -3.613428e+00 -3.613784e+00 -9.498606e+00 -1.072294e-01 -7.533518e+00 1.490125e+00 -6.609614e+00 8.994725e-01 -8.296290e-01 1.438142e+00 5.542568e+01 -7.050609e-01 -1.155946e+00 8.431260e-03 -4.512780e-01 -6.466007e-02 -1.091650e-01 2.389507e-01 -2.318977e-01 -3.162334e-03 2.826636e-01 -1.125717e-01 8.693594e-02 1.960427e-01 2.277570e-01 -5.129026e-01 4.340667e-01 -5.172457e-01 2.261830e-01 -4.452996e-01 -3.150899e-02 -3.047323e-01 -4.405614e-01 -1.908967e-01 -2.538000e-01 -4.409631e-02 8.380667e-01
<VARIANCE> 39
 1.647518e+01 1.317190e+01 2.537140e+01 4.101025e+01 2.874052e+01 1.893401e+01 2.606404e+01 1.748088e+01 1.726630e+01 1.612663e+01 1.361368e+01 1.298438e+01 1.389496e+01 1.412433e+00 7.506687e+00 3.112081e+00 5.125004e+00 2.876261e+00 3.291109e+00 2.612212e+00 2.995300e+00 3.710255e+00 2.473297e+00 1.965103e+00 1.780716e+00 5.522984e+00 2.542476e-01 6.349586e-01 4.262308e-01 7.811946e-01 4.711168e-01 5.387328e-01 4.911585e-01 5.194825e-01 6.762099e-01 4.721468e-01 3.547452e-01 3.339518e-01 5.058866e-01
<GCONST> 1.148580e+02
<TRANSP> 5
 0.000000e+00 1.000000e+00 0.000000e+00 0.000000e+00 0.000000e+00
 0.000000e+00 5.760521e-01 4.239480e-01 0.000000e+00 0.000000e+00
 0.000000e+00 0.000000e+00 3.080921e-01 6.919078e-01 0.000000e+00
 0.000000e+00 0.000000e+00 0.000000e+00 7.573044e-01 2.426956e-01
 0.000000e+00 0.000000e+00 0.000000e+00 0.000000e+00 0.000000e+00
<ENDHMM>
~h "u"
<BEGINHMM>
<NUMSTATES> 5
<STATE> 2
<MEAN> 39
 -4.118722e+00 -4.964344e+00 6.154919e+00 -8.743507e+00 -3.397209e+00 -7.415493e+00 -1.015302e+01 -2.645830e+00 -1.587349e+01 -2.039454e+00 -6.113767e+00 -2.307829e+00 6.821951e+01 1.201089e+00 3.758821e-01 9.718428e-01 -1.267111e+00 -3.253887e-01 -1.579283e+00 -5.170531e-01 3.750544e-01 -1.532719e+00 -9.684675e-01 -9.293790e-01 -8.893096e-01 1.393781e+00 2.062239e-01 8.998252e-01 -9.134561e-02 3.235451e-01 -3.488249e-01 -1.224105e-01 -9.473062e-02 5.715326e-01 5.592248e-02 -1.743654e-01 9.436367e-02 -2.313819e-01 -5.005338e-01
<VARIANCE> 39
 6.556129e+01 1.105694e+02 6.734527e+01 8.671137e+01 7.322327e+01 1.017662e+02 9.842598e+01 7.056924e+01 1.121097e+02 6.913955e+01 4.960552e+01 4.179307e+01 4.949595e+01 5.205733e+00 1.232228e+01 4.921041e+00 1.040267e+01 6.354761e+00 9.951450e+00 9.214187e+00 7.280444e+00 9.751624e+00 5.202683e+00 4.400345e+00 4.002223e+00 6.830400e+00 8.045331e-01 2.248516e+00 7.983005e-01 1.492383e+00 9.433585e-01 1.636767e+00 1.514266e+00 1.169846e+00 1.284061e+00 1.007824e+00 8.784723e-01 6.597766e-01 9.403518e-01
<GCONST> 1.540858e+02
<STATE> 3
<MEAN> 39
 3.044956e+00 3.066872e+00 7.423428e+00 -1.384018e+01 -6.829595e+00 -1.115821e+01 -1.701369e+01 7.005251e+00 -1.935086e+01 -1.011435e+01 -6.650426e+00 -6.866602e+00 6.954401e+01 9.495180e-02 8.490657e-01 -2.399574e-02 7.872205e-01 -4.629534e-01 2.500190e-02 4.525517e-01 7.021263e-01 1.318637e-01 4.137025e-02 -1.085540e-01 -4.649990e-01 -6.491239e-01 -3.046004e-01 -1.616092e-01 -1.367777e-01 3.692146e-01 1.731109e-01 4.272491e-01 2.844234e-01 -4.257399e-01 4.365276e-01 3.675196e-01 9.971488e-02 3.066913e-01 -2.311789e-01
<VARIANCE> 39
 8.747578e+00 5.699918e+01 4.891760e+01 9.619956e+01 1.118793e+02 6.677525e+01 1.177907e+02 6.624346e+01 8.345897e+01 6.630302e+01 5.526890e+01 4.253870e+01 1.590707e+01 1.078987e+00 4.514476e+00 2.172169e+00 5.459907e+00 5.808852e+00 7.005564e+00 7.206258e+00 7.625085e+00 5.190100e+00 5.113640e+00 4.068261e+00 3.841039e+00 2.049279e+00 1.913007e-01 6.783075e-01 3.633279e-01 7.593362e-01 8.548903e-01 9.376256e-01 9.853736e-01 1.101340e+00 8.709315e-01 8.679972e-01 7.521216e-01 6.186013e-01 2.152738e-01
<GCONST> 1.358386e+02
<STATE> 4
<MEAN> 39
 1.876372e+00 5.545203e+00 5.730428e+00 -6.022940e+00 -1.345302e+01 -1.484893e+01 -6.742124e+00 4.935582e+00 -2.121824e+01 -4.533132e+00 -8.268508e+00 -9.111101e+00 6.524221e+01 -3.392352e-01 2.909505e-01 -4.216239e-01 6.039271e-01 2.250744e-01 8.703153e-01 -1.963443e-01 -2.938347e-01 1.040214e+00 6.724712e-02 1.612206e-01 5.088921e-01 -7.112381e-01 -7.826009e-02 -1.966092e-01 -2.756630e-02 -6.616624e-02 1.678710e-01 1.366813e-01 -1.067255e-01 -1.017520e-01 1.110114e-01 -6.246020e-03 3.104782e-02 1.663713e-01 5.964958e-02
<VARIANCE> 39
 1.385266e+01 3.994731e+01 4.159740e+01 6.368208e+01 1.096181e+02 1.153052e+02 7.111049e+01 5.981095e+01 1.147844e+02 5.007806e+01 3.893764e+01 5.400684e+01 2.699285e+01 5.586603e-01 2.647521e+00 1.303434e+00 2.830111e+00 3.748953e+00 4.465583e+00 3.258465e+00 3.998153e+00 4.595101e+00 3.281810e+00 2.621658e+00 2.321727e+00 1.291736e+00 7.034303e-02 4.171503e-01 2.133584e-01 5.255754e-01 5.545356e-01 6.885836e-01 5.974256e-01 6.758056e-01 7.342334e-01 5.642235e-01 3.894317e-01 3.924610e-01 1.891620e-01
<GCONST> 1.231244e+02
<TRANSP> 5
 0.000000e+00 1.000000e+00 0.000000e+00 0.000000e+00 0.000000e+00
 0.000000e+00 6.958210e-01 3.041790e-01 0.000000e+00 0.000000e+00
 0.000000e+00 0.000000e+00 7.074865e-01 2.925136e-01 0.000000e+00
 0.000000e+00 0.000000e+00 0.000000e+00 8.050083e-01 1.949917e-01
 0.000000e+00 0.000000e+00 0.000000e+00 0.000000e+00 0.000000e+00
<ENDHMM>
~h "w"
<BEGINHMM>
<NUMSTATES> 5
<STATE> 2
<MEAN> 39
 1.112936e+00 -2.641988e-01 -3.830463e+00 -1.030806e+01 -1.834107e+01 -4.807815e+00 -4.067415e+00 5.246979e+00 -6.677119e+00 -4.429471e+00 -1.409131e+00 -1.319007e+00 6.486865e+01 1.751919e-01 4.051697e-01 -6.398049e-02 -1.873211e-02 -2.088195e-01 -3.066638e-02 7.411487e-02 1.144903e-01 2.500952e-01 -1.189705e-01 -2.241523e-01 -1.819846e-01 -1.556523e-01 1.047840e-02 7.219215e-02 -2.517997e-02 -1.614628e-02 6.815261e-02 9.643100e-03 -4.321325e-02 -4.260437e-02 -3.069080e-02 6.153175e-02 2.839371e-02 1.854033e-02 -3.069659e-02
<VARIANCE> 39
 5.159214e+01 4.177276e+01 3.982200e+01 3.905849e+01 5.897436e+01 3.300219e+01 5.184930e+01 3.693338e+01 5.308231e+01 6.220135e+01 3.922737e+01 2.233060e+01 4.961641e+01 3.589419e+00 4.580235e+00 4.976573e+00 2.897257e+00 6.124999e+00 2.825372e+00 5.483461e+00 2.280451e+00 4.647557e+00 5.933328e+00 4.204486e+00 2.576577e+00 3.451756e+00 4.284025e-01 9.992318e-01 8.749589e-01 4.995355e-01 1.204606e+00 4.222898e-01 1.046944e+00 3.962270e-01 7.230327e-01 1.059615e+00 8.377158e-01 4.906528e-01 4.181638e-01
<GCONST> 1.331398e+02
<STATE> 3
<MEAN> 39
 2.138500e-01 9.173698e+00 1.491888e+00 -4.433183e+00 -1.945970e+01 -7.648560e+00 -7.605273e+00 -1.865667e-01 -8.210447e+00 -4.536642e-01 -1.869504e+00 -2.887718e+00 5.916933e+01 -8.119251e-01 4.141556e-01 -4.959432e-01 1.798785e-01 6.529288e-01 5.337073e-02 -6.531858e-01 -1.634844e-01 3.501085e-01 3.947738e-01 2.422632e-02 1.676030e-01 -9.898040e-01 1.748865e-02 -5.699157e-01 1.215665e-01 -2.909140e-01 1.028216e-01 1.142804e-01 2.057206e-01 6.314913e-02 6.007109e-02 -7.733903e-02 -2.708477e-01 9.079910e-02 4.477740e-01
<VARIANCE> 39
 3.040540e+01 2.370224e+01 4.301748e+01 2.068539e+01 6.264941e+01 4.567660e+01 3.861521e+01 3.326951e+01 1.590197e+01 1.385757e+01 1.973500e+01 3.328020e+01 1.633423e+01 8.469397e-01 9.109116e-01 9.775771e-01 1.724355e+00 1.835046e+00 1.576907e+00 1.746690e+00 8.996779e-01 1.520780e+00 1.505810e+00 1.602850e+00 8.281826e-01 9.202185e-01 2.005539e-01 3.160186e-01 3.658994e-01 3.924124e-01 5.927300e-01 3.109093e-01 4.556932e-01 4.227194e-01 3.656945e-01 4.079509e-01 5.070366e-01 3.143481e-01 4.665380e-01
<GCONST> 1.051086e+02
<STATE> 4
<MEAN> 39
 -7.577158e+00 5.562083e+00 -3.166916e+00 -3.894462e+00 -1.261600e+01 -1.384019e+00 -5.408289e+00 3.055354e+00 -5.511021e+00 1.730546e-01 -3.656931e+00 8.051620e-02 5.363165e+01 -5.666179e-01 -5.033411e-01 3.604985e-01 2.220842e-01 6.114049e-01 2.200544e-01 -2.985345e-01 -3.026001e-01 7.406053e-03 1.625298e-01 1.019089e-01 1.779442e-01 -4.844150e-02 2.184905e-01 -3.247273e-01 2.002799e-01 -1.687689e-01 -2.088210e-03 -3.233743e-02 1.557439e-01 -6.359322e-02 -2.176262e-01 -3.736957e-02 5.544002e-02 3.866972e-02 4.662199e-01
<VARIANCE> 39
 7.882879e+00 5.252882e+00 9.088910e+00 3.248055e+01 3.270767e+01 1.997303e+01 2.346915e+01 1.687613e+01 1.508023e+01 7.104197e+00 1.030557e+01 1.031477e+01 5.278422e+00 3.245575e-01 1.690572e+00 6.951879e-01 2.750082e+00 2.335211e+00 1.213663e+00 1.994384e+00 1.672502e+00 2.088156e+00 9.190500e-01 1.221901e+00 1.201862e+00 1.017003e+00 1.572249e-01 3.795612e-01 2.497597e-01 5.118559e-01 6.158407e-01 3.318875e-01 5.939218e-01 3.589569e-01 4.301777e-01 2.082130e-01 2.938569e-01 2.351083e-01 3.972602e-01
<GCONST> 9.388580e+01
<TRANSP> 5
 0.000000e+00 1.000000e+00 0.000000e+00 0.000000e+00 0.000000e+00
 0.000000e+00 8.738204e-01 1.261796e-01 0.000000e+00 0.000000e+00
 0.000000e+00 0.000000e+00 5.134940e-01 4.865060e-01 0.000000e+00
 0.000000e+00 0.000000e+00 0.000000e+00 8.113641e-01 1.886359e-01
 0.000000e+00 0.000000e+00 0.000000e+00 0.000000e+00 0.000000e+00
<ENDHMM>
~h "eu"
<BEGINHMM>
<NUMSTATES> 5
<STATE> 2
<MEAN> 39
 -2.534191e+00 2.520983e+00 5.385186e+00 -6.777368e+00 -3.211462e+00 -2.245675e+00 -7.669347e+00 -2.215073e+00 -1.323057e+01 -4.613475e+00 -5.623380e+00 1.920702e-01 6.500414e+01 2.030094e+00 -1.565556e+00 -5.464180e-01 -2.032276e+00 4.860990e-01 -2.129580e+00 -9.615204e-01 1.236659e-01 -2.538779e+00 -9.741095e-01 1.762769e-01 3.859509e-01 2.713568e+00 1.269511e-01 -1.292319e-01 -2.643313e-01 -1.306560e-01 2.688591e-01 -5.706103e-01 -2.430655e-01 2.177159e-01 -2.407466e-01 -8.194022e-02 -4.637579e-03 4.552867e-02 2.279778e-01
<VARIANCE> 39
 4.729785e+01 7.331629e+01 5.707114e+01 1.095801e+02 5.255555e+01 6.358593e+01 6.017267e+01 6.473963e+01 5.486663e+01 4.158498e+01 2.525086e+01 3.147617e+01 4.948716e+01 6.953509e+00 8.861600e+00 5.699918e+00 9.724559e+00 6.579979e+00 6.600174e+00 1.169932e+01 6.392814e+00 8.560589e+00 5.096170e+00 4.426620e+00 3.518895e+00 4.144652e+00 7.595370e-01 1.305901e+00 7.932447e-01 1.390562e+00 8.440529e-01 1.140575e+00 1.511420e+00 8.413832e-01 1.143580e+00 8.171608e-01 5.424555e-01 5.458954e-01 6.674117e-01
<GCONST> 1.460321e+02
<STATE> 3
<MEAN> 39
 3.128260e+00 -2.442913e+00 1.697755e+00 -1.381974e+01 -3.787514e-01 -1.136620e+01 -1.085277e+01 -3.931133e-01 -2.078647e+01 -6.978914e+00 -5.519441e+00 1.429707e+00 7.313955e+01 1.321103e+00 -8.513033e-01 -1.109846e+00 -6.445646e-01 5.880067e-01 -1.513282e+00 -5.026778e-01 7.907138e-01 -1.423112e+00 -3.373421e-01 1.771265e-01 4.456856e-01 1.180737e+00 -7.704107e-01 4.769489e-01 4.303694e-01 8.796792e-01 2.566754e-02 8.516458e-01 2.290927e-01 -4.279238e-02 7.569073e-01 3.137556e-01 -6.276903e-02 -2.280507e-01 -8.818805e-01
<VARIANCE> 39
 1.265938e+01 2.933853e+01 3.682323e+01 8.009685e+01 6.607493e+01 6.380536e+01 1.416173e+02 7.807520e+01 9.302323e+01 5.781768e+01 3.918057e+01 4.392863e+01 1.502675e+01 2.916077e+00 5.239515e+00 3.445656e+00 5.907637e+00 4.898036e+00 6.851155e+00 9.276765e+00 5.860397e+00 6.486290e+00 4.476627e+00 3.881767e+00 3.233047e+00 3.275981e+00 6.511828e-01 8.701103e-01 6.596823e-01 1.020830e+00 7.783543e-01 9.862463e-01 1.568261e+00 1.187408e+00 1.393013e+00 7.946830e-01 7.033409e-01 5.781614e-01 3.183705e-01
<GCONST> 1.397769e+02
<STATE> 4
<MEAN> 39
 4.056186e+00 -1.378923e-02 3.900565e-01 -1.074721e+01 -1.729973e+00 -1.167746e+01 -8.645423e+00 3.223433e+00 -2.129439e+01 -5.951724e+00 -5.681179e+00 4.379227e-01 7.062228e+01 3.179601e-02 4.661774e-01 7.810592e-02 7.678325e-01 1.015086e-01 2.596710e-01 -3.901771e-01 -1.710477e-02 4.351695e-01 1.118216e-01 -1.402853e-01 3.533224e-02 -4.232310e-01 -1.665728e-01 1.463294e-01 1.797413e-01 9.134637e-02 -6.597660e-02 2.447179e-01 -3.477486e-02 -1.620650e-01 2.709203e-01 6.405734e-03 -4.292381e-02 -1.788186e-02 -1.572643e-01
<VARIANCE> 39
 7.135686e+00 4.300768e+01 2.481051e+01 7.359036e+01 7.697739e+01 7.045433e+01 9.988628e+01 7.353253e+01 8.271503e+01 4.910459e+01 3.526307e+01 3.418200e+01 2.002639e+01 4.575236e-01 2.613297e+00 1.608412e+00 3.542755e+00 2.205059e+00 3.250494e+00 4.132544e+00 3.745112e+00 3.644678e+00 2.877247e+00 2.229031e+00 1.798456e+00 1.447188e+00 1.321882e-01 5.187191e-01 3.171493e-01 6.664688e-01 4.080023e-01 6.101807e-01 9.671307e-01 5.406685e-01 7.244932e-01 5.346381e-01 5.090566e-01 3.669571e-01 2.729373e-01
<GCONST> 1.213530e+02
<TRANSP> 5
 0.000000e+00 1.000000e+00 0.000000e+00 0.000000e+00 0.000000e+00
 0.000000e+00 4.791220e-01 5.208780e-01 0.000000e+00 0.000000e+00
 0.000000e+00 0.000000e+00 5.477616e-01 4.522385e-01 0.000000e+00
 0.000000e+00 0.000000e+00 0.000000e+00 7.787748e-01 2.212252e-01
 0.000000e+00 0.000000e+00 0.000000e+00 0.000000e+00 0.000000e+00
<ENDHMM>
~h "ng"
<BEGINHMM>
<NUMSTATES> 5
<STATE> 2
<MEAN> 39
 2.889838e+00 4.224220e+00 -7.991020e-01 -3.881141e+00 -4.475943e+00 -5.561971e+00 -1.320712e+01 6.570077e-01 -1.058191e+01 -5.346974e+00 -5.974702e+00 9.189848e-01 6.511716e+01 -1.212191e+00 -2.669342e-01 1.164241e+00 6.039376e-01 -3.435267e-01 1.724680e+00 9.548984e-01 -1.481903e+00 9.158663e-02 4.670885e-01 4.346374e-01 -1.251728e-01 -5.079401e-01 -1.678000e-01 -6.494245e-01 2.207054e-01 -7.139245e-01 1.006374e-01 -1.720160e-01 5.293838e-01 -2.168348e-02 -3.996040e-01 1.556503e-01 1.624955e-01 -1.610374e-02 5.134260e-01
<VARIANCE> 39
 2.541836e+01 4.788235e+01 3.402607e+01 5.718821e+01 7.092889e+01 4.964230e+01 8.734787e+01 4.943578e+01 5.440590e+01 3.154298e+01 3.317198e+01 2.441732e+01 3.107866e+01 1.666672e+00 6.453395e+00 3.877017e+00 1.044769e+01 3.114473e+00 5.752315e+00 7.461052e+00 5.049816e+00 6.251934e+00 3.138484e+00 3.061676e+00 2.991545e+00 3.526635e+00 2.623189e-01 7.917689e-01 5.509468e-01 1.204822e+00 5.520792e-01 9.793488e-01 1.114184e+00 8.018950e-01 1.035962e+00 5.245141e-01 5.224936e-01 4.700773e-01 4.529479e-01
<GCONST> 1.340017e+02
<STATE> 3
<MEAN> 39
 -2.553228e+00 -2.297585e+00 4.611460e+00 -9.305575e+00 -3.820163e+00 -2.323581e+00 -8.505993e+00 -3.339633e+00 -1.025454e+01 -3.865893e+00 -5.341376e+00 1.277024e+00 6.817744e+01 -4.633398e-01 -1.520160e+00 6.882157e-01 -1.096727e+00 5.809960e-01 2.151558e-01 1.000663e+00 -1.354816e+00 -8.294927e-01 7.030976e-01 5.047774e-01 -1.254819e-01 1.182278e+00 4.400644e-01 4.615804e-01 -4.321681e-01 1.069216e-01 1.675213e-01 -8.095493e-01 -3.382693e-01 5.073552e-01 -3.747615e-01 1.572798e-01 -8.360257e-02 -2.374184e-01 -8.775356e-02
<VARIANCE> 39
 7.163039e+01 9.083831e+01 5.012154e+01 1.145780e+02 9.236065e+01 8.796333e+01 1.029417e+02 9.274377e+01 9.583695e+01 4.565946e+01 2.858521e+01 3.733270e+01 3.274260e+01 4.819116e+00 7.458113e+00 6.767838e+00 9.766294e+00 4.165732e+00 9.234609e+00 1.140244e+01 5.412401e+00 8.368167e+00 3.941610e+00 3.629598e+00 2.876985e+00 4.007969e+00 5.979459e-01 1.244233e+00 1.091267e+00 2.545913e+00 9.493935e-01 2.193278e+00 1.334439e+00 1.663887e+00 1.605198e+00 9.567496e-01 4.771461e-01 6.470760e-01 6.064920e-01
<GCONST> 1.499120e+02
<STATE> 4
<MEAN> 39
 1.074937e+00 -2.787011e+00 2.117017e+00 -8.473452e+00 -8.871188e-01 -8.639369e+00 -9.812809e+00 -6.738848e+00 -1.661777e+01 -1.707759e-01 -5.703574e+00 5.403422e-01 7.073210e+01 -4.595205e-01 7.027596e-01 5.746329e-01 3.948847e-01 3.074390e-01 2.565945e-01 6.506386e-03 -9.588679e-02 -1.953791e-01 4.175045e-01 6.335557e-02 -2.310939e-01 -6.474871e-01 -6.890558e-02 3.117287e-01 8.431520e-03 4.936566e-02 -2.433031e-01 2.972564e-01 2.088220e-02 3.083404e-01 2.488354e-01 -1.128591e-01 8.896910e-02 1.691660e-02 -3.083514e-01
<VARIANCE> 39
 2.008871e+01 7.576980e+01 4.391867e+01 8.430791e+01 6.827180e+01 6.246505e+01 8.877134e+01 4.912304e+01 6.007886e+01 3.097266e+01 2.918020e+01 2.552071e+01 3.845999e+01 2.214056e+00 4.733902e+00 4.621904e+00 6.969409e+00 4.794787e+00 7.264184e+00 6.351932e+00 3.704062e+00 6.184229e+00 3.601535e+00 2.329835e+00 2.566243e+00 3.186013e+00 3.021344e-01 8.508360e-01 8.348843e-01 1.009932e+00 7.637515e-01 1.405391e+00 1.319916e+00 8.170333e-01 1.247651e+00 6.758661e-01 4.891791e-01 5.429922e-01 3.909138e-01
<GCONST> 1.365146e+02
<TRANSP> 5
 0.000000e+00 1.000000e+00 0.000000e+00 0.000000e+00 0.000000e+00
 0.000000e+00 6.304032e-01 3.695968e-01 0.000000e+00 0.000000e+00
 0.000000e+00 0.000000e+00 3.542129e-01 6.457872e-01 0.000000e+00
 0.000000e+00 0.000000e+00 0.000000e+00 7.431388e-01 2.568612e-01
 0.000000e+00 0.000000e+00 0.000000e+00 0.000000e+00 0.000000e+00
<ENDHMM>
~h "sp"
<BEGINHMM>
<NUMSTATES> 3
<STATE> 2
~s "silst"
<TRANSP> 3
 0.000000e+00 2.327429e-01 7.672571e-01
 0.000000e+00 9.065676e-01 9.343234e-02
 0.000000e+00 0.000000e+00 0.000000e+00
<ENDHMM>
~h "wa"
<BEGINHMM>
<NUMSTATES> 5
<STATE> 2
<MEAN> 39
 -1.545077e+00 5.940349e+00 3.838775e+00 -9.819287e+00 -9.649568e+00 -8.994561e+00 -1.465560e+01 2.500610e+00 -1.141612e+01 -4.169805e+00 -5.988463e+00 -1.880781e+00 6.232418e+01 8.881389e-01 6.486644e-01 8.907922e-01 -8.682294e-01 -6.730473e-03 -1.040823e+00 -1.210235e+00 1.304689e+00 1.094875e-01 -9.120833e-01 -4.371792e-01 -6.530741e-01 8.304965e-01 1.741226e-01 8.431010e-02 -1.065865e-01 -4.310415e-02 2.589336e-02 1.136240e-01 2.004983e-02 1.588889e-01 8.352719e-02 -2.248972e-01 -1.678095e-01 -1.783525e-02 6.004599e-02
<VARIANCE> 39
 4.171894e+01 8.390229e+01 3.749253e+01 5.381158e+01 6.439602e+01 9.764751e+01 6.758336e+01 3.701691e+01 3.053781e+01 3.059230e+01 3.240548e+01 2.919470e+01 3.349135e+01 4.316915e+00 1.319012e+01 2.250380e+00 3.685565e+00 8.778918e+00 1.006094e+01 3.899910e+00 4.027468e+00 2.320935e+00 3.331821e+00 3.638127e+00 2.358671e+00 3.092813e+00 8.158438e-01 2.874475e+00 5.055769e-01 6.010083e-01 2.097262e+00 2.101452e+00 7.986768e-01 8.784768e-01 4.302351e-01 4.610603e-01 6.386147e-01 4.790983e-01 5.812006e-01
<GCONST> 1.373841e+02
<STATE> 3
<MEAN> 39
 6.478124e+00 6.328433e+00 -1.600341e+00 -1.534533e+01 -1.229484e+00 -1.914036e+00 -1.973851e+01 3.392066e+00 -1.649113e+01 -1.359786e+01 -1.010169e+01 -3.204162e+00 6.778636e+01 2.036654e-02 -4.249154e-01 -4.305342e-01 -1.865012e-01 6.895930e-01 6.825680e-01 1.818218e-02 1.131377e-01 -2.498818e-01 -4.962421e-01 -1.413445e-01 2.959133e-01 1.557597e-01 -1.165130e-01 5.432530e-02 1.462332e-01 1.575822e-01 -1.128185e-01 -9.049795e-02 2.570731e-01 -1.040938e-01 -1.324556e-01 2.732913e-01 2.336749e-01 -1.882691e-02 -8.620999e-02
<VARIANCE> 39
 7.411994e+00 1.966812e+01 5.895086e+01 7.818440e+01 6.871711e+01 1.376281e+02 8.917260e+01 1.086826e+02 8.064321e+01 4.646045e+01 8.188692e+01 3.103477e+01 8.339410e+00 5.311488e-01 1.766648e+00 4.781893e+00 4.582998e+00 5.840427e+00 1.490373e+01 7.450221e+00 1.402823e+01 8.404136e+00 3.121789e+00 9.154035e+00 3.761164e+00 1.346782e+00 8.327162e-02 2.805992e-01 5.454223e-01 8.006274e-01 9.135511e-01 1.920407e+00 1.777730e+00 2.287559e+00 1.694604e+00 7.170130e-01 1.973530e+00 8.475397e-01 1.909079e-01
<GCONST> 1.372949e+02
<STATE> 4
<MEAN> 39
 3.991674e+00 4.526808e+00 3.294205e+00 -1.196299e+01 -8.883629e+00 -1.188606e+01 -1.184215e+01 8.619545e+00 -1.820720e+01 -1.270768e+01 -1.176687e+01 -6.622138e+00 6.801122e+01 -4.555328e-01 2.543332e-01 1.543075e-01 9.158791e-01 -8.968978e-02 8.791528e-01 9.858696e-01 -7.396542e-01 1.930756e-02 5.204417e-01 2.206761e-01 3.601587e-02 -6.329352e-01 -7.909885e-03 -9.001687e-02 -1.929649e-01 2.179438e-01 1.298957e-01 4.128673e-01 -4.735347e-02 -3.922065e-01 1.259935e-01 1.750168e-01 1.129209e-01 1.432024e-01 -9.354415e-02
<VARIANCE> 39
 1.208060e+01 1.895288e+01 5.495881e+01 1.057829e+02 1.074861e+02 9.680059e+01 1.189208e+02 4.210330e+01 6.861234e+01 5.290582e+01 5.536545e+01 3.589719e+01 1.222912e+01 5.785398e-01 2.095514e+00 3.698304e+00 3.104443e+00 4.848855e+00 7.716081e+00 5.348838e+00 4.507767e+00 4.816359e+00 3.357001e+00 3.364297e+00 2.533193e+00 1.069476e+00 6.658754e-02 3.871781e-01 4.390155e-01 3.701293e-01 5.652733e-01 9.992253e-01 8.582574e-01 9.721020e-01 5.845537e-01 5.516656e-01 5.876045e-01 4.496832e-01 1.015582e-01
<GCONST> 1.252963e+02
<TRANSP> 5
 0.000000e+00 1.000000e+00 0.000000e+00 0.000000e+00 0.000000e+00
 0.000000e+00 7.862585e-01 2.137415e-01 0.000000e+00 0.000000e+00
 0.000000e+00 0.000000e+00 8.387622e-01 1.612378e-01 0.000000e+00
 0.000000e+00 0.000000e+00 0.000000e+00 7.691615e-01 2.308385e-01
 0.000000e+00 0.000000e+00 0.000000e+00 0.000000e+00 0.000000e+00
<ENDHMM>
~h "sil"
<BEGINHMM>
<NUMSTATES> 5
<STATE> 2
<MEAN> 39
 -1.273539e+01 5.658642e+00 -2.967104e+00 3.942795e+00 -9.031883e+00 1.771981e+00 -9.933514e+00 1.777678e+00 -5.312146e+00 1.441724e+00 -9.043239e-01 7.176815e-01 4.727397e+01 -2.752412e-02 2.940687e-02 -1.293800e-02 2.562366e-02 -2.482479e-02 1.205175e-02 -6.331987e-04 1.713599e-02 8.957293e-03 5.204534e-03 1.366946e-03 -1.059260e-02 -5.602868e-02 2.054887e-03 -1.135298e-02 -3.531177e-03 -7.528615e-03 4.971901e-03 2.989680e-03 -8.467435e-03 -8.714205e-03 -4.662170e-03 1.229725e-03 4.612777e-03 3.435867e-03 8.785631e-03
<VARIANCE> 39
 3.617904e+00 3.837708e+00 5.789822e+00 9.364625e+00 1.299706e+01 1.238343e+01 1.299117e+01 1.125139e+01 9.866964e+00 9.490236e+00 9.832024e+00 9.124184e+00 4.204193e+00 7.422861e-02 1.816777e-01 2.730950e-01 3.906807e-01 5.694181e-01 7.126053e-01 7.742234e-01 8.083241e-01 7.875849e-01 8.224416e-01 8.395814e-01 7.469459e-01 3.585429e-02 1.475570e-02 3.812349e-02 5.539013e-02 7.628741e-02 1.164658e-01 1.449655e-01 1.592205e-01 1.674635e-01 1.621712e-01 1.704496e-01 1.737060e-01 1.511433e-01 6.480501e-03
<GCONST> 5.377241e+01
<STATE> 3
~s "silst"
<STATE> 4
<MEAN> 39
 -1.016283e+01 1.657671e+00 -3.095812e-01 5.159059e-01 -5.326389e+00 -2.352213e+00 -9.662290e+00 -1.173910e+00 -8.933385e+00 1.076208e+00 -2.567585e+00 6.266641e-02 5.482966e+01 2.377851e-02 -1.251142e-01 3.577674e-01 -2.749212e-01 1.135037e-01 8.273140e-02 -1.847678e-01 -1.790795e-02 -1.432194e-01 -2.305590e-02 -1.385324e-01 -3.789930e-02 2.401948e-01 -2.468588e-02 -4.988559e-02 1.913567e-01 -1.538466e-01 4.372422e-02 -3.818435e-03 -8.057656e-03 -1.866835e-02 -8.002289e-03 5.595193e-03 -5.855083e-02 1.063448e-02 1.142828e-01
<VARIANCE> 39
 6.015083e+01 5.629764e+01 4.694854e+01 6.564685e+01 5.344223e+01 1.199041e+02 5.581834e+01 4.621914e+01 6.828274e+01 3.062042e+01 4.650356e+01 3.087486e+01 7.815715e+01 1.612896e+00 4.175695e+00 3.845913e+00 4.383221e+00 3.258249e+00 4.552711e+00 3.795932e+00 2.752288e+00 3.516638e+00 2.325460e+00 2.641643e+00 2.069617e+00 1.537741e+00 3.191478e-01 7.302219e-01 7.927012e-01 9.029121e-01 6.333757e-01 7.440704e-01 7.055269e-01 4.966677e-01 6.662999e-01 4.218726e-01 4.873440e-01 3.774588e-01 3.251790e-01
<GCONST> 1.300608e+02
<TRANSP> 5
 0.000000e+00 1.000000e+00 0.000000e+00 0.000000e+00 0.000000e+00
 0.000000e+00 9.690417e-01 1.975980e-02 1.119845e-02 0.000000e+00
 0.000000e+00 0.000000e+00 8.676661e-01 1.323339e-01 0.000000e+00
 0.000000e+00 1.000885e-01 0.000000e+00 7.108678e-01 1.890437e-01
 0.000000e+00 0.000000e+00 0.000000e+00 0.000000e+00 0.000000e+00
<ENDHMM>
