~o
<STREAMINFO> 1 39
<VECSIZE> 39<NULLD><MFCC_D_A_0><DIAGC>
~h "a"
<BEGINHMM>
<NUMSTATES> 5
<STATE> 2
<MEAN> 39
 -3.682444e+00 -4.860741e-01 1.054652e+00 -3.047549e+00 -3.372570e+00 -8.617643e+00 -8.043605e+00 -1.186095e+00 -1.305502e+01 -1.086708e-01 -4.453125e+00 -1.826682e+00 6.395982e+01 -8.810511e-04 3.169397e-02 -5.679604e-03 2.502640e-02 -1.321256e-02 2.776251e-02 -1.247178e-02 2.520199e-02 6.380880e-03 -7.824213e-03 -5.797853e-03 4.985450e-04 -4.493200e-02 -1.680602e-03 -2.318102e-04 1.425434e-03 -2.026805e-05 -3.562693e-04 1.850527e-03 6.353984e-05 9.881466e-05 3.988766e-04 -7.663811e-04 -2.262426e-04 2.396015e-04 -8.655331e-04
<VARIANCE> 39
 8.438390e+01 7.555108e+01 7.102576e+01 8.578283e+01 7.147995e+01 1.169875e+02 6.494281e+01 5.705649e+01 8.288052e+01 4.179678e+01 4.437265e+01 3.594492e+01 1.142790e+02 2.710210e+00 4.134163e+00 3.153171e+00 4.118531e+00 2.611336e+00 4.886361e+00 3.386138e+00 3.094526e+00 3.979538e+00 2.644892e+00 2.592242e+00 2.098584e+00 2.807734e+00 3.604146e-01 6.812710e-01 4.959263e-01 7.201716e-01 4.391724e-01 7.405433e-01 5.995731e-01 5.360792e-01 6.518491e-01 4.724663e-01 4.568619e-01 3.815143e-01 3.689891e-01
<GCONST> 1.330067e+02
<STATE> 3
<MEAN> 39
 -3.699991e+00 -3.872378e-01 1.039344e+00 -2.966284e+00 -3.426052e+00 -8.502806e+00 -8.091051e+00 -1.098557e+00 -1.302378e+01 -1.322331e-01 -4.470696e+00 -1.820639e+00 6.379634e+01 -4.374583e-03 2.839111e-02 -1.912969e-03 2.281316e-02 -1.389117e-02 3.092755e-02 -1.133166e-02 2.416812e-02 6.267499e-03 -9.910186e-03 -6.777638e-03 9.008956e-04 -4.360094e-02 -1.188523e-03 -1.084384e-03 1.287966e-03 -5.497537e-04 -1.873362e-04 6.087922e-04 2.113815e-04 -6.030244e-04 -3.640192e-05 -5.430257e-04 -3.038491e-04 -5.003717e-05 4.781521e-04
<VARIANCE> 39
 8.387909e+01 7.584091e+01 7.050945e+01 8.494231e+01 7.143337e+01 1.163143e+02 6.434990e+01 5.725601e+01 8.245690e+01 4.193176e+01 4.426730e+01 3.580333e+01 1.148062e+02 2.679209e+00 4.122851e+00 3.126715e+00 4.086369e+00 2.622790e+00 4.851158e+00 3.361665e+00 3.110963e+00 3.947285e+00 2.648831e+00 2.588769e+00 2.087387e+00 2.784296e+00 3.568565e-01 6.781451e-01 4.913388e-01 7.123348e-01 4.408408e-01 7.377516e-01 5.962965e-01 5.392310e-01 6.448310e-01 4.728845e-01 4.558558e-01 3.783469e-01 3.664299e-01
<GCONST> 1.328529e+02
<STATE> 4
<MEAN> 39
 -3.927195e+00 -2.270169e-01 1.062015e+00 -2.613685e+00 -3.984479e+00 -8.120146e+00 -7.839148e+00 -1.009338e+00 -1.295057e+01 -1.333306e-01 -4.408358e+00 -1.806752e+00 6.324055e+01 -1.528953e-03 1.824107e-02 -4.871142e-03 1.501169e-02 -1.448630e-02 2.448148e-02 -5.307726e-03 1.797999e-02 1.887753e-03 -8.980837e-03 -6.875705e-03 1.309643e-03 -3.179744e-02 -1.060845e-04 -1.053965e-03 2.179621e-04 -5.790180e-04 -9.999426e-05 -8.912676e-04 6.285750e-04 -8.839970e-04 -8.480888e-04 -3.304485e-04 -1.496129e-04 -1.502027e-04 1.179820e-03
<VARIANCE> 39
 8.300749e+01 7.744167e+01 6.961089e+01 8.265153e+01 7.140194e+01 1.157306e+02 6.534584e+01 5.789590e+01 8.297684e+01 4.133791e+01 4.404087e+01 3.646564e+01 1.165362e+02 2.528965e+00 4.044769e+00 3.007251e+00 3.918914e+00 2.609130e+00 4.701954e+00 3.294346e+00 3.092076e+00 3.828076e+00 2.581643e+00 2.542875e+00 2.064838e+00 2.686429e+00 3.346163e-01 6.647390e-01 4.723916e-01 6.800279e-01 4.335217e-01 7.178366e-01 5.798516e-01 5.337392e-01 6.218696e-01 4.606852e-01 4.472958e-01 3.701794e-01 3.500637e-01
<GCONST> 1.321218e+02
<TRANSP> 5
 0.000000e+00 1.000000e+00 0.000000e+00 0.000000e+00 0.000000e+00
 0.000000e+00 7.393121e-01 2.606879e-01 0.000000e+00 0.000000e+00
 0.000000e+00 0.000000e+00 7.393112e-01 2.606887e-01 0.000000e+00
 0.000000e+00 0.000000e+00 0.000000e+00 8.700569e-01 1.299431e-01
 0.000000e+00 0.000000e+00 0.000000e+00 0.000000e+00 0.000000e+00
<ENDHMM>
~h "b"
<BEGINHMM>
<NUMSTATES> 5
<STATE> 2
<MEAN> 39
 -3.651113e+00 -1.018868e+00 2.517330e+00 -4.530792e+00 -8.001450e-01 -8.755784e+00 -8.016969e+00 -1.396902e+00 -1.361483e+01 -7.515862e-01 -4.043584e+00 -1.289503e+00 6.604224e+01 6.545942e-02 -4.816351e-02 1.741200e-02 -6.899981e-02 -3.182791e-02 -8.339423e-02 2.233739e-02 1.483134e-02 -5.980889e-02 2.302613e-02 -1.365336e-02 -2.618719e-02 9.388030e-02 -1.058531e-03 -5.575509e-04 -1.758834e-03 -8.640799e-04 -8.419754e-04 -2.396201e-03 8.466695e-04 2.107773e-05 -2.658106e-03 -3.687230e-04 -1.117428e-03 -7.052208e-04 -4.548258e-06
<VARIANCE> 39
 1.052236e+02 8.003360e+01 7.225015e+01 9.734268e+01 6.625085e+01 1.067602e+02 6.852129e+01 5.733497e+01 9.397808e+01 4.460921e+01 4.289927e+01 3.784782e+01 1.030973e+02 3.160450e+00 4.505701e+00 3.299003e+00 4.464887e+00 2.901059e+00 5.017817e+00 3.687890e+00 3.087519e+00 4.446778e+00 2.841610e+00 2.563528e+00 2.263095e+00 2.833961e+00 3.905736e-01 7.250405e-01 5.080077e-01 6.981748e-01 4.626554e-01 7.770073e-01 6.387534e-01 5.420429e-01 7.072948e-01 4.967875e-01 4.501680e-01 4.102277e-01 3.711060e-01
<GCONST> 1.347678e+02
<STATE> 3
<MEAN> 39
 -3.359449e+00 -1.199596e+00 2.548049e+00 -4.806643e+00 -9.178839e-01 -9.127362e+00 -7.912653e+00 -1.340846e+00 -1.389518e+01 -6.829397e-01 -4.097694e+00 -1.392541e+00 6.643535e+01 6.282251e-02 -4.405527e-02 8.529248e-03 -6.638492e-02 -3.678775e-02 -8.785502e-02 2.452659e-02 1.427857e-02 -6.609033e-02 2.085127e-02 -1.603162e-02 -2.850074e-02 8.736625e-02 -8.013344e-04 1.427454e-03 -2.702385e-03 1.157524e-03 -6.694504e-04 -8.314474e-04 1.552267e-04 -1.415892e-04 -1.829722e-03 -7.587903e-04 -4.860299e-04 -2.766015e-04 -2.120041e-03
<VARIANCE> 39
 1.034523e+02 8.020624e+01 7.263908e+01 9.671687e+01 6.759182e+01 1.073157e+02 7.105084e+01 5.779261e+01 9.499279e+01 4.457796e+01 4.241100e+01 3.919728e+01 9.998190e+01 3.188119e+00 4.560419e+00 3.305891e+00 4.478631e+00 2.968679e+00 5.053676e+00 3.793018e+00 3.139185e+00 4.561075e+00 2.885175e+00 2.584382e+00 2.279309e+00 2.840750e+00 3.924405e-01 7.390382e-01 5.078984e-01 7.025942e-01 4.725625e-01 7.786438e-01 6.544204e-01 5.505164e-01 7.278134e-01 5.051796e-01 4.523760e-01 4.114744e-01 3.735568e-01
<GCONST> 1.351362e+02
<STATE> 4
<MEAN> 39
 -2.998428e+00 -1.332881e+00 2.501254e+00 -4.918303e+00 -1.586568e+00 -9.694055e+00 -7.151674e+00 -1.039273e+00 -1.464493e+01 -6.179705e-01 -4.175989e+00 -1.624073e+00 6.666888e+01 6.114695e-02 -1.996786e-02 -2.440213e-03 -4.611073e-02 -3.983592e-02 -8.142854e-02 2.099689e-02 1.344060e-02 -6.435809e-02 1.598018e-02 -1.650190e-02 -2.866630e-02 6.288196e-02 -2.082404e-03 3.439897e-03 -1.569267e-03 3.835542e-03 -1.720403e-04 2.494568e-03 -1.163924e-03 -2.849180e-04 1.091065e-03 -3.051649e-04 -1.815628e-05 4.498088e-04 -5.254586e-03
<VARIANCE> 39
 9.999487e+01 8.010381e+01 7.396722e+01 9.303655e+01 6.921476e+01 1.122768e+02 7.591814e+01 6.055035e+01 1.008638e+02 4.491085e+01 4.271338e+01 3.980310e+01 9.704449e+01 3.062748e+00 4.457447e+00 3.269212e+00 4.319103e+00 2.964118e+00 5.070559e+00 3.807016e+00 3.227766e+00 4.739840e+00 2.882487e+00 2.588960e+00 2.250066e+00 2.788556e+00 3.733815e-01 7.214808e-01 4.993485e-01 6.793368e-01 4.681638e-01 7.692277e-01 6.438107e-01 5.598601e-01 7.529848e-01 5.054693e-01 4.512605e-01 4.050794e-01 3.596492e-01
<GCONST> 1.350858e+02
<TRANSP> 5
 0.000000e+00 1.000000e+00 0.000000e+00 0.000000e+00 0.000000e+00
 0.000000e+00 7.400388e-01 2.599611e-01 0.000000e+00 0.000000e+00
 0.000000e+00 0.000000e+00 7.400395e-01 2.599606e-01 0.000000e+00
 0.000000e+00 0.000000e+00 0.000000e+00 8.713773e-01 1.286227e-01
 0.000000e+00 0.000000e+00 0.000000e+00 0.000000e+00 0.000000e+00
<ENDHMM>
~h "c"
<BEGINHMM>
<NUMSTATES> 5
<STATE> 2
<MEAN> 39
 -2.041711e+00 -4.722090e+00 9.598302e-01 -3.690242e+00 -2.002816e+00 -1.085173e+01 -1.107451e+01 -1.645772e+00 -1.592390e+01 1.395305e-01 -4.235631e+00 -1.890303e+00 6.698690e+01 3.186397e-02 4.407753e-02 -7.207461e-02 3.859004e-02 2.653424e-02 2.877961e-02 -7.659635e-03 1.889917e-02 1.352026e-01 8.440794e-03 -7.614817e-03 1.612405e-03 -1.253124e-02 -2.273546e-03 -1.364968e-03 9.617969e-04 1.158790e-03 2.730892e-03 -2.973084e-03 -1.741794e-03 -1.840327e-03 2.787414e-03 1.799452e-03 -1.539774e-03 -2.701564e-03 4.197886e-04
<VARIANCE> 39
 7.023565e+01 8.981158e+01 6.889061e+01 7.835771e+01 9.533810e+01 9.086855e+01 6.000680e+01 5.857700e+01 9.085450e+01 6.880450e+01 3.121443e+01 3.372254e+01 6.577364e+01 3.268444e+00 6.807658e+00 3.149986e+00 5.847048e+00 3.215487e+00 6.901597e+00 4.022621e+00 3.834141e+00 5.268787e+00 4.619603e+00 3.225851e+00 2.963684e+00 4.049316e+00 4.100517e-01 1.176226e+00 5.648401e-01 1.002580e+00 4.991716e-01 1.096906e+00 6.901915e-01 6.151407e-01 7.540799e-01 7.219583e-01 6.301554e-01 5.537812e-01 6.052235e-01
<GCONST> 1.399178e+02
<STATE> 3
<MEAN> 39
 -1.879809e+00 -4.544252e+00 6.508232e-01 -3.541816e+00 -1.927919e+00 -1.072716e+01 -1.109464e+01 -1.559032e+00 -1.546930e+01 1.782947e-01 -4.249160e+00 -1.882962e+00 6.692770e+01 2.387632e-02 4.203647e-02 -6.701864e-02 4.344944e-02 3.425782e-02 2.262773e-02 -1.334549e-02 1.282684e-02 1.424481e-01 1.317791e-02 -1.024047e-02 -8.385371e-03 -1.351712e-02 -5.896329e-04 -2.288057e-03 7.435965e-04 -4.747089e-04 1.500846e-03 -3.546855e-03 -2.751395e-03 -1.487307e-03 3.894965e-05 1.705575e-03 -8.351078e-04 -2.437279e-03 1.352840e-03
<VARIANCE> 39
 6.947736e+01 8.841181e+01 6.576777e+01 7.653564e+01 9.425938e+01 9.120911e+01 5.966775e+01 5.926044e+01 8.784680e+01 7.005787e+01 3.188968e+01 3.391646e+01 6.586129e+01 3.278129e+00 6.531874e+00 3.099378e+00 5.698905e+00 3.244405e+00 6.800539e+00 3.914310e+00 3.774482e+00 4.957683e+00 4.652806e+00 3.233376e+00 2.927727e+00 4.041152e+00 4.128016e-01 1.114921e+00 5.627250e-01 9.742090e-01 5.019003e-01 1.056327e+00 6.694551e-01 6.040791e-01 7.154833e-01 7.256462e-01 6.295605e-01 5.423847e-01 5.938294e-01
<GCONST> 1.393895e+02
<STATE> 4
<MEAN> 39
 -1.591648e+00 -4.667644e+00 1.376375e-01 -3.004663e+00 -2.387992e+00 -1.058027e+01 -1.107193e+01 -1.262781e+00 -1.526185e+01 -2.300068e-02 -4.151291e+00 -1.857953e+00 6.678146e+01 3.149766e-02 4.426469e-02 -6.954705e-02 4.252131e-02 3.195718e-02 2.524828e-02 -1.618098e-02 1.371405e-02 1.253991e-01 1.610260e-02 -2.037426e-03 -1.688893e-02 -1.590515e-02 4.207318e-04 -2.148262e-03 9.196657e-04 -1.813305e-03 7.536589e-05 -2.666815e-03 -2.545885e-03 -5.841363e-04 -1.962553e-03 1.257336e-03 4.616412e-04 -2.002419e-03 1.456025e-03
<VARIANCE> 39
 6.631856e+01 8.767742e+01 6.315745e+01 7.261810e+01 9.003394e+01 8.816051e+01 5.748717e+01 6.188495e+01 8.145827e+01 7.526847e+01 3.288441e+01 3.467533e+01 6.689069e+01 3.196266e+00 6.214304e+00 3.136139e+00 5.495431e+00 3.254969e+00 6.448234e+00 3.712795e+00 3.830244e+00 4.552456e+00 4.783011e+00 3.163513e+00 2.833789e+00 4.005376e+00 4.109187e-01 1.031711e+00 5.770132e-01 9.452998e-01 5.071887e-01 9.848417e-01 6.313466e-01 6.044719e-01 6.733306e-01 7.372599e-01 6.037470e-01 5.179107e-01 5.670646e-01
<GCONST> 1.385398e+02
<TRANSP> 5
 0.000000e+00 1.000000e+00 0.000000e+00 0.000000e+00 0.000000e+00
 0.000000e+00 7.286581e-01 2.713418e-01 0.000000e+00 0.000000e+00
 0.000000e+00 0.000000e+00 7.286582e-01 2.713418e-01 0.000000e+00
 0.000000e+00 0.000000e+00 0.000000e+00 8.554648e-01 1.445352e-01
 0.000000e+00 0.000000e+00 0.000000e+00 0.000000e+00 0.000000e+00
<ENDHMM>
~h "d"
<BEGINHMM>
<NUMSTATES> 5
<STATE> 2
<MEAN> 39
 8.730503e-01 1.493905e+00 2.038333e+00 -4.750381e+00 -3.435499e+00 -1.144834e+01 -9.023059e+00 -2.696788e-01 -1.709463e+01 -3.201655e+00 -8.122986e+00 -4.160070e+00 6.670459e+01 2.680122e-02 -2.861564e-02 -8.105540e-02 -6.148637e-02 -4.076862e-02 1.675775e-02 5.812388e-02 5.233286e-03 -1.320875e-02 3.921109e-05 3.385393e-02 4.556011e-02 1.222390e-02 -2.064363e-03 -5.671409e-05 9.451128e-04 2.169101e-03 1.811780e-03 7.450855e-04 -1.722435e-03 -2.994020e-03 9.330913e-04 7.382972e-04 -5.024370e-04 2.045281e-03 -1.264683e-03
<VARIANCE> 39
 4.090534e+01 8.087476e+01 5.774571e+01 8.440604e+01 6.469705e+01 1.037603e+02 6.100358e+01 8.315005e+01 5.473641e+01 5.328873e+01 4.931681e+01 4.835882e+01 8.241698e+01 1.508169e+00 4.762530e+00 3.078055e+00 4.183239e+00 2.935506e+00 6.127772e+00 3.446539e+00 3.670981e+00 3.338438e+00 3.295778e+00 3.365874e+00 2.548185e+00 2.612438e+00 2.350371e-01 7.736308e-01 4.929623e-01 7.118685e-01 4.904962e-01 9.917840e-01 6.468481e-01 5.964144e-01 5.608549e-01 5.680323e-01 5.682017e-01 4.181164e-01 3.370772e-01
<GCONST> 1.331520e+02
<STATE> 3
<MEAN> 39
 9.926482e-01 1.410881e+00 1.762290e+00 -4.948483e+00 -3.546223e+00 -1.138636e+01 -8.819830e+00 -2.592262e-01 -1.717681e+01 -3.231342e+00 -8.033127e+00 -3.989582e+00 6.676221e+01 2.119411e-02 -2.590678e-02 -7.724232e-02 -5.401959e-02 -3.432146e-02 1.951680e-02 5.153855e-02 -1.565167e-03 -1.086129e-02 -3.481469e-04 3.049668e-02 5.075823e-02 7.497985e-03 -1.832043e-03 1.450656e-03 1.632669e-03 2.808068e-03 1.782960e-03 1.135198e-03 -2.335820e-03 -2.133235e-03 9.329219e-04 -4.059406e-04 -1.299309e-03 1.143205e-03 -1.913070e-03
<VARIANCE> 39
 4.008876e+01 8.126814e+01 5.730303e+01 8.408355e+01 6.316397e+01 1.036544e+02 6.037011e+01 8.243864e+01 5.482613e+01 5.407508e+01 4.954438e+01 4.724424e+01 8.191765e+01 1.542765e+00 4.833695e+00 3.020834e+00 4.164186e+00 2.932680e+00 6.239043e+00 3.424596e+00 3.730129e+00 3.308900e+00 3.308659e+00 3.364561e+00 2.528606e+00 2.650524e+00 2.374247e-01 7.900653e-01 4.835688e-01 7.054159e-01 4.923804e-01 1.007087e+00 6.357937e-01 6.046957e-01 5.571470e-01 5.654117e-01 5.696255e-01 4.145962e-01 3.406617e-01
<GCONST> 1.331267e+02
<STATE> 4
<MEAN> 39
 8.349415e-01 1.412365e+00 1.855059e+00 -4.524536e+00 -4.143945e+00 -1.116845e+01 -8.362859e+00 -6.998306e-01 -1.736500e+01 -3.283478e+00 -8.090979e+00 -3.923886e+00 6.649863e+01 2.512582e-02 -1.139917e-02 -6.158536e-02 -4.107212e-02 -2.008127e-02 1.880059e-02 3.947989e-02 7.003705e-03 -2.018907e-02 -1.384166e-02 1.682931e-02 4.355062e-02 7.278663e-03 -1.333144e-03 1.821485e-03 1.971414e-03 2.251026e-03 1.174372e-03 8.230476e-04 -2.201441e-03 -3.614834e-04 6.452450e-04 -9.057172e-04 -1.181613e-03 -2.281645e-04 -1.646818e-03
<VARIANCE> 39
 4.035038e+01 8.136019e+01 5.793759e+01 8.211604e+01 6.013069e+01 1.051579e+02 6.337170e+01 8.435884e+01 5.700514e+01 5.717261e+01 4.957906e+01 4.578265e+01 8.258587e+01 1.590389e+00 4.783551e+00 3.005365e+00 3.923652e+00 2.839051e+00 6.318409e+00 3.484780e+00 3.892136e+00 3.315327e+00 3.393042e+00 3.287056e+00 2.465241e+00 2.617218e+00 2.415638e-01 7.889215e-01 4.709527e-01 6.580961e-01 4.683340e-01 1.007761e+00 6.300308e-01 6.264297e-01 5.603727e-01 5.726866e-01 5.582755e-01 4.026038e-01 3.314051e-01
<GCONST> 1.330300e+02
<TRANSP> 5
 0.000000e+00 1.000000e+00 0.000000e+00 0.000000e+00 0.000000e+00
 0.000000e+00 7.380898e-01 2.619102e-01 0.000000e+00 0.000000e+00
 0.000000e+00 0.000000e+00 7.380902e-01 2.619098e-01 0.000000e+00
 0.000000e+00 0.000000e+00 0.000000e+00 8.689636e-01 1.310364e-01
 0.000000e+00 0.000000e+00 0.000000e+00 0.000000e+00 0.000000e+00
<ENDHMM>
~h "e"
<BEGINHMM>
<NUMSTATES> 5
<STATE> 2
<MEAN> 39
 -7.931454e+00 1.890971e+00 -2.374958e+00 2.428606e+00 -4.642358e+00 -1.877919e+00 -9.843094e+00 7.122875e-01 -7.506563e+00 2.013156e+00 -2.469257e+00 -8.634415e-01 5.480904e+01 -1.237233e-01 6.677170e-02 1.646634e-02 8.364100e-02 -3.468158e-02 9.063590e-02 -7.755408e-03 4.805720e-03 6.884354e-02 2.402489e-02 2.311325e-02 2.932633e-02 -1.669425e-01 3.638708e-03 -1.529645e-03 -2.858938e-03 -2.511058e-03 2.387512e-03 -4.083537e-03 -4.506308e-03 -1.760701e-03 -4.895814e-04 2.458059e-03 1.499854e-03 4.933249e-04 3.935776e-03
<VARIANCE> 39
 5.527712e+01 4.002124e+01 1.874672e+01 4.746655e+01 3.789399e+01 8.087740e+01 4.313612e+01 3.533094e+01 3.622805e+01 2.937202e+01 2.351034e+01 2.091042e+01 9.668095e+01 1.168465e+00 1.578691e+00 1.172027e+00 1.529020e+00 1.729486e+00 2.860083e+00 1.789041e+00 1.696259e+00 1.830941e+00 1.621861e+00 1.494098e+00 1.494005e+00 1.456086e+00 1.577711e-01 2.259122e-01 2.254623e-01 2.586816e-01 2.965266e-01 4.436059e-01 3.033818e-01 3.127934e-01 3.380848e-01 2.755408e-01 2.807481e-01 2.767137e-01 1.615146e-01
<GCONST> 1.081263e+02
<STATE> 3
<MEAN> 39
 -8.387247e+00 2.151806e+00 -2.329443e+00 2.721034e+00 -4.771070e+00 -1.535605e+00 -9.880033e+00 7.391093e-01 -7.237144e+00 2.097674e+00 -2.377564e+00 -7.502609e-01 5.418486e+01 -1.121186e-01 6.161302e-02 6.726554e-03 7.605349e-02 -2.895928e-02 8.045735e-02 -2.066433e-02 4.382189e-04 6.690586e-02 2.927733e-02 2.668371e-02 3.121712e-02 -1.551284e-01 2.996648e-03 -1.017621e-03 -3.201646e-03 -1.655742e-03 8.929302e-04 -4.595077e-04 -1.306330e-03 1.998423e-03 2.888270e-04 -3.067145e-05 -2.548815e-04 2.120998e-04 2.289578e-03
<VARIANCE> 39
 5.224936e+01 3.751178e+01 1.769517e+01 4.455907e+01 3.684139e+01 7.847235e+01 4.151326e+01 3.372499e+01 3.395424e+01 2.755216e+01 2.316626e+01 2.030178e+01 9.250165e+01 1.067328e+00 1.454398e+00 1.094138e+00 1.425688e+00 1.659125e+00 2.799843e+00 1.733130e+00 1.620341e+00 1.740353e+00 1.564003e+00 1.458782e+00 1.441625e+00 1.343775e+00 1.435062e-01 2.099965e-01 2.109096e-01 2.415756e-01 2.885690e-01 4.395439e-01 2.966924e-01 3.014657e-01 3.232647e-01 2.701217e-01 2.753636e-01 2.685170e-01 1.472138e-01
<GCONST> 1.062399e+02
<STATE> 4
<MEAN> 39
 -9.047890e+00 2.597047e+00 -2.397785e+00 3.263658e+00 -5.194572e+00 -8.561757e-01 -9.832948e+00 9.351922e-01 -6.927552e+00 2.086089e+00 -2.079475e+00 -5.357842e-01 5.310950e+01 -1.021918e-01 6.131971e-02 -3.065510e-03 6.673431e-02 -2.909068e-02 8.452594e-02 -2.032755e-02 9.368191e-03 6.775994e-02 2.146648e-02 2.446152e-02 3.134092e-02 -1.481203e-01 1.432587e-03 3.312084e-05 -1.663307e-03 -1.106324e-03 -1.933922e-04 2.445085e-03 2.009174e-03 4.041592e-03 -2.909714e-05 -2.273380e-03 -1.125241e-03 -2.510032e-04 5.691128e-04
<VARIANCE> 39
 4.698555e+01 3.406804e+01 1.504165e+01 3.927918e+01 3.293562e+01 7.154804e+01 3.859978e+01 3.201259e+01 3.192216e+01 2.519164e+01 2.191645e+01 1.979151e+01 8.426713e+01 9.059219e-01 1.269721e+00 9.422759e-01 1.243575e+00 1.479816e+00 2.492090e+00 1.615202e+00 1.509110e+00 1.631042e+00 1.443317e+00 1.391265e+00 1.364358e+00 1.166853e+00 1.205092e-01 1.821721e-01 1.821889e-01 2.121544e-01 2.648557e-01 3.980584e-01 2.812527e-01 2.844242e-01 3.038349e-01 2.550122e-01 2.615606e-01 2.525338e-01 1.256213e-01
<GCONST> 1.024664e+02
<TRANSP> 5
 0.000000e+00 1.000000e+00 0.000000e+00 0.000000e+00 0.000000e+00
 0.000000e+00 7.320575e-01 2.679425e-01 0.000000e+00 0.000000e+00
 0.000000e+00 0.000000e+00 7.320577e-01 2.679423e-01 0.000000e+00
 0.000000e+00 0.000000e+00 0.000000e+00 8.610228e-01 1.389772e-01
 0.000000e+00 0.000000e+00 0.000000e+00 0.000000e+00 0.000000e+00
<ENDHMM>
~h "g"
<BEGINHMM>
<NUMSTATES> 5
<STATE> 2
<MEAN> 39
 -1.800269e+00 -5.236614e-01 2.144515e+00 -1.119540e+00 -4.393223e+00 -1.083720e+01 -8.619896e+00 -1.291531e-01 -1.501205e+01 -6.991770e-01 -5.929881e+00 -3.170720e+00 6.470119e+01 5.408990e-02 -1.961237e-02 4.503672e-02 -4.942082e-02 3.949343e-02 -7.216315e-02 -1.371215e-02 2.317429e-02 -5.347639e-02 -1.726447e-02 -2.293422e-02 -1.838985e-02 8.802300e-02 -2.059503e-03 4.195951e-03 6.789443e-04 -1.736081e-04 2.421818e-03 2.885472e-03 -2.959833e-03 -9.052205e-04 2.955175e-03 -2.333175e-04 1.132116e-03 2.388526e-03 -3.757801e-03
<VARIANCE> 39
 5.166781e+01 7.591924e+01 7.026097e+01 9.498981e+01 9.767608e+01 1.509622e+02 5.945876e+01 6.418938e+01 7.983067e+01 4.163486e+01 5.123229e+01 4.649895e+01 1.053167e+02 2.155480e+00 6.008358e+00 3.246163e+00 5.391648e+00 3.223790e+00 7.025338e+00 3.700571e+00 3.732076e+00 4.834251e+00 3.165828e+00 3.070374e+00 2.711687e+00 3.813709e+00 3.112738e-01 1.046108e+00 5.253121e-01 9.483212e-01 5.420794e-01 9.785125e-01 6.373040e-01 6.011161e-01 7.960416e-01 5.730550e-01 5.297952e-01 4.900227e-01 4.927554e-01
<GCONST> 1.382467e+02
<STATE> 3
<MEAN> 39
 -1.581970e+00 -5.483173e-01 2.310428e+00 -1.323618e+00 -4.259139e+00 -1.111422e+01 -8.679060e+00 -1.745799e-02 -1.521934e+01 -7.829142e-01 -6.018039e+00 -3.252976e+00 6.501958e+01 4.787501e-02 -9.354713e-04 4.380881e-02 -5.461877e-02 4.169693e-02 -5.580932e-02 -2.046621e-02 2.296822e-02 -4.465923e-02 -1.983875e-02 -1.872754e-02 -1.138691e-02 7.189692e-02 -1.150931e-03 5.310843e-03 -6.564299e-04 -1.313350e-03 1.287471e-04 4.417699e-03 -1.808663e-03 -5.740615e-04 1.990702e-03 -7.407502e-04 7.829119e-04 1.717582e-03 -4.322152e-03
<VARIANCE> 39
 4.953010e+01 7.519648e+01 6.993777e+01 9.617989e+01 9.950948e+01 1.499967e+02 6.052667e+01 6.531702e+01 8.188348e+01 4.165850e+01 5.164620e+01 4.759109e+01 1.013172e+02 2.169187e+00 6.003756e+00 3.252970e+00 5.455580e+00 3.211955e+00 6.972979e+00 3.739172e+00 3.779529e+00 4.897077e+00 3.217034e+00 3.112620e+00 2.773395e+00 3.775862e+00 3.159623e-01 1.047527e+00 5.240068e-01 9.611834e-01 5.420715e-01 9.668126e-01 6.465240e-01 6.094096e-01 8.049297e-01 5.836908e-01 5.366728e-01 5.018546e-01 4.900437e-01
<GCONST> 1.384591e+02
<STATE> 4
<MEAN> 39
 -1.353538e+00 -2.500381e-01 2.662669e+00 -1.513312e+00 -4.655429e+00 -1.149227e+01 -8.583020e+00 1.361528e-01 -1.569298e+01 -9.576308e-01 -6.177296e+00 -3.449024e+00 6.510785e+01 4.584928e-02 2.746369e-02 3.348123e-02 -6.898940e-02 2.141985e-02 -3.288233e-02 -1.610394e-02 3.378993e-02 -4.514753e-02 -2.583520e-02 -1.259632e-02 -1.745315e-02 4.941053e-02 -4.568793e-04 4.183952e-03 -1.746599e-03 -1.913845e-03 -2.051702e-03 4.417710e-03 -3.161222e-04 -1.104465e-04 4.285039e-04 -4.553928e-04 7.766935e-04 2.861975e-04 -3.717502e-03
<VARIANCE> 39
 4.573518e+01 7.497743e+01 6.763408e+01 1.001680e+02 9.989249e+01 1.476766e+02 6.380694e+01 6.868322e+01 8.494012e+01 4.153067e+01 5.399363e+01 5.012888e+01 9.482050e+01 2.062287e+00 5.873600e+00 3.142755e+00 5.495409e+00 3.113711e+00 6.874632e+00 3.757779e+00 3.784171e+00 4.808805e+00 3.195388e+00 3.164190e+00 2.817564e+00 3.678162e+00 3.025322e-01 1.025069e+00 5.003758e-01 9.643568e-01 5.286521e-01 9.529007e-01 6.499243e-01 6.030020e-01 7.785904e-01 5.780201e-01 5.371697e-01 5.041190e-01 4.792345e-01
<GCONST> 1.381682e+02
<TRANSP> 5
 0.000000e+00 1.000000e+00 0.000000e+00 0.000000e+00 0.000000e+00
 0.000000e+00 7.376830e-01 2.623170e-01 0.000000e+00 0.000000e+00
 0.000000e+00 0.000000e+00 7.376836e-01 2.623163e-01 0.000000e+00
 0.000000e+00 0.000000e+00 0.000000e+00 8.674991e-01 1.325009e-01
 0.000000e+00 0.000000e+00 0.000000e+00 0.000000e+00 0.000000e+00
<ENDHMM>
~h "h"
<BEGINHMM>
<NUMSTATES> 5
<STATE> 2
<MEAN> 39
 4.519350e-02 -2.547389e-01 6.384355e-01 -3.967631e+00 -4.950261e+00 -9.153464e+00 -8.268773e+00 1.964196e+00 -1.574153e+01 -2.871277e+00 -6.655266e+00 -2.772098e+00 6.552444e+01 1.155159e-02 -5.781963e-03 -3.393570e-02 -5.064616e-02 3.545792e-02 1.238348e-02 6.924441e-03 -7.422157e-02 3.340982e-02 4.834382e-02 6.563374e-02 7.783231e-02 3.088891e-02 -1.220211e-03 2.189519e-05 1.018927e-03 1.977824e-03 -3.258058e-04 1.537145e-03 -7.985558e-04 -1.017959e-04 1.286779e-03 -1.660679e-03 -8.910939e-04 2.617084e-04 -1.318033e-03
<VARIANCE> 39
 5.432022e+01 8.208545e+01 6.881892e+01 8.850184e+01 1.033745e+02 1.154066e+02 7.831396e+01 6.875255e+01 7.822219e+01 5.969246e+01 6.147731e+01 4.595348e+01 6.641998e+01 2.529335e+00 5.314562e+00 3.598658e+00 4.844500e+00 3.961670e+00 7.045489e+00 4.585687e+00 4.575130e+00 4.468879e+00 3.231124e+00 3.201693e+00 2.450737e+00 3.035705e+00 3.625289e-01 8.986582e-01 5.950143e-01 8.097070e-01 6.314635e-01 1.083553e+00 8.200594e-01 7.824389e-01 7.615201e-01 5.721660e-01 5.495383e-01 4.071938e-01 3.877654e-01
<GCONST> 1.390832e+02
<STATE> 3
<MEAN> 39
 7.666215e-02 -2.728730e-01 5.092531e-01 -4.119717e+00 -4.822958e+00 -9.075610e+00 -8.235384e+00 1.685874e+00 -1.562168e+01 -2.703692e+00 -6.414446e+00 -2.472938e+00 6.561164e+01 5.824525e-03 -5.048442e-03 -2.920710e-02 -4.326975e-02 3.445326e-02 1.789697e-02 3.856064e-03 -7.353622e-02 3.760019e-02 4.334094e-02 6.266990e-02 7.846122e-02 2.483102e-02 -2.187663e-03 4.272541e-04 1.909704e-03 3.280055e-03 -7.565033e-04 1.809276e-03 -1.077111e-03 8.844241e-04 1.230895e-03 -2.043294e-03 -1.267449e-03 -3.847453e-04 -2.603753e-03
<VARIANCE> 39
 5.433806e+01 8.128616e+01 6.689388e+01 8.825605e+01 1.034019e+02 1.149902e+02 7.859158e+01 6.816332e+01 7.765233e+01 5.956776e+01 6.007465e+01 4.635514e+01 6.816622e+01 2.505089e+00 5.241967e+00 3.534284e+00 4.831103e+00 3.868674e+00 6.870686e+00 4.575106e+00 4.439531e+00 4.372583e+00 3.186773e+00 3.173079e+00 2.430778e+00 3.061047e+00 3.563650e-01 8.825887e-01 5.862152e-01 8.038982e-01 6.129504e-01 1.054393e+00 8.128631e-01 7.614462e-01 7.488576e-01 5.617632e-01 5.451548e-01 4.041599e-01 3.902763e-01
<GCONST> 1.386719e+02
<STATE> 4
<MEAN> 39
 -1.096549e-01 -1.917747e-01 5.080121e-01 -3.851558e+00 -5.581702e+00 -8.605284e+00 -7.707292e+00 1.523800e+00 -1.559346e+01 -2.761002e+00 -6.259208e+00 -2.235150e+00 6.521582e+01 -6.372119e-03 -1.662751e-03 -2.187373e-02 -2.551666e-02 3.080060e-02 2.765409e-02 2.167026e-03 -6.519601e-02 3.565075e-02 3.830614e-02 5.842594e-02 7.425746e-02 7.383436e-03 -2.725636e-03 1.052822e-03 2.472076e-03 3.549168e-03 -9.694636e-04 1.287011e-03 -1.234814e-03 1.820355e-03 7.992798e-04 -1.575920e-03 -1.130641e-03 -1.161445e-03 -3.388794e-03
<VARIANCE> 39
 5.478881e+01 7.987855e+01 6.391392e+01 8.333700e+01 1.057616e+02 1.141651e+02 8.031151e+01 6.787034e+01 7.844969e+01 5.891792e+01 5.906816e+01 4.755911e+01 7.198254e+01 2.390495e+00 5.039002e+00 3.357705e+00 4.571677e+00 3.816293e+00 6.638192e+00 4.586585e+00 4.242854e+00 4.251146e+00 3.084707e+00 3.087569e+00 2.390347e+00 3.013233e+00 3.346957e-01 8.410014e-01 5.555486e-01 7.662688e-01 5.956485e-01 1.019580e+00 8.032031e-01 7.288033e-01 7.279409e-01 5.428251e-01 5.268360e-01 3.945178e-01 3.804403e-01
<GCONST> 1.377737e+02
<TRANSP> 5
 0.000000e+00 1.000000e+00 0.000000e+00 0.000000e+00 0.000000e+00
 0.000000e+00 7.376803e-01 2.623197e-01 0.000000e+00 0.000000e+00
 0.000000e+00 0.000000e+00 7.376806e-01 2.623194e-01 0.000000e+00
 0.000000e+00 0.000000e+00 0.000000e+00 8.678886e-01 1.321113e-01
 0.000000e+00 0.000000e+00 0.000000e+00 0.000000e+00 0.000000e+00
<ENDHMM>
~h "i"
<BEGINHMM>
<NUMSTATES> 5
<STATE> 2
<MEAN> 39
 -6.248339e+00 -2.451821e-01 2.354877e+00 -2.214884e-01 -1.566557e+00 -7.707939e+00 -9.830599e+00 -1.544400e+00 -1.123778e+01 3.017536e-01 -4.992884e+00 -1.542258e+00 6.189269e+01 2.485161e-02 -9.452991e-03 1.199955e-02 -2.051642e-02 2.246228e-02 -2.767945e-02 4.999449e-03 -3.033694e-02 -1.345276e-02 1.443824e-02 -2.592434e-02 -4.850317e-04 4.940805e-02 4.895421e-03 4.736478e-03 -3.251959e-03 1.414299e-03 -3.892345e-03 2.752210e-03 4.705015e-04 -3.623786e-05 -2.994170e-03 -1.672137e-03 4.043691e-04 -8.914301e-04 -2.884298e-03
<VARIANCE> 39
 9.279977e+01 7.875852e+01 7.203339e+01 8.837659e+01 6.617426e+01 1.511739e+02 6.173242e+01 4.936321e+01 7.925984e+01 3.900493e+01 4.558068e+01 3.348479e+01 1.332913e+02 2.099069e+00 3.762620e+00 2.723135e+00 3.877181e+00 2.649044e+00 5.335732e+00 2.996642e+00 2.778570e+00 3.290823e+00 2.521678e+00 2.422635e+00 1.783112e+00 2.427055e+00 2.583265e-01 5.855782e-01 4.418302e-01 6.307260e-01 4.518954e-01 7.863289e-01 5.061038e-01 4.634048e-01 5.328327e-01 4.325819e-01 4.364204e-01 3.276531e-01 3.107238e-01
<GCONST> 1.302500e+02
<STATE> 3
<MEAN> 39
 -6.093012e+00 -2.402932e-01 2.368594e+00 -2.620823e-01 -1.507139e+00 -7.807153e+00 -9.822958e+00 -1.666377e+00 -1.133738e+01 3.325155e-01 -5.100859e+00 -1.554537e+00 6.206031e+01 4.259577e-02 5.704168e-03 4.752997e-03 -1.003021e-02 1.107759e-02 -2.557630e-02 9.582114e-04 -2.789504e-02 -2.425710e-02 6.839855e-03 -2.706244e-02 -6.949755e-03 4.075001e-02 5.541597e-03 4.286466e-03 -2.859788e-03 2.916434e-03 -3.985699e-03 1.389596e-03 -8.939702e-04 9.222323e-04 -3.404947e-03 -2.029775e-03 -1.611572e-04 -1.652599e-03 -3.025838e-03
<VARIANCE> 39
 9.349120e+01 7.929784e+01 7.152016e+01 8.812631e+01 6.641598e+01 1.519615e+02 6.243658e+01 4.976823e+01 7.881900e+01 3.944683e+01 4.640136e+01 3.441458e+01 1.344792e+02 2.092562e+00 3.731889e+00 2.657291e+00 3.834176e+00 2.635036e+00 5.284184e+00 3.040722e+00 2.741426e+00 3.334999e+00 2.508943e+00 2.460075e+00 1.809889e+00 2.416858e+00 2.578791e-01 5.764301e-01 4.328126e-01 6.220056e-01 4.469084e-01 7.760954e-01 5.116168e-01 4.595265e-01 5.414090e-01 4.290089e-01 4.411281e-01 3.317120e-01 3.069178e-01
<GCONST> 1.302605e+02
<STATE> 4
<MEAN> 39
 -5.854871e+00 -2.040643e-01 2.203667e+00 1.185606e-01 -1.920901e+00 -7.703707e+00 -9.611214e+00 -1.906390e+00 -1.152841e+01 3.934480e-01 -5.205023e+00 -1.499828e+00 6.187745e+01 5.813842e-02 1.899434e-02 3.703799e-03 1.572671e-02 7.146079e-03 -4.192919e-02 -1.759965e-02 -2.039094e-02 -3.553091e-02 -2.286700e-03 -2.900234e-02 -1.950580e-02 3.040614e-02 3.011862e-03 1.701498e-03 -1.058177e-03 3.212194e-03 -1.634225e-03 -6.598348e-04 -2.046787e-03 1.694757e-03 -1.640443e-03 -1.003176e-03 4.032427e-04 -1.675616e-03 -2.009155e-03
<VARIANCE> 39
 9.200873e+01 8.033825e+01 6.971136e+01 8.651357e+01 6.442239e+01 1.549471e+02 6.199235e+01 5.127320e+01 7.751723e+01 3.969551e+01 4.924159e+01 3.461724e+01 1.366077e+02 1.943414e+00 3.588004e+00 2.523590e+00 3.621455e+00 2.540466e+00 5.107961e+00 2.954877e+00 2.635879e+00 3.285542e+00 2.480819e+00 2.450186e+00 1.809196e+00 2.304393e+00 2.388544e-01 5.461529e-01 4.116262e-01 5.864182e-01 4.290363e-01 7.402915e-01 4.954529e-01 4.419822e-01 5.419735e-01 4.227536e-01 4.328406e-01 3.326047e-01 2.847224e-01
<GCONST> 1.293534e+02
<TRANSP> 5
 0.000000e+00 1.000000e+00 0.000000e+00 0.000000e+00 0.000000e+00
 0.000000e+00 7.378395e-01 2.621605e-01 0.000000e+00 0.000000e+00
 0.000000e+00 0.000000e+00 7.378389e-01 2.621610e-01 0.000000e+00
 0.000000e+00 0.000000e+00 0.000000e+00 8.678475e-01 1.321525e-01
 0.000000e+00 0.000000e+00 0.000000e+00 0.000000e+00 0.000000e+00
<ENDHMM>
~h "j"
<BEGINHMM>
<NUMSTATES> 5
<STATE> 2
<MEAN> 39
 -3.284623e+00 -7.786421e-01 2.831700e+00 -2.474192e+00 -2.558861e+00 -1.038309e+01 -8.370281e+00 -2.331117e+00 -1.495915e+01 -1.307904e-02 -5.803282e+00 -3.201655e+00 6.518832e+01 5.607935e-02 2.973453e-02 -2.272265e-02 2.989294e-02 1.788347e-02 -1.639995e-02 -6.688229e-02 3.491117e-02 -2.935041e-02 -2.157270e-02 -3.857328e-02 -2.560694e-02 -9.655897e-03 -2.146393e-03 1.464513e-03 -7.714824e-03 -3.099665e-03 -2.432227e-03 5.770152e-03 4.109363e-03 7.157051e-03 4.511303e-03 -2.985464e-04 -5.168526e-04 2.945159e-03 -5.026231e-03
<VARIANCE> 39
 7.492813e+01 8.144393e+01 7.910481e+01 7.793532e+01 7.400277e+01 1.362064e+02 7.181416e+01 6.355281e+01 9.314507e+01 4.128720e+01 4.848651e+01 4.386975e+01 1.093430e+02 2.825469e+00 5.086968e+00 4.030522e+00 4.794003e+00 2.899028e+00 5.737427e+00 4.148754e+00 3.467070e+00 4.698801e+00 2.734160e+00 2.820323e+00 2.325602e+00 3.240447e+00 4.401884e-01 8.591556e-01 6.583616e-01 8.837507e-01 4.984243e-01 8.235798e-01 7.623737e-01 5.987613e-01 7.584059e-01 4.913100e-01 5.011749e-01 4.235096e-01 4.384273e-01
<GCONST> 1.375397e+02
<STATE> 3
<MEAN> 39
 -3.145613e+00 -6.425335e-01 2.734622e+00 -2.373695e+00 -2.527602e+00 -1.037864e+01 -8.592552e+00 -2.183339e+00 -1.500219e+01 -9.406169e-02 -5.928350e+00 -3.282289e+00 6.508849e+01 4.253444e-02 3.349825e-02 -3.694872e-02 2.198076e-02 9.971343e-03 6.091232e-03 -4.938136e-02 4.699676e-02 -1.237747e-02 -2.561043e-02 -3.544847e-02 -1.427331e-02 -2.429239e-02 -3.809376e-03 1.576450e-03 -3.598985e-03 -2.276201e-03 -2.704915e-03 5.681791e-03 5.364848e-03 2.864600e-03 4.714568e-03 -1.556570e-03 1.042659e-03 2.993278e-03 -3.884537e-03
<VARIANCE> 39
 7.350514e+01 8.099132e+01 7.700939e+01 7.684519e+01 7.424648e+01 1.353038e+02 6.992134e+01 6.520005e+01 9.185998e+01 4.166572e+01 4.933464e+01 4.372292e+01 1.091383e+02 2.708541e+00 4.943263e+00 3.914452e+00 4.737393e+00 2.821074e+00 5.650172e+00 4.008301e+00 3.433665e+00 4.646098e+00 2.715713e+00 2.851635e+00 2.306555e+00 3.135029e+00 4.215818e-01 8.242330e-01 6.399363e-01 8.716641e-01 4.844905e-01 8.110053e-01 7.329203e-01 5.920932e-01 7.527410e-01 4.839332e-01 5.023554e-01 4.175492e-01 4.235854e-01
<GCONST> 1.369398e+02
<STATE> 4
<MEAN> 39
 -3.375244e+00 -3.120545e-01 2.634936e+00 -2.071369e+00 -3.072602e+00 -9.925961e+00 -8.575963e+00 -2.055143e+00 -1.479386e+01 -2.096200e-01 -5.884208e+00 -3.300699e+00 6.443642e+01 1.399383e-02 2.938932e-02 -2.942781e-02 1.645530e-02 -5.515561e-05 3.221612e-02 -3.307104e-02 3.364154e-02 8.335447e-03 -2.437100e-02 -1.327172e-02 -1.481302e-03 -3.476880e-02 -2.642891e-03 -3.702116e-04 -4.057992e-04 -1.701704e-03 -1.879521e-03 3.331386e-03 3.804448e-03 -8.086909e-04 2.405277e-03 -5.251952e-04 2.864855e-03 2.320825e-03 -7.724681e-04
<VARIANCE> 39
 7.368530e+01 8.138883e+01 7.445770e+01 7.552267e+01 7.482389e+01 1.355692e+02 6.783125e+01 6.586817e+01 8.974149e+01 4.169176e+01 4.986071e+01 4.461831e+01 1.122986e+02 2.477232e+00 4.610785e+00 3.526570e+00 4.443449e+00 2.644217e+00 5.417810e+00 3.657456e+00 3.293665e+00 4.348107e+00 2.596882e+00 2.807473e+00 2.228691e+00 2.892037e+00 3.779791e-01 7.605689e-01 5.740941e-01 8.091347e-01 4.490122e-01 7.760876e-01 6.598370e-01 5.677551e-01 7.048894e-01 4.571251e-01 4.907601e-01 3.941599e-01 3.832894e-01
<GCONST> 1.351702e+02
<TRANSP> 5
 0.000000e+00 1.000000e+00 0.000000e+00 0.000000e+00 0.000000e+00
 0.000000e+00 7.400399e-01 2.599601e-01 0.000000e+00 0.000000e+00
 0.000000e+00 0.000000e+00 7.400397e-01 2.599603e-01 0.000000e+00
 0.000000e+00 0.000000e+00 0.000000e+00 8.703107e-01 1.296893e-01
 0.000000e+00 0.000000e+00 0.000000e+00 0.000000e+00 0.000000e+00
<ENDHMM>
~h "k"
<BEGINHMM>
<NUMSTATES> 5
<STATE> 2
<MEAN> 39
 -3.810844e+00 -6.041332e-01 -1.327311e+00 -2.642447e+00 -4.715742e+00 -6.653360e+00 -8.217598e+00 -1.506180e+00 -1.155898e+01 9.226330e-01 -2.890275e+00 -1.834515e+00 6.238058e+01 3.226341e-02 -4.682311e-02 -3.715883e-03 -4.066683e-02 7.135401e-02 -2.817449e-02 6.517461e-03 2.106239e-02 7.303196e-03 1.526001e-02 -7.544505e-03 -7.789931e-03 7.538113e-02 3.914443e-03 3.145071e-03 -2.915771e-03 2.394041e-03 1.178235e-03 -1.189675e-02 1.870050e-03 3.971841e-03 -1.704701e-03 -2.160402e-04 -4.060803e-03 5.753699e-04 1.739417e-03
<VARIANCE> 39
 7.918185e+01 7.871129e+01 5.126713e+01 8.279620e+01 5.654022e+01 1.030041e+02 6.470264e+01 5.303254e+01 8.331497e+01 4.461204e+01 3.280807e+01 2.904969e+01 9.494064e+01 2.578618e+00 4.876652e+00 2.552120e+00 5.648377e+00 2.697098e+00 5.311315e+00 3.642802e+00 2.939795e+00 4.641131e+00 2.678735e+00 2.320090e+00 2.274360e+00 3.755383e+00 3.478000e-01 8.454463e-01 4.630080e-01 1.004806e+00 4.632083e-01 8.102568e-01 6.570860e-01 5.435697e-01 7.499909e-01 4.734554e-01 4.340799e-01 4.208070e-01 5.062833e-01
<GCONST> 1.335372e+02
<STATE> 3
<MEAN> 39
 -3.707717e+00 -7.186446e-01 -1.374790e+00 -2.690649e+00 -4.446698e+00 -6.795532e+00 -8.210345e+00 -1.373352e+00 -1.152877e+01 9.540811e-01 -2.926843e+00 -1.844814e+00 6.257907e+01 2.591999e-02 -2.874196e-02 -8.923721e-03 -1.738513e-02 7.545754e-02 -4.835371e-02 1.050095e-02 3.521234e-02 3.889208e-03 6.539707e-03 -1.527381e-02 -2.443662e-03 5.849498e-02 -3.396596e-03 5.713104e-03 -5.456430e-04 8.463859e-03 8.776938e-04 -4.828801e-03 2.390136e-04 4.032657e-03 6.722281e-05 -2.635452e-03 -2.107265e-03 1.085640e-03 -6.603813e-03
<VARIANCE> 39
 8.010065e+01 7.926999e+01 5.337928e+01 8.377370e+01 5.595668e+01 1.025442e+02 6.491920e+01 5.282879e+01 8.414792e+01 4.512646e+01 3.274938e+01 2.889256e+01 9.626723e+01 2.586269e+00 4.752928e+00 2.481934e+00 5.172499e+00 2.690938e+00 5.289350e+00 3.532014e+00 2.884024e+00 4.593876e+00 2.664493e+00 2.285593e+00 2.285156e+00 3.619001e+00 3.440193e-01 8.161244e-01 4.447926e-01 9.165246e-01 4.620638e-01 8.074139e-01 6.339767e-01 5.298864e-01 7.361429e-01 4.680704e-01 4.284016e-01 4.239730e-01 4.833983e-01
<GCONST> 1.330351e+02
<STATE> 4
<MEAN> 39
 -4.027132e+00 -7.056105e-01 -1.347517e+00 -2.120962e+00 -4.595168e+00 -6.711754e+00 -7.974874e+00 -1.138023e+00 -1.131098e+01 1.030085e+00 -2.880108e+00 -1.757656e+00 6.218647e+01 -1.230726e-02 -9.827147e-03 1.015819e-02 1.462968e-02 5.956407e-02 -2.484414e-02 6.800100e-03 3.836209e-02 5.757311e-03 -9.633212e-03 -1.525263e-02 3.756652e-03 1.218467e-02 -7.370696e-03 3.100308e-03 4.705873e-03 4.668012e-03 -1.804454e-03 2.864103e-03 -2.582338e-04 2.281235e-04 9.019885e-04 -2.586749e-03 -8.983631e-04 6.450809e-04 -6.968515e-03
<VARIANCE> 39
 8.232789e+01 8.080640e+01 5.421306e+01 7.761623e+01 5.582819e+01 9.858819e+01 6.326888e+01 5.371097e+01 8.420197e+01 4.465553e+01 3.327371e+01 2.937551e+01 9.856638e+01 2.370428e+00 4.367770e+00 2.264772e+00 4.417465e+00 2.639085e+00 4.821385e+00 3.247213e+00 2.808474e+00 4.226194e+00 2.531656e+00 2.207943e+00 2.222146e+00 3.291486e+00 3.081639e-01 7.348442e-01 3.998311e-01 7.787122e-01 4.574071e-01 7.310122e-01 5.688824e-01 5.092942e-01 6.661618e-01 4.403760e-01 4.112303e-01 4.086376e-01 4.388989e-01
<GCONST> 1.310034e+02
<TRANSP> 5
 0.000000e+00 1.000000e+00 0.000000e+00 0.000000e+00 0.000000e+00
 0.000000e+00 7.383842e-01 2.616158e-01 0.000000e+00 0.000000e+00
 0.000000e+00 0.000000e+00 7.383844e-01 2.616156e-01 0.000000e+00
 0.000000e+00 0.000000e+00 0.000000e+00 8.696993e-01 1.303007e-01
 0.000000e+00 0.000000e+00 0.000000e+00 0.000000e+00 0.000000e+00
<ENDHMM>
~h "l"
<BEGINHMM>
<NUMSTATES> 5
<STATE> 2
<MEAN> 39
 -2.987158e+00 -8.070156e-01 9.253629e-01 -4.208566e+00 -2.526541e+00 -9.117874e+00 -8.503349e+00 -4.311793e-01 -1.344139e+01 -7.798285e-01 -4.945485e+00 -1.639901e+00 6.501719e+01 -4.727023e-02 7.630480e-04 -3.142284e-02 -9.651365e-04 -2.335265e-02 3.789308e-02 2.353388e-02 7.266096e-03 4.003481e-02 3.835610e-02 4.504095e-02 1.965030e-02 -4.733922e-02 -2.907123e-03 2.009240e-03 2.418866e-03 3.288774e-03 -1.549687e-04 3.656450e-03 -4.948972e-05 6.551407e-04 8.060511e-04 -3.041261e-04 -3.235684e-04 4.915909e-04 -4.119948e-03
<VARIANCE> 39
 9.542082e+01 6.681921e+01 7.007025e+01 9.119038e+01 7.062821e+01 1.094922e+02 7.114339e+01 6.052224e+01 8.560708e+01 4.977502e+01 4.952296e+01 3.321917e+01 1.125077e+02 2.715620e+00 3.390614e+00 2.983783e+00 3.533084e+00 2.585191e+00 4.682570e+00 3.190297e+00 3.049836e+00 3.679830e+00 2.613561e+00 2.636496e+00 2.036478e+00 2.089319e+00 3.212538e-01 5.490326e-01 4.427198e-01 5.745177e-01 4.187905e-01 7.202137e-01 5.490489e-01 5.028037e-01 6.197335e-01 4.399054e-01 4.521269e-01 3.670760e-01 2.632383e-01
<GCONST> 1.310119e+02
<STATE> 3
<MEAN> 39
 -3.198424e+00 -8.094909e-01 8.354990e-01 -4.201787e+00 -2.606149e+00 -8.952896e+00 -8.421219e+00 -4.157114e-01 -1.326908e+01 -6.346813e-01 -4.775589e+00 -1.553936e+00 6.481474e+01 -5.590023e-02 6.141001e-03 -2.229463e-02 9.276141e-03 -2.316241e-02 4.818340e-02 2.192913e-02 8.199579e-03 4.236298e-02 3.600017e-02 4.235979e-02 2.168172e-02 -5.925111e-02 -2.391429e-03 1.527744e-03 2.890098e-03 3.467875e-03 -2.254916e-04 2.603106e-03 -2.616576e-04 5.123471e-04 5.617321e-04 -7.390547e-04 -8.326578e-04 6.546929e-04 -3.442950e-03
<VARIANCE> 39
 9.670718e+01 6.613660e+01 6.922759e+01 9.198154e+01 7.013656e+01 1.096512e+02 7.025835e+01 5.949358e+01 8.586539e+01 4.952522e+01 4.862588e+01 3.286157e+01 1.151909e+02 2.704083e+00 3.289787e+00 2.945048e+00 3.463589e+00 2.556117e+00 4.572310e+00 3.158058e+00 2.994630e+00 3.651546e+00 2.578323e+00 2.579551e+00 2.011378e+00 2.057728e+00 3.177157e-01 5.317206e-01 4.358372e-01 5.628386e-01 4.164799e-01 7.060879e-01 5.448393e-01 4.954292e-01 6.155107e-01 4.343570e-01 4.425527e-01 3.638186e-01 2.583430e-01
<GCONST> 1.305714e+02
<STATE> 4
<MEAN> 39
 -3.581972e+00 -7.439134e-01 8.979430e-01 -3.909967e+00 -3.251819e+00 -8.666612e+00 -7.882581e+00 -2.744198e-01 -1.324770e+01 -6.024107e-01 -4.555440e+00 -1.496966e+00 6.427672e+01 -5.818110e-02 8.956769e-03 -1.106666e-02 2.111261e-02 -2.286459e-02 5.281866e-02 1.708453e-02 4.801834e-03 4.498677e-02 2.925640e-02 3.433533e-02 2.536530e-02 -6.779208e-02 -3.077441e-04 1.383751e-03 2.182870e-03 3.408380e-03 -4.802317e-04 7.834011e-04 -3.334780e-04 5.847067e-04 -2.035318e-05 -1.022768e-03 -1.169396e-03 6.210838e-04 -2.080380e-03
<VARIANCE> 39
 9.881351e+01 6.729036e+01 6.799261e+01 9.123724e+01 7.149029e+01 1.121815e+02 7.000698e+01 6.051065e+01 8.851740e+01 4.976430e+01 4.830992e+01 3.304775e+01 1.171597e+02 2.557747e+00 3.161055e+00 2.834259e+00 3.278840e+00 2.545815e+00 4.424293e+00 3.116387e+00 2.952394e+00 3.591569e+00 2.544474e+00 2.486593e+00 1.956302e+00 1.942575e+00 2.959590e-01 5.050833e-01 4.158485e-01 5.315228e-01 4.105698e-01 6.899288e-01 5.368654e-01 4.890751e-01 6.043479e-01 4.293624e-01 4.252035e-01 3.534989e-01 2.387500e-01
<GCONST> 1.298166e+02
<TRANSP> 5
 0.000000e+00 1.000000e+00 0.000000e+00 0.000000e+00 0.000000e+00
 0.000000e+00 7.349926e-01 2.650075e-01 0.000000e+00 0.000000e+00
 0.000000e+00 0.000000e+00 7.349929e-01 2.650071e-01 0.000000e+00
 0.000000e+00 0.000000e+00 0.000000e+00 8.655387e-01 1.344613e-01
 0.000000e+00 0.000000e+00 0.000000e+00 0.000000e+00 0.000000e+00
<ENDHMM>
~h "m"
<BEGINHMM>
<NUMSTATES> 5
<STATE> 2
<MEAN> 39
 -2.817461e+00 4.202316e-01 2.431742e+00 -2.245353e+00 -2.108602e+00 -9.546296e+00 -8.724198e+00 -8.616287e-01 -1.434400e+01 -1.493202e+00 -6.471202e+00 -2.731364e+00 6.452257e+01 -2.085576e-02 -1.199436e-04 1.685797e-03 1.319255e-02 -6.257365e-03 4.560716e-02 3.422211e-03 -1.437097e-02 1.710834e-02 3.676401e-03 1.369512e-02 1.684573e-02 -2.307388e-02 -1.929009e-03 -3.452856e-03 -1.277515e-03 -1.518983e-03 -9.223237e-04 6.793993e-05 3.107130e-03 -1.543433e-03 1.060280e-03 3.105225e-03 1.986277e-03 3.927717e-04 8.142969e-04
<VARIANCE> 39
 7.028797e+01 7.406209e+01 6.795428e+01 8.820106e+01 6.914235e+01 1.236059e+02 6.565149e+01 6.421211e+01 8.181808e+01 4.107677e+01 4.681559e+01 4.062448e+01 1.049565e+02 2.286269e+00 4.199706e+00 3.406800e+00 4.283898e+00 2.504008e+00 5.161288e+00 3.412293e+00 3.223400e+00 3.644198e+00 2.660887e+00 2.844430e+00 2.069677e+00 2.610447e+00 3.382754e-01 6.770326e-01 5.420226e-01 7.321488e-01 4.275844e-01 7.648787e-01 6.159307e-01 5.378867e-01 6.117043e-01 4.699377e-01 4.838234e-01 3.691580e-01 3.374804e-01
<GCONST> 1.328846e+02
<STATE> 3
<MEAN> 39
 -2.889524e+00 4.000746e-01 2.417606e+00 -2.206064e+00 -2.130833e+00 -9.360500e+00 -8.689073e+00 -9.273025e-01 -1.428480e+01 -1.457397e+00 -6.419004e+00 -2.660585e+00 6.444320e+01 -2.526261e-02 -8.543785e-03 -4.628578e-03 6.748811e-03 -1.076128e-02 4.756595e-02 1.486800e-02 -1.876357e-02 1.898518e-02 1.254620e-02 1.963839e-02 1.937221e-02 -2.146461e-02 -1.297572e-03 -2.062067e-03 -1.687975e-03 -2.009330e-03 -1.312770e-03 6.440624e-04 2.869811e-03 -1.286752e-03 7.830078e-04 2.452255e-03 1.880753e-03 7.612603e-04 3.192909e-04
<VARIANCE> 39
 7.040582e+01 7.408172e+01 6.816331e+01 8.825433e+01 6.806500e+01 1.231156e+02 6.519104e+01 6.342181e+01 8.143285e+01 4.087664e+01 4.682510e+01 3.990915e+01 1.058012e+02 2.341902e+00 4.259669e+00 3.411946e+00 4.284679e+00 2.505486e+00 5.166692e+00 3.397477e+00 3.218532e+00 3.658254e+00 2.664263e+00 2.832144e+00 2.047293e+00 2.658729e+00 3.451733e-01 6.893708e-01 5.446963e-01 7.322252e-01 4.269699e-01 7.710639e-01 6.134126e-01 5.365766e-01 6.138243e-01 4.720510e-01 4.836070e-01 3.662555e-01 3.448030e-01
<GCONST> 1.329403e+02
<STATE> 4
<MEAN> 39
 -3.157199e+00 3.720479e-01 2.387602e+00 -1.908447e+00 -2.697278e+00 -8.819337e+00 -8.297665e+00 -1.160216e+00 -1.414371e+01 -1.312229e+00 -6.267106e+00 -2.630303e+00 6.400635e+01 -1.741597e-02 -1.262030e-02 -1.230037e-02 -7.228461e-04 -1.277585e-02 4.569652e-02 2.233711e-02 -2.176950e-02 1.045923e-02 1.581465e-02 1.772324e-02 2.050652e-02 -1.464691e-02 2.236037e-05 -5.386572e-04 -1.196912e-03 -1.626712e-03 -1.183578e-03 1.175406e-04 1.251310e-03 -5.745438e-04 -2.065691e-04 8.842553e-04 9.395545e-04 3.167376e-04 3.238276e-04
<VARIANCE> 39
 7.119312e+01 7.568107e+01 6.794225e+01 8.724538e+01 6.549183e+01 1.228489e+02 6.559530e+01 6.302999e+01 8.189037e+01 4.065295e+01 4.777581e+01 3.895194e+01 1.095322e+02 2.300882e+00 4.248869e+00 3.306042e+00 4.179063e+00 2.453495e+00 5.039596e+00 3.339726e+00 3.203163e+00 3.607683e+00 2.619357e+00 2.777752e+00 2.008079e+00 2.642537e+00 3.348715e-01 6.890650e-01 5.272992e-01 7.153969e-01 4.139066e-01 7.571557e-01 5.970378e-01 5.331485e-01 6.040500e-01 4.654433e-01 4.740905e-01 3.564518e-01 3.393852e-01
<GCONST> 1.324655e+02
<TRANSP> 5
 0.000000e+00 1.000000e+00 0.000000e+00 0.000000e+00 0.000000e+00
 0.000000e+00 7.405994e-01 2.594006e-01 0.000000e+00 0.000000e+00
 0.000000e+00 0.000000e+00 7.405987e-01 2.594014e-01 0.000000e+00
 0.000000e+00 0.000000e+00 0.000000e+00 8.711326e-01 1.288674e-01
 0.000000e+00 0.000000e+00 0.000000e+00 0.000000e+00 0.000000e+00
<ENDHMM>
~h "n"
<BEGINHMM>
<NUMSTATES> 5
<STATE> 2
<MEAN> 39
 -6.799139e+00 1.264548e-01 5.571800e-01 -4.443130e-01 -3.211371e+00 -5.506783e+00 -9.671966e+00 -8.386083e-01 -1.081423e+01 7.489952e-01 -3.027766e+00 -1.048368e+00 5.971250e+01 -6.176023e-02 1.303610e-02 3.970866e-02 1.214271e-02 -1.520586e-02 2.716875e-03 -4.206339e-03 1.533158e-02 3.131441e-02 4.163596e-03 -2.166019e-02 -5.603199e-03 -4.206288e-02 -1.951106e-04 -1.638174e-03 1.258182e-03 2.457162e-04 1.975676e-03 -4.895541e-04 -1.005617e-03 -2.229347e-03 4.947043e-04 1.334331e-03 5.497909e-04 9.350932e-04 1.614745e-03
<VARIANCE> 39
 8.818620e+01 7.047095e+01 6.165533e+01 7.342827e+01 5.451057e+01 1.104814e+02 5.035143e+01 4.190439e+01 7.958593e+01 3.550959e+01 3.445622e+01 3.022324e+01 1.265783e+02 2.028433e+00 2.905480e+00 2.206269e+00 2.846593e+00 2.221217e+00 3.476291e+00 2.668775e+00 2.181988e+00 3.476165e+00 2.038481e+00 1.977434e+00 1.615690e+00 1.898307e+00 2.493861e-01 4.488873e-01 3.582962e-01 4.707170e-01 3.869089e-01 5.772867e-01 4.568504e-01 3.906594e-01 5.543467e-01 3.551842e-01 3.687654e-01 2.926447e-01 2.476574e-01
<GCONST> 1.236619e+02
<STATE> 3
<MEAN> 39
 -7.028763e+00 1.785384e-01 7.032667e-01 -4.005811e-01 -3.266577e+00 -5.496325e+00 -9.694046e+00 -7.977970e-01 -1.070050e+01 7.662827e-01 -3.106562e+00 -1.060644e+00 5.955009e+01 -5.808855e-02 8.872660e-03 4.019399e-02 1.405315e-02 -9.251157e-03 3.956125e-04 -9.534998e-03 6.687540e-03 2.995945e-02 9.423963e-03 -1.954613e-02 -3.315168e-03 -3.686490e-02 1.086317e-03 -1.753765e-03 -9.063578e-04 1.717682e-04 1.391524e-03 -6.357185e-06 -8.994576e-04 -2.801098e-03 -1.222757e-03 1.573610e-03 1.216825e-03 8.867889e-04 1.250762e-03
<VARIANCE> 39
 8.863888e+01 7.089326e+01 6.268963e+01 7.345184e+01 5.569695e+01 1.138362e+02 5.045353e+01 4.197103e+01 7.906103e+01 3.518945e+01 3.470588e+01 3.062625e+01 1.288162e+02 2.018837e+00 2.865926e+00 2.226798e+00 2.772469e+00 2.223462e+00 3.470481e+00 2.654900e+00 2.156740e+00 3.442559e+00 2.024181e+00 1.977021e+00 1.605733e+00 1.840319e+00 2.485271e-01 4.411510e-01 3.611701e-01 4.588616e-01 3.875614e-01 5.764878e-01 4.545862e-01 3.875243e-01 5.508371e-01 3.540624e-01 3.683760e-01 2.913773e-01 2.403187e-01
<GCONST> 1.235641e+02
<STATE> 4
<MEAN> 39
 -7.377714e+00 2.893472e-01 8.274899e-01 -1.417701e-01 -3.638530e+00 -5.195600e+00 -9.629564e+00 -7.581179e-01 -1.059774e+01 7.725891e-01 -3.078735e+00 -9.977040e-01 5.906362e+01 -4.357977e-02 9.322756e-03 2.623682e-02 1.751851e-02 -9.474857e-03 7.703949e-04 -1.650884e-02 -5.263851e-03 2.105077e-02 1.202688e-02 -1.592046e-02 -1.263930e-03 -3.631515e-02 2.407197e-03 -9.452196e-04 -2.668243e-03 4.885762e-04 -8.758934e-05 1.914675e-04 -1.215491e-04 -1.891756e-03 -2.432191e-03 6.474480e-04 9.469129e-04 4.780071e-04 4.476901e-04
<VARIANCE> 39
 8.675866e+01 7.270685e+01 6.257306e+01 7.207703e+01 5.511982e+01 1.164591e+02 4.892567e+01 4.280621e+01 7.891566e+01 3.405898e+01 3.477486e+01 3.158432e+01 1.305135e+02 1.901407e+00 2.746988e+00 2.200848e+00 2.595200e+00 2.125695e+00 3.393146e+00 2.561509e+00 2.106641e+00 3.343571e+00 1.975923e+00 1.950913e+00 1.585940e+00 1.706898e+00 2.318362e-01 4.216188e-01 3.567564e-01 4.296708e-01 3.666259e-01 5.607684e-01 4.412254e-01 3.791609e-01 5.372632e-01 3.484081e-01 3.621930e-01 2.866170e-01 2.202537e-01
<GCONST> 1.226093e+02
<TRANSP> 5
 0.000000e+00 1.000000e+00 0.000000e+00 0.000000e+00 0.000000e+00
 0.000000e+00 7.351259e-01 2.648741e-01 0.000000e+00 0.000000e+00
 0.000000e+00 0.000000e+00 7.351255e-01 2.648745e-01 0.000000e+00
 0.000000e+00 0.000000e+00 0.000000e+00 8.649660e-01 1.350340e-01
 0.000000e+00 0.000000e+00 0.000000e+00 0.000000e+00 0.000000e+00
<ENDHMM>
~h "o"
<BEGINHMM>
<NUMSTATES> 5
<STATE> 2
<MEAN> 39
 -4.326465e-01 1.475859e+00 1.374655e+00 -2.357754e+00 -5.363347e+00 -1.230641e+01 -1.083837e+01 3.843289e+00 -1.026719e+01 -2.430044e+00 -4.746221e+00 -2.091019e+00 6.470980e+01 -1.183173e-01 -1.377603e-01 1.271494e-01 5.584620e-02 1.848954e-01 2.479340e-04 -1.053239e-01 -1.733133e-01 8.341645e-02 2.412965e-02 8.064251e-02 2.763445e-02 7.626558e-02 -6.383303e-03 -7.547067e-03 -4.739198e-03 -1.168792e-02 -4.513826e-03 9.481950e-03 1.167407e-02 -3.668590e-03 5.289724e-03 4.239808e-03 3.827153e-03 4.957903e-04 2.475653e-03
<VARIANCE> 39
 6.964874e+01 8.446180e+01 5.965980e+01 1.340273e+02 1.031707e+02 1.216360e+02 8.141556e+01 7.930826e+01 4.864440e+01 3.333268e+01 3.350771e+01 3.202163e+01 5.943996e+01 2.052860e+00 5.045039e+00 3.472593e+00 7.928078e+00 4.690969e+00 7.611826e+00 4.227928e+00 5.269721e+00 3.461231e+00 2.641521e+00 2.131251e+00 2.837530e+00 3.989527e+00 2.086606e-01 9.735655e-01 5.159705e-01 1.294153e+00 9.113534e-01 1.120584e+00 7.589425e-01 1.045050e+00 5.588446e-01 5.283037e-01 4.192777e-01 5.157969e-01 6.161453e-01
<GCONST> 1.382926e+02
<STATE> 3
<MEAN> 39
 -8.816292e-01 9.234919e-01 1.845435e+00 -2.197953e+00 -4.649866e+00 -1.232144e+01 -1.119388e+01 3.184701e+00 -9.977901e+00 -2.347073e+00 -4.464259e+00 -1.990311e+00 6.504076e+01 -1.427995e-01 -1.654270e-01 1.117577e-01 1.266640e-02 1.717010e-01 3.629448e-02 -6.476042e-02 -1.837119e-01 1.028764e-01 3.830431e-02 9.363269e-02 3.144303e-02 8.528677e-02 -6.102538e-03 -5.642418e-03 -4.296545e-03 -1.364545e-02 -5.113012e-03 9.814925e-03 1.237506e-02 -2.284816e-03 5.807289e-03 3.250504e-03 2.545216e-03 9.197341e-04 2.776247e-03
<VARIANCE> 39
 7.617427e+01 8.935111e+01 6.011861e+01 1.362495e+02 1.016448e+02 1.198019e+02 7.700153e+01 7.729459e+01 5.066524e+01 3.262154e+01 3.339960e+01 3.133587e+01 6.261612e+01 2.200901e+00 5.070671e+00 3.489139e+00 7.870284e+00 4.537297e+00 7.704023e+00 4.084984e+00 5.155190e+00 3.446072e+00 2.623956e+00 2.109052e+00 2.815324e+00 4.197479e+00 2.196176e-01 9.719852e-01 5.146509e-01 1.275036e+00 8.743899e-01 1.119950e+00 7.219795e-01 1.026768e+00 5.569535e-01 5.254629e-01 4.167236e-01 5.207742e-01 6.399624e-01
<GCONST> 1.383684e+02
<STATE> 4
<MEAN> 39
 -1.659703e+00 3.023130e-01 2.479383e+00 -1.921185e+00 -4.539829e+00 -1.199969e+01 -1.081107e+01 2.120778e+00 -9.776464e+00 -1.779298e+00 -4.090782e+00 -1.916912e+00 6.520860e+01 -1.635430e-01 -1.866566e-01 1.004887e-01 -3.962410e-02 1.647111e-01 6.393096e-02 -2.247731e-02 -1.712974e-01 1.052677e-01 4.272301e-02 8.950757e-02 3.692183e-02 9.647764e-02 -6.368693e-03 -3.693409e-03 -1.799243e-03 -1.249880e-02 -3.287261e-03 8.715234e-03 9.972796e-03 -3.089728e-04 5.170096e-03 2.426194e-03 1.369051e-03 1.596569e-03 2.007095e-03
<VARIANCE> 39
 9.221557e+01 9.757904e+01 5.948964e+01 1.410478e+02 9.955663e+01 1.263860e+02 6.820726e+01 7.651567e+01 5.703631e+01 3.101024e+01 3.301810e+01 2.897861e+01 6.612027e+01 2.393224e+00 4.988361e+00 3.297801e+00 7.789253e+00 4.120931e+00 8.047624e+00 3.698775e+00 5.057494e+00 3.673400e+00 2.391937e+00 2.017284e+00 2.472704e+00 4.235979e+00 2.298623e-01 9.535507e-01 4.958911e-01 1.284462e+00 7.621260e-01 1.130017e+00 6.432099e-01 1.022569e+00 5.904816e-01 4.697893e-01 3.971714e-01 4.641891e-01 6.388697e-01
<GCONST> 1.377716e+02
<TRANSP> 5
 0.000000e+00 1.000000e+00 0.000000e+00 0.000000e+00 0.000000e+00
 0.000000e+00 7.415570e-01 2.584429e-01 0.000000e+00 0.000000e+00
 0.000000e+00 0.000000e+00 7.415569e-01 2.584431e-01 0.000000e+00
 0.000000e+00 0.000000e+00 0.000000e+00 8.766899e-01 1.233101e-01
 0.000000e+00 0.000000e+00 0.000000e+00 0.000000e+00 0.000000e+00
<ENDHMM>
~h "p"
<BEGINHMM>
<NUMSTATES> 5
<STATE> 2
<MEAN> 39
 -3.731719e+00 2.022007e+00 -1.182355e+00 -8.397190e-01 -4.734948e+00 -5.217716e+00 -9.278742e+00 7.090202e-01 -1.116376e+01 -6.869081e-01 -4.769013e+00 -1.758626e+00 5.971307e+01 -8.801570e-02 4.113724e-02 4.322071e-02 8.817338e-02 -4.396911e-02 6.837666e-02 2.259773e-02 4.848390e-02 1.961457e-02 -2.505609e-02 -1.679040e-02 -1.024044e-02 -1.180317e-01 -3.862662e-04 -2.907712e-03 1.415697e-03 -1.312309e-03 5.537682e-04 -4.455183e-03 2.080675e-04 -6.086087e-04 -6.111069e-04 1.398397e-03 7.126678e-04 1.158719e-03 2.897551e-03
<VARIANCE> 39
 7.241260e+01 5.491798e+01 4.544760e+01 7.923145e+01 5.761478e+01 1.088292e+02 6.046679e+01 5.669405e+01 6.507154e+01 4.377573e+01 4.374873e+01 3.254451e+01 1.079775e+02 1.865536e+00 3.307120e+00 2.299409e+00 3.074738e+00 2.665253e+00 5.338312e+00 3.167847e+00 3.497599e+00 2.951241e+00 2.380423e+00 2.378105e+00 1.989329e+00 2.451013e+00 2.620668e-01 5.472046e-01 3.889257e-01 5.287380e-01 4.607976e-01 8.491858e-01 5.636033e-01 5.959637e-01 5.131921e-01 4.393746e-01 4.264670e-01 3.517337e-01 3.077992e-01
<GCONST> 1.280533e+02
<STATE> 3
<MEAN> 39
 -4.044773e+00 2.164085e+00 -1.033990e+00 -5.435027e-01 -4.893466e+00 -4.987447e+00 -9.207662e+00 9.012355e-01 -1.108391e+01 -7.595242e-01 -4.810455e+00 -1.791949e+00 5.929774e+01 -8.774757e-02 3.112683e-02 4.652441e-02 8.228128e-02 -4.253338e-02 5.267562e-02 2.273285e-02 4.509844e-02 1.756931e-02 -1.913684e-02 -1.335581e-02 -5.992673e-03 -1.071233e-01 1.273994e-03 -3.077836e-03 -3.231458e-05 -2.983908e-03 1.437110e-03 -5.567687e-03 -1.550414e-03 -1.990947e-03 -6.175671e-04 2.741863e-03 1.982425e-03 1.674167e-03 4.355401e-03
<VARIANCE> 39
 7.301041e+01 5.403460e+01 4.528291e+01 7.811774e+01 5.641041e+01 1.091459e+02 5.927626e+01 5.609166e+01 6.520834e+01 4.327948e+01 4.392569e+01 3.188975e+01 1.076686e+02 1.776837e+00 3.206437e+00 2.263253e+00 3.010622e+00 2.666153e+00 5.290124e+00 3.125102e+00 3.475170e+00 2.933498e+00 2.373286e+00 2.335654e+00 1.932558e+00 2.344146e+00 2.484988e-01 5.304477e-01 3.814780e-01 5.185273e-01 4.611789e-01 8.458781e-01 5.586811e-01 5.934916e-01 5.093563e-01 4.396732e-01 4.193704e-01 3.422906e-01 2.953444e-01
<GCONST> 1.274732e+02
<STATE> 4
<MEAN> 39
 -4.468758e+00 2.303986e+00 -7.559566e-01 -1.339425e-01 -5.557929e+00 -4.725727e+00 -8.828742e+00 1.184495e+00 -1.108699e+01 -7.356086e-01 -4.760396e+00 -1.874102e+00 5.873846e+01 -7.233692e-02 2.140592e-02 3.785745e-02 6.111065e-02 -3.907289e-02 3.058998e-02 1.395493e-02 3.867913e-02 1.704228e-02 -7.215997e-03 -2.743254e-03 3.749345e-04 -8.424240e-02 2.667728e-03 -2.454003e-03 -1.379946e-03 -3.537222e-03 1.511417e-03 -5.037516e-03 -2.603460e-03 -2.784893e-03 -4.481772e-04 2.978013e-03 2.229001e-03 1.816098e-03 4.658477e-03
<VARIANCE> 39
 7.397592e+01 5.380659e+01 4.551019e+01 7.514491e+01 5.583270e+01 1.088569e+02 5.943636e+01 5.618247e+01 6.707431e+01 4.262503e+01 4.481292e+01 3.245876e+01 1.078833e+02 1.698496e+00 3.052092e+00 2.200550e+00 2.907872e+00 2.641409e+00 5.093091e+00 3.112561e+00 3.348377e+00 2.937444e+00 2.379067e+00 2.283146e+00 1.876400e+00 2.199673e+00 2.340158e-01 4.997498e-01 3.666331e-01 5.048864e-01 4.553239e-01 8.268811e-01 5.578646e-01 5.697952e-01 5.060828e-01 4.418030e-01 4.072965e-01 3.306789e-01 2.753840e-01
<GCONST> 1.267356e+02
<TRANSP> 5
 0.000000e+00 1.000000e+00 0.000000e+00 0.000000e+00 0.000000e+00
 0.000000e+00 7.338145e-01 2.661855e-01 0.000000e+00 0.000000e+00
 0.000000e+00 0.000000e+00 7.338145e-01 2.661855e-01 0.000000e+00
 0.000000e+00 0.000000e+00 0.000000e+00 8.635204e-01 1.364796e-01
 0.000000e+00 0.000000e+00 0.000000e+00 0.000000e+00 0.000000e+00
<ENDHMM>
~h "r"
<BEGINHMM>
<NUMSTATES> 5
<STATE> 2
<MEAN> 39
 -3.104553e+00 -1.291004e+00 -1.350610e+00 -4.765083e+00 -3.348749e+00 -7.919959e+00 -7.529873e+00 -1.845892e+00 -1.279270e+01 5.442713e-01 -1.961136e+00 -6.024616e-01 6.444365e+01 4.312589e-02 2.561247e-02 -2.954095e-02 2.065219e-02 -1.690268e-02 -4.758982e-03 -1.401774e-02 -1.718895e-02 1.919901e-02 -1.636292e-02 1.679444e-04 -3.208786e-02 2.887740e-03 -5.688576e-03 4.864366e-03 6.511496e-03 3.653712e-03 -6.733264e-03 2.981567e-03 8.706989e-03 3.620021e-03 1.554840e-03 2.632710e-03 -5.240861e-03 -2.740740e-03 -7.196759e-03
<VARIANCE> 39
 7.410295e+01 6.368188e+01 6.919427e+01 8.115928e+01 6.814173e+01 1.021021e+02 6.336235e+01 5.135861e+01 7.923571e+01 4.383732e+01 3.814051e+01 3.060865e+01 9.964234e+01 3.137849e+00 4.910510e+00 3.834458e+00 5.047120e+00 2.782506e+00 5.599990e+00 4.053853e+00 2.899834e+00 4.110346e+00 2.783331e+00 2.717812e+00 2.296869e+00 3.860868e+00 4.802617e-01 8.807457e-01 7.026578e-01 9.334468e-01 4.597167e-01 8.769720e-01 7.196677e-01 5.201648e-01 7.192515e-01 5.086755e-01 5.062909e-01 4.188202e-01 5.081983e-01
<GCONST> 1.356433e+02
<STATE> 3
<MEAN> 39
 -2.999931e+00 -1.154663e+00 -1.406924e+00 -4.618826e+00 -3.467012e+00 -7.889263e+00 -7.541745e+00 -1.881642e+00 -1.269836e+01 5.292566e-01 -2.006865e+00 -7.202638e-01 6.436200e+01 2.662221e-02 4.339932e-02 -5.459771e-03 4.536778e-02 -3.864167e-02 9.404858e-03 1.400909e-03 -3.658712e-03 2.242800e-02 -6.237576e-03 -1.851127e-02 -4.023683e-02 -2.707691e-02 -4.842648e-03 4.670220e-03 6.901626e-03 7.720629e-03 -6.339550e-03 5.092219e-03 4.036945e-03 3.966190e-03 8.342206e-04 2.949970e-03 -4.928743e-03 -1.979952e-03 -9.025389e-03
<VARIANCE> 39
 7.279611e+01 6.441058e+01 6.695705e+01 8.210143e+01 6.679156e+01 1.019113e+02 6.232687e+01 5.135858e+01 7.703779e+01 4.398279e+01 3.757765e+01 3.061926e+01 1.010250e+02 3.018761e+00 4.819177e+00 3.702631e+00 4.956923e+00 2.744389e+00 5.606277e+00 3.957092e+00 2.925295e+00 4.070456e+00 2.758047e+00 2.688979e+00 2.296487e+00 3.851884e+00 4.633715e-01 8.555018e-01 6.777404e-01 9.117513e-01 4.520787e-01 8.735787e-01 7.031922e-01 5.278853e-01 7.116777e-01 5.075866e-01 5.017534e-01 4.201534e-01 5.072796e-01
<GCONST> 1.352071e+02
<STATE> 4
<MEAN> 39
 -3.163706e+00 -8.290222e-01 -1.244756e+00 -3.875308e+00 -4.132967e+00 -7.408647e+00 -7.230970e+00 -1.938727e+00 -1.248871e+01 7.175400e-01 -2.109122e+00 -8.927729e-01 6.372400e+01 1.797554e-02 4.369027e-02 1.030806e-02 6.609172e-02 -4.465575e-02 2.211417e-02 -1.225227e-02 4.800102e-03 2.160444e-02 9.337329e-03 -2.635835e-02 -3.871943e-02 -4.563516e-02 -1.749948e-03 1.081937e-03 3.524668e-03 4.066077e-03 -1.994266e-03 3.257537e-03 -6.654624e-04 2.208534e-03 -2.015842e-04 1.628389e-03 -1.947572e-03 -7.968907e-04 -3.948700e-03
<VARIANCE> 39
 7.284850e+01 6.629221e+01 6.229136e+01 7.953153e+01 6.273239e+01 1.009981e+02 6.183325e+01 5.229657e+01 7.810901e+01 4.225779e+01 3.604245e+01 3.148549e+01 1.023346e+02 2.798244e+00 4.596396e+00 3.350384e+00 4.688341e+00 2.679488e+00 5.472926e+00 3.848893e+00 2.933791e+00 4.024701e+00 2.638267e+00 2.643022e+00 2.329550e+00 3.713462e+00 4.218053e-01 8.004075e-01 6.043856e-01 8.511322e-01 4.380965e-01 8.519344e-01 6.782772e-01 5.314793e-01 6.982094e-01 4.850536e-01 4.928298e-01 4.235124e-01 4.849729e-01
<GCONST> 1.340478e+02
<TRANSP> 5
 0.000000e+00 1.000000e+00 0.000000e+00 0.000000e+00 0.000000e+00
 0.000000e+00 7.370164e-01 2.629836e-01 0.000000e+00 0.000000e+00
 0.000000e+00 0.000000e+00 7.370157e-01 2.629843e-01 0.000000e+00
 0.000000e+00 0.000000e+00 0.000000e+00 8.669598e-01 1.330402e-01
 0.000000e+00 0.000000e+00 0.000000e+00 0.000000e+00 0.000000e+00
<ENDHMM>
~h "s"
<BEGINHMM>
<NUMSTATES> 5
<STATE> 2
<MEAN> 39
 -7.957839e+00 -1.374487e+00 2.713187e+00 -3.649276e+00 -2.102874e+00 -7.059660e+00 -7.165265e+00 -2.660889e+00 -1.081098e+01 5.870108e-01 -3.858448e+00 -5.663560e-01 6.305165e+01 5.944257e-02 1.445470e-02 2.119012e-02 -7.663938e-03 -2.133995e-03 -5.068152e-02 -1.901668e-02 -1.055238e-02 -2.724521e-02 -8.783603e-03 -1.219270e-02 4.523461e-03 4.514405e-02 1.091100e-02 4.043893e-03 -1.698667e-02 5.222881e-03 -1.371240e-03 -1.465924e-03 1.117160e-03 -9.869019e-04 -5.246280e-03 -4.513622e-04 4.365831e-03 -3.406072e-03 -1.170334e-03
<VARIANCE> 39
 1.230254e+02 7.520078e+01 8.744690e+01 9.245750e+01 6.493923e+01 1.258666e+02 6.224147e+01 4.996055e+01 8.034054e+01 3.949506e+01 3.883060e+01 2.539589e+01 1.360011e+02 3.941046e+00 3.524262e+00 4.203207e+00 3.595757e+00 2.403603e+00 4.675487e+00 3.230458e+00 2.681858e+00 4.034580e+00 2.424072e+00 2.320519e+00 1.804799e+00 2.298202e+00 4.532269e-01 5.819004e-01 6.014158e-01 6.143299e-01 4.008113e-01 7.472573e-01 5.803106e-01 4.708267e-01 6.765267e-01 4.217449e-01 4.250369e-01 3.479359e-01 3.081884e-01
<GCONST> 1.320232e+02
<STATE> 3
<MEAN> 39
 -7.678063e+00 -1.317904e+00 2.670259e+00 -3.631621e+00 -2.109973e+00 -7.226508e+00 -7.222647e+00 -2.694084e+00 -1.094866e+01 5.621696e-01 -3.889039e+00 -5.764755e-01 6.319399e+01 9.101862e-02 2.599195e-02 -2.735691e-02 1.030170e-02 -9.001688e-03 -4.859158e-02 -1.791629e-02 -8.008597e-03 -4.781207e-02 -9.689234e-03 -6.262965e-03 -8.770561e-03 3.336912e-02 1.021956e-02 3.246829e-03 -1.428321e-02 5.832759e-03 -2.232495e-03 1.332935e-03 -1.116050e-03 1.042902e-03 -5.909896e-03 -2.621702e-04 6.355869e-04 -4.384221e-03 -3.955389e-03
<VARIANCE> 39
 1.227449e+02 7.548038e+01 8.764093e+01 9.275655e+01 6.540382e+01 1.248295e+02 6.182029e+01 5.014814e+01 7.907379e+01 3.953959e+01 3.915514e+01 2.535771e+01 1.358038e+02 3.954734e+00 3.627679e+00 4.004837e+00 3.609550e+00 2.444638e+00 4.668835e+00 3.218553e+00 2.667690e+00 4.002801e+00 2.436791e+00 2.339891e+00 1.812813e+00 2.341268e+00 4.611030e-01 6.002697e-01 5.850757e-01 6.195638e-01 4.025431e-01 7.423689e-01 5.780447e-01 4.680432e-01 6.641812e-01 4.252496e-01 4.301698e-01 3.464452e-01 3.150345e-01
<GCONST> 1.320761e+02
<STATE> 4
<MEAN> 39
 -7.262291e+00 -1.200608e+00 2.465465e+00 -3.265577e+00 -2.453777e+00 -7.208350e+00 -7.099307e+00 -2.610532e+00 -1.115437e+01 4.871541e-01 -3.955042e+00 -6.594253e-01 6.304689e+01 8.780424e-02 1.880398e-02 -4.090510e-02 1.309283e-02 -1.679797e-02 -2.919273e-02 -1.893153e-02 4.766059e-03 -4.307286e-02 -4.906212e-03 -6.599104e-03 -1.664997e-02 1.917804e-02 2.085062e-03 -9.645602e-05 -3.014343e-03 1.344332e-03 -2.177570e-03 2.217982e-03 -5.488630e-04 2.682609e-03 3.795395e-05 1.764560e-04 -1.020226e-03 -2.211434e-03 -2.203909e-03
<VARIANCE> 39
 1.178887e+02 7.656573e+01 8.520474e+01 9.304407e+01 6.643163e+01 1.279001e+02 6.227172e+01 5.192988e+01 7.714764e+01 4.030709e+01 4.073500e+01 2.549560e+01 1.366577e+02 3.631316e+00 3.607707e+00 3.685287e+00 3.543858e+00 2.489700e+00 4.533515e+00 3.089610e+00 2.645369e+00 3.723299e+00 2.436166e+00 2.307656e+00 1.800611e+00 2.223228e+00 4.245501e-01 5.899166e-01 5.419759e-01 5.981557e-01 4.002471e-01 7.096376e-01 5.498303e-01 4.632442e-01 6.110111e-01 4.235307e-01 4.221057e-01 3.397106e-01 2.905264e-01
<GCONST> 1.312252e+02
<TRANSP> 5
 0.000000e+00 1.000000e+00 0.000000e+00 0.000000e+00 0.000000e+00
 0.000000e+00 7.373468e-01 2.626532e-01 0.000000e+00 0.000000e+00
 0.000000e+00 0.000000e+00 7.373472e-01 2.626528e-01 0.000000e+00
 0.000000e+00 0.000000e+00 0.000000e+00 8.683741e-01 1.316259e-01
 0.000000e+00 0.000000e+00 0.000000e+00 0.000000e+00 0.000000e+00
<ENDHMM>
~h "t"
<BEGINHMM>
<NUMSTATES> 5
<STATE> 2
<MEAN> 39
 -4.170800e+00 -8.118972e-01 1.042670e+00 -2.387362e+00 -5.125573e+00 -7.290628e+00 -7.611143e+00 -4.505490e-02 -1.278112e+01 1.042355e-01 -4.433942e+00 -1.762490e+00 6.272174e+01 1.137065e-02 2.558036e-02 -1.084511e-02 4.560795e-02 -1.128173e-02 -5.748803e-03 -2.565053e-02 6.312317e-03 -1.248491e-02 -2.962459e-03 -1.098418e-02 5.526713e-03 -4.098706e-02 1.781609e-03 2.019695e-03 -2.055581e-03 3.841591e-04 6.462446e-04 1.465184e-04 -1.463934e-03 1.438134e-04 6.683988e-04 -7.762472e-04 8.945746e-04 -3.389120e-04 -5.904896e-04
<VARIANCE> 39
 8.060109e+01 8.237315e+01 7.128174e+01 7.852917e+01 7.901117e+01 1.130999e+02 6.266175e+01 5.927851e+01 8.817052e+01 4.312841e+01 4.167316e+01 3.381134e+01 1.058287e+02 2.682281e+00 5.048097e+00 3.083647e+00 4.270105e+00 3.132666e+00 5.390188e+00 3.562828e+00 3.735658e+00 4.485595e+00 3.011861e+00 2.577142e+00 2.175343e+00 3.458841e+00 3.577159e-01 8.595419e-01 5.049233e-01 7.402582e-01 5.058580e-01 8.387334e-01 6.255575e-01 6.551499e-01 7.099861e-01 5.551592e-01 4.529711e-01 3.895283e-01 4.625424e-01
<GCONST> 1.353989e+02
<STATE> 3
<MEAN> 39
 -4.119364e+00 -6.942744e-01 9.845664e-01 -2.213527e+00 -5.169004e+00 -7.319597e+00 -7.710530e+00 -1.949238e-02 -1.282847e+01 8.477429e-02 -4.474076e+00 -1.744604e+00 6.256037e+01 1.560642e-02 3.225472e-02 -1.724879e-02 4.708142e-02 -8.244011e-03 -3.790756e-03 -3.042075e-02 6.577579e-03 -9.377105e-03 -5.278006e-03 -7.362237e-03 5.238784e-03 -4.377829e-02 8.322650e-04 1.579336e-03 -1.731646e-03 1.240052e-04 1.469068e-03 9.073827e-04 -1.236231e-03 1.171628e-04 1.257606e-03 -7.152270e-04 1.262159e-03 1.410848e-04 -5.523883e-04
<VARIANCE> 39
 7.817165e+01 8.130046e+01 6.942889e+01 7.823500e+01 7.927939e+01 1.149359e+02 6.245584e+01 5.899961e+01 8.876545e+01 4.270986e+01 4.131804e+01 3.384066e+01 1.067824e+02 2.574206e+00 4.992717e+00 3.022282e+00 4.235790e+00 3.119500e+00 5.382406e+00 3.525577e+00 3.730643e+00 4.423898e+00 2.983993e+00 2.575866e+00 2.174138e+00 3.423379e+00 3.465453e-01 8.530112e-01 4.955297e-01 7.323161e-01 5.046945e-01 8.313062e-01 6.174565e-01 6.540014e-01 6.984432e-01 5.500302e-01 4.538096e-01 3.899845e-01 4.582860e-01
<GCONST> 1.350757e+02
<STATE> 4
<MEAN> 39
 -4.163812e+00 -3.689231e-01 8.792822e-01 -1.790481e+00 -5.741597e+00 -7.151980e+00 -7.577162e+00 4.012440e-02 -1.289222e+01 3.663555e-02 -4.469740e+00 -1.670101e+00 6.197518e+01 1.321666e-02 3.777714e-02 -2.085476e-02 4.510071e-02 -2.828687e-03 -2.071302e-03 -3.346841e-02 5.688453e-03 -5.783547e-03 -8.045866e-03 -1.415242e-03 5.669580e-03 -4.516095e-02 -3.520102e-04 4.407021e-04 -1.078570e-03 -6.148450e-04 1.597670e-03 1.104105e-03 -8.705515e-04 -4.514109e-05 1.342337e-03 -5.058430e-04 1.220092e-03 3.610339e-04 -2.038730e-04
<VARIANCE> 39
 7.347964e+01 7.973928e+01 6.586395e+01 7.654473e+01 7.892106e+01 1.167951e+02 6.268399e+01 5.872675e+01 9.042069e+01 4.115861e+01 4.158264e+01 3.490749e+01 1.086765e+02 2.338171e+00 4.784198e+00 2.853568e+00 4.114283e+00 3.030881e+00 5.193553e+00 3.452857e+00 3.648113e+00 4.246684e+00 2.834448e+00 2.550574e+00 2.153383e+00 3.312776e+00 3.158613e-01 8.186884e-01 4.674937e-01 7.139289e-01 4.932789e-01 7.916541e-01 5.996875e-01 6.350085e-01 6.631458e-01 5.226393e-01 4.475599e-01 3.834510e-01 4.428304e-01
<GCONST> 1.339732e+02
<TRANSP> 5
 0.000000e+00 1.000000e+00 0.000000e+00 0.000000e+00 0.000000e+00
 0.000000e+00 7.391880e-01 2.608121e-01 0.000000e+00 0.000000e+00
 0.000000e+00 0.000000e+00 7.391886e-01 2.608115e-01 0.000000e+00
 0.000000e+00 0.000000e+00 0.000000e+00 8.699881e-01 1.300119e-01
 0.000000e+00 0.000000e+00 0.000000e+00 0.000000e+00 0.000000e+00
<ENDHMM>
~h "u"
<BEGINHMM>
<NUMSTATES> 5
<STATE> 2
<MEAN> 39
 -2.439577e+00 2.175421e-01 1.310201e+00 -3.359395e+00 -4.361346e+00 -9.030567e+00 -8.075013e+00 8.659382e-01 -1.492500e+01 -1.782051e+00 -6.101947e+00 -3.419417e+00 6.405293e+01 5.009840e-03 -1.530033e-02 -1.359250e-02 -1.471898e-02 -5.236881e-03 -1.314692e-02 1.472171e-02 9.372794e-03 -1.158440e-02 1.214634e-02 -2.884665e-03 4.444227e-03 7.767652e-03 -1.751620e-03 9.719280e-04 1.378107e-03 5.184508e-04 9.223851e-04 2.745511e-03 -1.026024e-03 -3.014872e-03 2.057142e-03 6.636440e-04 2.718021e-03 1.761616e-03 -1.065591e-03
<VARIANCE> 39
 7.670029e+01 7.860318e+01 7.008350e+01 8.350153e+01 8.185351e+01 1.263621e+02 6.703036e+01 6.653774e+01 9.855112e+01 5.157038e+01 5.403283e+01 4.568887e+01 9.570445e+01 2.322662e+00 4.854866e+00 3.173532e+00 4.006314e+00 3.364676e+00 6.177299e+00 3.784403e+00 3.887605e+00 4.622469e+00 3.084509e+00 2.859728e+00 2.440998e+00 2.901723e+00 3.265168e-01 8.329784e-01 5.103375e-01 6.852883e-01 5.418560e-01 9.272100e-01 6.741301e-01 6.601287e-01 7.208990e-01 5.567798e-01 5.027249e-01 4.274232e-01 3.912042e-01
<GCONST> 1.367237e+02
<STATE> 3
<MEAN> 39
 -2.418711e+00 1.722085e-01 1.288058e+00 -3.407526e+00 -4.388179e+00 -9.062757e+00 -8.034748e+00 8.996450e-01 -1.498363e+01 -1.746768e+00 -6.102762e+00 -3.410433e+00 6.407862e+01 -3.307807e-04 -1.286467e-02 -8.466686e-03 -1.251325e-02 -1.429819e-03 -4.048351e-03 9.364647e-03 9.399331e-04 -6.029258e-03 1.502953e-02 5.073745e-03 9.525245e-03 4.273118e-03 -1.285609e-03 6.105158e-04 1.547382e-03 7.014538e-04 1.067445e-03 2.353332e-03 -1.326824e-03 -2.125901e-03 1.511818e-03 9.027927e-04 2.014352e-03 1.365416e-03 -7.623010e-04
<VARIANCE> 39
 7.600829e+01 7.823137e+01 6.989275e+01 8.393480e+01 8.230748e+01 1.266357e+02 6.689957e+01 6.611915e+01 9.880408e+01 5.182151e+01 5.348435e+01 4.583462e+01 9.655841e+01 2.312428e+00 4.814250e+00 3.150398e+00 4.040381e+00 3.306482e+00 6.164404e+00 3.788713e+00 3.883446e+00 4.586832e+00 3.077710e+00 2.851554e+00 2.424972e+00 2.912428e+00 3.274149e-01 8.247354e-01 5.080509e-01 6.922771e-01 5.330770e-01 9.225215e-01 6.753688e-01 6.593632e-01 7.166054e-01 5.536419e-01 5.018328e-01 4.237701e-01 3.928848e-01
<GCONST> 1.366343e+02
<STATE> 4
<MEAN> 39
 -2.543491e+00 2.623996e-01 1.550291e+00 -3.168047e+00 -5.005009e+00 -8.923440e+00 -7.736175e+00 9.989233e-01 -1.509729e+01 -1.736749e+00 -6.090281e+00 -3.511533e+00 6.380191e+01 -2.886022e-03 -4.244511e-03 -1.723373e-04 -5.194582e-03 -2.748757e-03 9.209937e-03 -2.042991e-03 2.489304e-03 -1.917207e-03 1.220927e-02 7.443039e-03 9.675301e-03 -4.948793e-03 -7.798052e-04 7.587510e-04 7.169898e-04 1.107326e-03 7.286929e-04 1.922505e-03 -1.321320e-03 -6.430436e-04 1.719954e-03 7.030803e-04 8.798836e-04 1.150367e-03 -1.157074e-03
<VARIANCE> 39
 7.481651e+01 7.868792e+01 6.981437e+01 8.228312e+01 8.462041e+01 1.276827e+02 6.803444e+01 6.589404e+01 9.968212e+01 5.215915e+01 5.305024e+01 4.733124e+01 9.815522e+01 2.239160e+00 4.663584e+00 3.059272e+00 3.949407e+00 3.196809e+00 6.034332e+00 3.771535e+00 3.831309e+00 4.444757e+00 3.011049e+00 2.809376e+00 2.372534e+00 2.842715e+00 3.171786e-01 7.917290e-01 4.900283e-01 6.814301e-01 5.113806e-01 9.006049e-01 6.708656e-01 6.490646e-01 6.935374e-01 5.365359e-01 4.923973e-01 4.089335e-01 3.784172e-01
<GCONST> 1.360360e+02
<TRANSP> 5
 0.000000e+00 1.000000e+00 0.000000e+00 0.000000e+00 0.000000e+00
 0.000000e+00 7.397113e-01 2.602887e-01 0.000000e+00 0.000000e+00
 0.000000e+00 0.000000e+00 7.397110e-01 2.602890e-01 0.000000e+00
 0.000000e+00 0.000000e+00 0.000000e+00 8.702980e-01 1.297020e-01
 0.000000e+00 0.000000e+00 0.000000e+00 0.000000e+00 0.000000e+00
<ENDHMM>
~h "w"
<BEGINHMM>
<NUMSTATES> 5
<STATE> 2
<MEAN> 39
 -2.208057e+00 1.482814e+00 -4.747752e-01 -2.986600e+00 -1.075997e+01 -8.313528e+00 -7.419589e+00 9.825301e-01 -1.324604e+01 5.137770e-01 -4.584030e+00 -2.843218e+00 6.107772e+01 3.643901e-03 1.064942e-02 -4.022393e-02 4.582453e-02 1.263828e-01 1.607849e-03 -1.558993e-01 -4.868210e-02 9.664916e-02 5.336595e-02 5.131564e-02 -1.339999e-02 -1.170921e-02 -4.812296e-03 -4.482269e-03 -4.854350e-03 1.611120e-03 6.568333e-03 1.268525e-02 -6.485104e-04 1.656186e-03 6.982090e-03 6.514048e-04 6.747204e-03 4.797300e-03 -3.758031e-03
<VARIANCE> 39
 5.091499e+01 6.628349e+01 3.485683e+01 4.974445e+01 1.011727e+02 1.026613e+02 6.793427e+01 4.790388e+01 8.197157e+01 4.104474e+01 4.816034e+01 4.160144e+01 7.824352e+01 2.328536e+00 5.302988e+00 1.938169e+00 3.741127e+00 3.496767e+00 4.978008e+00 3.455694e+00 3.681664e+00 4.196123e+00 3.473954e+00 2.911376e+00 2.479358e+00 3.669968e+00 3.078180e-01 9.908322e-01 3.531980e-01 6.325916e-01 5.180294e-01 6.277956e-01 6.054676e-01 6.868278e-01 6.583424e-01 6.453849e-01 5.011600e-01 4.077354e-01 5.011134e-01
<GCONST> 1.327085e+02
<STATE> 3
<MEAN> 39
 -2.234381e+00 1.488946e+00 -6.436464e-01 -2.765713e+00 -1.029698e+01 -8.252331e+00 -7.972883e+00 7.998000e-01 -1.286760e+01 7.205741e-01 -4.375460e+00 -2.867386e+00 6.099537e+01 -1.164299e-02 -4.690669e-03 -5.683907e-02 5.113449e-02 1.482907e-01 4.444262e-02 -1.568448e-01 -4.492547e-02 1.188922e-01 5.493667e-02 7.361467e-02 3.768539e-03 -2.348482e-02 -5.705803e-03 -4.658648e-03 -4.448468e-03 1.706169e-03 6.012676e-03 1.379924e-02 1.475518e-03 1.742511e-03 5.663385e-03 9.125427e-05 6.351780e-03 5.748904e-03 -4.418348e-03
<VARIANCE> 39
 5.087033e+01 6.779125e+01 3.520278e+01 4.972058e+01 1.048384e+02 1.025341e+02 7.020421e+01 4.648711e+01 7.981439e+01 4.156330e+01 4.874693e+01 4.113195e+01 7.855286e+01 2.340055e+00 5.167582e+00 1.871963e+00 3.566077e+00 3.530119e+00 4.863033e+00 3.499581e+00 3.624998e+00 4.046434e+00 3.478307e+00 2.861473e+00 2.430691e+00 3.620712e+00 3.125334e-01 9.555289e-01 3.435038e-01 5.946662e-01 5.161735e-01 6.103547e-01 6.138476e-01 6.795451e-01 6.463112e-01 6.470250e-01 4.955103e-01 3.984062e-01 4.914344e-01
<GCONST> 1.323519e+02
<STATE> 4
<MEAN> 39
 -2.897507e+00 1.562781e+00 -6.022327e-01 -2.090827e+00 -1.040600e+01 -7.796336e+00 -8.142904e+00 5.384247e-01 -1.247215e+01 1.088700e+00 -3.971925e+00 -2.765315e+00 6.023356e+01 -2.839175e-02 -2.629696e-02 -7.133248e-02 6.536849e-02 1.511078e-01 8.261929e-02 -1.344389e-01 -4.524332e-02 1.265904e-01 5.379209e-02 8.485603e-02 2.492233e-02 -3.637611e-02 -4.084755e-03 -3.712245e-03 -3.295285e-03 1.253934e-03 3.981501e-03 1.024989e-02 2.846485e-03 8.887724e-04 3.024559e-03 -4.452390e-04 4.095017e-03 4.874489e-03 -3.030531e-03
<VARIANCE> 39
 5.109706e+01 6.854390e+01 3.543182e+01 4.956272e+01 1.037988e+02 1.017069e+02 6.798779e+01 4.578965e+01 7.903664e+01 4.019559e+01 4.711967e+01 4.199445e+01 8.105264e+01 2.210808e+00 5.015003e+00 1.716168e+00 3.262366e+00 3.483504e+00 4.442957e+00 3.297723e+00 3.333496e+00 3.784418e+00 3.248949e+00 2.718372e+00 2.418762e+00 3.531061e+00 2.956315e-01 9.189739e-01 3.113278e-01 5.376730e-01 5.035722e-01 5.581150e-01 5.715085e-01 6.191567e-01 6.053030e-01 6.044697e-01 4.723559e-01 3.943951e-01 4.792184e-01
<GCONST> 1.307651e+02
<TRANSP> 5
 0.000000e+00 1.000000e+00 0.000000e+00 0.000000e+00 0.000000e+00
 0.000000e+00 7.363888e-01 2.636111e-01 0.000000e+00 0.000000e+00
 0.000000e+00 0.000000e+00 7.363891e-01 2.636109e-01 0.000000e+00
 0.000000e+00 0.000000e+00 0.000000e+00 8.698828e-01 1.301173e-01
 0.000000e+00 0.000000e+00 0.000000e+00 0.000000e+00 0.000000e+00
<ENDHMM>
~h "eu"
<BEGINHMM>
<NUMSTATES> 5
<STATE> 2
<MEAN> 39
 -3.152211e+00 -1.117427e+00 2.000342e+00 -4.833677e+00 -2.101829e+00 -8.846305e+00 -7.651044e+00 -1.684609e+00 -1.439772e+01 -8.246739e-01 -4.528101e+00 -9.999453e-01 6.581447e+01 4.738114e-02 -1.122942e-02 -4.092145e-02 -1.752039e-02 -2.902993e-02 -1.698849e-02 -4.583737e-03 -2.445825e-04 1.152322e-03 1.561040e-02 1.977266e-02 2.747539e-03 2.746953e-02 -2.244577e-03 -1.526913e-04 2.760278e-04 3.109151e-03 -1.767103e-03 1.863948e-03 -1.091352e-03 1.814767e-03 3.475572e-03 4.691258e-04 -1.183436e-03 -7.261847e-04 -3.340270e-03
<VARIANCE> 39
 9.522560e+01 7.293718e+01 7.293974e+01 8.649463e+01 6.850294e+01 9.839586e+01 6.213466e+01 6.036662e+01 8.593612e+01 4.397306e+01 4.334941e+01 3.314844e+01 1.036060e+02 3.261873e+00 4.400570e+00 3.694579e+00 4.574878e+00 2.575997e+00 4.837789e+00 3.636241e+00 3.136397e+00 4.266509e+00 2.659539e+00 2.713420e+00 2.040627e+00 2.789454e+00 4.356958e-01 7.367969e-01 5.916449e-01 7.697623e-01 4.194140e-01 7.915957e-01 6.505024e-01 5.291535e-01 7.196327e-01 4.615982e-01 4.769621e-01 3.656890e-01 3.744746e-01
<GCONST> 1.341585e+02
<STATE> 3
<MEAN> 39
 -3.025685e+00 -1.179178e+00 1.878261e+00 -4.897614e+00 -2.198128e+00 -8.885736e+00 -7.658679e+00 -1.686265e+00 -1.436233e+01 -7.521767e-01 -4.454132e+00 -9.810820e-01 6.590312e+01 3.303687e-02 -1.275558e-02 -3.460412e-02 -9.253532e-03 -3.101298e-02 -1.232602e-02 -6.224137e-03 4.598457e-03 1.430298e-02 1.846206e-02 1.746894e-02 1.215640e-03 1.696008e-02 -4.788892e-03 -6.071972e-04 2.469861e-03 2.330509e-03 -1.277363e-04 1.305179e-03 -3.507449e-04 1.462756e-03 3.832978e-03 5.982321e-04 -8.040441e-04 -5.277860e-04 -2.938289e-03
<VARIANCE> 39
 9.373449e+01 7.219405e+01 7.267969e+01 8.633155e+01 6.777695e+01 9.799272e+01 6.309621e+01 6.005399e+01 8.522950e+01 4.384479e+01 4.324629e+01 3.287574e+01 1.029350e+02 3.255120e+00 4.388848e+00 3.683553e+00 4.576534e+00 2.592254e+00 4.813792e+00 3.611347e+00 3.130042e+00 4.241164e+00 2.666602e+00 2.712177e+00 2.046098e+00 2.791903e+00 4.341416e-01 7.376475e-01 5.901342e-01 7.703522e-01 4.254954e-01 7.861023e-01 6.432894e-01 5.282021e-01 7.169721e-01 4.637567e-01 4.781866e-01 3.667697e-01 3.723363e-01
<GCONST> 1.340699e+02
<STATE> 4
<MEAN> 39
 -3.076763e+00 -1.195296e+00 1.873814e+00 -4.742170e+00 -2.744590e+00 -8.759250e+00 -7.334119e+00 -1.628703e+00 -1.444726e+01 -6.999837e-01 -4.378511e+00 -1.079940e+00 6.571973e+01 1.975761e-03 -2.018806e-02 -1.420192e-02 -7.989019e-03 -1.836410e-02 -5.492704e-03 -4.788964e-03 2.463024e-04 2.573047e-02 2.591878e-02 1.648047e-02 3.256686e-03 8.519897e-03 -4.561017e-03 -5.057916e-04 2.659045e-03 1.421956e-03 1.104298e-03 5.911258e-04 -2.868501e-04 6.989000e-05 1.962955e-03 7.879240e-04 -5.327718e-04 -3.517702e-04 -2.107899e-03
<VARIANCE> 39
 9.326868e+01 7.356022e+01 7.156467e+01 8.490368e+01 6.680506e+01 9.944054e+01 6.442186e+01 6.161951e+01 8.753503e+01 4.468246e+01 4.351014e+01 3.314492e+01 1.031381e+02 3.084241e+00 4.286694e+00 3.519953e+00 4.449165e+00 2.556206e+00 4.768141e+00 3.556114e+00 3.132221e+00 4.213496e+00 2.676206e+00 2.661562e+00 2.047384e+00 2.724540e+00 4.063404e-01 7.155591e-01 5.627080e-01 7.476928e-01 4.185611e-01 7.769623e-01 6.294532e-01 5.264696e-01 7.069398e-01 4.658949e-01 4.669795e-01 3.660978e-01 3.545854e-01
<GCONST> 1.336141e+02
<TRANSP> 5
 0.000000e+00 1.000000e+00 0.000000e+00 0.000000e+00 0.000000e+00
 0.000000e+00 7.364134e-01 2.635866e-01 0.000000e+00 0.000000e+00
 0.000000e+00 0.000000e+00 7.364144e-01 2.635856e-01 0.000000e+00
 0.000000e+00 0.000000e+00 0.000000e+00 8.672859e-01 1.327141e-01
 0.000000e+00 0.000000e+00 0.000000e+00 0.000000e+00 0.000000e+00
<ENDHMM>
~h "ng"
<BEGINHMM>
<NUMSTATES> 5
<STATE> 2
<MEAN> 39
 -1.879025e+00 -4.416983e-01 1.166801e+00 -4.374978e+00 -5.048894e+00 -8.967102e+00 -6.820314e+00 -1.696952e+00 -1.551926e+01 -2.597935e-01 -4.439087e+00 -1.859270e+00 6.498450e+01 3.118960e-02 -4.398605e-02 1.372642e-03 -1.362827e-03 -3.455596e-02 -1.551197e-04 1.612086e-02 -2.805877e-02 -2.184225e-02 3.052470e-02 4.720250e-03 -3.474195e-02 4.129652e-02 2.883582e-05 -2.503292e-03 8.586035e-04 2.322151e-03 4.006287e-03 -6.557806e-03 -3.594363e-03 1.636725e-04 -2.039590e-03 5.877668e-04 -1.429382e-03 -1.696118e-03 2.025888e-03
<VARIANCE> 39
 5.879848e+01 7.352813e+01 6.412554e+01 7.798742e+01 7.126296e+01 1.111028e+02 5.511527e+01 5.761715e+01 7.945583e+01 4.240353e+01 4.423816e+01 4.108582e+01 1.005655e+02 2.864570e+00 5.638046e+00 4.031631e+00 5.552094e+00 2.938876e+00 6.204460e+00 4.081326e+00 3.186581e+00 4.908680e+00 2.968885e+00 2.965914e+00 2.315053e+00 3.810180e+00 4.569159e-01 1.022239e+00 7.229111e-01 1.002961e+00 4.853517e-01 9.712437e-01 7.434355e-01 5.529360e-01 8.553985e-01 5.480506e-01 5.422974e-01 4.141172e-01 5.212900e-01
<GCONST> 1.375210e+02
<STATE> 3
<MEAN> 39
 -1.747154e+00 -6.243048e-01 1.190499e+00 -4.354826e+00 -5.114711e+00 -9.054502e+00 -6.807225e+00 -1.803680e+00 -1.562014e+01 -1.411509e-01 -4.445187e+00 -1.993366e+00 6.517828e+01 3.000290e-02 -4.960456e-02 4.535363e-03 7.940944e-03 -1.972171e-02 -2.163772e-02 1.986069e-03 -2.686929e-02 -2.369157e-02 3.272595e-02 -2.702568e-05 -3.805240e-02 4.549108e-02 -6.253260e-04 -1.043925e-03 9.653942e-04 2.774273e-03 4.718080e-03 -5.478984e-03 -4.231371e-03 1.021820e-04 -1.598045e-04 4.636816e-04 -1.328665e-03 -5.600717e-04 7.000290e-04
<VARIANCE> 39
 5.737413e+01 7.418375e+01 6.486664e+01 7.719985e+01 7.129794e+01 1.117233e+02 5.529441e+01 5.814765e+01 7.901425e+01 4.183518e+01 4.425597e+01 4.181315e+01 9.884330e+01 2.942708e+00 5.810395e+00 4.095600e+00 5.655020e+00 2.983116e+00 6.284651e+00 4.103848e+00 3.242232e+00 5.021103e+00 3.007028e+00 2.987389e+00 2.373958e+00 3.932456e+00 4.672936e-01 1.055651e+00 7.348088e-01 1.029785e+00 4.929786e-01 9.740903e-01 7.431517e-01 5.647276e-01 8.725479e-01 5.569913e-01 5.482147e-01 4.263324e-01 5.360607e-01
<GCONST> 1.379883e+02
<STATE> 4
<MEAN> 39
 -1.636139e+00 -7.212504e-01 1.343513e+00 -4.089854e+00 -5.465493e+00 -9.162763e+00 -6.763954e+00 -2.051233e+00 -1.588136e+01 2.219322e-02 -4.521382e+00 -2.239187e+00 6.522029e+01 2.951805e-02 -4.052118e-02 8.669097e-03 1.482741e-02 1.607323e-04 -4.335422e-02 -2.034061e-02 -2.018254e-02 -1.847648e-02 2.960094e-02 -8.451396e-03 -3.438470e-02 4.441880e-02 -9.502688e-04 1.668349e-03 2.509795e-04 1.565061e-03 2.821130e-03 -1.722440e-03 -3.414555e-03 7.023746e-04 1.406230e-03 -3.336555e-04 -9.719466e-04 4.508870e-04 -1.566256e-03
<VARIANCE> 39
 5.549301e+01 7.468702e+01 6.391185e+01 7.628880e+01 7.194451e+01 1.152897e+02 5.702484e+01 6.092879e+01 8.014585e+01 4.190160e+01 4.492698e+01 4.315971e+01 9.699447e+01 2.878774e+00 5.872643e+00 3.912424e+00 5.704106e+00 3.008777e+00 6.394704e+00 4.136447e+00 3.311832e+00 5.097598e+00 3.030633e+00 2.987396e+00 2.480132e+00 4.000472e+00 4.515914e-01 1.062909e+00 6.971591e-01 1.043561e+00 5.013667e-01 9.821646e-01 7.418978e-01 5.726190e-01 8.735631e-01 5.596679e-01 5.452039e-01 4.435525e-01 5.389432e-01
<GCONST> 1.382032e+02
<TRANSP> 5
 0.000000e+00 1.000000e+00 0.000000e+00 0.000000e+00 0.000000e+00
 0.000000e+00 7.364693e-01 2.635307e-01 0.000000e+00 0.000000e+00
 0.000000e+00 0.000000e+00 7.364691e-01 2.635309e-01 0.000000e+00
 0.000000e+00 0.000000e+00 0.000000e+00 8.662213e-01 1.337787e-01
 0.000000e+00 0.000000e+00 0.000000e+00 0.000000e+00 0.000000e+00
<ENDHMM>
~h "wa"
<BEGINHMM>
<NUMSTATES> 5
<STATE> 2
<MEAN> 39
 1.510859e+00 1.610494e+00 1.004084e+00 -6.095542e+00 -4.165146e+00 -1.107812e+01 -8.079618e+00 6.049430e-01 -1.811410e+01 -4.246690e+00 -8.214592e+00 -3.636242e+00 6.687343e+01 -1.673563e-02 -1.566651e-02 1.119031e-02 -7.855627e-03 -2.189844e-03 1.610888e-02 -3.885124e-03 -1.093755e-02 7.913926e-03 -8.667888e-03 6.488959e-03 1.716171e-02 4.064397e-03 -2.304883e-03 -1.597597e-03 3.710136e-03 2.046046e-03 -5.363803e-04 -6.502846e-04 -1.621778e-04 1.715471e-03 8.428619e-04 1.605975e-03 5.574688e-04 -1.946443e-03 5.992532e-05
<VARIANCE> 39
 3.896361e+01 7.868667e+01 5.418315e+01 7.772095e+01 6.855556e+01 1.215486e+02 6.806882e+01 9.259364e+01 6.512548e+01 6.114319e+01 4.721266e+01 4.232033e+01 6.492700e+01 1.667236e+00 5.072409e+00 2.813515e+00 3.989797e+00 3.291533e+00 8.115939e+00 4.084969e+00 4.772377e+00 3.899685e+00 3.563134e+00 3.450002e+00 2.433072e+00 2.595305e+00 2.412577e-01 8.685421e-01 4.471435e-01 6.653033e-01 5.665483e-01 1.271915e+00 7.494825e-01 7.610854e-01 6.598058e-01 5.924209e-01 6.033520e-01 3.969405e-01 3.525580e-01
<GCONST> 1.353362e+02
<STATE> 3
<MEAN> 39
 1.453701e+00 1.547307e+00 1.047087e+00 -6.142853e+00 -4.196283e+00 -1.103218e+01 -8.078357e+00 6.282000e-01 -1.809724e+01 -4.263276e+00 -8.168065e+00 -3.589915e+00 6.689610e+01 -2.638047e-02 -2.319104e-02 2.315062e-02 -7.496060e-04 -5.769209e-03 1.324590e-02 -2.982212e-03 -4.753608e-03 1.231448e-02 -9.024870e-05 9.997085e-03 1.105407e-02 3.691346e-03 -2.531863e-03 -2.187638e-03 3.231341e-03 2.206470e-03 -9.959344e-04 -7.540337e-04 6.133416e-04 1.910848e-03 8.976982e-04 2.400969e-03 9.346370e-04 -1.687564e-03 -7.365872e-05
<VARIANCE> 39
 4.045231e+01 7.826025e+01 5.502106e+01 7.707158e+01 7.073517e+01 1.231665e+02 6.953429e+01 9.440582e+01 6.734766e+01 6.141539e+01 4.762651e+01 4.218652e+01 6.340671e+01 1.710875e+00 5.033035e+00 2.849823e+00 3.971020e+00 3.309116e+00 8.293663e+00 4.189627e+00 4.877274e+00 4.059606e+00 3.557721e+00 3.433160e+00 2.428095e+00 2.596784e+00 2.470245e-01 8.667530e-01 4.520325e-01 6.630677e-01 5.653756e-01 1.296538e+00 7.711406e-01 7.773729e-01 6.889687e-01 5.931578e-01 6.021168e-01 3.987743e-01 3.551435e-01
<GCONST> 1.357629e+02
<STATE> 4
<MEAN> 39
 1.213239e+00 1.444557e+00 1.542708e+00 -5.756866e+00 -4.832726e+00 -1.096077e+01 -7.738632e+00 7.569973e-01 -1.827823e+01 -4.207061e+00 -8.009456e+00 -3.841895e+00 6.678157e+01 -3.249898e-02 -3.303034e-02 2.493969e-02 -3.122409e-03 -1.897918e-02 5.916412e-03 7.249286e-03 1.479588e-02 1.500015e-02 1.745158e-02 2.096789e-02 5.284111e-03 4.481663e-03 -2.307074e-03 -2.272866e-03 1.911046e-03 1.863456e-03 -1.232570e-03 -5.279813e-04 1.200296e-03 1.153640e-03 1.092530e-03 2.782514e-03 9.576729e-04 -8.652158e-04 -3.250817e-04
<VARIANCE> 39
 4.420564e+01 7.697320e+01 5.627169e+01 7.549650e+01 7.256194e+01 1.209751e+02 7.381088e+01 1.002350e+02 7.299429e+01 6.327738e+01 4.889971e+01 4.314802e+01 6.273626e+01 1.735581e+00 4.770933e+00 2.883816e+00 3.790359e+00 3.208276e+00 8.089190e+00 4.303507e+00 4.862467e+00 4.272571e+00 3.626974e+00 3.331224e+00 2.446245e+00 2.507542e+00 2.458763e-01 8.127856e-01 4.523419e-01 6.306548e-01 5.324535e-01 1.269269e+00 7.901151e-01 7.626189e-01 7.153368e-01 6.054165e-01 5.838131e-01 4.044469e-01 3.369951e-01
<GCONST> 1.358137e+02
<TRANSP> 5
 0.000000e+00 1.000000e+00 0.000000e+00 0.000000e+00 0.000000e+00
 0.000000e+00 7.398784e-01 2.601216e-01 0.000000e+00 0.000000e+00
 0.000000e+00 0.000000e+00 7.398787e-01 2.601214e-01 0.000000e+00
 0.000000e+00 0.000000e+00 0.000000e+00 8.702525e-01 1.297475e-01
 0.000000e+00 0.000000e+00 0.000000e+00 0.000000e+00 0.000000e+00
<ENDHMM>
~h "sil"
<BEGINHMM>
<NUMSTATES> 5
<STATE> 2
<MEAN> 39
 -1.324306e+01 3.877155e+00 -2.813791e+00 3.738762e+00 -5.896599e+00 2.034425e+00 -8.092351e+00 1.964712e-01 -5.244444e+00 1.428634e+00 -4.434735e-02 7.106968e-01 4.970289e+01 -9.271918e-02 -6.581410e-02 3.519318e-02 -1.159646e-01 -2.166284e-02 6.875621e-03 3.320697e-02 1.291872e-02 -6.471607e-02 -9.422775e-02 -5.866654e-02 6.549712e-02 6.344852e-03 5.041929e-03 -1.180766e-02 4.593223e-02 3.608383e-02 4.695487e-02 -3.481027e-02 -1.403288e-02 -5.564332e-04 -2.896415e-02 2.185507e-03 -2.650024e-02 -2.704784e-02 2.334336e-02
<VARIANCE> 39
 1.389221e+01 2.398287e+01 3.043962e+01 2.707800e+01 2.694413e+01 2.700249e+01 3.574511e+01 1.746803e+01 2.136550e+01 1.389249e+01 1.851725e+01 1.507325e+01 3.359613e+01 5.822271e-01 1.065433e+00 1.301095e+00 1.336758e+00 1.271182e+00 1.578547e+00 1.469549e+00 1.236033e+00 1.461549e+00 1.203263e+00 1.233823e+00 1.149915e+00 5.099285e-01 8.705089e-02 1.964776e-01 2.297146e-01 2.385984e-01 2.607701e-01 2.553435e-01 2.809678e-01 2.171827e-01 2.439149e-01 2.089605e-01 2.202833e-01 2.137213e-01 7.343985e-02
<GCONST> 9.255416e+01
<STATE> 3
<MEAN> 39
 -1.339773e+01 3.616455e+00 -2.370472e+00 3.577831e+00 -5.675325e+00 1.783106e+00 -8.233518e+00 1.875767e-01 -5.560318e+00 1.137145e+00 -3.275317e-01 7.461271e-01 4.995749e+01 -1.103703e-02 -6.424059e-02 1.529803e-01 -4.785666e-02 7.136860e-02 -1.037859e-01 -5.098430e-02 -4.513447e-03 -1.079281e-01 -7.796254e-02 -8.252809e-02 -4.926041e-03 1.036919e-01 2.443389e-02 4.310288e-03 2.871177e-02 5.678024e-03 1.104194e-02 -2.725616e-02 -2.860348e-02 -1.317771e-02 -6.496623e-03 3.410707e-03 -7.315694e-03 -1.699993e-02 2.642132e-02
<VARIANCE> 39
 1.802814e+01 2.958706e+01 3.474448e+01 3.389501e+01 3.051861e+01 3.557157e+01 3.540359e+01 1.968906e+01 2.694977e+01 1.576930e+01 1.675841e+01 1.457493e+01 4.099285e+01 1.069763e+00 1.686875e+00 2.161250e+00 1.934446e+00 1.458868e+00 1.860433e+00 1.948625e+00 1.366170e+00 1.858031e+00 1.235793e+00 1.339719e+00 1.282916e+00 8.506382e-01 1.481697e-01 3.004248e-01 3.578160e-01 3.858703e-01 3.061351e-01 3.452959e-01 3.988927e-01 2.721386e-01 3.450961e-01 2.417418e-01 2.504021e-01 2.636410e-01 1.214155e-01
<GCONST> 1.021679e+02
<STATE> 4
<MEAN> 39
 -1.312398e+01 3.549166e+00 -1.957872e+00 3.319271e+00 -5.555343e+00 1.271472e+00 -8.538500e+00 2.526514e-01 -5.746922e+00 9.370154e-01 -4.747523e-01 6.999218e-01 5.046358e+01 6.531069e-02 -3.640386e-02 9.277759e-02 -9.365708e-02 3.243988e-02 -1.309532e-01 -5.933758e-02 -1.298370e-02 -8.000194e-02 -5.512759e-02 -8.450191e-02 -2.549959e-02 1.392011e-01 1.311248e-02 3.865713e-03 -1.447656e-02 -8.771937e-03 -1.125784e-02 -9.832937e-03 -1.267279e-02 -1.204705e-02 -2.605839e-04 1.180757e-04 -1.217703e-02 -6.308601e-03 5.910515e-03
<VARIANCE> 39
 2.503931e+01 3.343037e+01 3.591611e+01 4.039205e+01 3.327722e+01 4.399912e+01 3.285970e+01 2.164749e+01 3.125655e+01 1.711151e+01 1.736870e+01 1.491593e+01 5.530238e+01 1.091262e+00 1.714210e+00 2.205223e+00 2.060789e+00 1.376249e+00 2.017718e+00 2.102335e+00 1.442712e+00 1.928893e+00 1.250760e+00 1.353845e+00 1.292208e+00 8.793812e-01 1.491915e-01 3.018714e-01 3.637319e-01 3.893377e-01 2.571151e-01 3.600053e-01 4.181478e-01 2.714834e-01 3.629360e-01 2.348495e-01 2.552889e-01 2.503350e-01 1.229154e-01
<GCONST> 1.040581e+02
<TRANSP> 5
 0.000000e+00 1.000000e+00 0.000000e+00 0.000000e+00 0.000000e+00
 0.000000e+00 7.401766e-01 2.598234e-01 0.000000e+00 0.000000e+00
 0.000000e+00 0.000000e+00 7.401763e-01 2.598238e-01 0.000000e+00
 0.000000e+00 0.000000e+00 0.000000e+00 8.706667e-01 1.293333e-01
 0.000000e+00 0.000000e+00 0.000000e+00 0.000000e+00 0.000000e+00
<ENDHMM>
