~o
<STREAMINFO> 1 39
<VECSIZE> 39<NULLD><MFCC_D_A_0><DIAGC>
~h "a"
<BEGINHMM>
<NUMSTATES> 5
<STATE> 2
<MEAN> 39
 -4.122261e+00 5.432156e-01 1.275328e+00 -5.671961e+00 -3.972780e+00 -5.780659e+00 -9.926752e+00 -3.931122e-01 -1.055720e+01 -1.338053e+00 -3.625814e+00 -7.104040e-01 6.323967e+01 1.424646e-03 1.898452e-02 -2.549215e-03 1.172904e-02 -2.168025e-03 1.650847e-02 -7.564668e-03 1.074600e-02 5.030950e-03 -1.399635e-03 -6.826232e-03 9.460894e-04 -2.340594e-02 5.216195e-05 1.355949e-04 -1.474480e-04 -2.593558e-04 -3.552740e-04 1.717955e-03 1.486668e-04 1.030954e-04 3.584425e-04 -2.769192e-04 2.541019e-04 6.028468e-04 -4.014526e-04
<VARIANCE> 39
 8.962003e+01 6.762283e+01 7.445005e+01 1.120730e+02 7.741988e+01 9.961861e+01 7.945374e+01 5.868081e+01 7.866904e+01 4.763655e+01 4.511896e+01 3.412434e+01 1.181657e+02 3.016376e+00 3.793483e+00 3.208907e+00 4.291021e+00 2.740642e+00 4.245198e+00 4.110100e+00 3.324971e+00 3.682500e+00 2.776389e+00 2.500830e+00 1.995596e+00 2.624439e+00 4.094296e-01 6.174321e-01 5.093657e-01 7.460243e-01 4.637818e-01 6.794435e-01 7.310168e-01 5.897185e-01 6.227863e-01 4.983232e-01 4.548596e-01 3.658031e-01 3.545192e-01
<GCONST> 1.338405e+02
<STATE> 3
<MEAN> 39
 -4.116709e+00 6.057436e-01 1.260827e+00 -5.632919e+00 -3.982974e+00 -5.708952e+00 -9.955513e+00 -3.522017e-01 -1.053469e+01 -1.341038e+00 -3.646962e+00 -7.015467e-01 6.315463e+01 3.448161e-03 1.832985e-02 -4.015197e-03 1.031007e-02 -3.562700e-03 2.077923e-02 -7.214764e-03 1.078971e-02 5.058082e-03 -2.476081e-03 -6.146193e-03 2.714009e-03 -2.272074e-02 6.279044e-04 -3.360558e-04 -3.880973e-04 -3.070337e-04 -3.833289e-04 1.143513e-03 -1.243194e-04 -1.431801e-04 4.652034e-05 -2.664506e-04 1.516492e-04 4.370064e-04 2.774669e-04
<VARIANCE> 39
 8.918659e+01 6.765022e+01 7.418638e+01 1.119332e+02 7.736960e+01 9.872052e+01 7.923540e+01 5.893684e+01 7.831380e+01 4.758040e+01 4.500257e+01 3.401133e+01 1.182584e+02 3.001260e+00 3.785341e+00 3.199878e+00 4.294705e+00 2.752630e+00 4.226231e+00 4.097274e+00 3.340648e+00 3.660679e+00 2.774980e+00 2.504242e+00 1.995647e+00 2.617486e+00 4.081134e-01 6.155726e-01 5.089800e-01 7.462982e-01 4.661391e-01 6.786458e-01 7.293211e-01 5.925336e-01 6.190606e-01 4.977325e-01 4.556963e-01 3.657008e-01 3.535075e-01
<GCONST> 1.337882e+02
<STATE> 4
<MEAN> 39
 -4.245170e+00 6.652173e-01 1.252050e+00 -5.232417e+00 -4.170086e+00 -5.565857e+00 -9.831592e+00 -2.672815e-01 -1.063979e+01 -1.221299e+00 -3.747735e+00 -7.257334e-01 6.277047e+01 8.899060e-03 1.528326e-02 -9.063357e-03 9.316876e-03 -6.349518e-03 2.016776e-02 -6.274066e-03 1.091160e-02 1.646905e-03 -3.819098e-03 -5.576354e-03 3.494181e-03 -1.906279e-02 9.169509e-04 -3.424791e-04 -6.256314e-04 1.074192e-04 -5.139170e-04 9.607178e-05 -2.236496e-04 -9.939242e-05 -5.532181e-04 -3.096571e-04 8.254695e-05 1.218643e-04 4.038464e-04
<VARIANCE> 39
 8.730689e+01 6.882854e+01 7.323582e+01 1.110558e+02 7.661050e+01 9.903662e+01 8.009561e+01 5.868485e+01 7.819685e+01 4.661139e+01 4.459974e+01 3.432246e+01 1.195863e+02 2.843280e+00 3.756025e+00 3.106599e+00 4.194918e+00 2.737669e+00 4.170250e+00 4.002357e+00 3.290944e+00 3.573420e+00 2.717427e+00 2.482891e+00 1.986876e+00 2.566172e+00 3.855996e-01 6.105891e-01 4.944200e-01 7.258651e-01 4.609292e-01 6.694887e-01 7.082344e-01 5.823177e-01 6.032903e-01 4.877961e-01 4.511059e-01 3.621764e-01 3.434361e-01
<GCONST> 1.332145e+02
<TRANSP> 5
 0.000000e+00 1.000000e+00 0.000000e+00 0.000000e+00 0.000000e+00
 0.000000e+00 7.320410e-01 2.679590e-01 0.000000e+00 0.000000e+00
 0.000000e+00 0.000000e+00 7.320408e-01 2.679592e-01 0.000000e+00
 0.000000e+00 0.000000e+00 0.000000e+00 8.597547e-01 1.402453e-01
 0.000000e+00 0.000000e+00 0.000000e+00 0.000000e+00 0.000000e+00
<ENDHMM>
~h "b"
<BEGINHMM>
<NUMSTATES> 5
<STATE> 2
<MEAN> 39
 -4.331289e+00 2.646487e-01 2.083491e+00 -6.770233e+00 -1.918918e+00 -5.669492e+00 -9.512260e+00 -8.425245e-01 -1.086347e+01 -1.464188e+00 -3.162101e+00 -1.057648e-03 6.457097e+01 6.182167e-02 -3.103678e-02 -2.377177e-03 -6.521038e-02 -2.211360e-02 -5.044223e-02 7.898270e-03 1.846576e-02 -3.368035e-02 1.993704e-04 -1.093379e-02 -1.301196e-02 7.509199e-02 4.806308e-04 2.638946e-04 -5.922618e-04 1.535793e-03 -1.409727e-03 -1.512599e-03 -1.484557e-04 4.586854e-04 -2.490164e-03 -8.278296e-04 -5.003265e-04 -7.839907e-04 -4.995921e-04
<VARIANCE> 39
 1.054305e+02 6.501830e+01 7.623026e+01 1.226146e+02 7.059602e+01 9.171947e+01 8.259644e+01 5.613412e+01 8.922457e+01 4.767797e+01 4.546073e+01 3.512266e+01 1.136834e+02 3.381537e+00 3.622640e+00 3.412281e+00 4.461804e+00 2.975024e+00 4.151669e+00 4.276236e+00 3.080075e+00 4.092009e+00 2.780654e+00 2.501267e+00 2.014916e+00 2.564992e+00 4.154332e-01 5.799298e-01 5.271751e-01 6.970608e-01 4.960769e-01 6.796560e-01 7.416531e-01 5.469419e-01 6.736630e-01 4.857940e-01 4.425195e-01 3.667034e-01 3.292882e-01
<GCONST> 1.341861e+02
<STATE> 3
<MEAN> 39
 -4.080163e+00 1.586724e-01 2.067198e+00 -6.986810e+00 -2.012461e+00 -5.886972e+00 -9.471377e+00 -7.659843e-01 -1.103056e+01 -1.474450e+00 -3.204725e+00 -6.162468e-02 6.485180e+01 6.121208e-02 -2.617630e-02 -3.800081e-03 -5.290856e-02 -2.923565e-02 -5.348612e-02 7.309171e-03 2.051679e-02 -4.136838e-02 -2.929630e-03 -1.187214e-02 -1.743576e-02 6.655655e-02 -1.239162e-04 1.536508e-03 -5.647818e-04 3.854880e-03 -1.765660e-03 -5.559819e-04 -4.598197e-04 6.634488e-04 -2.299195e-03 -8.025339e-04 -1.745544e-04 -1.019444e-03 -2.713091e-03
<VARIANCE> 39
 1.043554e+02 6.559077e+01 7.740134e+01 1.227947e+02 7.103873e+01 9.367051e+01 8.390965e+01 5.667006e+01 8.976900e+01 4.747459e+01 4.551363e+01 3.642280e+01 1.115594e+02 3.389962e+00 3.662374e+00 3.389369e+00 4.453671e+00 2.997544e+00 4.185177e+00 4.286366e+00 3.102658e+00 4.145962e+00 2.777709e+00 2.539686e+00 2.036590e+00 2.574503e+00 4.135318e-01 5.911087e-01 5.203984e-01 6.958450e-01 4.996537e-01 6.827523e-01 7.379814e-01 5.512440e-01 6.833441e-01 4.873189e-01 4.487673e-01 3.689675e-01 3.320086e-01
<GCONST> 1.344063e+02
<STATE> 4
<MEAN> 39
 -3.791478e+00 3.876840e-03 2.092740e+00 -6.893069e+00 -2.373365e+00 -6.379093e+00 -9.078218e+00 -4.735648e-01 -1.170070e+01 -1.378196e+00 -3.405441e+00 -3.103394e-01 6.501144e+01 5.194666e-02 -8.944353e-03 -3.374819e-04 -1.972974e-02 -3.731935e-02 -5.304823e-02 5.813717e-03 2.101777e-02 -4.854063e-02 -4.076090e-03 -1.194081e-02 -2.670339e-02 3.939859e-02 -2.290773e-03 2.707711e-03 5.450165e-04 5.624420e-03 -1.011707e-03 1.236810e-03 -1.027063e-03 1.877499e-05 -5.565518e-04 -4.035778e-05 -1.060435e-05 -1.031978e-03 -5.204986e-03
<VARIANCE> 39
 1.009206e+02 6.747132e+01 7.883881e+01 1.201321e+02 7.122978e+01 1.011125e+02 8.717087e+01 5.830291e+01 9.408024e+01 4.716867e+01 4.544289e+01 3.798144e+01 1.099425e+02 3.224168e+00 3.688609e+00 3.308072e+00 4.340898e+00 2.947477e+00 4.273175e+00 4.214457e+00 3.139570e+00 4.218219e+00 2.739091e+00 2.556596e+00 2.042873e+00 2.546444e+00 3.917554e-01 5.981417e-01 5.034215e-01 6.778609e-01 4.868554e-01 6.855086e-01 7.130324e-01 5.553446e-01 6.911556e-01 4.830807e-01 4.509714e-01 3.679831e-01 3.267203e-01
<GCONST> 1.343557e+02
<TRANSP> 5
 0.000000e+00 1.000000e+00 0.000000e+00 0.000000e+00 0.000000e+00
 0.000000e+00 7.310435e-01 2.689565e-01 0.000000e+00 0.000000e+00
 0.000000e+00 0.000000e+00 7.310445e-01 2.689556e-01 0.000000e+00
 0.000000e+00 0.000000e+00 0.000000e+00 8.590601e-01 1.409399e-01
 0.000000e+00 0.000000e+00 0.000000e+00 0.000000e+00 0.000000e+00
<ENDHMM>
~h "c"
<BEGINHMM>
<NUMSTATES> 5
<STATE> 2
<MEAN> 39
 -1.821302e+00 -1.812640e+00 -3.688738e-01 -4.508539e+00 -4.234191e+00 -5.731866e+00 -1.130626e+01 -1.470063e+00 -9.827660e+00 8.833859e-01 -3.290601e+00 -4.707049e-01 6.449713e+01 -7.400128e-02 6.421878e-02 -1.645255e-02 1.304503e-01 -5.382020e-03 4.145053e-02 1.575901e-02 4.588880e-03 4.341072e-02 2.616363e-02 7.295972e-03 -4.399563e-02 -1.253514e-01 -2.886716e-03 -1.126994e-03 4.486074e-04 1.234743e-03 3.244304e-03 -2.280798e-03 1.148703e-04 -1.207219e-03 2.015781e-04 1.080620e-04 -9.803553e-04 -2.233143e-04 -4.898304e-04
<VARIANCE> 39
 6.312487e+01 7.781964e+01 5.053764e+01 7.767669e+01 8.905999e+01 1.116671e+02 8.057518e+01 6.303593e+01 1.112412e+02 5.132056e+01 2.987009e+01 3.342697e+01 8.138662e+01 2.505791e+00 4.523152e+00 2.269155e+00 4.357572e+00 3.019692e+00 4.627908e+00 3.690986e+00 3.095817e+00 4.566884e+00 3.343043e+00 2.529953e+00 2.549498e+00 3.221774e+00 3.237931e-01 7.253492e-01 4.080508e-01 7.467682e-01 4.709941e-01 7.619793e-01 6.075165e-01 4.789491e-01 7.058154e-01 5.439111e-01 4.839954e-01 4.760779e-01 4.441502e-01
<GCONST> 1.335638e+02
<STATE> 3
<MEAN> 39
 -2.063155e+00 -1.574417e+00 -4.654100e-01 -4.045386e+00 -4.270299e+00 -5.568047e+00 -1.122749e+01 -1.439970e+00 -9.681056e+00 9.776207e-01 -3.260200e+00 -6.106606e-01 6.404021e+01 -8.345088e-02 6.272878e-02 -1.466767e-02 1.335654e-01 3.250081e-03 3.595309e-02 1.772563e-02 2.742366e-03 4.344537e-02 2.479925e-02 4.911342e-03 -4.396506e-02 -1.285300e-01 -1.411521e-03 -1.287939e-03 -1.044207e-04 -1.544232e-04 1.939354e-03 -2.642427e-03 -3.598888e-04 -1.924776e-04 -6.467390e-04 -2.385906e-04 -5.255538e-04 5.731979e-04 1.403426e-04
<VARIANCE> 39
 6.319303e+01 7.614654e+01 4.691309e+01 7.469402e+01 8.635075e+01 1.119168e+02 7.630781e+01 6.227454e+01 1.033045e+02 5.088281e+01 2.996528e+01 3.220937e+01 8.455821e+01 2.445485e+00 4.289910e+00 2.198929e+00 4.138841e+00 2.974328e+00 4.519740e+00 3.531747e+00 3.008047e+00 4.271830e+00 3.306365e+00 2.519517e+00 2.481586e+00 3.123115e+00 3.159371e-01 6.820961e-01 3.989895e-01 7.095372e-01 4.648304e-01 7.320846e-01 5.816305e-01 4.670416e-01 6.685504e-01 5.376663e-01 4.828110e-01 4.634876e-01 4.272425e-01
<GCONST> 1.324287e+02
<STATE> 4
<MEAN> 39
 -2.351963e+00 -1.599198e+00 -6.036406e-01 -3.251040e+00 -4.446297e+00 -5.625310e+00 -1.117305e+01 -1.295288e+00 -9.941491e+00 9.114711e-01 -3.169766e+00 -7.893796e-01 6.353514e+01 -7.827269e-02 6.532796e-02 -2.359237e-02 1.247475e-01 7.645546e-04 3.646132e-02 2.501569e-02 1.140591e-02 3.910161e-02 1.981953e-02 6.992170e-03 -3.613986e-02 -1.290495e-01 -3.181259e-04 -8.388983e-04 -3.788006e-04 -1.527230e-03 3.935676e-04 -2.214334e-03 -4.677442e-04 1.269431e-03 -1.185350e-03 -7.187070e-04 2.109444e-04 1.114553e-03 2.345763e-04
<VARIANCE> 39
 6.232388e+01 7.632629e+01 4.401013e+01 7.022951e+01 8.032350e+01 1.098616e+02 6.957115e+01 6.152258e+01 9.484272e+01 5.339097e+01 3.023223e+01 3.104730e+01 8.859161e+01 2.353084e+00 4.105023e+00 2.203435e+00 3.937339e+00 2.916068e+00 4.355110e+00 3.331022e+00 3.004718e+00 3.916753e+00 3.365867e+00 2.486251e+00 2.384333e+00 3.020987e+00 3.073897e-01 6.434709e-01 4.039670e-01 6.791969e-01 4.607043e-01 6.949568e-01 5.496938e-01 4.674401e-01 6.264235e-01 5.415224e-01 4.719855e-01 4.438789e-01 4.056617e-01
<GCONST> 1.312659e+02
<TRANSP> 5
 0.000000e+00 1.000000e+00 0.000000e+00 0.000000e+00 0.000000e+00
 0.000000e+00 7.226703e-01 2.773297e-01 0.000000e+00 0.000000e+00
 0.000000e+00 0.000000e+00 7.226704e-01 2.773295e-01 0.000000e+00
 0.000000e+00 0.000000e+00 0.000000e+00 8.463532e-01 1.536468e-01
 0.000000e+00 0.000000e+00 0.000000e+00 0.000000e+00 0.000000e+00
<ENDHMM>
~h "d"
<BEGINHMM>
<NUMSTATES> 5
<STATE> 2
<MEAN> 39
 4.744160e-01 2.158314e+00 3.663729e+00 -8.550942e+00 -2.355756e+00 -8.096388e+00 -1.282722e+01 1.396515e+00 -1.483030e+01 -4.959054e+00 -6.410923e+00 -2.754613e+00 6.716868e+01 5.083558e-02 -1.344432e-02 -4.740231e-02 -4.139541e-02 -1.560260e-02 2.188828e-02 1.627836e-03 2.557628e-02 -2.641161e-02 -1.939636e-02 1.382644e-02 3.911693e-02 1.889605e-02 -1.805217e-03 -2.793384e-04 -4.821474e-04 1.413354e-03 6.631196e-04 4.680818e-04 -4.604977e-04 -2.010100e-03 1.748795e-03 1.168334e-03 4.165027e-04 1.436742e-03 -1.155040e-03
<VARIANCE> 39
 4.937342e+01 7.766364e+01 6.392972e+01 1.123238e+02 7.240195e+01 1.029760e+02 9.505716e+01 8.030525e+01 6.824165e+01 6.140913e+01 6.190680e+01 4.275660e+01 7.075215e+01 2.108447e+00 5.011531e+00 3.439017e+00 5.326780e+00 3.364757e+00 5.911333e+00 5.164762e+00 4.089261e+00 3.942626e+00 3.811072e+00 3.650177e+00 2.572771e+00 2.839489e+00 3.170997e-01 8.268502e-01 5.618793e-01 8.615890e-01 5.814293e-01 9.771584e-01 9.530919e-01 6.873372e-01 6.965876e-01 6.562999e-01 6.710515e-01 4.562532e-01 3.828980e-01
<GCONST> 1.384666e+02
<STATE> 3
<MEAN> 39
 6.693146e-01 2.124717e+00 3.497006e+00 -8.686119e+00 -2.387671e+00 -8.021363e+00 -1.282845e+01 1.482269e+00 -1.494198e+01 -5.042719e+00 -6.374975e+00 -2.608662e+00 6.724302e+01 4.438915e-02 -1.316285e-02 -4.872837e-02 -3.715345e-02 -1.393826e-02 2.286403e-02 5.284648e-04 1.973545e-02 -2.026139e-02 -1.673128e-02 1.509727e-02 4.291648e-02 1.481037e-02 -2.010057e-03 4.132965e-04 -2.126233e-05 1.507305e-03 4.717378e-04 2.053928e-04 -5.032599e-04 -1.813515e-03 1.724687e-03 6.163544e-04 1.827495e-04 7.522631e-04 -1.385109e-03
<VARIANCE> 39
 4.710932e+01 7.731509e+01 6.326170e+01 1.112752e+02 7.281697e+01 1.024670e+02 9.637805e+01 7.930666e+01 6.854185e+01 6.215342e+01 6.199491e+01 4.202557e+01 6.888393e+01 2.043254e+00 5.051427e+00 3.371604e+00 5.325764e+00 3.398077e+00 5.982414e+00 5.177979e+00 4.100592e+00 3.909443e+00 3.831346e+00 3.670498e+00 2.561676e+00 2.844906e+00 3.061379e-01 8.381649e-01 5.496569e-01 8.587731e-01 5.896232e-01 9.899118e-01 9.523234e-01 6.883594e-01 6.892352e-01 6.567960e-01 6.750237e-01 4.548415e-01 3.841685e-01
<GCONST> 1.383319e+02
<STATE> 4
<MEAN> 39
 7.601566e-01 2.068174e+00 3.432091e+00 -8.468545e+00 -2.568247e+00 -7.992918e+00 -1.269687e+01 1.324913e+00 -1.527755e+01 -5.077458e+00 -6.572723e+00 -2.511735e+00 6.717387e+01 3.858767e-02 -6.654263e-03 -4.520433e-02 -3.260609e-02 -9.888088e-03 1.754865e-02 1.331979e-03 1.802632e-02 -1.949977e-02 -1.997386e-02 1.329735e-02 3.955833e-02 1.306243e-02 -2.090950e-03 4.864896e-04 2.264616e-04 8.882497e-04 -1.299218e-04 -3.521591e-04 8.976326e-06 -1.219984e-03 1.444304e-03 2.850535e-04 3.268822e-04 -1.163084e-04 -1.137207e-03
<VARIANCE> 39
 4.426428e+01 7.708341e+01 6.202230e+01 1.125249e+02 7.424281e+01 1.022183e+02 1.015888e+02 8.061220e+01 6.893459e+01 6.389101e+01 6.089501e+01 4.173274e+01 6.779147e+01 1.925223e+00 5.021420e+00 3.306470e+00 5.182455e+00 3.437923e+00 6.028616e+00 5.182926e+00 4.120051e+00 3.820152e+00 3.877388e+00 3.623662e+00 2.512499e+00 2.814960e+00 2.867449e-01 8.372074e-01 5.316368e-01 8.307758e-01 5.931473e-01 9.908781e-01 9.431024e-01 6.874049e-01 6.726642e-01 6.609109e-01 6.645401e-01 4.443770e-01 3.790650e-01
<GCONST> 1.379875e+02
<TRANSP> 5
 0.000000e+00 1.000000e+00 0.000000e+00 0.000000e+00 0.000000e+00
 0.000000e+00 7.355255e-01 2.644745e-01 0.000000e+00 0.000000e+00
 0.000000e+00 0.000000e+00 7.355261e-01 2.644739e-01 0.000000e+00
 0.000000e+00 0.000000e+00 0.000000e+00 8.630082e-01 1.369918e-01
 0.000000e+00 0.000000e+00 0.000000e+00 0.000000e+00 0.000000e+00
<ENDHMM>
~h "e"
<BEGINHMM>
<NUMSTATES> 5
<STATE> 2
<MEAN> 39
 -9.358755e+00 3.499536e+00 -2.673790e+00 2.099440e+00 -6.995998e+00 -7.759501e-01 -1.016925e+01 1.097837e+00 -6.053078e+00 1.843634e+00 -1.843750e+00 -3.562010e-01 5.231222e+01 -1.068489e-01 4.869318e-02 8.463901e-04 6.670722e-02 -2.673352e-02 5.800681e-02 1.345762e-03 1.532983e-02 2.987408e-02 1.064643e-02 1.922437e-02 1.532522e-02 -1.390146e-01 2.420549e-03 -1.589765e-03 -1.938556e-03 -1.592998e-03 1.309773e-03 -1.908019e-03 -2.328822e-03 -1.352131e-03 -2.635552e-04 7.314351e-04 3.593911e-04 9.352830e-05 2.683445e-03
<VARIANCE> 39
 4.552668e+01 2.815803e+01 1.550414e+01 3.688655e+01 3.972851e+01 5.640993e+01 3.538221e+01 3.127251e+01 2.896856e+01 2.240034e+01 1.914738e+01 1.732760e+01 7.548718e+01 8.130856e-01 1.027809e+00 8.092208e-01 1.135183e+00 1.381350e+00 2.025499e+00 1.518985e+00 1.423363e+00 1.559604e+00 1.351066e+00 1.303105e+00 1.219667e+00 9.369274e-01 1.138698e-01 1.547385e-01 1.555843e-01 1.996564e-01 2.447371e-01 3.302939e-01 2.661341e-01 2.652802e-01 2.953011e-01 2.472145e-01 2.512535e-01 2.345881e-01 1.054978e-01
<GCONST> 9.881469e+01
<STATE> 3
<MEAN> 39
 -9.738879e+00 3.680075e+00 -2.678534e+00 2.332215e+00 -7.090632e+00 -5.616226e-01 -1.017045e+01 1.152578e+00 -5.933511e+00 1.879142e+00 -1.770882e+00 -2.974688e-01 5.181196e+01 -9.836736e-02 4.338267e-02 -5.704713e-03 6.187851e-02 -2.323687e-02 5.342705e-02 -5.428320e-03 1.134310e-02 2.885130e-02 1.156258e-02 1.915269e-02 1.568332e-02 -1.302817e-01 2.410584e-03 -1.178299e-03 -1.817436e-03 -8.635627e-04 7.600567e-04 -1.444818e-04 -8.891812e-04 3.585654e-04 -8.938911e-05 -3.938631e-04 -8.814225e-04 2.324183e-05 2.004678e-03
<VARIANCE> 39
 4.210261e+01 2.618081e+01 1.460283e+01 3.442416e+01 3.841303e+01 5.425738e+01 3.365672e+01 2.980018e+01 2.698910e+01 2.127615e+01 1.875526e+01 1.671921e+01 7.045389e+01 7.474846e-01 9.513939e-01 7.590598e-01 1.072592e+00 1.331109e+00 1.975430e+00 1.472355e+00 1.368864e+00 1.492123e+00 1.309127e+00 1.269492e+00 1.175405e+00 8.585017e-01 1.047178e-01 1.451107e-01 1.463992e-01 1.891712e-01 2.383586e-01 3.250570e-01 2.610778e-01 2.572171e-01 2.837997e-01 2.418588e-01 2.460650e-01 2.270408e-01 9.592875e-02
<GCONST> 9.691002e+01
<STATE> 4
<MEAN> 39
 -1.026217e+01 3.916642e+00 -2.743135e+00 2.757661e+00 -7.269012e+00 -1.505924e-01 -1.009864e+01 1.322439e+00 -5.827034e+00 1.868941e+00 -1.605481e+00 -1.930880e-01 5.105669e+01 -8.760946e-02 4.131221e-02 -1.049438e-02 5.686288e-02 -2.118902e-02 5.642107e-02 -6.345736e-03 1.264140e-02 3.030183e-02 6.929761e-03 1.520712e-02 1.598701e-02 -1.213891e-01 1.809258e-03 -1.162782e-04 -6.225774e-04 -5.908597e-04 1.209596e-05 1.006608e-03 1.086293e-03 1.853623e-03 -1.710309e-04 -1.083485e-03 -1.210596e-03 -1.486607e-04 1.249386e-03
<VARIANCE> 39
 3.717226e+01 2.391306e+01 1.264886e+01 3.077756e+01 3.474092e+01 5.021315e+01 3.118542e+01 2.802702e+01 2.533384e+01 1.992544e+01 1.790044e+01 1.618719e+01 6.286916e+01 6.537234e-01 8.554617e-01 6.790437e-01 9.775817e-01 1.227552e+00 1.815482e+00 1.394944e+00 1.297778e+00 1.410127e+00 1.238878e+00 1.218195e+00 1.125403e+00 7.549738e-01 9.149039e-02 1.305439e-01 1.314522e-01 1.734655e-01 2.245535e-01 3.031413e-01 2.521307e-01 2.468288e-01 2.691016e-01 2.322032e-01 2.359796e-01 2.164449e-01 8.346205e-02
<GCONST> 9.379623e+01
<TRANSP> 5
 0.000000e+00 1.000000e+00 0.000000e+00 0.000000e+00 0.000000e+00
 0.000000e+00 7.270876e-01 2.729124e-01 0.000000e+00 0.000000e+00
 0.000000e+00 0.000000e+00 7.270876e-01 2.729125e-01 0.000000e+00
 0.000000e+00 0.000000e+00 0.000000e+00 8.528014e-01 1.471985e-01
 0.000000e+00 0.000000e+00 0.000000e+00 0.000000e+00 0.000000e+00
<ENDHMM>
~h "g"
<BEGINHMM>
<NUMSTATES> 5
<STATE> 2
<MEAN> 39
 -1.956112e+00 9.501671e-01 2.828030e+00 -4.110729e+00 -4.083128e+00 -8.121209e+00 -1.179625e+01 3.321591e-01 -1.227169e+01 -1.490047e+00 -4.937933e+00 -1.766662e+00 6.430819e+01 4.244713e-02 -6.711155e-03 1.498189e-02 -7.189285e-02 5.426459e-03 -3.239524e-02 -9.872377e-03 4.055785e-03 -3.521810e-02 -3.453629e-02 -5.769815e-03 -1.998799e-02 6.249574e-02 -2.616558e-03 2.314803e-03 -3.219717e-04 -5.784863e-04 -7.359190e-04 2.951106e-03 6.317393e-04 -1.886970e-03 1.353879e-03 -6.728305e-04 1.888143e-03 1.956978e-03 -3.383167e-03
<VARIANCE> 39
 5.379773e+01 7.253893e+01 7.229576e+01 1.130225e+02 1.019655e+02 1.189745e+02 8.996733e+01 6.843018e+01 7.861528e+01 5.329702e+01 5.818601e+01 4.265129e+01 1.021274e+02 2.307448e+00 5.172566e+00 3.383775e+00 5.229465e+00 3.299529e+00 5.703448e+00 5.048059e+00 4.201744e+00 4.238880e+00 3.412602e+00 3.060153e+00 2.346448e+00 3.584073e+00 3.472013e-01 8.691762e-01 5.677096e-01 9.206381e-01 5.638251e-01 8.283748e-01 9.132527e-01 7.247106e-01 7.035291e-01 6.039031e-01 5.407913e-01 4.367085e-01 4.781964e-01
<GCONST> 1.390711e+02
<STATE> 3
<MEAN> 39
 -1.808289e+00 9.375355e-01 2.864284e+00 -4.380856e+00 -4.077963e+00 -8.228923e+00 -1.181201e+01 3.495966e-01 -1.240413e+01 -1.623004e+00 -4.950879e+00 -1.837966e+00 6.451900e+01 3.235740e-02 2.343755e-03 1.244032e-02 -7.373101e-02 9.391484e-04 -1.935029e-02 -4.784906e-03 -2.324553e-04 -2.973411e-02 -3.525351e-02 -8.568226e-06 -1.357892e-02 4.829453e-02 -2.636715e-03 2.377392e-03 -6.355321e-04 -1.934902e-04 -1.294247e-03 3.457008e-03 1.379867e-03 -1.424734e-03 1.269646e-03 -9.953400e-06 1.397677e-03 1.793141e-03 -3.811894e-03
<VARIANCE> 39
 5.327654e+01 7.216587e+01 7.050546e+01 1.145588e+02 1.023999e+02 1.189678e+02 9.026981e+01 6.892977e+01 8.097510e+01 5.437739e+01 5.773732e+01 4.409304e+01 9.985406e+01 2.313137e+00 5.093537e+00 3.343691e+00 5.255267e+00 3.275630e+00 5.602111e+00 5.099828e+00 4.194481e+00 4.281010e+00 3.449245e+00 3.048258e+00 2.375946e+00 3.519926e+00 3.492930e-01 8.563505e-01 5.596986e-01 9.272456e-01 5.613203e-01 8.132813e-01 9.251683e-01 7.191105e-01 7.100644e-01 6.078516e-01 5.378064e-01 4.406737e-01 4.731384e-01
<GCONST> 1.390616e+02
<STATE> 4
<MEAN> 39
 -1.674696e+00 8.950654e-01 3.004141e+00 -4.549282e+00 -4.263016e+00 -8.514812e+00 -1.161362e+01 3.406787e-01 -1.294035e+01 -1.755455e+00 -5.114718e+00 -2.027833e+00 6.469482e+01 2.070412e-02 1.287657e-02 5.241202e-03 -7.313141e-02 -9.993956e-03 -3.345495e-03 8.124542e-03 4.046430e-03 -2.577961e-02 -3.053162e-02 4.955279e-03 -1.227330e-02 2.840552e-02 -2.366995e-03 1.591394e-03 -7.611720e-04 4.206954e-04 -1.392596e-03 3.056600e-03 1.512251e-03 -5.739731e-04 1.025016e-03 1.066259e-03 8.281962e-04 1.003822e-03 -3.470312e-03
<VARIANCE> 39
 5.198169e+01 7.157519e+01 6.826808e+01 1.184667e+02 1.002172e+02 1.213915e+02 9.115232e+01 7.023531e+01 8.518356e+01 5.472039e+01 5.757718e+01 4.661422e+01 9.638507e+01 2.270976e+00 5.004922e+00 3.253247e+00 5.333866e+00 3.204493e+00 5.570155e+00 5.054830e+00 4.139172e+00 4.288746e+00 3.436068e+00 3.034392e+00 2.436853e+00 3.431032e+00 3.450317e-01 8.430359e-01 5.420467e-01 9.411169e-01 5.505924e-01 8.105016e-01 9.146100e-01 6.977462e-01 7.065679e-01 6.036829e-01 5.292979e-01 4.463521e-01 4.655448e-01
<GCONST> 1.388858e+02
<TRANSP> 5
 0.000000e+00 1.000000e+00 0.000000e+00 0.000000e+00 0.000000e+00
 0.000000e+00 7.280933e-01 2.719066e-01 0.000000e+00 0.000000e+00
 0.000000e+00 0.000000e+00 7.280929e-01 2.719071e-01 0.000000e+00
 0.000000e+00 0.000000e+00 0.000000e+00 8.547077e-01 1.452923e-01
 0.000000e+00 0.000000e+00 0.000000e+00 0.000000e+00 0.000000e+00
<ENDHMM>
~h "h"
<BEGINHMM>
<NUMSTATES> 5
<STATE> 2
<MEAN> 39
 -3.222157e-01 9.023311e-01 2.056587e+00 -8.068665e+00 -4.243150e+00 -5.903641e+00 -1.082420e+01 1.624518e+00 -1.289704e+01 -3.972288e+00 -5.723735e+00 -6.404342e-01 6.605367e+01 -1.190328e-03 -6.078124e-03 -3.346878e-02 2.027389e-03 1.270981e-02 2.913959e-02 3.572019e-02 -5.309526e-02 4.405460e-02 6.062045e-02 4.606501e-02 6.297731e-02 -4.439688e-03 -9.735462e-04 1.740239e-03 1.441209e-03 2.535330e-03 -1.464452e-04 -4.233077e-04 -1.664482e-03 4.531139e-04 2.226913e-04 -7.085266e-04 -2.229793e-04 -1.297504e-03 -1.950924e-03
<VARIANCE> 39
 5.506152e+01 7.918669e+01 7.584252e+01 1.174941e+02 1.000980e+02 1.010761e+02 9.318282e+01 6.553297e+01 7.724757e+01 6.358518e+01 6.240123e+01 4.743360e+01 6.536438e+01 2.688156e+00 5.143798e+00 3.740726e+00 5.274718e+00 3.990712e+00 5.880789e+00 4.823257e+00 4.568125e+00 4.364820e+00 3.661648e+00 3.360938e+00 2.406883e+00 3.126085e+00 3.900330e-01 8.536804e-01 6.326678e-01 8.592552e-01 6.714363e-01 9.405013e-01 8.598079e-01 8.001641e-01 7.746919e-01 6.363195e-01 6.041320e-01 4.160560e-01 4.174411e-01
<GCONST> 1.401181e+02
<STATE> 3
<MEAN> 39
 -3.309117e-01 8.972191e-01 1.944524e+00 -8.036002e+00 -4.191128e+00 -5.786408e+00 -1.070219e+01 1.435448e+00 -1.273814e+01 -3.755903e+00 -5.557355e+00 -4.126203e-01 6.601764e+01 -5.747888e-03 -1.883642e-04 -2.775595e-02 1.111715e-02 1.219742e-02 2.737874e-02 2.978087e-02 -5.037560e-02 4.431171e-02 5.825417e-02 4.568825e-02 5.830419e-02 -1.192533e-02 -1.810950e-03 1.601479e-03 1.864882e-03 3.019859e-03 -6.068368e-04 -4.884083e-04 -1.742144e-03 1.123973e-03 1.839378e-04 -1.000040e-03 -2.582393e-04 -1.774394e-03 -2.572442e-03
<VARIANCE> 39
 5.502139e+01 7.816609e+01 7.569915e+01 1.151959e+02 1.018746e+02 1.007318e+02 9.235098e+01 6.473644e+01 7.675244e+01 6.347831e+01 6.192127e+01 4.699140e+01 6.679324e+01 2.666469e+00 5.101964e+00 3.698559e+00 5.247097e+00 3.921618e+00 5.720142e+00 4.786878e+00 4.454542e+00 4.290635e+00 3.621690e+00 3.345270e+00 2.383476e+00 3.122433e+00 3.859323e-01 8.447741e-01 6.285782e-01 8.563497e-01 6.591101e-01 9.135118e-01 8.510476e-01 7.851326e-01 7.640231e-01 6.273543e-01 5.997699e-01 4.119671e-01 4.155664e-01
<GCONST> 1.397602e+02
<STATE> 4
<MEAN> 39
 -5.359926e-01 9.385260e-01 1.933239e+00 -7.597363e+00 -4.463396e+00 -5.645496e+00 -1.027472e+01 1.295667e+00 -1.264762e+01 -3.465041e+00 -5.599854e+00 -3.028659e-01 6.566570e+01 -1.474015e-02 6.715562e-03 -1.889205e-02 2.423177e-02 1.216933e-02 2.617523e-02 2.173336e-02 -4.198799e-02 4.062970e-02 5.437959e-02 4.609027e-02 5.109810e-02 -2.453921e-02 -2.528501e-03 1.169265e-03 1.837498e-03 2.885369e-03 -1.010446e-03 -7.285163e-04 -1.515701e-03 1.645125e-03 1.304399e-05 -8.932843e-04 3.586869e-05 -1.975080e-03 -2.878313e-03
<VARIANCE> 39
 5.501881e+01 7.688563e+01 7.541569e+01 1.118725e+02 1.074184e+02 1.005163e+02 9.355191e+01 6.412046e+01 7.876608e+01 6.257859e+01 6.167308e+01 4.700333e+01 7.002135e+01 2.552748e+00 4.977435e+00 3.599109e+00 5.082280e+00 3.894053e+00 5.598187e+00 4.757193e+00 4.298815e+00 4.174461e+00 3.530236e+00 3.292150e+00 2.333639e+00 3.043568e+00 3.670406e-01 8.215417e-01 6.133677e-01 8.362053e-01 6.474494e-01 8.889022e-01 8.382525e-01 7.646282e-01 7.423547e-01 6.116241e-01 5.851830e-01 4.008912e-01 4.002045e-01
<GCONST> 1.391494e+02
<TRANSP> 5
 0.000000e+00 1.000000e+00 0.000000e+00 0.000000e+00 0.000000e+00
 0.000000e+00 7.322722e-01 2.677278e-01 0.000000e+00 0.000000e+00
 0.000000e+00 0.000000e+00 7.322724e-01 2.677276e-01 0.000000e+00
 0.000000e+00 0.000000e+00 0.000000e+00 8.592707e-01 1.407293e-01
 0.000000e+00 0.000000e+00 0.000000e+00 0.000000e+00 0.000000e+00
<ENDHMM>
~h "i"
<BEGINHMM>
<NUMSTATES> 5
<STATE> 2
<MEAN> 39
 -6.118822e+00 1.336150e+00 1.713474e+00 -2.287242e+00 -2.981313e+00 -4.717085e+00 -1.120630e+01 -1.069132e+00 -9.232647e+00 -4.176541e-01 -3.661418e+00 -4.657368e-01 6.060085e+01 2.844792e-02 -8.703548e-03 1.164929e-02 -9.537079e-03 3.778986e-02 -1.736625e-02 -4.113733e-03 -4.411915e-03 -1.906375e-02 -9.089083e-03 -2.312459e-02 -8.981548e-03 4.558934e-02 2.296466e-03 3.611534e-03 -5.685689e-04 1.781200e-03 -8.666803e-04 -1.980759e-03 -1.002593e-03 1.727186e-03 -2.392842e-03 -1.247767e-03 -1.579019e-03 -1.575989e-03 -1.832118e-03
<VARIANCE> 39
 8.979005e+01 6.381809e+01 7.063728e+01 1.034418e+02 7.401911e+01 1.164103e+02 6.697783e+01 4.971983e+01 6.786726e+01 4.181403e+01 4.544881e+01 3.188006e+01 1.320170e+02 2.160978e+00 3.216547e+00 2.674969e+00 3.922353e+00 2.540937e+00 4.294357e+00 3.474832e+00 2.883053e+00 2.981628e+00 2.471422e+00 2.261076e+00 1.772733e+00 2.131885e+00 2.797935e-01 4.991144e-01 4.321637e-01 6.455007e-01 4.342952e-01 6.576402e-01 6.165999e-01 5.056622e-01 5.124432e-01 4.347548e-01 4.165912e-01 3.324836e-01 2.710930e-01
<GCONST> 1.291906e+02
<STATE> 3
<MEAN> 39
 -5.987532e+00 1.333763e+00 1.747970e+00 -2.309680e+00 -2.855917e+00 -4.796929e+00 -1.123408e+01 -1.076609e+00 -9.331561e+00 -4.570645e-01 -3.769634e+00 -5.125206e-01 6.075317e+01 3.555106e-02 2.184022e-03 1.165521e-02 -3.013506e-03 3.437788e-02 -2.782177e-02 -1.018246e-02 1.391411e-03 -2.665717e-02 -1.273227e-02 -2.937052e-02 -1.548250e-02 4.010574e-02 1.877719e-03 3.138202e-03 -2.954770e-04 1.747448e-03 -1.730911e-03 -2.533568e-03 -1.540377e-03 1.714230e-03 -2.260487e-03 -8.208029e-04 -1.730887e-03 -1.724908e-03 -2.171431e-03
<VARIANCE> 39
 9.075703e+01 6.408813e+01 7.044524e+01 1.026622e+02 7.383291e+01 1.180425e+02 6.743208e+01 5.001476e+01 6.806261e+01 4.280608e+01 4.665309e+01 3.226625e+01 1.332061e+02 2.149587e+00 3.212056e+00 2.631506e+00 3.814967e+00 2.540651e+00 4.304066e+00 3.485072e+00 2.873617e+00 3.025036e+00 2.490366e+00 2.292244e+00 1.767305e+00 2.113539e+00 2.770667e-01 4.968812e-01 4.243352e-01 6.243718e-01 4.337797e-01 6.537923e-01 6.150781e-01 5.058411e-01 5.190817e-01 4.369907e-01 4.202537e-01 3.301646e-01 2.671212e-01
<GCONST> 1.291979e+02
<STATE> 4
<MEAN> 39
 -5.897060e+00 1.292648e+00 1.759558e+00 -2.014453e+00 -2.884619e+00 -4.941947e+00 -1.117946e+01 -1.080274e+00 -9.602219e+00 -3.978899e-01 -4.059187e+00 -5.866813e-01 6.068764e+01 3.801771e-02 1.181092e-02 1.314866e-02 5.227864e-03 2.678464e-02 -4.576821e-02 -2.177492e-02 4.582445e-03 -3.324155e-02 -1.369806e-02 -3.437506e-02 -2.332475e-02 3.119009e-02 1.666424e-04 1.413013e-03 9.191915e-05 1.124332e-03 -1.805829e-03 -2.432922e-03 -1.514914e-03 1.003889e-03 -9.926497e-04 -1.812759e-04 -4.422631e-04 -1.259973e-03 -1.832668e-03
<VARIANCE> 39
 8.926884e+01 6.535860e+01 6.922322e+01 1.015527e+02 7.215522e+01 1.226290e+02 6.798351e+01 5.076462e+01 6.846394e+01 4.339957e+01 4.897440e+01 3.234232e+01 1.351888e+02 2.008331e+00 3.164283e+00 2.525481e+00 3.596890e+00 2.491693e+00 4.275933e+00 3.387434e+00 2.801427e+00 3.020250e+00 2.497634e+00 2.286870e+00 1.728182e+00 2.040580e+00 2.578478e-01 4.852726e-01 4.067279e-01 5.847153e-01 4.249707e-01 6.395564e-01 5.940418e-01 4.934297e-01 5.199408e-01 4.383004e-01 4.145354e-01 3.215801e-01 2.531625e-01
<GCONST> 1.285800e+02
<TRANSP> 5
 0.000000e+00 1.000000e+00 0.000000e+00 0.000000e+00 0.000000e+00
 0.000000e+00 7.315550e-01 2.684449e-01 0.000000e+00 0.000000e+00
 0.000000e+00 0.000000e+00 7.315550e-01 2.684450e-01 0.000000e+00
 0.000000e+00 0.000000e+00 0.000000e+00 8.586326e-01 1.413674e-01
 0.000000e+00 0.000000e+00 0.000000e+00 0.000000e+00 0.000000e+00
<ENDHMM>
~h "j"
<BEGINHMM>
<NUMSTATES> 5
<STATE> 2
<MEAN> 39
 -3.673980e+00 3.669245e-01 2.660474e+00 -5.597409e+00 -3.228559e+00 -6.906593e+00 -1.060773e+01 -1.168629e+00 -1.220604e+01 -1.674051e+00 -4.556097e+00 -1.966257e+00 6.432114e+01 2.899701e-02 1.198163e-02 3.035199e-02 2.135341e-02 4.061957e-02 -2.772987e-02 -5.203099e-02 1.516952e-02 -2.870599e-02 -1.489066e-02 -4.315931e-02 -3.266025e-02 1.728292e-02 -2.068199e-03 6.036971e-04 -5.003331e-03 -1.759618e-03 -1.646079e-03 3.707256e-03 2.763862e-03 2.947001e-03 3.221444e-03 -4.874139e-05 6.549285e-04 2.410305e-03 -3.468774e-03
<VARIANCE> 39
 8.415558e+01 7.408547e+01 8.191631e+01 1.091840e+02 7.590978e+01 1.210235e+02 8.987566e+01 6.334263e+01 8.626407e+01 5.076441e+01 4.860109e+01 4.151434e+01 1.157782e+02 3.297755e+00 4.740687e+00 3.803399e+00 5.013667e+00 2.974599e+00 5.055783e+00 4.978344e+00 3.706303e+00 4.286472e+00 3.051363e+00 2.695526e+00 2.180512e+00 3.019905e+00 5.011030e-01 8.012773e-01 6.171229e-01 8.819739e-01 5.139083e-01 7.804939e-01 8.899010e-01 6.592929e-01 7.249727e-01 5.546167e-01 4.958134e-01 3.962247e-01 4.176205e-01
<GCONST> 1.384238e+02
<STATE> 3
<MEAN> 39
 -3.602682e+00 4.192942e-01 2.749865e+00 -5.536726e+00 -3.103042e+00 -6.965487e+00 -1.077840e+01 -1.102957e+00 -1.227208e+01 -1.728900e+00 -4.696157e+00 -2.067268e+00 6.434996e+01 2.001144e-02 1.426850e-02 1.842841e-02 1.534160e-02 3.487857e-02 -1.375904e-02 -3.968693e-02 2.072070e-02 -1.724933e-02 -1.680904e-02 -3.795377e-02 -2.238773e-02 6.850115e-03 -2.200990e-03 9.193560e-04 -3.250233e-03 -1.857911e-03 -1.932981e-03 3.870714e-03 3.681048e-03 1.403167e-03 3.198509e-03 -7.314226e-04 1.752629e-03 2.970633e-03 -2.689381e-03
<VARIANCE> 39
 8.318659e+01 7.396187e+01 8.157743e+01 1.080868e+02 7.620425e+01 1.208069e+02 8.936966e+01 6.466384e+01 8.580917e+01 5.128274e+01 4.897670e+01 4.114350e+01 1.146514e+02 3.238393e+00 4.682342e+00 3.773206e+00 4.955383e+00 2.913952e+00 5.024768e+00 4.918858e+00 3.710680e+00 4.255812e+00 3.054721e+00 2.717008e+00 2.172220e+00 2.966810e+00 4.914985e-01 7.844834e-01 6.117743e-01 8.717479e-01 5.033708e-01 7.765556e-01 8.781521e-01 6.582971e-01 7.202370e-01 5.518941e-01 4.977726e-01 3.931854e-01 4.107212e-01
<GCONST> 1.381664e+02
<STATE> 4
<MEAN> 39
 -3.763060e+00 4.893749e-01 2.841030e+00 -5.199194e+00 -3.193862e+00 -6.852882e+00 -1.082209e+01 -1.046311e+00 -1.233929e+01 -1.668734e+00 -4.857358e+00 -2.122546e+00 6.403116e+01 8.530836e-03 1.440073e-02 1.122503e-02 8.463146e-03 2.519401e-02 6.070556e-03 -2.566013e-02 1.794551e-02 -2.218428e-03 -1.649680e-02 -1.980288e-02 -4.974314e-03 -2.187502e-03 -8.823873e-04 1.662436e-04 -1.670274e-03 -1.299035e-03 -1.552113e-03 2.875321e-03 2.770706e-03 -5.956778e-05 1.918886e-03 -3.429567e-04 2.720798e-03 2.984850e-03 -9.290084e-04
<VARIANCE> 39
 8.224391e+01 7.464758e+01 8.092920e+01 1.064636e+02 7.703452e+01 1.209503e+02 8.874148e+01 6.525951e+01 8.477577e+01 5.100193e+01 4.908283e+01 4.146712e+01 1.158139e+02 3.048331e+00 4.520467e+00 3.602386e+00 4.737480e+00 2.813708e+00 4.909401e+00 4.674480e+00 3.613438e+00 4.085230e+00 2.975722e+00 2.706131e+00 2.132759e+00 2.839826e+00 4.589336e-01 7.483565e-01 5.822421e-01 8.313438e-01 4.840993e-01 7.575286e-01 8.299388e-01 6.399627e-01 6.908989e-01 5.329771e-01 4.927308e-01 3.808347e-01 3.879221e-01
<GCONST> 1.371650e+02
<TRANSP> 5
 0.000000e+00 1.000000e+00 0.000000e+00 0.000000e+00 0.000000e+00
 0.000000e+00 7.339486e-01 2.660514e-01 0.000000e+00 0.000000e+00
 0.000000e+00 0.000000e+00 7.339478e-01 2.660523e-01 0.000000e+00
 0.000000e+00 0.000000e+00 0.000000e+00 8.613135e-01 1.386866e-01
 0.000000e+00 0.000000e+00 0.000000e+00 0.000000e+00 0.000000e+00
<ENDHMM>
~h "k"
<BEGINHMM>
<NUMSTATES> 5
<STATE> 2
<MEAN> 39
 -4.465279e+00 5.159058e-01 -9.126931e-01 -4.633199e+00 -5.637073e+00 -4.205320e+00 -9.829296e+00 -1.077442e+00 -8.891374e+00 5.485066e-02 -2.545483e+00 -3.662184e-01 6.127430e+01 -8.825605e-03 -2.248451e-02 -1.042251e-02 -5.462795e-03 5.233999e-02 -1.422868e-02 -7.328303e-03 -2.812121e-03 3.198646e-02 1.783697e-02 7.096294e-03 1.842153e-02 1.887548e-02 2.471045e-03 1.686541e-03 -2.848616e-03 1.031102e-03 -2.153991e-04 -4.829290e-03 2.728018e-03 2.916719e-03 -2.138673e-03 4.323057e-04 -2.153265e-03 4.761336e-04 1.562589e-04
<VARIANCE> 39
 8.108774e+01 6.973534e+01 6.008255e+01 9.642411e+01 7.223969e+01 8.449250e+01 7.575604e+01 5.269437e+01 7.872620e+01 4.229831e+01 3.066957e+01 2.835814e+01 1.094779e+02 2.483416e+00 3.982001e+00 2.319303e+00 4.705443e+00 2.580346e+00 4.166913e+00 4.067767e+00 2.932801e+00 4.029705e+00 2.592123e+00 2.125349e+00 1.998002e+00 3.026653e+00 3.420933e-01 6.784597e-01 4.006609e-01 8.229330e-01 4.225458e-01 6.749618e-01 7.234094e-01 5.409545e-01 6.620454e-01 4.625058e-01 4.002853e-01 3.710794e-01 4.148783e-01
<GCONST> 1.312674e+02
<STATE> 3
<MEAN> 39
 -4.504726e+00 4.621521e-01 -9.767302e-01 -4.602921e+00 -5.454035e+00 -4.266357e+00 -9.835336e+00 -1.042558e+00 -8.783691e+00 1.117159e-01 -2.521430e+00 -2.924960e-01 6.129623e+01 -1.044045e-02 -1.364131e-02 -1.801921e-02 5.004049e-03 5.081773e-02 -1.958408e-02 2.927425e-03 9.612447e-03 2.873876e-02 1.621847e-02 1.759210e-03 1.957072e-02 8.067233e-03 -1.220902e-03 2.794803e-03 -1.708104e-03 3.936866e-03 -6.897443e-04 -8.061437e-04 2.787692e-03 3.799645e-03 -3.613573e-04 -4.082568e-04 -1.542957e-03 -3.608079e-05 -4.062626e-03
<VARIANCE> 39
 8.244156e+01 6.970917e+01 6.081762e+01 9.711017e+01 7.172277e+01 8.393298e+01 7.549277e+01 5.256723e+01 7.874858e+01 4.207984e+01 3.044418e+01 2.854831e+01 1.111146e+02 2.449033e+00 3.849155e+00 2.246521e+00 4.443777e+00 2.542677e+00 4.119444e+00 3.953793e+00 2.915968e+00 3.982980e+00 2.556547e+00 2.091611e+00 1.995505e+00 2.925704e+00 3.325189e-01 6.514170e-01 3.848242e-01 7.768531e-01 4.163668e-01 6.672686e-01 7.013868e-01 5.368263e-01 6.504356e-01 4.549740e-01 3.945625e-01 3.716326e-01 3.973322e-01
<GCONST> 1.306964e+02
<STATE> 4
<MEAN> 39
 -4.793055e+00 3.980822e-01 -1.086303e+00 -4.064018e+00 -5.424641e+00 -4.232084e+00 -9.570600e+00 -8.933985e-01 -8.699327e+00 3.196774e-01 -2.474992e+00 -2.440630e-01 6.095150e+01 -2.546661e-02 -4.936517e-03 -1.169405e-02 1.957832e-02 3.708646e-02 -2.488595e-03 1.154834e-02 1.993263e-02 2.744201e-02 9.569234e-03 5.921001e-04 1.860920e-02 -1.514680e-02 -2.888229e-03 1.453664e-03 1.493717e-03 1.948827e-03 -2.231533e-03 2.976400e-03 1.540732e-03 1.194182e-03 3.851683e-04 -7.503849e-04 -7.215964e-04 -2.919937e-04 -3.691507e-03
<VARIANCE> 39
 8.368269e+01 7.034536e+01 5.972548e+01 9.470509e+01 6.868638e+01 8.325671e+01 7.355763e+01 5.285292e+01 7.827021e+01 4.134127e+01 3.063889e+01 2.898833e+01 1.123038e+02 2.281909e+00 3.600310e+00 2.090436e+00 4.100725e+00 2.464245e+00 3.869597e+00 3.673333e+00 2.887583e+00 3.756985e+00 2.450525e+00 2.035092e+00 1.968691e+00 2.755850e+00 3.031451e-01 5.997264e-01 3.552930e-01 7.185996e-01 4.086990e-01 6.220196e-01 6.446081e-01 5.284466e-01 6.071752e-01 4.343903e-01 3.830033e-01 3.663510e-01 3.706221e-01
<GCONST> 1.291946e+02
<TRANSP> 5
 0.000000e+00 1.000000e+00 0.000000e+00 0.000000e+00 0.000000e+00
 0.000000e+00 7.296362e-01 2.703639e-01 0.000000e+00 0.000000e+00
 0.000000e+00 0.000000e+00 7.296367e-01 2.703634e-01 0.000000e+00
 0.000000e+00 0.000000e+00 0.000000e+00 8.574010e-01 1.425990e-01
 0.000000e+00 0.000000e+00 0.000000e+00 0.000000e+00 0.000000e+00
<ENDHMM>
~h "l"
<BEGINHMM>
<NUMSTATES> 5
<STATE> 2
<MEAN> 39
 -3.738741e+00 7.536867e-01 1.170796e+00 -5.967455e+00 -3.212464e+00 -5.912817e+00 -1.026324e+01 1.662402e-01 -1.103872e+01 -1.939884e+00 -3.838896e+00 -4.338598e-01 6.357306e+01 -2.537066e-02 -1.669016e-04 -3.998554e-02 3.833867e-03 -2.805881e-02 3.687805e-02 2.717082e-02 1.525191e-02 3.073737e-02 1.660426e-02 2.706127e-02 2.089653e-02 -3.919720e-02 -2.453447e-03 1.060317e-03 1.150124e-03 1.714693e-03 -1.425323e-04 1.298310e-03 4.348655e-04 -1.362436e-03 7.275024e-04 9.113782e-04 9.381505e-05 -1.300367e-04 -2.306150e-03
<VARIANCE> 39
 9.576746e+01 6.067715e+01 6.907744e+01 1.155510e+02 7.300897e+01 9.643887e+01 7.699792e+01 5.776279e+01 8.018098e+01 5.275589e+01 4.952705e+01 3.071407e+01 1.211160e+02 2.753547e+00 3.050454e+00 2.990698e+00 3.690136e+00 2.717615e+00 4.115312e+00 3.713135e+00 3.122483e+00 3.584032e+00 2.656204e+00 2.532709e+00 1.894534e+00 1.968800e+00 3.366232e-01 4.852026e-01 4.438900e-01 6.037375e-01 4.537207e-01 6.624674e-01 6.626256e-01 5.321792e-01 6.105886e-01 4.610400e-01 4.615991e-01 3.498053e-01 2.587406e-01
<GCONST> 1.311405e+02
<STATE> 3
<MEAN> 39
 -3.859835e+00 7.555032e-01 1.041726e+00 -5.936420e+00 -3.312155e+00 -5.770780e+00 -1.016550e+01 2.032319e-01 -1.091198e+01 -1.870263e+00 -3.737902e+00 -3.569779e-01 6.340653e+01 -3.295743e-02 2.429147e-03 -3.518783e-02 9.481914e-03 -2.820875e-02 4.047018e-02 2.738067e-02 9.922995e-03 3.205766e-02 1.910607e-02 2.691653e-02 2.035813e-02 -4.623663e-02 -2.148884e-03 7.317341e-04 1.584080e-03 1.856463e-03 -3.902567e-04 7.303049e-04 2.687063e-04 -1.325370e-03 2.034267e-04 6.313865e-04 -1.346023e-04 -1.459245e-04 -2.017348e-03
<VARIANCE> 39
 9.595144e+01 6.017519e+01 6.827281e+01 1.166310e+02 7.266206e+01 9.580295e+01 7.589722e+01 5.693915e+01 7.956550e+01 5.247618e+01 4.867756e+01 3.024819e+01 1.232858e+02 2.736930e+00 2.993652e+00 2.941944e+00 3.619662e+00 2.690456e+00 4.039090e+00 3.664372e+00 3.082016e+00 3.531657e+00 2.622595e+00 2.477139e+00 1.874181e+00 1.949876e+00 3.327729e-01 4.753613e-01 4.360546e-01 5.924087e-01 4.505001e-01 6.520605e-01 6.545089e-01 5.273696e-01 6.038529e-01 4.551068e-01 4.514056e-01 3.467121e-01 2.562750e-01
<GCONST> 1.307001e+02
<STATE> 4
<MEAN> 39
 -4.128244e+00 7.211200e-01 9.689619e-01 -5.584557e+00 -3.659894e+00 -5.680996e+00 -9.774510e+00 3.261244e-01 -1.097884e+01 -1.719309e+00 -3.730579e+00 -3.526583e-01 6.299356e+01 -3.952913e-02 4.361852e-03 -2.680242e-02 1.979853e-02 -2.906857e-02 4.130584e-02 2.410341e-02 2.235169e-03 3.260487e-02 2.107899e-02 2.510030e-02 1.986688e-02 -5.507845e-02 -6.542974e-04 7.357963e-04 1.425800e-03 2.078278e-03 -9.823311e-04 -4.107284e-05 1.330765e-04 -3.021934e-04 -3.658082e-04 3.027992e-04 -2.647762e-04 1.397860e-04 -1.511483e-03
<VARIANCE> 39
 9.560172e+01 6.100970e+01 6.687347e+01 1.162790e+02 7.318896e+01 9.777078e+01 7.592641e+01 5.652122e+01 8.049293e+01 5.156913e+01 4.795285e+01 3.010682e+01 1.255506e+02 2.611338e+00 2.929359e+00 2.814983e+00 3.455828e+00 2.667429e+00 3.950147e+00 3.552810e+00 3.002117e+00 3.423971e+00 2.565915e+00 2.393492e+00 1.824240e+00 1.883148e+00 3.153296e-01 4.615681e-01 4.161689e-01 5.638093e-01 4.427352e-01 6.386274e-01 6.309960e-01 5.144784e-01 5.868967e-01 4.444041e-01 4.332941e-01 3.366257e-01 2.442942e-01
<GCONST> 1.298539e+02
<TRANSP> 5
 0.000000e+00 1.000000e+00 0.000000e+00 0.000000e+00 0.000000e+00
 0.000000e+00 7.278007e-01 2.721992e-01 0.000000e+00 0.000000e+00
 0.000000e+00 0.000000e+00 7.278020e-01 2.721980e-01 0.000000e+00
 0.000000e+00 0.000000e+00 0.000000e+00 8.547370e-01 1.452630e-01
 0.000000e+00 0.000000e+00 0.000000e+00 0.000000e+00 0.000000e+00
<ENDHMM>
~h "m"
<BEGINHMM>
<NUMSTATES> 5
<STATE> 2
<MEAN> 39
 -3.196655e+00 1.350759e+00 2.630020e+00 -4.984444e+00 -2.635646e+00 -6.485744e+00 -1.091183e+01 -5.458245e-02 -1.196514e+01 -2.422868e+00 -5.056004e+00 -1.433514e+00 6.383002e+01 2.565964e-04 -7.064170e-03 -1.796153e-03 6.549207e-03 -3.420122e-03 3.410739e-02 2.437262e-03 -1.315554e-02 4.986724e-03 2.896051e-03 1.286549e-02 1.918045e-02 -5.080772e-03 1.740982e-04 -1.839724e-03 -1.577306e-03 4.131888e-04 -1.389055e-03 2.840337e-04 1.114746e-03 -1.388513e-04 3.389375e-04 1.334242e-03 1.112082e-03 1.062319e-04 2.466780e-04
<VARIANCE> 39
 7.874741e+01 6.709949e+01 7.429692e+01 1.108109e+02 7.572642e+01 1.048766e+02 8.376576e+01 6.387729e+01 7.663427e+01 4.981277e+01 4.958861e+01 3.813079e+01 1.099243e+02 2.742926e+00 3.978398e+00 3.505618e+00 4.668193e+00 2.741152e+00 4.574941e+00 4.363802e+00 3.633044e+00 3.517485e+00 2.938824e+00 2.767950e+00 2.046062e+00 2.534865e+00 4.083741e-01 6.358662e-01 5.640708e-01 8.051338e-01 4.786702e-01 7.153192e-01 7.823040e-01 6.369957e-01 6.189268e-01 5.242881e-01 4.980178e-01 3.714094e-01 3.388508e-01
<GCONST> 1.349985e+02
<STATE> 3
<MEAN> 39
 -3.186687e+00 1.317915e+00 2.603788e+00 -4.954746e+00 -2.652653e+00 -6.353939e+00 -1.089614e+01 -1.007480e-01 -1.195399e+01 -2.405314e+00 -5.008724e+00 -1.362740e+00 6.380900e+01 9.873069e-04 -1.137905e-02 -7.669798e-03 6.218963e-03 -7.380194e-03 3.481569e-02 6.761018e-03 -1.306712e-02 4.930249e-03 6.097343e-03 1.546710e-02 1.996770e-02 -4.639922e-03 6.397325e-05 -9.801800e-04 -1.464084e-03 -1.883647e-04 -9.727000e-04 7.741446e-05 1.036458e-03 -3.261877e-05 1.920532e-05 8.061769e-04 8.678744e-04 2.187830e-04 7.934452e-05
<VARIANCE> 39
 7.844141e+01 6.714889e+01 7.420911e+01 1.106968e+02 7.499050e+01 1.037739e+02 8.357264e+01 6.322393e+01 7.653086e+01 4.963999e+01 4.958227e+01 3.759925e+01 1.099529e+02 2.777132e+00 4.031334e+00 3.518138e+00 4.670928e+00 2.753904e+00 4.585304e+00 4.386020e+00 3.621542e+00 3.552376e+00 2.948419e+00 2.778305e+00 2.046841e+00 2.580149e+00 4.139645e-01 6.454545e-01 5.675272e-01 8.051904e-01 4.797539e-01 7.209096e-01 7.869345e-01 6.356816e-01 6.247557e-01 5.264288e-01 5.010398e-01 3.732477e-01 3.452466e-01
<GCONST> 1.351067e+02
<STATE> 4
<MEAN> 39
 -3.313832e+00 1.213242e+00 2.562680e+00 -4.621900e+00 -2.865847e+00 -6.135265e+00 -1.069623e+01 -1.784122e-01 -1.205046e+01 -2.245788e+00 -5.059401e+00 -1.352786e+00 6.354472e+01 4.521089e-03 -1.302466e-02 -1.285245e-02 1.170728e-03 -8.263918e-03 3.149974e-02 9.460315e-03 -1.238880e-02 -4.376408e-04 6.409030e-03 1.212500e-02 1.762853e-02 -1.155073e-03 9.831347e-05 -2.681229e-04 -6.174932e-04 -9.471473e-04 -4.959606e-04 -5.577732e-04 4.063470e-04 8.099227e-05 -3.312802e-04 1.729414e-04 1.691126e-04 -2.637464e-04 4.183574e-04
<VARIANCE> 39
 7.724607e+01 6.862074e+01 7.297087e+01 1.106225e+02 7.325445e+01 1.036021e+02 8.449399e+01 6.231736e+01 7.700194e+01 4.898169e+01 4.978576e+01 3.702081e+01 1.120782e+02 2.656389e+00 4.073301e+00 3.428708e+00 4.571182e+00 2.755592e+00 4.556867e+00 4.335380e+00 3.531131e+00 3.536621e+00 2.904566e+00 2.761671e+00 2.020160e+00 2.593409e+00 3.940056e-01 6.528230e-01 5.525668e-01 7.833427e-01 4.754298e-01 7.183202e-01 7.742349e-01 6.192395e-01 6.203673e-01 5.193868e-01 4.961011e-01 3.671685e-01 3.438241e-01
<GCONST> 1.347118e+02
<TRANSP> 5
 0.000000e+00 1.000000e+00 0.000000e+00 0.000000e+00 0.000000e+00
 0.000000e+00 7.337983e-01 2.662017e-01 0.000000e+00 0.000000e+00
 0.000000e+00 0.000000e+00 7.337968e-01 2.662032e-01 0.000000e+00
 0.000000e+00 0.000000e+00 0.000000e+00 8.615164e-01 1.384836e-01
 0.000000e+00 0.000000e+00 0.000000e+00 0.000000e+00 0.000000e+00
<ENDHMM>
~h "n"
<BEGINHMM>
<NUMSTATES> 5
<STATE> 2
<MEAN> 39
 -6.927021e+00 1.339654e+00 4.498654e-02 -2.565476e+00 -4.598314e+00 -3.535908e+00 -1.044275e+01 -4.916016e-01 -8.712193e+00 -2.264902e-01 -2.362303e+00 6.627671e-02 5.886973e+01 -3.419072e-02 1.230128e-02 -6.355509e-04 1.083898e-02 -3.074067e-02 1.326873e-02 5.122258e-03 2.460617e-02 3.244086e-02 9.580055e-03 -1.368403e-02 8.022979e-04 -4.363755e-02 -2.232157e-05 -5.845108e-04 1.176558e-03 1.014757e-03 1.208950e-03 -4.215247e-04 -4.133946e-04 -8.517185e-04 3.998118e-04 4.986028e-04 -6.509140e-06 -5.560334e-04 9.641446e-04
<VARIANCE> 39
 8.622822e+01 5.669090e+01 5.741836e+01 9.344796e+01 6.016238e+01 8.570539e+01 5.389937e+01 4.593506e+01 6.939027e+01 3.782176e+01 3.406087e+01 2.883820e+01 1.272693e+02 1.950515e+00 2.410728e+00 2.056569e+00 2.788709e+00 2.069800e+00 2.993409e+00 2.856972e+00 2.263704e+00 2.998135e+00 1.995743e+00 1.860615e+00 1.569419e+00 1.630638e+00 2.483252e-01 3.717833e-01 3.218906e-01 4.589512e-01 3.515558e-01 5.006006e-01 4.935762e-01 4.066556e-01 4.965080e-01 3.568316e-01 3.475191e-01 2.858589e-01 2.120583e-01
<GCONST> 1.218368e+02
<STATE> 3
<MEAN> 39
 -7.056468e+00 1.395273e+00 4.988522e-02 -2.505046e+00 -4.709347e+00 -3.490681e+00 -1.043118e+01 -4.089507e-01 -8.597722e+00 -1.865689e-01 -2.412304e+00 6.417643e-02 5.869627e+01 -3.188377e-02 1.115139e-02 1.545879e-03 1.601783e-02 -2.722346e-02 1.054515e-02 1.781320e-03 2.097086e-02 3.206256e-02 1.188124e-02 -1.365783e-02 -1.572337e-03 -4.083924e-02 4.186778e-04 -7.674092e-04 2.988618e-04 1.355694e-03 1.059517e-03 -6.725204e-04 -8.185507e-04 -1.200584e-03 -4.905440e-04 8.269502e-04 2.876839e-04 -7.475207e-04 6.616043e-04
<VARIANCE> 39
 8.645545e+01 5.659773e+01 5.779975e+01 9.285204e+01 6.040908e+01 8.760361e+01 5.379386e+01 4.577286e+01 6.860555e+01 3.746608e+01 3.441133e+01 2.904392e+01 1.285897e+02 1.945699e+00 2.371032e+00 2.058006e+00 2.724192e+00 2.069544e+00 2.980227e+00 2.806236e+00 2.238095e+00 2.959241e+00 1.978709e+00 1.856544e+00 1.558315e+00 1.592338e+00 2.478523e-01 3.648201e-01 3.218570e-01 4.494525e-01 3.530770e-01 4.974082e-01 4.841905e-01 4.020873e-01 4.913521e-01 3.544867e-01 3.462706e-01 2.841657e-01 2.073694e-01
<GCONST> 1.216117e+02
<STATE> 4
<MEAN> 39
 -7.388876e+00 1.496168e+00 6.299818e-02 -2.074732e+00 -4.984149e+00 -3.308580e+00 -1.037785e+01 -2.384272e-01 -8.534584e+00 -5.759814e-02 -2.476607e+00 2.512439e-02 5.813770e+01 -2.581506e-02 1.372820e-02 -8.252123e-04 2.822254e-02 -2.611168e-02 5.121971e-03 -7.062619e-03 1.416851e-02 2.600905e-02 1.531606e-02 -1.215752e-02 -5.514676e-03 -4.344328e-02 1.010840e-03 -3.327270e-04 -5.391394e-04 1.612373e-03 1.557711e-04 -1.010902e-03 -7.941007e-04 -7.319669e-04 -1.208570e-03 9.829170e-04 4.853541e-04 -5.897447e-04 7.436650e-06
<VARIANCE> 39
 8.380734e+01 5.736673e+01 5.721925e+01 8.913375e+01 5.868673e+01 8.976423e+01 5.195491e+01 4.485793e+01 6.751923e+01 3.592494e+01 3.417078e+01 2.906183e+01 1.289439e+02 1.838999e+00 2.271074e+00 2.005444e+00 2.534306e+00 1.999864e+00 2.909262e+00 2.637664e+00 2.148828e+00 2.859816e+00 1.921861e+00 1.822904e+00 1.520813e+00 1.486766e+00 2.339830e-01 3.485178e-01 3.136328e-01 4.203556e-01 3.420431e-01 4.822934e-01 4.561544e-01 3.856827e-01 4.771547e-01 3.460191e-01 3.390326e-01 2.770492e-01 1.927349e-01
<GCONST> 1.203556e+02
<TRANSP> 5
 0.000000e+00 1.000000e+00 0.000000e+00 0.000000e+00 0.000000e+00
 0.000000e+00 7.304808e-01 2.695192e-01 0.000000e+00 0.000000e+00
 0.000000e+00 0.000000e+00 7.304817e-01 2.695183e-01 0.000000e+00
 0.000000e+00 0.000000e+00 0.000000e+00 8.574734e-01 1.425267e-01
 0.000000e+00 0.000000e+00 0.000000e+00 0.000000e+00 0.000000e+00
<ENDHMM>
~h "o"
<BEGINHMM>
<NUMSTATES> 5
<STATE> 2
<MEAN> 39
 -1.741735e+00 1.221576e+00 2.957510e+00 -6.423825e+00 -3.465785e+00 -8.222614e+00 -1.206803e+01 2.907836e+00 -7.692556e+00 -2.102309e+00 -4.464744e+00 -3.612352e-01 6.529692e+01 -1.501776e-01 -1.080879e-01 1.056476e-01 5.566474e-02 1.927460e-01 -2.990331e-02 -7.324626e-02 -9.825592e-02 6.719619e-02 2.719589e-03 5.775266e-02 3.668024e-02 3.334140e-02 -7.462170e-03 -5.443285e-03 -3.396429e-03 -4.394207e-03 -7.702818e-03 4.406422e-03 1.150465e-02 -1.168782e-03 1.826460e-03 3.050431e-03 3.536698e-03 -3.507273e-04 -2.219510e-03
<VARIANCE> 39
 9.378822e+01 7.699005e+01 6.057875e+01 1.539444e+02 1.240197e+02 1.055412e+02 9.607796e+01 5.931789e+01 4.823433e+01 3.647752e+01 3.121769e+01 3.187757e+01 5.292104e+01 2.188390e+00 4.265289e+00 3.001649e+00 7.546162e+00 4.547938e+00 6.411305e+00 4.526668e+00 4.702105e+00 2.992531e+00 2.331478e+00 2.452197e+00 2.193809e+00 3.339201e+00 2.232801e-01 8.207811e-01 4.620105e-01 1.241886e+00 7.987836e-01 1.041761e+00 7.641937e-01 9.475461e-01 5.360243e-01 4.420601e-01 4.753655e-01 4.019745e-01 5.038265e-01
<GCONST> 1.362507e+02
<STATE> 3
<MEAN> 39
 -2.306735e+00 7.974314e-01 3.325227e+00 -6.247127e+00 -2.828384e+00 -8.325786e+00 -1.226505e+01 2.537771e+00 -7.460073e+00 -2.083261e+00 -4.245105e+00 -2.305272e-01 6.542129e+01 -1.735857e-01 -1.249125e-01 9.217656e-02 4.079961e-02 1.639029e-01 -1.157033e-02 -3.325491e-02 -1.021405e-01 7.302207e-02 1.401526e-02 7.035260e-02 3.649590e-02 2.464177e-02 -6.004171e-03 -4.086550e-03 -4.053568e-03 -4.912348e-03 -1.010092e-02 5.615415e-03 1.239587e-02 -1.081260e-03 1.731736e-03 3.103050e-03 3.376735e-03 1.825724e-04 -2.454946e-03
<VARIANCE> 39
 1.010835e+02 7.994590e+01 6.139507e+01 1.552398e+02 1.169855e+02 1.039223e+02 9.150555e+01 5.747935e+01 4.913744e+01 3.578806e+01 3.055923e+01 3.180592e+01 5.506998e+01 2.248666e+00 4.159195e+00 2.976463e+00 7.307397e+00 4.307243e+00 6.408968e+00 4.395041e+00 4.642147e+00 3.005049e+00 2.318790e+00 2.387517e+00 2.163446e+00 3.359261e+00 2.232810e-01 7.907330e-01 4.481785e-01 1.201257e+00 7.485548e-01 1.026691e+00 7.267891e-01 9.373180e-01 5.371992e-01 4.392161e-01 4.625846e-01 4.013533e-01 4.996045e-01
<GCONST> 1.357920e+02
<STATE> 4
<MEAN> 39
 -3.223798e+00 1.625499e-01 3.723935e+00 -5.587279e+00 -2.713375e+00 -8.606211e+00 -1.178538e+01 1.959632e+00 -7.455117e+00 -1.689545e+00 -3.971047e+00 -2.412502e-01 6.533668e+01 -1.843967e-01 -1.390725e-01 7.233240e-02 1.835186e-02 1.190326e-01 1.630693e-02 1.224193e-02 -1.045501e-01 7.205357e-02 2.580421e-02 8.109219e-02 3.873906e-02 1.836539e-02 -3.597810e-03 -2.013556e-03 -4.287134e-03 -5.117664e-03 -9.947365e-03 6.769822e-03 1.056529e-02 -4.730824e-04 1.725426e-03 2.780796e-03 2.911405e-03 1.122705e-03 -2.351232e-03
<VARIANCE> 39
 1.123451e+02 8.603590e+01 6.264574e+01 1.580098e+02 1.086237e+02 1.094386e+02 8.241972e+01 5.816243e+01 5.421669e+01 3.428474e+01 3.032146e+01 3.114467e+01 6.009625e+01 2.357897e+00 4.095699e+00 2.889442e+00 7.054948e+00 3.909144e+00 6.633523e+00 4.040476e+00 4.574059e+00 3.164274e+00 2.217357e+00 2.240228e+00 2.016876e+00 3.405807e+00 2.249310e-01 7.704940e-01 4.304454e-01 1.174343e+00 6.635658e-01 1.015096e+00 6.598176e-01 9.295922e-01 5.512368e-01 4.167264e-01 4.330311e-01 3.778049e-01 4.992548e-01
<GCONST> 1.352280e+02
<TRANSP> 5
 0.000000e+00 1.000000e+00 0.000000e+00 0.000000e+00 0.000000e+00
 0.000000e+00 7.250996e-01 2.749004e-01 0.000000e+00 0.000000e+00
 0.000000e+00 0.000000e+00 7.250991e-01 2.749009e-01 0.000000e+00
 0.000000e+00 0.000000e+00 0.000000e+00 8.558725e-01 1.441275e-01
 0.000000e+00 0.000000e+00 0.000000e+00 0.000000e+00 0.000000e+00
<ENDHMM>
~h "p"
<BEGINHMM>
<NUMSTATES> 5
<STATE> 2
<MEAN> 39
 -4.177597e+00 2.867925e+00 -3.420241e-01 -3.538499e+00 -5.196316e+00 -3.828366e+00 -1.088208e+01 1.793480e+00 -9.607742e+00 -1.626111e+00 -4.029507e+00 -7.101101e-01 5.955755e+01 -6.878121e-02 3.383694e-02 1.388903e-02 5.195669e-02 -4.291708e-02 3.819966e-02 2.613463e-02 2.920381e-02 6.677684e-03 -7.681129e-03 1.014561e-04 -2.430271e-03 -9.163259e-02 -3.509812e-04 -1.693596e-03 1.568825e-03 -1.368366e-03 8.220472e-04 -1.911286e-03 -1.467468e-04 -1.652203e-03 -2.732007e-04 9.613524e-04 8.557205e-04 7.438578e-04 2.281505e-03
<VARIANCE> 39
 7.247419e+01 5.096869e+01 4.963499e+01 1.105044e+02 6.709126e+01 8.690665e+01 7.272195e+01 5.448293e+01 6.256043e+01 5.072440e+01 4.465313e+01 3.109474e+01 1.119539e+02 1.780448e+00 3.083188e+00 2.318896e+00 3.490067e+00 2.670412e+00 4.532789e+00 3.637339e+00 3.385304e+00 2.764245e+00 2.549859e+00 2.426461e+00 1.933474e+00 2.305108e+00 2.551684e-01 5.059772e-01 3.841390e-01 5.940724e-01 4.667700e-01 7.425323e-01 6.424559e-01 5.820810e-01 4.903948e-01 4.584313e-01 4.528472e-01 3.543810e-01 3.047910e-01
<GCONST> 1.285272e+02
<STATE> 3
<MEAN> 39
 -4.427061e+00 2.985177e+00 -2.914968e-01 -3.363361e+00 -5.344562e+00 -3.694754e+00 -1.079188e+01 1.898929e+00 -9.574637e+00 -1.639975e+00 -4.017232e+00 -7.175146e-01 5.923550e+01 -6.915257e-02 2.792259e-02 1.853076e-02 4.707491e-02 -4.013878e-02 3.193837e-02 2.548288e-02 2.289899e-02 6.466435e-03 -3.653212e-03 3.321925e-03 4.839025e-04 -8.341603e-02 5.103007e-04 -1.895137e-03 7.155144e-04 -1.981308e-03 1.316772e-03 -2.325593e-03 -8.917570e-04 -2.196584e-03 5.617853e-05 1.590821e-03 1.367635e-03 1.075688e-03 2.960030e-03
<VARIANCE> 39
 7.273878e+01 5.014169e+01 4.853951e+01 1.105271e+02 6.602924e+01 8.667992e+01 7.118150e+01 5.391438e+01 6.251048e+01 5.037068e+01 4.467442e+01 3.051751e+01 1.117655e+02 1.700249e+00 3.004833e+00 2.287548e+00 3.435079e+00 2.667162e+00 4.505920e+00 3.562570e+00 3.372751e+00 2.761143e+00 2.524897e+00 2.390113e+00 1.899239e+00 2.225959e+00 2.421623e-01 4.936397e-01 3.786638e-01 5.852060e-01 4.663637e-01 7.413211e-01 6.314805e-01 5.808817e-01 4.893620e-01 4.550264e-01 4.470835e-01 3.487550e-01 2.955990e-01
<GCONST> 1.280051e+02
<STATE> 4
<MEAN> 39
 -4.795426e+00 3.068230e+00 -1.449863e-01 -3.101929e+00 -5.636892e+00 -3.598525e+00 -1.050145e+01 2.007427e+00 -9.634912e+00 -1.525373e+00 -4.054287e+00 -7.462507e-01 5.884143e+01 -6.287926e-02 2.117430e-02 1.816849e-02 3.799912e-02 -3.491732e-02 2.436903e-02 2.091137e-02 1.531930e-02 1.084466e-02 4.253001e-03 8.937773e-03 4.351512e-03 -6.991342e-02 1.416461e-03 -1.777167e-03 -2.793756e-04 -1.800429e-03 1.446986e-03 -2.103985e-03 -1.487158e-03 -2.449301e-03 4.999386e-04 1.813626e-03 1.223216e-03 1.200957e-03 3.058057e-03
<VARIANCE> 39
 7.323634e+01 4.973120e+01 4.771898e+01 1.106845e+02 6.511011e+01 8.726146e+01 7.003812e+01 5.374255e+01 6.355998e+01 4.934173e+01 4.519794e+01 3.089849e+01 1.118521e+02 1.623529e+00 2.895880e+00 2.241372e+00 3.362029e+00 2.683215e+00 4.439167e+00 3.470424e+00 3.311550e+00 2.775742e+00 2.484511e+00 2.341405e+00 1.853698e+00 2.122247e+00 2.274235e-01 4.737954e-01 3.686147e-01 5.729746e-01 4.674321e-01 7.368699e-01 6.166944e-01 5.691163e-01 4.905350e-01 4.498062e-01 4.367829e-01 3.389178e-01 2.815273e-01
<GCONST> 1.273908e+02
<TRANSP> 5
 0.000000e+00 1.000000e+00 0.000000e+00 0.000000e+00 0.000000e+00
 0.000000e+00 7.281525e-01 2.718475e-01 0.000000e+00 0.000000e+00
 0.000000e+00 0.000000e+00 7.281526e-01 2.718474e-01 0.000000e+00
 0.000000e+00 0.000000e+00 0.000000e+00 8.546615e-01 1.453384e-01
 0.000000e+00 0.000000e+00 0.000000e+00 0.000000e+00 0.000000e+00
<ENDHMM>
~h "r"
<BEGINHMM>
<NUMSTATES> 5
<STATE> 2
<MEAN> 39
 -3.570755e+00 -1.007834e-01 -5.665648e-01 -6.221947e+00 -4.762313e+00 -5.001019e+00 -9.533662e+00 -1.002821e+00 -1.033624e+01 -7.125531e-01 -2.334184e+00 5.468519e-02 6.310170e+01 1.329082e-02 3.118238e-02 -1.699957e-02 3.302602e-02 -1.283717e-02 1.201258e-03 3.804003e-03 3.405258e-03 1.660442e-02 3.863980e-03 -3.141300e-03 -1.946182e-02 -2.459393e-02 -3.032225e-03 2.881473e-03 3.237149e-03 1.633773e-03 -2.522455e-03 1.143313e-04 3.732876e-03 1.503979e-03 9.836479e-04 1.482912e-03 -4.614639e-03 -2.993642e-03 -3.392563e-03
<VARIANCE> 39
 7.771305e+01 6.291116e+01 6.635303e+01 1.038914e+02 7.056802e+01 8.854242e+01 7.787227e+01 5.333361e+01 7.368054e+01 4.648820e+01 4.184909e+01 2.940596e+01 1.106776e+02 3.180216e+00 4.582029e+00 3.374949e+00 4.871434e+00 2.863611e+00 4.539970e+00 4.871505e+00 3.295925e+00 3.857508e+00 2.869776e+00 2.658759e+00 2.249280e+00 3.516595e+00 4.930707e-01 7.945099e-01 6.002404e-01 8.786881e-01 4.837953e-01 7.480357e-01 8.706536e-01 6.132430e-01 6.968871e-01 5.228785e-01 4.890324e-01 4.231967e-01 4.826243e-01
<GCONST> 1.357789e+02
<STATE> 3
<MEAN> 39
 -3.547322e+00 3.058385e-02 -6.050162e-01 -6.085192e+00 -4.835668e+00 -4.981160e+00 -9.506763e+00 -9.770404e-01 -1.025287e+01 -6.807446e-01 -2.381614e+00 -3.473852e-02 6.297731e+01 5.421021e-03 4.009407e-02 -3.981182e-03 4.186779e-02 -2.032491e-02 3.985713e-03 8.106147e-03 1.107524e-02 1.912134e-02 7.157373e-03 -1.759798e-02 -2.944324e-02 -3.647828e-02 -2.386736e-03 2.114835e-03 3.875781e-03 2.666524e-03 -2.053099e-03 1.724480e-03 1.159251e-03 2.066355e-03 6.203192e-04 8.651584e-04 -3.653988e-03 -2.472309e-03 -3.451604e-03
<VARIANCE> 39
 7.716893e+01 6.356583e+01 6.558465e+01 1.042535e+02 7.043413e+01 8.863486e+01 7.747495e+01 5.334453e+01 7.284962e+01 4.655445e+01 4.108329e+01 2.937823e+01 1.113413e+02 3.095453e+00 4.517757e+00 3.301819e+00 4.839219e+00 2.847562e+00 4.545241e+00 4.847511e+00 3.287789e+00 3.819876e+00 2.863996e+00 2.632683e+00 2.228401e+00 3.493276e+00 4.801427e-01 7.782815e-01 5.875598e-01 8.680412e-01 4.801409e-01 7.463787e-01 8.690581e-01 6.114800e-01 6.871791e-01 5.216804e-01 4.859563e-01 4.191771e-01 4.788048e-01
<GCONST> 1.354903e+02
<STATE> 4
<MEAN> 39
 -3.624732e+00 1.678836e-01 -5.562530e-01 -5.691670e+00 -5.041394e+00 -4.814607e+00 -9.324583e+00 -9.881726e-01 -1.019033e+01 -4.719446e-01 -2.518788e+00 -1.981197e-01 6.267727e+01 9.717831e-03 3.491720e-02 2.505314e-03 3.306992e-02 -1.658342e-02 1.258781e-02 -3.483391e-03 1.471545e-02 1.875183e-02 1.207586e-02 -2.141383e-02 -2.807434e-02 -3.050612e-02 1.259640e-04 -2.804087e-04 1.734258e-03 -8.265820e-04 5.333440e-04 2.109861e-03 -1.093194e-03 9.748533e-04 -4.051225e-04 2.926496e-04 -9.858271e-04 -5.395614e-05 2.646537e-04
<VARIANCE> 39
 7.715793e+01 6.489066e+01 6.411079e+01 1.043417e+02 6.923397e+01 8.912984e+01 7.908463e+01 5.420635e+01 7.472208e+01 4.625658e+01 3.955823e+01 3.000093e+01 1.107584e+02 2.977349e+00 4.391073e+00 3.196785e+00 4.787145e+00 2.841680e+00 4.543076e+00 4.848627e+00 3.281375e+00 3.820070e+00 2.838902e+00 2.593941e+00 2.232103e+00 3.420559e+00 4.554075e-01 7.460810e-01 5.663163e-01 8.474299e-01 4.775770e-01 7.429904e-01 8.679087e-01 6.075482e-01 6.800953e-01 5.143599e-01 4.790910e-01 4.162393e-01 4.623697e-01
<GCONST> 1.350987e+02
<TRANSP> 5
 0.000000e+00 1.000000e+00 0.000000e+00 0.000000e+00 0.000000e+00
 0.000000e+00 7.306388e-01 2.693612e-01 0.000000e+00 0.000000e+00
 0.000000e+00 0.000000e+00 7.306378e-01 2.693622e-01 0.000000e+00
 0.000000e+00 0.000000e+00 0.000000e+00 8.575812e-01 1.424188e-01
 0.000000e+00 0.000000e+00 0.000000e+00 0.000000e+00 0.000000e+00
<ENDHMM>
~h "s"
<BEGINHMM>
<NUMSTATES> 5
<STATE> 2
<MEAN> 39
 -7.890540e+00 2.616661e-01 2.050409e+00 -5.747242e+00 -3.531982e+00 -4.888136e+00 -8.728380e+00 -1.665951e+00 -8.586717e+00 -7.252967e-01 -3.018612e+00 -3.073814e-01 6.192283e+01 5.616460e-02 1.025582e-02 3.156897e-02 1.234756e-02 1.320953e-02 -4.601460e-02 -3.451812e-02 -1.379989e-02 -3.509713e-02 -1.060595e-02 -1.765857e-02 -1.113196e-02 4.290881e-02 1.257953e-02 1.830641e-03 -1.384941e-02 5.193343e-03 -4.382398e-03 2.536429e-03 -4.259941e-03 3.071298e-03 -5.174164e-03 -9.689600e-06 1.682473e-03 4.416005e-04 -2.059990e-03
<VARIANCE> 39
 1.182755e+02 6.227032e+01 8.205947e+01 1.218361e+02 7.091695e+01 9.782987e+01 6.920010e+01 5.206860e+01 7.072175e+01 4.279945e+01 3.915745e+01 2.392558e+01 1.364115e+02 4.077318e+00 2.986393e+00 3.741572e+00 3.727212e+00 2.479072e+00 3.939921e+00 3.491006e+00 2.880567e+00 3.571736e+00 2.460185e+00 2.217316e+00 1.713724e+00 2.095701e+00 4.955228e-01 4.854653e-01 5.513372e-01 6.294470e-01 4.182516e-01 6.471251e-01 6.220915e-01 5.176664e-01 6.201413e-01 4.519835e-01 4.096017e-01 3.303168e-01 2.797917e-01
<GCONST> 1.311006e+02
<STATE> 3
<MEAN> 39
 -7.632513e+00 2.850744e-01 2.086901e+00 -5.702017e+00 -3.503079e+00 -5.024794e+00 -8.874354e+00 -1.696841e+00 -8.743792e+00 -7.633067e-01 -3.084942e+00 -3.410330e-01 6.206509e+01 8.258747e-02 1.144483e-02 1.071665e-03 1.651353e-02 1.669172e-03 -3.815866e-02 -4.552100e-02 -4.467708e-03 -5.010080e-02 -1.252368e-02 -1.746348e-02 -1.048367e-02 3.565411e-02 7.789535e-03 3.576423e-04 -9.030293e-03 1.381933e-03 -3.570942e-03 2.769035e-03 -3.446857e-03 2.944838e-03 -4.040589e-03 -6.302976e-04 -4.955403e-04 -1.925116e-04 -2.466156e-03
<VARIANCE> 39
 1.170418e+02 6.282638e+01 8.191837e+01 1.211877e+02 7.088699e+01 9.826229e+01 6.926519e+01 5.213033e+01 6.973118e+01 4.299708e+01 3.948945e+01 2.401323e+01 1.365299e+02 4.130687e+00 3.084870e+00 3.686287e+00 3.798720e+00 2.512023e+00 3.961246e+00 3.516769e+00 2.877704e+00 3.583080e+00 2.490953e+00 2.236883e+00 1.721833e+00 2.143121e+00 5.069861e-01 5.013322e-01 5.507180e-01 6.393961e-01 4.220008e-01 6.473098e-01 6.298118e-01 5.168589e-01 6.177441e-01 4.588297e-01 4.136326e-01 3.300064e-01 2.872838e-01
<GCONST> 1.313636e+02
<STATE> 4
<MEAN> 39
 -7.324825e+00 2.095969e-01 2.116346e+00 -5.349833e+00 -3.519765e+00 -5.194290e+00 -8.969712e+00 -1.634967e+00 -9.114714e+00 -7.155873e-01 -3.298301e+00 -3.830435e-01 6.207852e+01 7.405441e-02 2.042324e-03 -5.672779e-03 1.004800e-03 -4.078967e-03 -2.717944e-02 -4.290694e-02 5.956675e-03 -4.256767e-02 -1.408398e-02 -1.715156e-02 -9.988152e-03 3.169690e-02 2.457009e-04 -6.734075e-04 -2.042887e-03 -1.554537e-03 -1.596672e-03 1.700851e-03 3.066731e-04 2.410327e-03 1.024567e-03 -6.052905e-04 -3.445001e-04 -4.554267e-04 -8.872342e-04
<VARIANCE> 39
 1.127733e+02 6.492472e+01 8.108359e+01 1.204970e+02 7.116479e+01 1.033696e+02 7.081736e+01 5.248143e+01 6.890096e+01 4.301686e+01 4.099632e+01 2.458040e+01 1.373213e+02 3.885992e+00 3.166441e+00 3.589600e+00 3.858998e+00 2.559669e+00 3.977886e+00 3.479868e+00 2.835379e+00 3.440171e+00 2.486650e+00 2.227862e+00 1.726988e+00 2.121306e+00 4.773751e-01 5.106077e-01 5.363302e-01 6.410921e-01 4.221708e-01 6.408859e-01 6.217594e-01 5.070550e-01 5.883276e-01 4.558285e-01 4.110840e-01 3.283942e-01 2.788490e-01
<GCONST> 1.311765e+02
<TRANSP> 5
 0.000000e+00 1.000000e+00 0.000000e+00 0.000000e+00 0.000000e+00
 0.000000e+00 7.286326e-01 2.713674e-01 0.000000e+00 0.000000e+00
 0.000000e+00 0.000000e+00 7.286311e-01 2.713689e-01 0.000000e+00
 0.000000e+00 0.000000e+00 0.000000e+00 8.562914e-01 1.437085e-01
 0.000000e+00 0.000000e+00 0.000000e+00 0.000000e+00 0.000000e+00
<ENDHMM>
~h "t"
<BEGINHMM>
<NUMSTATES> 5
<STATE> 2
<MEAN> 39
 -4.123908e+00 4.898606e-01 1.017680e+00 -5.096024e+00 -5.486205e+00 -5.167514e+00 -9.575503e+00 2.996742e-01 -9.979293e+00 -8.570818e-01 -3.587799e+00 -4.820054e-01 6.237627e+01 9.811059e-03 2.160068e-02 -9.977140e-03 4.664746e-02 -1.097743e-02 2.123333e-04 -2.803079e-02 -1.020196e-03 -1.194191e-02 4.614217e-03 -5.470992e-03 8.939574e-04 -3.536357e-02 4.889843e-05 1.037574e-03 -8.828822e-04 7.249470e-04 5.450606e-04 3.126826e-04 -1.637575e-03 6.396225e-04 -5.917305e-04 -8.468600e-04 -1.196368e-04 -9.438695e-04 -1.311876e-03
<VARIANCE> 39
 8.191058e+01 7.212859e+01 7.236691e+01 1.029268e+02 8.510321e+01 9.177015e+01 7.972900e+01 5.898727e+01 8.129613e+01 4.630863e+01 4.271392e+01 3.382970e+01 1.079397e+02 2.757525e+00 4.487872e+00 3.078828e+00 4.476017e+00 3.139805e+00 4.515729e+00 4.131140e+00 3.803206e+00 3.882059e+00 2.930327e+00 2.594223e+00 2.058142e+00 3.245933e+00 3.815362e-01 7.568147e-01 5.072803e-01 7.762989e-01 5.169489e-01 7.355984e-01 7.262598e-01 6.863556e-01 6.456605e-01 5.365283e-01 4.722714e-01 3.742908e-01 4.472556e-01
<GCONST> 1.352813e+02
<STATE> 3
<MEAN> 39
 -4.085326e+00 5.777417e-01 9.745531e-01 -4.928329e+00 -5.525332e+00 -5.171782e+00 -9.685125e+00 2.993930e-01 -1.002713e+01 -8.511065e-01 -3.610826e+00 -4.822848e-01 6.224354e+01 8.407083e-03 2.475708e-02 -1.259451e-02 4.802935e-02 -8.042278e-03 1.957889e-03 -3.237213e-02 7.214338e-04 -1.275828e-02 1.957323e-03 -5.308844e-03 -1.580777e-03 -3.974431e-02 -7.570136e-04 7.007342e-04 -7.156123e-04 2.745693e-04 1.340010e-03 8.139340e-04 -9.827372e-04 5.120587e-04 9.258671e-05 -7.916120e-04 2.128049e-04 -6.115815e-04 -1.211568e-03
<VARIANCE> 39
 7.999508e+01 7.110645e+01 7.073840e+01 1.024757e+02 8.504013e+01 9.282287e+01 7.940478e+01 5.859721e+01 8.148188e+01 4.604308e+01 4.240220e+01 3.373441e+01 1.087100e+02 2.666448e+00 4.437597e+00 3.008427e+00 4.438247e+00 3.117527e+00 4.495080e+00 4.102076e+00 3.790943e+00 3.846816e+00 2.913798e+00 2.580132e+00 2.048049e+00 3.212021e+00 3.713523e-01 7.503322e-01 4.973732e-01 7.690814e-01 5.123340e-01 7.273983e-01 7.199683e-01 6.849450e-01 6.392896e-01 5.351911e-01 4.696203e-01 3.727376e-01 4.424095e-01
<GCONST> 1.349468e+02
<STATE> 4
<MEAN> 39
 -4.175419e+00 6.954077e-01 9.767397e-01 -4.432871e+00 -5.689085e+00 -5.200169e+00 -9.698923e+00 3.430808e-01 -1.032676e+01 -7.998611e-01 -3.761813e+00 -5.286090e-01 6.184292e+01 3.550459e-03 2.608714e-02 -1.375747e-02 4.285300e-02 -1.568292e-03 3.371091e-03 -3.284481e-02 1.549697e-03 -1.071548e-02 -2.022625e-03 -3.351634e-03 -1.947454e-03 -4.053226e-02 -1.306048e-03 -1.928185e-06 -5.267994e-04 -5.372897e-04 1.650590e-03 9.884950e-04 -2.180290e-04 1.590168e-04 7.210202e-04 -5.834326e-04 4.574427e-04 -1.364370e-04 -6.916418e-04
<VARIANCE> 39
 7.616438e+01 7.048827e+01 6.814449e+01 1.017793e+02 8.397837e+01 9.557772e+01 7.995260e+01 5.800748e+01 8.267936e+01 4.513081e+01 4.254552e+01 3.408352e+01 1.109469e+02 2.485619e+00 4.352762e+00 2.894143e+00 4.352603e+00 3.047452e+00 4.444540e+00 4.051529e+00 3.742220e+00 3.773987e+00 2.847475e+00 2.548052e+00 2.027137e+00 3.144301e+00 3.489828e-01 7.373858e-01 4.790641e-01 7.556775e-01 5.003979e-01 7.089955e-01 7.075866e-01 6.749871e-01 6.224164e-01 5.262320e-01 4.610808e-01 3.670223e-01 4.312749e-01
<GCONST> 1.342748e+02
<TRANSP> 5
 0.000000e+00 1.000000e+00 0.000000e+00 0.000000e+00 0.000000e+00
 0.000000e+00 7.305844e-01 2.694156e-01 0.000000e+00 0.000000e+00
 0.000000e+00 0.000000e+00 7.305856e-01 2.694145e-01 0.000000e+00
 0.000000e+00 0.000000e+00 0.000000e+00 8.582350e-01 1.417651e-01
 0.000000e+00 0.000000e+00 0.000000e+00 0.000000e+00 0.000000e+00
<ENDHMM>
~h "u"
<BEGINHMM>
<NUMSTATES> 5
<STATE> 2
<MEAN> 39
 -2.720980e+00 1.497486e+00 1.697837e+00 -6.325845e+00 -4.600629e+00 -6.135267e+00 -1.095907e+01 1.369966e+00 -1.207402e+01 -2.901209e+00 -4.785478e+00 -1.793290e+00 6.346453e+01 5.920722e-03 -1.074873e-02 -3.208031e-03 -8.227414e-03 -1.493424e-02 -5.207525e-03 9.852832e-03 3.880801e-03 -1.743380e-02 4.426625e-04 2.009592e-03 7.059551e-04 6.176733e-03 -2.649607e-03 2.143625e-04 1.969363e-03 8.911219e-04 1.093105e-03 1.117200e-03 4.654730e-04 -2.432931e-03 1.811211e-03 1.163303e-03 1.644086e-03 6.871547e-04 -8.688566e-04
<VARIANCE> 39
 7.643744e+01 7.025254e+01 7.214631e+01 1.148386e+02 8.194597e+01 1.061935e+02 9.193204e+01 6.386432e+01 9.164886e+01 5.970180e+01 5.237141e+01 4.359910e+01 1.008227e+02 2.397306e+00 4.383634e+00 3.154057e+00 4.442122e+00 3.377252e+00 5.293606e+00 4.535869e+00 3.978289e+00 4.150920e+00 3.201656e+00 2.873314e+00 2.291673e+00 2.789113e+00 3.412969e-01 7.522551e-01 5.043064e-01 7.322062e-01 5.652370e-01 8.406524e-01 7.966921e-01 6.859695e-01 6.887839e-01 5.695209e-01 5.272665e-01 4.099256e-01 3.823795e-01
<GCONST> 1.371240e+02
<STATE> 3
<MEAN> 39
 -2.710930e+00 1.459939e+00 1.712839e+00 -6.350296e+00 -4.649155e+00 -6.149619e+00 -1.092411e+01 1.376617e+00 -1.214007e+01 -2.897179e+00 -4.772662e+00 -1.796098e+00 6.348721e+01 -2.252733e-03 -1.070875e-02 3.424282e-03 -4.662696e-03 -9.908575e-03 -1.371670e-03 9.892332e-03 -3.672369e-03 -1.205646e-02 4.692887e-03 6.167304e-03 2.445155e-03 3.682757e-03 -2.030515e-03 7.213299e-06 1.789489e-03 1.013123e-03 1.487059e-03 8.642370e-04 4.402652e-05 -2.054533e-03 1.497429e-03 1.203908e-03 9.302874e-04 4.187409e-04 -4.945311e-04
<VARIANCE> 39
 7.595992e+01 7.011887e+01 7.210186e+01 1.145826e+02 8.203983e+01 1.062664e+02 9.174335e+01 6.373065e+01 9.161110e+01 5.983658e+01 5.215020e+01 4.375497e+01 1.012978e+02 2.399997e+00 4.366710e+00 3.151238e+00 4.471868e+00 3.349855e+00 5.278573e+00 4.536104e+00 3.981686e+00 4.134493e+00 3.204019e+00 2.867024e+00 2.279943e+00 2.799593e+00 3.444774e-01 7.477180e-01 5.045696e-01 7.390028e-01 5.618318e-01 8.379304e-01 7.971025e-01 6.864153e-01 6.874594e-01 5.695549e-01 5.261087e-01 4.063558e-01 3.845645e-01
<GCONST> 1.371004e+02
<STATE> 4
<MEAN> 39
 -2.816279e+00 1.384966e+00 1.937003e+00 -6.110200e+00 -4.875887e+00 -6.241933e+00 -1.068306e+01 1.394068e+00 -1.245026e+01 -2.812527e+00 -4.895964e+00 -1.926359e+00 6.339809e+01 -6.599016e-03 -8.097704e-03 9.487640e-03 6.311422e-04 -3.925022e-03 5.328375e-03 5.534586e-03 -6.341462e-03 -6.242835e-03 6.552140e-03 5.333652e-03 2.730501e-03 1.431518e-04 -9.771400e-04 2.184177e-04 6.466205e-04 1.074039e-03 1.388930e-03 8.353947e-04 -2.906437e-04 -1.045088e-03 1.429248e-03 8.424803e-04 4.753401e-05 5.547976e-04 -5.463789e-04
<VARIANCE> 39
 7.536380e+01 7.107512e+01 7.204316e+01 1.138256e+02 8.375423e+01 1.078009e+02 9.274657e+01 6.377494e+01 9.240703e+01 5.941887e+01 5.224777e+01 4.502990e+01 1.020764e+02 2.381011e+00 4.337776e+00 3.141081e+00 4.445705e+00 3.329533e+00 5.257218e+00 4.510705e+00 3.958881e+00 4.073983e+00 3.167272e+00 2.846477e+00 2.251687e+00 2.770551e+00 3.435901e-01 7.369971e-01 5.008468e-01 7.392952e-01 5.570354e-01 8.323149e-01 7.932257e-01 6.817548e-01 6.767670e-01 5.605267e-01 5.203563e-01 3.968229e-01 3.781724e-01
<GCONST> 1.369494e+02
<TRANSP> 5
 0.000000e+00 1.000000e+00 0.000000e+00 0.000000e+00 0.000000e+00
 0.000000e+00 7.329695e-01 2.670305e-01 0.000000e+00 0.000000e+00
 0.000000e+00 0.000000e+00 7.329684e-01 2.670315e-01 0.000000e+00
 0.000000e+00 0.000000e+00 0.000000e+00 8.603315e-01 1.396686e-01
 0.000000e+00 0.000000e+00 0.000000e+00 0.000000e+00 0.000000e+00
<ENDHMM>
~h "w"
<BEGINHMM>
<NUMSTATES> 5
<STATE> 2
<MEAN> 39
 -3.124305e+00 1.485796e+00 -8.466700e-01 -4.849490e+00 -1.020955e+01 -5.696027e+00 -9.887644e+00 4.281229e-01 -9.212255e+00 5.254319e-01 -3.276062e+00 -1.442435e+00 6.060698e+01 -3.578033e-02 -1.395026e-02 -8.033703e-02 5.117244e-02 8.019482e-02 5.094937e-02 -9.518920e-02 -2.958012e-02 8.913840e-02 3.269665e-02 5.988783e-02 1.343493e-02 -5.805580e-02 -1.773148e-03 -2.824357e-03 -4.601052e-03 -1.754403e-04 3.381551e-03 7.016230e-03 1.169514e-03 1.785801e-03 3.330838e-03 -5.298430e-04 3.401536e-03 3.854336e-03 -1.672959e-03
<VARIANCE> 39
 6.447935e+01 6.393721e+01 3.829095e+01 7.373988e+01 9.546869e+01 9.029195e+01 8.197972e+01 4.732982e+01 7.748338e+01 4.199289e+01 3.954466e+01 3.260366e+01 9.066547e+01 2.459872e+00 4.034605e+00 2.120665e+00 3.292089e+00 3.282454e+00 3.821686e+00 3.910202e+00 3.147573e+00 3.293787e+00 2.945475e+00 2.321177e+00 2.022795e+00 3.367292e+00 3.389484e-01 7.073022e-01 3.766406e-01 5.771057e-01 4.976813e-01 5.167720e-01 7.145250e-01 5.743091e-01 5.459099e-01 5.330032e-01 4.087071e-01 3.503744e-01 4.724402e-01
<GCONST> 1.302091e+02
<STATE> 3
<MEAN> 39
 -3.260792e+00 1.443676e+00 -1.134961e+00 -4.632870e+00 -9.943994e+00 -5.507288e+00 -1.021461e+01 3.254851e-01 -8.885083e+00 6.477327e-01 -3.049247e+00 -1.386992e+00 6.037693e+01 -4.051428e-02 -2.148697e-02 -9.408492e-02 5.171364e-02 9.121662e-02 7.350115e-02 -9.136310e-02 -2.464412e-02 9.946479e-02 3.145963e-02 7.078170e-02 2.657486e-02 -6.341416e-02 -1.709697e-03 -1.408706e-03 -3.215691e-03 4.232596e-04 2.632548e-03 6.684201e-03 2.142891e-03 1.781103e-03 2.425962e-03 -5.245388e-04 2.947942e-03 4.208860e-03 -2.066366e-03
<VARIANCE> 39
 6.441570e+01 6.312967e+01 3.859811e+01 7.269225e+01 9.457937e+01 8.956464e+01 8.124795e+01 4.602072e+01 7.547391e+01 4.155381e+01 3.927296e+01 3.256306e+01 9.129140e+01 2.399289e+00 3.910193e+00 2.033109e+00 3.149740e+00 3.247932e+00 3.717915e+00 3.902961e+00 3.133030e+00 3.195605e+00 2.939140e+00 2.258317e+00 1.997736e+00 3.265260e+00 3.334942e-01 6.794742e-01 3.607216e-01 5.485895e-01 4.866713e-01 5.010520e-01 7.110598e-01 5.724043e-01 5.353398e-01 5.344896e-01 3.990958e-01 3.461370e-01 4.551849e-01
<GCONST> 1.295046e+02
<STATE> 4
<MEAN> 39
 -3.751938e+00 1.400648e+00 -1.297496e+00 -3.973544e+00 -9.859808e+00 -5.315804e+00 -1.023910e+01 2.200567e-01 -8.898491e+00 9.094840e-01 -2.844632e+00 -1.369826e+00 5.976975e+01 -4.232100e-02 -2.138725e-02 -9.622777e-02 6.293981e-02 9.096450e-02 8.610786e-02 -8.018807e-02 -2.339092e-02 1.022494e-01 3.294297e-02 7.632195e-02 3.796410e-02 -6.925065e-02 -1.102300e-03 -7.757938e-05 -1.468952e-03 1.001841e-03 1.746344e-03 4.800556e-03 2.571234e-03 1.116002e-03 9.246090e-04 -2.790925e-04 1.773898e-03 3.570535e-03 -1.739897e-03
<VARIANCE> 39
 6.295332e+01 6.167488e+01 3.792355e+01 7.136591e+01 9.228889e+01 8.920354e+01 7.981985e+01 4.516211e+01 7.576499e+01 3.989545e+01 3.849804e+01 3.406301e+01 9.257665e+01 2.258691e+00 3.883832e+00 1.860489e+00 2.979837e+00 3.186409e+00 3.535452e+00 3.704731e+00 3.030238e+00 3.116204e+00 2.850502e+00 2.199020e+00 2.040328e+00 3.182987e+00 3.158464e-01 6.760314e-01 3.300571e-01 5.148738e-01 4.710536e-01 4.757077e-01 6.655056e-01 5.497208e-01 5.206450e-01 5.219750e-01 3.886133e-01 3.527955e-01 4.400594e-01
<GCONST> 1.284106e+02
<TRANSP> 5
 0.000000e+00 1.000000e+00 0.000000e+00 0.000000e+00 0.000000e+00
 0.000000e+00 7.237865e-01 2.762135e-01 0.000000e+00 0.000000e+00
 0.000000e+00 0.000000e+00 7.237871e-01 2.762129e-01 0.000000e+00
 0.000000e+00 0.000000e+00 0.000000e+00 8.525048e-01 1.474952e-01
 0.000000e+00 0.000000e+00 0.000000e+00 0.000000e+00 0.000000e+00
<ENDHMM>
~h "eu"
<BEGINHMM>
<NUMSTATES> 5
<STATE> 2
<MEAN> 39
 -3.181185e+00 5.872899e-02 2.041791e+00 -7.118837e+00 -2.951240e+00 -6.198916e+00 -9.711249e+00 -1.007700e+00 -1.185655e+01 -2.157500e+00 -3.743979e+00 -1.166330e-02 6.524075e+01 2.746395e-02 -1.671604e-02 -2.954141e-02 -7.856174e-03 -3.114723e-02 -7.049615e-04 9.232481e-04 4.054795e-03 5.941986e-03 9.716197e-03 1.381233e-02 7.052202e-03 1.111489e-02 -2.420255e-03 -6.010244e-04 7.142004e-04 -4.236359e-05 -5.551785e-04 7.156039e-04 -2.326663e-04 1.074246e-03 2.335173e-03 3.088621e-04 -5.943783e-04 -6.828534e-04 -1.282107e-03
<VARIANCE> 39
 9.455138e+01 6.558719e+01 7.225960e+01 1.063214e+02 7.193829e+01 8.561960e+01 7.878113e+01 6.214615e+01 8.298151e+01 4.878534e+01 4.789037e+01 3.202685e+01 1.015418e+02 3.506906e+00 3.936730e+00 3.663554e+00 4.784100e+00 2.774324e+00 4.257821e+00 4.493561e+00 3.437000e+00 4.110427e+00 2.897819e+00 2.743266e+00 2.008480e+00 2.706612e+00 4.807311e-01 6.385203e-01 5.903912e-01 8.101646e-01 4.624450e-01 7.111068e-01 8.028984e-01 6.078950e-01 7.057590e-01 5.214183e-01 4.922521e-01 3.684520e-01 3.680682e-01
<GCONST> 1.352609e+02
<STATE> 3
<MEAN> 39
 -3.119482e+00 -1.535360e-02 1.950768e+00 -7.154018e+00 -3.053155e+00 -6.192685e+00 -9.696512e+00 -9.949374e-01 -1.180931e+01 -2.113640e+00 -3.694019e+00 1.447530e-02 6.527562e+01 1.625735e-02 -1.788183e-02 -2.478698e-02 -7.844755e-03 -3.008130e-02 9.445880e-04 1.174789e-03 6.290975e-03 1.475160e-02 1.176265e-02 1.253026e-02 4.948270e-03 6.918531e-03 -3.738563e-03 -4.375429e-04 1.753366e-03 -5.199486e-05 6.789973e-04 4.198204e-04 2.699989e-04 4.707118e-04 2.597885e-03 5.500477e-04 -3.269661e-04 -6.315988e-04 -1.117427e-03
<VARIANCE> 39
 9.393645e+01 6.527513e+01 7.228596e+01 1.072141e+02 7.158423e+01 8.613738e+01 7.908898e+01 6.186611e+01 8.246998e+01 4.852177e+01 4.761222e+01 3.195240e+01 1.016603e+02 3.506870e+00 3.931466e+00 3.660694e+00 4.788494e+00 2.780880e+00 4.252701e+00 4.504628e+00 3.426625e+00 4.091929e+00 2.887055e+00 2.738116e+00 2.015507e+00 2.713916e+00 4.804618e-01 6.395733e-01 5.884244e-01 8.108981e-01 4.637148e-01 7.089576e-01 8.034222e-01 6.058087e-01 7.034858e-01 5.205314e-01 4.921222e-01 3.703050e-01 3.676303e-01
<GCONST> 1.352300e+02
<STATE> 4
<MEAN> 39
 -3.190427e+00 -1.803090e-01 1.952155e+00 -6.980992e+00 -3.258260e+00 -6.210314e+00 -9.483902e+00 -9.146208e-01 -1.196350e+01 -1.962823e+00 -3.781532e+00 -6.903884e-02 6.518455e+01 -3.989055e-03 -1.894057e-02 -1.281374e-02 -6.229897e-03 -1.914776e-02 4.658222e-03 3.504234e-03 1.151472e-03 2.344820e-02 1.801953e-02 1.148436e-02 3.937262e-03 1.031694e-03 -3.267303e-03 1.392592e-04 1.911048e-03 5.411848e-04 1.465014e-03 2.188075e-04 1.872210e-04 -5.720701e-04 1.236449e-03 7.629815e-04 -2.551750e-04 -5.353132e-04 -1.132025e-03
<VARIANCE> 39
 9.315164e+01 6.644155e+01 7.193656e+01 1.079590e+02 7.048892e+01 8.887965e+01 8.018833e+01 6.240226e+01 8.443275e+01 4.861269e+01 4.727640e+01 3.221966e+01 1.025630e+02 3.359947e+00 3.900751e+00 3.541824e+00 4.692967e+00 2.754987e+00 4.263216e+00 4.429831e+00 3.369602e+00 4.040573e+00 2.846191e+00 2.686680e+00 2.014919e+00 2.678336e+00 4.570201e-01 6.326136e-01 5.650321e-01 7.940261e-01 4.564622e-01 7.074360e-01 7.860709e-01 5.931357e-01 6.925693e-01 5.117791e-01 4.801832e-01 3.699426e-01 3.572742e-01
<GCONST> 1.348415e+02
<TRANSP> 5
 0.000000e+00 1.000000e+00 0.000000e+00 0.000000e+00 0.000000e+00
 0.000000e+00 7.282468e-01 2.717532e-01 0.000000e+00 0.000000e+00
 0.000000e+00 0.000000e+00 7.282469e-01 2.717531e-01 0.000000e+00
 0.000000e+00 0.000000e+00 0.000000e+00 8.556755e-01 1.443245e-01
 0.000000e+00 0.000000e+00 0.000000e+00 0.000000e+00 0.000000e+00
<ENDHMM>
~h "ng"
<BEGINHMM>
<NUMSTATES> 5
<STATE> 2
<MEAN> 39
 -1.643010e+00 3.050393e-01 1.451672e+00 -6.902689e+00 -5.420204e+00 -6.432025e+00 -9.529550e+00 -8.169664e-01 -1.262174e+01 -1.621783e+00 -4.082633e+00 -4.812205e-01 6.492762e+01 2.384612e-02 -1.897376e-02 1.765885e-02 1.183264e-02 -1.377935e-02 -1.272131e-02 -1.183811e-04 -1.607188e-02 -8.025138e-03 2.606323e-02 -4.914985e-03 -3.867353e-02 2.796231e-02 -2.362381e-04 -2.973689e-04 9.386413e-04 2.148452e-04 2.040198e-03 -3.087790e-03 -2.877253e-03 1.521522e-04 -1.451112e-03 -2.768490e-04 -8.375549e-04 -1.559519e-03 5.833210e-04
<VARIANCE> 39
 6.055207e+01 7.215799e+01 6.419625e+01 9.685243e+01 7.521121e+01 9.303635e+01 8.422894e+01 6.265421e+01 7.838693e+01 4.830885e+01 5.025142e+01 3.720457e+01 9.469735e+01 3.446379e+00 5.438774e+00 4.008087e+00 5.707732e+00 3.263596e+00 5.407432e+00 5.480357e+00 3.849708e+00 4.590344e+00 3.360924e+00 3.135455e+00 2.321886e+00 3.884054e+00 5.579489e-01 9.466767e-01 7.163500e-01 1.029351e+00 5.559210e-01 8.763162e-01 9.955103e-01 7.163931e-01 8.207901e-01 6.271636e-01 5.715268e-01 4.405583e-01 5.379334e-01
<GCONST> 1.399382e+02
<STATE> 3
<MEAN> 39
 -1.551347e+00 2.245048e-01 1.519502e+00 -6.858060e+00 -5.443401e+00 -6.508796e+00 -9.558036e+00 -8.908833e-01 -1.265919e+01 -1.526689e+00 -4.106410e+00 -6.222956e-01 6.504781e+01 2.199116e-02 -1.844765e-02 1.985398e-02 1.336481e-02 -6.897978e-03 -2.175707e-02 -9.812298e-03 -1.656306e-02 -1.076663e-02 2.464856e-02 -6.475678e-03 -4.240838e-02 2.793047e-02 -7.165204e-04 4.579973e-04 6.724359e-04 5.172119e-04 2.167286e-03 -2.168254e-03 -2.767226e-03 -5.162000e-04 -5.542833e-04 -5.268219e-04 -3.046371e-04 -7.668270e-04 -2.354290e-04
<VARIANCE> 39
 5.927197e+01 7.349104e+01 6.482663e+01 9.621770e+01 7.583646e+01 9.447272e+01 8.585938e+01 6.277402e+01 7.925607e+01 4.827670e+01 5.014950e+01 3.788597e+01 9.329452e+01 3.476414e+00 5.552894e+00 4.001153e+00 5.742626e+00 3.264957e+00 5.451814e+00 5.562734e+00 3.875856e+00 4.666165e+00 3.384747e+00 3.132313e+00 2.338060e+00 3.959355e+00 5.622929e-01 9.675586e-01 7.127846e-01 1.036127e+00 5.552521e-01 8.772684e-01 1.007157e+00 7.209503e-01 8.299473e-01 6.282008e-01 5.723314e-01 4.440362e-01 5.472685e-01
<GCONST> 1.401955e+02
<STATE> 4
<MEAN> 39
 -1.466394e+00 7.129158e-02 1.670337e+00 -6.636092e+00 -5.476597e+00 -6.674202e+00 -9.549826e+00 -1.130002e+00 -1.296446e+01 -1.334142e+00 -4.255666e+00 -9.199412e-01 6.516605e+01 1.822635e-02 -1.451022e-02 1.798211e-02 1.331352e-02 1.563757e-03 -2.632803e-02 -1.945454e-02 -2.012819e-02 -8.118775e-03 2.167713e-02 -6.294098e-03 -4.025925e-02 2.482934e-02 -1.265081e-03 1.340859e-03 5.511141e-06 2.508431e-04 1.446241e-03 -1.815948e-04 -1.546017e-03 -4.856769e-04 5.308770e-04 -7.159478e-04 1.379170e-04 8.159222e-05 -1.376744e-03
<VARIANCE> 39
 5.726576e+01 7.505486e+01 6.446499e+01 9.622691e+01 7.585916e+01 9.949477e+01 8.794352e+01 6.410671e+01 8.319695e+01 4.917078e+01 4.949754e+01 3.952319e+01 9.181892e+01 3.363487e+00 5.617404e+00 3.835537e+00 5.780372e+00 3.226152e+00 5.540537e+00 5.576619e+00 3.877943e+00 4.786784e+00 3.394092e+00 3.088322e+00 2.392237e+00 4.005543e+00 5.411965e-01 9.761935e-01 6.768678e-01 1.039611e+00 5.484461e-01 8.851789e-01 1.002817e+00 7.149920e-01 8.396860e-01 6.211169e-01 5.625488e-01 4.506833e-01 5.504508e-01
<GCONST> 1.402626e+02
<TRANSP> 5
 0.000000e+00 1.000000e+00 0.000000e+00 0.000000e+00 0.000000e+00
 0.000000e+00 7.278287e-01 2.721712e-01 0.000000e+00 0.000000e+00
 0.000000e+00 0.000000e+00 7.278278e-01 2.721723e-01 0.000000e+00
 0.000000e+00 0.000000e+00 0.000000e+00 8.543643e-01 1.456357e-01
 0.000000e+00 0.000000e+00 0.000000e+00 0.000000e+00 0.000000e+00
<ENDHMM>
~h "wa"
<BEGINHMM>
<NUMSTATES> 5
<STATE> 2
<MEAN> 39
 1.081842e+00 2.301301e+00 2.967501e+00 -9.823490e+00 -2.862098e+00 -7.860373e+00 -1.288456e+01 2.105478e+00 -1.549138e+01 -6.110985e+00 -6.454695e+00 -2.378705e+00 6.741504e+01 -1.243104e-02 -2.026120e-02 -2.265167e-02 -2.319768e-02 -1.016522e-02 -2.750729e-03 9.754075e-03 -2.289706e-02 7.804920e-03 8.678727e-04 1.497801e-02 1.982945e-02 1.006211e-02 -2.089675e-03 -1.015380e-03 9.891730e-04 1.010856e-03 -8.008747e-04 -1.508229e-04 2.191263e-03 -3.039670e-04 7.808873e-04 1.367563e-03 2.056674e-04 -8.092645e-04 -3.994816e-04
<VARIANCE> 39
 4.475171e+01 7.402733e+01 6.213465e+01 1.055795e+02 7.873911e+01 1.109361e+02 1.086396e+02 8.497455e+01 7.377094e+01 6.715560e+01 6.077254e+01 3.959989e+01 5.446228e+01 1.936215e+00 5.071899e+00 3.252286e+00 5.115632e+00 3.871990e+00 7.062626e+00 5.631675e+00 4.610781e+00 3.928061e+00 3.923892e+00 3.808732e+00 2.555897e+00 2.707998e+00 2.740627e-01 8.730456e-01 5.121261e-01 8.365222e-01 6.892913e-01 1.146489e+00 1.028361e+00 7.574766e-01 6.938378e-01 6.522259e-01 7.020655e-01 4.478359e-01 3.821754e-01
<GCONST> 1.390623e+02
<STATE> 3
<MEAN> 39
 1.027226e+00 2.220018e+00 2.877719e+00 -9.921167e+00 -2.922606e+00 -7.874408e+00 -1.281433e+01 2.041486e+00 -1.546128e+01 -6.093057e+00 -6.387303e+00 -2.310863e+00 6.745242e+01 -2.042540e-02 -2.474156e-02 -1.925245e-02 -1.862256e-02 -1.411107e-02 -2.455240e-03 1.868439e-02 -2.401156e-02 1.167263e-02 7.283983e-03 1.573025e-02 1.739694e-02 7.924773e-03 -1.919265e-03 -1.192382e-03 1.047308e-03 1.507511e-03 -9.397843e-04 1.949867e-04 2.455898e-03 -8.031494e-05 7.691375e-04 1.636611e-03 8.327395e-05 -6.114650e-04 -5.354251e-04
<VARIANCE> 39
 4.626271e+01 7.390005e+01 6.234040e+01 1.047286e+02 7.941778e+01 1.108441e+02 1.089024e+02 8.611861e+01 7.464509e+01 6.729790e+01 6.072188e+01 3.960382e+01 5.354738e+01 1.987503e+00 5.025578e+00 3.284638e+00 5.056240e+00 3.886643e+00 7.117557e+00 5.647273e+00 4.665481e+00 4.000794e+00 3.906071e+00 3.788272e+00 2.551550e+00 2.715872e+00 2.803130e-01 8.644536e-01 5.160860e-01 8.309388e-01 6.893171e-01 1.153279e+00 1.032153e+00 7.664089e-01 7.061682e-01 6.499923e-01 6.998617e-01 4.483547e-01 3.842238e-01
<GCONST> 1.392122e+02
<STATE> 4
<MEAN> 39
 8.678162e-01 2.038552e+00 2.913638e+00 -9.779336e+00 -3.243267e+00 -7.987664e+00 -1.239190e+01 1.963968e+00 -1.569243e+01 -5.928769e+00 -6.417376e+00 -2.363983e+00 6.743557e+01 -2.739041e-02 -3.054070e-02 -1.705596e-02 -1.393906e-02 -2.491140e-02 6.893466e-05 3.567915e-02 -1.786387e-02 1.783071e-02 1.984537e-02 1.806478e-02 1.519681e-02 4.462129e-03 -1.396675e-03 -1.130609e-03 9.518562e-04 2.060081e-03 -8.607241e-04 6.475151e-04 2.214735e-03 -5.807643e-05 9.973630e-04 1.844695e-03 -1.648237e-04 -1.952694e-04 -7.144406e-04
<VARIANCE> 39
 4.907169e+01 7.369861e+01 6.189288e+01 1.059895e+02 8.040006e+01 1.087096e+02 1.114118e+02 8.959447e+01 7.727079e+01 6.767453e+01 5.958767e+01 4.107426e+01 5.356972e+01 2.035326e+00 4.847201e+00 3.305473e+00 4.863003e+00 3.845162e+00 6.961672e+00 5.580498e+00 4.668146e+00 4.129887e+00 3.887721e+00 3.679024e+00 2.552337e+00 2.680060e+00 2.832516e-01 8.227473e-01 5.165734e-01 7.986557e-01 6.715950e-01 1.127925e+00 1.019030e+00 7.605855e-01 7.230662e-01 6.472192e-01 6.804803e-01 4.496509e-01 3.750139e-01
<GCONST> 1.391056e+02
<TRANSP> 5
 0.000000e+00 1.000000e+00 0.000000e+00 0.000000e+00 0.000000e+00
 0.000000e+00 7.375838e-01 2.624162e-01 0.000000e+00 0.000000e+00
 0.000000e+00 0.000000e+00 7.375841e-01 2.624160e-01 0.000000e+00
 0.000000e+00 0.000000e+00 0.000000e+00 8.648731e-01 1.351269e-01
 0.000000e+00 0.000000e+00 0.000000e+00 0.000000e+00 0.000000e+00
<ENDHMM>
~h "sil"
<BEGINHMM>
<NUMSTATES> 5
<STATE> 2
<MEAN> 39
 -1.301532e+01 4.663496e+00 -3.243495e+00 2.637418e+00 -7.900877e+00 1.333863e+00 -8.864292e+00 6.417423e-01 -5.102440e+00 1.332146e+00 -3.191841e-01 5.555748e-01 4.902610e+01 -9.630760e-02 -3.551643e-02 3.440022e-02 -1.353011e-01 -1.521400e-02 2.179300e-02 -7.253717e-03 5.838906e-02 2.775327e-02 -2.603553e-02 -7.470367e-03 1.706530e-02 -1.677514e-02 -5.083545e-03 -1.136645e-02 4.600901e-02 2.029778e-02 2.915055e-02 -3.550102e-02 -2.002129e-03 -1.412716e-02 -2.490693e-02 -1.894688e-02 -3.527683e-02 -1.404156e-02 2.275768e-02
<VARIANCE> 39
 1.054431e+01 1.626812e+01 2.207623e+01 2.950298e+01 2.758181e+01 2.262635e+01 2.863868e+01 1.807996e+01 1.773458e+01 1.304749e+01 1.628791e+01 1.305429e+01 2.647130e+01 4.534820e-01 7.072361e-01 1.018469e+00 1.462096e+00 1.116500e+00 1.402052e+00 1.264089e+00 1.159434e+00 1.228197e+00 1.090090e+00 1.176518e+00 1.013119e+00 3.563802e-01 6.227544e-02 1.284092e-01 1.785778e-01 2.042217e-01 2.096055e-01 2.229481e-01 2.320669e-01 2.021517e-01 2.063018e-01 1.944549e-01 2.068073e-01 1.804159e-01 4.862204e-02
<GCONST> 8.580264e+01
<STATE> 3
<MEAN> 39
 -1.326653e+01 4.521933e+00 -2.839879e+00 2.369055e+00 -7.752479e+00 1.136473e+00 -8.965108e+00 6.846926e-01 -5.143104e+00 1.170292e+00 -4.681502e-01 5.214773e-01 4.916851e+01 -5.133142e-02 -3.049785e-02 1.364084e-01 -7.068536e-02 4.267875e-02 -9.231123e-02 -2.936826e-02 2.162230e-03 -3.282971e-02 -4.708378e-02 -4.994875e-02 -1.372727e-02 6.411446e-02 1.470984e-02 5.148275e-03 2.204042e-02 1.142805e-02 7.217034e-03 -2.899331e-02 -1.084896e-02 -1.873248e-02 -1.358747e-02 -4.683476e-03 -1.051922e-02 -7.144731e-03 2.080432e-02
<VARIANCE> 39
 1.417366e+01 1.966049e+01 2.575441e+01 4.075808e+01 3.133381e+01 2.684408e+01 2.768036e+01 1.935344e+01 2.126480e+01 1.438503e+01 1.522042e+01 1.291112e+01 3.186509e+01 7.818203e-01 1.046654e+00 1.543581e+00 1.743245e+00 1.301464e+00 1.512071e+00 1.553946e+00 1.261340e+00 1.453500e+00 1.135019e+00 1.191316e+00 1.092692e+00 5.663812e-01 1.027728e-01 1.891003e-01 2.513224e-01 2.978811e-01 2.484546e-01 2.866073e-01 3.107160e-01 2.495259e-01 2.760198e-01 2.262757e-01 2.294804e-01 2.198142e-01 7.580715e-02
<GCONST> 9.401065e+01
<STATE> 4
<MEAN> 39
 -1.316165e+01 4.459964e+00 -2.423286e+00 2.331861e+00 -7.548810e+00 7.578683e-01 -9.165131e+00 6.312588e-01 -5.300008e+00 1.019364e+00 -5.438133e-01 5.136381e-01 4.954256e+01 3.302804e-02 -8.622022e-03 7.662889e-02 -5.588219e-02 7.383977e-03 -1.085714e-01 -4.977378e-02 -1.096519e-02 -4.870093e-02 -3.415842e-02 -5.489552e-02 -1.555094e-02 8.841544e-02 1.282454e-02 8.957212e-04 -1.329822e-02 9.395077e-04 -5.652724e-03 -2.621649e-03 -1.302194e-02 -6.748871e-03 -4.674481e-03 -2.870377e-03 -1.181913e-02 -2.546015e-03 3.979293e-03
<VARIANCE> 39
 1.972505e+01 2.295848e+01 2.713625e+01 4.542743e+01 3.416654e+01 3.338135e+01 2.720537e+01 2.076062e+01 2.462668e+01 1.588133e+01 1.542830e+01 1.343203e+01 4.343515e+01 8.668858e-01 1.159732e+00 1.522939e+00 1.624929e+00 1.192431e+00 1.570707e+00 1.676294e+00 1.311121e+00 1.544221e+00 1.171274e+00 1.190983e+00 1.126271e+00 5.979632e-01 1.156600e-01 2.077946e-01 2.511325e-01 2.925855e-01 2.162492e-01 2.851388e-01 3.244373e-01 2.441632e-01 2.936313e-01 2.232866e-01 2.260984e-01 2.154597e-01 8.207244e-02
<GCONST> 9.615067e+01
<TRANSP> 5
 0.000000e+00 1.000000e+00 0.000000e+00 0.000000e+00 0.000000e+00
 0.000000e+00 7.334719e-01 2.665281e-01 0.000000e+00 0.000000e+00
 0.000000e+00 0.000000e+00 7.334719e-01 2.665281e-01 0.000000e+00
 0.000000e+00 0.000000e+00 0.000000e+00 8.609858e-01 1.390142e-01
 0.000000e+00 0.000000e+00 0.000000e+00 0.000000e+00 0.000000e+00
<ENDHMM>
