~h "b"
<BEGINHMM>
<NUMSTATES> 5
<STATE> 2
<MEAN> 39
 -4.811611e+00 1.177586e+00 1.067453e+00 -4.528101e+00 -4.340594e+00 -5.046365e+00 -1.013185e+01 -7.832596e-02 -1.039485e+01 -1.255214e+00 -3.644695e+00 -7.160273e-01 6.166460e+01 -3.518807e-05 3.810670e-03 1.215613e-03 4.570672e-03 -4.738993e-03 1.918005e-03 -6.761304e-03 4.938622e-03 -7.503949e-04 -1.214020e-05 -3.802789e-03 7.253408e-04 -8.307423e-03 3.781606e-04 6.884372e-05 2.967831e-04 9.789172e-04 1.755432e-04 -7.251091e-04 -6.271233e-04 -6.927004e-04 -6.495745e-04 -3.869625e-04 -1.033802e-03 -3.808808e-04 2.180009e-04
<VARIANCE> 39
 8.657864e+01 6.414537e+01 6.811550e+01 1.091095e+02 7.344627e+01 9.809328e+01 7.543467e+01 5.627457e+01 7.786460e+01 4.724791e+01 4.464614e+01 3.330733e+01 1.243701e+02 2.561950e+00 3.582235e+00 2.941767e+00 4.007164e+00 2.671690e+00 4.179763e+00 3.880723e+00 3.172116e+00 3.482715e+00 2.651966e+00 2.438188e+00 1.927238e+00 2.417243e+00 3.528423e-01 5.897332e-01 4.734533e-01 6.819677e-01 4.528930e-01 6.707358e-01 6.898253e-01 5.612794e-01 5.950338e-01 4.753156e-01 4.448683e-01 3.527509e-01 3.241901e-01
<GCONST> 1.319655e+02
<STATE> 3
<MEAN> 39
 -4.811611e+00 1.177586e+00 1.067453e+00 -4.528101e+00 -4.340594e+00 -5.046365e+00 -1.013185e+01 -7.832596e-02 -1.039485e+01 -1.255214e+00 -3.644695e+00 -7.160273e-01 6.166460e+01 -3.518807e-05 3.810670e-03 1.215613e-03 4.570672e-03 -4.738993e-03 1.918005e-03 -6.761304e-03 4.938622e-03 -7.503949e-04 -1.214020e-05 -3.802789e-03 7.253408e-04 -8.307423e-03 3.781606e-04 6.884372e-05 2.967831e-04 9.789172e-04 1.755432e-04 -7.251091e-04 -6.271233e-04 -6.927004e-04 -6.495745e-04 -3.869625e-04 -1.033802e-03 -3.808808e-04 2.180009e-04
<VARIANCE> 39
 8.657864e+01 6.414537e+01 6.811550e+01 1.091095e+02 7.344627e+01 9.809328e+01 7.543467e+01 5.627457e+01 7.786460e+01 4.724791e+01 4.464614e+01 3.330733e+01 1.243701e+02 2.561950e+00 3.582235e+00 2.941767e+00 4.007164e+00 2.671690e+00 4.179763e+00 3.880723e+00 3.172116e+00 3.482715e+00 2.651966e+00 2.438188e+00 1.927238e+00 2.417243e+00 3.528423e-01 5.897332e-01 4.734533e-01 6.819677e-01 4.528930e-01 6.707358e-01 6.898253e-01 5.612794e-01 5.950338e-01 4.753156e-01 4.448683e-01 3.527509e-01 3.241901e-01
<GCONST> 1.319655e+02
<STATE> 4
<MEAN> 39
 -4.811611e+00 1.177586e+00 1.067453e+00 -4.528101e+00 -4.340594e+00 -5.046365e+00 -1.013185e+01 -7.832596e-02 -1.039485e+01 -1.255214e+00 -3.644695e+00 -7.160273e-01 6.166460e+01 -3.518807e-05 3.810670e-03 1.215613e-03 4.570672e-03 -4.738993e-03 1.918005e-03 -6.761304e-03 4.938622e-03 -7.503949e-04 -1.214020e-05 -3.802789e-03 7.253408e-04 -8.307423e-03 3.781606e-04 6.884372e-05 2.967831e-04 9.789172e-04 1.755432e-04 -7.251091e-04 -6.271233e-04 -6.927004e-04 -6.495745e-04 -3.869625e-04 -1.033802e-03 -3.808808e-04 2.180009e-04
<VARIANCE> 39
 8.657864e+01 6.414537e+01 6.811550e+01 1.091095e+02 7.344627e+01 9.809328e+01 7.543467e+01 5.627457e+01 7.786460e+01 4.724791e+01 4.464614e+01 3.330733e+01 1.243701e+02 2.561950e+00 3.582235e+00 2.941767e+00 4.007164e+00 2.671690e+00 4.179763e+00 3.880723e+00 3.172116e+00 3.482715e+00 2.651966e+00 2.438188e+00 1.927238e+00 2.417243e+00 3.528423e-01 5.897332e-01 4.734533e-01 6.819677e-01 4.528930e-01 6.707358e-01 6.898253e-01 5.612794e-01 5.950338e-01 4.753156e-01 4.448683e-01 3.527509e-01 3.241901e-01
<GCONST> 1.319655e+02
<TRANSP> 5
 0.000000e+00 1.000000e+00 0.000000e+00 0.000000e+00 0.000000e+00
 0.000000e+00 6.000000e-01 4.000000e-01 0.000000e+00 0.000000e+00
 0.000000e+00 0.000000e+00 6.000000e-01 4.000000e-01 0.000000e+00
 0.000000e+00 0.000000e+00 0.000000e+00 7.000000e-01 3.000000e-01
 0.000000e+00 0.000000e+00 0.000000e+00 0.000000e+00 0.000000e+00
<ENDHMM>
~h "eu"
<BEGINHMM>
<NUMSTATES> 5
<STATE> 2
<MEAN> 39
 -4.811611e+00 1.177586e+00 1.067453e+00 -4.528101e+00 -4.340594e+00 -5.046365e+00 -1.013185e+01 -7.832596e-02 -1.039485e+01 -1.255214e+00 -3.644695e+00 -7.160273e-01 6.166460e+01 -3.518807e-05 3.810670e-03 1.215613e-03 4.570672e-03 -4.738993e-03 1.918005e-03 -6.761304e-03 4.938622e-03 -7.503949e-04 -1.214020e-05 -3.802789e-03 7.253408e-04 -8.307423e-03 3.781606e-04 6.884372e-05 2.967831e-04 9.789172e-04 1.755432e-04 -7.251091e-04 -6.271233e-04 -6.927004e-04 -6.495745e-04 -3.869625e-04 -1.033802e-03 -3.808808e-04 2.180009e-04
<VARIANCE> 39
 8.657864e+01 6.414537e+01 6.811550e+01 1.091095e+02 7.344627e+01 9.809328e+01 7.543467e+01 5.627457e+01 7.786460e+01 4.724791e+01 4.464614e+01 3.330733e+01 1.243701e+02 2.561950e+00 3.582235e+00 2.941767e+00 4.007164e+00 2.671690e+00 4.179763e+00 3.880723e+00 3.172116e+00 3.482715e+00 2.651966e+00 2.438188e+00 1.927238e+00 2.417243e+00 3.528423e-01 5.897332e-01 4.734533e-01 6.819677e-01 4.528930e-01 6.707358e-01 6.898253e-01 5.612794e-01 5.950338e-01 4.753156e-01 4.448683e-01 3.527509e-01 3.241901e-01
<GCONST> 1.319655e+02
<STATE> 3
<MEAN> 39
 -4.811611e+00 1.177586e+00 1.067453e+00 -4.528101e+00 -4.340594e+00 -5.046365e+00 -1.013185e+01 -7.832596e-02 -1.039485e+01 -1.255214e+00 -3.644695e+00 -7.160273e-01 6.166460e+01 -3.518807e-05 3.810670e-03 1.215613e-03 4.570672e-03 -4.738993e-03 1.918005e-03 -6.761304e-03 4.938622e-03 -7.503949e-04 -1.214020e-05 -3.802789e-03 7.253408e-04 -8.307423e-03 3.781606e-04 6.884372e-05 2.967831e-04 9.789172e-04 1.755432e-04 -7.251091e-04 -6.271233e-04 -6.927004e-04 -6.495745e-04 -3.869625e-04 -1.033802e-03 -3.808808e-04 2.180009e-04
<VARIANCE> 39
 8.657864e+01 6.414537e+01 6.811550e+01 1.091095e+02 7.344627e+01 9.809328e+01 7.543467e+01 5.627457e+01 7.786460e+01 4.724791e+01 4.464614e+01 3.330733e+01 1.243701e+02 2.561950e+00 3.582235e+00 2.941767e+00 4.007164e+00 2.671690e+00 4.179763e+00 3.880723e+00 3.172116e+00 3.482715e+00 2.651966e+00 2.438188e+00 1.927238e+00 2.417243e+00 3.528423e-01 5.897332e-01 4.734533e-01 6.819677e-01 4.528930e-01 6.707358e-01 6.898253e-01 5.612794e-01 5.950338e-01 4.753156e-01 4.448683e-01 3.527509e-01 3.241901e-01
<GCONST> 1.319655e+02
<STATE> 4
<MEAN> 39
 -4.811611e+00 1.177586e+00 1.067453e+00 -4.528101e+00 -4.340594e+00 -5.046365e+00 -1.013185e+01 -7.832596e-02 -1.039485e+01 -1.255214e+00 -3.644695e+00 -7.160273e-01 6.166460e+01 -3.518807e-05 3.810670e-03 1.215613e-03 4.570672e-03 -4.738993e-03 1.918005e-03 -6.761304e-03 4.938622e-03 -7.503949e-04 -1.214020e-05 -3.802789e-03 7.253408e-04 -8.307423e-03 3.781606e-04 6.884372e-05 2.967831e-04 9.789172e-04 1.755432e-04 -7.251091e-04 -6.271233e-04 -6.927004e-04 -6.495745e-04 -3.869625e-04 -1.033802e-03 -3.808808e-04 2.180009e-04
<VARIANCE> 39
 8.657864e+01 6.414537e+01 6.811550e+01 1.091095e+02 7.344627e+01 9.809328e+01 7.543467e+01 5.627457e+01 7.786460e+01 4.724791e+01 4.464614e+01 3.330733e+01 1.243701e+02 2.561950e+00 3.582235e+00 2.941767e+00 4.007164e+00 2.671690e+00 4.179763e+00 3.880723e+00 3.172116e+00 3.482715e+00 2.651966e+00 2.438188e+00 1.927238e+00 2.417243e+00 3.528423e-01 5.897332e-01 4.734533e-01 6.819677e-01 4.528930e-01 6.707358e-01 6.898253e-01 5.612794e-01 5.950338e-01 4.753156e-01 4.448683e-01 3.527509e-01 3.241901e-01
<GCONST> 1.319655e+02
<TRANSP> 5
 0.000000e+00 1.000000e+00 0.000000e+00 0.000000e+00 0.000000e+00
 0.000000e+00 6.000000e-01 4.000000e-01 0.000000e+00 0.000000e+00
 0.000000e+00 0.000000e+00 6.000000e-01 4.000000e-01 0.000000e+00
 0.000000e+00 0.000000e+00 0.000000e+00 7.000000e-01 3.000000e-01
 0.000000e+00 0.000000e+00 0.000000e+00 0.000000e+00 0.000000e+00
<ENDHMM>
~h "l"
<BEGINHMM>
<NUMSTATES> 5
<STATE> 2
<MEAN> 39
 -4.811611e+00 1.177586e+00 1.067453e+00 -4.528101e+00 -4.340594e+00 -5.046365e+00 -1.013185e+01 -7.832596e-02 -1.039485e+01 -1.255214e+00 -3.644695e+00 -7.160273e-01 6.166460e+01 -3.518807e-05 3.810670e-03 1.215613e-03 4.570672e-03 -4.738993e-03 1.918005e-03 -6.761304e-03 4.938622e-03 -7.503949e-04 -1.214020e-05 -3.802789e-03 7.253408e-04 -8.307423e-03 3.781606e-04 6.884372e-05 2.967831e-04 9.789172e-04 1.755432e-04 -7.251091e-04 -6.271233e-04 -6.927004e-04 -6.495745e-04 -3.869625e-04 -1.033802e-03 -3.808808e-04 2.180009e-04
<VARIANCE> 39
 8.657864e+01 6.414537e+01 6.811550e+01 1.091095e+02 7.344627e+01 9.809328e+01 7.543467e+01 5.627457e+01 7.786460e+01 4.724791e+01 4.464614e+01 3.330733e+01 1.243701e+02 2.561950e+00 3.582235e+00 2.941767e+00 4.007164e+00 2.671690e+00 4.179763e+00 3.880723e+00 3.172116e+00 3.482715e+00 2.651966e+00 2.438188e+00 1.927238e+00 2.417243e+00 3.528423e-01 5.897332e-01 4.734533e-01 6.819677e-01 4.528930e-01 6.707358e-01 6.898253e-01 5.612794e-01 5.950338e-01 4.753156e-01 4.448683e-01 3.527509e-01 3.241901e-01
<GCONST> 1.319655e+02
<STATE> 3
<MEAN> 39
 -4.811611e+00 1.177586e+00 1.067453e+00 -4.528101e+00 -4.340594e+00 -5.046365e+00 -1.013185e+01 -7.832596e-02 -1.039485e+01 -1.255214e+00 -3.644695e+00 -7.160273e-01 6.166460e+01 -3.518807e-05 3.810670e-03 1.215613e-03 4.570672e-03 -4.738993e-03 1.918005e-03 -6.761304e-03 4.938622e-03 -7.503949e-04 -1.214020e-05 -3.802789e-03 7.253408e-04 -8.307423e-03 3.781606e-04 6.884372e-05 2.967831e-04 9.789172e-04 1.755432e-04 -7.251091e-04 -6.271233e-04 -6.927004e-04 -6.495745e-04 -3.869625e-04 -1.033802e-03 -3.808808e-04 2.180009e-04
<VARIANCE> 39
 8.657864e+01 6.414537e+01 6.811550e+01 1.091095e+02 7.344627e+01 9.809328e+01 7.543467e+01 5.627457e+01 7.786460e+01 4.724791e+01 4.464614e+01 3.330733e+01 1.243701e+02 2.561950e+00 3.582235e+00 2.941767e+00 4.007164e+00 2.671690e+00 4.179763e+00 3.880723e+00 3.172116e+00 3.482715e+00 2.651966e+00 2.438188e+00 1.927238e+00 2.417243e+00 3.528423e-01 5.897332e-01 4.734533e-01 6.819677e-01 4.528930e-01 6.707358e-01 6.898253e-01 5.612794e-01 5.950338e-01 4.753156e-01 4.448683e-01 3.527509e-01 3.241901e-01
<GCONST> 1.319655e+02
<STATE> 4
<MEAN> 39
 -4.811611e+00 1.177586e+00 1.067453e+00 -4.528101e+00 -4.340594e+00 -5.046365e+00 -1.013185e+01 -7.832596e-02 -1.039485e+01 -1.255214e+00 -3.644695e+00 -7.160273e-01 6.166460e+01 -3.518807e-05 3.810670e-03 1.215613e-03 4.570672e-03 -4.738993e-03 1.918005e-03 -6.761304e-03 4.938622e-03 -7.503949e-04 -1.214020e-05 -3.802789e-03 7.253408e-04 -8.307423e-03 3.781606e-04 6.884372e-05 2.967831e-04 9.789172e-04 1.755432e-04 -7.251091e-04 -6.271233e-04 -6.927004e-04 -6.495745e-04 -3.869625e-04 -1.033802e-03 -3.808808e-04 2.180009e-04
<VARIANCE> 39
 8.657864e+01 6.414537e+01 6.811550e+01 1.091095e+02 7.344627e+01 9.809328e+01 7.543467e+01 5.627457e+01 7.786460e+01 4.724791e+01 4.464614e+01 3.330733e+01 1.243701e+02 2.561950e+00 3.582235e+00 2.941767e+00 4.007164e+00 2.671690e+00 4.179763e+00 3.880723e+00 3.172116e+00 3.482715e+00 2.651966e+00 2.438188e+00 1.927238e+00 2.417243e+00 3.528423e-01 5.897332e-01 4.734533e-01 6.819677e-01 4.528930e-01 6.707358e-01 6.898253e-01 5.612794e-01 5.950338e-01 4.753156e-01 4.448683e-01 3.527509e-01 3.241901e-01
<GCONST> 1.319655e+02
<TRANSP> 5
 0.000000e+00 1.000000e+00 0.000000e+00 0.000000e+00 0.000000e+00
 0.000000e+00 6.000000e-01 4.000000e-01 0.000000e+00 0.000000e+00
 0.000000e+00 0.000000e+00 6.000000e-01 4.000000e-01 0.000000e+00
 0.000000e+00 0.000000e+00 0.000000e+00 7.000000e-01 3.000000e-01
 0.000000e+00 0.000000e+00 0.000000e+00 0.000000e+00 0.000000e+00
<ENDHMM>
~h "a"
<BEGINHMM>
<NUMSTATES> 5
<STATE> 2
<MEAN> 39
 -4.811611e+00 1.177586e+00 1.067453e+00 -4.528101e+00 -4.340594e+00 -5.046365e+00 -1.013185e+01 -7.832596e-02 -1.039485e+01 -1.255214e+00 -3.644695e+00 -7.160273e-01 6.166460e+01 -3.518807e-05 3.810670e-03 1.215613e-03 4.570672e-03 -4.738993e-03 1.918005e-03 -6.761304e-03 4.938622e-03 -7.503949e-04 -1.214020e-05 -3.802789e-03 7.253408e-04 -8.307423e-03 3.781606e-04 6.884372e-05 2.967831e-04 9.789172e-04 1.755432e-04 -7.251091e-04 -6.271233e-04 -6.927004e-04 -6.495745e-04 -3.869625e-04 -1.033802e-03 -3.808808e-04 2.180009e-04
<VARIANCE> 39
 8.657864e+01 6.414537e+01 6.811550e+01 1.091095e+02 7.344627e+01 9.809328e+01 7.543467e+01 5.627457e+01 7.786460e+01 4.724791e+01 4.464614e+01 3.330733e+01 1.243701e+02 2.561950e+00 3.582235e+00 2.941767e+00 4.007164e+00 2.671690e+00 4.179763e+00 3.880723e+00 3.172116e+00 3.482715e+00 2.651966e+00 2.438188e+00 1.927238e+00 2.417243e+00 3.528423e-01 5.897332e-01 4.734533e-01 6.819677e-01 4.528930e-01 6.707358e-01 6.898253e-01 5.612794e-01 5.950338e-01 4.753156e-01 4.448683e-01 3.527509e-01 3.241901e-01
<GCONST> 1.319655e+02
<STATE> 3
<MEAN> 39
 -4.811611e+00 1.177586e+00 1.067453e+00 -4.528101e+00 -4.340594e+00 -5.046365e+00 -1.013185e+01 -7.832596e-02 -1.039485e+01 -1.255214e+00 -3.644695e+00 -7.160273e-01 6.166460e+01 -3.518807e-05 3.810670e-03 1.215613e-03 4.570672e-03 -4.738993e-03 1.918005e-03 -6.761304e-03 4.938622e-03 -7.503949e-04 -1.214020e-05 -3.802789e-03 7.253408e-04 -8.307423e-03 3.781606e-04 6.884372e-05 2.967831e-04 9.789172e-04 1.755432e-04 -7.251091e-04 -6.271233e-04 -6.927004e-04 -6.495745e-04 -3.869625e-04 -1.033802e-03 -3.808808e-04 2.180009e-04
<VARIANCE> 39
 8.657864e+01 6.414537e+01 6.811550e+01 1.091095e+02 7.344627e+01 9.809328e+01 7.543467e+01 5.627457e+01 7.786460e+01 4.724791e+01 4.464614e+01 3.330733e+01 1.243701e+02 2.561950e+00 3.582235e+00 2.941767e+00 4.007164e+00 2.671690e+00 4.179763e+00 3.880723e+00 3.172116e+00 3.482715e+00 2.651966e+00 2.438188e+00 1.927238e+00 2.417243e+00 3.528423e-01 5.897332e-01 4.734533e-01 6.819677e-01 4.528930e-01 6.707358e-01 6.898253e-01 5.612794e-01 5.950338e-01 4.753156e-01 4.448683e-01 3.527509e-01 3.241901e-01
<GCONST> 1.319655e+02
<STATE> 4
<MEAN> 39
 -4.811611e+00 1.177586e+00 1.067453e+00 -4.528101e+00 -4.340594e+00 -5.046365e+00 -1.013185e+01 -7.832596e-02 -1.039485e+01 -1.255214e+00 -3.644695e+00 -7.160273e-01 6.166460e+01 -3.518807e-05 3.810670e-03 1.215613e-03 4.570672e-03 -4.738993e-03 1.918005e-03 -6.761304e-03 4.938622e-03 -7.503949e-04 -1.214020e-05 -3.802789e-03 7.253408e-04 -8.307423e-03 3.781606e-04 6.884372e-05 2.967831e-04 9.789172e-04 1.755432e-04 -7.251091e-04 -6.271233e-04 -6.927004e-04 -6.495745e-04 -3.869625e-04 -1.033802e-03 -3.808808e-04 2.180009e-04
<VARIANCE> 39
 8.657864e+01 6.414537e+01 6.811550e+01 1.091095e+02 7.344627e+01 9.809328e+01 7.543467e+01 5.627457e+01 7.786460e+01 4.724791e+01 4.464614e+01 3.330733e+01 1.243701e+02 2.561950e+00 3.582235e+00 2.941767e+00 4.007164e+00 2.671690e+00 4.179763e+00 3.880723e+00 3.172116e+00 3.482715e+00 2.651966e+00 2.438188e+00 1.927238e+00 2.417243e+00 3.528423e-01 5.897332e-01 4.734533e-01 6.819677e-01 4.528930e-01 6.707358e-01 6.898253e-01 5.612794e-01 5.950338e-01 4.753156e-01 4.448683e-01 3.527509e-01 3.241901e-01
<GCONST> 1.319655e+02
<TRANSP> 5
 0.000000e+00 1.000000e+00 0.000000e+00 0.000000e+00 0.000000e+00
 0.000000e+00 6.000000e-01 4.000000e-01 0.000000e+00 0.000000e+00
 0.000000e+00 0.000000e+00 6.000000e-01 4.000000e-01 0.000000e+00
 0.000000e+00 0.000000e+00 0.000000e+00 7.000000e-01 3.000000e-01
 0.000000e+00 0.000000e+00 0.000000e+00 0.000000e+00 0.000000e+00
<ENDHMM>
~h "n"
<BEGINHMM>
<NUMSTATES> 5
<STATE> 2
<MEAN> 39
 -4.811611e+00 1.177586e+00 1.067453e+00 -4.528101e+00 -4.340594e+00 -5.046365e+00 -1.013185e+01 -7.832596e-02 -1.039485e+01 -1.255214e+00 -3.644695e+00 -7.160273e-01 6.166460e+01 -3.518807e-05 3.810670e-03 1.215613e-03 4.570672e-03 -4.738993e-03 1.918005e-03 -6.761304e-03 4.938622e-03 -7.503949e-04 -1.214020e-05 -3.802789e-03 7.253408e-04 -8.307423e-03 3.781606e-04 6.884372e-05 2.967831e-04 9.789172e-04 1.755432e-04 -7.251091e-04 -6.271233e-04 -6.927004e-04 -6.495745e-04 -3.869625e-04 -1.033802e-03 -3.808808e-04 2.180009e-04
<VARIANCE> 39
 8.657864e+01 6.414537e+01 6.811550e+01 1.091095e+02 7.344627e+01 9.809328e+01 7.543467e+01 5.627457e+01 7.786460e+01 4.724791e+01 4.464614e+01 3.330733e+01 1.243701e+02 2.561950e+00 3.582235e+00 2.941767e+00 4.007164e+00 2.671690e+00 4.179763e+00 3.880723e+00 3.172116e+00 3.482715e+00 2.651966e+00 2.438188e+00 1.927238e+00 2.417243e+00 3.528423e-01 5.897332e-01 4.734533e-01 6.819677e-01 4.528930e-01 6.707358e-01 6.898253e-01 5.612794e-01 5.950338e-01 4.753156e-01 4.448683e-01 3.527509e-01 3.241901e-01
<GCONST> 1.319655e+02
<STATE> 3
<MEAN> 39
 -4.811611e+00 1.177586e+00 1.067453e+00 -4.528101e+00 -4.340594e+00 -5.046365e+00 -1.013185e+01 -7.832596e-02 -1.039485e+01 -1.255214e+00 -3.644695e+00 -7.160273e-01 6.166460e+01 -3.518807e-05 3.810670e-03 1.215613e-03 4.570672e-03 -4.738993e-03 1.918005e-03 -6.761304e-03 4.938622e-03 -7.503949e-04 -1.214020e-05 -3.802789e-03 7.253408e-04 -8.307423e-03 3.781606e-04 6.884372e-05 2.967831e-04 9.789172e-04 1.755432e-04 -7.251091e-04 -6.271233e-04 -6.927004e-04 -6.495745e-04 -3.869625e-04 -1.033802e-03 -3.808808e-04 2.180009e-04
<VARIANCE> 39
 8.657864e+01 6.414537e+01 6.811550e+01 1.091095e+02 7.344627e+01 9.809328e+01 7.543467e+01 5.627457e+01 7.786460e+01 4.724791e+01 4.464614e+01 3.330733e+01 1.243701e+02 2.561950e+00 3.582235e+00 2.941767e+00 4.007164e+00 2.671690e+00 4.179763e+00 3.880723e+00 3.172116e+00 3.482715e+00 2.651966e+00 2.438188e+00 1.927238e+00 2.417243e+00 3.528423e-01 5.897332e-01 4.734533e-01 6.819677e-01 4.528930e-01 6.707358e-01 6.898253e-01 5.612794e-01 5.950338e-01 4.753156e-01 4.448683e-01 3.527509e-01 3.241901e-01
<GCONST> 1.319655e+02
<STATE> 4
<MEAN> 39
 -4.811611e+00 1.177586e+00 1.067453e+00 -4.528101e+00 -4.340594e+00 -5.046365e+00 -1.013185e+01 -7.832596e-02 -1.039485e+01 -1.255214e+00 -3.644695e+00 -7.160273e-01 6.166460e+01 -3.518807e-05 3.810670e-03 1.215613e-03 4.570672e-03 -4.738993e-03 1.918005e-03 -6.761304e-03 4.938622e-03 -7.503949e-04 -1.214020e-05 -3.802789e-03 7.253408e-04 -8.307423e-03 3.781606e-04 6.884372e-05 2.967831e-04 9.789172e-04 1.755432e-04 -7.251091e-04 -6.271233e-04 -6.927004e-04 -6.495745e-04 -3.869625e-04 -1.033802e-03 -3.808808e-04 2.180009e-04
<VARIANCE> 39
 8.657864e+01 6.414537e+01 6.811550e+01 1.091095e+02 7.344627e+01 9.809328e+01 7.543467e+01 5.627457e+01 7.786460e+01 4.724791e+01 4.464614e+01 3.330733e+01 1.243701e+02 2.561950e+00 3.582235e+00 2.941767e+00 4.007164e+00 2.671690e+00 4.179763e+00 3.880723e+00 3.172116e+00 3.482715e+00 2.651966e+00 2.438188e+00 1.927238e+00 2.417243e+00 3.528423e-01 5.897332e-01 4.734533e-01 6.819677e-01 4.528930e-01 6.707358e-01 6.898253e-01 5.612794e-01 5.950338e-01 4.753156e-01 4.448683e-01 3.527509e-01 3.241901e-01
<GCONST> 1.319655e+02
<TRANSP> 5
 0.000000e+00 1.000000e+00 0.000000e+00 0.000000e+00 0.000000e+00
 0.000000e+00 6.000000e-01 4.000000e-01 0.000000e+00 0.000000e+00
 0.000000e+00 0.000000e+00 6.000000e-01 4.000000e-01 0.000000e+00
 0.000000e+00 0.000000e+00 0.000000e+00 7.000000e-01 3.000000e-01
 0.000000e+00 0.000000e+00 0.000000e+00 0.000000e+00 0.000000e+00
<ENDHMM>
~h "j"
<BEGINHMM>
<NUMSTATES> 5
<STATE> 2
<MEAN> 39
 -4.811611e+00 1.177586e+00 1.067453e+00 -4.528101e+00 -4.340594e+00 -5.046365e+00 -1.013185e+01 -7.832596e-02 -1.039485e+01 -1.255214e+00 -3.644695e+00 -7.160273e-01 6.166460e+01 -3.518807e-05 3.810670e-03 1.215613e-03 4.570672e-03 -4.738993e-03 1.918005e-03 -6.761304e-03 4.938622e-03 -7.503949e-04 -1.214020e-05 -3.802789e-03 7.253408e-04 -8.307423e-03 3.781606e-04 6.884372e-05 2.967831e-04 9.789172e-04 1.755432e-04 -7.251091e-04 -6.271233e-04 -6.927004e-04 -6.495745e-04 -3.869625e-04 -1.033802e-03 -3.808808e-04 2.180009e-04
<VARIANCE> 39
 8.657864e+01 6.414537e+01 6.811550e+01 1.091095e+02 7.344627e+01 9.809328e+01 7.543467e+01 5.627457e+01 7.786460e+01 4.724791e+01 4.464614e+01 3.330733e+01 1.243701e+02 2.561950e+00 3.582235e+00 2.941767e+00 4.007164e+00 2.671690e+00 4.179763e+00 3.880723e+00 3.172116e+00 3.482715e+00 2.651966e+00 2.438188e+00 1.927238e+00 2.417243e+00 3.528423e-01 5.897332e-01 4.734533e-01 6.819677e-01 4.528930e-01 6.707358e-01 6.898253e-01 5.612794e-01 5.950338e-01 4.753156e-01 4.448683e-01 3.527509e-01 3.241901e-01
<GCONST> 1.319655e+02
<STATE> 3
<MEAN> 39
 -4.811611e+00 1.177586e+00 1.067453e+00 -4.528101e+00 -4.340594e+00 -5.046365e+00 -1.013185e+01 -7.832596e-02 -1.039485e+01 -1.255214e+00 -3.644695e+00 -7.160273e-01 6.166460e+01 -3.518807e-05 3.810670e-03 1.215613e-03 4.570672e-03 -4.738993e-03 1.918005e-03 -6.761304e-03 4.938622e-03 -7.503949e-04 -1.214020e-05 -3.802789e-03 7.253408e-04 -8.307423e-03 3.781606e-04 6.884372e-05 2.967831e-04 9.789172e-04 1.755432e-04 -7.251091e-04 -6.271233e-04 -6.927004e-04 -6.495745e-04 -3.869625e-04 -1.033802e-03 -3.808808e-04 2.180009e-04
<VARIANCE> 39
 8.657864e+01 6.414537e+01 6.811550e+01 1.091095e+02 7.344627e+01 9.809328e+01 7.543467e+01 5.627457e+01 7.786460e+01 4.724791e+01 4.464614e+01 3.330733e+01 1.243701e+02 2.561950e+00 3.582235e+00 2.941767e+00 4.007164e+00 2.671690e+00 4.179763e+00 3.880723e+00 3.172116e+00 3.482715e+00 2.651966e+00 2.438188e+00 1.927238e+00 2.417243e+00 3.528423e-01 5.897332e-01 4.734533e-01 6.819677e-01 4.528930e-01 6.707358e-01 6.898253e-01 5.612794e-01 5.950338e-01 4.753156e-01 4.448683e-01 3.527509e-01 3.241901e-01
<GCONST> 1.319655e+02
<STATE> 4
<MEAN> 39
 -4.811611e+00 1.177586e+00 1.067453e+00 -4.528101e+00 -4.340594e+00 -5.046365e+00 -1.013185e+01 -7.832596e-02 -1.039485e+01 -1.255214e+00 -3.644695e+00 -7.160273e-01 6.166460e+01 -3.518807e-05 3.810670e-03 1.215613e-03 4.570672e-03 -4.738993e-03 1.918005e-03 -6.761304e-03 4.938622e-03 -7.503949e-04 -1.214020e-05 -3.802789e-03 7.253408e-04 -8.307423e-03 3.781606e-04 6.884372e-05 2.967831e-04 9.789172e-04 1.755432e-04 -7.251091e-04 -6.271233e-04 -6.927004e-04 -6.495745e-04 -3.869625e-04 -1.033802e-03 -3.808808e-04 2.180009e-04
<VARIANCE> 39
 8.657864e+01 6.414537e+01 6.811550e+01 1.091095e+02 7.344627e+01 9.809328e+01 7.543467e+01 5.627457e+01 7.786460e+01 4.724791e+01 4.464614e+01 3.330733e+01 1.243701e+02 2.561950e+00 3.582235e+00 2.941767e+00 4.007164e+00 2.671690e+00 4.179763e+00 3.880723e+00 3.172116e+00 3.482715e+00 2.651966e+00 2.438188e+00 1.927238e+00 2.417243e+00 3.528423e-01 5.897332e-01 4.734533e-01 6.819677e-01 4.528930e-01 6.707358e-01 6.898253e-01 5.612794e-01 5.950338e-01 4.753156e-01 4.448683e-01 3.527509e-01 3.241901e-01
<GCONST> 1.319655e+02
<TRANSP> 5
 0.000000e+00 1.000000e+00 0.000000e+00 0.000000e+00 0.000000e+00
 0.000000e+00 6.000000e-01 4.000000e-01 0.000000e+00 0.000000e+00
 0.000000e+00 0.000000e+00 6.000000e-01 4.000000e-01 0.000000e+00
 0.000000e+00 0.000000e+00 0.000000e+00 7.000000e-01 3.000000e-01
 0.000000e+00 0.000000e+00 0.000000e+00 0.000000e+00 0.000000e+00
<ENDHMM>
~h "s"
<BEGINHMM>
<NUMSTATES> 5
<STATE> 2
<MEAN> 39
 -4.811611e+00 1.177586e+00 1.067453e+00 -4.528101e+00 -4.340594e+00 -5.046365e+00 -1.013185e+01 -7.832596e-02 -1.039485e+01 -1.255214e+00 -3.644695e+00 -7.160273e-01 6.166460e+01 -3.518807e-05 3.810670e-03 1.215613e-03 4.570672e-03 -4.738993e-03 1.918005e-03 -6.761304e-03 4.938622e-03 -7.503949e-04 -1.214020e-05 -3.802789e-03 7.253408e-04 -8.307423e-03 3.781606e-04 6.884372e-05 2.967831e-04 9.789172e-04 1.755432e-04 -7.251091e-04 -6.271233e-04 -6.927004e-04 -6.495745e-04 -3.869625e-04 -1.033802e-03 -3.808808e-04 2.180009e-04
<VARIANCE> 39
 8.657864e+01 6.414537e+01 6.811550e+01 1.091095e+02 7.344627e+01 9.809328e+01 7.543467e+01 5.627457e+01 7.786460e+01 4.724791e+01 4.464614e+01 3.330733e+01 1.243701e+02 2.561950e+00 3.582235e+00 2.941767e+00 4.007164e+00 2.671690e+00 4.179763e+00 3.880723e+00 3.172116e+00 3.482715e+00 2.651966e+00 2.438188e+00 1.927238e+00 2.417243e+00 3.528423e-01 5.897332e-01 4.734533e-01 6.819677e-01 4.528930e-01 6.707358e-01 6.898253e-01 5.612794e-01 5.950338e-01 4.753156e-01 4.448683e-01 3.527509e-01 3.241901e-01
<GCONST> 1.319655e+02
<STATE> 3
<MEAN> 39
 -4.811611e+00 1.177586e+00 1.067453e+00 -4.528101e+00 -4.340594e+00 -5.046365e+00 -1.013185e+01 -7.832596e-02 -1.039485e+01 -1.255214e+00 -3.644695e+00 -7.160273e-01 6.166460e+01 -3.518807e-05 3.810670e-03 1.215613e-03 4.570672e-03 -4.738993e-03 1.918005e-03 -6.761304e-03 4.938622e-03 -7.503949e-04 -1.214020e-05 -3.802789e-03 7.253408e-04 -8.307423e-03 3.781606e-04 6.884372e-05 2.967831e-04 9.789172e-04 1.755432e-04 -7.251091e-04 -6.271233e-04 -6.927004e-04 -6.495745e-04 -3.869625e-04 -1.033802e-03 -3.808808e-04 2.180009e-04
<VARIANCE> 39
 8.657864e+01 6.414537e+01 6.811550e+01 1.091095e+02 7.344627e+01 9.809328e+01 7.543467e+01 5.627457e+01 7.786460e+01 4.724791e+01 4.464614e+01 3.330733e+01 1.243701e+02 2.561950e+00 3.582235e+00 2.941767e+00 4.007164e+00 2.671690e+00 4.179763e+00 3.880723e+00 3.172116e+00 3.482715e+00 2.651966e+00 2.438188e+00 1.927238e+00 2.417243e+00 3.528423e-01 5.897332e-01 4.734533e-01 6.819677e-01 4.528930e-01 6.707358e-01 6.898253e-01 5.612794e-01 5.950338e-01 4.753156e-01 4.448683e-01 3.527509e-01 3.241901e-01
<GCONST> 1.319655e+02
<STATE> 4
<MEAN> 39
 -4.811611e+00 1.177586e+00 1.067453e+00 -4.528101e+00 -4.340594e+00 -5.046365e+00 -1.013185e+01 -7.832596e-02 -1.039485e+01 -1.255214e+00 -3.644695e+00 -7.160273e-01 6.166460e+01 -3.518807e-05 3.810670e-03 1.215613e-03 4.570672e-03 -4.738993e-03 1.918005e-03 -6.761304e-03 4.938622e-03 -7.503949e-04 -1.214020e-05 -3.802789e-03 7.253408e-04 -8.307423e-03 3.781606e-04 6.884372e-05 2.967831e-04 9.789172e-04 1.755432e-04 -7.251091e-04 -6.271233e-04 -6.927004e-04 -6.495745e-04 -3.869625e-04 -1.033802e-03 -3.808808e-04 2.180009e-04
<VARIANCE> 39
 8.657864e+01 6.414537e+01 6.811550e+01 1.091095e+02 7.344627e+01 9.809328e+01 7.543467e+01 5.627457e+01 7.786460e+01 4.724791e+01 4.464614e+01 3.330733e+01 1.243701e+02 2.561950e+00 3.582235e+00 2.941767e+00 4.007164e+00 2.671690e+00 4.179763e+00 3.880723e+00 3.172116e+00 3.482715e+00 2.651966e+00 2.438188e+00 1.927238e+00 2.417243e+00 3.528423e-01 5.897332e-01 4.734533e-01 6.819677e-01 4.528930e-01 6.707358e-01 6.898253e-01 5.612794e-01 5.950338e-01 4.753156e-01 4.448683e-01 3.527509e-01 3.241901e-01
<GCONST> 1.319655e+02
<TRANSP> 5
 0.000000e+00 1.000000e+00 0.000000e+00 0.000000e+00 0.000000e+00
 0.000000e+00 6.000000e-01 4.000000e-01 0.000000e+00 0.000000e+00
 0.000000e+00 0.000000e+00 6.000000e-01 4.000000e-01 0.000000e+00
 0.000000e+00 0.000000e+00 0.000000e+00 7.000000e-01 3.000000e-01
 0.000000e+00 0.000000e+00 0.000000e+00 0.000000e+00 0.000000e+00
<ENDHMM>
~h "d"
<BEGINHMM>
<NUMSTATES> 5
<STATE> 2
<MEAN> 39
 -4.811611e+00 1.177586e+00 1.067453e+00 -4.528101e+00 -4.340594e+00 -5.046365e+00 -1.013185e+01 -7.832596e-02 -1.039485e+01 -1.255214e+00 -3.644695e+00 -7.160273e-01 6.166460e+01 -3.518807e-05 3.810670e-03 1.215613e-03 4.570672e-03 -4.738993e-03 1.918005e-03 -6.761304e-03 4.938622e-03 -7.503949e-04 -1.214020e-05 -3.802789e-03 7.253408e-04 -8.307423e-03 3.781606e-04 6.884372e-05 2.967831e-04 9.789172e-04 1.755432e-04 -7.251091e-04 -6.271233e-04 -6.927004e-04 -6.495745e-04 -3.869625e-04 -1.033802e-03 -3.808808e-04 2.180009e-04
<VARIANCE> 39
 8.657864e+01 6.414537e+01 6.811550e+01 1.091095e+02 7.344627e+01 9.809328e+01 7.543467e+01 5.627457e+01 7.786460e+01 4.724791e+01 4.464614e+01 3.330733e+01 1.243701e+02 2.561950e+00 3.582235e+00 2.941767e+00 4.007164e+00 2.671690e+00 4.179763e+00 3.880723e+00 3.172116e+00 3.482715e+00 2.651966e+00 2.438188e+00 1.927238e+00 2.417243e+00 3.528423e-01 5.897332e-01 4.734533e-01 6.819677e-01 4.528930e-01 6.707358e-01 6.898253e-01 5.612794e-01 5.950338e-01 4.753156e-01 4.448683e-01 3.527509e-01 3.241901e-01
<GCONST> 1.319655e+02
<STATE> 3
<MEAN> 39
 -4.811611e+00 1.177586e+00 1.067453e+00 -4.528101e+00 -4.340594e+00 -5.046365e+00 -1.013185e+01 -7.832596e-02 -1.039485e+01 -1.255214e+00 -3.644695e+00 -7.160273e-01 6.166460e+01 -3.518807e-05 3.810670e-03 1.215613e-03 4.570672e-03 -4.738993e-03 1.918005e-03 -6.761304e-03 4.938622e-03 -7.503949e-04 -1.214020e-05 -3.802789e-03 7.253408e-04 -8.307423e-03 3.781606e-04 6.884372e-05 2.967831e-04 9.789172e-04 1.755432e-04 -7.251091e-04 -6.271233e-04 -6.927004e-04 -6.495745e-04 -3.869625e-04 -1.033802e-03 -3.808808e-04 2.180009e-04
<VARIANCE> 39
 8.657864e+01 6.414537e+01 6.811550e+01 1.091095e+02 7.344627e+01 9.809328e+01 7.543467e+01 5.627457e+01 7.786460e+01 4.724791e+01 4.464614e+01 3.330733e+01 1.243701e+02 2.561950e+00 3.582235e+00 2.941767e+00 4.007164e+00 2.671690e+00 4.179763e+00 3.880723e+00 3.172116e+00 3.482715e+00 2.651966e+00 2.438188e+00 1.927238e+00 2.417243e+00 3.528423e-01 5.897332e-01 4.734533e-01 6.819677e-01 4.528930e-01 6.707358e-01 6.898253e-01 5.612794e-01 5.950338e-01 4.753156e-01 4.448683e-01 3.527509e-01 3.241901e-01
<GCONST> 1.319655e+02
<STATE> 4
<MEAN> 39
 -4.811611e+00 1.177586e+00 1.067453e+00 -4.528101e+00 -4.340594e+00 -5.046365e+00 -1.013185e+01 -7.832596e-02 -1.039485e+01 -1.255214e+00 -3.644695e+00 -7.160273e-01 6.166460e+01 -3.518807e-05 3.810670e-03 1.215613e-03 4.570672e-03 -4.738993e-03 1.918005e-03 -6.761304e-03 4.938622e-03 -7.503949e-04 -1.214020e-05 -3.802789e-03 7.253408e-04 -8.307423e-03 3.781606e-04 6.884372e-05 2.967831e-04 9.789172e-04 1.755432e-04 -7.251091e-04 -6.271233e-04 -6.927004e-04 -6.495745e-04 -3.869625e-04 -1.033802e-03 -3.808808e-04 2.180009e-04
<VARIANCE> 39
 8.657864e+01 6.414537e+01 6.811550e+01 1.091095e+02 7.344627e+01 9.809328e+01 7.543467e+01 5.627457e+01 7.786460e+01 4.724791e+01 4.464614e+01 3.330733e+01 1.243701e+02 2.561950e+00 3.582235e+00 2.941767e+00 4.007164e+00 2.671690e+00 4.179763e+00 3.880723e+00 3.172116e+00 3.482715e+00 2.651966e+00 2.438188e+00 1.927238e+00 2.417243e+00 3.528423e-01 5.897332e-01 4.734533e-01 6.819677e-01 4.528930e-01 6.707358e-01 6.898253e-01 5.612794e-01 5.950338e-01 4.753156e-01 4.448683e-01 3.527509e-01 3.241901e-01
<GCONST> 1.319655e+02
<TRANSP> 5
 0.000000e+00 1.000000e+00 0.000000e+00 0.000000e+00 0.000000e+00
 0.000000e+00 6.000000e-01 4.000000e-01 0.000000e+00 0.000000e+00
 0.000000e+00 0.000000e+00 6.000000e-01 4.000000e-01 0.000000e+00
 0.000000e+00 0.000000e+00 0.000000e+00 7.000000e-01 3.000000e-01
 0.000000e+00 0.000000e+00 0.000000e+00 0.000000e+00 0.000000e+00
<ENDHMM>
~h "p"
<BEGINHMM>
<NUMSTATES> 5
<STATE> 2
<MEAN> 39
 -4.811611e+00 1.177586e+00 1.067453e+00 -4.528101e+00 -4.340594e+00 -5.046365e+00 -1.013185e+01 -7.832596e-02 -1.039485e+01 -1.255214e+00 -3.644695e+00 -7.160273e-01 6.166460e+01 -3.518807e-05 3.810670e-03 1.215613e-03 4.570672e-03 -4.738993e-03 1.918005e-03 -6.761304e-03 4.938622e-03 -7.503949e-04 -1.214020e-05 -3.802789e-03 7.253408e-04 -8.307423e-03 3.781606e-04 6.884372e-05 2.967831e-04 9.789172e-04 1.755432e-04 -7.251091e-04 -6.271233e-04 -6.927004e-04 -6.495745e-04 -3.869625e-04 -1.033802e-03 -3.808808e-04 2.180009e-04
<VARIANCE> 39
 8.657864e+01 6.414537e+01 6.811550e+01 1.091095e+02 7.344627e+01 9.809328e+01 7.543467e+01 5.627457e+01 7.786460e+01 4.724791e+01 4.464614e+01 3.330733e+01 1.243701e+02 2.561950e+00 3.582235e+00 2.941767e+00 4.007164e+00 2.671690e+00 4.179763e+00 3.880723e+00 3.172116e+00 3.482715e+00 2.651966e+00 2.438188e+00 1.927238e+00 2.417243e+00 3.528423e-01 5.897332e-01 4.734533e-01 6.819677e-01 4.528930e-01 6.707358e-01 6.898253e-01 5.612794e-01 5.950338e-01 4.753156e-01 4.448683e-01 3.527509e-01 3.241901e-01
<GCONST> 1.319655e+02
<STATE> 3
<MEAN> 39
 -4.811611e+00 1.177586e+00 1.067453e+00 -4.528101e+00 -4.340594e+00 -5.046365e+00 -1.013185e+01 -7.832596e-02 -1.039485e+01 -1.255214e+00 -3.644695e+00 -7.160273e-01 6.166460e+01 -3.518807e-05 3.810670e-03 1.215613e-03 4.570672e-03 -4.738993e-03 1.918005e-03 -6.761304e-03 4.938622e-03 -7.503949e-04 -1.214020e-05 -3.802789e-03 7.253408e-04 -8.307423e-03 3.781606e-04 6.884372e-05 2.967831e-04 9.789172e-04 1.755432e-04 -7.251091e-04 -6.271233e-04 -6.927004e-04 -6.495745e-04 -3.869625e-04 -1.033802e-03 -3.808808e-04 2.180009e-04
<VARIANCE> 39
 8.657864e+01 6.414537e+01 6.811550e+01 1.091095e+02 7.344627e+01 9.809328e+01 7.543467e+01 5.627457e+01 7.786460e+01 4.724791e+01 4.464614e+01 3.330733e+01 1.243701e+02 2.561950e+00 3.582235e+00 2.941767e+00 4.007164e+00 2.671690e+00 4.179763e+00 3.880723e+00 3.172116e+00 3.482715e+00 2.651966e+00 2.438188e+00 1.927238e+00 2.417243e+00 3.528423e-01 5.897332e-01 4.734533e-01 6.819677e-01 4.528930e-01 6.707358e-01 6.898253e-01 5.612794e-01 5.950338e-01 4.753156e-01 4.448683e-01 3.527509e-01 3.241901e-01
<GCONST> 1.319655e+02
<STATE> 4
<MEAN> 39
 -4.811611e+00 1.177586e+00 1.067453e+00 -4.528101e+00 -4.340594e+00 -5.046365e+00 -1.013185e+01 -7.832596e-02 -1.039485e+01 -1.255214e+00 -3.644695e+00 -7.160273e-01 6.166460e+01 -3.518807e-05 3.810670e-03 1.215613e-03 4.570672e-03 -4.738993e-03 1.918005e-03 -6.761304e-03 4.938622e-03 -7.503949e-04 -1.214020e-05 -3.802789e-03 7.253408e-04 -8.307423e-03 3.781606e-04 6.884372e-05 2.967831e-04 9.789172e-04 1.755432e-04 -7.251091e-04 -6.271233e-04 -6.927004e-04 -6.495745e-04 -3.869625e-04 -1.033802e-03 -3.808808e-04 2.180009e-04
<VARIANCE> 39
 8.657864e+01 6.414537e+01 6.811550e+01 1.091095e+02 7.344627e+01 9.809328e+01 7.543467e+01 5.627457e+01 7.786460e+01 4.724791e+01 4.464614e+01 3.330733e+01 1.243701e+02 2.561950e+00 3.582235e+00 2.941767e+00 4.007164e+00 2.671690e+00 4.179763e+00 3.880723e+00 3.172116e+00 3.482715e+00 2.651966e+00 2.438188e+00 1.927238e+00 2.417243e+00 3.528423e-01 5.897332e-01 4.734533e-01 6.819677e-01 4.528930e-01 6.707358e-01 6.898253e-01 5.612794e-01 5.950338e-01 4.753156e-01 4.448683e-01 3.527509e-01 3.241901e-01
<GCONST> 1.319655e+02
<TRANSP> 5
 0.000000e+00 1.000000e+00 0.000000e+00 0.000000e+00 0.000000e+00
 0.000000e+00 6.000000e-01 4.000000e-01 0.000000e+00 0.000000e+00
 0.000000e+00 0.000000e+00 6.000000e-01 4.000000e-01 0.000000e+00
 0.000000e+00 0.000000e+00 0.000000e+00 7.000000e-01 3.000000e-01
 0.000000e+00 0.000000e+00 0.000000e+00 0.000000e+00 0.000000e+00
<ENDHMM>
~h "u"
<BEGINHMM>
<NUMSTATES> 5
<STATE> 2
<MEAN> 39
 -4.811611e+00 1.177586e+00 1.067453e+00 -4.528101e+00 -4.340594e+00 -5.046365e+00 -1.013185e+01 -7.832596e-02 -1.039485e+01 -1.255214e+00 -3.644695e+00 -7.160273e-01 6.166460e+01 -3.518807e-05 3.810670e-03 1.215613e-03 4.570672e-03 -4.738993e-03 1.918005e-03 -6.761304e-03 4.938622e-03 -7.503949e-04 -1.214020e-05 -3.802789e-03 7.253408e-04 -8.307423e-03 3.781606e-04 6.884372e-05 2.967831e-04 9.789172e-04 1.755432e-04 -7.251091e-04 -6.271233e-04 -6.927004e-04 -6.495745e-04 -3.869625e-04 -1.033802e-03 -3.808808e-04 2.180009e-04
<VARIANCE> 39
 8.657864e+01 6.414537e+01 6.811550e+01 1.091095e+02 7.344627e+01 9.809328e+01 7.543467e+01 5.627457e+01 7.786460e+01 4.724791e+01 4.464614e+01 3.330733e+01 1.243701e+02 2.561950e+00 3.582235e+00 2.941767e+00 4.007164e+00 2.671690e+00 4.179763e+00 3.880723e+00 3.172116e+00 3.482715e+00 2.651966e+00 2.438188e+00 1.927238e+00 2.417243e+00 3.528423e-01 5.897332e-01 4.734533e-01 6.819677e-01 4.528930e-01 6.707358e-01 6.898253e-01 5.612794e-01 5.950338e-01 4.753156e-01 4.448683e-01 3.527509e-01 3.241901e-01
<GCONST> 1.319655e+02
<STATE> 3
<MEAN> 39
 -4.811611e+00 1.177586e+00 1.067453e+00 -4.528101e+00 -4.340594e+00 -5.046365e+00 -1.013185e+01 -7.832596e-02 -1.039485e+01 -1.255214e+00 -3.644695e+00 -7.160273e-01 6.166460e+01 -3.518807e-05 3.810670e-03 1.215613e-03 4.570672e-03 -4.738993e-03 1.918005e-03 -6.761304e-03 4.938622e-03 -7.503949e-04 -1.214020e-05 -3.802789e-03 7.253408e-04 -8.307423e-03 3.781606e-04 6.884372e-05 2.967831e-04 9.789172e-04 1.755432e-04 -7.251091e-04 -6.271233e-04 -6.927004e-04 -6.495745e-04 -3.869625e-04 -1.033802e-03 -3.808808e-04 2.180009e-04
<VARIANCE> 39
 8.657864e+01 6.414537e+01 6.811550e+01 1.091095e+02 7.344627e+01 9.809328e+01 7.543467e+01 5.627457e+01 7.786460e+01 4.724791e+01 4.464614e+01 3.330733e+01 1.243701e+02 2.561950e+00 3.582235e+00 2.941767e+00 4.007164e+00 2.671690e+00 4.179763e+00 3.880723e+00 3.172116e+00 3.482715e+00 2.651966e+00 2.438188e+00 1.927238e+00 2.417243e+00 3.528423e-01 5.897332e-01 4.734533e-01 6.819677e-01 4.528930e-01 6.707358e-01 6.898253e-01 5.612794e-01 5.950338e-01 4.753156e-01 4.448683e-01 3.527509e-01 3.241901e-01
<GCONST> 1.319655e+02
<STATE> 4
<MEAN> 39
 -4.811611e+00 1.177586e+00 1.067453e+00 -4.528101e+00 -4.340594e+00 -5.046365e+00 -1.013185e+01 -7.832596e-02 -1.039485e+01 -1.255214e+00 -3.644695e+00 -7.160273e-01 6.166460e+01 -3.518807e-05 3.810670e-03 1.215613e-03 4.570672e-03 -4.738993e-03 1.918005e-03 -6.761304e-03 4.938622e-03 -7.503949e-04 -1.214020e-05 -3.802789e-03 7.253408e-04 -8.307423e-03 3.781606e-04 6.884372e-05 2.967831e-04 9.789172e-04 1.755432e-04 -7.251091e-04 -6.271233e-04 -6.927004e-04 -6.495745e-04 -3.869625e-04 -1.033802e-03 -3.808808e-04 2.180009e-04
<VARIANCE> 39
 8.657864e+01 6.414537e+01 6.811550e+01 1.091095e+02 7.344627e+01 9.809328e+01 7.543467e+01 5.627457e+01 7.786460e+01 4.724791e+01 4.464614e+01 3.330733e+01 1.243701e+02 2.561950e+00 3.582235e+00 2.941767e+00 4.007164e+00 2.671690e+00 4.179763e+00 3.880723e+00 3.172116e+00 3.482715e+00 2.651966e+00 2.438188e+00 1.927238e+00 2.417243e+00 3.528423e-01 5.897332e-01 4.734533e-01 6.819677e-01 4.528930e-01 6.707358e-01 6.898253e-01 5.612794e-01 5.950338e-01 4.753156e-01 4.448683e-01 3.527509e-01 3.241901e-01
<GCONST> 1.319655e+02
<TRANSP> 5
 0.000000e+00 1.000000e+00 0.000000e+00 0.000000e+00 0.000000e+00
 0.000000e+00 6.000000e-01 4.000000e-01 0.000000e+00 0.000000e+00
 0.000000e+00 0.000000e+00 6.000000e-01 4.000000e-01 0.000000e+00
 0.000000e+00 0.000000e+00 0.000000e+00 7.000000e-01 3.000000e-01
 0.000000e+00 0.000000e+00 0.000000e+00 0.000000e+00 0.000000e+00
<ENDHMM>
~h "wa"
<BEGINHMM>
<NUMSTATES> 5
<STATE> 2
<MEAN> 39
 -4.811611e+00 1.177586e+00 1.067453e+00 -4.528101e+00 -4.340594e+00 -5.046365e+00 -1.013185e+01 -7.832596e-02 -1.039485e+01 -1.255214e+00 -3.644695e+00 -7.160273e-01 6.166460e+01 -3.518807e-05 3.810670e-03 1.215613e-03 4.570672e-03 -4.738993e-03 1.918005e-03 -6.761304e-03 4.938622e-03 -7.503949e-04 -1.214020e-05 -3.802789e-03 7.253408e-04 -8.307423e-03 3.781606e-04 6.884372e-05 2.967831e-04 9.789172e-04 1.755432e-04 -7.251091e-04 -6.271233e-04 -6.927004e-04 -6.495745e-04 -3.869625e-04 -1.033802e-03 -3.808808e-04 2.180009e-04
<VARIANCE> 39
 8.657864e+01 6.414537e+01 6.811550e+01 1.091095e+02 7.344627e+01 9.809328e+01 7.543467e+01 5.627457e+01 7.786460e+01 4.724791e+01 4.464614e+01 3.330733e+01 1.243701e+02 2.561950e+00 3.582235e+00 2.941767e+00 4.007164e+00 2.671690e+00 4.179763e+00 3.880723e+00 3.172116e+00 3.482715e+00 2.651966e+00 2.438188e+00 1.927238e+00 2.417243e+00 3.528423e-01 5.897332e-01 4.734533e-01 6.819677e-01 4.528930e-01 6.707358e-01 6.898253e-01 5.612794e-01 5.950338e-01 4.753156e-01 4.448683e-01 3.527509e-01 3.241901e-01
<GCONST> 1.319655e+02
<STATE> 3
<MEAN> 39
 -4.811611e+00 1.177586e+00 1.067453e+00 -4.528101e+00 -4.340594e+00 -5.046365e+00 -1.013185e+01 -7.832596e-02 -1.039485e+01 -1.255214e+00 -3.644695e+00 -7.160273e-01 6.166460e+01 -3.518807e-05 3.810670e-03 1.215613e-03 4.570672e-03 -4.738993e-03 1.918005e-03 -6.761304e-03 4.938622e-03 -7.503949e-04 -1.214020e-05 -3.802789e-03 7.253408e-04 -8.307423e-03 3.781606e-04 6.884372e-05 2.967831e-04 9.789172e-04 1.755432e-04 -7.251091e-04 -6.271233e-04 -6.927004e-04 -6.495745e-04 -3.869625e-04 -1.033802e-03 -3.808808e-04 2.180009e-04
<VARIANCE> 39
 8.657864e+01 6.414537e+01 6.811550e+01 1.091095e+02 7.344627e+01 9.809328e+01 7.543467e+01 5.627457e+01 7.786460e+01 4.724791e+01 4.464614e+01 3.330733e+01 1.243701e+02 2.561950e+00 3.582235e+00 2.941767e+00 4.007164e+00 2.671690e+00 4.179763e+00 3.880723e+00 3.172116e+00 3.482715e+00 2.651966e+00 2.438188e+00 1.927238e+00 2.417243e+00 3.528423e-01 5.897332e-01 4.734533e-01 6.819677e-01 4.528930e-01 6.707358e-01 6.898253e-01 5.612794e-01 5.950338e-01 4.753156e-01 4.448683e-01 3.527509e-01 3.241901e-01
<GCONST> 1.319655e+02
<STATE> 4
<MEAN> 39
 -4.811611e+00 1.177586e+00 1.067453e+00 -4.528101e+00 -4.340594e+00 -5.046365e+00 -1.013185e+01 -7.832596e-02 -1.039485e+01 -1.255214e+00 -3.644695e+00 -7.160273e-01 6.166460e+01 -3.518807e-05 3.810670e-03 1.215613e-03 4.570672e-03 -4.738993e-03 1.918005e-03 -6.761304e-03 4.938622e-03 -7.503949e-04 -1.214020e-05 -3.802789e-03 7.253408e-04 -8.307423e-03 3.781606e-04 6.884372e-05 2.967831e-04 9.789172e-04 1.755432e-04 -7.251091e-04 -6.271233e-04 -6.927004e-04 -6.495745e-04 -3.869625e-04 -1.033802e-03 -3.808808e-04 2.180009e-04
<VARIANCE> 39
 8.657864e+01 6.414537e+01 6.811550e+01 1.091095e+02 7.344627e+01 9.809328e+01 7.543467e+01 5.627457e+01 7.786460e+01 4.724791e+01 4.464614e+01 3.330733e+01 1.243701e+02 2.561950e+00 3.582235e+00 2.941767e+00 4.007164e+00 2.671690e+00 4.179763e+00 3.880723e+00 3.172116e+00 3.482715e+00 2.651966e+00 2.438188e+00 1.927238e+00 2.417243e+00 3.528423e-01 5.897332e-01 4.734533e-01 6.819677e-01 4.528930e-01 6.707358e-01 6.898253e-01 5.612794e-01 5.950338e-01 4.753156e-01 4.448683e-01 3.527509e-01 3.241901e-01
<GCONST> 1.319655e+02
<TRANSP> 5
 0.000000e+00 1.000000e+00 0.000000e+00 0.000000e+00 0.000000e+00
 0.000000e+00 6.000000e-01 4.000000e-01 0.000000e+00 0.000000e+00
 0.000000e+00 0.000000e+00 6.000000e-01 4.000000e-01 0.000000e+00
 0.000000e+00 0.000000e+00 0.000000e+00 7.000000e-01 3.000000e-01
 0.000000e+00 0.000000e+00 0.000000e+00 0.000000e+00 0.000000e+00
<ENDHMM>
~h "m"
<BEGINHMM>
<NUMSTATES> 5
<STATE> 2
<MEAN> 39
 -4.811611e+00 1.177586e+00 1.067453e+00 -4.528101e+00 -4.340594e+00 -5.046365e+00 -1.013185e+01 -7.832596e-02 -1.039485e+01 -1.255214e+00 -3.644695e+00 -7.160273e-01 6.166460e+01 -3.518807e-05 3.810670e-03 1.215613e-03 4.570672e-03 -4.738993e-03 1.918005e-03 -6.761304e-03 4.938622e-03 -7.503949e-04 -1.214020e-05 -3.802789e-03 7.253408e-04 -8.307423e-03 3.781606e-04 6.884372e-05 2.967831e-04 9.789172e-04 1.755432e-04 -7.251091e-04 -6.271233e-04 -6.927004e-04 -6.495745e-04 -3.869625e-04 -1.033802e-03 -3.808808e-04 2.180009e-04
<VARIANCE> 39
 8.657864e+01 6.414537e+01 6.811550e+01 1.091095e+02 7.344627e+01 9.809328e+01 7.543467e+01 5.627457e+01 7.786460e+01 4.724791e+01 4.464614e+01 3.330733e+01 1.243701e+02 2.561950e+00 3.582235e+00 2.941767e+00 4.007164e+00 2.671690e+00 4.179763e+00 3.880723e+00 3.172116e+00 3.482715e+00 2.651966e+00 2.438188e+00 1.927238e+00 2.417243e+00 3.528423e-01 5.897332e-01 4.734533e-01 6.819677e-01 4.528930e-01 6.707358e-01 6.898253e-01 5.612794e-01 5.950338e-01 4.753156e-01 4.448683e-01 3.527509e-01 3.241901e-01
<GCONST> 1.319655e+02
<STATE> 3
<MEAN> 39
 -4.811611e+00 1.177586e+00 1.067453e+00 -4.528101e+00 -4.340594e+00 -5.046365e+00 -1.013185e+01 -7.832596e-02 -1.039485e+01 -1.255214e+00 -3.644695e+00 -7.160273e-01 6.166460e+01 -3.518807e-05 3.810670e-03 1.215613e-03 4.570672e-03 -4.738993e-03 1.918005e-03 -6.761304e-03 4.938622e-03 -7.503949e-04 -1.214020e-05 -3.802789e-03 7.253408e-04 -8.307423e-03 3.781606e-04 6.884372e-05 2.967831e-04 9.789172e-04 1.755432e-04 -7.251091e-04 -6.271233e-04 -6.927004e-04 -6.495745e-04 -3.869625e-04 -1.033802e-03 -3.808808e-04 2.180009e-04
<VARIANCE> 39
 8.657864e+01 6.414537e+01 6.811550e+01 1.091095e+02 7.344627e+01 9.809328e+01 7.543467e+01 5.627457e+01 7.786460e+01 4.724791e+01 4.464614e+01 3.330733e+01 1.243701e+02 2.561950e+00 3.582235e+00 2.941767e+00 4.007164e+00 2.671690e+00 4.179763e+00 3.880723e+00 3.172116e+00 3.482715e+00 2.651966e+00 2.438188e+00 1.927238e+00 2.417243e+00 3.528423e-01 5.897332e-01 4.734533e-01 6.819677e-01 4.528930e-01 6.707358e-01 6.898253e-01 5.612794e-01 5.950338e-01 4.753156e-01 4.448683e-01 3.527509e-01 3.241901e-01
<GCONST> 1.319655e+02
<STATE> 4
<MEAN> 39
 -4.811611e+00 1.177586e+00 1.067453e+00 -4.528101e+00 -4.340594e+00 -5.046365e+00 -1.013185e+01 -7.832596e-02 -1.039485e+01 -1.255214e+00 -3.644695e+00 -7.160273e-01 6.166460e+01 -3.518807e-05 3.810670e-03 1.215613e-03 4.570672e-03 -4.738993e-03 1.918005e-03 -6.761304e-03 4.938622e-03 -7.503949e-04 -1.214020e-05 -3.802789e-03 7.253408e-04 -8.307423e-03 3.781606e-04 6.884372e-05 2.967831e-04 9.789172e-04 1.755432e-04 -7.251091e-04 -6.271233e-04 -6.927004e-04 -6.495745e-04 -3.869625e-04 -1.033802e-03 -3.808808e-04 2.180009e-04
<VARIANCE> 39
 8.657864e+01 6.414537e+01 6.811550e+01 1.091095e+02 7.344627e+01 9.809328e+01 7.543467e+01 5.627457e+01 7.786460e+01 4.724791e+01 4.464614e+01 3.330733e+01 1.243701e+02 2.561950e+00 3.582235e+00 2.941767e+00 4.007164e+00 2.671690e+00 4.179763e+00 3.880723e+00 3.172116e+00 3.482715e+00 2.651966e+00 2.438188e+00 1.927238e+00 2.417243e+00 3.528423e-01 5.897332e-01 4.734533e-01 6.819677e-01 4.528930e-01 6.707358e-01 6.898253e-01 5.612794e-01 5.950338e-01 4.753156e-01 4.448683e-01 3.527509e-01 3.241901e-01
<GCONST> 1.319655e+02
<TRANSP> 5
 0.000000e+00 1.000000e+00 0.000000e+00 0.000000e+00 0.000000e+00
 0.000000e+00 6.000000e-01 4.000000e-01 0.000000e+00 0.000000e+00
 0.000000e+00 0.000000e+00 6.000000e-01 4.000000e-01 0.000000e+00
 0.000000e+00 0.000000e+00 0.000000e+00 7.000000e-01 3.000000e-01
 0.000000e+00 0.000000e+00 0.000000e+00 0.000000e+00 0.000000e+00
<ENDHMM>
~h "t"
<BEGINHMM>
<NUMSTATES> 5
<STATE> 2
<MEAN> 39
 -4.811611e+00 1.177586e+00 1.067453e+00 -4.528101e+00 -4.340594e+00 -5.046365e+00 -1.013185e+01 -7.832596e-02 -1.039485e+01 -1.255214e+00 -3.644695e+00 -7.160273e-01 6.166460e+01 -3.518807e-05 3.810670e-03 1.215613e-03 4.570672e-03 -4.738993e-03 1.918005e-03 -6.761304e-03 4.938622e-03 -7.503949e-04 -1.214020e-05 -3.802789e-03 7.253408e-04 -8.307423e-03 3.781606e-04 6.884372e-05 2.967831e-04 9.789172e-04 1.755432e-04 -7.251091e-04 -6.271233e-04 -6.927004e-04 -6.495745e-04 -3.869625e-04 -1.033802e-03 -3.808808e-04 2.180009e-04
<VARIANCE> 39
 8.657864e+01 6.414537e+01 6.811550e+01 1.091095e+02 7.344627e+01 9.809328e+01 7.543467e+01 5.627457e+01 7.786460e+01 4.724791e+01 4.464614e+01 3.330733e+01 1.243701e+02 2.561950e+00 3.582235e+00 2.941767e+00 4.007164e+00 2.671690e+00 4.179763e+00 3.880723e+00 3.172116e+00 3.482715e+00 2.651966e+00 2.438188e+00 1.927238e+00 2.417243e+00 3.528423e-01 5.897332e-01 4.734533e-01 6.819677e-01 4.528930e-01 6.707358e-01 6.898253e-01 5.612794e-01 5.950338e-01 4.753156e-01 4.448683e-01 3.527509e-01 3.241901e-01
<GCONST> 1.319655e+02
<STATE> 3
<MEAN> 39
 -4.811611e+00 1.177586e+00 1.067453e+00 -4.528101e+00 -4.340594e+00 -5.046365e+00 -1.013185e+01 -7.832596e-02 -1.039485e+01 -1.255214e+00 -3.644695e+00 -7.160273e-01 6.166460e+01 -3.518807e-05 3.810670e-03 1.215613e-03 4.570672e-03 -4.738993e-03 1.918005e-03 -6.761304e-03 4.938622e-03 -7.503949e-04 -1.214020e-05 -3.802789e-03 7.253408e-04 -8.307423e-03 3.781606e-04 6.884372e-05 2.967831e-04 9.789172e-04 1.755432e-04 -7.251091e-04 -6.271233e-04 -6.927004e-04 -6.495745e-04 -3.869625e-04 -1.033802e-03 -3.808808e-04 2.180009e-04
<VARIANCE> 39
 8.657864e+01 6.414537e+01 6.811550e+01 1.091095e+02 7.344627e+01 9.809328e+01 7.543467e+01 5.627457e+01 7.786460e+01 4.724791e+01 4.464614e+01 3.330733e+01 1.243701e+02 2.561950e+00 3.582235e+00 2.941767e+00 4.007164e+00 2.671690e+00 4.179763e+00 3.880723e+00 3.172116e+00 3.482715e+00 2.651966e+00 2.438188e+00 1.927238e+00 2.417243e+00 3.528423e-01 5.897332e-01 4.734533e-01 6.819677e-01 4.528930e-01 6.707358e-01 6.898253e-01 5.612794e-01 5.950338e-01 4.753156e-01 4.448683e-01 3.527509e-01 3.241901e-01
<GCONST> 1.319655e+02
<STATE> 4
<MEAN> 39
 -4.811611e+00 1.177586e+00 1.067453e+00 -4.528101e+00 -4.340594e+00 -5.046365e+00 -1.013185e+01 -7.832596e-02 -1.039485e+01 -1.255214e+00 -3.644695e+00 -7.160273e-01 6.166460e+01 -3.518807e-05 3.810670e-03 1.215613e-03 4.570672e-03 -4.738993e-03 1.918005e-03 -6.761304e-03 4.938622e-03 -7.503949e-04 -1.214020e-05 -3.802789e-03 7.253408e-04 -8.307423e-03 3.781606e-04 6.884372e-05 2.967831e-04 9.789172e-04 1.755432e-04 -7.251091e-04 -6.271233e-04 -6.927004e-04 -6.495745e-04 -3.869625e-04 -1.033802e-03 -3.808808e-04 2.180009e-04
<VARIANCE> 39
 8.657864e+01 6.414537e+01 6.811550e+01 1.091095e+02 7.344627e+01 9.809328e+01 7.543467e+01 5.627457e+01 7.786460e+01 4.724791e+01 4.464614e+01 3.330733e+01 1.243701e+02 2.561950e+00 3.582235e+00 2.941767e+00 4.007164e+00 2.671690e+00 4.179763e+00 3.880723e+00 3.172116e+00 3.482715e+00 2.651966e+00 2.438188e+00 1.927238e+00 2.417243e+00 3.528423e-01 5.897332e-01 4.734533e-01 6.819677e-01 4.528930e-01 6.707358e-01 6.898253e-01 5.612794e-01 5.950338e-01 4.753156e-01 4.448683e-01 3.527509e-01 3.241901e-01
<GCONST> 1.319655e+02
<TRANSP> 5
 0.000000e+00 1.000000e+00 0.000000e+00 0.000000e+00 0.000000e+00
 0.000000e+00 6.000000e-01 4.000000e-01 0.000000e+00 0.000000e+00
 0.000000e+00 0.000000e+00 6.000000e-01 4.000000e-01 0.000000e+00
 0.000000e+00 0.000000e+00 0.000000e+00 7.000000e-01 3.000000e-01
 0.000000e+00 0.000000e+00 0.000000e+00 0.000000e+00 0.000000e+00
<ENDHMM>
~h "h"
<BEGINHMM>
<NUMSTATES> 5
<STATE> 2
<MEAN> 39
 -4.811611e+00 1.177586e+00 1.067453e+00 -4.528101e+00 -4.340594e+00 -5.046365e+00 -1.013185e+01 -7.832596e-02 -1.039485e+01 -1.255214e+00 -3.644695e+00 -7.160273e-01 6.166460e+01 -3.518807e-05 3.810670e-03 1.215613e-03 4.570672e-03 -4.738993e-03 1.918005e-03 -6.761304e-03 4.938622e-03 -7.503949e-04 -1.214020e-05 -3.802789e-03 7.253408e-04 -8.307423e-03 3.781606e-04 6.884372e-05 2.967831e-04 9.789172e-04 1.755432e-04 -7.251091e-04 -6.271233e-04 -6.927004e-04 -6.495745e-04 -3.869625e-04 -1.033802e-03 -3.808808e-04 2.180009e-04
<VARIANCE> 39
 8.657864e+01 6.414537e+01 6.811550e+01 1.091095e+02 7.344627e+01 9.809328e+01 7.543467e+01 5.627457e+01 7.786460e+01 4.724791e+01 4.464614e+01 3.330733e+01 1.243701e+02 2.561950e+00 3.582235e+00 2.941767e+00 4.007164e+00 2.671690e+00 4.179763e+00 3.880723e+00 3.172116e+00 3.482715e+00 2.651966e+00 2.438188e+00 1.927238e+00 2.417243e+00 3.528423e-01 5.897332e-01 4.734533e-01 6.819677e-01 4.528930e-01 6.707358e-01 6.898253e-01 5.612794e-01 5.950338e-01 4.753156e-01 4.448683e-01 3.527509e-01 3.241901e-01
<GCONST> 1.319655e+02
<STATE> 3
<MEAN> 39
 -4.811611e+00 1.177586e+00 1.067453e+00 -4.528101e+00 -4.340594e+00 -5.046365e+00 -1.013185e+01 -7.832596e-02 -1.039485e+01 -1.255214e+00 -3.644695e+00 -7.160273e-01 6.166460e+01 -3.518807e-05 3.810670e-03 1.215613e-03 4.570672e-03 -4.738993e-03 1.918005e-03 -6.761304e-03 4.938622e-03 -7.503949e-04 -1.214020e-05 -3.802789e-03 7.253408e-04 -8.307423e-03 3.781606e-04 6.884372e-05 2.967831e-04 9.789172e-04 1.755432e-04 -7.251091e-04 -6.271233e-04 -6.927004e-04 -6.495745e-04 -3.869625e-04 -1.033802e-03 -3.808808e-04 2.180009e-04
<VARIANCE> 39
 8.657864e+01 6.414537e+01 6.811550e+01 1.091095e+02 7.344627e+01 9.809328e+01 7.543467e+01 5.627457e+01 7.786460e+01 4.724791e+01 4.464614e+01 3.330733e+01 1.243701e+02 2.561950e+00 3.582235e+00 2.941767e+00 4.007164e+00 2.671690e+00 4.179763e+00 3.880723e+00 3.172116e+00 3.482715e+00 2.651966e+00 2.438188e+00 1.927238e+00 2.417243e+00 3.528423e-01 5.897332e-01 4.734533e-01 6.819677e-01 4.528930e-01 6.707358e-01 6.898253e-01 5.612794e-01 5.950338e-01 4.753156e-01 4.448683e-01 3.527509e-01 3.241901e-01
<GCONST> 1.319655e+02
<STATE> 4
<MEAN> 39
 -4.811611e+00 1.177586e+00 1.067453e+00 -4.528101e+00 -4.340594e+00 -5.046365e+00 -1.013185e+01 -7.832596e-02 -1.039485e+01 -1.255214e+00 -3.644695e+00 -7.160273e-01 6.166460e+01 -3.518807e-05 3.810670e-03 1.215613e-03 4.570672e-03 -4.738993e-03 1.918005e-03 -6.761304e-03 4.938622e-03 -7.503949e-04 -1.214020e-05 -3.802789e-03 7.253408e-04 -8.307423e-03 3.781606e-04 6.884372e-05 2.967831e-04 9.789172e-04 1.755432e-04 -7.251091e-04 -6.271233e-04 -6.927004e-04 -6.495745e-04 -3.869625e-04 -1.033802e-03 -3.808808e-04 2.180009e-04
<VARIANCE> 39
 8.657864e+01 6.414537e+01 6.811550e+01 1.091095e+02 7.344627e+01 9.809328e+01 7.543467e+01 5.627457e+01 7.786460e+01 4.724791e+01 4.464614e+01 3.330733e+01 1.243701e+02 2.561950e+00 3.582235e+00 2.941767e+00 4.007164e+00 2.671690e+00 4.179763e+00 3.880723e+00 3.172116e+00 3.482715e+00 2.651966e+00 2.438188e+00 1.927238e+00 2.417243e+00 3.528423e-01 5.897332e-01 4.734533e-01 6.819677e-01 4.528930e-01 6.707358e-01 6.898253e-01 5.612794e-01 5.950338e-01 4.753156e-01 4.448683e-01 3.527509e-01 3.241901e-01
<GCONST> 1.319655e+02
<TRANSP> 5
 0.000000e+00 1.000000e+00 0.000000e+00 0.000000e+00 0.000000e+00
 0.000000e+00 6.000000e-01 4.000000e-01 0.000000e+00 0.000000e+00
 0.000000e+00 0.000000e+00 6.000000e-01 4.000000e-01 0.000000e+00
 0.000000e+00 0.000000e+00 0.000000e+00 7.000000e-01 3.000000e-01
 0.000000e+00 0.000000e+00 0.000000e+00 0.000000e+00 0.000000e+00
<ENDHMM>
~h "i"
<BEGINHMM>
<NUMSTATES> 5
<STATE> 2
<MEAN> 39
 -4.811611e+00 1.177586e+00 1.067453e+00 -4.528101e+00 -4.340594e+00 -5.046365e+00 -1.013185e+01 -7.832596e-02 -1.039485e+01 -1.255214e+00 -3.644695e+00 -7.160273e-01 6.166460e+01 -3.518807e-05 3.810670e-03 1.215613e-03 4.570672e-03 -4.738993e-03 1.918005e-03 -6.761304e-03 4.938622e-03 -7.503949e-04 -1.214020e-05 -3.802789e-03 7.253408e-04 -8.307423e-03 3.781606e-04 6.884372e-05 2.967831e-04 9.789172e-04 1.755432e-04 -7.251091e-04 -6.271233e-04 -6.927004e-04 -6.495745e-04 -3.869625e-04 -1.033802e-03 -3.808808e-04 2.180009e-04
<VARIANCE> 39
 8.657864e+01 6.414537e+01 6.811550e+01 1.091095e+02 7.344627e+01 9.809328e+01 7.543467e+01 5.627457e+01 7.786460e+01 4.724791e+01 4.464614e+01 3.330733e+01 1.243701e+02 2.561950e+00 3.582235e+00 2.941767e+00 4.007164e+00 2.671690e+00 4.179763e+00 3.880723e+00 3.172116e+00 3.482715e+00 2.651966e+00 2.438188e+00 1.927238e+00 2.417243e+00 3.528423e-01 5.897332e-01 4.734533e-01 6.819677e-01 4.528930e-01 6.707358e-01 6.898253e-01 5.612794e-01 5.950338e-01 4.753156e-01 4.448683e-01 3.527509e-01 3.241901e-01
<GCONST> 1.319655e+02
<STATE> 3
<MEAN> 39
 -4.811611e+00 1.177586e+00 1.067453e+00 -4.528101e+00 -4.340594e+00 -5.046365e+00 -1.013185e+01 -7.832596e-02 -1.039485e+01 -1.255214e+00 -3.644695e+00 -7.160273e-01 6.166460e+01 -3.518807e-05 3.810670e-03 1.215613e-03 4.570672e-03 -4.738993e-03 1.918005e-03 -6.761304e-03 4.938622e-03 -7.503949e-04 -1.214020e-05 -3.802789e-03 7.253408e-04 -8.307423e-03 3.781606e-04 6.884372e-05 2.967831e-04 9.789172e-04 1.755432e-04 -7.251091e-04 -6.271233e-04 -6.927004e-04 -6.495745e-04 -3.869625e-04 -1.033802e-03 -3.808808e-04 2.180009e-04
<VARIANCE> 39
 8.657864e+01 6.414537e+01 6.811550e+01 1.091095e+02 7.344627e+01 9.809328e+01 7.543467e+01 5.627457e+01 7.786460e+01 4.724791e+01 4.464614e+01 3.330733e+01 1.243701e+02 2.561950e+00 3.582235e+00 2.941767e+00 4.007164e+00 2.671690e+00 4.179763e+00 3.880723e+00 3.172116e+00 3.482715e+00 2.651966e+00 2.438188e+00 1.927238e+00 2.417243e+00 3.528423e-01 5.897332e-01 4.734533e-01 6.819677e-01 4.528930e-01 6.707358e-01 6.898253e-01 5.612794e-01 5.950338e-01 4.753156e-01 4.448683e-01 3.527509e-01 3.241901e-01
<GCONST> 1.319655e+02
<STATE> 4
<MEAN> 39
 -4.811611e+00 1.177586e+00 1.067453e+00 -4.528101e+00 -4.340594e+00 -5.046365e+00 -1.013185e+01 -7.832596e-02 -1.039485e+01 -1.255214e+00 -3.644695e+00 -7.160273e-01 6.166460e+01 -3.518807e-05 3.810670e-03 1.215613e-03 4.570672e-03 -4.738993e-03 1.918005e-03 -6.761304e-03 4.938622e-03 -7.503949e-04 -1.214020e-05 -3.802789e-03 7.253408e-04 -8.307423e-03 3.781606e-04 6.884372e-05 2.967831e-04 9.789172e-04 1.755432e-04 -7.251091e-04 -6.271233e-04 -6.927004e-04 -6.495745e-04 -3.869625e-04 -1.033802e-03 -3.808808e-04 2.180009e-04
<VARIANCE> 39
 8.657864e+01 6.414537e+01 6.811550e+01 1.091095e+02 7.344627e+01 9.809328e+01 7.543467e+01 5.627457e+01 7.786460e+01 4.724791e+01 4.464614e+01 3.330733e+01 1.243701e+02 2.561950e+00 3.582235e+00 2.941767e+00 4.007164e+00 2.671690e+00 4.179763e+00 3.880723e+00 3.172116e+00 3.482715e+00 2.651966e+00 2.438188e+00 1.927238e+00 2.417243e+00 3.528423e-01 5.897332e-01 4.734533e-01 6.819677e-01 4.528930e-01 6.707358e-01 6.898253e-01 5.612794e-01 5.950338e-01 4.753156e-01 4.448683e-01 3.527509e-01 3.241901e-01
<GCONST> 1.319655e+02
<TRANSP> 5
 0.000000e+00 1.000000e+00 0.000000e+00 0.000000e+00 0.000000e+00
 0.000000e+00 6.000000e-01 4.000000e-01 0.000000e+00 0.000000e+00
 0.000000e+00 0.000000e+00 6.000000e-01 4.000000e-01 0.000000e+00
 0.000000e+00 0.000000e+00 0.000000e+00 7.000000e-01 3.000000e-01
 0.000000e+00 0.000000e+00 0.000000e+00 0.000000e+00 0.000000e+00
<ENDHMM>
~h "k"
<BEGINHMM>
<NUMSTATES> 5
<STATE> 2
<MEAN> 39
 -4.811611e+00 1.177586e+00 1.067453e+00 -4.528101e+00 -4.340594e+00 -5.046365e+00 -1.013185e+01 -7.832596e-02 -1.039485e+01 -1.255214e+00 -3.644695e+00 -7.160273e-01 6.166460e+01 -3.518807e-05 3.810670e-03 1.215613e-03 4.570672e-03 -4.738993e-03 1.918005e-03 -6.761304e-03 4.938622e-03 -7.503949e-04 -1.214020e-05 -3.802789e-03 7.253408e-04 -8.307423e-03 3.781606e-04 6.884372e-05 2.967831e-04 9.789172e-04 1.755432e-04 -7.251091e-04 -6.271233e-04 -6.927004e-04 -6.495745e-04 -3.869625e-04 -1.033802e-03 -3.808808e-04 2.180009e-04
<VARIANCE> 39
 8.657864e+01 6.414537e+01 6.811550e+01 1.091095e+02 7.344627e+01 9.809328e+01 7.543467e+01 5.627457e+01 7.786460e+01 4.724791e+01 4.464614e+01 3.330733e+01 1.243701e+02 2.561950e+00 3.582235e+00 2.941767e+00 4.007164e+00 2.671690e+00 4.179763e+00 3.880723e+00 3.172116e+00 3.482715e+00 2.651966e+00 2.438188e+00 1.927238e+00 2.417243e+00 3.528423e-01 5.897332e-01 4.734533e-01 6.819677e-01 4.528930e-01 6.707358e-01 6.898253e-01 5.612794e-01 5.950338e-01 4.753156e-01 4.448683e-01 3.527509e-01 3.241901e-01
<GCONST> 1.319655e+02
<STATE> 3
<MEAN> 39
 -4.811611e+00 1.177586e+00 1.067453e+00 -4.528101e+00 -4.340594e+00 -5.046365e+00 -1.013185e+01 -7.832596e-02 -1.039485e+01 -1.255214e+00 -3.644695e+00 -7.160273e-01 6.166460e+01 -3.518807e-05 3.810670e-03 1.215613e-03 4.570672e-03 -4.738993e-03 1.918005e-03 -6.761304e-03 4.938622e-03 -7.503949e-04 -1.214020e-05 -3.802789e-03 7.253408e-04 -8.307423e-03 3.781606e-04 6.884372e-05 2.967831e-04 9.789172e-04 1.755432e-04 -7.251091e-04 -6.271233e-04 -6.927004e-04 -6.495745e-04 -3.869625e-04 -1.033802e-03 -3.808808e-04 2.180009e-04
<VARIANCE> 39
 8.657864e+01 6.414537e+01 6.811550e+01 1.091095e+02 7.344627e+01 9.809328e+01 7.543467e+01 5.627457e+01 7.786460e+01 4.724791e+01 4.464614e+01 3.330733e+01 1.243701e+02 2.561950e+00 3.582235e+00 2.941767e+00 4.007164e+00 2.671690e+00 4.179763e+00 3.880723e+00 3.172116e+00 3.482715e+00 2.651966e+00 2.438188e+00 1.927238e+00 2.417243e+00 3.528423e-01 5.897332e-01 4.734533e-01 6.819677e-01 4.528930e-01 6.707358e-01 6.898253e-01 5.612794e-01 5.950338e-01 4.753156e-01 4.448683e-01 3.527509e-01 3.241901e-01
<GCONST> 1.319655e+02
<STATE> 4
<MEAN> 39
 -4.811611e+00 1.177586e+00 1.067453e+00 -4.528101e+00 -4.340594e+00 -5.046365e+00 -1.013185e+01 -7.832596e-02 -1.039485e+01 -1.255214e+00 -3.644695e+00 -7.160273e-01 6.166460e+01 -3.518807e-05 3.810670e-03 1.215613e-03 4.570672e-03 -4.738993e-03 1.918005e-03 -6.761304e-03 4.938622e-03 -7.503949e-04 -1.214020e-05 -3.802789e-03 7.253408e-04 -8.307423e-03 3.781606e-04 6.884372e-05 2.967831e-04 9.789172e-04 1.755432e-04 -7.251091e-04 -6.271233e-04 -6.927004e-04 -6.495745e-04 -3.869625e-04 -1.033802e-03 -3.808808e-04 2.180009e-04
<VARIANCE> 39
 8.657864e+01 6.414537e+01 6.811550e+01 1.091095e+02 7.344627e+01 9.809328e+01 7.543467e+01 5.627457e+01 7.786460e+01 4.724791e+01 4.464614e+01 3.330733e+01 1.243701e+02 2.561950e+00 3.582235e+00 2.941767e+00 4.007164e+00 2.671690e+00 4.179763e+00 3.880723e+00 3.172116e+00 3.482715e+00 2.651966e+00 2.438188e+00 1.927238e+00 2.417243e+00 3.528423e-01 5.897332e-01 4.734533e-01 6.819677e-01 4.528930e-01 6.707358e-01 6.898253e-01 5.612794e-01 5.950338e-01 4.753156e-01 4.448683e-01 3.527509e-01 3.241901e-01
<GCONST> 1.319655e+02
<TRANSP> 5
 0.000000e+00 1.000000e+00 0.000000e+00 0.000000e+00 0.000000e+00
 0.000000e+00 6.000000e-01 4.000000e-01 0.000000e+00 0.000000e+00
 0.000000e+00 0.000000e+00 6.000000e-01 4.000000e-01 0.000000e+00
 0.000000e+00 0.000000e+00 0.000000e+00 7.000000e-01 3.000000e-01
 0.000000e+00 0.000000e+00 0.000000e+00 0.000000e+00 0.000000e+00
<ENDHMM>
~h "o"
<BEGINHMM>
<NUMSTATES> 5
<STATE> 2
<MEAN> 39
 -4.811611e+00 1.177586e+00 1.067453e+00 -4.528101e+00 -4.340594e+00 -5.046365e+00 -1.013185e+01 -7.832596e-02 -1.039485e+01 -1.255214e+00 -3.644695e+00 -7.160273e-01 6.166460e+01 -3.518807e-05 3.810670e-03 1.215613e-03 4.570672e-03 -4.738993e-03 1.918005e-03 -6.761304e-03 4.938622e-03 -7.503949e-04 -1.214020e-05 -3.802789e-03 7.253408e-04 -8.307423e-03 3.781606e-04 6.884372e-05 2.967831e-04 9.789172e-04 1.755432e-04 -7.251091e-04 -6.271233e-04 -6.927004e-04 -6.495745e-04 -3.869625e-04 -1.033802e-03 -3.808808e-04 2.180009e-04
<VARIANCE> 39
 8.657864e+01 6.414537e+01 6.811550e+01 1.091095e+02 7.344627e+01 9.809328e+01 7.543467e+01 5.627457e+01 7.786460e+01 4.724791e+01 4.464614e+01 3.330733e+01 1.243701e+02 2.561950e+00 3.582235e+00 2.941767e+00 4.007164e+00 2.671690e+00 4.179763e+00 3.880723e+00 3.172116e+00 3.482715e+00 2.651966e+00 2.438188e+00 1.927238e+00 2.417243e+00 3.528423e-01 5.897332e-01 4.734533e-01 6.819677e-01 4.528930e-01 6.707358e-01 6.898253e-01 5.612794e-01 5.950338e-01 4.753156e-01 4.448683e-01 3.527509e-01 3.241901e-01
<GCONST> 1.319655e+02
<STATE> 3
<MEAN> 39
 -4.811611e+00 1.177586e+00 1.067453e+00 -4.528101e+00 -4.340594e+00 -5.046365e+00 -1.013185e+01 -7.832596e-02 -1.039485e+01 -1.255214e+00 -3.644695e+00 -7.160273e-01 6.166460e+01 -3.518807e-05 3.810670e-03 1.215613e-03 4.570672e-03 -4.738993e-03 1.918005e-03 -6.761304e-03 4.938622e-03 -7.503949e-04 -1.214020e-05 -3.802789e-03 7.253408e-04 -8.307423e-03 3.781606e-04 6.884372e-05 2.967831e-04 9.789172e-04 1.755432e-04 -7.251091e-04 -6.271233e-04 -6.927004e-04 -6.495745e-04 -3.869625e-04 -1.033802e-03 -3.808808e-04 2.180009e-04
<VARIANCE> 39
 8.657864e+01 6.414537e+01 6.811550e+01 1.091095e+02 7.344627e+01 9.809328e+01 7.543467e+01 5.627457e+01 7.786460e+01 4.724791e+01 4.464614e+01 3.330733e+01 1.243701e+02 2.561950e+00 3.582235e+00 2.941767e+00 4.007164e+00 2.671690e+00 4.179763e+00 3.880723e+00 3.172116e+00 3.482715e+00 2.651966e+00 2.438188e+00 1.927238e+00 2.417243e+00 3.528423e-01 5.897332e-01 4.734533e-01 6.819677e-01 4.528930e-01 6.707358e-01 6.898253e-01 5.612794e-01 5.950338e-01 4.753156e-01 4.448683e-01 3.527509e-01 3.241901e-01
<GCONST> 1.319655e+02
<STATE> 4
<MEAN> 39
 -4.811611e+00 1.177586e+00 1.067453e+00 -4.528101e+00 -4.340594e+00 -5.046365e+00 -1.013185e+01 -7.832596e-02 -1.039485e+01 -1.255214e+00 -3.644695e+00 -7.160273e-01 6.166460e+01 -3.518807e-05 3.810670e-03 1.215613e-03 4.570672e-03 -4.738993e-03 1.918005e-03 -6.761304e-03 4.938622e-03 -7.503949e-04 -1.214020e-05 -3.802789e-03 7.253408e-04 -8.307423e-03 3.781606e-04 6.884372e-05 2.967831e-04 9.789172e-04 1.755432e-04 -7.251091e-04 -6.271233e-04 -6.927004e-04 -6.495745e-04 -3.869625e-04 -1.033802e-03 -3.808808e-04 2.180009e-04
<VARIANCE> 39
 8.657864e+01 6.414537e+01 6.811550e+01 1.091095e+02 7.344627e+01 9.809328e+01 7.543467e+01 5.627457e+01 7.786460e+01 4.724791e+01 4.464614e+01 3.330733e+01 1.243701e+02 2.561950e+00 3.582235e+00 2.941767e+00 4.007164e+00 2.671690e+00 4.179763e+00 3.880723e+00 3.172116e+00 3.482715e+00 2.651966e+00 2.438188e+00 1.927238e+00 2.417243e+00 3.528423e-01 5.897332e-01 4.734533e-01 6.819677e-01 4.528930e-01 6.707358e-01 6.898253e-01 5.612794e-01 5.950338e-01 4.753156e-01 4.448683e-01 3.527509e-01 3.241901e-01
<GCONST> 1.319655e+02
<TRANSP> 5
 0.000000e+00 1.000000e+00 0.000000e+00 0.000000e+00 0.000000e+00
 0.000000e+00 6.000000e-01 4.000000e-01 0.000000e+00 0.000000e+00
 0.000000e+00 0.000000e+00 6.000000e-01 4.000000e-01 0.000000e+00
 0.000000e+00 0.000000e+00 0.000000e+00 7.000000e-01 3.000000e-01
 0.000000e+00 0.000000e+00 0.000000e+00 0.000000e+00 0.000000e+00
<ENDHMM>
~h "ng"
<BEGINHMM>
<NUMSTATES> 5
<STATE> 2
<MEAN> 39
 -4.811611e+00 1.177586e+00 1.067453e+00 -4.528101e+00 -4.340594e+00 -5.046365e+00 -1.013185e+01 -7.832596e-02 -1.039485e+01 -1.255214e+00 -3.644695e+00 -7.160273e-01 6.166460e+01 -3.518807e-05 3.810670e-03 1.215613e-03 4.570672e-03 -4.738993e-03 1.918005e-03 -6.761304e-03 4.938622e-03 -7.503949e-04 -1.214020e-05 -3.802789e-03 7.253408e-04 -8.307423e-03 3.781606e-04 6.884372e-05 2.967831e-04 9.789172e-04 1.755432e-04 -7.251091e-04 -6.271233e-04 -6.927004e-04 -6.495745e-04 -3.869625e-04 -1.033802e-03 -3.808808e-04 2.180009e-04
<VARIANCE> 39
 8.657864e+01 6.414537e+01 6.811550e+01 1.091095e+02 7.344627e+01 9.809328e+01 7.543467e+01 5.627457e+01 7.786460e+01 4.724791e+01 4.464614e+01 3.330733e+01 1.243701e+02 2.561950e+00 3.582235e+00 2.941767e+00 4.007164e+00 2.671690e+00 4.179763e+00 3.880723e+00 3.172116e+00 3.482715e+00 2.651966e+00 2.438188e+00 1.927238e+00 2.417243e+00 3.528423e-01 5.897332e-01 4.734533e-01 6.819677e-01 4.528930e-01 6.707358e-01 6.898253e-01 5.612794e-01 5.950338e-01 4.753156e-01 4.448683e-01 3.527509e-01 3.241901e-01
<GCONST> 1.319655e+02
<STATE> 3
<MEAN> 39
 -4.811611e+00 1.177586e+00 1.067453e+00 -4.528101e+00 -4.340594e+00 -5.046365e+00 -1.013185e+01 -7.832596e-02 -1.039485e+01 -1.255214e+00 -3.644695e+00 -7.160273e-01 6.166460e+01 -3.518807e-05 3.810670e-03 1.215613e-03 4.570672e-03 -4.738993e-03 1.918005e-03 -6.761304e-03 4.938622e-03 -7.503949e-04 -1.214020e-05 -3.802789e-03 7.253408e-04 -8.307423e-03 3.781606e-04 6.884372e-05 2.967831e-04 9.789172e-04 1.755432e-04 -7.251091e-04 -6.271233e-04 -6.927004e-04 -6.495745e-04 -3.869625e-04 -1.033802e-03 -3.808808e-04 2.180009e-04
<VARIANCE> 39
 8.657864e+01 6.414537e+01 6.811550e+01 1.091095e+02 7.344627e+01 9.809328e+01 7.543467e+01 5.627457e+01 7.786460e+01 4.724791e+01 4.464614e+01 3.330733e+01 1.243701e+02 2.561950e+00 3.582235e+00 2.941767e+00 4.007164e+00 2.671690e+00 4.179763e+00 3.880723e+00 3.172116e+00 3.482715e+00 2.651966e+00 2.438188e+00 1.927238e+00 2.417243e+00 3.528423e-01 5.897332e-01 4.734533e-01 6.819677e-01 4.528930e-01 6.707358e-01 6.898253e-01 5.612794e-01 5.950338e-01 4.753156e-01 4.448683e-01 3.527509e-01 3.241901e-01
<GCONST> 1.319655e+02
<STATE> 4
<MEAN> 39
 -4.811611e+00 1.177586e+00 1.067453e+00 -4.528101e+00 -4.340594e+00 -5.046365e+00 -1.013185e+01 -7.832596e-02 -1.039485e+01 -1.255214e+00 -3.644695e+00 -7.160273e-01 6.166460e+01 -3.518807e-05 3.810670e-03 1.215613e-03 4.570672e-03 -4.738993e-03 1.918005e-03 -6.761304e-03 4.938622e-03 -7.503949e-04 -1.214020e-05 -3.802789e-03 7.253408e-04 -8.307423e-03 3.781606e-04 6.884372e-05 2.967831e-04 9.789172e-04 1.755432e-04 -7.251091e-04 -6.271233e-04 -6.927004e-04 -6.495745e-04 -3.869625e-04 -1.033802e-03 -3.808808e-04 2.180009e-04
<VARIANCE> 39
 8.657864e+01 6.414537e+01 6.811550e+01 1.091095e+02 7.344627e+01 9.809328e+01 7.543467e+01 5.627457e+01 7.786460e+01 4.724791e+01 4.464614e+01 3.330733e+01 1.243701e+02 2.561950e+00 3.582235e+00 2.941767e+00 4.007164e+00 2.671690e+00 4.179763e+00 3.880723e+00 3.172116e+00 3.482715e+00 2.651966e+00 2.438188e+00 1.927238e+00 2.417243e+00 3.528423e-01 5.897332e-01 4.734533e-01 6.819677e-01 4.528930e-01 6.707358e-01 6.898253e-01 5.612794e-01 5.950338e-01 4.753156e-01 4.448683e-01 3.527509e-01 3.241901e-01
<GCONST> 1.319655e+02
<TRANSP> 5
 0.000000e+00 1.000000e+00 0.000000e+00 0.000000e+00 0.000000e+00
 0.000000e+00 6.000000e-01 4.000000e-01 0.000000e+00 0.000000e+00
 0.000000e+00 0.000000e+00 6.000000e-01 4.000000e-01 0.000000e+00
 0.000000e+00 0.000000e+00 0.000000e+00 7.000000e-01 3.000000e-01
 0.000000e+00 0.000000e+00 0.000000e+00 0.000000e+00 0.000000e+00
<ENDHMM>
~h "r"
<BEGINHMM>
<NUMSTATES> 5
<STATE> 2
<MEAN> 39
 -4.811611e+00 1.177586e+00 1.067453e+00 -4.528101e+00 -4.340594e+00 -5.046365e+00 -1.013185e+01 -7.832596e-02 -1.039485e+01 -1.255214e+00 -3.644695e+00 -7.160273e-01 6.166460e+01 -3.518807e-05 3.810670e-03 1.215613e-03 4.570672e-03 -4.738993e-03 1.918005e-03 -6.761304e-03 4.938622e-03 -7.503949e-04 -1.214020e-05 -3.802789e-03 7.253408e-04 -8.307423e-03 3.781606e-04 6.884372e-05 2.967831e-04 9.789172e-04 1.755432e-04 -7.251091e-04 -6.271233e-04 -6.927004e-04 -6.495745e-04 -3.869625e-04 -1.033802e-03 -3.808808e-04 2.180009e-04
<VARIANCE> 39
 8.657864e+01 6.414537e+01 6.811550e+01 1.091095e+02 7.344627e+01 9.809328e+01 7.543467e+01 5.627457e+01 7.786460e+01 4.724791e+01 4.464614e+01 3.330733e+01 1.243701e+02 2.561950e+00 3.582235e+00 2.941767e+00 4.007164e+00 2.671690e+00 4.179763e+00 3.880723e+00 3.172116e+00 3.482715e+00 2.651966e+00 2.438188e+00 1.927238e+00 2.417243e+00 3.528423e-01 5.897332e-01 4.734533e-01 6.819677e-01 4.528930e-01 6.707358e-01 6.898253e-01 5.612794e-01 5.950338e-01 4.753156e-01 4.448683e-01 3.527509e-01 3.241901e-01
<GCONST> 1.319655e+02
<STATE> 3
<MEAN> 39
 -4.811611e+00 1.177586e+00 1.067453e+00 -4.528101e+00 -4.340594e+00 -5.046365e+00 -1.013185e+01 -7.832596e-02 -1.039485e+01 -1.255214e+00 -3.644695e+00 -7.160273e-01 6.166460e+01 -3.518807e-05 3.810670e-03 1.215613e-03 4.570672e-03 -4.738993e-03 1.918005e-03 -6.761304e-03 4.938622e-03 -7.503949e-04 -1.214020e-05 -3.802789e-03 7.253408e-04 -8.307423e-03 3.781606e-04 6.884372e-05 2.967831e-04 9.789172e-04 1.755432e-04 -7.251091e-04 -6.271233e-04 -6.927004e-04 -6.495745e-04 -3.869625e-04 -1.033802e-03 -3.808808e-04 2.180009e-04
<VARIANCE> 39
 8.657864e+01 6.414537e+01 6.811550e+01 1.091095e+02 7.344627e+01 9.809328e+01 7.543467e+01 5.627457e+01 7.786460e+01 4.724791e+01 4.464614e+01 3.330733e+01 1.243701e+02 2.561950e+00 3.582235e+00 2.941767e+00 4.007164e+00 2.671690e+00 4.179763e+00 3.880723e+00 3.172116e+00 3.482715e+00 2.651966e+00 2.438188e+00 1.927238e+00 2.417243e+00 3.528423e-01 5.897332e-01 4.734533e-01 6.819677e-01 4.528930e-01 6.707358e-01 6.898253e-01 5.612794e-01 5.950338e-01 4.753156e-01 4.448683e-01 3.527509e-01 3.241901e-01
<GCONST> 1.319655e+02
<STATE> 4
<MEAN> 39
 -4.811611e+00 1.177586e+00 1.067453e+00 -4.528101e+00 -4.340594e+00 -5.046365e+00 -1.013185e+01 -7.832596e-02 -1.039485e+01 -1.255214e+00 -3.644695e+00 -7.160273e-01 6.166460e+01 -3.518807e-05 3.810670e-03 1.215613e-03 4.570672e-03 -4.738993e-03 1.918005e-03 -6.761304e-03 4.938622e-03 -7.503949e-04 -1.214020e-05 -3.802789e-03 7.253408e-04 -8.307423e-03 3.781606e-04 6.884372e-05 2.967831e-04 9.789172e-04 1.755432e-04 -7.251091e-04 -6.271233e-04 -6.927004e-04 -6.495745e-04 -3.869625e-04 -1.033802e-03 -3.808808e-04 2.180009e-04
<VARIANCE> 39
 8.657864e+01 6.414537e+01 6.811550e+01 1.091095e+02 7.344627e+01 9.809328e+01 7.543467e+01 5.627457e+01 7.786460e+01 4.724791e+01 4.464614e+01 3.330733e+01 1.243701e+02 2.561950e+00 3.582235e+00 2.941767e+00 4.007164e+00 2.671690e+00 4.179763e+00 3.880723e+00 3.172116e+00 3.482715e+00 2.651966e+00 2.438188e+00 1.927238e+00 2.417243e+00 3.528423e-01 5.897332e-01 4.734533e-01 6.819677e-01 4.528930e-01 6.707358e-01 6.898253e-01 5.612794e-01 5.950338e-01 4.753156e-01 4.448683e-01 3.527509e-01 3.241901e-01
<GCONST> 1.319655e+02
<TRANSP> 5
 0.000000e+00 1.000000e+00 0.000000e+00 0.000000e+00 0.000000e+00
 0.000000e+00 6.000000e-01 4.000000e-01 0.000000e+00 0.000000e+00
 0.000000e+00 0.000000e+00 6.000000e-01 4.000000e-01 0.000000e+00
 0.000000e+00 0.000000e+00 0.000000e+00 7.000000e-01 3.000000e-01
 0.000000e+00 0.000000e+00 0.000000e+00 0.000000e+00 0.000000e+00
<ENDHMM>
~h "e"
<BEGINHMM>
<NUMSTATES> 5
<STATE> 2
<MEAN> 39
 -4.811611e+00 1.177586e+00 1.067453e+00 -4.528101e+00 -4.340594e+00 -5.046365e+00 -1.013185e+01 -7.832596e-02 -1.039485e+01 -1.255214e+00 -3.644695e+00 -7.160273e-01 6.166460e+01 -3.518807e-05 3.810670e-03 1.215613e-03 4.570672e-03 -4.738993e-03 1.918005e-03 -6.761304e-03 4.938622e-03 -7.503949e-04 -1.214020e-05 -3.802789e-03 7.253408e-04 -8.307423e-03 3.781606e-04 6.884372e-05 2.967831e-04 9.789172e-04 1.755432e-04 -7.251091e-04 -6.271233e-04 -6.927004e-04 -6.495745e-04 -3.869625e-04 -1.033802e-03 -3.808808e-04 2.180009e-04
<VARIANCE> 39
 8.657864e+01 6.414537e+01 6.811550e+01 1.091095e+02 7.344627e+01 9.809328e+01 7.543467e+01 5.627457e+01 7.786460e+01 4.724791e+01 4.464614e+01 3.330733e+01 1.243701e+02 2.561950e+00 3.582235e+00 2.941767e+00 4.007164e+00 2.671690e+00 4.179763e+00 3.880723e+00 3.172116e+00 3.482715e+00 2.651966e+00 2.438188e+00 1.927238e+00 2.417243e+00 3.528423e-01 5.897332e-01 4.734533e-01 6.819677e-01 4.528930e-01 6.707358e-01 6.898253e-01 5.612794e-01 5.950338e-01 4.753156e-01 4.448683e-01 3.527509e-01 3.241901e-01
<GCONST> 1.319655e+02
<STATE> 3
<MEAN> 39
 -4.811611e+00 1.177586e+00 1.067453e+00 -4.528101e+00 -4.340594e+00 -5.046365e+00 -1.013185e+01 -7.832596e-02 -1.039485e+01 -1.255214e+00 -3.644695e+00 -7.160273e-01 6.166460e+01 -3.518807e-05 3.810670e-03 1.215613e-03 4.570672e-03 -4.738993e-03 1.918005e-03 -6.761304e-03 4.938622e-03 -7.503949e-04 -1.214020e-05 -3.802789e-03 7.253408e-04 -8.307423e-03 3.781606e-04 6.884372e-05 2.967831e-04 9.789172e-04 1.755432e-04 -7.251091e-04 -6.271233e-04 -6.927004e-04 -6.495745e-04 -3.869625e-04 -1.033802e-03 -3.808808e-04 2.180009e-04
<VARIANCE> 39
 8.657864e+01 6.414537e+01 6.811550e+01 1.091095e+02 7.344627e+01 9.809328e+01 7.543467e+01 5.627457e+01 7.786460e+01 4.724791e+01 4.464614e+01 3.330733e+01 1.243701e+02 2.561950e+00 3.582235e+00 2.941767e+00 4.007164e+00 2.671690e+00 4.179763e+00 3.880723e+00 3.172116e+00 3.482715e+00 2.651966e+00 2.438188e+00 1.927238e+00 2.417243e+00 3.528423e-01 5.897332e-01 4.734533e-01 6.819677e-01 4.528930e-01 6.707358e-01 6.898253e-01 5.612794e-01 5.950338e-01 4.753156e-01 4.448683e-01 3.527509e-01 3.241901e-01
<GCONST> 1.319655e+02
<STATE> 4
<MEAN> 39
 -4.811611e+00 1.177586e+00 1.067453e+00 -4.528101e+00 -4.340594e+00 -5.046365e+00 -1.013185e+01 -7.832596e-02 -1.039485e+01 -1.255214e+00 -3.644695e+00 -7.160273e-01 6.166460e+01 -3.518807e-05 3.810670e-03 1.215613e-03 4.570672e-03 -4.738993e-03 1.918005e-03 -6.761304e-03 4.938622e-03 -7.503949e-04 -1.214020e-05 -3.802789e-03 7.253408e-04 -8.307423e-03 3.781606e-04 6.884372e-05 2.967831e-04 9.789172e-04 1.755432e-04 -7.251091e-04 -6.271233e-04 -6.927004e-04 -6.495745e-04 -3.869625e-04 -1.033802e-03 -3.808808e-04 2.180009e-04
<VARIANCE> 39
 8.657864e+01 6.414537e+01 6.811550e+01 1.091095e+02 7.344627e+01 9.809328e+01 7.543467e+01 5.627457e+01 7.786460e+01 4.724791e+01 4.464614e+01 3.330733e+01 1.243701e+02 2.561950e+00 3.582235e+00 2.941767e+00 4.007164e+00 2.671690e+00 4.179763e+00 3.880723e+00 3.172116e+00 3.482715e+00 2.651966e+00 2.438188e+00 1.927238e+00 2.417243e+00 3.528423e-01 5.897332e-01 4.734533e-01 6.819677e-01 4.528930e-01 6.707358e-01 6.898253e-01 5.612794e-01 5.950338e-01 4.753156e-01 4.448683e-01 3.527509e-01 3.241901e-01
<GCONST> 1.319655e+02
<TRANSP> 5
 0.000000e+00 1.000000e+00 0.000000e+00 0.000000e+00 0.000000e+00
 0.000000e+00 6.000000e-01 4.000000e-01 0.000000e+00 0.000000e+00
 0.000000e+00 0.000000e+00 6.000000e-01 4.000000e-01 0.000000e+00
 0.000000e+00 0.000000e+00 0.000000e+00 7.000000e-01 3.000000e-01
 0.000000e+00 0.000000e+00 0.000000e+00 0.000000e+00 0.000000e+00
<ENDHMM>
~h "sil"
<BEGINHMM>
<NUMSTATES> 5
<STATE> 2
<MEAN> 39
 -4.811611e+00 1.177586e+00 1.067453e+00 -4.528101e+00 -4.340594e+00 -5.046365e+00 -1.013185e+01 -7.832596e-02 -1.039485e+01 -1.255214e+00 -3.644695e+00 -7.160273e-01 6.166460e+01 -3.518807e-05 3.810670e-03 1.215613e-03 4.570672e-03 -4.738993e-03 1.918005e-03 -6.761304e-03 4.938622e-03 -7.503949e-04 -1.214020e-05 -3.802789e-03 7.253408e-04 -8.307423e-03 3.781606e-04 6.884372e-05 2.967831e-04 9.789172e-04 1.755432e-04 -7.251091e-04 -6.271233e-04 -6.927004e-04 -6.495745e-04 -3.869625e-04 -1.033802e-03 -3.808808e-04 2.180009e-04
<VARIANCE> 39
 8.657864e+01 6.414537e+01 6.811550e+01 1.091095e+02 7.344627e+01 9.809328e+01 7.543467e+01 5.627457e+01 7.786460e+01 4.724791e+01 4.464614e+01 3.330733e+01 1.243701e+02 2.561950e+00 3.582235e+00 2.941767e+00 4.007164e+00 2.671690e+00 4.179763e+00 3.880723e+00 3.172116e+00 3.482715e+00 2.651966e+00 2.438188e+00 1.927238e+00 2.417243e+00 3.528423e-01 5.897332e-01 4.734533e-01 6.819677e-01 4.528930e-01 6.707358e-01 6.898253e-01 5.612794e-01 5.950338e-01 4.753156e-01 4.448683e-01 3.527509e-01 3.241901e-01
<GCONST> 1.319655e+02
<STATE> 3
<MEAN> 39
 -4.811611e+00 1.177586e+00 1.067453e+00 -4.528101e+00 -4.340594e+00 -5.046365e+00 -1.013185e+01 -7.832596e-02 -1.039485e+01 -1.255214e+00 -3.644695e+00 -7.160273e-01 6.166460e+01 -3.518807e-05 3.810670e-03 1.215613e-03 4.570672e-03 -4.738993e-03 1.918005e-03 -6.761304e-03 4.938622e-03 -7.503949e-04 -1.214020e-05 -3.802789e-03 7.253408e-04 -8.307423e-03 3.781606e-04 6.884372e-05 2.967831e-04 9.789172e-04 1.755432e-04 -7.251091e-04 -6.271233e-04 -6.927004e-04 -6.495745e-04 -3.869625e-04 -1.033802e-03 -3.808808e-04 2.180009e-04
<VARIANCE> 39
 8.657864e+01 6.414537e+01 6.811550e+01 1.091095e+02 7.344627e+01 9.809328e+01 7.543467e+01 5.627457e+01 7.786460e+01 4.724791e+01 4.464614e+01 3.330733e+01 1.243701e+02 2.561950e+00 3.582235e+00 2.941767e+00 4.007164e+00 2.671690e+00 4.179763e+00 3.880723e+00 3.172116e+00 3.482715e+00 2.651966e+00 2.438188e+00 1.927238e+00 2.417243e+00 3.528423e-01 5.897332e-01 4.734533e-01 6.819677e-01 4.528930e-01 6.707358e-01 6.898253e-01 5.612794e-01 5.950338e-01 4.753156e-01 4.448683e-01 3.527509e-01 3.241901e-01
<GCONST> 1.319655e+02
<STATE> 4
<MEAN> 39
 -4.811611e+00 1.177586e+00 1.067453e+00 -4.528101e+00 -4.340594e+00 -5.046365e+00 -1.013185e+01 -7.832596e-02 -1.039485e+01 -1.255214e+00 -3.644695e+00 -7.160273e-01 6.166460e+01 -3.518807e-05 3.810670e-03 1.215613e-03 4.570672e-03 -4.738993e-03 1.918005e-03 -6.761304e-03 4.938622e-03 -7.503949e-04 -1.214020e-05 -3.802789e-03 7.253408e-04 -8.307423e-03 3.781606e-04 6.884372e-05 2.967831e-04 9.789172e-04 1.755432e-04 -7.251091e-04 -6.271233e-04 -6.927004e-04 -6.495745e-04 -3.869625e-04 -1.033802e-03 -3.808808e-04 2.180009e-04
<VARIANCE> 39
 8.657864e+01 6.414537e+01 6.811550e+01 1.091095e+02 7.344627e+01 9.809328e+01 7.543467e+01 5.627457e+01 7.786460e+01 4.724791e+01 4.464614e+01 3.330733e+01 1.243701e+02 2.561950e+00 3.582235e+00 2.941767e+00 4.007164e+00 2.671690e+00 4.179763e+00 3.880723e+00 3.172116e+00 3.482715e+00 2.651966e+00 2.438188e+00 1.927238e+00 2.417243e+00 3.528423e-01 5.897332e-01 4.734533e-01 6.819677e-01 4.528930e-01 6.707358e-01 6.898253e-01 5.612794e-01 5.950338e-01 4.753156e-01 4.448683e-01 3.527509e-01 3.241901e-01
<GCONST> 1.319655e+02
<TRANSP> 5
 0.000000e+00 1.000000e+00 0.000000e+00 0.000000e+00 0.000000e+00
 0.000000e+00 6.000000e-01 4.000000e-01 0.000000e+00 0.000000e+00
 0.000000e+00 0.000000e+00 6.000000e-01 4.000000e-01 0.000000e+00
 0.000000e+00 0.000000e+00 0.000000e+00 7.000000e-01 3.000000e-01
 0.000000e+00 0.000000e+00 0.000000e+00 0.000000e+00 0.000000e+00
<ENDHMM>
~h "g"
<BEGINHMM>
<NUMSTATES> 5
<STATE> 2
<MEAN> 39
 -4.811611e+00 1.177586e+00 1.067453e+00 -4.528101e+00 -4.340594e+00 -5.046365e+00 -1.013185e+01 -7.832596e-02 -1.039485e+01 -1.255214e+00 -3.644695e+00 -7.160273e-01 6.166460e+01 -3.518807e-05 3.810670e-03 1.215613e-03 4.570672e-03 -4.738993e-03 1.918005e-03 -6.761304e-03 4.938622e-03 -7.503949e-04 -1.214020e-05 -3.802789e-03 7.253408e-04 -8.307423e-03 3.781606e-04 6.884372e-05 2.967831e-04 9.789172e-04 1.755432e-04 -7.251091e-04 -6.271233e-04 -6.927004e-04 -6.495745e-04 -3.869625e-04 -1.033802e-03 -3.808808e-04 2.180009e-04
<VARIANCE> 39
 8.657864e+01 6.414537e+01 6.811550e+01 1.091095e+02 7.344627e+01 9.809328e+01 7.543467e+01 5.627457e+01 7.786460e+01 4.724791e+01 4.464614e+01 3.330733e+01 1.243701e+02 2.561950e+00 3.582235e+00 2.941767e+00 4.007164e+00 2.671690e+00 4.179763e+00 3.880723e+00 3.172116e+00 3.482715e+00 2.651966e+00 2.438188e+00 1.927238e+00 2.417243e+00 3.528423e-01 5.897332e-01 4.734533e-01 6.819677e-01 4.528930e-01 6.707358e-01 6.898253e-01 5.612794e-01 5.950338e-01 4.753156e-01 4.448683e-01 3.527509e-01 3.241901e-01
<GCONST> 1.319655e+02
<STATE> 3
<MEAN> 39
 -4.811611e+00 1.177586e+00 1.067453e+00 -4.528101e+00 -4.340594e+00 -5.046365e+00 -1.013185e+01 -7.832596e-02 -1.039485e+01 -1.255214e+00 -3.644695e+00 -7.160273e-01 6.166460e+01 -3.518807e-05 3.810670e-03 1.215613e-03 4.570672e-03 -4.738993e-03 1.918005e-03 -6.761304e-03 4.938622e-03 -7.503949e-04 -1.214020e-05 -3.802789e-03 7.253408e-04 -8.307423e-03 3.781606e-04 6.884372e-05 2.967831e-04 9.789172e-04 1.755432e-04 -7.251091e-04 -6.271233e-04 -6.927004e-04 -6.495745e-04 -3.869625e-04 -1.033802e-03 -3.808808e-04 2.180009e-04
<VARIANCE> 39
 8.657864e+01 6.414537e+01 6.811550e+01 1.091095e+02 7.344627e+01 9.809328e+01 7.543467e+01 5.627457e+01 7.786460e+01 4.724791e+01 4.464614e+01 3.330733e+01 1.243701e+02 2.561950e+00 3.582235e+00 2.941767e+00 4.007164e+00 2.671690e+00 4.179763e+00 3.880723e+00 3.172116e+00 3.482715e+00 2.651966e+00 2.438188e+00 1.927238e+00 2.417243e+00 3.528423e-01 5.897332e-01 4.734533e-01 6.819677e-01 4.528930e-01 6.707358e-01 6.898253e-01 5.612794e-01 5.950338e-01 4.753156e-01 4.448683e-01 3.527509e-01 3.241901e-01
<GCONST> 1.319655e+02
<STATE> 4
<MEAN> 39
 -4.811611e+00 1.177586e+00 1.067453e+00 -4.528101e+00 -4.340594e+00 -5.046365e+00 -1.013185e+01 -7.832596e-02 -1.039485e+01 -1.255214e+00 -3.644695e+00 -7.160273e-01 6.166460e+01 -3.518807e-05 3.810670e-03 1.215613e-03 4.570672e-03 -4.738993e-03 1.918005e-03 -6.761304e-03 4.938622e-03 -7.503949e-04 -1.214020e-05 -3.802789e-03 7.253408e-04 -8.307423e-03 3.781606e-04 6.884372e-05 2.967831e-04 9.789172e-04 1.755432e-04 -7.251091e-04 -6.271233e-04 -6.927004e-04 -6.495745e-04 -3.869625e-04 -1.033802e-03 -3.808808e-04 2.180009e-04
<VARIANCE> 39
 8.657864e+01 6.414537e+01 6.811550e+01 1.091095e+02 7.344627e+01 9.809328e+01 7.543467e+01 5.627457e+01 7.786460e+01 4.724791e+01 4.464614e+01 3.330733e+01 1.243701e+02 2.561950e+00 3.582235e+00 2.941767e+00 4.007164e+00 2.671690e+00 4.179763e+00 3.880723e+00 3.172116e+00 3.482715e+00 2.651966e+00 2.438188e+00 1.927238e+00 2.417243e+00 3.528423e-01 5.897332e-01 4.734533e-01 6.819677e-01 4.528930e-01 6.707358e-01 6.898253e-01 5.612794e-01 5.950338e-01 4.753156e-01 4.448683e-01 3.527509e-01 3.241901e-01
<GCONST> 1.319655e+02
<TRANSP> 5
 0.000000e+00 1.000000e+00 0.000000e+00 0.000000e+00 0.000000e+00
 0.000000e+00 6.000000e-01 4.000000e-01 0.000000e+00 0.000000e+00
 0.000000e+00 0.000000e+00 6.000000e-01 4.000000e-01 0.000000e+00
 0.000000e+00 0.000000e+00 0.000000e+00 7.000000e-01 3.000000e-01
 0.000000e+00 0.000000e+00 0.000000e+00 0.000000e+00 0.000000e+00
<ENDHMM>
~h "c"
<BEGINHMM>
<NUMSTATES> 5
<STATE> 2
<MEAN> 39
 -4.811611e+00 1.177586e+00 1.067453e+00 -4.528101e+00 -4.340594e+00 -5.046365e+00 -1.013185e+01 -7.832596e-02 -1.039485e+01 -1.255214e+00 -3.644695e+00 -7.160273e-01 6.166460e+01 -3.518807e-05 3.810670e-03 1.215613e-03 4.570672e-03 -4.738993e-03 1.918005e-03 -6.761304e-03 4.938622e-03 -7.503949e-04 -1.214020e-05 -3.802789e-03 7.253408e-04 -8.307423e-03 3.781606e-04 6.884372e-05 2.967831e-04 9.789172e-04 1.755432e-04 -7.251091e-04 -6.271233e-04 -6.927004e-04 -6.495745e-04 -3.869625e-04 -1.033802e-03 -3.808808e-04 2.180009e-04
<VARIANCE> 39
 8.657864e+01 6.414537e+01 6.811550e+01 1.091095e+02 7.344627e+01 9.809328e+01 7.543467e+01 5.627457e+01 7.786460e+01 4.724791e+01 4.464614e+01 3.330733e+01 1.243701e+02 2.561950e+00 3.582235e+00 2.941767e+00 4.007164e+00 2.671690e+00 4.179763e+00 3.880723e+00 3.172116e+00 3.482715e+00 2.651966e+00 2.438188e+00 1.927238e+00 2.417243e+00 3.528423e-01 5.897332e-01 4.734533e-01 6.819677e-01 4.528930e-01 6.707358e-01 6.898253e-01 5.612794e-01 5.950338e-01 4.753156e-01 4.448683e-01 3.527509e-01 3.241901e-01
<GCONST> 1.319655e+02
<STATE> 3
<MEAN> 39
 -4.811611e+00 1.177586e+00 1.067453e+00 -4.528101e+00 -4.340594e+00 -5.046365e+00 -1.013185e+01 -7.832596e-02 -1.039485e+01 -1.255214e+00 -3.644695e+00 -7.160273e-01 6.166460e+01 -3.518807e-05 3.810670e-03 1.215613e-03 4.570672e-03 -4.738993e-03 1.918005e-03 -6.761304e-03 4.938622e-03 -7.503949e-04 -1.214020e-05 -3.802789e-03 7.253408e-04 -8.307423e-03 3.781606e-04 6.884372e-05 2.967831e-04 9.789172e-04 1.755432e-04 -7.251091e-04 -6.271233e-04 -6.927004e-04 -6.495745e-04 -3.869625e-04 -1.033802e-03 -3.808808e-04 2.180009e-04
<VARIANCE> 39
 8.657864e+01 6.414537e+01 6.811550e+01 1.091095e+02 7.344627e+01 9.809328e+01 7.543467e+01 5.627457e+01 7.786460e+01 4.724791e+01 4.464614e+01 3.330733e+01 1.243701e+02 2.561950e+00 3.582235e+00 2.941767e+00 4.007164e+00 2.671690e+00 4.179763e+00 3.880723e+00 3.172116e+00 3.482715e+00 2.651966e+00 2.438188e+00 1.927238e+00 2.417243e+00 3.528423e-01 5.897332e-01 4.734533e-01 6.819677e-01 4.528930e-01 6.707358e-01 6.898253e-01 5.612794e-01 5.950338e-01 4.753156e-01 4.448683e-01 3.527509e-01 3.241901e-01
<GCONST> 1.319655e+02
<STATE> 4
<MEAN> 39
 -4.811611e+00 1.177586e+00 1.067453e+00 -4.528101e+00 -4.340594e+00 -5.046365e+00 -1.013185e+01 -7.832596e-02 -1.039485e+01 -1.255214e+00 -3.644695e+00 -7.160273e-01 6.166460e+01 -3.518807e-05 3.810670e-03 1.215613e-03 4.570672e-03 -4.738993e-03 1.918005e-03 -6.761304e-03 4.938622e-03 -7.503949e-04 -1.214020e-05 -3.802789e-03 7.253408e-04 -8.307423e-03 3.781606e-04 6.884372e-05 2.967831e-04 9.789172e-04 1.755432e-04 -7.251091e-04 -6.271233e-04 -6.927004e-04 -6.495745e-04 -3.869625e-04 -1.033802e-03 -3.808808e-04 2.180009e-04
<VARIANCE> 39
 8.657864e+01 6.414537e+01 6.811550e+01 1.091095e+02 7.344627e+01 9.809328e+01 7.543467e+01 5.627457e+01 7.786460e+01 4.724791e+01 4.464614e+01 3.330733e+01 1.243701e+02 2.561950e+00 3.582235e+00 2.941767e+00 4.007164e+00 2.671690e+00 4.179763e+00 3.880723e+00 3.172116e+00 3.482715e+00 2.651966e+00 2.438188e+00 1.927238e+00 2.417243e+00 3.528423e-01 5.897332e-01 4.734533e-01 6.819677e-01 4.528930e-01 6.707358e-01 6.898253e-01 5.612794e-01 5.950338e-01 4.753156e-01 4.448683e-01 3.527509e-01 3.241901e-01
<GCONST> 1.319655e+02
<TRANSP> 5
 0.000000e+00 1.000000e+00 0.000000e+00 0.000000e+00 0.000000e+00
 0.000000e+00 6.000000e-01 4.000000e-01 0.000000e+00 0.000000e+00
 0.000000e+00 0.000000e+00 6.000000e-01 4.000000e-01 0.000000e+00
 0.000000e+00 0.000000e+00 0.000000e+00 7.000000e-01 3.000000e-01
 0.000000e+00 0.000000e+00 0.000000e+00 0.000000e+00 0.000000e+00
<ENDHMM>
~h "w"
<BEGINHMM>
<NUMSTATES> 5
<STATE> 2
<MEAN> 39
 -4.811611e+00 1.177586e+00 1.067453e+00 -4.528101e+00 -4.340594e+00 -5.046365e+00 -1.013185e+01 -7.832596e-02 -1.039485e+01 -1.255214e+00 -3.644695e+00 -7.160273e-01 6.166460e+01 -3.518807e-05 3.810670e-03 1.215613e-03 4.570672e-03 -4.738993e-03 1.918005e-03 -6.761304e-03 4.938622e-03 -7.503949e-04 -1.214020e-05 -3.802789e-03 7.253408e-04 -8.307423e-03 3.781606e-04 6.884372e-05 2.967831e-04 9.789172e-04 1.755432e-04 -7.251091e-04 -6.271233e-04 -6.927004e-04 -6.495745e-04 -3.869625e-04 -1.033802e-03 -3.808808e-04 2.180009e-04
<VARIANCE> 39
 8.657864e+01 6.414537e+01 6.811550e+01 1.091095e+02 7.344627e+01 9.809328e+01 7.543467e+01 5.627457e+01 7.786460e+01 4.724791e+01 4.464614e+01 3.330733e+01 1.243701e+02 2.561950e+00 3.582235e+00 2.941767e+00 4.007164e+00 2.671690e+00 4.179763e+00 3.880723e+00 3.172116e+00 3.482715e+00 2.651966e+00 2.438188e+00 1.927238e+00 2.417243e+00 3.528423e-01 5.897332e-01 4.734533e-01 6.819677e-01 4.528930e-01 6.707358e-01 6.898253e-01 5.612794e-01 5.950338e-01 4.753156e-01 4.448683e-01 3.527509e-01 3.241901e-01
<GCONST> 1.319655e+02
<STATE> 3
<MEAN> 39
 -4.811611e+00 1.177586e+00 1.067453e+00 -4.528101e+00 -4.340594e+00 -5.046365e+00 -1.013185e+01 -7.832596e-02 -1.039485e+01 -1.255214e+00 -3.644695e+00 -7.160273e-01 6.166460e+01 -3.518807e-05 3.810670e-03 1.215613e-03 4.570672e-03 -4.738993e-03 1.918005e-03 -6.761304e-03 4.938622e-03 -7.503949e-04 -1.214020e-05 -3.802789e-03 7.253408e-04 -8.307423e-03 3.781606e-04 6.884372e-05 2.967831e-04 9.789172e-04 1.755432e-04 -7.251091e-04 -6.271233e-04 -6.927004e-04 -6.495745e-04 -3.869625e-04 -1.033802e-03 -3.808808e-04 2.180009e-04
<VARIANCE> 39
 8.657864e+01 6.414537e+01 6.811550e+01 1.091095e+02 7.344627e+01 9.809328e+01 7.543467e+01 5.627457e+01 7.786460e+01 4.724791e+01 4.464614e+01 3.330733e+01 1.243701e+02 2.561950e+00 3.582235e+00 2.941767e+00 4.007164e+00 2.671690e+00 4.179763e+00 3.880723e+00 3.172116e+00 3.482715e+00 2.651966e+00 2.438188e+00 1.927238e+00 2.417243e+00 3.528423e-01 5.897332e-01 4.734533e-01 6.819677e-01 4.528930e-01 6.707358e-01 6.898253e-01 5.612794e-01 5.950338e-01 4.753156e-01 4.448683e-01 3.527509e-01 3.241901e-01
<GCONST> 1.319655e+02
<STATE> 4
<MEAN> 39
 -4.811611e+00 1.177586e+00 1.067453e+00 -4.528101e+00 -4.340594e+00 -5.046365e+00 -1.013185e+01 -7.832596e-02 -1.039485e+01 -1.255214e+00 -3.644695e+00 -7.160273e-01 6.166460e+01 -3.518807e-05 3.810670e-03 1.215613e-03 4.570672e-03 -4.738993e-03 1.918005e-03 -6.761304e-03 4.938622e-03 -7.503949e-04 -1.214020e-05 -3.802789e-03 7.253408e-04 -8.307423e-03 3.781606e-04 6.884372e-05 2.967831e-04 9.789172e-04 1.755432e-04 -7.251091e-04 -6.271233e-04 -6.927004e-04 -6.495745e-04 -3.869625e-04 -1.033802e-03 -3.808808e-04 2.180009e-04
<VARIANCE> 39
 8.657864e+01 6.414537e+01 6.811550e+01 1.091095e+02 7.344627e+01 9.809328e+01 7.543467e+01 5.627457e+01 7.786460e+01 4.724791e+01 4.464614e+01 3.330733e+01 1.243701e+02 2.561950e+00 3.582235e+00 2.941767e+00 4.007164e+00 2.671690e+00 4.179763e+00 3.880723e+00 3.172116e+00 3.482715e+00 2.651966e+00 2.438188e+00 1.927238e+00 2.417243e+00 3.528423e-01 5.897332e-01 4.734533e-01 6.819677e-01 4.528930e-01 6.707358e-01 6.898253e-01 5.612794e-01 5.950338e-01 4.753156e-01 4.448683e-01 3.527509e-01 3.241901e-01
<GCONST> 1.319655e+02
<TRANSP> 5
 0.000000e+00 1.000000e+00 0.000000e+00 0.000000e+00 0.000000e+00
 0.000000e+00 6.000000e-01 4.000000e-01 0.000000e+00 0.000000e+00
 0.000000e+00 0.000000e+00 6.000000e-01 4.000000e-01 0.000000e+00
 0.000000e+00 0.000000e+00 0.000000e+00 7.000000e-01 3.000000e-01
 0.000000e+00 0.000000e+00 0.000000e+00 0.000000e+00 0.000000e+00
<ENDHMM>