~o
<STREAMINFO> 1 39
<VECSIZE> 39<NULLD><MFCC_D_A_0><DIAGC>
~h "a"
<BEGINHMM>
<NUMSTATES> 5
<STATE> 2
<MEAN> 39
 2.224448e+00 -5.707991e+00 -2.882853e+00 -7.575300e+00 -2.214383e+00 -1.456308e+01 -6.417130e+00 -3.375067e+00 -1.619905e+01 2.554597e+00 -2.730716e+00 -1.270380e+00 7.173354e+01 2.327674e-01 3.061640e-01 -2.282085e-01 7.174696e-02 -1.721652e-01 1.083029e-01 4.475204e-02 2.329445e-01 -1.520405e-01 -1.768929e-01 3.699866e-03 6.063615e-02 -1.597003e-01 -1.081910e-01 1.055422e-01 1.614348e-01 1.054652e-01 -2.229388e-02 2.018517e-01 -9.985441e-02 9.701539e-03 6.983884e-02 -1.099031e-01 -1.234518e-01 -1.426253e-04 -1.503601e-01
<VARIANCE> 39
 3.065999e+01 6.153918e+01 4.040171e+01 5.916498e+01 7.299129e+01 9.172691e+01 7.920808e+01 5.842778e+01 5.839786e+01 5.491492e+01 3.726028e+01 2.888861e+01 7.212025e+01 2.092039e+00 3.887923e+00 3.093860e+00 4.290338e+00 2.342014e+00 4.240530e+00 3.640658e+00 3.531317e+00 3.471776e+00 3.649020e+00 2.840779e+00 2.213151e+00 3.427829e+00 3.133356e-01 5.550722e-01 4.121156e-01 6.583858e-01 3.731565e-01 6.824380e-01 5.308625e-01 5.725927e-01 6.272930e-01 6.001211e-01 4.980777e-01 3.713950e-01 3.903190e-01
<GCONST> 1.295042e+02
<STATE> 3
<MEAN> 39
 2.614843e+00 -4.558412e+00 -3.472330e+00 -7.364325e+00 -2.372379e+00 -1.378156e+01 -6.585363e+00 -2.894741e+00 -1.615478e+01 1.885335e+00 -2.654732e+00 -1.219025e+00 7.102750e+01 -1.202943e-01 7.169929e-01 1.016681e-01 4.560620e-01 -2.148676e-01 7.144677e-01 -2.091780e-01 2.121966e-01 1.589686e-01 -4.024217e-01 -2.106611e-01 9.878667e-02 -7.242034e-01 -1.463088e-01 4.382340e-02 1.643521e-01 8.970829e-02 2.315073e-02 1.888031e-01 -9.348214e-02 6.976826e-03 1.185404e-01 -4.692065e-02 -1.159560e-01 3.943518e-03 -1.315609e-01
<VARIANCE> 39
 2.714105e+01 6.433946e+01 4.446795e+01 5.818111e+01 7.236363e+01 9.335857e+01 8.377710e+01 5.757058e+01 5.795021e+01 5.053270e+01 4.013715e+01 3.223011e+01 6.360564e+01 1.806712e+00 3.206681e+00 3.143970e+00 3.778024e+00 2.518420e+00 4.457352e+00 4.060977e+00 3.662534e+00 3.369187e+00 3.424945e+00 2.973314e+00 2.032562e+00 2.749477e+00 2.565600e-01 5.292347e-01 4.171127e-01 6.154642e-01 4.045134e-01 6.756479e-01 5.816745e-01 5.899052e-01 5.954249e-01 5.914745e-01 5.014784e-01 3.940794e-01 3.033774e-01
<GCONST> 1.286244e+02
<STATE> 4
<MEAN> 39
 1.239500e+00 -1.810127e+00 -3.690118e+00 -4.606853e+00 -5.498411e+00 -9.353286e+00 -5.372931e+00 -2.223692e+00 -1.507939e+01 4.146692e-01 -3.202894e+00 -6.517749e-01 6.666870e+01 -4.601497e-01 7.277128e-01 4.222832e-01 5.934587e-01 5.737497e-02 8.036241e-01 -4.072967e-01 1.774176e-01 3.640508e-01 -2.920743e-01 -2.759599e-01 6.632750e-02 -8.856763e-01 -9.963165e-02 -6.685969e-02 1.031366e-01 -1.013725e-02 7.691450e-02 3.328711e-02 -9.681207e-03 5.485458e-03 4.696403e-02 1.149950e-03 -4.339944e-02 -3.292937e-02 1.748043e-02
<VARIANCE> 39
 3.434811e+01 7.251110e+01 4.215174e+01 6.097705e+01 6.813971e+01 9.152296e+01 8.345883e+01 5.641354e+01 5.779427e+01 3.934201e+01 3.952286e+01 2.975507e+01 8.256202e+01 1.314988e+00 2.421871e+00 2.265321e+00 2.678466e+00 1.973240e+00 3.356648e+00 2.701731e+00 2.752827e+00 2.845504e+00 2.300922e+00 2.387222e+00 1.931326e+00 1.501545e+00 1.818785e-01 4.403510e-01 3.291220e-01 5.070262e-01 3.077864e-01 5.126582e-01 4.259907e-01 4.197542e-01 4.934688e-01 3.895580e-01 3.763312e-01 3.326630e-01 2.269346e-01
<GCONST> 1.213363e+02
<TRANSP> 5
 0.000000e+00 1.000000e+00 0.000000e+00 0.000000e+00 0.000000e+00
 0.000000e+00 5.414087e-01 4.585913e-01 0.000000e+00 0.000000e+00
 0.000000e+00 0.000000e+00 5.057469e-01 4.942532e-01 0.000000e+00
 0.000000e+00 0.000000e+00 0.000000e+00 7.003328e-01 2.996672e-01
 0.000000e+00 0.000000e+00 0.000000e+00 0.000000e+00 0.000000e+00
<ENDHMM>
~h "b"
<BEGINHMM>
<NUMSTATES> 5
<STATE> 2
<MEAN> 39
 -3.839958e+00 1.290272e-02 6.177014e+00 -3.758533e+00 1.601227e+00 -7.033848e+00 -8.857904e+00 -4.529973e+00 -1.421644e+01 -1.499960e+00 -6.106043e+00 -1.463883e+00 6.680850e+01 1.641799e-02 -7.665742e-01 7.032756e-02 -9.018629e-01 5.564530e-01 -4.820416e-01 -2.142970e-02 7.187874e-02 -5.294617e-01 -1.323439e-01 2.263387e-01 -7.110357e-02 9.080739e-01 1.267190e-01 -1.894031e-01 -2.166392e-01 -1.787807e-01 -7.700787e-02 -2.557306e-01 -2.932514e-02 2.435400e-01 -2.615686e-01 -4.059474e-02 2.638271e-03 -8.637418e-02 1.684387e-01
<VARIANCE> 39
 9.109454e+01 1.188589e+02 8.092220e+01 1.078528e+02 6.150264e+01 1.000096e+02 4.817992e+01 6.072525e+01 6.984004e+01 4.813309e+01 3.657945e+01 2.694009e+01 8.708273e+01 5.566027e+00 6.778349e+00 5.272216e+00 7.494529e+00 3.051059e+00 6.665916e+00 4.196718e+00 4.426035e+00 7.575758e+00 3.463941e+00 3.703609e+00 3.214963e+00 4.164802e+00 5.240957e-01 1.011507e+00 9.782830e-01 1.240825e+00 5.641148e-01 1.127137e+00 8.297719e-01 7.450766e-01 1.052141e+00 5.946388e-01 6.853731e-01 5.936835e-01 6.736614e-01
<GCONST> 1.435018e+02
<STATE> 3
<MEAN> 39
 -3.075518e+00 -2.857944e+00 4.547016e+00 -5.454830e+00 2.301550e+00 -9.554952e+00 -9.379950e+00 -4.187747e+00 -1.572996e+01 -1.719053e+00 -5.266346e+00 -1.587428e+00 6.924518e+01 7.404020e-01 -9.077441e-01 -7.139529e-01 -8.326482e-01 7.463166e-02 -1.133003e+00 -9.635936e-02 4.887216e-01 -1.094113e+00 -4.417447e-02 1.417951e-01 -6.073165e-02 1.009082e+00 8.854100e-02 3.619706e-02 -1.011954e-01 7.190026e-02 -1.064338e-01 -7.127263e-02 1.171291e-02 1.197712e-01 -2.436483e-02 4.568370e-02 -6.862283e-02 -3.074005e-02 -6.535985e-02
<VARIANCE> 39
 1.092539e+02 9.944814e+01 7.846928e+01 1.027877e+02 6.775910e+01 1.062241e+02 6.657463e+01 7.601952e+01 7.708114e+01 6.001244e+01 3.568062e+01 3.061456e+01 6.410213e+01 4.983038e+00 7.837653e+00 5.533450e+00 8.040877e+00 4.408637e+00 8.354209e+00 6.212415e+00 5.254481e+00 7.609531e+00 4.396214e+00 3.611581e+00 3.513674e+00 4.846346e+00 6.121261e-01 1.235536e+00 8.917148e-01 1.232479e+00 7.251413e-01 1.289017e+00 9.339541e-01 1.118497e+00 1.129186e+00 8.280722e-01 6.399772e-01 6.348449e-01 6.755554e-01
<GCONST> 1.475854e+02
<STATE> 4
<MEAN> 39
 2.704960e+00 -4.401371e+00 -1.028726e+00 -6.445928e+00 8.288144e-01 -1.534557e+01 -6.196157e+00 -1.958439e+00 -2.091227e+01 -7.247728e-01 -4.819142e+00 -2.295817e+00 7.260012e+01 4.160772e-01 -3.203143e-01 -2.954070e-01 -3.878084e-01 -1.748655e-02 -6.252033e-01 5.705537e-02 3.556794e-01 -4.094324e-01 3.334968e-03 -2.296157e-01 1.090490e-01 4.169253e-01 -1.013885e-01 2.332660e-01 1.244920e-01 1.930783e-01 -5.025158e-02 2.446579e-01 -5.857052e-02 -3.637693e-02 2.651612e-01 -3.411495e-03 -9.072389e-02 5.507206e-02 -2.425842e-01
<VARIANCE> 39
 3.026413e+01 5.828938e+01 5.615600e+01 7.651014e+01 6.059938e+01 1.074968e+02 1.167727e+02 7.084789e+01 8.116446e+01 7.032918e+01 3.268284e+01 3.717756e+01 4.299132e+01 1.798259e+00 5.308518e+00 3.164929e+00 5.303948e+00 3.138891e+00 7.550083e+00 5.050962e+00 4.829991e+00 6.421471e+00 4.216652e+00 3.127874e+00 3.096677e+00 3.592480e+00 2.540067e-01 7.446819e-01 4.855853e-01 8.851646e-01 5.646562e-01 1.127433e+00 9.531367e-01 9.192308e-01 1.127704e+00 7.102882e-01 5.311416e-01 5.654944e-01 4.077016e-01
<GCONST> 1.377034e+02
<TRANSP> 5
 0.000000e+00 1.000000e+00 0.000000e+00 0.000000e+00 0.000000e+00
 0.000000e+00 5.009644e-01 4.990356e-01 0.000000e+00 0.000000e+00
 0.000000e+00 0.000000e+00 5.676775e-01 4.323224e-01 0.000000e+00
 0.000000e+00 0.000000e+00 0.000000e+00 7.014627e-01 2.985373e-01
 0.000000e+00 0.000000e+00 0.000000e+00 0.000000e+00 0.000000e+00
<ENDHMM>
~h "c"
<BEGINHMM>
<NUMSTATES> 5
<STATE> 2
<MEAN> 39
 -1.208814e+01 -9.887066e+00 1.243168e+01 -5.772695e+00 1.858835e+00 -1.310543e+01 -1.115506e+01 -5.754744e+00 -1.314531e+01 2.650926e+00 -3.899161e+00 -4.927392e+00 6.915416e+01 3.016464e-01 -5.931562e-01 1.914878e-01 -2.289562e-01 2.369395e-01 -8.046366e-01 -3.626142e-01 -4.270245e-01 -1.568085e-01 2.736908e-01 -2.555473e-01 -1.043090e-01 7.478795e-01 1.164097e-01 1.499960e-01 -8.976839e-02 2.582728e-02 -4.968377e-02 4.364647e-02 2.563214e-02 1.752337e-02 -6.840512e-02 -4.641512e-02 -4.693381e-02 3.831116e-02 -4.662901e-02
<VARIANCE> 39
 1.093596e+02 1.112612e+02 7.402232e+01 9.267386e+01 6.207810e+01 1.060249e+02 6.555179e+01 4.920421e+01 1.217088e+02 3.679426e+01 5.093125e+01 3.257677e+01 5.297579e+01 8.350775e+00 1.026345e+01 6.309192e+00 1.075901e+01 3.668746e+00 1.212759e+01 6.715730e+00 4.651011e+00 9.866185e+00 2.785539e+00 5.779212e+00 3.880117e+00 5.654345e+00 9.376667e-01 1.454028e+00 9.517980e-01 1.778662e+00 6.144168e-01 2.433405e+00 1.072679e+00 8.100657e-01 1.302378e+00 5.106059e-01 1.226917e+00 6.757583e-01 9.282272e-01
<GCONST> 1.510689e+02
<STATE> 3
<MEAN> 39
 -6.317351e-01 -9.101563e+00 4.385530e+00 -7.694745e+00 1.321985e+00 -1.855138e+01 -1.462696e+01 -7.782555e+00 -1.788101e+01 3.009127e+00 -7.526384e+00 -2.948828e+00 7.400340e+01 7.005213e-01 2.928078e-01 -1.066349e+00 -5.224014e-01 -3.905280e-01 1.674673e-01 2.681008e-01 4.458557e-01 -1.430617e-01 -3.326852e-01 6.778149e-02 4.363339e-01 -5.034888e-03 -1.030659e-01 -1.471642e-02 5.598342e-03 1.928870e-03 -4.381489e-02 3.570308e-02 6.983598e-02 1.913331e-01 1.281499e-01 -4.743693e-02 -1.194748e-02 -4.325503e-02 -6.222519e-02
<VARIANCE> 39
 3.489885e+01 3.453338e+01 5.318207e+01 9.161166e+01 5.522394e+01 9.479081e+01 4.242291e+01 5.075937e+01 6.021067e+01 4.607493e+01 3.127118e+01 2.574893e+01 2.071094e+01 2.718160e+00 3.243546e+00 2.027561e+00 8.387683e+00 3.414973e+00 8.417083e+00 3.821072e+00 3.978391e+00 4.936169e+00 3.695258e+00 3.680687e+00 2.771329e+00 2.494708e+00 4.621373e-01 7.207901e-01 3.426858e-01 1.487462e+00 4.691069e-01 1.414787e+00 5.935869e-01 6.009058e-01 8.374220e-01 5.130289e-01 7.974290e-01 5.872173e-01 4.920205e-01
<GCONST> 1.328540e+02
<STATE> 4
<MEAN> 39
 1.219636e+00 -6.607852e+00 -3.278020e+00 -3.519797e+00 -3.901908e+00 -1.369613e+01 -1.099767e+01 -1.924557e+00 -1.709933e+01 6.114318e-01 -4.139428e+00 -4.078481e-01 6.859359e+01 3.456686e-02 -5.882004e-02 -1.403413e-01 -7.314909e-02 2.119128e-01 3.326295e-03 8.873590e-02 2.235819e-01 2.026051e-01 7.721569e-02 1.112651e-01 -1.966557e-02 6.680423e-02 -1.002088e-02 5.846154e-03 2.789291e-02 -1.216787e-02 3.695390e-02 -2.510229e-02 1.385419e-02 -1.683386e-02 1.578307e-02 8.358136e-03 -3.863318e-03 -4.982089e-03 1.911335e-02
<VARIANCE> 39
 2.283716e+01 5.627836e+01 2.753069e+01 7.321058e+01 1.223683e+02 6.376598e+01 5.790652e+01 5.376144e+01 5.750439e+01 1.023462e+02 3.275731e+01 3.265170e+01 5.663314e+01 1.722735e+00 6.100972e+00 2.692410e+00 5.246346e+00 3.288328e+00 5.991363e+00 3.642066e+00 4.206235e+00 3.539363e+00 5.807847e+00 2.851872e+00 3.240072e+00 4.406074e+00 2.627351e-01 1.087789e+00 5.182263e-01 9.650916e-01 4.916143e-01 9.162207e-01 5.835044e-01 6.293064e-01 6.563538e-01 8.351554e-01 5.370770e-01 6.584086e-01 6.599033e-01
<GCONST> 1.347808e+02
<TRANSP> 5
 0.000000e+00 1.000000e+00 0.000000e+00 0.000000e+00 0.000000e+00
 0.000000e+00 9.496695e-01 5.033049e-02 0.000000e+00 0.000000e+00
 0.000000e+00 0.000000e+00 8.389258e-01 1.610741e-01 0.000000e+00
 0.000000e+00 0.000000e+00 0.000000e+00 9.662537e-01 3.374633e-02
 0.000000e+00 0.000000e+00 0.000000e+00 0.000000e+00 0.000000e+00
<ENDHMM>
~h "d"
<BEGINHMM>
<NUMSTATES> 5
<STATE> 2
<MEAN> 39
 2.830151e+00 3.487280e+00 3.382348e+00 -5.376733e+00 -7.512385e-01 -1.160448e+01 -1.232828e+01 3.829564e+00 -1.747937e+01 -6.193344e+00 -1.203958e+01 -7.074085e+00 6.767318e+01 5.455974e-02 2.810838e-01 1.503763e-01 -1.307285e-01 -5.096467e-01 8.685928e-02 -6.772915e-02 2.479550e-01 -6.374983e-02 -3.656574e-01 -2.264222e-01 -2.566355e-01 -1.895568e-01 -7.280404e-03 -5.115046e-02 3.420771e-02 -2.473338e-02 -1.230319e-02 -6.888604e-02 -2.880626e-02 -7.259456e-02 -5.417951e-03 8.234659e-02 1.135457e-01 3.859767e-02 4.806760e-02
<VARIANCE> 39
 6.476972e+00 5.432965e+01 3.945747e+01 7.297899e+01 5.649317e+01 6.965225e+01 6.069846e+01 6.141615e+01 3.786985e+01 4.987094e+01 3.383728e+01 9.574368e+01 3.202483e+01 5.027023e-01 2.848707e+00 2.523050e+00 5.382870e+00 2.758020e+00 5.456576e+00 3.480273e+00 3.025119e+00 3.211832e+00 3.852204e+00 3.690732e+00 2.861295e+00 1.752226e+00 9.229366e-02 4.785686e-01 4.626065e-01 8.786469e-01 4.637984e-01 1.067279e+00 7.354989e-01 5.417093e-01 4.915055e-01 6.579310e-01 5.498419e-01 4.782219e-01 2.490122e-01
<GCONST> 1.250688e+02
<STATE> 3
<MEAN> 39
 4.107201e+00 2.905825e+00 9.173083e-01 -7.561836e+00 -1.926095e+00 -1.189050e+01 -9.743822e+00 3.419392e+00 -1.897126e+01 -6.651538e+00 -9.673152e+00 -4.509844e+00 6.864433e+01 2.597797e-02 1.032921e-01 4.796318e-02 5.629397e-02 -3.626131e-01 8.442555e-02 -7.803402e-02 -5.014607e-02 4.716624e-02 1.740965e-02 1.593594e-01 -5.385450e-02 -1.079719e-01 -1.932089e-02 -3.449285e-02 2.937395e-02 5.275277e-02 2.998601e-02 2.267809e-02 -1.356712e-02 -7.690764e-02 3.667478e-02 9.325086e-02 6.754170e-02 2.088507e-02 5.950816e-03
<VARIANCE> 39
 7.202962e+00 6.386469e+01 3.576871e+01 8.416453e+01 5.527608e+01 5.821758e+01 5.323029e+01 6.373297e+01 3.523985e+01 3.876644e+01 4.831309e+01 4.831033e+01 3.556156e+01 2.945181e-01 3.655248e+00 2.056520e+00 4.413142e+00 2.352257e+00 4.705759e+00 3.288117e+00 2.664904e+00 2.935562e+00 3.247016e+00 3.531428e+00 2.664123e+00 1.881305e+00 5.622033e-02 5.403538e-01 4.059197e-01 7.056139e-01 3.722762e-01 8.636771e-01 6.250644e-01 4.607520e-01 4.414453e-01 5.767570e-01 5.582104e-01 4.113306e-01 2.590881e-01
<GCONST> 1.212390e+02
<STATE> 4
<MEAN> 39
 3.393880e+00 2.247367e+00 8.031133e-01 -3.965337e+00 -7.184026e+00 -1.140116e+01 -6.591362e+00 -1.103234e+00 -2.009295e+01 -3.545679e+00 -9.112518e+00 -4.227828e+00 6.689951e+01 -1.309855e-01 8.752438e-02 -2.997368e-02 3.308035e-01 -2.999128e-02 2.809193e-01 -3.743129e-02 -9.499940e-02 2.007725e-01 1.095191e-01 1.951035e-01 1.676268e-01 -2.661184e-01 -4.762728e-02 -1.231844e-02 6.157344e-03 1.268092e-02 4.586224e-02 5.902894e-02 2.909323e-02 -4.519831e-03 4.884814e-02 2.518929e-02 2.561837e-02 2.218974e-02 -2.285256e-02
<VARIANCE> 39
 1.441840e+01 7.046738e+01 3.911645e+01 7.024530e+01 4.493546e+01 5.561880e+01 9.037939e+01 7.219024e+01 3.986806e+01 5.293027e+01 4.219846e+01 4.415039e+01 4.555573e+01 5.015656e-01 3.332417e+00 1.197125e+00 2.500726e+00 1.308336e+00 3.703616e+00 2.899951e+00 3.010932e+00 3.201101e+00 3.024173e+00 2.113904e+00 2.176714e+00 1.592592e+00 5.832186e-02 4.759483e-01 1.738107e-01 3.776217e-01 2.210985e-01 6.127521e-01 4.327803e-01 4.770562e-01 5.391119e-01 4.631755e-01 3.632441e-01 3.341288e-01 1.777514e-01
<GCONST> 1.166388e+02
<TRANSP> 5
 0.000000e+00 1.000000e+00 0.000000e+00 0.000000e+00 0.000000e+00
 0.000000e+00 8.519818e-01 1.480183e-01 0.000000e+00 0.000000e+00
 0.000000e+00 0.000000e+00 8.079520e-01 1.920480e-01 0.000000e+00
 0.000000e+00 0.000000e+00 0.000000e+00 9.330367e-01 6.696324e-02
 0.000000e+00 0.000000e+00 0.000000e+00 0.000000e+00 0.000000e+00
<ENDHMM>
~h "e"
<BEGINHMM>
<NUMSTATES> 5
<STATE> 2
<MEAN> 39
 3.217539e-01 -3.102901e-01 -2.876798e+00 2.853315e+00 -3.705060e+00 -7.795508e+00 -1.333121e+01 -1.204022e+00 -9.610740e+00 3.044613e+00 -3.455648e+00 -2.624663e+00 6.272419e+01 -7.391134e-01 5.325714e-01 1.389398e-01 2.414268e-01 -4.044077e-01 4.146987e-01 -1.495117e-02 9.841229e-02 5.829398e-01 -2.675096e-01 1.552357e-01 3.200065e-01 -9.475777e-01 3.631530e-02 -1.509946e-01 -8.158093e-02 -2.074055e-01 3.855627e-02 -2.014492e-01 3.618018e-02 8.471800e-02 -1.574299e-01 -5.546255e-02 -4.979417e-02 -4.636246e-02 1.476087e-01
<VARIANCE> 39
 3.635155e+01 5.175089e+01 2.154520e+01 7.794658e+01 4.653098e+01 6.287177e+01 8.516855e+01 4.786522e+01 3.851817e+01 4.257795e+01 2.267527e+01 2.673993e+01 5.226142e+01 1.064895e+00 1.115361e+00 8.761159e-01 1.186402e+00 1.825413e+00 1.407042e+00 1.658164e+00 1.525611e+00 1.304444e+00 1.624199e+00 1.503330e+00 1.442144e+00 5.771170e-01 1.012550e-01 1.843233e-01 1.936432e-01 2.328635e-01 2.322545e-01 3.090641e-01 2.817385e-01 2.669602e-01 2.799631e-01 2.272170e-01 2.499009e-01 2.500547e-01 1.286100e-01
<GCONST> 1.038800e+02
<STATE> 3
<MEAN> 39
 -2.337023e+00 2.303566e+00 -2.222582e+00 2.007736e+00 -4.790754e+00 -5.502587e+00 -1.311266e+01 -8.819971e-01 -8.293027e+00 1.011197e+00 -3.436775e+00 -1.384848e+00 5.941454e+01 -7.168629e-01 2.024637e-01 -1.737886e-02 -5.834172e-02 -3.578933e-01 4.183889e-01 3.770002e-01 3.099150e-01 2.861575e-01 -1.855126e-01 -1.485362e-02 2.480066e-01 -7.295083e-01 7.550848e-02 -1.398056e-01 -4.304242e-02 -9.285399e-02 8.375314e-02 -9.592007e-02 9.049491e-02 6.438380e-02 -1.302263e-01 -3.212117e-02 -8.603532e-02 -1.783045e-02 1.592592e-01
<VARIANCE> 39
 3.915709e+01 3.928429e+01 2.073743e+01 5.593606e+01 4.112412e+01 5.287698e+01 8.233673e+01 4.858789e+01 3.380396e+01 2.762437e+01 2.300858e+01 1.555302e+01 5.076884e+01 7.174364e-01 1.035691e+00 6.910906e-01 1.194921e+00 1.732681e+00 1.523432e+00 1.946393e+00 1.592311e+00 1.122322e+00 1.062138e+00 1.423142e+00 1.390103e+00 4.337828e-01 9.628341e-02 1.336820e-01 1.326870e-01 1.810463e-01 2.466242e-01 2.556604e-01 2.714739e-01 2.458939e-01 1.778861e-01 1.877271e-01 2.618759e-01 2.141100e-01 7.027369e-02
<GCONST> 9.784537e+01
<STATE> 4
<MEAN> 39
 -8.705029e+00 4.000009e+00 -1.528899e+00 2.836220e+00 -6.523438e+00 -6.768402e-01 -9.891400e+00 4.340608e-01 -6.473496e+00 1.515285e+00 -1.882495e+00 4.177243e-01 5.298321e+01 -3.887744e-01 -1.161049e-01 -1.918773e-02 1.439754e-01 1.102155e-01 2.402716e-01 1.995660e-01 1.664930e-01 6.320565e-02 -2.995223e-02 -5.606015e-03 4.171387e-02 -2.854768e-01 1.062496e-01 -8.568679e-02 -3.113267e-03 -6.036423e-02 9.665713e-02 -4.640945e-02 -6.679148e-02 -2.862531e-02 -9.746278e-02 2.898773e-02 2.650821e-03 -2.972606e-02 1.466949e-01
<VARIANCE> 39
 2.435716e+01 1.323782e+01 9.571474e+00 2.067859e+01 1.983210e+01 2.812462e+01 3.272176e+01 2.303381e+01 1.792306e+01 1.577397e+01 1.670777e+01 1.133275e+01 2.869298e+01 3.308953e-01 5.941642e-01 5.251930e-01 7.226344e-01 9.766029e-01 1.152817e+00 1.277870e+00 1.081504e+00 9.517149e-01 9.618027e-01 1.325379e+00 1.240318e+00 2.482102e-01 7.474621e-02 1.048707e-01 1.304069e-01 1.492416e-01 1.970420e-01 2.489970e-01 2.144730e-01 2.176318e-01 1.914142e-01 1.980401e-01 2.772719e-01 2.633787e-01 8.208648e-02
<GCONST> 8.353982e+01
<TRANSP> 5
 0.000000e+00 1.000000e+00 0.000000e+00 0.000000e+00 0.000000e+00
 0.000000e+00 5.176281e-01 4.823719e-01 0.000000e+00 0.000000e+00
 0.000000e+00 0.000000e+00 3.979780e-01 6.020219e-01 0.000000e+00
 0.000000e+00 0.000000e+00 0.000000e+00 7.871143e-01 2.128857e-01
 0.000000e+00 0.000000e+00 0.000000e+00 0.000000e+00 0.000000e+00
<ENDHMM>
~h "g"
<BEGINHMM>
<NUMSTATES> 5
<STATE> 2
<MEAN> 39
 -3.908853e+00 -8.390661e-01 5.905653e+00 2.005518e+00 -8.554838e-01 -1.085404e+01 -1.190671e+01 -1.401478e-01 -1.326843e+01 -1.002864e+00 -6.789832e+00 -3.594094e+00 6.446476e+01 -1.118896e-01 -1.568315e+00 2.831095e-01 -8.725718e-01 3.377795e-01 -7.252659e-01 -4.823658e-01 -1.357051e-01 2.215989e-01 7.557476e-02 -2.415552e-01 -6.567495e-01 1.248378e+00 1.498828e-01 -1.421191e-01 1.338111e-01 -3.790912e-02 9.690976e-02 -3.428247e-01 -4.684588e-02 -1.063506e-02 -1.825788e-01 -9.740636e-02 -1.684908e-01 -4.385449e-02 2.844171e-01
<VARIANCE> 39
 2.957817e+01 1.151420e+02 4.682928e+01 1.007798e+02 6.340593e+01 1.572492e+02 3.188118e+01 4.141169e+01 8.826026e+01 3.797196e+01 3.064402e+01 3.556189e+01 8.374200e+01 1.865320e+00 1.563214e+01 4.165509e+00 1.218855e+01 3.942819e+00 1.319250e+01 4.000434e+00 4.590333e+00 6.254563e+00 4.294376e+00 2.609804e+00 3.453667e+00 8.395785e+00 2.884668e-01 2.783351e+00 6.638432e-01 2.096561e+00 5.943270e-01 1.707707e+00 6.887084e-01 7.578861e-01 1.106181e+00 7.796198e-01 4.933097e-01 5.768864e-01 1.350931e+00
<GCONST> 1.443522e+02
<STATE> 3
<MEAN> 39
 -3.382336e+00 -4.877062e+00 7.963596e+00 -4.665400e-02 2.916766e+00 -1.560504e+01 -1.337459e+01 -1.445161e+00 -1.436579e+01 -9.756138e-01 -7.988750e+00 -5.042241e+00 7.017085e+01 4.615935e-01 -2.708769e-01 3.640374e-01 -2.221672e-01 2.979890e-01 -9.396380e-01 -1.644352e-03 -1.412603e-01 -7.459183e-01 -1.223188e-01 -1.687959e-01 -3.491001e-01 8.080702e-01 1.003366e-01 3.490696e-01 -1.306117e-01 1.383166e-01 -1.372426e-01 -3.723629e-03 2.008517e-01 1.116480e-01 -4.999791e-02 -1.656556e-02 8.771146e-02 9.230957e-02 -2.093285e-01
<VARIANCE> 39
 3.158764e+01 1.029714e+02 5.496254e+01 1.167137e+02 9.356889e+01 1.579256e+02 4.209168e+01 5.970945e+01 7.180589e+01 4.583304e+01 4.020438e+01 4.100890e+01 5.948353e+01 2.560666e+00 1.210867e+01 4.606062e+00 1.243341e+01 5.448513e+00 1.478844e+01 5.188788e+00 6.122643e+00 7.095304e+00 4.939716e+00 3.457984e+00 5.122237e+00 6.434155e+00 5.101446e-01 2.461460e+00 6.948112e-01 2.167655e+00 9.503618e-01 2.186424e+00 9.153221e-01 8.278655e-01 1.254525e+00 9.169824e-01 6.124228e-01 7.986912e-01 9.473371e-01
<GCONST> 1.496378e+02
<STATE> 4
<MEAN> 39
 -6.434596e-01 -1.345542e+00 7.893407e+00 5.479375e-01 -2.424596e-01 -1.480998e+01 -1.115041e+01 1.488899e+00 -1.628041e+01 -1.816010e+00 -9.114904e+00 -7.044127e+00 6.879964e+01 3.180970e-01 1.327540e-01 -4.080916e-01 -6.031213e-01 -6.898133e-02 -1.703409e-01 4.656146e-01 1.433843e-02 -2.203210e-01 2.245519e-01 1.781510e-01 -1.183368e-01 2.422037e-01 -1.960198e-03 -2.372607e-02 -1.181065e-01 -2.410973e-02 -3.725710e-02 7.740736e-02 6.635299e-02 -1.811442e-02 1.165171e-01 5.483000e-02 2.846875e-02 1.121889e-01 -3.405455e-02
<VARIANCE> 39
 2.145696e+01 8.734148e+01 4.981587e+01 1.791268e+02 8.365714e+01 1.656096e+02 5.760453e+01 8.385446e+01 6.901421e+01 4.307579e+01 6.428510e+01 5.578615e+01 5.603923e+01 1.544309e+00 7.783872e+00 2.947492e+00 9.806208e+00 2.765521e+00 1.143757e+01 5.382987e+00 4.826495e+00 5.592445e+00 2.856496e+00 4.117496e+00 4.347973e+00 4.381164e+00 2.567593e-01 1.311020e+00 4.465353e-01 1.823064e+00 4.513316e-01 1.788771e+00 9.284573e-01 7.498139e-01 8.337607e-01 4.365403e-01 6.800318e-01 7.571537e-01 5.955504e-01
<GCONST> 1.421687e+02
<TRANSP> 5
 0.000000e+00 1.000000e+00 0.000000e+00 0.000000e+00 0.000000e+00
 0.000000e+00 6.875919e-01 3.124081e-01 0.000000e+00 0.000000e+00
 0.000000e+00 0.000000e+00 7.358139e-01 2.641861e-01 0.000000e+00
 0.000000e+00 0.000000e+00 0.000000e+00 8.832431e-01 1.167568e-01
 0.000000e+00 0.000000e+00 0.000000e+00 0.000000e+00 0.000000e+00
<ENDHMM>
~h "h"
<BEGINHMM>
<NUMSTATES> 5
<STATE> 2
<MEAN> 39
 1.794928e+00 2.332385e+00 2.458229e+00 -2.656660e+00 -4.950923e+00 -1.148859e+01 -1.167920e+01 5.665139e+00 -1.564185e+01 -6.087576e+00 -1.101389e+01 -7.137157e+00 6.551528e+01 4.325165e-01 -1.309187e-01 -3.669790e-01 -3.101231e-01 1.007634e-01 -2.011140e-01 -2.650055e-02 2.420974e-01 -4.982638e-01 -3.209213e-01 -5.903061e-02 1.667260e-02 3.570263e-01 -3.867778e-02 -3.873966e-02 -2.326195e-02 6.798794e-02 -5.435481e-02 1.238892e-01 3.269040e-02 -1.181408e-01 1.377939e-02 7.187279e-02 7.073244e-02 7.895137e-02 -5.036520e-02
<VARIANCE> 39
 4.711021e+01 6.775828e+01 7.317545e+01 1.074422e+02 1.004985e+02 1.350605e+02 7.339207e+01 1.048072e+02 9.397235e+01 7.099883e+01 7.058063e+01 4.314183e+01 2.963198e+01 3.020670e+00 6.617774e+00 4.784235e+00 6.445076e+00 8.580838e+00 1.465205e+01 6.999106e+00 9.206505e+00 6.571684e+00 6.379571e+00 4.133017e+00 3.967439e+00 2.901443e+00 4.093418e-01 1.108511e+00 7.630688e-01 1.155022e+00 1.435255e+00 2.425838e+00 1.340018e+00 1.397343e+00 1.189231e+00 1.228628e+00 7.132172e-01 6.201373e-01 3.526744e-01
<GCONST> 1.498965e+02
<STATE> 3
<MEAN> 39
 4.713949e+00 5.822821e-01 -2.011369e+00 -5.332608e+00 -4.113065e+00 -9.751534e+00 -9.576201e+00 4.376346e+00 -2.047120e+01 -7.871020e+00 -8.916400e+00 -3.976972e+00 6.781418e+01 -9.482035e-02 -6.978670e-01 -9.240826e-02 2.471893e-01 -2.600493e-01 5.707085e-02 4.022154e-01 -4.708578e-01 -8.076058e-02 3.418299e-01 2.253590e-01 5.189649e-01 1.731008e-01 -1.359168e-01 8.130557e-02 1.988323e-01 5.539351e-02 -1.795483e-01 -5.890518e-02 1.034419e-01 -6.695519e-02 2.045012e-01 7.988324e-02 -8.716889e-03 -5.262932e-02 -8.910763e-02
<VARIANCE> 39
 2.054915e+01 4.286842e+01 4.999477e+01 5.755334e+01 1.418087e+02 1.211770e+02 1.358061e+02 7.481599e+01 8.519585e+01 7.444890e+01 5.197736e+01 4.691695e+01 2.288120e+01 1.433022e+00 4.780698e+00 4.973536e+00 5.954832e+00 6.893682e+00 1.344264e+01 8.209984e+00 8.064412e+00 6.830114e+00 4.896403e+00 3.775998e+00 2.789269e+00 3.527164e+00 1.614163e-01 6.943077e-01 8.374944e-01 7.804088e-01 1.165631e+00 1.799752e+00 1.523174e+00 1.100893e+00 9.951479e-01 9.577417e-01 7.238870e-01 6.160687e-01 3.271522e-01
<GCONST> 1.429157e+02
<STATE> 4
<MEAN> 39
 2.767860e+00 -1.700325e+00 -2.106870e-02 -4.578775e+00 -1.175975e+01 -1.076935e+01 -3.335045e+00 4.482190e+00 -2.186242e+01 -7.068205e+00 -8.685237e+00 -4.643727e+00 6.713989e+01 -4.876751e-01 -5.766845e-01 1.697768e-02 4.951169e-02 1.773595e-02 5.214535e-01 3.780448e-01 -3.988951e-01 4.565338e-01 4.426879e-01 4.303599e-01 3.532248e-01 -9.006258e-02 -8.831033e-02 1.622386e-02 3.410367e-02 -9.138003e-02 8.220059e-02 -4.495285e-02 -7.013693e-02 -2.534940e-02 1.154872e-01 1.194929e-01 -2.493455e-02 -1.879600e-02 -1.709835e-02
<VARIANCE> 39
 2.874491e+01 5.120609e+01 5.107722e+01 3.300293e+01 1.218373e+02 1.375483e+02 1.194180e+02 4.503223e+01 9.581734e+01 5.410668e+01 6.864953e+01 4.944798e+01 3.511079e+01 1.035454e+00 3.375705e+00 3.386303e+00 3.338036e+00 4.379721e+00 8.877525e+00 5.605913e+00 3.717019e+00 5.743239e+00 4.125396e+00 3.831325e+00 2.592079e+00 2.091777e+00 1.285138e-01 4.683570e-01 4.913335e-01 4.999870e-01 6.556642e-01 1.360946e+00 8.687860e-01 6.648188e-01 9.367186e-01 7.447935e-01 6.762823e-01 5.081528e-01 2.179223e-01
<GCONST> 1.337041e+02
<TRANSP> 5
 0.000000e+00 1.000000e+00 0.000000e+00 0.000000e+00 0.000000e+00
 0.000000e+00 8.901055e-01 1.098946e-01 0.000000e+00 0.000000e+00
 0.000000e+00 0.000000e+00 6.438851e-01 3.561149e-01 0.000000e+00
 0.000000e+00 0.000000e+00 0.000000e+00 8.238283e-01 1.761717e-01
 0.000000e+00 0.000000e+00 0.000000e+00 0.000000e+00 0.000000e+00
<ENDHMM>
~h "i"
<BEGINHMM>
<NUMSTATES> 5
<STATE> 2
<MEAN> 39
 5.648946e-01 -2.585530e+00 5.349314e+00 3.632620e+00 3.590347e+00 -2.154258e+01 -1.459008e+01 -7.611158e-01 -1.415646e+01 -3.220674e-01 -1.027010e+01 -4.518923e+00 6.960453e+01 -3.394240e-01 -4.650444e-01 6.500391e-01 5.384117e-01 1.330062e-01 -1.590938e+00 5.504227e-02 3.240388e-02 1.775717e-01 1.619331e-01 -7.843211e-02 -1.360667e-01 3.635074e-01 -8.454775e-02 -1.018657e-02 8.897386e-03 -1.604015e-01 3.292078e-02 1.228151e-01 5.239156e-02 -3.810860e-02 -1.191820e-01 -7.351003e-02 1.675026e-01 5.494231e-02 -9.922974e-04
<VARIANCE> 39
 1.940769e+01 6.700315e+01 7.198886e+01 9.520982e+01 5.138230e+01 1.486307e+02 6.782420e+01 3.895458e+01 5.179738e+01 3.427843e+01 4.862141e+01 4.694287e+01 4.612458e+01 7.511145e-01 3.395083e+00 2.256091e+00 3.759371e+00 3.723627e+00 7.311281e+00 2.986831e+00 2.603052e+00 3.469982e+00 2.631064e+00 2.893845e+00 1.377842e+00 1.681723e+00 1.135917e-01 5.654095e-01 3.600786e-01 5.751327e-01 7.191217e-01 1.359851e+00 5.144210e-01 4.084421e-01 5.796643e-01 4.779638e-01 5.278946e-01 2.795185e-01 2.670101e-01
<GCONST> 1.256700e+02
<STATE> 3
<MEAN> 39
 -8.252623e-01 -4.145748e+00 7.598705e+00 4.537790e+00 4.298667e+00 -2.608518e+01 -1.446704e+01 -8.140356e-01 -1.425044e+01 -4.071898e-01 -9.576951e+00 -5.101217e+00 7.090702e+01 -3.250625e-01 -5.802267e-02 4.964730e-01 1.900303e-01 -8.104519e-02 -6.962656e-01 5.862155e-02 -1.189325e-01 9.133740e-02 -1.306168e-01 1.144564e-01 7.424903e-03 9.237289e-02 1.582279e-02 1.486569e-01 -7.509514e-02 -1.155637e-01 -5.732871e-02 3.981781e-01 -4.891682e-02 -5.605496e-02 -1.130909e-02 -7.249995e-02 2.638888e-02 5.849798e-02 -1.229253e-01
<VARIANCE> 39
 1.781904e+01 5.591776e+01 7.027199e+01 8.862144e+01 5.365819e+01 1.701218e+02 5.619674e+01 5.201745e+01 4.867722e+01 3.817640e+01 4.604913e+01 4.694381e+01 4.619170e+01 6.574220e-01 3.098627e+00 2.417144e+00 3.293883e+00 3.182086e+00 8.576801e+00 2.802764e+00 2.698151e+00 2.646554e+00 2.307490e+00 2.660956e+00 1.384846e+00 1.812630e+00 1.000307e-01 4.476514e-01 3.376241e-01 5.294163e-01 6.733101e-01 1.108598e+00 4.635537e-01 3.862366e-01 4.737642e-01 4.526877e-01 4.705040e-01 2.841348e-01 2.528076e-01
<GCONST> 1.235136e+02
<STATE> 4
<MEAN> 39
 -1.317345e+00 -2.415861e+00 9.119383e+00 6.981658e+00 1.704033e+00 -2.774684e+01 -1.598648e+01 -3.470279e+00 -1.326439e+01 -3.026694e-01 -1.006650e+01 -6.131398e+00 6.954100e+01 4.922144e-02 8.084673e-01 -1.592669e-01 -1.979972e-01 -4.127344e-01 1.288319e+00 -3.764811e-01 -1.712596e-01 2.296984e-01 -1.171554e-01 5.526954e-03 1.315963e-02 -6.334166e-01 -3.363021e-02 -4.038908e-02 -1.550351e-02 -1.322579e-01 3.383538e-02 2.708506e-01 3.284348e-02 -1.049729e-02 -4.552284e-03 -5.103956e-03 2.016819e-02 1.002776e-02 -2.047711e-03
<VARIANCE> 39
 1.481065e+01 6.140601e+01 4.679030e+01 6.840983e+01 3.706936e+01 1.884287e+02 4.277378e+01 7.086335e+01 3.898960e+01 4.648028e+01 5.046464e+01 3.822962e+01 5.135781e+01 6.343850e-01 2.178200e+00 1.960195e+00 2.673609e+00 2.122922e+00 6.763214e+00 1.818402e+00 2.147353e+00 2.331554e+00 2.776251e+00 2.894596e+00 1.705679e+00 1.254875e+00 1.145500e-01 4.180332e-01 2.893479e-01 3.851616e-01 3.963540e-01 8.845749e-01 3.149497e-01 3.181964e-01 4.513013e-01 4.897929e-01 4.810345e-01 3.002725e-01 2.303378e-01
<GCONST> 1.186391e+02
<TRANSP> 5
 0.000000e+00 1.000000e+00 0.000000e+00 0.000000e+00 0.000000e+00
 0.000000e+00 5.526759e-01 4.473241e-01 0.000000e+00 0.000000e+00
 0.000000e+00 0.000000e+00 5.875362e-01 4.124638e-01 0.000000e+00
 0.000000e+00 0.000000e+00 0.000000e+00 8.192633e-01 1.807367e-01
 0.000000e+00 0.000000e+00 0.000000e+00 0.000000e+00 0.000000e+00
<ENDHMM>
~h "j"
<BEGINHMM>
<NUMSTATES> 5
<STATE> 2
<MEAN> 39
 -6.288700e+00 -2.433425e+00 1.282577e+01 -2.200374e-01 1.556768e+00 -8.991639e+00 -1.038522e+01 -5.799932e+00 -1.327803e+01 3.272874e-01 -6.937441e+00 -5.205433e+00 6.789530e+01 -7.919020e-02 -1.354614e+00 7.346620e-01 -5.342539e-01 8.511209e-01 -8.676897e-01 -2.145914e-01 -7.068166e-01 -4.186778e-01 2.561563e-01 -9.848167e-02 -2.253560e-01 1.343893e+00 2.412346e-01 7.476832e-03 -4.020883e-01 -4.925271e-02 -4.175429e-02 -2.436972e-01 -4.335205e-02 2.577530e-02 -1.537586e-01 6.673718e-02 5.081737e-02 6.409652e-02 2.796934e-02
<VARIANCE> 39
 6.364997e+01 1.276659e+02 1.013999e+02 8.327523e+01 4.866169e+01 8.801032e+01 5.613465e+01 5.442519e+01 6.059893e+01 3.159209e+01 2.789307e+01 2.894925e+01 7.350670e+01 9.184948e+00 1.452058e+01 1.151820e+01 1.108557e+01 4.121451e+00 9.419033e+00 8.867042e+00 5.847869e+00 6.941508e+00 3.583676e+00 3.314736e+00 3.147718e+00 6.469047e+00 1.674980e+00 2.842895e+00 1.948685e+00 2.349805e+00 8.980742e-01 1.282575e+00 1.831462e+00 1.134900e+00 1.192401e+00 7.127271e-01 6.347979e-01 6.539012e-01 1.100654e+00
<GCONST> 1.524418e+02
<STATE> 3
<MEAN> 39
 -7.540324e-01 -7.727994e+00 7.640847e+00 -3.123795e+00 4.153069e+00 -1.768240e+01 -1.259852e+01 -9.801112e+00 -1.919974e+01 2.720838e+00 -7.092443e+00 -5.409226e+00 7.457577e+01 1.541839e+00 5.217019e-02 -2.415184e+00 -3.570614e-01 3.702797e-02 -1.208471e+00 2.802717e-01 3.540974e-01 -7.675521e-01 5.481727e-01 5.086820e-01 4.672765e-01 4.032073e-01 -3.719082e-01 9.897199e-02 7.352556e-02 -3.391021e-01 -1.639303e-01 4.512931e-01 5.358983e-01 4.811528e-01 4.224213e-01 -9.974603e-02 2.084201e-01 2.113790e-01 -1.811419e-01
<VARIANCE> 39
 3.535801e+01 4.510228e+01 7.981591e+01 4.310332e+01 3.883936e+01 7.934170e+01 5.963461e+01 6.635200e+01 5.882071e+01 4.670524e+01 3.129534e+01 2.511479e+01 3.702931e+01 4.264582e+00 4.311493e+00 7.286503e+00 5.607969e+00 2.422156e+00 6.712638e+00 6.420265e+00 4.798130e+00 5.769045e+00 3.913611e+00 3.493961e+00 2.611707e+00 2.375057e+00 7.966126e-01 7.366442e-01 1.305099e+00 1.136539e+00 4.748052e-01 9.279362e-01 1.187934e+00 7.814805e-01 9.958934e-01 6.653872e-01 6.011851e-01 4.995179e-01 2.798649e-01
<GCONST> 1.368189e+02
<STATE> 4
<MEAN> 39
 1.541746e+00 -5.665275e+00 2.711016e+00 -4.691526e+00 2.881054e+00 -1.763752e+01 -9.938562e+00 -6.173839e+00 -1.834366e+01 2.034354e+00 -4.719882e+00 -4.317540e+00 7.401128e+01 3.294618e-01 3.894508e-01 -1.111686e+00 -5.694386e-01 -2.196297e-01 1.202340e-01 6.391793e-01 8.807812e-01 2.282788e-01 -7.172472e-02 5.787405e-01 5.836949e-01 -1.813371e-01 -2.074366e-01 1.035552e-01 2.744238e-01 -9.281892e-03 -9.736379e-02 2.970077e-01 2.454976e-02 1.549801e-01 9.846710e-02 -2.019887e-01 -6.699100e-02 1.281086e-02 -1.707742e-01
<VARIANCE> 39
 2.199264e+01 5.994361e+01 5.080454e+01 5.558118e+01 4.415474e+01 7.304810e+01 5.226880e+01 8.100852e+01 7.133654e+01 5.724293e+01 4.293529e+01 2.405511e+01 4.961791e+01 1.792175e+00 2.949122e+00 3.697279e+00 4.204449e+00 2.474577e+00 3.469786e+00 3.537051e+00 3.890309e+00 3.811188e+00 3.178182e+00 3.039953e+00 2.320637e+00 1.734020e+00 3.301211e-01 4.155849e-01 5.527875e-01 6.402761e-01 3.704756e-01 6.607598e-01 6.061621e-01 6.073515e-01 7.701529e-01 5.665156e-01 5.166396e-01 3.947146e-01 1.908538e-01
<GCONST> 1.270677e+02
<TRANSP> 5
 0.000000e+00 1.000000e+00 0.000000e+00 0.000000e+00 0.000000e+00
 0.000000e+00 8.675687e-01 1.324313e-01 0.000000e+00 0.000000e+00
 0.000000e+00 0.000000e+00 5.692401e-01 4.307599e-01 0.000000e+00
 0.000000e+00 0.000000e+00 0.000000e+00 5.795794e-01 4.204206e-01
 0.000000e+00 0.000000e+00 0.000000e+00 0.000000e+00 0.000000e+00
<ENDHMM>
~h "k"
<BEGINHMM>
<NUMSTATES> 5
<STATE> 2
<MEAN> 39
 -6.652987e+00 -2.801451e+00 -1.608014e+00 -6.846507e+00 -5.705619e+00 -1.911227e+00 -5.421863e+00 -3.471357e+00 -1.114534e+01 2.152044e+00 -1.230751e+00 1.768903e+00 6.146564e+01 4.729262e-01 -1.562051e+00 -3.359805e-03 -1.772753e+00 3.025619e-01 -5.144703e-01 6.550011e-01 -6.671276e-01 -7.786244e-01 2.013574e-01 -1.887864e-01 1.462320e-01 1.807680e+00 3.595448e-01 -3.700801e-03 -2.601732e-02 5.212459e-02 -3.110036e-02 -4.509942e-01 -5.500568e-02 -3.743291e-02 -2.384289e-01 -2.858607e-03 -1.630550e-01 -1.287557e-01 2.974076e-01
<VARIANCE> 39
 3.899496e+01 9.166871e+01 2.690590e+01 1.494275e+02 4.359575e+01 8.078551e+01 5.026099e+01 3.944287e+01 4.919297e+01 2.552674e+01 2.179029e+01 2.716386e+01 1.063921e+02 4.028784e+00 1.100551e+01 3.382749e+00 1.795412e+01 4.358258e+00 8.620620e+00 5.925203e+00 4.378040e+00 5.874017e+00 2.830769e+00 2.715082e+00 2.938517e+00 1.090222e+01 4.276214e-01 2.211075e+00 7.568321e-01 3.986258e+00 8.734149e-01 1.258270e+00 1.161678e+00 8.245029e-01 9.377782e-01 5.391448e-01 5.243156e-01 6.044282e-01 1.700928e+00
<GCONST> 1.439595e+02
<STATE> 3
<MEAN> 39
 -2.753150e-01 -6.514111e+00 -3.334649e+00 -9.534491e+00 -3.880907e+00 -9.739686e+00 -5.429134e+00 -4.348423e+00 -1.499806e+01 3.988524e+00 -3.689912e+00 -6.045920e-01 6.944442e+01 1.145297e+00 1.493862e-01 -3.362248e-01 7.961640e-01 -2.623784e-01 -1.383049e+00 1.198917e-01 2.350264e-01 -6.896155e-01 3.041321e-01 -4.153970e-01 -8.766326e-01 5.540402e-01 -2.125384e-01 1.904813e-01 3.153931e-03 1.987541e-01 -6.380410e-02 2.489428e-01 6.794451e-02 2.267978e-01 1.940283e-01 -8.211744e-02 9.536608e-02 -6.116730e-02 -3.515371e-01
<VARIANCE> 39
 4.652624e+01 7.482178e+01 3.432821e+01 7.602553e+01 4.657074e+01 9.214460e+01 6.847710e+01 4.145556e+01 6.174831e+01 3.532811e+01 2.889824e+01 3.270168e+01 8.392374e+01 3.839430e+00 7.509468e+00 3.856435e+00 7.973210e+00 3.385036e+00 8.470805e+00 4.357823e+00 2.673141e+00 4.831228e+00 4.021983e+00 2.984020e+00 3.219722e+00 5.173077e+00 5.892829e-01 1.644143e+00 6.209971e-01 2.023135e+00 6.990944e-01 1.024242e+00 7.692263e-01 6.142673e-01 8.933607e-01 6.486263e-01 6.597806e-01 6.124091e-01 8.363354e-01
<GCONST> 1.399374e+02
<STATE> 4
<MEAN> 39
 3.636194e-01 -5.345674e+00 -5.803679e+00 -5.645218e+00 -5.334085e+00 -1.044440e+01 -4.740100e+00 -2.505702e+00 -1.350723e+01 4.905326e+00 -2.427661e+00 -2.240945e+00 6.722918e+01 -8.322170e-03 3.469632e-01 -7.589850e-02 1.488248e-01 9.675360e-02 -2.069806e-01 -7.926917e-02 3.894692e-01 -2.021036e-01 -2.106413e-01 8.117560e-02 -5.173969e-01 -2.095900e-01 -7.686689e-02 2.449696e-02 8.471417e-02 -1.832851e-01 1.558763e-02 1.304409e-01 -9.945387e-02 -6.974311e-03 4.896103e-03 -2.281481e-01 -8.253378e-03 7.350130e-02 -1.271326e-03
<VARIANCE> 39
 5.780777e+01 6.623285e+01 3.348505e+01 5.308537e+01 3.492335e+01 1.055610e+02 7.354468e+01 3.029021e+01 7.722083e+01 3.163225e+01 2.865124e+01 2.375104e+01 1.164485e+02 1.793601e+00 4.158539e+00 1.645445e+00 3.291232e+00 2.247920e+00 4.097363e+00 2.750912e+00 2.006129e+00 2.827898e+00 2.798694e+00 2.393420e+00 2.326170e+00 2.491645e+00 3.596756e-01 7.560623e-01 3.232565e-01 7.355695e-01 5.197623e-01 5.266317e-01 4.921612e-01 3.928325e-01 6.573887e-01 4.887673e-01 3.956498e-01 4.202584e-01 5.243552e-01
<GCONST> 1.254859e+02
<TRANSP> 5
 0.000000e+00 1.000000e+00 0.000000e+00 0.000000e+00 0.000000e+00
 0.000000e+00 7.938263e-01 2.061737e-01 0.000000e+00 0.000000e+00
 0.000000e+00 0.000000e+00 5.393623e-01 4.606377e-01 0.000000e+00
 0.000000e+00 0.000000e+00 0.000000e+00 6.434752e-01 3.565248e-01
 0.000000e+00 0.000000e+00 0.000000e+00 0.000000e+00 0.000000e+00
<ENDHMM>
~h "l"
<BEGINHMM>
<NUMSTATES> 5
<STATE> 2
<MEAN> 39
 3.925906e+00 -4.039440e+00 -2.129017e+00 -8.974099e+00 2.155344e+00 -1.248460e+01 -1.084354e+01 1.861162e+00 -1.788360e+01 -2.591672e+00 -5.211775e+00 3.215205e-01 7.205878e+01 2.631737e-01 -1.459272e-03 -4.032573e-01 -5.263643e-01 -2.256373e-01 -3.459246e-01 2.273540e-01 2.685552e-01 3.096090e-02 2.741657e-01 5.176916e-01 1.498501e-01 2.155443e-01 -3.588776e-02 4.777897e-02 6.112887e-02 8.606822e-02 -9.337448e-02 -2.376412e-02 6.164466e-02 -7.070678e-02 7.170685e-02 5.256911e-02 -2.058013e-02 -9.778571e-02 -4.170448e-02
<VARIANCE> 39
 2.316928e+01 3.378328e+01 3.277699e+01 5.649430e+01 7.465565e+01 7.142664e+01 9.822493e+01 6.266097e+01 7.879604e+01 4.898532e+01 4.036237e+01 3.588504e+01 4.436894e+01 1.413643e+00 1.710827e+00 1.681247e+00 2.839145e+00 2.344004e+00 3.708745e+00 2.375035e+00 2.643982e+00 3.699971e+00 2.995436e+00 2.800352e+00 2.767602e+00 1.575538e+00 2.266038e-01 2.788266e-01 3.278754e-01 4.477927e-01 3.888638e-01 6.286562e-01 4.000578e-01 4.219341e-01 6.021677e-01 5.197701e-01 4.463008e-01 4.608808e-01 1.838494e-01
<GCONST> 1.215487e+02
<STATE> 3
<MEAN> 39
 4.536264e+00 -4.094794e+00 -3.110729e+00 -1.072780e+01 9.313043e-01 -1.418884e+01 -9.103795e+00 2.224430e+00 -1.685411e+01 -1.304115e+00 -3.816489e+00 6.773839e-01 7.298157e+01 -4.859558e-03 4.414036e-02 -1.956353e-01 -6.322301e-02 -3.987128e-01 -3.522666e-01 4.671661e-01 -1.237243e-02 2.979984e-01 3.873287e-01 3.638581e-01 -1.349352e-01 -3.541182e-03 -7.708590e-02 3.482299e-02 8.969265e-02 1.232706e-01 -1.436415e-02 4.906108e-02 -5.783680e-03 -8.312751e-02 3.650466e-02 -2.334850e-02 -7.701673e-02 -6.742878e-02 -6.806578e-02
<VARIANCE> 39
 1.329528e+01 3.365352e+01 2.885543e+01 5.752962e+01 6.474080e+01 7.149714e+01 9.748083e+01 6.218450e+01 8.936737e+01 5.951791e+01 3.709444e+01 3.877757e+01 4.089672e+01 8.631461e-01 1.356678e+00 1.252299e+00 2.271257e+00 1.950153e+00 3.337750e+00 2.122422e+00 2.454608e+00 2.587180e+00 3.040175e+00 2.179521e+00 2.265319e+00 1.093323e+00 1.193985e-01 1.929641e-01 2.173727e-01 3.339522e-01 3.145232e-01 4.830925e-01 3.596843e-01 3.598296e-01 4.889776e-01 4.556600e-01 3.755688e-01 3.432556e-01 1.251153e-01
<GCONST> 1.144311e+02
<STATE> 4
<MEAN> 39
 4.357136e+00 -4.321258e+00 -4.623196e+00 -1.040786e+01 -4.207119e+00 -1.641429e+01 -9.340104e-01 1.644903e+00 -1.770237e+01 2.370550e-01 -3.143700e+00 -3.417474e-01 7.291537e+01 -2.432098e-01 3.881102e-02 -2.618099e-02 2.266910e-01 -1.735914e-01 4.364572e-02 1.385408e-01 -6.654829e-01 3.770747e-01 4.028365e-01 1.887422e-02 -2.185367e-01 -1.939105e-01 -5.742450e-02 5.671073e-02 9.328790e-02 7.128346e-02 5.879629e-02 5.481386e-02 -1.157064e-01 -4.070307e-02 -4.188133e-02 -4.548132e-02 -3.224059e-02 -5.079146e-03 -6.224024e-02
<VARIANCE> 39
 1.191165e+01 3.668793e+01 2.127531e+01 3.697075e+01 6.008455e+01 7.488010e+01 9.491824e+01 8.510253e+01 8.913634e+01 6.910351e+01 3.530556e+01 2.850792e+01 4.079893e+01 4.728071e-01 1.308617e+00 1.036708e+00 1.439430e+00 1.640099e+00 2.205524e+00 1.998511e+00 2.378090e+00 1.969103e+00 2.346495e+00 1.529220e+00 1.417189e+00 6.452847e-01 5.393136e-02 1.791139e-01 1.631670e-01 2.378613e-01 2.889838e-01 3.477503e-01 2.648349e-01 3.333722e-01 3.193568e-01 3.553155e-01 2.588854e-01 2.285337e-01 6.989126e-02
<GCONST> 1.055344e+02
<TRANSP> 5
 0.000000e+00 1.000000e+00 0.000000e+00 0.000000e+00 0.000000e+00
 0.000000e+00 6.440992e-01 3.559007e-01 0.000000e+00 0.000000e+00
 0.000000e+00 0.000000e+00 6.308826e-01 3.691174e-01 0.000000e+00
 0.000000e+00 0.000000e+00 0.000000e+00 8.728094e-01 1.271906e-01
 0.000000e+00 0.000000e+00 0.000000e+00 0.000000e+00 0.000000e+00
<ENDHMM>
~h "m"
<BEGINHMM>
<NUMSTATES> 5
<STATE> 2
<MEAN> 39
 1.729994e+00 2.404651e+00 7.110658e-01 -2.603825e+00 8.841679e-01 -1.089522e+01 -9.730548e+00 -2.715900e-02 -1.968185e+01 -4.958324e+00 -1.144136e+01 -3.729615e+00 6.638996e+01 9.641360e-02 6.393674e-01 3.750169e-01 7.358769e-01 1.676179e-01 3.390020e-01 -5.478742e-01 5.186668e-02 -1.636706e-01 -4.986107e-01 -5.946240e-01 -3.856690e-01 -4.109202e-01 -3.285737e-02 -1.801245e-01 -2.721642e-02 -5.062373e-02 -5.820119e-02 -7.213398e-02 8.956528e-02 -7.173196e-02 7.728685e-02 1.248694e-01 1.748081e-01 5.676111e-02 1.057645e-01
<VARIANCE> 39
 2.301610e+01 5.407244e+01 4.800637e+01 7.956773e+01 5.742081e+01 8.504714e+01 5.562791e+01 5.645927e+01 4.356360e+01 3.813779e+01 4.470423e+01 3.816697e+01 4.451637e+01 1.380607e+00 3.719903e+00 2.918288e+00 4.202260e+00 2.449090e+00 5.470157e+00 3.297862e+00 3.362972e+00 3.208572e+00 3.077470e+00 4.418617e+00 2.415526e+00 2.357743e+00 1.489732e-01 4.779829e-01 4.691384e-01 6.594362e-01 4.517860e-01 7.555844e-01 5.522315e-01 5.567101e-01 5.171775e-01 4.610994e-01 6.616654e-01 4.398719e-01 2.422088e-01
<GCONST> 1.267548e+02
<STATE> 3
<MEAN> 39
 1.756141e+00 2.526701e+00 1.502845e+00 -8.655716e-01 1.041589e+00 -1.130302e+01 -1.062719e+01 -2.865497e-01 -1.926388e+01 -4.763405e+00 -1.132250e+01 -3.942019e+00 6.616477e+01 1.321216e-02 8.463672e-03 1.420032e-01 2.931723e-01 -4.504905e-02 2.926829e-02 5.282864e-03 -1.125417e-02 6.549194e-02 -4.888268e-02 -2.275795e-02 -7.432915e-02 -1.877338e-02 -7.237066e-02 -1.716272e-01 3.784917e-03 -1.239408e-01 -7.363030e-02 -2.777126e-02 1.310831e-01 -1.683394e-02 7.106389e-02 1.144965e-01 1.701073e-01 5.014824e-02 8.241640e-02
<VARIANCE> 39
 1.742031e+01 6.215985e+01 5.213518e+01 8.692252e+01 6.029988e+01 9.325501e+01 5.653491e+01 5.840740e+01 4.762911e+01 4.443919e+01 4.512442e+01 3.701820e+01 3.943813e+01 1.437357e+00 4.723197e+00 3.127231e+00 4.529526e+00 2.793464e+00 6.211788e+00 3.345263e+00 3.180958e+00 3.348910e+00 3.134744e+00 4.053925e+00 2.241246e+00 2.786844e+00 1.760219e-01 6.189284e-01 5.312681e-01 7.525958e-01 5.102977e-01 8.380846e-01 5.548484e-01 5.229017e-01 5.658675e-01 4.745550e-01 6.799290e-01 4.296015e-01 2.793503e-01
<GCONST> 1.288997e+02
<STATE> 4
<MEAN> 39
 1.194477e+00 3.401432e+00 1.497307e+00 2.945809e-01 -1.460505e+00 -8.930543e+00 -9.959559e+00 -1.821127e+00 -1.835285e+01 -5.212199e+00 -1.117607e+01 -4.026414e+00 6.446220e+01 -2.615616e-01 -3.083168e-01 1.835455e-01 -2.172375e-02 1.344973e-02 -3.082775e-02 1.130871e-01 6.295692e-03 2.259352e-01 2.780782e-01 4.235425e-01 1.265560e-01 5.822755e-02 -8.866969e-02 -1.717732e-01 4.949281e-02 -1.692902e-01 2.869549e-02 -7.503909e-02 7.330175e-02 1.740357e-02 4.026017e-03 8.572946e-02 9.391239e-02 1.711047e-02 1.113182e-01
<VARIANCE> 39
 2.093563e+01 6.431027e+01 4.087757e+01 7.504843e+01 4.404016e+01 8.812858e+01 4.494443e+01 5.579987e+01 4.734269e+01 3.727012e+01 4.874118e+01 3.260693e+01 4.541050e+01 1.453880e+00 4.011374e+00 3.018347e+00 4.038530e+00 2.112494e+00 5.166122e+00 2.709537e+00 2.937948e+00 2.944312e+00 2.600016e+00 3.475427e+00 1.834458e+00 2.175354e+00 2.146890e-01 5.797840e-01 4.856701e-01 7.024419e-01 3.544733e-01 6.727600e-01 4.636612e-01 4.556428e-01 4.978521e-01 3.969920e-01 5.376330e-01 3.337049e-01 2.866001e-01
<GCONST> 1.243219e+02
<TRANSP> 5
 0.000000e+00 1.000000e+00 0.000000e+00 0.000000e+00 0.000000e+00
 0.000000e+00 6.976545e-01 3.023455e-01 0.000000e+00 0.000000e+00
 0.000000e+00 0.000000e+00 6.367271e-01 3.632729e-01 0.000000e+00
 0.000000e+00 0.000000e+00 0.000000e+00 7.363492e-01 2.636508e-01
 0.000000e+00 0.000000e+00 0.000000e+00 0.000000e+00 0.000000e+00
<ENDHMM>
~h "n"
<BEGINHMM>
<NUMSTATES> 5
<STATE> 2
<MEAN> 39
 1.955301e+00 4.067644e+00 7.342073e-01 3.182742e+00 -1.977978e+00 -1.005422e+01 -1.631859e+01 -2.987603e+00 -1.329493e+01 -2.123815e+00 -6.555263e+00 -2.246642e+00 6.343394e+01 -7.886742e-02 4.876859e-01 7.425115e-02 3.243303e-01 -1.192485e-01 4.118742e-01 -3.432748e-01 -3.498904e-02 4.536757e-01 -1.560740e-01 -2.200487e-01 7.573307e-03 -4.481493e-01 -7.565691e-02 -2.069514e-01 8.124746e-02 -2.695828e-01 7.343113e-02 -1.507692e-01 2.235907e-01 -2.510899e-02 -1.450641e-01 1.213275e-01 1.559578e-01 -5.899202e-02 1.827798e-01
<VARIANCE> 39
 1.810813e+01 4.788177e+01 3.312217e+01 4.935586e+01 4.065253e+01 5.312584e+01 3.832039e+01 3.744750e+01 4.752312e+01 3.522942e+01 3.147919e+01 3.451526e+01 3.280732e+01 8.422256e-01 1.299682e+00 1.078959e+00 1.979526e+00 1.750099e+00 2.728250e+00 1.848770e+00 1.401452e+00 2.527928e+00 1.403839e+00 1.219518e+00 1.586385e+00 1.430946e+00 1.195713e-01 1.828129e-01 1.852859e-01 3.817009e-01 2.540548e-01 4.774885e-01 3.663304e-01 3.010440e-01 3.769283e-01 2.413334e-01 2.211194e-01 2.556306e-01 1.758752e-01
<GCONST> 1.065476e+02
<STATE> 3
<MEAN> 39
 1.583357e+00 5.164858e+00 1.527593e+00 3.631224e+00 -2.198953e+00 -9.244658e+00 -1.657416e+01 -3.172834e+00 -1.284664e+01 -2.390588e+00 -6.916486e+00 -2.595505e+00 6.259970e+01 -3.276718e-01 3.101035e-01 2.939333e-01 1.799362e-01 -1.510887e-01 4.723463e-01 8.315089e-02 1.483771e-02 2.989462e-01 -5.629746e-03 6.290040e-03 -4.324949e-02 -4.350681e-01 -8.032862e-02 -9.940096e-02 4.322871e-02 -7.016789e-02 2.894363e-03 -1.489269e-02 1.296651e-01 9.506232e-03 -6.903238e-02 6.090515e-02 8.192073e-02 6.880490e-03 2.845294e-02
<VARIANCE> 39
 1.783213e+01 5.157187e+01 3.435930e+01 4.507628e+01 4.012046e+01 4.677932e+01 3.490662e+01 3.701237e+01 3.890262e+01 3.371843e+01 3.459220e+01 3.392581e+01 3.394563e+01 7.095912e-01 1.015952e+00 9.016526e-01 1.383174e+00 1.258239e+00 1.878338e+00 1.534552e+00 1.181611e+00 1.788070e+00 1.291325e+00 1.040337e+00 1.189131e+00 7.770597e-01 8.886855e-02 1.648970e-01 1.571789e-01 2.544974e-01 2.058821e-01 3.248940e-01 2.621049e-01 2.200301e-01 2.978685e-01 2.447887e-01 2.054147e-01 2.158252e-01 1.018227e-01
<GCONST> 9.944694e+01
<STATE> 4
<MEAN> 39
 -2.714669e+00 6.857134e+00 2.884277e+00 5.072438e+00 -4.646310e+00 -5.624945e+00 -1.439626e+01 -2.858225e+00 -1.114743e+01 -2.014321e+00 -6.772312e+00 -2.756370e+00 5.780825e+01 -3.762553e-01 4.885008e-02 6.933924e-02 1.319197e-01 -3.407034e-02 4.090373e-01 2.952469e-01 1.901362e-01 2.991243e-01 7.002570e-02 7.353076e-02 6.824081e-02 -3.630779e-01 -1.154274e-02 -1.037146e-01 -4.187418e-02 -5.953965e-02 1.559498e-02 -1.053217e-02 4.217492e-02 -4.229425e-03 -3.461382e-02 3.568543e-02 4.017150e-02 8.275194e-03 5.149788e-02
<VARIANCE> 39
 3.832259e+01 3.506622e+01 2.424057e+01 2.379397e+01 3.313593e+01 4.976317e+01 3.316935e+01 3.093955e+01 3.027210e+01 2.706917e+01 3.009917e+01 2.925083e+01 3.683658e+01 5.768160e-01 9.557657e-01 7.788522e-01 7.995306e-01 1.018971e+00 1.262121e+00 1.351645e+00 1.200893e+00 1.166873e+00 1.262733e+00 1.107844e+00 1.059207e+00 3.125147e-01 6.554081e-02 2.098515e-01 1.214188e-01 1.691878e-01 1.941273e-01 2.486626e-01 2.358048e-01 2.104821e-01 2.351552e-01 2.218654e-01 2.037272e-01 2.049541e-01 7.611331e-02
<GCONST> 9.281592e+01
<TRANSP> 5
 0.000000e+00 1.000000e+00 0.000000e+00 0.000000e+00 0.000000e+00
 0.000000e+00 5.375786e-01 4.624214e-01 0.000000e+00 0.000000e+00
 0.000000e+00 0.000000e+00 5.341024e-01 4.658976e-01 0.000000e+00
 0.000000e+00 0.000000e+00 0.000000e+00 8.512853e-01 1.487148e-01
 0.000000e+00 0.000000e+00 0.000000e+00 0.000000e+00 0.000000e+00
<ENDHMM>
~h "o"
<BEGINHMM>
<NUMSTATES> 5
<STATE> 2
<MEAN> 39
 3.379551e+00 4.022322e+00 -7.641169e-01 -6.498795e+00 -1.164880e+01 -1.509670e+01 -7.549312e+00 1.020943e+01 -1.394359e+01 -2.093067e+00 -7.165322e+00 -4.737083e+00 6.530719e+01 2.964855e-01 2.577529e-02 7.050323e-02 2.751384e-01 1.889157e-01 -2.104265e-01 -4.009012e-01 -1.876373e-01 -1.807889e-01 -9.810723e-02 -1.892068e-01 -9.126261e-02 1.797435e-01 -1.024959e-02 -2.434145e-02 6.431327e-02 1.328824e-01 3.140381e-02 -4.431527e-02 -5.504314e-02 -8.435799e-02 3.521520e-02 3.349099e-02 -5.392943e-03 -1.091714e-02 -5.756475e-03
<VARIANCE> 39
 3.463092e+01 4.796911e+01 2.720638e+01 9.356534e+01 1.032633e+02 8.493648e+01 7.697504e+01 8.592061e+01 6.345176e+01 3.455445e+01 3.055086e+01 4.026931e+01 2.480439e+01 1.538599e+00 3.549734e+00 2.903539e+00 1.126839e+01 6.459684e+00 6.108634e+00 5.674090e+00 8.593750e+00 5.849164e+00 3.011238e+00 2.177534e+00 3.414722e+00 2.920584e+00 1.575754e-01 7.975088e-01 5.400516e-01 1.830593e+00 1.078399e+00 9.309724e-01 1.098071e+00 1.670539e+00 9.206862e-01 5.876265e-01 4.232932e-01 5.151864e-01 4.511307e-01
<GCONST> 1.371160e+02
<STATE> 3
<MEAN> 39
 6.613032e-01 -1.717329e-02 6.970462e+00 7.542542e+00 6.543952e-01 -1.576935e+01 -2.098652e+01 4.778524e-01 -1.209285e+01 -5.231100e+00 -5.592831e+00 -2.661186e+00 6.599418e+01 -8.000978e-01 -4.252688e-01 9.514252e-01 9.161934e-01 1.515317e-01 -9.154342e-01 -1.205709e-01 -2.667947e-01 6.291773e-01 2.463015e-01 2.122580e-01 -2.019446e-01 -6.901644e-02 -5.479163e-02 -7.527164e-02 -9.502824e-02 -3.376528e-01 3.815113e-02 -2.985576e-01 2.510263e-01 1.935265e-01 -4.158119e-02 -6.507794e-02 4.353354e-02 9.019501e-02 1.109860e-01
<VARIANCE> 39
 2.762267e+01 9.300090e+01 7.811940e+01 5.958212e+01 4.467490e+01 6.627116e+01 4.735128e+01 4.673671e+01 2.166218e+01 1.973790e+01 1.895357e+01 1.800633e+01 2.877409e+01 5.024877e-01 8.286754e+00 5.339542e+00 6.197552e+00 4.847219e+00 9.939492e+00 5.942767e+00 7.009753e+00 2.453609e+00 3.593332e+00 2.408697e+00 2.706791e+00 3.918676e+00 9.297253e-02 1.477610e+00 5.484629e-01 7.495288e-01 1.254312e+00 1.499311e+00 1.010654e+00 1.266790e+00 5.086506e-01 6.888493e-01 5.855682e-01 5.180371e-01 6.391769e-01
<GCONST> 1.321826e+02
<STATE> 4
<MEAN> 39
 -2.888633e+00 9.013324e-01 5.960740e+00 8.621333e+00 1.807652e-01 -2.189472e+01 -1.535153e+01 -3.727211e+00 -1.083679e+01 -2.290659e+00 -5.694069e+00 -2.197150e+00 6.429961e+01 -4.460886e-01 -1.119054e+00 5.040330e-01 -2.579077e-01 6.418535e-01 -2.599458e+00 5.080064e-01 -3.092220e-01 9.170889e-02 4.005133e-01 -4.102322e-02 2.026482e-01 9.950081e-01 2.276561e-01 1.068605e-01 -2.160603e-02 -3.718385e-01 1.867770e-01 3.614747e-01 -1.792107e-01 -3.477233e-02 -6.899612e-02 -2.824854e-02 -1.469240e-01 1.057905e-01 1.419011e-01
<VARIANCE> 39
 4.492168e+01 4.438381e+01 2.628882e+01 1.434382e+02 5.571091e+01 1.714214e+02 2.726969e+01 5.878295e+01 6.757215e+00 1.821176e+01 2.046220e+01 1.257502e+01 4.645673e+01 1.347198e+00 6.411128e+00 3.240673e+00 1.057834e+01 7.386258e+00 1.391526e+01 2.415178e+00 3.847118e+00 1.406604e+00 1.442083e+00 2.218276e+00 1.272597e+00 5.783377e+00 1.270598e-01 1.388789e+00 3.274324e-01 1.167848e+00 1.515208e+00 2.671533e+00 3.953525e-01 9.559122e-01 3.228878e-01 3.872338e-01 6.174943e-01 2.545666e-01 9.613003e-01
<GCONST> 1.280681e+02
<TRANSP> 5
 0.000000e+00 1.000000e+00 0.000000e+00 0.000000e+00 0.000000e+00
 0.000000e+00 9.675469e-01 3.245304e-02 0.000000e+00 0.000000e+00
 0.000000e+00 0.000000e+00 8.188142e-01 1.811859e-01 0.000000e+00
 0.000000e+00 0.000000e+00 0.000000e+00 8.003031e-01 1.996970e-01
 0.000000e+00 0.000000e+00 0.000000e+00 0.000000e+00 0.000000e+00
<ENDHMM>
~h "p"
<BEGINHMM>
<NUMSTATES> 5
<STATE> 2
<MEAN> 39
 -6.516662e-01 1.648209e-01 -3.776294e+00 7.115202e-02 -2.800865e+00 -7.717961e+00 -1.112443e+01 -3.064944e+00 -1.099564e+01 2.448947e+00 -3.862595e+00 -2.169662e+00 6.257193e+01 -2.496507e-01 -1.572594e-01 -2.818533e-01 2.694803e-01 3.041014e-01 -2.736170e-02 -1.176588e-01 -1.072137e-01 1.760380e-01 3.605924e-01 -3.326069e-02 -1.582294e-02 -2.281324e-01 5.605435e-02 -9.790863e-02 -3.511282e-02 -1.245931e-01 -9.948712e-02 -9.489805e-02 6.480660e-02 2.550901e-02 -9.167333e-02 -5.839764e-02 -3.816082e-02 -1.704242e-02 1.123478e-01
<VARIANCE> 39
 3.739101e+01 5.017216e+01 2.536915e+01 5.063057e+01 6.591016e+01 1.089769e+02 7.479480e+01 5.606679e+01 3.648349e+01 6.911257e+01 3.463004e+01 3.860297e+01 5.996199e+01 3.538944e+00 2.885947e+00 2.481786e+00 2.537189e+00 2.818729e+00 7.204458e+00 2.420076e+00 3.973139e+00 2.749159e+00 2.640444e+00 2.007938e+00 2.113111e+00 4.893667e+00 4.410994e-01 4.468176e-01 4.929560e-01 5.058084e-01 5.415623e-01 1.051256e+00 4.928282e-01 6.354892e-01 4.728320e-01 4.628355e-01 2.940712e-01 3.325489e-01 5.356389e-01
<GCONST> 1.279649e+02
<STATE> 3
<MEAN> 39
 -1.012153e+00 8.335422e-01 -4.259638e+00 -1.200267e-01 -3.637138e+00 -6.304605e+00 -1.026980e+01 -1.400605e+00 -1.123767e+01 9.691138e-01 -4.448856e+00 -2.069354e+00 6.149508e+01 -6.641625e-01 1.609727e-01 -2.668235e-02 1.244396e-01 -1.830247e-01 7.579581e-01 -5.102147e-02 2.174159e-01 3.551434e-01 -3.326202e-02 1.167188e-01 2.343904e-01 -7.704251e-01 -8.966624e-03 2.909184e-02 1.199599e-01 -8.190289e-02 -9.775943e-02 -4.224080e-03 3.354344e-03 -4.525512e-03 -1.783272e-03 -1.471538e-02 -1.154348e-02 -2.717013e-04 2.268961e-02
<VARIANCE> 39
 2.673607e+01 5.115839e+01 2.567007e+01 6.435352e+01 6.845054e+01 1.017308e+02 7.409612e+01 5.203978e+01 3.624936e+01 7.303212e+01 4.398235e+01 4.676018e+01 4.782624e+01 1.068671e+00 2.232706e+00 1.445541e+00 2.166037e+00 2.305815e+00 3.665773e+00 2.472135e+00 2.446110e+00 2.259007e+00 2.256386e+00 1.806520e+00 1.945188e+00 1.608819e+00 1.766615e-01 3.846197e-01 2.377742e-01 3.972479e-01 4.273106e-01 6.738936e-01 4.419219e-01 5.048054e-01 4.272273e-01 4.291729e-01 3.542907e-01 3.528234e-01 2.859304e-01
<GCONST> 1.192759e+02
<STATE> 4
<MEAN> 39
 -5.124575e+00 4.072650e+00 -2.465294e+00 1.613310e-01 -6.836221e+00 -1.328483e+00 -7.930437e+00 1.016002e+00 -9.245375e+00 -2.338085e-01 -3.227938e+00 -5.592227e-01 5.617921e+01 -4.706227e-01 9.440855e-02 2.545504e-01 2.269238e-01 1.961127e-02 2.570859e-01 -1.366011e-01 2.389180e-02 3.135454e-01 2.277248e-01 1.442233e-01 6.715688e-02 -4.223242e-01 6.044746e-02 -2.599028e-02 7.114537e-02 -3.344293e-02 -3.362570e-03 -7.730279e-02 -2.230894e-02 -4.092107e-02 -7.287224e-02 -1.445926e-02 -5.068131e-02 -3.956706e-02 9.527722e-02
<VARIANCE> 39
 3.118665e+01 3.518670e+01 2.513793e+01 4.040201e+01 3.570075e+01 4.012435e+01 4.140826e+01 3.526244e+01 2.881119e+01 3.877900e+01 4.380739e+01 3.479341e+01 4.365036e+01 9.859833e-01 1.615537e+00 1.128224e+00 1.719022e+00 1.580253e+00 1.711409e+00 2.099295e+00 1.882228e+00 1.660308e+00 1.777402e+00 1.675352e+00 1.452603e+00 1.240174e+00 1.423004e-01 2.622393e-01 2.221729e-01 3.483398e-01 2.938716e-01 3.007424e-01 3.802838e-01 3.473134e-01 3.287123e-01 3.481258e-01 3.045301e-01 2.560737e-01 1.884327e-01
<GCONST> 1.072766e+02
<TRANSP> 5
 0.000000e+00 1.000000e+00 0.000000e+00 0.000000e+00 0.000000e+00
 0.000000e+00 6.088459e-01 3.911541e-01 0.000000e+00 0.000000e+00
 0.000000e+00 0.000000e+00 5.193692e-01 4.806308e-01 0.000000e+00
 0.000000e+00 0.000000e+00 0.000000e+00 8.380910e-01 1.619091e-01
 0.000000e+00 0.000000e+00 0.000000e+00 0.000000e+00 0.000000e+00
<ENDHMM>
~h "r"
<BEGINHMM>
<NUMSTATES> 5
<STATE> 2
<MEAN> 39
 -2.189373e+00 -4.328274e+00 -3.618339e+00 -9.001262e+00 -4.944404e-01 -8.304414e+00 -9.303715e+00 -8.909414e-01 -1.195117e+01 6.223651e-01 7.097628e-01 1.485672e+00 6.720109e+01 7.075680e-01 -1.966119e-01 -5.604575e-01 -3.529440e-01 1.003313e-01 -4.327662e-01 8.781351e-02 1.273496e-01 -2.109044e-01 -1.796979e-01 1.348930e-01 -6.507558e-02 6.103106e-01 2.934233e-02 3.101020e-02 3.629278e-04 4.517097e-02 -5.765383e-02 -4.998400e-02 6.568526e-02 6.444477e-04 9.862016e-03 -3.635385e-02 -6.970260e-02 -5.413987e-02 1.805222e-03
<VARIANCE> 39
 8.016034e+01 6.326776e+01 9.006489e+01 8.266357e+01 6.738116e+01 9.683502e+01 5.913622e+01 4.966869e+01 4.842104e+01 4.346205e+01 3.441682e+01 2.776330e+01 9.200439e+01 6.020654e+00 6.110010e+00 6.903825e+00 7.504924e+00 5.344620e+00 7.191552e+00 6.597935e+00 3.899753e+00 5.242361e+00 3.996646e+00 3.859600e+00 2.973940e+00 5.506882e+00 1.041611e+00 1.128871e+00 1.289843e+00 1.432667e+00 9.134817e-01 1.235276e+00 1.191503e+00 6.931090e-01 1.030243e+00 7.210636e-01 7.696525e-01 5.938572e-01 6.822706e-01
<GCONST> 1.458095e+02
<STATE> 3
<MEAN> 39
 1.663633e+00 -4.338996e+00 -5.549435e+00 -9.480444e+00 -1.691478e+00 -1.038559e+01 -7.430391e+00 -1.320128e+00 -1.305491e+01 5.404304e-01 2.594472e-01 7.406909e-01 6.961137e+01 2.700529e-01 3.161938e-01 -2.658170e-01 2.267095e-01 -2.477898e-01 2.617240e-02 2.445906e-01 1.477578e-01 -2.983965e-02 2.715485e-02 -2.822862e-01 -1.489791e-01 -1.443995e-01 -1.362424e-01 3.303852e-02 1.398121e-01 1.363497e-01 -4.861744e-02 8.745355e-02 -6.967495e-02 -5.942523e-02 1.541740e-02 5.769539e-02 -6.371632e-02 -7.045435e-02 -1.302042e-01
<VARIANCE> 39
 5.580550e+01 5.536311e+01 7.071962e+01 6.549885e+01 6.462059e+01 8.327016e+01 6.763197e+01 4.923047e+01 3.900047e+01 4.728088e+01 4.064866e+01 2.670303e+01 7.133952e+01 4.271471e+00 4.997026e+00 4.569471e+00 5.656324e+00 3.957653e+00 6.639068e+00 5.217512e+00 3.448898e+00 4.179903e+00 4.250924e+00 3.246126e+00 2.970026e+00 5.513318e+00 7.019632e-01 8.451344e-01 8.921924e-01 9.998781e-01 6.617741e-01 1.063219e+00 8.899966e-01 6.112217e-01 8.167488e-01 7.988421e-01 6.286448e-01 5.718979e-01 6.905186e-01
<GCONST> 1.395371e+02
<STATE> 4
<MEAN> 39
 3.535667e-01 -3.015606e+00 -5.251457e+00 -4.833893e+00 -5.839771e+00 -8.314611e+00 -5.450420e+00 -2.601691e+00 -1.343539e+01 2.968376e+00 -1.187832e+00 -1.849889e-01 6.589513e+01 2.182621e-02 -6.712709e-02 6.271601e-02 1.096998e-01 -1.640979e-01 1.721944e-02 4.881117e-02 -1.687229e-01 -1.142784e-01 8.866615e-02 -1.750026e-01 -1.844166e-01 2.998884e-02 -1.639029e-02 2.487222e-02 7.301182e-02 3.033645e-02 1.637480e-02 -1.126566e-02 -6.905527e-02 -4.667808e-03 -3.401598e-02 -4.667416e-02 -2.123747e-02 -9.824435e-03 -1.332981e-02
<VARIANCE> 39
 5.081962e+01 6.393532e+01 3.782191e+01 6.448531e+01 5.478664e+01 9.584122e+01 7.186510e+01 5.237619e+01 4.961092e+01 3.963176e+01 3.592054e+01 3.185024e+01 8.228668e+01 3.564763e+00 4.654338e+00 2.890714e+00 4.743318e+00 2.635691e+00 6.700788e+00 4.476613e+00 3.506262e+00 4.025105e+00 3.216367e+00 3.247113e+00 3.089646e+00 5.602314e+00 5.545768e-01 6.727187e-01 5.227233e-01 8.678226e-01 4.482699e-01 1.013357e+00 7.491380e-01 6.682494e-01 7.633944e-01 5.690882e-01 6.228515e-01 5.786611e-01 7.044600e-01
<GCONST> 1.355782e+02
<TRANSP> 5
 0.000000e+00 1.000000e+00 0.000000e+00 0.000000e+00 0.000000e+00
 0.000000e+00 8.860822e-01 1.139178e-01 0.000000e+00 0.000000e+00
 0.000000e+00 0.000000e+00 7.753679e-01 2.246321e-01 0.000000e+00
 0.000000e+00 0.000000e+00 0.000000e+00 8.766588e-01 1.233412e-01
 0.000000e+00 0.000000e+00 0.000000e+00 0.000000e+00 0.000000e+00
<ENDHMM>
~h "s"
<BEGINHMM>
<NUMSTATES> 5
<STATE> 2
<MEAN> 39
 -2.099738e+01 -1.062067e+01 1.493695e+01 -1.279142e+01 4.317141e+00 -5.111329e+00 -5.815326e+00 -7.614685e+00 -5.095729e+00 3.417395e+00 -2.615076e+00 -6.484040e-01 7.013003e+01 -2.015708e+00 -1.080573e+00 1.292587e+00 -1.254331e+00 6.614677e-01 2.683106e-01 6.964843e-01 -1.000118e-01 1.105522e+00 1.265638e-01 2.642269e-01 2.272689e-01 7.659835e-01 2.895589e-01 1.459894e-01 -4.098274e-01 1.818847e-01 -5.756205e-02 -2.721254e-01 1.759449e-02 3.262174e-02 -1.673853e-01 -2.027493e-02 -9.044578e-04 -2.083638e-02 -3.491857e-02
<VARIANCE> 39
 9.499722e+01 5.320429e+01 7.708127e+01 6.501369e+01 5.446173e+01 7.708521e+01 5.353466e+01 3.707127e+01 6.814865e+01 3.014248e+01 2.733975e+01 1.933194e+01 6.829686e+01 7.820064e+00 4.115584e+00 9.845872e+00 5.590814e+00 3.603804e+00 6.818027e+00 5.182407e+00 3.157502e+00 6.732217e+00 2.706458e+00 2.798593e+00 2.077091e+00 2.489969e+00 9.259039e-01 6.500914e-01 1.424096e+00 9.041395e-01 6.003459e-01 1.102726e+00 9.541166e-01 5.984537e-01 1.142068e+00 4.802358e-01 4.912673e-01 4.083411e-01 3.184046e-01
<GCONST> 1.372538e+02
<STATE> 3
<MEAN> 39
 -2.263513e+01 -1.201003e+01 1.444527e+01 -1.483458e+01 5.513123e+00 -6.956629e+00 -3.852792e+00 -7.426901e+00 -4.593503e+00 3.478645e+00 -2.007018e+00 1.768856e-01 7.198304e+01 1.411067e+00 4.291615e-01 -1.024939e+00 2.629346e-01 -4.839133e-01 -2.029237e-01 -6.246116e-02 1.069500e-01 -9.146734e-01 4.591684e-02 -3.161043e-02 1.724841e-01 -2.566828e-01 5.201538e-01 2.486603e-01 -2.313085e-01 1.767040e-01 -1.784849e-01 -6.056615e-02 -8.724075e-02 2.273067e-02 -3.433416e-01 -4.959306e-02 -1.098604e-01 -1.509189e-03 -1.089971e-01
<VARIANCE> 39
 1.039781e+02 4.762324e+01 5.575241e+01 2.841676e+01 4.759237e+01 4.828144e+01 3.638015e+01 2.793090e+01 5.755775e+01 3.099368e+01 2.279666e+01 1.819641e+01 3.784506e+01 9.388159e+00 4.299846e+00 4.123951e+00 2.964864e+00 3.762480e+00 3.948125e+00 3.723361e+00 2.359376e+00 6.607632e+00 2.499135e+00 2.631034e+00 1.721569e+00 2.900073e+00 9.880271e-01 8.015844e-01 6.669207e-01 5.253267e-01 5.146796e-01 7.985206e-01 6.852403e-01 4.378684e-01 1.048892e+00 4.982615e-01 5.311282e-01 3.622473e-01 3.820848e-01
<GCONST> 1.291823e+02
<STATE> 4
<MEAN> 39
 -1.383477e+01 -6.586687e+00 8.109735e+00 -9.145717e+00 5.866912e-01 -4.310555e+00 -5.621992e+00 -4.256775e+00 -8.217061e+00 3.512405e+00 -3.293050e+00 1.172096e+00 6.551845e+01 1.443703e+00 9.060594e-01 -8.723322e-01 7.953969e-01 -7.170355e-01 3.079152e-02 -2.430421e-01 2.713498e-01 -8.277239e-01 -2.565131e-01 -2.732916e-01 1.916094e-02 -5.722272e-01 -3.598652e-03 6.500156e-02 9.665447e-02 2.217071e-02 1.619035e-02 -8.363114e-02 8.089416e-05 -2.513226e-02 -2.426133e-02 -1.238328e-01 -5.514321e-02 -8.382013e-02 7.205448e-02
<VARIANCE> 39
 1.322329e+02 8.631953e+01 8.719159e+01 7.574901e+01 8.001549e+01 7.848718e+01 4.578280e+01 3.861398e+01 5.167720e+01 3.937887e+01 2.276445e+01 1.810325e+01 1.041338e+02 3.526862e+00 3.600567e+00 3.316592e+00 2.529540e+00 2.529136e+00 3.556108e+00 2.911908e+00 2.094914e+00 4.457552e+00 2.591693e+00 2.393798e+00 1.647462e+00 1.842862e+00 3.824722e-01 5.502498e-01 4.504876e-01 3.986811e-01 3.654387e-01 6.160611e-01 5.146092e-01 4.189035e-01 5.686750e-01 4.508606e-01 4.488866e-01 3.013055e-01 2.506317e-01
<GCONST> 1.263805e+02
<TRANSP> 5
 0.000000e+00 1.000000e+00 0.000000e+00 0.000000e+00 0.000000e+00
 0.000000e+00 8.685097e-01 1.314903e-01 0.000000e+00 0.000000e+00
 0.000000e+00 0.000000e+00 8.145569e-01 1.854431e-01 0.000000e+00
 0.000000e+00 0.000000e+00 0.000000e+00 8.074040e-01 1.925960e-01
 0.000000e+00 0.000000e+00 0.000000e+00 0.000000e+00 0.000000e+00
<ENDHMM>
~h "t"
<BEGINHMM>
<NUMSTATES> 5
<STATE> 2
<MEAN> 39
 -3.636605e+00 -2.435499e+00 -9.485110e-01 -2.928408e+00 -5.664373e+00 -5.655352e+00 -7.142057e+00 -1.144599e+00 -1.113960e+01 1.116443e+00 -3.038155e+00 -7.146495e-01 6.302885e+01 -1.653974e-01 -8.030265e-01 3.958642e-01 -4.987165e-01 -2.262284e-02 -4.790122e-02 1.954084e-01 1.064496e-01 -3.024344e-01 8.227213e-02 -1.528489e-01 1.238893e-02 4.680054e-01 1.621917e-01 -3.252914e-02 4.164373e-02 -9.967420e-02 -2.089269e-02 -2.804640e-01 -3.398674e-02 1.534225e-02 -2.642507e-01 -4.485799e-03 -5.075165e-02 -6.466043e-02 2.170632e-01
<VARIANCE> 39
 6.413545e+01 9.328743e+01 4.904924e+01 6.613204e+01 6.572603e+01 7.924844e+01 5.776312e+01 4.467503e+01 5.429189e+01 4.299556e+01 3.108024e+01 2.136298e+01 8.979127e+01 4.171933e+00 1.126415e+01 4.307960e+00 7.992818e+00 4.930979e+00 8.134459e+00 4.482693e+00 4.103949e+00 6.760016e+00 4.127781e+00 3.115125e+00 2.404771e+00 1.029168e+01 6.025191e-01 1.996336e+00 8.788445e-01 1.421473e+00 7.900631e-01 1.104436e+00 7.436355e-01 8.298616e-01 1.099526e+00 8.207315e-01 5.899487e-01 4.212543e-01 1.343405e+00
<GCONST> 1.438786e+02
<STATE> 3
<MEAN> 39
 -3.745677e+00 -3.613574e+00 1.091840e-01 -4.263682e+00 -5.859685e+00 -6.168712e+00 -6.527135e+00 -6.969375e-01 -1.225108e+01 1.010761e+00 -3.620243e+00 -8.918993e-01 6.417788e+01 2.411720e-01 -4.519559e-01 5.126636e-01 -3.104949e-01 -8.104157e-02 -4.854504e-01 -7.288731e-02 5.513432e-02 -9.805178e-01 -1.461796e-01 -3.346514e-01 -1.591019e-01 6.204268e-01 2.049790e-01 3.755317e-01 -4.442376e-03 9.475924e-02 -5.630661e-02 -1.639127e-01 -4.563539e-02 5.461566e-02 -2.288892e-01 -1.597559e-01 -8.804630e-02 -9.556185e-02 -4.439438e-02
<VARIANCE> 39
 5.432697e+01 1.101654e+02 5.577248e+01 6.526814e+01 6.534232e+01 8.175378e+01 5.137998e+01 4.772422e+01 7.491737e+01 4.139890e+01 3.371259e+01 2.192391e+01 8.006750e+01 4.031739e+00 1.199541e+01 4.160612e+00 9.440284e+00 4.180866e+00 8.454773e+00 3.845172e+00 4.604622e+00 9.189849e+00 4.451668e+00 3.811870e+00 2.541382e+00 1.086721e+01 4.804958e-01 2.367488e+00 7.739919e-01 1.499418e+00 7.191004e-01 1.033950e+00 6.206579e-01 9.468872e-01 1.078960e+00 9.063908e-01 5.973219e-01 4.728160e-01 1.302322e+00
<GCONST> 1.447738e+02
<STATE> 4
<MEAN> 39
 -4.749786e+00 -6.213216e-01 -1.094749e+00 -2.531651e+00 -7.259029e+00 -3.855169e+00 -7.072891e+00 -1.855617e-02 -1.173809e+01 7.518751e-01 -2.855947e+00 -4.220632e-01 6.029930e+01 2.185695e-01 8.943556e-02 4.968311e-01 -5.527296e-02 -2.332987e-02 -3.335246e-01 -1.999730e-01 2.587559e-02 -8.305708e-01 -2.487601e-01 -3.741126e-01 -2.753874e-01 2.781535e-01 1.135768e-01 1.153238e-01 7.597259e-02 -3.888405e-02 -1.510452e-02 -1.712998e-01 7.341573e-02 2.121014e-02 -1.132077e-01 -4.085916e-02 -7.432955e-02 -1.176589e-01 1.005270e-01
<VARIANCE> 39
 3.981622e+01 7.874273e+01 4.940032e+01 5.199273e+01 4.848042e+01 6.864981e+01 3.805376e+01 3.085153e+01 7.265137e+01 2.910863e+01 3.251770e+01 2.068367e+01 7.935806e+01 2.795538e+00 8.321588e+00 2.821191e+00 6.491125e+00 2.908811e+00 4.728617e+00 2.609924e+00 3.389054e+00 6.502983e+00 3.271275e+00 3.206042e+00 2.354714e+00 6.264092e+00 3.134546e-01 1.584672e+00 4.501766e-01 9.735357e-01 5.154518e-01 6.729153e-01 4.286240e-01 7.044468e-01 7.701211e-01 6.445079e-01 5.247307e-01 4.289190e-01 9.382635e-01
<GCONST> 1.330318e+02
<TRANSP> 5
 0.000000e+00 1.000000e+00 0.000000e+00 0.000000e+00 0.000000e+00
 0.000000e+00 6.096705e-01 3.903295e-01 0.000000e+00 0.000000e+00
 0.000000e+00 0.000000e+00 5.021845e-01 4.978156e-01 0.000000e+00
 0.000000e+00 0.000000e+00 0.000000e+00 6.217478e-01 3.782522e-01
 0.000000e+00 0.000000e+00 0.000000e+00 0.000000e+00 0.000000e+00
<ENDHMM>
~h "u"
<BEGINHMM>
<NUMSTATES> 5
<STATE> 2
<MEAN> 39
 6.473138e-01 7.148668e-01 3.194047e+00 -5.223847e+00 -6.243739e+00 -1.052343e+01 -6.640250e+00 2.743585e+00 -2.128187e+01 -3.346595e+00 -8.818583e+00 -6.194737e+00 6.648974e+01 6.001606e-01 8.167748e-01 1.410305e-01 -8.268926e-02 -5.768999e-01 -6.967737e-01 2.642831e-01 8.093626e-01 -4.785326e-01 -4.736013e-01 -5.036079e-01 -6.764038e-01 6.276596e-02 -1.044703e-01 5.132166e-02 -1.451031e-01 1.583425e-01 8.811746e-02 8.287627e-02 -5.313487e-02 -1.124903e-02 3.028408e-01 6.752390e-02 1.521867e-01 1.002518e-01 -1.738458e-01
<VARIANCE> 39
 3.521637e+01 7.581664e+01 4.941668e+01 6.042304e+01 8.104694e+01 9.260535e+01 5.673093e+01 7.209594e+01 1.346724e+02 4.451192e+01 4.997309e+01 5.587522e+01 4.890447e+01 2.932854e+00 8.055907e+00 2.452689e+00 4.962234e+00 5.075416e+00 8.926929e+00 4.271421e+00 5.262820e+00 8.549634e+00 3.930854e+00 4.197469e+00 4.549176e+00 3.919775e+00 3.803132e-01 1.581179e+00 4.601841e-01 9.183553e-01 8.856111e-01 1.044856e+00 7.217285e-01 9.165761e-01 1.040441e+00 6.930138e-01 6.847824e-01 6.790463e-01 6.991355e-01
<GCONST> 1.424378e+02
<STATE> 3
<MEAN> 39
 1.370733e+00 2.128344e+00 3.013674e+00 -4.638867e+00 -6.428207e+00 -1.178248e+01 -6.693170e+00 3.711987e+00 -2.104070e+01 -3.916689e+00 -8.987959e+00 -6.735983e+00 6.626379e+01 1.681408e-01 4.536469e-01 -7.292517e-02 1.991433e-01 -8.385795e-02 -1.558104e-01 -4.337648e-02 1.967608e-01 2.424822e-01 -2.777702e-02 -5.841636e-02 -1.474688e-01 -1.715087e-01 -1.035622e-01 -7.566541e-02 -4.208282e-02 4.878139e-02 8.711500e-02 1.061152e-01 -9.105157e-02 -1.439619e-01 1.906609e-01 9.659636e-02 9.410948e-02 1.243540e-01 -6.051595e-02
<VARIANCE> 39
 3.346373e+01 6.354100e+01 5.363890e+01 6.340495e+01 9.006263e+01 9.336370e+01 6.060988e+01 7.442364e+01 1.395709e+02 4.420619e+01 5.376495e+01 5.363522e+01 4.208473e+01 1.961801e+00 6.009747e+00 2.433764e+00 4.649760e+00 5.596440e+00 8.277688e+00 4.182507e+00 4.744186e+00 6.723654e+00 3.445824e+00 3.395645e+00 3.469605e+00 2.992058e+00 3.146750e-01 1.165192e+00 4.363856e-01 8.230309e-01 9.229473e-01 9.698243e-01 7.732538e-01 7.728416e-01 1.003455e+00 6.247534e-01 5.748455e-01 5.800830e-01 4.474033e-01
<GCONST> 1.387563e+02
<STATE> 4
<MEAN> 39
 8.543203e-01 4.712977e+00 4.674568e+00 -3.857617e+00 -1.108117e+01 -1.365619e+01 -6.163410e+00 4.130503e+00 -2.011093e+01 -3.783254e+00 -8.722497e+00 -8.483990e+00 6.447404e+01 -1.240401e-01 -3.590473e-03 -2.152925e-01 2.764004e-01 3.449017e-01 4.233156e-01 -4.048406e-01 -4.298617e-01 5.275880e-01 9.964281e-02 2.129582e-01 3.279637e-01 -2.135448e-01 -3.832167e-02 -1.057336e-01 8.936464e-03 -3.552410e-02 9.031627e-02 1.861198e-02 -1.116303e-02 -6.191011e-02 2.843247e-03 4.082549e-02 1.170877e-02 4.605773e-02 5.033904e-02
<VARIANCE> 39
 2.618093e+01 5.428286e+01 4.504181e+01 6.867327e+01 1.009948e+02 1.244685e+02 4.876521e+01 6.741379e+01 1.250565e+02 3.967848e+01 4.218159e+01 5.371161e+01 4.482090e+01 1.099730e+00 3.644075e+00 1.633577e+00 3.420312e+00 3.996490e+00 4.981959e+00 2.903728e+00 4.175391e+00 4.911545e+00 3.258429e+00 2.552609e+00 2.825947e+00 1.878008e+00 1.526853e-01 6.004899e-01 2.680748e-01 5.221292e-01 5.134922e-01 7.527679e-01 5.230903e-01 6.743011e-01 7.710109e-01 5.771127e-01 4.226030e-01 4.698429e-01 2.472623e-01
<GCONST> 1.283503e+02
<TRANSP> 5
 0.000000e+00 1.000000e+00 0.000000e+00 0.000000e+00 0.000000e+00
 0.000000e+00 6.010979e-01 3.989020e-01 0.000000e+00 0.000000e+00
 0.000000e+00 0.000000e+00 5.854301e-01 4.145699e-01 0.000000e+00
 0.000000e+00 0.000000e+00 0.000000e+00 8.493049e-01 1.506952e-01
 0.000000e+00 0.000000e+00 0.000000e+00 0.000000e+00 0.000000e+00
<ENDHMM>
~h "w"
<BEGINHMM>
<NUMSTATES> 5
<STATE> 2
<MEAN> 39
 -8.395473e-01 1.311594e+00 1.150600e+00 -4.289639e+00 -1.622782e+01 -6.239253e+00 -2.791625e+00 5.774182e-01 -1.756894e+01 -1.312861e+00 -7.507360e+00 -4.781674e+00 6.214167e+01 3.068995e-01 4.286835e-01 -3.680370e-01 1.019354e-01 1.193058e-01 -8.589816e-01 -3.845021e-01 1.892093e-01 -2.288247e-01 -3.473336e-01 -2.657107e-02 -4.850075e-02 1.299150e-02 -5.660212e-02 -9.209341e-02 -7.934769e-02 -1.645577e-01 2.616836e-01 4.452646e-03 -9.398935e-02 2.185859e-02 1.595778e-01 4.020273e-02 9.921750e-02 7.360596e-02 7.071008e-02
<VARIANCE> 39
 4.518650e+01 6.709786e+01 1.901712e+01 3.256198e+01 5.337601e+01 1.081580e+02 4.841680e+01 5.423682e+01 6.233391e+01 2.993268e+01 4.324511e+01 2.245448e+01 4.662211e+01 3.012806e+00 9.489283e+00 2.175260e+00 4.007901e+00 6.154252e+00 4.887904e+00 3.811460e+00 7.440696e+00 5.124125e+00 4.219706e+00 4.324541e+00 2.253106e+00 4.607600e+00 3.608179e-01 1.771524e+00 4.394777e-01 4.547284e-01 1.089718e+00 5.857449e-01 6.637655e-01 1.514960e+00 7.737848e-01 1.038627e+00 6.652750e-01 3.867109e-01 4.771449e-01
<GCONST> 1.352368e+02
<STATE> 3
<MEAN> 39
 8.454909e-01 5.511352e-01 -1.741624e+00 -4.302024e+00 -1.292622e+01 -9.666249e+00 -4.432986e+00 2.119768e+00 -1.727650e+01 -2.062872e+00 -3.832066e+00 -2.092971e+00 6.405838e+01 -7.193601e-01 -5.653043e-01 -5.224187e-01 1.738306e-01 7.443212e-01 3.562399e-01 -1.086946e+00 -5.793361e-01 1.156477e+00 3.255900e-01 1.251051e+00 3.671258e-01 -2.992662e-01 5.100727e-02 -1.453271e-01 2.074782e-02 -2.442780e-01 1.166367e-01 -6.490601e-02 -8.275893e-02 -1.884426e-01 9.390385e-02 2.238078e-01 -1.752102e-01 -8.080786e-03 1.865367e-01
<VARIANCE> 39
 4.404081e+01 6.749930e+01 1.262553e+01 2.507002e+01 2.848381e+01 7.365990e+01 5.327096e+01 4.282690e+01 9.568506e+01 1.885098e+01 6.356745e+01 3.311391e+01 5.805148e+01 2.082178e+00 8.123309e+00 1.526369e+00 2.993546e+00 3.372959e+00 3.042938e+00 2.661661e+00 4.495877e+00 4.035596e+00 2.030188e+00 3.827271e+00 2.225976e+00 4.203671e+00 3.324459e-01 1.443622e+00 2.548983e-01 5.071182e-01 5.169265e-01 4.513759e-01 4.130435e-01 7.068518e-01 9.324345e-01 4.072131e-01 8.403605e-01 3.795505e-01 4.840426e-01
<GCONST> 1.265609e+02
<STATE> 4
<MEAN> 39
 -5.237398e+00 1.904486e+00 -3.087354e+00 -2.552164e+00 -1.074752e+01 -3.752433e+00 -6.340137e+00 1.612514e+00 -9.377924e+00 -4.819184e-01 -1.725327e+00 6.341572e-01 5.763953e+01 -5.551814e-01 -4.163010e-01 2.390882e-02 1.265070e-01 6.630237e-01 1.301883e-01 -8.631307e-01 -4.779758e-01 7.664472e-01 4.121152e-01 1.957303e-01 1.020980e-01 -1.655945e-01 1.808712e-01 6.496940e-02 1.031615e-01 -5.010490e-02 7.897218e-02 -7.732237e-02 1.561091e-01 -3.944369e-02 -1.954975e-01 1.581087e-02 -2.256823e-01 4.636158e-02 1.416446e-01
<VARIANCE> 39
 3.955790e+01 4.988039e+01 1.047127e+01 1.773369e+01 2.138059e+01 4.628889e+01 3.789558e+01 3.193137e+01 5.680719e+01 1.039264e+01 2.453133e+01 2.189495e+01 6.918755e+01 9.709068e-01 2.758599e+00 1.346731e+00 2.756762e+00 2.099583e+00 1.524282e+00 2.052842e+00 2.848110e+00 3.475528e+00 1.255288e+00 2.468968e+00 1.549889e+00 1.439595e+00 2.425501e-01 7.598298e-01 1.975267e-01 3.900323e-01 4.292905e-01 2.417274e-01 3.990907e-01 5.497519e-01 6.057392e-01 1.955267e-01 5.385069e-01 3.012905e-01 2.484079e-01
<GCONST> 1.104121e+02
<TRANSP> 5
 0.000000e+00 1.000000e+00 0.000000e+00 0.000000e+00 0.000000e+00
 0.000000e+00 8.127556e-01 1.872444e-01 0.000000e+00 0.000000e+00
 0.000000e+00 0.000000e+00 5.726748e-01 4.273252e-01 0.000000e+00
 0.000000e+00 0.000000e+00 0.000000e+00 7.344337e-01 2.655663e-01
 0.000000e+00 0.000000e+00 0.000000e+00 0.000000e+00 0.000000e+00
<ENDHMM>
~h "eu"
<BEGINHMM>
<NUMSTATES> 5
<STATE> 2
<MEAN> 39
 -2.563117e-01 -2.852504e+00 2.266291e+00 -8.528379e+00 8.123759e-01 -1.177953e+01 -7.840140e+00 -2.738915e+00 -2.007043e+01 -2.026627e+00 -5.620815e+00 1.489956e-01 7.026769e+01 1.193194e+00 4.605661e-02 -4.873176e-01 -3.367629e-01 -2.956082e-01 -9.741051e-01 1.631845e-01 1.387214e-01 -9.409044e-01 -1.017978e-01 -8.373821e-02 6.714508e-02 6.591236e-01 -2.509744e-01 -2.519749e-02 1.239142e-01 1.199827e-01 2.876568e-02 1.268672e-01 8.166718e-02 1.372699e-01 3.390611e-01 5.067541e-04 -5.331126e-02 -6.621245e-02 -6.844916e-02
<VARIANCE> 39
 5.777518e+01 5.728450e+01 5.993818e+01 6.592026e+01 5.697058e+01 7.763910e+01 6.238347e+01 6.965796e+01 7.487119e+01 5.091889e+01 3.146787e+01 2.656253e+01 4.813358e+01 6.640522e+00 5.909813e+00 4.918533e+00 5.757585e+00 3.409039e+00 7.798500e+00 5.535378e+00 3.821962e+00 7.721420e+00 3.074975e+00 3.952366e+00 2.542769e+00 3.694842e+00 8.160446e-01 9.783244e-01 8.506332e-01 9.858131e-01 5.868545e-01 1.409569e+00 9.179622e-01 7.507806e-01 1.229183e+00 5.413591e-01 6.797960e-01 4.592769e-01 6.697243e-01
<GCONST> 1.408754e+02
<STATE> 3
<MEAN> 39
 1.798599e+00 -3.211180e+00 1.136307e+00 -8.771642e+00 4.206927e-01 -1.347139e+01 -7.305234e+00 -1.825668e+00 -2.086584e+01 -2.079203e+00 -5.952362e+00 1.293314e-01 7.158339e+01 4.834607e-01 6.881148e-02 -2.413174e-01 1.052490e-01 -8.095948e-02 -1.543561e-01 9.589162e-02 3.666049e-01 9.617781e-03 -6.762868e-03 -1.318154e-01 -6.728446e-03 1.435720e-01 -2.718481e-01 9.967718e-02 1.119931e-01 1.466616e-01 5.227906e-02 2.712698e-01 -5.445796e-02 5.162346e-02 3.489410e-01 2.692595e-02 2.729926e-02 -4.043861e-02 -2.200227e-01
<VARIANCE> 39
 2.754790e+01 4.930477e+01 4.622392e+01 6.257764e+01 6.219030e+01 6.270655e+01 7.389862e+01 6.190476e+01 7.325312e+01 4.766655e+01 2.911370e+01 2.664418e+01 4.046494e+01 3.410533e+00 3.990504e+00 4.182223e+00 5.565785e+00 3.448301e+00 6.254128e+00 5.124650e+00 3.885924e+00 5.268220e+00 2.755719e+00 3.273557e+00 2.487612e+00 3.220568e+00 5.741183e-01 7.542017e-01 6.970550e-01 9.032996e-01 5.388325e-01 1.158523e+00 9.198906e-01 6.573246e-01 1.090853e+00 5.014747e-01 6.338362e-01 4.536077e-01 4.910286e-01
<GCONST> 1.349984e+02
<STATE> 4
<MEAN> 39
 2.933490e+00 -2.003622e+00 1.879489e-01 -7.743734e+00 -6.652383e-01 -1.328578e+01 -6.876978e+00 -4.715635e-01 -2.023030e+01 -2.328615e+00 -5.919768e+00 6.106305e-02 7.090295e+01 4.867983e-02 3.591924e-01 -5.368276e-02 3.471483e-01 7.037012e-02 2.111770e-01 -3.079621e-01 1.114699e-01 5.528770e-01 7.146242e-02 7.141024e-05 7.193533e-03 -2.512275e-01 -1.105984e-01 4.992551e-02 3.678630e-02 2.552745e-02 7.728490e-03 6.670258e-02 -4.927439e-02 -4.676080e-02 1.066060e-01 -4.864935e-03 5.071097e-02 -2.742319e-02 -7.291470e-02
<VARIANCE> 39
 1.791676e+01 5.508360e+01 3.691410e+01 6.963644e+01 6.711447e+01 5.861954e+01 7.572238e+01 5.305037e+01 7.748094e+01 4.346978e+01 2.674973e+01 2.665920e+01 4.133497e+01 1.673100e+00 3.488349e+00 2.774743e+00 4.864625e+00 2.849524e+00 4.704805e+00 4.488630e+00 3.378834e+00 4.743578e+00 2.748201e+00 2.619004e+00 2.208377e+00 2.402210e+00 2.194645e-01 5.600175e-01 4.335909e-01 7.314035e-01 4.454564e-01 8.905765e-01 7.736852e-01 4.904844e-01 8.830969e-01 4.472013e-01 4.753415e-01 4.048766e-01 3.789012e-01
<GCONST> 1.276078e+02
<TRANSP> 5
 0.000000e+00 1.000000e+00 0.000000e+00 0.000000e+00 0.000000e+00
 0.000000e+00 5.554684e-01 4.445316e-01 0.000000e+00 0.000000e+00
 0.000000e+00 0.000000e+00 5.531203e-01 4.468797e-01 0.000000e+00
 0.000000e+00 0.000000e+00 0.000000e+00 6.516388e-01 3.483613e-01
 0.000000e+00 0.000000e+00 0.000000e+00 0.000000e+00 0.000000e+00
<ENDHMM>
~h "ng"
<BEGINHMM>
<NUMSTATES> 5
<STATE> 2
<MEAN> 39
 -8.340248e-02 1.011454e+00 2.892323e+00 -5.114803e+00 -9.160115e-01 -1.009743e+01 -7.237446e+00 -2.621851e+00 -1.758183e+01 -1.004173e+00 -5.893734e+00 -1.134024e+00 6.742213e+01 -4.335991e-01 -1.344326e-01 7.117807e-01 1.815521e-01 -5.279654e-02 8.389580e-01 2.138203e-01 -4.483144e-01 1.962590e-01 2.397448e-01 1.364152e-01 -2.265423e-01 -9.848724e-02 -1.295810e-01 -2.267540e-01 1.318403e-01 -2.095502e-01 7.893594e-03 1.743661e-02 1.435538e-02 -5.973116e-02 7.784721e-02 -7.660470e-02 3.802897e-02 -1.723097e-02 1.423384e-01
<VARIANCE> 39
 2.703330e+01 6.703227e+01 4.337603e+01 7.521957e+01 6.439558e+01 8.894576e+01 6.620788e+01 4.620156e+01 9.165182e+01 4.846678e+01 4.244835e+01 3.216015e+01 5.259684e+01 2.481803e+00 7.476383e+00 3.929378e+00 7.498731e+00 3.283528e+00 8.913944e+00 5.374946e+00 3.412932e+00 6.874686e+00 3.686713e+00 3.438128e+00 2.468661e+00 5.585773e+00 4.348260e-01 1.545846e+00 7.834867e-01 1.335539e+00 6.140152e-01 1.727389e+00 1.044224e+00 7.145606e-01 1.205865e+00 8.938171e-01 6.534483e-01 4.560506e-01 1.037870e+00
<GCONST> 1.415261e+02
<STATE> 3
<MEAN> 39
 -3.524739e+00 -2.248285e+00 7.932288e+00 -5.814976e+00 4.927173e-01 -8.596318e+00 -8.016032e+00 -5.409536e+00 -1.523491e+01 6.277034e-01 -5.209838e+00 -1.319747e+00 6.896724e+01 -1.587665e-01 -7.994255e-01 3.748323e-01 -4.836810e-01 1.507665e-01 -4.007543e-01 -3.555457e-02 -4.632564e-01 -1.596087e-01 1.813253e-01 1.283227e-01 -1.285476e-01 6.483533e-01 1.635581e-01 2.041747e-03 -2.015177e-01 6.720629e-04 1.055215e-02 -1.744912e-01 -5.799579e-02 2.824034e-03 -6.500109e-02 2.956005e-02 4.237968e-02 2.929699e-02 5.060945e-02
<VARIANCE> 39
 5.571244e+01 8.222292e+01 1.084473e+02 7.208965e+01 4.761124e+01 8.891640e+01 5.824348e+01 4.307094e+01 7.642883e+01 3.641763e+01 3.640033e+01 2.868297e+01 5.468093e+01 6.870465e+00 1.053864e+01 1.059333e+01 8.918137e+00 3.123242e+00 1.011409e+01 5.689487e+00 4.275466e+00 7.539385e+00 3.894434e+00 3.424260e+00 2.398496e+00 6.904725e+00 1.387666e+00 2.063545e+00 2.077944e+00 1.725622e+00 5.791876e-01 1.654170e+00 1.172811e+00 7.475658e-01 1.371176e+00 7.562563e-01 6.647005e-01 4.805532e-01 1.156645e+00
<GCONST> 1.482208e+02
<STATE> 4
<MEAN> 39
 -6.274174e-01 -2.850844e+00 4.079988e+00 -6.020816e+00 -3.128722e+00 -1.015500e+01 -6.624822e+00 -5.929464e+00 -1.804709e+01 3.536676e-01 -3.762681e+00 -2.056127e+00 6.933041e+01 8.341904e-02 -1.795969e-01 -1.194497e-01 1.531000e-02 8.199947e-02 -1.002164e-01 -1.497190e-01 -1.474513e-01 1.198442e-01 1.966852e-01 1.514449e-01 3.883328e-02 1.311439e-01 -2.059170e-03 6.182196e-02 -2.877193e-02 1.717436e-02 -2.576492e-02 2.844038e-02 6.413295e-03 7.817700e-02 6.695881e-02 -2.086545e-02 5.061507e-03 -2.125182e-03 -4.151434e-02
<VARIANCE> 39
 3.276510e+01 8.834757e+01 5.522605e+01 6.640455e+01 5.899696e+01 9.142054e+01 6.070825e+01 6.148037e+01 8.170930e+01 4.099172e+01 2.994770e+01 2.945072e+01 5.920240e+01 4.039083e+00 9.564632e+00 5.710204e+00 7.407566e+00 3.462247e+00 1.038465e+01 5.769924e+00 4.888286e+00 7.656926e+00 3.726823e+00 3.267096e+00 2.356407e+00 5.728599e+00 7.081341e-01 1.731891e+00 1.088418e+00 1.403383e+00 5.587248e-01 1.882372e+00 1.128823e+00 8.871732e-01 1.378140e+00 6.574912e-01 5.886991e-01 4.663287e-01 8.685581e-01
<GCONST> 1.442581e+02
<TRANSP> 5
 0.000000e+00 1.000000e+00 0.000000e+00 0.000000e+00 0.000000e+00
 0.000000e+00 6.630090e-01 3.369910e-01 0.000000e+00 0.000000e+00
 0.000000e+00 0.000000e+00 8.059098e-01 1.940902e-01 0.000000e+00
 0.000000e+00 0.000000e+00 0.000000e+00 9.127276e-01 8.727238e-02
 0.000000e+00 0.000000e+00 0.000000e+00 0.000000e+00 0.000000e+00
<ENDHMM>
~h "wa"
<BEGINHMM>
<NUMSTATES> 5
<STATE> 2
<MEAN> 39
 4.333028e+00 5.984241e+00 4.097303e-01 -1.036731e+01 -2.606810e+00 -1.292048e+01 -9.665547e+00 3.337839e+00 -1.718809e+01 -4.012734e+00 -1.042978e+01 -4.814604e+00 6.773606e+01 5.250021e-01 -1.698691e-03 -4.334838e-01 -9.195274e-01 1.693313e-01 -3.263622e-01 3.619897e-01 5.219371e-01 -6.119230e-01 -4.834528e-01 -1.479461e-01 9.176472e-02 5.409988e-01 -1.724177e-01 -1.718912e-01 2.747907e-02 5.957538e-02 9.008906e-02 1.791938e-01 7.408630e-02 6.543018e-02 -1.524776e-02 -1.419879e-02 1.364775e-01 6.897715e-02 -5.267050e-02
<VARIANCE> 39
 7.122181e+00 8.348371e+01 3.408588e+01 7.408418e+01 7.642804e+01 1.262255e+02 6.057566e+01 8.836047e+01 3.855715e+01 5.397804e+01 5.524333e+01 3.442485e+01 3.779399e+01 1.293250e+00 6.659188e+00 2.622066e+00 5.432202e+00 4.843852e+00 1.194171e+01 5.059929e+00 6.813301e+00 3.745871e+00 4.862123e+00 4.934881e+00 2.627914e+00 2.179488e+00 2.000462e-01 1.031013e+00 4.469802e-01 8.517348e-01 8.741537e-01 1.947111e+00 1.092525e+00 1.205916e+00 6.363648e-01 9.146926e-01 8.105853e-01 4.442636e-01 2.712340e-01
<GCONST> 1.365294e+02
<STATE> 3
<MEAN> 39
 5.477333e+00 5.003249e+00 -2.390872e+00 -9.995293e+00 1.814578e-01 -7.893791e+00 -1.196850e+01 2.659466e+00 -1.942419e+01 -8.182697e+00 -1.041518e+01 -3.859223e+00 6.777876e+01 1.061899e-01 -4.044412e-01 -9.410620e-02 -4.376352e-01 2.525783e-01 -2.494882e-01 7.173457e-02 5.302335e-01 -6.783203e-01 -5.106353e-01 -2.349289e-02 -1.305473e-01 3.832672e-01 -8.275282e-02 4.138428e-02 1.258121e-01 1.161343e-01 -1.517770e-01 -1.604267e-01 7.178602e-02 1.605075e-02 3.531365e-02 1.045016e-01 2.769649e-02 -5.672958e-02 -7.077093e-02
<VARIANCE> 39
 7.302474e+00 4.687714e+01 4.260021e+01 6.513966e+01 7.675950e+01 1.818399e+02 9.083115e+01 1.161133e+02 5.553621e+01 4.626553e+01 5.746940e+01 3.900175e+01 2.433060e+01 5.008215e-01 3.747426e+00 2.695046e+00 5.368384e+00 4.770932e+00 1.673708e+01 7.802684e+00 1.084240e+01 6.285834e+00 5.030022e+00 6.446518e+00 3.218506e+00 2.000813e+00 1.147733e-01 7.522795e-01 4.253330e-01 8.521223e-01 8.354694e-01 2.576157e+00 1.618780e+00 1.551933e+00 1.038382e+00 1.020758e+00 1.164534e+00 5.041229e-01 3.134271e-01
<GCONST> 1.388949e+02
<STATE> 4
<MEAN> 39
 3.897887e+00 1.857022e+00 1.742601e+00 -7.951157e+00 -9.546611e+00 -1.452001e+01 -5.298454e+00 7.010412e+00 -2.247917e+01 -6.956583e+00 -9.937271e+00 -6.655273e+00 6.825163e+01 -1.161638e-01 -1.675963e-01 -6.075414e-02 7.654726e-02 -1.119639e-01 -4.029865e-03 2.061518e-01 -1.139171e-01 5.855736e-02 1.734521e-01 1.288088e-01 1.469005e-01 -4.239366e-02 -2.123980e-02 3.168918e-03 -1.819035e-02 4.370957e-02 4.129014e-02 6.293298e-02 -4.198109e-02 -6.084047e-02 6.036348e-02 2.642939e-02 2.214891e-02 4.131167e-02 -3.316488e-02
<VARIANCE> 39
 1.574368e+01 5.272421e+01 5.360373e+01 4.367439e+01 9.345970e+01 1.030394e+02 7.860778e+01 9.804071e+01 6.783981e+01 5.805833e+01 4.929293e+01 5.119950e+01 3.291946e+01 8.382742e-01 3.562280e+00 3.010005e+00 2.842528e+00 4.191361e+00 7.340820e+00 4.619126e+00 5.174006e+00 5.056663e+00 3.356816e+00 3.577355e+00 2.918693e+00 1.697334e+00 1.299131e-01 5.199620e-01 4.064177e-01 4.738500e-01 6.108611e-01 1.023581e+00 8.177502e-01 8.104295e-01 8.599016e-01 5.516251e-01 5.841860e-01 4.637607e-01 2.020074e-01
<GCONST> 1.305589e+02
<TRANSP> 5
 0.000000e+00 1.000000e+00 0.000000e+00 0.000000e+00 0.000000e+00
 0.000000e+00 8.497750e-01 1.502251e-01 0.000000e+00 0.000000e+00
 0.000000e+00 0.000000e+00 8.305140e-01 1.694860e-01 0.000000e+00
 0.000000e+00 0.000000e+00 0.000000e+00 9.626250e-01 3.737502e-02
 0.000000e+00 0.000000e+00 0.000000e+00 0.000000e+00 0.000000e+00
<ENDHMM>
~h "sil"
<BEGINHMM>
<NUMSTATES> 5
<STATE> 2
<MEAN> 39
 -1.284658e+01 4.580204e+00 -2.408217e+00 4.520527e+00 -6.548667e+00 2.216402e+00 -8.521527e+00 1.096757e+00 -5.025732e+00 1.224787e+00 -5.249516e-01 8.316939e-01 4.891772e+01 -5.945951e-02 3.341712e-02 3.806592e-03 4.108680e-02 -3.041880e-02 2.519910e-02 -8.608450e-03 1.226835e-02 1.497846e-02 -1.397148e-03 1.565381e-04 1.617770e-03 -8.827117e-02 9.060476e-03 -4.270274e-03 5.225135e-03 -1.583850e-03 3.276747e-03 -1.019264e-02 -8.398737e-03 -9.409235e-04 -7.269849e-03 -1.802412e-03 -6.719845e-03 -7.098547e-03 1.169327e-02
<VARIANCE> 39
 6.184657e+00 9.098871e+00 7.931036e+00 1.149520e+01 1.644753e+01 1.592222e+01 2.205812e+01 1.383609e+01 1.240333e+01 1.133391e+01 1.201851e+01 1.014363e+01 1.349895e+01 1.252456e-01 3.907936e-01 4.513590e-01 5.517294e-01 7.824051e-01 8.851837e-01 1.041176e+00 9.476120e-01 8.985323e-01 9.255198e-01 9.923592e-01 8.307622e-01 9.478632e-02 1.995446e-02 8.043436e-02 9.015102e-02 1.038936e-01 1.602599e-01 1.771060e-01 2.095000e-01 1.970077e-01 1.803929e-01 1.877017e-01 2.051223e-01 1.684000e-01 1.574071e-02
<GCONST> 6.758167e+01
<STATE> 3
<MEAN> 39
 -1.328746e+01 3.996325e+00 -2.641546e+00 3.550011e+00 -6.539753e+00 2.314179e+00 -9.525657e+00 5.450739e-01 -7.231134e+00 7.817128e-01 -1.476970e-01 1.116731e+00 4.879811e+01 1.488401e-02 -1.264015e-01 1.300416e-01 -7.422949e-02 2.580856e-02 1.700123e-02 -1.242210e-01 -1.097745e-01 -2.083811e-01 -4.109635e-02 -1.553763e-01 -7.586036e-02 1.146638e-01 1.927636e-02 -5.748480e-02 1.560798e-01 -4.584415e-02 7.864809e-02 3.851283e-02 -6.211983e-02 -1.040563e-01 -6.096506e-02 1.397275e-02 -7.490123e-02 -5.548292e-02 1.139294e-01
<VARIANCE> 39
 1.032075e+01 2.321765e+01 2.125935e+01 2.192424e+01 2.160163e+01 2.186621e+01 2.464417e+01 2.487248e+01 2.414263e+01 1.147402e+01 1.459870e+01 1.471004e+01 1.824595e+01 5.381707e-01 2.063320e+00 1.463445e+00 1.922899e+00 2.336712e+00 1.411063e+00 1.666125e+00 1.706671e+00 2.255407e+00 1.260431e+00 1.341896e+00 1.758361e+00 6.123298e-01 1.373754e-01 4.523683e-01 3.491091e-01 4.310922e-01 5.367517e-01 3.044634e-01 3.773907e-01 3.549118e-01 4.533979e-01 2.407869e-01 2.749223e-01 3.430701e-01 1.554746e-01
<GCONST> 9.963334e+01
<STATE> 4
<MEAN> 39
 -5.914350e+00 1.707095e+00 1.866403e+00 -4.439421e-01 -7.366368e+00 -5.916663e+00 -6.234135e+00 -4.371003e-02 -1.279603e+01 -7.112850e-01 -5.388485e+00 -2.703006e+00 5.930147e+01 1.924567e-02 -4.255293e-03 6.936651e-03 -2.125831e-02 -3.304996e-03 -2.310339e-02 -5.073760e-02 -2.639128e-02 -2.926646e-02 -1.407034e-02 -4.871166e-03 7.979774e-03 1.976940e-02 1.427089e-03 -1.105714e-02 1.604230e-02 -1.542571e-02 2.267539e-03 6.368987e-03 4.964710e-04 -7.968074e-03 -2.757757e-03 6.090876e-03 -3.515435e-03 -3.899939e-03 1.571055e-02
<VARIANCE> 39
 6.989292e+01 7.855450e+01 6.939230e+01 6.047630e+01 6.822250e+01 1.275458e+02 7.219442e+01 4.140704e+01 8.095412e+01 2.739250e+01 5.240232e+01 4.591956e+01 1.099435e+02 1.799604e+00 3.965119e+00 2.483554e+00 2.729716e+00 2.410797e+00 4.455995e+00 3.272844e+00 2.945784e+00 3.467197e+00 1.879265e+00 2.400998e+00 1.831576e+00 2.140527e+00 2.566281e-01 6.571023e-01 4.134559e-01 5.057156e-01 3.603411e-01 6.700038e-01 5.845798e-01 5.264196e-01 5.480016e-01 3.480671e-01 4.134319e-01 3.182558e-01 2.613193e-01
<GCONST> 1.275578e+02
<TRANSP> 5
 0.000000e+00 1.000000e+00 0.000000e+00 0.000000e+00 0.000000e+00
 0.000000e+00 9.806697e-01 1.933031e-02 0.000000e+00 0.000000e+00
 0.000000e+00 0.000000e+00 5.901631e-01 4.098369e-01 0.000000e+00
 0.000000e+00 0.000000e+00 0.000000e+00 9.167018e-01 8.329822e-02
 0.000000e+00 0.000000e+00 0.000000e+00 0.000000e+00 0.000000e+00
<ENDHMM>
