~o
<STREAMINFO> 1 39
<VECSIZE> 39<NULLD><MFCC_D_A_0><DIAGC>
~h "a"
<BEGINHMM>
<NUMSTATES> 5
<STATE> 2
<MEAN> 39
 1.929480e+00 -4.425802e+00 -2.067314e+00 -1.141680e+01 -2.946423e+00 -8.939596e+00 -9.148000e+00 -1.959754e+00 -1.227983e+01 -6.204068e-01 -2.108248e+00 4.627067e-01 7.116389e+01 3.538489e-01 9.607619e-02 -2.344226e-01 -3.682673e-02 -1.473319e-01 1.798919e-01 3.671506e-02 2.283046e-01 -4.622946e-02 -6.609108e-02 -1.287967e-03 1.795053e-02 5.575097e-02 -1.364662e-01 1.262693e-01 1.621945e-01 1.359200e-01 8.565444e-03 1.018765e-01 -4.477132e-02 -1.452862e-02 6.269192e-02 -4.422974e-02 -9.480476e-02 -3.107229e-02 -1.514529e-01
<VARIANCE> 39
 3.988584e+01 5.937310e+01 5.518319e+01 8.542345e+01 8.437461e+01 1.157146e+02 1.051707e+02 6.503239e+01 7.298648e+01 6.747858e+01 5.090028e+01 3.383020e+01 6.332959e+01 2.788343e+00 4.197492e+00 3.726496e+00 5.341498e+00 2.909595e+00 4.473712e+00 4.455903e+00 4.007230e+00 3.365786e+00 3.630197e+00 2.952020e+00 2.417865e+00 3.661142e+00 4.421152e-01 5.817318e-01 4.988663e-01 9.339958e-01 5.091594e-01 6.934353e-01 7.838242e-01 6.744479e-01 6.166501e-01 6.362831e-01 5.237705e-01 4.374778e-01 4.189478e-01
<GCONST> 1.356103e+02
<STATE> 3
<MEAN> 39
 2.591619e+00 -3.851852e+00 -2.570907e+00 -1.128821e+01 -3.158268e+00 -8.253240e+00 -9.381158e+00 -1.447847e+00 -1.199172e+01 -8.434459e-01 -2.147189e+00 3.813884e-01 7.095846e+01 5.356419e-03 4.456224e-01 2.020206e-02 3.050039e-01 -9.377117e-02 4.407488e-01 -4.639860e-02 1.395079e-01 1.171283e-01 -9.547811e-02 -1.583186e-01 -1.440640e-02 -3.983981e-01 -1.927487e-01 6.810432e-02 1.497265e-01 8.413075e-02 4.720051e-02 7.966775e-02 6.634598e-03 -4.823617e-02 7.511596e-02 -2.517625e-03 -6.781340e-02 -5.747867e-03 -1.277659e-01
<VARIANCE> 39
 3.722073e+01 6.116525e+01 5.968602e+01 7.763401e+01 8.619453e+01 1.141000e+02 1.062179e+02 6.309478e+01 7.556967e+01 6.321550e+01 5.374985e+01 3.471169e+01 5.410717e+01 2.788711e+00 3.585985e+00 3.632309e+00 4.618248e+00 3.126546e+00 4.481295e+00 4.586545e+00 3.957109e+00 3.176596e+00 3.667745e+00 3.005271e+00 2.328827e+00 3.034536e+00 3.737124e-01 5.156226e-01 4.727822e-01 7.583127e-01 4.861334e-01 6.572642e-01 7.788345e-01 6.319134e-01 6.164054e-01 6.063003e-01 5.128356e-01 4.329575e-01 3.144387e-01
<GCONST> 1.338503e+02
<STATE> 4
<MEAN> 39
 2.271770e+00 -2.338539e+00 -3.186737e+00 -9.138835e+00 -4.187127e+00 -6.855940e+00 -7.850594e+00 -1.103796e+00 -1.238973e+01 -7.597296e-01 -2.559237e+00 2.843380e-01 6.884634e+01 -4.155500e-01 5.947109e-01 3.376714e-01 4.798217e-01 6.892700e-02 5.286505e-01 -1.387531e-01 4.118428e-02 2.372093e-01 -1.058585e-01 -2.551542e-01 -2.044652e-02 -6.839978e-01 -1.375518e-01 -1.339719e-02 1.061165e-01 3.088899e-03 5.553155e-02 -1.818936e-02 1.569111e-02 -2.935104e-02 3.815013e-02 -2.245807e-02 -2.589626e-02 -1.967062e-02 -1.187249e-02
<VARIANCE> 39
 3.693756e+01 6.917214e+01 5.408789e+01 7.992458e+01 7.806429e+01 1.045766e+02 1.032281e+02 5.807363e+01 7.064578e+01 5.085971e+01 5.270791e+01 3.363241e+01 6.439463e+01 2.112551e+00 2.684833e+00 2.618602e+00 3.330634e+00 2.482887e+00 3.425268e+00 3.421170e+00 3.108378e+00 3.010859e+00 2.797303e+00 2.396235e+00 2.148992e+00 1.788842e+00 2.398704e-01 4.165043e-01 3.583423e-01 6.006860e-01 3.766824e-01 5.436036e-01 5.718951e-01 4.925135e-01 5.084395e-01 4.586447e-01 4.157223e-01 3.780058e-01 2.472214e-01
<GCONST> 1.267939e+02
<TRANSP> 5
 0.000000e+00 1.000000e+00 0.000000e+00 0.000000e+00 0.000000e+00
 0.000000e+00 4.819643e-01 5.180358e-01 0.000000e+00 0.000000e+00
 0.000000e+00 0.000000e+00 4.666273e-01 5.333727e-01 0.000000e+00
 0.000000e+00 0.000000e+00 0.000000e+00 6.097143e-01 3.902857e-01
 0.000000e+00 0.000000e+00 0.000000e+00 0.000000e+00 0.000000e+00
<ENDHMM>
~h "b"
<BEGINHMM>
<NUMSTATES> 5
<STATE> 2
<MEAN> 39
 -2.664902e+00 -2.093322e+00 3.358311e+00 -1.188436e+01 1.976221e+00 -6.516933e+00 -1.082527e+01 -2.530187e+00 -1.150070e+01 -2.605862e+00 -4.469979e+00 1.431703e+00 6.969540e+01 1.575592e-02 -1.125339e-01 -5.314282e-02 -2.296715e-01 3.147352e-02 -9.205458e-02 3.668753e-01 -1.051753e-01 -3.106668e-02 -4.331604e-02 1.965528e-01 -6.447359e-03 3.056403e-01 8.566417e-02 5.739070e-02 -5.511297e-02 4.973238e-02 -9.028739e-02 -5.615707e-02 -6.034435e-02 1.243414e-01 -1.259607e-01 -1.044990e-01 3.377437e-02 -1.005503e-01 -3.693874e-03
<VARIANCE> 39
 1.145584e+02 7.939594e+01 9.896061e+01 1.305930e+02 8.687497e+01 8.621449e+01 1.226526e+02 6.471655e+01 8.534975e+01 5.054071e+01 4.108395e+01 3.780724e+01 7.041364e+01 5.050997e+00 2.564536e+00 4.876156e+00 4.440716e+00 3.522618e+00 3.964539e+00 4.711930e+00 3.342917e+00 5.999091e+00 3.059992e+00 2.516402e+00 2.483799e+00 2.338421e+00 6.147474e-01 4.997162e-01 7.540274e-01 7.978843e-01 5.834687e-01 6.740250e-01 9.154840e-01 5.585002e-01 7.864928e-01 5.475881e-01 4.700018e-01 4.647138e-01 3.672847e-01
<GCONST> 1.380966e+02
<STATE> 3
<MEAN> 39
 -2.081925e+00 -2.251838e+00 2.865939e+00 -1.245327e+01 1.817302e+00 -7.354118e+00 -1.023132e+01 -2.423091e+00 -1.210223e+01 -2.639881e+00 -4.141290e+00 1.273727e+00 7.060931e+01 3.757799e-01 -1.724260e-03 -2.233787e-01 -4.572096e-02 -2.645554e-01 -1.761384e-01 2.455785e-01 1.315699e-01 -3.659004e-01 -8.809135e-02 1.985628e-01 -4.566604e-02 2.098480e-01 5.230613e-02 2.954902e-02 1.656982e-02 3.354518e-02 -7.747787e-02 -1.918375e-02 -7.410600e-02 7.491796e-02 -8.613967e-02 -5.564446e-02 -1.294823e-02 -2.183996e-02 -3.891244e-02
<VARIANCE> 39
 1.131101e+02 6.959867e+01 8.869088e+01 1.295565e+02 7.921387e+01 8.960518e+01 1.175371e+02 6.450049e+01 9.037291e+01 5.016515e+01 4.423326e+01 3.811588e+01 6.246766e+01 4.914011e+00 2.874503e+00 4.084865e+00 3.675419e+00 3.189671e+00 3.290375e+00 4.726653e+00 2.886615e+00 5.388705e+00 3.069945e+00 2.394417e+00 2.183848e+00 2.290923e+00 5.932779e-01 5.194488e-01 5.671893e-01 6.815325e-01 5.285895e-01 6.344559e-01 8.100576e-01 5.175843e-01 7.248856e-01 5.114213e-01 4.707586e-01 4.008209e-01 3.342071e-01
<GCONST> 1.355476e+02
<STATE> 4
<MEAN> 39
 1.038023e+00 -2.369777e+00 1.782495e-01 -1.067719e+01 1.099149e-01 -1.069734e+01 -7.005846e+00 -1.340132e+00 -1.604624e+01 -2.299301e+00 -3.042822e+00 5.750574e-01 7.165295e+01 2.790005e-01 1.926464e-01 -4.076704e-02 1.103606e-01 -4.141982e-01 4.721225e-02 -4.833786e-03 2.942920e-01 -2.402637e-01 -1.944919e-01 4.494256e-03 6.341308e-02 -1.482180e-01 -4.515293e-02 8.370922e-02 9.398418e-02 3.764378e-02 -1.100262e-02 8.525383e-02 -1.114085e-01 6.209633e-03 5.176476e-02 -5.235216e-02 -5.841725e-02 -8.905564e-03 -8.944387e-02
<VARIANCE> 39
 7.095342e+01 5.895364e+01 8.000615e+01 1.055119e+02 7.217718e+01 1.202302e+02 1.290920e+02 6.018093e+01 1.071918e+02 5.129593e+01 4.649113e+01 4.439222e+01 5.705919e+01 1.893066e+00 2.736642e+00 2.710886e+00 3.567411e+00 2.586530e+00 3.538165e+00 3.886291e+00 2.786343e+00 3.958467e+00 2.730261e+00 2.365135e+00 1.887814e+00 2.252654e+00 2.839288e-01 4.493430e-01 4.312991e-01 5.767006e-01 4.229426e-01 6.833211e-01 6.240200e-01 4.827668e-01 6.914420e-01 4.444334e-01 4.159657e-01 3.370244e-01 2.962392e-01
<GCONST> 1.303180e+02
<TRANSP> 5
 0.000000e+00 1.000000e+00 0.000000e+00 0.000000e+00 0.000000e+00
 0.000000e+00 4.830324e-01 5.169677e-01 0.000000e+00 0.000000e+00
 0.000000e+00 0.000000e+00 5.016062e-01 4.983938e-01 0.000000e+00
 0.000000e+00 0.000000e+00 0.000000e+00 6.476436e-01 3.523564e-01
 0.000000e+00 0.000000e+00 0.000000e+00 0.000000e+00 0.000000e+00
<ENDHMM>
~h "c"
<BEGINHMM>
<NUMSTATES> 5
<STATE> 2
<MEAN> 39
 2.526236e+00 -6.470705e+00 -5.141241e+00 -8.404871e+00 -4.214928e-01 -1.091610e+01 -1.077453e+01 -5.401401e+00 -9.209401e+00 5.324564e+00 -5.019913e+00 1.197692e+00 7.116912e+01 1.388161e-01 -5.929201e-01 -3.167892e-02 -1.687703e-01 2.988124e-01 -4.202862e-01 9.185430e-02 2.234874e-01 5.884360e-01 7.146326e-02 -4.106670e-02 3.934988e-01 5.508615e-01 -4.377463e-02 1.184352e-01 1.285855e-01 5.360110e-02 -4.877512e-02 -2.613151e-03 1.560840e-02 1.463542e-01 -9.454857e-02 -1.271641e-01 -2.161011e-02 -5.322833e-02 -7.162752e-02
<VARIANCE> 39
 1.561726e+01 4.801869e+01 3.650453e+01 4.744384e+01 1.069675e+02 1.296972e+02 7.091028e+01 4.083808e+01 1.217929e+02 6.048907e+01 3.418153e+01 6.170623e+01 5.041826e+01 1.309373e+00 5.478717e+00 2.050168e+00 4.168613e+00 3.128320e+00 6.124359e+00 3.593710e+00 2.578551e+00 6.087348e+00 5.459100e+00 3.360067e+00 4.844932e+00 4.390153e+00 2.262315e-01 8.223485e-01 3.552871e-01 6.914595e-01 4.596604e-01 1.057294e+00 4.958812e-01 4.703958e-01 1.036816e+00 7.733753e-01 5.447994e-01 8.820952e-01 6.370607e-01
<GCONST> 1.341427e+02
<STATE> 3
<MEAN> 39
 2.612020e+00 -6.042960e+00 -4.057273e+00 -7.395069e+00 6.018244e-01 -1.042438e+01 -1.208187e+01 -3.331854e+00 -8.924032e+00 3.591239e+00 -4.915052e+00 1.245473e+00 7.093423e+01 1.253652e-01 1.962276e-02 3.344148e-01 1.136824e-01 6.445999e-02 -6.280889e-02 -4.080444e-01 2.368763e-01 -7.450558e-02 -2.930709e-01 6.925397e-02 -3.300562e-01 1.304191e-01 -3.703628e-02 1.767983e-01 2.946548e-02 5.339121e-03 -1.134254e-01 8.610748e-02 2.080462e-02 7.784181e-02 -1.391084e-01 -7.119717e-02 2.651509e-02 -8.931666e-02 -1.401500e-01
<VARIANCE> 39
 2.056883e+01 4.988873e+01 2.337184e+01 5.652246e+01 1.206470e+02 1.127797e+02 1.080335e+02 2.859696e+01 1.071627e+02 4.856317e+01 4.803218e+01 5.003426e+01 5.542936e+01 1.102140e+00 4.979299e+00 1.720761e+00 3.397507e+00 2.613712e+00 5.461998e+00 3.691505e+00 2.415115e+00 3.749193e+00 4.113428e+00 4.073898e+00 3.230700e+00 4.135994e+00 1.696956e-01 7.422597e-01 3.022917e-01 6.249649e-01 3.752288e-01 7.851899e-01 5.262492e-01 4.180552e-01 6.228929e-01 6.427894e-01 6.615312e-01 6.065411e-01 5.743301e-01
<GCONST> 1.298980e+02
<STATE> 4
<MEAN> 39
 1.067269e+00 -5.560303e+00 -2.576741e+00 -1.046316e+00 -2.413435e+00 -9.676350e+00 -1.084932e+01 -5.396350e+00 -1.392266e+01 2.457364e+00 -2.722004e+00 -1.900688e+00 6.787943e+01 1.692773e-01 -1.705075e-01 2.842827e-01 -3.645511e-03 9.118776e-02 -2.992519e-02 9.123919e-02 1.612942e-01 -3.451943e-01 -6.844817e-02 1.029120e-01 -4.045819e-01 3.170422e-01 1.286964e-04 8.508652e-02 -2.136419e-02 -4.940078e-02 -2.479089e-03 8.411143e-02 5.445124e-02 3.366726e-02 3.106787e-02 -3.366883e-02 -3.496161e-02 3.631597e-02 -3.620499e-02
<VARIANCE> 39
 3.244172e+01 5.048370e+01 2.026436e+01 7.812907e+01 6.609174e+01 7.907243e+01 8.679959e+01 4.125454e+01 9.107524e+01 4.552176e+01 4.124059e+01 3.893881e+01 6.181565e+01 1.550462e+00 5.514680e+00 1.956691e+00 3.449073e+00 2.315335e+00 5.020874e+00 4.751003e+00 3.016541e+00 2.667816e+00 3.565842e+00 3.518598e+00 2.969117e+00 4.439340e+00 2.557576e-01 7.448007e-01 3.765519e-01 4.404160e-01 3.960248e-01 8.130429e-01 7.054011e-01 5.251524e-01 5.699899e-01 5.895755e-01 6.378483e-01 5.195823e-01 6.234159e-01
<GCONST> 1.300376e+02
<TRANSP> 5
 0.000000e+00 1.000000e+00 0.000000e+00 0.000000e+00 0.000000e+00
 0.000000e+00 8.007828e-01 1.992172e-01 0.000000e+00 0.000000e+00
 0.000000e+00 0.000000e+00 6.598546e-01 3.401454e-01 0.000000e+00
 0.000000e+00 0.000000e+00 0.000000e+00 8.106768e-01 1.893232e-01
 0.000000e+00 0.000000e+00 0.000000e+00 0.000000e+00 0.000000e+00
<ENDHMM>
~h "d"
<BEGINHMM>
<NUMSTATES> 5
<STATE> 2
<MEAN> 39
 4.789355e-01 1.873860e+00 7.630160e+00 -6.606523e+00 -4.128387e-01 -7.629905e+00 -1.510761e+01 4.014205e-01 -1.435100e+01 -4.536391e+00 -8.011522e+00 -3.925763e+00 6.835535e+01 1.325712e-01 -2.590902e-01 7.350232e-02 -6.435274e-01 1.805629e-01 4.924417e-02 -3.334853e-01 3.579698e-01 -3.988704e-01 -7.159102e-01 -1.056528e-01 -3.871982e-01 3.630952e-01 1.151532e-01 1.121954e-01 -1.118454e-01 6.856447e-02 -4.234264e-02 -1.497340e-01 -5.109491e-02 5.672465e-02 -9.930588e-02 6.007436e-02 4.991848e-02 -7.047638e-02 -3.213462e-02
<VARIANCE> 39
 1.980528e+01 9.858391e+01 5.460648e+01 1.192220e+02 4.955419e+01 1.384241e+02 1.079294e+02 6.855241e+01 6.247956e+01 4.642646e+01 5.811168e+01 4.016205e+01 4.660559e+01 2.117957e+00 1.059802e+01 3.664303e+00 9.686522e+00 3.744826e+00 1.033552e+01 7.503118e+00 5.193503e+00 5.245404e+00 4.010221e+00 4.382341e+00 3.389712e+00 4.780285e+00 4.159078e-01 1.743051e+00 7.098910e-01 1.503461e+00 6.478324e-01 1.795512e+00 1.403702e+00 9.826375e-01 1.009927e+00 7.570310e-01 8.067092e-01 6.486923e-01 6.890846e-01
<GCONST> 1.455834e+02
<STATE> 3
<MEAN> 39
 2.128854e+00 1.829316e+00 6.094733e+00 -8.427164e+00 -6.549048e-02 -8.844979e+00 -1.615827e+01 2.453845e+00 -1.614837e+01 -6.933715e+00 -7.354261e+00 -4.454021e+00 6.937307e+01 3.303273e-01 2.877740e-02 -2.446678e-01 -2.314422e-01 -5.427392e-02 -3.681080e-01 -1.647910e-01 5.023259e-01 -5.012255e-01 -2.695751e-01 5.129258e-02 -2.720957e-01 1.322659e-01 -4.341014e-03 8.081175e-02 -4.188797e-02 6.718331e-02 -6.239067e-02 -7.052800e-02 1.110501e-01 -1.655307e-02 3.086985e-02 1.532110e-01 2.478060e-02 4.786412e-02 -5.978977e-02
<VARIANCE> 39
 1.534725e+01 8.700712e+01 5.212544e+01 1.038694e+02 5.426265e+01 9.775751e+01 9.890233e+01 8.523342e+01 4.964495e+01 5.814336e+01 6.952101e+01 3.635234e+01 3.590584e+01 1.442045e+00 7.314932e+00 3.719168e+00 7.888201e+00 3.672788e+00 9.496740e+00 8.292426e+00 5.289229e+00 4.815378e+00 4.836014e+00 4.397038e+00 3.423939e+00 3.528130e+00 2.804421e-01 1.269195e+00 7.064120e-01 1.250327e+00 6.275902e-01 1.747707e+00 1.565954e+00 9.041950e-01 8.849028e-01 8.528718e-01 8.106840e-01 5.626838e-01 5.123535e-01
<GCONST> 1.422065e+02
<STATE> 4
<MEAN> 39
 3.843937e+00 2.816932e+00 3.050929e+00 -1.165168e+01 -8.733895e-01 -1.037735e+01 -1.504724e+01 5.510296e+00 -1.879267e+01 -7.609106e+00 -8.382355e+00 -3.719276e+00 6.943068e+01 -8.827685e-03 1.055710e-01 -1.764073e-01 6.200438e-02 -1.670438e-01 1.086759e-01 2.751871e-01 3.058506e-02 7.892810e-02 1.782480e-01 1.233758e-01 9.741049e-02 -1.577635e-01 -6.650087e-02 -1.653660e-02 1.170155e-02 4.399941e-02 -1.121355e-02 5.092826e-02 4.991822e-02 -7.734337e-02 8.258510e-02 7.483268e-02 1.588954e-02 3.950728e-02 -4.031694e-02
<VARIANCE> 39
 9.673744e+00 6.252186e+01 4.467229e+01 9.878922e+01 8.469020e+01 8.287349e+01 1.199066e+02 7.876688e+01 5.646034e+01 6.184175e+01 5.772786e+01 3.926199e+01 3.193350e+01 7.567437e-01 4.306798e+00 2.682332e+00 5.504557e+00 3.456160e+00 5.854657e+00 5.208966e+00 3.900634e+00 3.582522e+00 4.613268e+00 3.508680e+00 2.464413e+00 2.328480e+00 1.081920e-01 6.195490e-01 4.398119e-01 8.239219e-01 6.118136e-01 9.455383e-01 9.212906e-01 5.817149e-01 5.887430e-01 7.374597e-01 6.351160e-01 4.277267e-01 2.839742e-01
<GCONST> 1.312466e+02
<TRANSP> 5
 0.000000e+00 1.000000e+00 0.000000e+00 0.000000e+00 0.000000e+00
 0.000000e+00 7.719551e-01 2.280448e-01 0.000000e+00 0.000000e+00
 0.000000e+00 0.000000e+00 7.680572e-01 2.319428e-01 0.000000e+00
 0.000000e+00 0.000000e+00 0.000000e+00 9.413997e-01 5.860033e-02
 0.000000e+00 0.000000e+00 0.000000e+00 0.000000e+00 0.000000e+00
<ENDHMM>
~h "e"
<BEGINHMM>
<NUMSTATES> 5
<STATE> 2
<MEAN> 39
 -1.534450e+00 3.362832e+00 -1.924884e+00 1.440702e-01 -4.995345e+00 -4.879640e+00 -1.265887e+01 -2.502054e+00 -7.573106e+00 1.764198e+00 -3.491021e+00 -9.470725e-01 6.024011e+01 -7.190378e-01 2.425192e-01 3.748035e-02 2.328613e-01 -3.571714e-01 3.818630e-01 4.170786e-01 2.553577e-01 6.682999e-02 4.636477e-02 -4.106953e-02 7.980873e-02 -8.308126e-01 7.849222e-02 -1.138846e-01 -1.100089e-02 -1.077339e-01 2.103362e-02 -5.041865e-02 8.079157e-03 8.363802e-03 -5.848132e-02 -8.056904e-02 -3.346037e-03 -8.982819e-03 1.566692e-01
<VARIANCE> 39
 3.547278e+01 3.093263e+01 2.492262e+01 5.113717e+01 5.487612e+01 7.070202e+01 6.581268e+01 5.816695e+01 3.867708e+01 3.678450e+01 1.988317e+01 1.587552e+01 4.771395e+01 7.873661e-01 1.061783e+00 7.880915e-01 1.108638e+00 1.474582e+00 1.482637e+00 1.887497e+00 1.419764e+00 1.347283e+00 1.469497e+00 1.336271e+00 1.370881e+00 3.035981e-01 1.060046e-01 1.380531e-01 1.370672e-01 1.659256e-01 2.326512e-01 2.539729e-01 2.676617e-01 2.464768e-01 2.785185e-01 2.423938e-01 2.291578e-01 2.293641e-01 8.749068e-02
<GCONST> 9.913946e+01
<STATE> 3
<MEAN> 39
 -4.808891e+00 3.921708e+00 -2.416393e+00 -6.787600e-02 -6.317868e+00 -1.850705e+00 -1.037166e+01 -3.053080e-01 -6.102067e+00 1.514291e+00 -2.707665e+00 -2.455137e-01 5.679290e+01 -6.956466e-01 4.564574e-02 4.911677e-02 1.817261e-01 -2.890456e-01 2.744035e-01 5.604526e-01 2.778571e-01 -8.387897e-02 -1.695282e-01 3.753918e-02 1.855745e-01 -6.278653e-01 1.169297e-01 -6.032159e-02 2.016634e-02 -5.002130e-02 1.167971e-01 -6.371172e-02 -1.140062e-01 -1.527158e-02 7.474418e-03 -4.638500e-02 -4.149658e-02 -5.346531e-02 1.559060e-01
<VARIANCE> 39
 3.745375e+01 2.151353e+01 2.110032e+01 4.878456e+01 3.763295e+01 5.148096e+01 5.420786e+01 4.388681e+01 2.204029e+01 2.291001e+01 1.813448e+01 1.325379e+01 4.027146e+01 5.448806e-01 9.593428e-01 7.956458e-01 1.031472e+00 1.310660e+00 1.361523e+00 1.715924e+00 1.573210e+00 1.332770e+00 1.257178e+00 1.180337e+00 1.411574e+00 2.547224e-01 8.877214e-02 1.267324e-01 1.426099e-01 1.696657e-01 2.143978e-01 2.672189e-01 2.712857e-01 2.623887e-01 2.383628e-01 2.244638e-01 2.246826e-01 2.273632e-01 4.486032e-02
<GCONST> 9.371886e+01
<STATE> 4
<MEAN> 39
 -9.378353e+00 5.014187e+00 -2.424409e+00 8.862588e-01 -9.013851e+00 -1.171399e+00 -9.931383e+00 5.174547e-01 -5.287684e+00 1.879885e+00 -1.346323e+00 6.867937e-01 5.192292e+01 -2.268993e-01 -2.925473e-02 3.125340e-02 1.355146e-01 2.675083e-02 1.134707e-01 4.290144e-02 1.028653e-01 2.677076e-02 -4.837186e-02 -2.272305e-02 -2.186924e-03 -2.013501e-01 6.136591e-02 -5.089880e-02 -1.604312e-02 -4.591542e-02 5.918933e-02 -2.540232e-02 -5.115875e-02 -1.737811e-02 -4.645058e-03 1.359153e-02 -2.643653e-03 -2.140955e-02 9.003480e-02
<VARIANCE> 39
 1.670154e+01 7.931865e+00 1.015489e+01 2.357098e+01 3.003859e+01 2.814277e+01 2.428954e+01 1.787684e+01 1.339252e+01 1.219004e+01 1.274695e+01 1.110869e+01 1.879897e+01 2.529452e-01 4.313990e-01 4.349267e-01 6.059552e-01 8.347642e-01 1.065577e+00 1.132384e+00 1.067552e+00 1.034063e+00 1.040557e+00 1.035539e+00 1.017523e+00 1.435124e-01 5.590192e-02 8.564337e-02 1.001189e-01 1.319038e-01 1.657672e-01 2.148801e-01 2.102737e-01 2.230473e-01 2.246818e-01 2.299705e-01 2.108870e-01 2.235680e-01 4.789405e-02
<GCONST> 7.742554e+01
<TRANSP> 5
 0.000000e+00 1.000000e+00 0.000000e+00 0.000000e+00 0.000000e+00
 0.000000e+00 5.102596e-01 4.897404e-01 0.000000e+00 0.000000e+00
 0.000000e+00 0.000000e+00 3.461450e-01 6.538550e-01 0.000000e+00
 0.000000e+00 0.000000e+00 0.000000e+00 8.117098e-01 1.882902e-01
 0.000000e+00 0.000000e+00 0.000000e+00 0.000000e+00 0.000000e+00
<ENDHMM>
~h "g"
<BEGINHMM>
<NUMSTATES> 5
<STATE> 2
<MEAN> 39
 -3.932097e+00 2.240067e-01 1.082553e+01 -2.117652e+00 1.706612e+00 -1.144427e+01 -1.639631e+01 8.871152e-01 -1.278949e+01 -1.354544e+00 -7.759759e+00 -2.339944e+00 6.637759e+01 -1.444902e-02 -4.587244e-01 5.280051e-01 -1.535564e-01 5.899118e-02 -6.136117e-01 -9.118620e-02 1.836707e-01 7.111502e-02 -1.545008e-01 -3.887174e-01 -3.346479e-01 5.520340e-01 9.115241e-02 2.139412e-02 -1.085452e-01 2.577397e-02 3.050497e-02 4.289902e-02 -3.276477e-02 -8.731475e-02 -4.540354e-03 -1.009704e-02 -6.217364e-03 2.874650e-02 1.887671e-02
<VARIANCE> 39
 3.585371e+01 9.635472e+01 8.985908e+01 1.195608e+02 9.259951e+01 1.305311e+02 9.265744e+01 6.413656e+01 6.491800e+01 4.462067e+01 4.792003e+01 3.392522e+01 6.115450e+01 2.979719e+00 9.736438e+00 6.981674e+00 9.047207e+00 5.547682e+00 9.916507e+00 7.118773e+00 5.667073e+00 5.435963e+00 3.935749e+00 4.138799e+00 2.603255e+00 6.332687e+00 4.666119e-01 1.679431e+00 1.262587e+00 1.594189e+00 9.880916e-01 1.585219e+00 1.389357e+00 1.009583e+00 8.501137e-01 7.431304e-01 7.758589e-01 4.813396e-01 1.043850e+00
<GCONST> 1.490210e+02
<STATE> 3
<MEAN> 39
 -1.621490e+00 -1.687798e-01 9.356050e+00 -3.772785e+00 9.926224e-01 -1.286498e+01 -1.587159e+01 8.749381e-01 -1.344255e+01 -1.859259e+00 -8.885734e+00 -4.161606e+00 6.858164e+01 4.569801e-01 -1.333731e-01 2.243589e-02 -1.533070e-01 -1.692902e-02 -2.343018e-01 -1.513276e-01 -6.457378e-02 -1.990463e-01 -1.171429e-01 -5.667784e-02 -1.889417e-01 4.525789e-01 1.173746e-02 2.310924e-02 -1.397095e-01 5.718420e-02 -1.404906e-02 1.165451e-01 4.401549e-02 -4.653876e-02 1.025149e-02 6.681907e-02 1.640056e-01 1.098173e-01 -8.889882e-02
<VARIANCE> 39
 3.398952e+01 9.309316e+01 7.885703e+01 1.370670e+02 1.139997e+02 1.270584e+02 1.014926e+02 8.893700e+01 6.550975e+01 4.732962e+01 5.795948e+01 3.773319e+01 4.645582e+01 2.433014e+00 7.939799e+00 5.201747e+00 8.687684e+00 4.786659e+00 9.097422e+00 7.918836e+00 7.005093e+00 5.418898e+00 3.965863e+00 4.241530e+00 3.059279e+00 4.882143e+00 4.369969e-01 1.350473e+00 9.381307e-01 1.469679e+00 8.171698e-01 1.251487e+00 1.536439e+00 1.235216e+00 8.174171e-01 7.462051e-01 7.690848e-01 5.833032e-01 7.299796e-01
<GCONST> 1.479060e+02
<STATE> 4
<MEAN> 39
 7.499400e-01 -2.702987e-01 6.224121e+00 -4.055010e+00 1.214767e-01 -1.425725e+01 -1.462370e+01 2.337056e+00 -1.665813e+01 -1.554260e+00 -9.305362e+00 -6.908390e+00 6.907201e+01 1.702489e-01 -1.293565e-01 -2.941863e-01 -2.849953e-01 1.913430e-02 1.450658e-01 6.709734e-02 -1.498517e-01 -3.315525e-03 6.055439e-02 3.267819e-01 4.725049e-02 1.544412e-01 -3.857636e-02 6.421977e-03 -4.134749e-02 2.796886e-03 -1.225002e-02 5.022360e-02 5.383048e-02 -2.994760e-02 8.442079e-02 1.559839e-02 3.027426e-02 5.464173e-02 -3.752644e-02
<VARIANCE> 39
 1.934226e+01 7.887914e+01 6.314733e+01 1.762717e+02 7.751196e+01 1.263966e+02 9.834702e+01 7.605807e+01 8.803693e+01 4.894386e+01 6.104541e+01 7.006326e+01 4.056484e+01 1.374581e+00 5.632743e+00 2.928638e+00 7.350739e+00 3.347779e+00 7.477674e+00 7.239508e+00 4.853450e+00 5.118768e+00 3.378500e+00 3.598239e+00 3.246516e+00 3.178577e+00 2.231956e-01 9.056785e-01 4.602458e-01 1.179169e+00 5.092760e-01 1.123324e+00 1.245492e+00 7.592301e-01 7.509385e-01 5.305179e-01 6.319469e-01 5.691366e-01 4.350121e-01
<GCONST> 1.396278e+02
<TRANSP> 5
 0.000000e+00 1.000000e+00 0.000000e+00 0.000000e+00 0.000000e+00
 0.000000e+00 8.135476e-01 1.864524e-01 0.000000e+00 0.000000e+00
 0.000000e+00 0.000000e+00 7.310196e-01 2.689804e-01 0.000000e+00
 0.000000e+00 0.000000e+00 0.000000e+00 9.136474e-01 8.635262e-02
 0.000000e+00 0.000000e+00 0.000000e+00 0.000000e+00 0.000000e+00
<ENDHMM>
~h "h"
<BEGINHMM>
<NUMSTATES> 5
<STATE> 2
<MEAN> 39
 -3.033021e-01 -2.924034e-02 4.731200e+00 -9.206295e+00 -1.319617e+00 -6.912657e+00 -1.658495e+01 2.104833e+00 -1.333888e+01 -5.568842e+00 -8.160107e+00 -1.530547e+00 6.738826e+01 2.047593e-01 -3.228347e-01 3.103837e-02 -3.936080e-01 2.285455e-01 -1.801089e-01 -1.033513e-01 4.905320e-02 -1.036171e-01 -9.855770e-02 -9.080645e-02 9.100861e-02 4.656828e-01 2.204856e-02 4.934984e-02 -1.055577e-02 5.646558e-02 -2.100827e-02 -2.481723e-02 5.052691e-03 5.349384e-03 -1.233113e-02 5.256259e-02 4.412705e-02 -3.199397e-02 -2.265602e-02
<VARIANCE> 39
 4.074238e+01 7.708842e+01 6.945778e+01 1.822560e+02 1.085085e+02 9.144352e+01 1.202161e+02 8.007814e+01 7.606257e+01 6.770941e+01 6.137211e+01 4.816563e+01 4.350885e+01 3.056249e+00 7.701761e+00 4.968194e+00 9.309056e+00 7.562951e+00 9.123697e+00 9.251413e+00 7.370014e+00 6.333757e+00 5.076418e+00 4.026025e+00 3.647858e+00 4.575136e+00 4.285401e-01 1.276046e+00 7.403764e-01 1.501578e+00 1.200093e+00 1.590545e+00 1.663464e+00 1.320404e+00 1.104473e+00 9.388998e-01 7.081684e-01 6.538728e-01 6.473376e-01
<GCONST> 1.507560e+02
<STATE> 3
<MEAN> 39
 3.966230e-01 -8.434694e-01 2.438900e+00 -1.312367e+01 -1.555037e+00 -7.249282e+00 -1.437327e+01 1.959993e+00 -1.186272e+01 -5.067086e+00 -6.855642e+00 4.813086e-01 6.920450e+01 2.098820e-01 -1.864386e-01 -5.530356e-02 -5.773695e-02 9.576767e-02 -1.679393e-01 8.348790e-02 -3.479464e-02 -7.963281e-02 1.641944e-01 6.266460e-02 8.230501e-03 3.011973e-01 -3.732919e-02 1.259411e-01 5.929683e-03 1.929094e-01 -7.723121e-02 3.419215e-02 2.357052e-02 -8.133195e-02 8.075865e-02 6.860258e-02 1.571501e-02 -3.013159e-02 -1.378320e-01
<VARIANCE> 39
 4.515837e+01 7.496815e+01 7.674049e+01 1.181157e+02 1.181523e+02 9.502685e+01 1.156911e+02 6.765814e+01 7.555638e+01 7.011966e+01 6.118126e+01 5.593979e+01 4.496450e+01 3.073319e+00 6.876225e+00 5.285106e+00 8.446371e+00 5.944194e+00 8.105652e+00 6.936354e+00 5.865300e+00 5.486748e+00 4.537775e+00 4.218900e+00 3.219869e+00 4.908672e+00 4.675882e-01 1.168316e+00 9.326780e-01 1.494953e+00 9.470244e-01 1.288098e+00 1.187087e+00 1.002226e+00 9.669259e-01 8.372270e-01 7.802998e-01 6.011842e-01 6.727048e-01
<GCONST> 1.483077e+02
<STATE> 4
<MEAN> 39
 1.409669e+00 8.711513e-01 3.040093e+00 -1.151414e+01 -4.030506e+00 -6.860330e+00 -1.244291e+01 1.531966e+00 -1.147917e+01 -4.913260e+00 -6.588824e+00 2.102025e-01 6.881945e+01 -9.541790e-02 1.254188e-02 -7.594548e-02 1.450347e-01 -7.869356e-02 4.011959e-01 2.996224e-01 -1.911691e-01 2.614773e-01 3.662653e-01 1.887973e-01 1.088174e-01 -1.755753e-01 -8.824577e-02 5.905456e-02 3.287728e-02 7.779859e-02 -2.448856e-02 2.305330e-02 -3.233488e-02 -4.349198e-02 9.122443e-02 1.839702e-02 -4.258181e-03 -2.599346e-02 -1.055745e-01
<VARIANCE> 39
 4.444101e+01 8.304842e+01 9.032681e+01 9.605763e+01 1.425822e+02 8.675320e+01 1.328444e+02 5.796244e+01 7.810196e+01 5.735992e+01 7.320985e+01 6.257054e+01 3.777238e+01 2.182256e+00 4.634804e+00 5.310080e+00 6.634973e+00 4.700303e+00 6.738917e+00 5.441243e+00 4.859409e+00 5.416390e+00 4.133869e+00 3.883591e+00 2.601699e+00 2.749404e+00 2.594064e-01 7.720850e-01 9.562734e-01 1.194717e+00 7.782795e-01 1.050918e+00 9.345310e-01 8.354297e-01 9.973338e-01 8.416212e-01 7.629065e-01 4.957751e-01 3.884225e-01
<GCONST> 1.428226e+02
<TRANSP> 5
 0.000000e+00 1.000000e+00 0.000000e+00 0.000000e+00 0.000000e+00
 0.000000e+00 9.065503e-01 9.344964e-02 0.000000e+00 0.000000e+00
 0.000000e+00 0.000000e+00 8.082819e-01 1.917181e-01 0.000000e+00
 0.000000e+00 0.000000e+00 0.000000e+00 8.376312e-01 1.623688e-01
 0.000000e+00 0.000000e+00 0.000000e+00 0.000000e+00 0.000000e+00
<ENDHMM>
~h "i"
<BEGINHMM>
<NUMSTATES> 5
<STATE> 2
<MEAN> 39
 1.380027e+00 1.186430e+00 2.641465e+00 -2.278676e+00 8.232551e-01 -9.103207e+00 -1.433117e+01 -1.428868e+00 -1.070472e+01 -1.298903e+00 -7.122577e+00 -1.860424e+00 6.738022e+01 -2.703709e-01 6.646003e-02 3.869253e-01 5.515069e-01 6.098710e-02 -5.264627e-01 -1.784680e-01 -2.957874e-01 2.955103e-01 2.273904e-01 -1.165145e-01 -2.501858e-01 -5.913903e-02 -6.231498e-02 -1.424386e-01 2.482792e-03 -1.197043e-01 1.015734e-01 -2.035999e-01 7.254176e-03 1.150868e-01 -1.264682e-01 -4.606098e-02 1.035231e-01 3.441054e-02 8.449948e-02
<VARIANCE> 39
 3.751083e+01 7.546505e+01 5.195287e+01 9.833957e+01 4.884401e+01 1.606002e+02 6.914885e+01 4.659301e+01 5.331525e+01 4.299355e+01 5.312016e+01 4.517251e+01 5.378535e+01 1.225534e+00 2.543117e+00 1.658724e+00 2.521110e+00 2.281358e+00 5.042033e+00 2.808807e+00 2.349395e+00 2.615387e+00 2.120019e+00 2.410329e+00 1.578714e+00 1.308812e+00 1.078420e-01 4.670110e-01 3.096163e-01 3.670338e-01 4.108351e-01 7.245672e-01 4.377118e-01 3.934500e-01 4.367836e-01 3.863423e-01 4.899094e-01 2.894000e-01 1.634570e-01
<GCONST> 1.212522e+02
<STATE> 3
<MEAN> 39
 5.370911e-01 5.540493e-01 3.722164e+00 -1.249675e+00 1.699426e+00 -1.164242e+01 -1.469679e+01 -1.531487e+00 -1.040426e+01 -7.746472e-01 -7.144823e+00 -2.537827e+00 6.776696e+01 -4.153738e-01 -8.061765e-02 4.831801e-01 3.302337e-01 2.496867e-01 -8.600871e-01 -1.066204e-01 -1.641844e-02 6.365587e-02 7.749208e-02 -3.901262e-02 -1.580600e-01 2.552777e-02 -4.160292e-02 -6.765366e-02 1.471983e-02 -1.234382e-01 4.002592e-02 -2.610367e-02 4.013343e-02 9.957428e-02 -8.378875e-02 -8.085721e-02 2.227429e-02 7.117710e-02 3.014037e-02
<VARIANCE> 39
 3.925536e+01 8.074718e+01 4.957738e+01 8.966733e+01 5.494790e+01 2.081885e+02 6.046606e+01 4.757977e+01 5.235809e+01 4.564457e+01 4.983885e+01 4.286305e+01 6.008644e+01 7.663033e-01 2.766708e+00 1.648343e+00 2.537977e+00 2.554943e+00 6.491636e+00 2.656499e+00 2.630049e+00 2.401152e+00 2.159069e+00 2.591929e+00 1.602751e+00 1.378586e+00 1.327810e-01 5.261365e-01 2.870716e-01 3.539698e-01 4.919793e-01 7.653117e-01 4.300840e-01 4.228860e-01 4.064950e-01 3.971719e-01 5.028058e-01 2.739524e-01 1.884865e-01
<GCONST> 1.222115e+02
<STATE> 4
<MEAN> 39
 -7.923527e-01 -3.024195e-01 7.699258e+00 2.087371e+00 2.506364e+00 -1.957171e+01 -1.644881e+01 -1.616830e+00 -1.062219e+01 -2.839789e-01 -8.925367e+00 -4.070369e+00 6.854957e+01 -9.963155e-02 4.735304e-01 8.670564e-02 9.783824e-02 -2.547877e-01 5.363244e-01 -2.600389e-01 -1.566812e-01 7.891522e-02 -9.236086e-02 2.913186e-02 -7.945027e-03 -4.260184e-01 3.015902e-03 -2.405636e-02 -4.236827e-02 -1.098963e-01 -2.307675e-02 1.817569e-01 5.563865e-02 -1.674872e-02 -7.350060e-03 -2.321953e-02 3.723093e-02 3.253814e-02 1.076884e-02
<VARIANCE> 39
 2.393087e+01 6.988871e+01 5.583521e+01 7.202592e+01 4.882568e+01 2.717205e+02 4.976586e+01 7.766465e+01 4.892080e+01 5.083207e+01 5.688409e+01 3.697734e+01 5.251818e+01 7.132493e-01 2.389785e+00 2.309060e+00 2.242865e+00 2.657704e+00 7.788836e+00 2.492253e+00 2.664748e+00 2.170896e+00 2.474683e+00 2.859610e+00 1.437587e+00 1.108838e+00 1.181804e-01 3.958657e-01 3.164463e-01 3.565365e-01 4.996054e-01 9.016305e-01 4.064838e-01 4.083905e-01 4.360724e-01 4.326046e-01 4.785606e-01 2.540830e-01 2.020256e-01
<GCONST> 1.216706e+02
<TRANSP> 5
 0.000000e+00 1.000000e+00 0.000000e+00 0.000000e+00 0.000000e+00
 0.000000e+00 4.077965e-01 5.922035e-01 0.000000e+00 0.000000e+00
 0.000000e+00 0.000000e+00 4.549373e-01 5.450627e-01 0.000000e+00
 0.000000e+00 0.000000e+00 0.000000e+00 8.087579e-01 1.912421e-01
 0.000000e+00 0.000000e+00 0.000000e+00 0.000000e+00 0.000000e+00
<ENDHMM>
~h "j"
<BEGINHMM>
<NUMSTATES> 5
<STATE> 2
<MEAN> 39
 -8.195908e+00 -1.495477e+00 1.145396e+01 -5.975234e+00 -2.858953e-01 -7.343505e+00 -9.853904e+00 -4.732421e+00 -1.064870e+01 -2.129793e+00 -5.194155e+00 -3.539863e+00 6.702969e+01 -4.856927e-01 -1.197331e+00 1.176544e+00 -5.737691e-01 8.759957e-01 -7.466481e-01 7.392034e-02 -6.147453e-01 -1.330925e-01 4.251675e-02 -1.004537e-01 -1.939625e-01 1.261398e+00 2.896774e-01 -2.209492e-02 -2.595308e-01 1.362775e-02 1.470040e-02 -2.151532e-01 -2.111844e-01 1.710380e-02 -1.799420e-01 7.494634e-04 2.082746e-02 -1.755580e-03 1.018178e-01
<VARIANCE> 39
 9.520241e+01 1.184414e+02 1.030139e+02 1.343957e+02 5.360952e+01 8.200542e+01 9.617944e+01 7.133869e+01 7.172861e+01 4.306903e+01 3.892956e+01 3.565020e+01 7.502103e+01 1.021052e+01 1.258455e+01 9.265523e+00 1.133988e+01 4.454032e+00 8.404002e+00 9.514117e+00 6.526773e+00 7.352360e+00 3.912510e+00 3.786093e+00 2.928901e+00 6.755260e+00 1.832742e+00 2.428618e+00 1.767404e+00 2.329306e+00 8.856558e-01 1.361577e+00 1.747689e+00 1.294478e+00 1.288720e+00 7.479324e-01 7.344329e-01 5.855302e-01 1.132215e+00
<GCONST> 1.554470e+02
<STATE> 3
<MEAN> 39
 -5.612978e+00 -5.353381e+00 1.185391e+01 -7.320343e+00 3.050003e+00 -1.241000e+01 -1.334933e+01 -7.201254e+00 -1.347849e+01 -1.969177e+00 -5.981379e+00 -3.963432e+00 7.239913e+01 1.500614e+00 -2.771535e-01 -1.168298e+00 -2.539706e-02 3.047799e-01 -1.077281e+00 -7.796393e-01 -2.155298e-01 -9.928759e-01 2.074128e-01 6.202221e-02 5.083473e-02 7.747669e-01 1.384245e-01 1.887419e-01 -4.025791e-01 -7.415991e-02 -1.894270e-01 1.794408e-01 1.997984e-01 3.012878e-01 8.277605e-02 3.038952e-02 1.454201e-01 8.613794e-02 -1.823186e-01
<VARIANCE> 39
 8.331676e+01 7.260078e+01 9.557760e+01 8.899540e+01 4.278957e+01 9.525469e+01 1.123889e+02 8.356126e+01 8.195260e+01 5.851323e+01 4.209480e+01 3.302767e+01 4.012934e+01 9.523110e+00 7.696729e+00 1.006108e+01 7.593675e+00 3.525146e+00 8.601992e+00 1.060511e+01 6.435635e+00 7.031181e+00 4.322736e+00 3.823219e+00 2.903725e+00 3.636172e+00 1.621028e+00 1.347349e+00 1.559508e+00 1.614948e+00 6.565060e-01 1.269332e+00 1.964237e+00 1.120890e+00 1.281688e+00 7.498912e-01 7.337363e-01 5.290022e-01 5.788335e-01
<GCONST> 1.504554e+02
<STATE> 4
<MEAN> 39
 4.871413e-01 -5.120130e+00 5.538233e+00 -6.844558e+00 2.878784e+00 -1.551552e+01 -1.473779e+01 -4.815768e+00 -1.607545e+01 -5.240245e-01 -5.167965e+00 -4.151970e+00 7.367904e+01 8.018721e-01 2.520578e-01 -1.355536e+00 -4.415132e-01 -2.129098e-01 1.707982e-01 3.372344e-01 6.366956e-01 -8.592833e-02 7.920484e-02 4.667937e-01 2.818867e-01 1.395772e-02 -2.701306e-01 8.798032e-02 1.543591e-01 -5.098620e-02 -1.000447e-01 3.058642e-01 2.194589e-01 1.786624e-01 2.183977e-01 -7.979143e-02 1.726232e-02 3.685116e-02 -1.784680e-01
<VARIANCE> 39
 3.132372e+01 6.346665e+01 6.573771e+01 7.728509e+01 4.448307e+01 1.007312e+02 1.067314e+02 8.223611e+01 7.157063e+01 7.218723e+01 5.000677e+01 3.387150e+01 3.832366e+01 3.319005e+00 4.100496e+00 4.748721e+00 4.961015e+00 2.709866e+00 5.842072e+00 5.224248e+00 4.562306e+00 4.556877e+00 4.420622e+00 3.331494e+00 2.459731e+00 2.056791e+00 5.351298e-01 6.363802e-01 7.290183e-01 9.004772e-01 4.603676e-01 9.248391e-01 1.101139e+00 7.556533e-01 8.747959e-01 7.568771e-01 6.200494e-01 4.213825e-01 2.618866e-01
<GCONST> 1.368243e+02
<TRANSP> 5
 0.000000e+00 1.000000e+00 0.000000e+00 0.000000e+00 0.000000e+00
 0.000000e+00 8.279358e-01 1.720641e-01 0.000000e+00 0.000000e+00
 0.000000e+00 0.000000e+00 7.093670e-01 2.906330e-01 0.000000e+00
 0.000000e+00 0.000000e+00 0.000000e+00 6.812440e-01 3.187560e-01
 0.000000e+00 0.000000e+00 0.000000e+00 0.000000e+00 0.000000e+00
<ENDHMM>
~h "k"
<BEGINHMM>
<NUMSTATES> 5
<STATE> 2
<MEAN> 39
 -2.632489e+00 -1.595075e+00 -3.053957e+00 -9.120939e+00 -6.509816e+00 -2.563359e+00 -9.940928e+00 -2.328905e+00 -8.651023e+00 2.452804e+00 -1.335349e+00 -5.178905e-02 6.335336e+01 4.253494e-01 -4.345461e-01 -2.936875e-01 -1.153938e+00 4.985895e-01 3.221287e-01 1.005172e-01 -3.401496e-01 -1.592865e-01 1.804947e-01 -1.555628e-01 8.990823e-02 8.153541e-01 7.451019e-02 -1.284667e-01 7.260446e-02 -1.752542e-01 2.867219e-02 -2.247063e-02 9.691007e-02 -1.151666e-01 -4.397922e-02 -5.826485e-02 -9.697038e-02 1.185033e-03 2.391116e-01
<VARIANCE> 39
 7.144684e+01 7.419068e+01 3.943575e+01 1.552655e+02 7.964903e+01 1.127499e+02 8.709451e+01 5.742769e+01 9.470397e+01 4.309763e+01 2.426950e+01 2.744477e+01 1.133594e+02 3.134608e+00 5.803701e+00 2.787992e+00 1.893691e+01 3.580601e+00 6.093678e+00 5.298495e+00 4.748350e+00 6.405620e+00 3.466489e+00 2.491686e+00 2.476074e+00 8.146422e+00 4.581270e-01 1.043854e+00 5.408660e-01 3.521267e+00 6.894953e-01 1.001418e+00 1.054160e+00 8.614848e-01 1.134492e+00 6.212119e-01 4.604029e-01 4.780306e-01 1.184317e+00
<GCONST> 1.440775e+02
<STATE> 3
<MEAN> 39
 7.294292e-01 -2.694326e+00 -4.260364e+00 -9.465989e+00 -5.653597e+00 -4.673954e+00 -1.024063e+01 -2.818362e+00 -7.531031e+00 2.454601e+00 -2.055140e+00 1.993522e-02 6.668555e+01 2.910206e-02 -4.353422e-02 -7.264175e-02 -3.768530e-01 3.595641e-01 4.034751e-01 1.836843e-01 -1.622304e-01 4.287036e-02 -1.210503e-01 -1.396685e-01 7.710021e-02 2.308014e-01 -4.563080e-02 -3.644443e-03 1.374860e-01 -5.755217e-02 -3.013545e-02 8.445815e-02 7.714861e-02 -5.466089e-02 -8.876125e-02 -1.108911e-01 -2.928630e-02 1.659416e-02 3.099310e-02
<VARIANCE> 39
 4.905475e+01 7.698316e+01 4.527769e+01 9.963304e+01 7.509799e+01 1.200899e+02 1.012292e+02 4.858277e+01 1.044727e+02 4.331302e+01 2.247517e+01 3.234687e+01 8.528231e+01 2.080925e+00 4.561193e+00 2.007787e+00 9.734983e+00 2.868191e+00 5.374579e+00 4.536853e+00 3.887780e+00 4.334876e+00 3.339508e+00 1.722385e+00 2.453353e+00 5.590596e+00 3.634656e-01 7.844382e-01 3.844379e-01 1.261087e+00 4.526296e-01 8.068400e-01 8.736717e-01 5.938823e-01 7.910704e-01 4.446176e-01 3.349698e-01 4.288692e-01 6.571318e-01
<GCONST> 1.350040e+02
<STATE> 4
<MEAN> 39
 -3.978114e-01 -5.221986e-01 -5.264296e+00 -7.414435e+00 -6.887136e+00 -1.292534e+00 -8.252839e+00 -1.414298e+00 -5.996468e+00 1.353515e+00 -1.111509e+00 1.326302e+00 6.344276e+01 -1.548676e-01 1.514303e-01 2.021262e-01 -1.745500e-01 1.882733e-01 3.299076e-01 3.794351e-02 -1.169430e-02 -9.932776e-02 -2.065824e-01 -9.659361e-02 5.599559e-02 -5.769770e-02 5.320383e-02 -3.956192e-03 2.690995e-02 -1.029477e-02 -4.620392e-02 -1.756493e-02 -8.973849e-03 5.286417e-03 -8.320457e-02 -5.508297e-02 -5.701016e-02 -1.497498e-02 3.511476e-02
<VARIANCE> 39
 6.320191e+01 6.632481e+01 4.947002e+01 9.051844e+01 5.308002e+01 1.004413e+02 7.056999e+01 5.078275e+01 8.368639e+01 3.171908e+01 1.770360e+01 2.650734e+01 8.971719e+01 1.135746e+00 3.931191e+00 1.563914e+00 5.059833e+00 1.867381e+00 3.354399e+00 3.180307e+00 2.904845e+00 3.007731e+00 2.386060e+00 1.366550e+00 1.829519e+00 3.105365e+00 2.093283e-01 7.425514e-01 3.162525e-01 8.325295e-01 3.249668e-01 4.975260e-01 5.053765e-01 4.774327e-01 5.188068e-01 3.598740e-01 2.689267e-01 3.478138e-01 4.543287e-01
<GCONST> 1.240891e+02
<TRANSP> 5
 0.000000e+00 1.000000e+00 0.000000e+00 0.000000e+00 0.000000e+00
 0.000000e+00 5.421036e-01 4.578965e-01 0.000000e+00 0.000000e+00
 0.000000e+00 0.000000e+00 4.045989e-01 5.954011e-01 0.000000e+00
 0.000000e+00 0.000000e+00 0.000000e+00 6.951972e-01 3.048027e-01
 0.000000e+00 0.000000e+00 0.000000e+00 0.000000e+00 0.000000e+00
<ENDHMM>
~h "l"
<BEGINHMM>
<NUMSTATES> 5
<STATE> 2
<MEAN> 39
 2.615027e+00 -2.348925e+00 2.612953e-02 -1.060839e+01 -8.978205e-01 -8.343834e+00 -1.141510e+01 6.081458e-01 -1.502302e+01 -4.105960e+00 -3.405998e+00 1.358071e+00 7.084328e+01 1.399729e-01 -1.332080e-01 -3.059963e-01 -2.793946e-01 -2.592985e-01 -1.139188e-01 1.981242e-01 6.843415e-02 1.312189e-01 3.187993e-01 3.995265e-01 3.135985e-02 1.675113e-01 -2.981640e-02 4.041736e-02 4.003954e-02 5.026574e-02 -5.097084e-02 -2.457570e-02 3.266480e-03 -4.022307e-02 1.924579e-02 -5.846344e-03 1.506150e-02 -4.940282e-02 -3.417553e-02
<VARIANCE> 39
 3.741250e+01 4.911352e+01 4.774300e+01 9.619896e+01 7.745091e+01 8.797538e+01 1.042078e+02 6.953246e+01 9.980408e+01 7.264333e+01 6.733301e+01 3.711633e+01 4.955928e+01 1.773257e+00 1.909792e+00 1.811699e+00 3.127682e+00 2.258160e+00 3.144349e+00 2.681721e+00 2.932220e+00 3.950311e+00 2.502225e+00 2.589831e+00 1.899179e+00 1.734114e+00 2.754892e-01 2.707537e-01 3.113236e-01 5.397075e-01 3.563606e-01 5.511805e-01 4.548604e-01 4.470463e-01 6.569393e-01 4.550779e-01 4.516848e-01 3.336965e-01 2.086099e-01
<GCONST> 1.251005e+02
<STATE> 3
<MEAN> 39
 3.284808e+00 -2.795976e+00 -1.099348e+00 -1.190394e+01 -1.733112e+00 -9.130925e+00 -1.068621e+01 1.095947e+00 -1.373012e+01 -3.004792e+00 -2.438146e+00 1.495000e+00 7.169879e+01 -8.201548e-02 -2.372899e-02 -2.173279e-01 -3.048715e-02 -3.026781e-01 -7.997626e-02 2.082262e-01 -3.452276e-02 4.053536e-01 3.166494e-01 2.428760e-01 -7.975003e-02 -7.861202e-02 -5.497778e-02 4.774540e-02 6.759376e-02 7.887162e-02 7.254585e-04 1.797832e-02 -4.408803e-02 -5.189618e-02 -6.014313e-03 -5.075228e-02 -6.485917e-02 -2.410942e-02 -7.536099e-02
<VARIANCE> 39
 2.818317e+01 5.219958e+01 4.319773e+01 9.773147e+01 7.189353e+01 9.749341e+01 1.014468e+02 7.064482e+01 1.077319e+02 7.505054e+01 6.735811e+01 3.575812e+01 4.591204e+01 1.195050e+00 1.548527e+00 1.574697e+00 2.299615e+00 1.943434e+00 2.963606e+00 2.223940e+00 2.390753e+00 3.034991e+00 2.278894e+00 2.080389e+00 1.673512e+00 1.155474e+00 1.647021e-01 2.215573e-01 2.360478e-01 4.015977e-01 3.100135e-01 4.688496e-01 3.627157e-01 3.572012e-01 5.087308e-01 4.043532e-01 3.652479e-01 2.844567e-01 1.259644e-01
<GCONST> 1.187561e+02
<STATE> 4
<MEAN> 39
 3.543406e+00 -2.386223e+00 -2.787097e+00 -1.032608e+01 -4.305280e+00 -1.166982e+01 -5.478477e+00 7.396079e-01 -1.480900e+01 -1.750596e+00 -3.183931e+00 4.776924e-01 7.117273e+01 -2.270981e-01 9.604755e-02 3.138965e-03 2.121952e-01 -1.100439e-01 3.947378e-02 1.346225e-02 -4.218814e-01 3.007673e-01 2.819386e-01 1.904675e-02 -1.251826e-01 -2.390537e-01 -5.020847e-02 7.392057e-02 8.793446e-02 6.044013e-02 5.331943e-02 3.448298e-02 -8.105047e-02 -2.719875e-02 -5.072539e-02 -5.044820e-02 -3.897540e-02 -1.104809e-02 -6.859814e-02
<VARIANCE> 39
 2.027625e+01 6.025342e+01 3.400619e+01 7.833053e+01 6.390822e+01 1.021502e+02 1.128349e+02 7.584903e+01 1.053647e+02 7.275137e+01 5.529010e+01 3.075460e+01 5.497029e+01 6.243192e-01 1.419150e+00 1.267318e+00 1.583907e+00 1.547730e+00 2.189985e+00 1.945058e+00 2.273126e+00 2.146895e+00 2.100483e+00 1.684920e+00 1.382012e+00 7.696100e-01 8.173255e-02 1.889670e-01 2.071153e-01 2.839632e-01 2.596814e-01 3.718615e-01 2.975368e-01 3.323134e-01 3.484721e-01 3.261526e-01 2.751679e-01 2.249300e-01 8.935432e-02
<GCONST> 1.112463e+02
<TRANSP> 5
 0.000000e+00 1.000000e+00 0.000000e+00 0.000000e+00 0.000000e+00
 0.000000e+00 5.981393e-01 4.018607e-01 0.000000e+00 0.000000e+00
 0.000000e+00 0.000000e+00 5.780902e-01 4.219098e-01 0.000000e+00
 0.000000e+00 0.000000e+00 0.000000e+00 8.382524e-01 1.617476e-01
 0.000000e+00 0.000000e+00 0.000000e+00 0.000000e+00 0.000000e+00
<ENDHMM>
~h "m"
<BEGINHMM>
<NUMSTATES> 5
<STATE> 2
<MEAN> 39
 1.424394e+00 2.578005e+00 1.958104e+00 -6.172224e+00 1.151842e+00 -7.035204e+00 -1.278398e+01 4.472513e-01 -1.608131e+01 -4.846609e+00 -8.574970e+00 -2.100222e+00 6.675781e+01 1.208794e-01 5.679375e-01 3.513267e-01 6.430929e-01 2.745877e-01 6.270476e-02 -4.778220e-01 7.946801e-02 -2.659565e-01 -3.410943e-01 -4.884557e-01 -3.084420e-01 -3.048197e-01 -3.109536e-02 -1.196839e-01 5.150047e-02 -2.563572e-02 -4.812703e-02 -8.019757e-02 4.448170e-02 -9.445878e-02 4.858836e-02 9.672300e-02 5.820781e-02 6.977806e-03 9.745443e-02
<VARIANCE> 39
 3.900487e+01 6.604610e+01 5.835454e+01 9.618067e+01 7.610422e+01 1.007305e+02 8.843711e+01 5.859660e+01 5.961403e+01 5.222962e+01 5.558949e+01 3.392863e+01 4.721644e+01 1.819160e+00 4.722859e+00 3.287004e+00 4.728192e+00 3.028076e+00 5.343754e+00 4.433671e+00 4.200064e+00 3.340505e+00 3.979443e+00 3.686435e+00 2.503897e+00 2.568235e+00 2.242577e-01 6.595026e-01 5.624887e-01 7.720399e-01 5.546733e-01 7.925937e-01 8.034770e-01 7.588619e-01 5.495152e-01 6.791536e-01 6.372311e-01 4.608066e-01 2.919068e-01
<GCONST> 1.339533e+02
<STATE> 3
<MEAN> 39
 1.438965e+00 2.714344e+00 3.286080e+00 -4.801973e+00 1.300596e+00 -8.026688e+00 -1.377141e+01 3.618602e-01 -1.616332e+01 -4.877663e+00 -9.071071e+00 -2.640328e+00 6.683099e+01 1.825912e-02 7.256182e-02 2.866535e-01 2.479933e-01 -2.827695e-02 -8.341989e-02 -1.524907e-02 -1.703815e-03 -2.212207e-02 -7.758927e-02 -1.183669e-01 -7.911756e-02 2.456585e-02 -8.638955e-02 -1.331608e-01 2.825686e-03 -9.401546e-02 -7.667689e-02 2.528493e-02 1.497301e-01 -3.973191e-02 1.068652e-01 6.694428e-02 1.194916e-01 6.237378e-02 5.773565e-02
<VARIANCE> 39
 3.049593e+01 6.605932e+01 7.018516e+01 1.009702e+02 7.804536e+01 1.112972e+02 9.636092e+01 6.512875e+01 6.438901e+01 5.255808e+01 5.490548e+01 3.632621e+01 3.955849e+01 2.193942e+00 5.196021e+00 4.381312e+00 5.425986e+00 3.546619e+00 6.508066e+00 5.838614e+00 5.199354e+00 3.801772e+00 4.306788e+00 3.859827e+00 2.656045e+00 2.837076e+00 2.712939e-01 7.232682e-01 6.418710e-01 8.592308e-01 6.319458e-01 9.381010e-01 9.465563e-01 8.832727e-01 6.355608e-01 7.201893e-01 6.686684e-01 4.713239e-01 3.240276e-01
<GCONST> 1.376995e+02
<STATE> 4
<MEAN> 39
 1.167624e+00 1.597068e+00 3.088503e+00 -2.834842e+00 -4.660060e-01 -8.690367e+00 -1.218449e+01 -3.674428e-01 -1.663516e+01 -4.483140e+00 -9.310803e+00 -3.176369e+00 6.659243e+01 -2.418769e-01 -1.759256e-01 1.932743e-01 -1.195323e-01 -1.051230e-01 6.225500e-02 2.474276e-01 -3.419863e-02 2.883755e-01 1.075160e-01 2.487508e-01 1.466037e-01 7.175492e-02 -8.129995e-02 -9.061420e-02 1.710427e-03 -1.261753e-01 -1.407721e-03 3.376920e-02 5.553736e-02 -1.651972e-02 5.544730e-02 2.435992e-02 6.902852e-02 3.245855e-02 5.002249e-02
<VARIANCE> 39
 3.241680e+01 8.195233e+01 7.113606e+01 1.108055e+02 6.533041e+01 1.173834e+02 7.884271e+01 6.648206e+01 6.229767e+01 5.164166e+01 5.514039e+01 3.651901e+01 4.251468e+01 2.359275e+00 4.989379e+00 3.997391e+00 5.165895e+00 3.117185e+00 5.903362e+00 4.493373e+00 4.235023e+00 3.687056e+00 3.691822e+00 3.649018e+00 2.285265e+00 2.531696e+00 2.309190e-01 7.195546e-01 5.077112e-01 8.027605e-01 5.603131e-01 8.496756e-01 7.119099e-01 7.032517e-01 6.131883e-01 6.314082e-01 5.753756e-01 3.992735e-01 3.202998e-01
<GCONST> 1.348055e+02
<TRANSP> 5
 0.000000e+00 1.000000e+00 0.000000e+00 0.000000e+00 0.000000e+00
 0.000000e+00 6.332431e-01 3.667570e-01 0.000000e+00 0.000000e+00
 0.000000e+00 0.000000e+00 6.171336e-01 3.828665e-01 0.000000e+00
 0.000000e+00 0.000000e+00 0.000000e+00 7.661228e-01 2.338773e-01
 0.000000e+00 0.000000e+00 0.000000e+00 0.000000e+00 0.000000e+00
<ENDHMM>
~h "n"
<BEGINHMM>
<NUMSTATES> 5
<STATE> 2
<MEAN> 39
 1.694083e+00 3.457801e+00 -1.255574e-01 -1.814253e+00 -1.985184e+00 -5.452127e+00 -1.477789e+01 -2.480376e+00 -1.042536e+01 -1.688521e+00 -4.030434e+00 -1.766864e-01 6.426298e+01 -1.102621e-01 3.474399e-01 1.403010e-02 2.802718e-01 -1.991787e-01 3.534197e-01 2.458286e-02 -1.289613e-01 1.892563e-01 -2.998618e-02 -8.322729e-02 4.026230e-03 -3.946956e-01 -5.856047e-02 -1.564526e-01 6.229093e-02 -2.124796e-01 8.785110e-02 -1.339750e-01 1.292896e-01 6.230101e-02 -6.779969e-02 8.921239e-03 8.309562e-02 4.172746e-02 1.489626e-01
<VARIANCE> 39
 2.711325e+01 5.411150e+01 4.347702e+01 7.970808e+01 5.351492e+01 7.278902e+01 5.353795e+01 5.348548e+01 6.533554e+01 3.923156e+01 4.385546e+01 3.583028e+01 3.708503e+01 9.372061e-01 1.386185e+00 1.249024e+00 2.007987e+00 1.873870e+00 2.385277e+00 1.977652e+00 2.035546e+00 2.470590e+00 1.630865e+00 1.517238e+00 1.497792e+00 1.334999e+00 1.334918e-01 2.200329e-01 1.938905e-01 3.770020e-01 2.863005e-01 4.254993e-01 3.725378e-01 3.549469e-01 3.727364e-01 3.199798e-01 3.011534e-01 2.581723e-01 1.797284e-01
<GCONST> 1.120737e+02
<STATE> 3
<MEAN> 39
 1.268207e+00 4.124429e+00 2.791764e-01 -1.711136e+00 -2.417560e+00 -4.653070e+00 -1.423239e+01 -2.298580e+00 -9.948987e+00 -1.986224e+00 -4.167430e+00 3.114256e-02 6.356390e+01 -2.964336e-01 2.870581e-01 1.888253e-01 1.744540e-01 -2.019710e-01 3.547177e-01 2.360088e-01 5.692431e-02 1.583492e-01 -8.026241e-02 -5.838912e-02 3.657926e-02 -4.149893e-01 -5.170279e-02 -6.517974e-02 4.921907e-02 -4.905393e-02 3.261840e-02 -3.769337e-02 4.451815e-02 5.897950e-02 -2.655608e-02 -3.717467e-04 2.708243e-02 1.324467e-02 3.320237e-02
<VARIANCE> 39
 3.097481e+01 5.632012e+01 4.606137e+01 8.232327e+01 5.431231e+01 7.041872e+01 5.193991e+01 5.411247e+01 6.015925e+01 3.673391e+01 4.731264e+01 3.840543e+01 4.118990e+01 6.494157e-01 9.767648e-01 1.105161e+00 1.548516e+00 1.387510e+00 1.801030e+00 1.741293e+00 1.378652e+00 1.755072e+00 1.336079e+00 1.195349e+00 1.102040e+00 6.215622e-01 9.019700e-02 1.665225e-01 1.633551e-01 2.496502e-01 2.272391e-01 3.114443e-01 2.882755e-01 2.591664e-01 2.906098e-01 2.761838e-01 2.513413e-01 2.176909e-01 9.058345e-02
<GCONST> 1.045524e+02
<STATE> 4
<MEAN> 39
 -1.229185e+00 6.170495e+00 1.437711e+00 6.790810e-01 -4.485316e+00 -2.655585e+00 -1.272948e+01 -1.940642e+00 -9.127914e+00 -2.134982e+00 -5.073507e+00 -5.875571e-01 5.985437e+01 -3.694535e-01 1.106196e-01 8.745159e-02 2.059467e-01 -7.120818e-02 2.919214e-01 3.148063e-01 2.245999e-01 2.111516e-01 1.905394e-02 -1.026667e-02 9.172004e-03 -3.972444e-01 -1.897213e-02 -9.589883e-02 -3.040452e-02 -5.769955e-02 2.600397e-02 -3.509929e-02 1.055907e-02 7.813517e-03 -1.780535e-02 2.663331e-02 3.450870e-02 6.544390e-03 4.679903e-02
<VARIANCE> 39
 4.310403e+01 3.956200e+01 4.662059e+01 8.547155e+01 4.827599e+01 6.249456e+01 4.161717e+01 4.356730e+01 4.877840e+01 2.565614e+01 3.623981e+01 3.496602e+01 4.257928e+01 5.468411e-01 9.957222e-01 9.729623e-01 1.009814e+00 1.134023e+00 1.423583e+00 1.485471e+00 1.220837e+00 1.352047e+00 1.335644e+00 1.228491e+00 1.026896e+00 2.885118e-01 7.602445e-02 1.824691e-01 1.463435e-01 2.196519e-01 2.018401e-01 2.733752e-01 2.415277e-01 2.282471e-01 2.505411e-01 2.300196e-01 2.117558e-01 1.975561e-01 7.347390e-02
<GCONST> 9.883149e+01
<TRANSP> 5
 0.000000e+00 1.000000e+00 0.000000e+00 0.000000e+00 0.000000e+00
 0.000000e+00 5.227470e-01 4.772530e-01 0.000000e+00 0.000000e+00
 0.000000e+00 0.000000e+00 5.247453e-01 4.752547e-01 0.000000e+00
 0.000000e+00 0.000000e+00 0.000000e+00 8.191916e-01 1.808084e-01
 0.000000e+00 0.000000e+00 0.000000e+00 0.000000e+00 0.000000e+00
<ENDHMM>
~h "o"
<BEGINHMM>
<NUMSTATES> 5
<STATE> 2
<MEAN> 39
 3.178846e+00 3.787004e+00 -7.261041e-01 -9.918222e+00 -9.665619e+00 -1.013807e+01 -1.022016e+01 8.115114e+00 -1.077509e+01 -3.590579e+00 -6.805762e+00 -2.918149e+00 6.581321e+01 2.120670e-01 -6.891426e-02 1.939867e-01 3.392645e-01 4.496499e-01 -2.015540e-01 -4.900598e-01 -1.217164e-01 -2.000821e-01 -1.152274e-01 -1.072496e-01 -7.899056e-02 2.329467e-01 -2.932994e-02 -1.584582e-02 4.901010e-02 1.439399e-01 -9.595423e-04 -4.064227e-02 -5.350637e-02 -3.118785e-02 5.172598e-02 3.512203e-02 2.829964e-02 -1.392058e-02 -3.425206e-02
<VARIANCE> 39
 3.838382e+01 4.872943e+01 2.767845e+01 1.189329e+02 1.354394e+02 1.223792e+02 1.059488e+02 7.395550e+01 6.665913e+01 3.365723e+01 3.242772e+01 4.063402e+01 2.802131e+01 2.141804e+00 3.729192e+00 3.195802e+00 1.154160e+01 6.383584e+00 7.513087e+00 6.088568e+00 7.451705e+00 4.585341e+00 2.630010e+00 3.090752e+00 3.061128e+00 3.216856e+00 2.631524e-01 7.670785e-01 6.232762e-01 2.027540e+00 1.172412e+00 1.329569e+00 1.057133e+00 1.499677e+00 8.036577e-01 5.122800e-01 6.011333e-01 5.271136e-01 5.101477e-01
<GCONST> 1.403299e+02
<STATE> 3
<MEAN> 39
 1.385514e-01 1.752342e+00 4.822034e+00 -1.109866e+00 1.715199e+00 -1.042398e+01 -2.017209e+01 2.850842e+00 -1.136155e+01 -5.308648e+00 -5.351054e+00 -1.202569e+00 6.549481e+01 -6.232395e-01 -4.212107e-01 9.529757e-01 8.767459e-01 4.306782e-01 -1.333671e+00 -3.492837e-01 2.295201e-01 1.839091e-01 2.669969e-01 2.363138e-01 -4.438922e-01 8.684128e-02 2.499220e-02 -2.400422e-02 -2.904399e-02 -2.472929e-01 -2.207243e-02 -2.267565e-01 9.573954e-02 1.358142e-01 5.621054e-03 -1.580767e-02 -4.232745e-02 -8.003544e-03 1.096030e-01
<VARIANCE> 39
 3.778603e+01 7.158097e+01 5.665023e+01 1.731839e+02 6.866969e+01 9.234159e+01 8.518765e+01 5.533937e+01 2.700197e+01 3.023095e+01 2.400452e+01 2.905630e+01 2.705851e+01 1.006516e+00 6.659690e+00 4.127279e+00 8.043039e+00 5.612478e+00 9.153720e+00 5.253461e+00 6.598520e+00 3.062680e+00 2.980625e+00 3.687614e+00 3.079737e+00 3.730064e+00 1.691896e-01 1.206937e+00 5.527641e-01 1.292305e+00 1.333988e+00 1.543989e+00 1.003794e+00 1.269444e+00 5.143383e-01 5.675085e-01 7.509747e-01 5.880948e-01 7.338822e-01
<GCONST> 1.380640e+02
<STATE> 4
<MEAN> 39
 -2.283728e+00 8.182855e-01 6.991725e+00 5.548749e+00 2.237939e+00 -2.017463e+01 -1.788444e+01 9.248446e-02 -1.120632e+01 -3.116256e+00 -5.159582e+00 -2.732595e+00 6.532869e+01 -3.203233e-01 -6.735590e-01 6.130220e-01 -9.628399e-02 4.990451e-01 -2.082502e+00 7.234408e-03 6.549751e-02 1.894680e-02 3.919357e-01 -1.429991e-01 -1.618408e-01 6.796674e-01 2.094702e-01 1.495158e-01 -1.303311e-01 -2.893530e-01 -3.629000e-02 4.985059e-01 -9.150814e-02 -2.063651e-01 1.525797e-02 5.079772e-03 -1.455597e-01 1.281880e-01 2.921854e-02
<VARIANCE> 39
 3.654613e+01 3.814306e+01 3.674182e+01 2.080328e+02 6.494370e+01 1.635423e+02 8.615887e+01 8.314150e+01 1.509018e+01 2.139267e+01 2.476138e+01 1.657938e+01 3.657357e+01 1.842925e+00 5.784382e+00 3.248791e+00 8.824201e+00 5.902038e+00 1.241307e+01 4.763264e+00 4.393194e+00 1.662705e+00 2.289399e+00 2.781826e+00 1.952364e+00 4.531616e+00 1.516872e-01 1.130464e+00 3.506084e-01 1.239082e+00 1.318524e+00 2.306342e+00 9.638792e-01 9.145992e-01 3.705458e-01 3.578743e-01 5.737560e-01 3.281595e-01 7.666394e-01
<GCONST> 1.334304e+02
<TRANSP> 5
 0.000000e+00 1.000000e+00 0.000000e+00 0.000000e+00 0.000000e+00
 0.000000e+00 9.569077e-01 4.309226e-02 0.000000e+00 0.000000e+00
 0.000000e+00 0.000000e+00 7.888267e-01 2.111733e-01 0.000000e+00
 0.000000e+00 0.000000e+00 0.000000e+00 7.405767e-01 2.594233e-01
 0.000000e+00 0.000000e+00 0.000000e+00 0.000000e+00 0.000000e+00
<ENDHMM>
~h "p"
<BEGINHMM>
<NUMSTATES> 5
<STATE> 2
<MEAN> 39
 -2.812042e-02 9.849482e-01 -2.225060e+00 -3.202104e+00 -3.625622e+00 -5.758821e+00 -1.333449e+01 -1.122413e+00 -8.496799e+00 1.026114e+00 -3.921120e+00 -1.416886e+00 6.335085e+01 -3.852033e-01 1.552717e-01 -3.439623e-01 4.504987e-01 1.585345e-02 1.793477e-01 1.480481e-01 -1.572765e-01 1.789455e-01 3.565330e-01 1.799735e-02 -8.256770e-02 -5.960294e-01 9.703688e-03 -9.030294e-02 9.793424e-03 -1.441545e-01 -5.372844e-02 -9.793754e-02 5.208702e-02 1.291843e-02 -1.308559e-01 -7.568451e-02 9.838074e-03 -1.185616e-02 1.067539e-01
<VARIANCE> 39
 3.891373e+01 4.972851e+01 3.371417e+01 9.128767e+01 6.895329e+01 9.079584e+01 9.929503e+01 7.300893e+01 5.551534e+01 6.507809e+01 3.470397e+01 3.617956e+01 5.573223e+01 2.021871e+00 2.408007e+00 1.930095e+00 2.871997e+00 2.740210e+00 4.906057e+00 3.152209e+00 3.241900e+00 2.694919e+00 2.725131e+00 2.527048e+00 2.349093e+00 3.240968e+00 2.605121e-01 3.716531e-01 3.089929e-01 5.222177e-01 4.420907e-01 7.810655e-01 5.671141e-01 5.340475e-01 4.676858e-01 4.492973e-01 3.752200e-01 3.783560e-01 3.863238e-01
<GCONST> 1.265449e+02
<STATE> 3
<MEAN> 39
 -8.762072e-01 2.034261e+00 -2.568933e+00 -2.832057e+00 -4.372149e+00 -4.853508e+00 -1.241840e+01 -3.372854e-01 -8.615143e+00 4.948252e-01 -4.120267e+00 -1.576401e+00 6.179119e+01 -5.523978e-01 1.836512e-01 -1.661020e-01 2.461633e-01 -1.728052e-01 3.232697e-01 2.334470e-01 2.765506e-02 1.673930e-01 1.157799e-01 1.257770e-01 8.849365e-02 -6.770253e-01 -1.431325e-02 -4.561835e-02 1.151873e-01 -9.073786e-02 -4.464126e-02 -3.515831e-02 3.981833e-02 5.996708e-02 -7.513131e-02 -5.834395e-02 -1.541116e-03 2.848195e-02 6.940714e-02
<VARIANCE> 39
 3.529867e+01 5.007753e+01 3.372906e+01 9.467362e+01 7.227204e+01 8.259545e+01 9.170277e+01 6.262040e+01 5.435213e+01 6.505135e+01 3.646326e+01 3.916031e+01 4.545366e+01 1.136455e+00 1.872558e+00 1.427882e+00 2.199424e+00 2.477121e+00 3.111269e+00 3.048959e+00 2.720175e+00 2.336208e+00 2.210178e+00 2.114648e+00 2.279410e+00 1.511596e+00 1.634157e-01 3.362403e-01 2.462065e-01 4.101061e-01 4.261702e-01 5.369772e-01 5.538738e-01 4.912859e-01 4.242607e-01 4.081142e-01 3.697049e-01 4.092836e-01 2.479258e-01
<GCONST> 1.205024e+02
<STATE> 4
<MEAN> 39
 -3.917158e+00 3.909814e+00 -1.302359e+00 -5.259347e-01 -5.404331e+00 -2.500053e+00 -9.894006e+00 9.717385e-01 -8.047453e+00 1.989777e-01 -4.250923e+00 -9.243752e-01 5.803316e+01 -5.197554e-01 9.025367e-02 1.230672e-01 2.041273e-01 -1.607671e-01 2.743621e-01 9.461972e-02 1.219852e-01 2.251400e-01 1.286971e-01 1.861597e-01 1.633223e-01 -5.201011e-01 4.621232e-02 -7.584859e-02 9.040995e-02 -7.385170e-02 4.519701e-04 -4.113662e-02 7.613577e-04 2.169907e-02 -7.278142e-02 -5.928742e-02 -4.347011e-02 -8.672692e-03 1.212033e-01
<VARIANCE> 39
 4.114226e+01 4.163832e+01 3.266143e+01 7.044270e+01 5.388936e+01 5.761921e+01 5.219533e+01 4.374565e+01 4.045695e+01 4.919393e+01 4.022391e+01 3.471512e+01 4.105338e+01 8.879016e-01 1.426876e+00 1.138414e+00 1.592535e+00 1.921542e+00 1.988618e+00 2.312843e+00 2.136794e+00 1.981016e+00 1.964824e+00 1.739568e+00 1.679184e+00 8.890394e-01 1.432907e-01 2.947019e-01 2.497118e-01 3.729109e-01 3.523000e-01 3.345993e-01 3.960946e-01 4.201693e-01 3.569566e-01 3.789141e-01 3.239179e-01 3.253054e-01 2.084491e-01
<GCONST> 1.119855e+02
<TRANSP> 5
 0.000000e+00 1.000000e+00 0.000000e+00 0.000000e+00 0.000000e+00
 0.000000e+00 5.578756e-01 4.421244e-01 0.000000e+00 0.000000e+00
 0.000000e+00 0.000000e+00 5.236687e-01 4.763313e-01 0.000000e+00
 0.000000e+00 0.000000e+00 0.000000e+00 7.522721e-01 2.477279e-01
 0.000000e+00 0.000000e+00 0.000000e+00 0.000000e+00 0.000000e+00
<ENDHMM>
~h "r"
<BEGINHMM>
<NUMSTATES> 5
<STATE> 2
<MEAN> 39
 -2.937962e+00 -2.492952e+00 -3.008877e+00 -8.491909e+00 -4.108912e+00 -3.852593e+00 -9.151229e+00 -7.992075e-01 -1.017675e+01 2.984853e-01 -1.078888e-01 1.814485e+00 6.429018e+01 6.643043e-01 -2.627508e-01 -3.877469e-01 -3.941086e-01 7.255855e-02 -2.704133e-01 -1.535979e-01 -4.750148e-02 -2.616718e-01 -1.280982e-01 2.665886e-02 3.131616e-02 6.605794e-01 4.042631e-02 5.710604e-03 5.781376e-02 -4.023808e-02 -4.121714e-03 -1.030970e-01 -2.398806e-02 -1.765431e-02 7.584408e-03 -9.100997e-02 -6.187293e-02 -1.061336e-01 1.031739e-01
<VARIANCE> 39
 8.893314e+01 7.021008e+01 8.571247e+01 9.338277e+01 6.507435e+01 8.370659e+01 6.292037e+01 4.460955e+01 5.785839e+01 4.136113e+01 4.045401e+01 2.615908e+01 9.648846e+01 5.972921e+00 6.274793e+00 6.366100e+00 7.128063e+00 4.580228e+00 5.866119e+00 6.945452e+00 4.147547e+00 6.196590e+00 3.784234e+00 4.064942e+00 3.084273e+00 5.919931e+00 9.565155e-01 1.197273e+00 1.133634e+00 1.269098e+00 7.460034e-01 1.069487e+00 1.309362e+00 7.582763e-01 1.147844e+00 6.661532e-01 7.596126e-01 6.210994e-01 8.129453e-01
<GCONST> 1.458530e+02
<STATE> 3
<MEAN> 39
 -2.775069e-01 -2.569391e+00 -3.624279e+00 -8.903485e+00 -4.748834e+00 -4.781597e+00 -9.221410e+00 -1.413741e+00 -1.085682e+01 -6.763042e-01 -4.608994e-01 1.496587e+00 6.641056e+01 3.608335e-01 1.780374e-02 -1.532210e-01 -1.010996e-01 6.692874e-03 -9.852634e-02 -2.133147e-01 2.250517e-02 1.505903e-01 -1.989438e-01 -1.089243e-01 -2.316881e-01 3.040224e-01 -9.486289e-02 4.123866e-02 9.022465e-02 8.599091e-03 2.130239e-02 -1.143101e-02 5.925869e-03 1.815759e-02 8.971541e-02 -1.639698e-02 -3.801788e-02 -4.299331e-02 -5.627629e-02
<VARIANCE> 39
 7.243679e+01 6.562707e+01 7.433032e+01 8.700561e+01 6.537580e+01 7.614787e+01 8.336768e+01 4.863428e+01 6.124721e+01 4.222223e+01 4.777589e+01 2.950202e+01 7.457642e+01 5.151209e+00 6.106549e+00 4.823792e+00 5.750372e+00 4.022830e+00 5.614772e+00 6.904987e+00 4.600075e+00 5.268771e+00 3.845315e+00 3.977884e+00 3.049551e+00 5.998631e+00 7.270712e-01 1.041042e+00 8.691215e-01 1.092187e+00 7.153654e-01 9.994088e-01 1.142694e+00 7.744345e-01 1.017419e+00 6.964509e-01 7.361041e-01 5.994313e-01 7.731421e-01
<GCONST> 1.435943e+02
<STATE> 4
<MEAN> 39
 -1.621702e+00 -1.740667e+00 -2.514899e+00 -5.652245e+00 -5.288657e+00 -4.979460e+00 -8.725152e+00 -2.193022e+00 -1.114369e+01 9.695306e-01 -1.452829e+00 -2.489061e-02 6.451397e+01 8.932590e-03 -2.134746e-01 1.254846e-02 -2.168202e-01 8.363491e-02 -1.006035e-01 4.255876e-02 -8.804686e-02 1.509100e-01 -3.040575e-02 -7.432961e-02 -6.178117e-02 2.427616e-01 -1.706225e-02 -3.586552e-02 4.749420e-02 -6.431259e-02 2.760934e-02 -7.807299e-02 3.699390e-02 -1.107891e-02 -5.631106e-02 -2.054146e-02 -5.617975e-03 2.009930e-02 5.182625e-02
<VARIANCE> 39
 7.620191e+01 7.478725e+01 6.573330e+01 8.626690e+01 6.413152e+01 7.990388e+01 7.790742e+01 6.187670e+01 6.034845e+01 4.496535e+01 3.632632e+01 3.360834e+01 8.471423e+01 3.878528e+00 5.475163e+00 3.451350e+00 5.101521e+00 3.303256e+00 5.947335e+00 5.705490e+00 4.428424e+00 4.480199e+00 3.402034e+00 3.081149e+00 2.977067e+00 5.439169e+00 5.409355e-01 7.652393e-01 6.248309e-01 8.449942e-01 5.619640e-01 9.758286e-01 1.066916e+00 7.676703e-01 8.323772e-01 5.766221e-01 5.665755e-01 5.384541e-01 6.933089e-01
<GCONST> 1.395999e+02
<TRANSP> 5
 0.000000e+00 1.000000e+00 0.000000e+00 0.000000e+00 0.000000e+00
 0.000000e+00 7.916424e-01 2.083576e-01 0.000000e+00 0.000000e+00
 0.000000e+00 0.000000e+00 6.900241e-01 3.099759e-01 0.000000e+00
 0.000000e+00 0.000000e+00 0.000000e+00 8.443441e-01 1.556559e-01
 0.000000e+00 0.000000e+00 0.000000e+00 0.000000e+00 0.000000e+00
<ENDHMM>
~h "s"
<BEGINHMM>
<NUMSTATES> 5
<STATE> 2
<MEAN> 39
 -2.145388e+01 -6.805362e+00 1.391039e+01 -1.659458e+01 3.886605e+00 -4.881100e+00 -4.645018e+00 -7.084256e+00 -2.253990e+00 -2.367222e-02 -1.601263e+00 -2.808931e-01 6.985062e+01 -1.820742e+00 -5.836042e-01 9.699038e-01 -1.048181e+00 5.754583e-01 3.782707e-02 6.574413e-01 -1.741013e-01 8.487413e-01 -5.886177e-02 1.960541e-01 1.302059e-01 4.912769e-01 3.588819e-01 6.850994e-02 -3.116859e-01 1.706605e-01 -1.044833e-01 -1.444822e-01 -1.106308e-01 7.580774e-02 -1.894954e-01 1.589992e-02 -2.817352e-02 -7.491010e-03 -3.984301e-02
<VARIANCE> 39
 9.453285e+01 5.579311e+01 7.960816e+01 8.068623e+01 5.034517e+01 5.555155e+01 6.171307e+01 4.874143e+01 5.021578e+01 3.811771e+01 2.701840e+01 2.170761e+01 6.753394e+01 6.824695e+00 2.608684e+00 6.657325e+00 5.681716e+00 2.945431e+00 4.266874e+00 4.672440e+00 2.860274e+00 4.806854e+00 2.463942e+00 2.225471e+00 1.835610e+00 1.963469e+00 7.707922e-01 4.389009e-01 1.159083e+00 9.080573e-01 4.930977e-01 7.920184e-01 8.477436e-01 5.564818e-01 7.645540e-01 4.675757e-01 4.118701e-01 3.343520e-01 2.470120e-01
<GCONST> 1.321608e+02
<STATE> 3
<MEAN> 39
 -2.208677e+01 -7.287600e+00 1.406802e+01 -1.745732e+01 3.738717e+00 -5.373758e+00 -4.052841e+00 -6.616693e+00 -2.641024e+00 -1.050678e-02 -1.874112e+00 4.539157e-01 7.000623e+01 8.479903e-01 -9.045342e-02 -5.246930e-01 3.821178e-03 -3.253152e-01 -1.431649e-01 -1.506069e-01 1.809100e-01 -3.787394e-01 8.452553e-02 -9.538686e-02 2.071616e-01 -1.037868e-02 5.748392e-01 1.351098e-01 -3.188606e-01 1.981035e-01 -1.735845e-01 -2.253933e-02 -1.816596e-01 8.309071e-02 -3.088719e-01 -1.202124e-02 -4.943330e-02 1.331370e-02 -8.607117e-02
<VARIANCE> 39
 1.124952e+02 5.988428e+01 7.763179e+01 7.313305e+01 5.245938e+01 4.796284e+01 5.309350e+01 4.084474e+01 4.413933e+01 4.326143e+01 2.670281e+01 2.186025e+01 5.506188e+01 1.041576e+01 3.283085e+00 6.151108e+00 4.453836e+00 3.791919e+00 3.558350e+00 4.347275e+00 2.861978e+00 4.883536e+00 2.592605e+00 2.237570e+00 1.647855e+00 2.842187e+00 1.099853e+00 5.716116e-01 8.505506e-01 7.041221e-01 5.255128e-01 6.796995e-01 7.256640e-01 5.092980e-01 8.163301e-01 4.884300e-01 4.422627e-01 3.427242e-01 3.207539e-01
<GCONST> 1.324904e+02
<STATE> 4
<MEAN> 39
 -1.512392e+01 -5.780932e+00 8.994939e+00 -1.228266e+01 1.424013e-01 -3.561276e+00 -6.345426e+00 -4.172843e+00 -5.788868e+00 1.395937e+00 -3.054258e+00 1.507732e+00 6.583497e+01 1.545117e+00 4.990040e-01 -9.912621e-01 7.400299e-01 -7.420938e-01 1.177243e-01 -4.780513e-01 3.490133e-01 -7.805306e-01 -6.022309e-02 -1.076865e-01 7.495063e-02 -4.618521e-01 8.607566e-02 9.486821e-02 2.143247e-02 4.791170e-02 1.116311e-02 -4.648728e-02 -2.054647e-02 -1.949920e-02 -1.043171e-01 -9.833685e-02 -1.387070e-02 -4.274231e-02 4.051876e-02
<VARIANCE> 39
 1.353267e+02 8.244172e+01 8.999307e+01 9.747084e+01 7.847083e+01 5.710641e+01 4.775841e+01 4.159912e+01 4.122261e+01 4.200242e+01 2.424538e+01 1.835352e+01 9.117266e+01 5.324438e+00 3.595380e+00 4.204584e+00 3.439640e+00 2.790323e+00 3.447950e+00 3.461072e+00 2.535292e+00 3.810537e+00 2.431525e+00 2.276412e+00 1.738655e+00 2.296075e+00 6.839101e-01 6.002941e-01 5.292066e-01 5.000589e-01 4.438300e-01 6.470666e-01 6.122723e-01 4.830240e-01 6.520839e-01 4.679185e-01 4.309931e-01 3.186665e-01 2.678126e-01
<GCONST> 1.294628e+02
<TRANSP> 5
 0.000000e+00 1.000000e+00 0.000000e+00 0.000000e+00 0.000000e+00
 0.000000e+00 8.204439e-01 1.795560e-01 0.000000e+00 0.000000e+00
 0.000000e+00 0.000000e+00 7.499003e-01 2.500997e-01 0.000000e+00
 0.000000e+00 0.000000e+00 0.000000e+00 7.556713e-01 2.443287e-01
 0.000000e+00 0.000000e+00 0.000000e+00 0.000000e+00 0.000000e+00
<ENDHMM>
~h "t"
<BEGINHMM>
<NUMSTATES> 5
<STATE> 2
<MEAN> 39
 -4.839205e-01 -1.797155e+00 -2.272673e+00 -8.095304e+00 -7.959328e+00 -5.241587e+00 -7.382301e+00 3.677180e-01 -8.475421e+00 -7.406222e-01 -2.572181e+00 5.358063e-01 6.571783e+01 -6.624638e-02 -3.561336e-01 1.904795e-02 -6.199399e-02 -1.133190e-01 1.322701e-01 1.869483e-01 2.295174e-02 -1.239190e-01 -1.934468e-02 7.205353e-02 1.473012e-01 7.658657e-02 5.225770e-02 -2.460728e-04 -2.064168e-02 -6.705914e-02 6.798488e-03 -2.239800e-02 7.929382e-03 -3.023785e-03 -1.193343e-01 1.822439e-02 -3.093286e-02 -5.218015e-03 4.221857e-02
<VARIANCE> 39
 6.033768e+01 8.170390e+01 4.945982e+01 9.005595e+01 9.409748e+01 7.702811e+01 7.691735e+01 5.158962e+01 6.004959e+01 4.683958e+01 3.790601e+01 2.937861e+01 8.785426e+01 3.623844e+00 9.244306e+00 3.445332e+00 8.090363e+00 3.880293e+00 5.562658e+00 3.917468e+00 4.179142e+00 3.973577e+00 3.628001e+00 3.253588e+00 2.299539e+00 8.546060e+00 5.624796e-01 1.349185e+00 6.614166e-01 1.304598e+00 6.923751e-01 9.365276e-01 7.036524e-01 8.338920e-01 7.434882e-01 6.366178e-01 5.971907e-01 4.019647e-01 1.109472e+00
<GCONST> 1.412617e+02
<STATE> 3
<MEAN> 39
 -9.678122e-01 -1.516470e+00 -2.314036e+00 -7.440020e+00 -7.688363e+00 -4.653270e+00 -7.261933e+00 1.551400e-01 -9.358960e+00 -2.696859e-01 -2.661338e+00 5.762689e-01 6.484779e+01 -1.168442e-01 3.733108e-02 7.489290e-02 3.720914e-02 -1.248545e-01 1.334749e-01 -4.316332e-03 -4.511878e-02 -3.467647e-01 6.343745e-02 -3.044962e-02 4.523147e-02 -2.139194e-01 6.391376e-02 8.861576e-02 4.138255e-02 -9.245597e-02 -5.232221e-03 -1.015580e-01 -6.449293e-02 -1.742221e-02 -1.050317e-01 -4.656597e-02 -5.023168e-02 -4.200695e-02 5.181169e-02
<VARIANCE> 39
 5.072310e+01 8.383057e+01 4.760799e+01 8.138812e+01 9.020860e+01 6.708127e+01 7.388290e+01 4.839593e+01 6.001415e+01 4.386564e+01 3.461489e+01 2.688740e+01 7.762059e+01 3.448547e+00 8.583480e+00 3.154474e+00 7.362888e+00 3.723307e+00 5.298221e+00 3.996238e+00 4.227223e+00 5.010913e+00 3.582081e+00 3.076171e+00 2.172949e+00 8.190878e+00 4.522563e-01 1.373206e+00 5.462208e-01 1.150719e+00 6.343258e-01 8.535243e-01 6.628302e-01 8.055692e-01 7.885784e-01 6.686774e-01 5.161286e-01 3.859563e-01 9.334847e-01
<GCONST> 1.389764e+02
<STATE> 4
<MEAN> 39
 -2.929060e+00 3.160470e-01 -2.924411e+00 -5.533159e+00 -8.843022e+00 -3.269408e+00 -7.388449e+00 1.369727e-01 -9.358624e+00 7.371711e-01 -2.149218e+00 4.995936e-01 6.112716e+01 -1.651693e-01 4.171594e-02 3.371553e-01 -7.018684e-02 5.872390e-02 -2.709090e-02 -1.429908e-01 -1.337353e-01 -3.363622e-01 -8.351804e-02 -1.403543e-01 -6.144045e-02 -3.569703e-02 6.640630e-02 -1.831642e-02 1.305690e-01 -1.180289e-01 6.910928e-02 -1.488262e-01 -2.410109e-02 -1.705938e-02 -8.319803e-02 -8.779933e-02 -5.620179e-02 -7.832491e-02 1.874120e-01
<VARIANCE> 39
 4.207359e+01 6.935402e+01 3.955262e+01 6.791240e+01 6.555213e+01 4.983987e+01 5.524397e+01 4.071320e+01 5.183093e+01 3.616520e+01 2.703569e+01 2.369202e+01 7.271649e+01 2.684042e+00 6.175963e+00 2.824322e+00 5.188939e+00 3.251272e+00 3.940040e+00 3.241721e+00 3.489961e+00 4.646580e+00 3.139399e+00 2.428520e+00 2.069527e+00 5.989026e+00 3.559582e-01 1.148165e+00 4.561373e-01 8.548119e-01 5.461621e-01 6.192889e-01 5.449589e-01 7.144914e-01 6.608343e-01 6.055143e-01 4.340746e-01 3.684619e-01 7.453846e-01
<GCONST> 1.312937e+02
<TRANSP> 5
 0.000000e+00 1.000000e+00 0.000000e+00 0.000000e+00 0.000000e+00
 0.000000e+00 6.007215e-01 3.992786e-01 0.000000e+00 0.000000e+00
 0.000000e+00 0.000000e+00 5.250163e-01 4.749837e-01 0.000000e+00
 0.000000e+00 0.000000e+00 0.000000e+00 6.597070e-01 3.402930e-01
 0.000000e+00 0.000000e+00 0.000000e+00 0.000000e+00 0.000000e+00
<ENDHMM>
~h "u"
<BEGINHMM>
<NUMSTATES> 5
<STATE> 2
<MEAN> 39
 7.276055e-01 2.078417e+00 3.185889e+00 -8.788586e+00 -5.099689e+00 -7.097241e+00 -1.095727e+01 2.182034e+00 -1.577454e+01 -4.849607e+00 -6.078683e+00 -3.543146e+00 6.656059e+01 3.390941e-01 4.955100e-01 1.659237e-01 -2.701986e-01 -3.982026e-01 -4.037578e-01 5.093401e-02 4.103606e-01 -2.093603e-01 -3.887278e-01 -3.033655e-01 -4.015644e-01 9.390083e-02 -1.005290e-01 -2.892268e-03 -6.498027e-02 7.092732e-02 2.436255e-02 -3.105569e-02 2.308236e-02 6.612432e-02 1.606884e-01 7.990023e-02 4.265910e-02 2.161017e-02 -9.036012e-02
<VARIANCE> 39
 3.946301e+01 8.298804e+01 5.514162e+01 9.298006e+01 8.526825e+01 8.950251e+01 9.295710e+01 6.327925e+01 1.053121e+02 6.846933e+01 5.113403e+01 4.828748e+01 4.806428e+01 2.921521e+00 6.280749e+00 3.083943e+00 6.196867e+00 4.402261e+00 7.361935e+00 5.441714e+00 5.137394e+00 6.883515e+00 4.822861e+00 4.137332e+00 3.568072e+00 4.501001e+00 3.909413e-01 1.131863e+00 4.812968e-01 1.017487e+00 7.201598e-01 1.042620e+00 8.958361e-01 9.561963e-01 9.709527e-01 8.459233e-01 7.160569e-01 5.635459e-01 6.424363e-01
<GCONST> 1.433512e+02
<STATE> 3
<MEAN> 39
 9.227509e-01 2.983208e+00 3.388061e+00 -8.855598e+00 -5.689232e+00 -7.893726e+00 -1.093761e+01 3.164475e+00 -1.546762e+01 -5.210716e+00 -6.353335e+00 -4.134283e+00 6.633581e+01 -2.945689e-03 1.312929e-01 1.755147e-02 2.783988e-02 -9.282715e-02 -2.202080e-01 4.073559e-02 1.960501e-01 4.975777e-02 -3.823545e-02 -4.907772e-02 -1.173302e-01 -4.930284e-02 -8.803303e-02 -1.011193e-01 -1.241794e-03 8.586080e-02 8.954536e-02 6.581822e-02 1.212011e-02 -9.201882e-02 8.453234e-02 1.006282e-01 3.311630e-02 7.512571e-02 -1.790375e-02
<VARIANCE> 39
 3.753522e+01 6.894547e+01 5.739804e+01 9.636579e+01 9.740608e+01 9.141347e+01 9.675285e+01 6.358369e+01 1.095549e+02 6.809872e+01 5.408147e+01 5.170831e+01 4.524055e+01 2.367090e+00 5.132309e+00 2.569081e+00 5.820220e+00 4.927398e+00 6.564263e+00 5.338548e+00 4.889567e+00 5.387019e+00 3.979277e+00 3.569493e+00 3.077298e+00 3.157628e+00 3.360820e-01 8.784591e-01 4.324165e-01 9.643405e-01 7.816952e-01 9.361263e-01 8.512347e-01 8.236352e-01 9.011806e-01 7.165992e-01 6.511784e-01 5.195298e-01 5.068752e-01
<GCONST> 1.402276e+02
<STATE> 4
<MEAN> 39
 4.717695e-01 3.060821e+00 4.222410e+00 -6.762106e+00 -8.519394e+00 -1.086326e+01 -8.959111e+00 3.864700e+00 -1.763769e+01 -4.687636e+00 -6.776695e+00 -6.025666e+00 6.557241e+01 -1.632143e-01 -1.134834e-01 -1.391250e-01 3.137307e-01 3.002867e-01 3.096482e-01 -1.203941e-01 -3.260289e-01 3.103628e-01 1.112301e-01 1.305673e-01 2.685741e-01 -1.502980e-01 -3.013401e-02 -5.280666e-02 2.040374e-02 -4.348442e-04 5.147943e-02 4.684205e-02 1.631866e-02 -8.142864e-02 4.456833e-02 4.790829e-02 -9.185119e-03 3.496270e-02 2.490203e-02
<VARIANCE> 39
 3.281466e+01 6.383785e+01 5.689486e+01 8.975418e+01 1.099209e+02 1.165646e+02 8.395735e+01 6.613317e+01 1.220407e+02 5.696394e+01 4.753297e+01 6.143471e+01 4.829917e+01 1.674863e+00 4.424486e+00 2.409019e+00 4.828794e+00 4.443788e+00 5.286955e+00 4.324998e+00 4.937704e+00 5.113378e+00 3.836637e+00 2.848962e+00 2.728215e+00 2.453011e+00 2.541976e-01 7.435372e-01 4.148527e-01 7.686648e-01 6.858243e-01 8.494777e-01 7.071737e-01 7.917403e-01 8.119390e-01 6.793020e-01 5.018938e-01 4.654743e-01 3.580846e-01
<GCONST> 1.362404e+02
<TRANSP> 5
 0.000000e+00 1.000000e+00 0.000000e+00 0.000000e+00 0.000000e+00
 0.000000e+00 6.035020e-01 3.964980e-01 0.000000e+00 0.000000e+00
 0.000000e+00 0.000000e+00 6.002038e-01 3.997963e-01 0.000000e+00
 0.000000e+00 0.000000e+00 0.000000e+00 8.196546e-01 1.803454e-01
 0.000000e+00 0.000000e+00 0.000000e+00 0.000000e+00 0.000000e+00
<ENDHMM>
~h "w"
<BEGINHMM>
<NUMSTATES> 5
<STATE> 2
<MEAN> 39
 -4.580362e-01 2.990151e+00 -3.010288e+00 -9.382026e+00 -1.751866e+01 -4.991386e+00 -4.074309e+00 3.324099e+00 -7.024230e+00 -1.134189e+00 -1.670584e+00 -5.744690e-01 6.162962e+01 -4.998597e-01 3.735137e-01 2.269780e-01 4.749868e-01 -3.813829e-01 -1.612711e-01 3.602545e-02 -3.137263e-01 2.127151e-01 1.582353e-01 7.451965e-02 8.870519e-02 -6.043522e-01 4.039979e-02 -1.308171e-01 2.015810e-02 -1.525278e-01 3.171286e-02 -8.398210e-02 -9.053873e-02 -1.926153e-02 -9.719711e-03 -6.233837e-02 -5.659527e-03 -7.043909e-03 1.484302e-01
<VARIANCE> 39
 3.469150e+01 3.187665e+01 3.695513e+01 4.128192e+01 8.048531e+01 2.943317e+01 9.116549e+01 3.501046e+01 4.724986e+01 5.485062e+01 3.254665e+01 1.659249e+01 4.189336e+01 2.908537e+00 3.313721e+00 3.502937e+00 3.076993e+00 5.092188e+00 2.326656e+00 7.072153e+00 2.329215e+00 2.469934e+00 4.655445e+00 2.471628e+00 1.742759e+00 3.760109e+00 3.327147e-01 6.355738e-01 6.737336e-01 5.687512e-01 9.111115e-01 4.274155e-01 1.440195e+00 4.214782e-01 3.846985e-01 8.763890e-01 4.480061e-01 3.008685e-01 4.435673e-01
<GCONST> 1.270258e+02
<STATE> 3
<MEAN> 39
 7.595473e-02 3.298546e+00 -2.598384e+00 -6.840806e+00 -1.596362e+01 -5.677707e+00 -6.341518e+00 1.482427e+00 -7.075074e+00 -1.255623e+00 -1.136190e+00 -6.755120e-01 6.182955e+01 -5.774634e-01 2.385081e-01 -1.145679e-01 2.804823e-01 -2.585938e-01 -1.294800e-01 -1.982065e-01 -3.289573e-01 2.593288e-01 3.822679e-01 7.423344e-02 8.138342e-02 -7.203649e-01 7.904979e-02 -1.882297e-01 4.554263e-02 -3.110114e-01 1.691388e-01 -1.572045e-03 3.661568e-02 9.291740e-02 -1.461820e-01 -8.260878e-02 -1.912220e-01 -1.767823e-02 2.445220e-01
<VARIANCE> 39
 4.076540e+01 5.045132e+01 4.194157e+01 3.558588e+01 9.142666e+01 4.306416e+01 7.805875e+01 4.541032e+01 5.469803e+01 4.232528e+01 2.336889e+01 2.342293e+01 5.370323e+01 2.042473e+00 2.637545e+00 2.107023e+00 2.183379e+00 3.443803e+00 2.075253e+00 4.314388e+00 2.179650e+00 2.863893e+00 2.551514e+00 1.990234e+00 1.407616e+00 2.558243e+00 3.040909e-01 4.564840e-01 4.165410e-01 5.946497e-01 6.520430e-01 3.849236e-01 8.189726e-01 4.557228e-01 4.421132e-01 5.559509e-01 3.835463e-01 2.666763e-01 4.484455e-01
<GCONST> 1.222544e+02
<STATE> 4
<MEAN> 39
 -3.460673e+00 4.942702e+00 -2.390943e+00 -4.396380e+00 -1.455859e+01 -5.228110e+00 -7.011547e+00 4.989921e-01 -7.069006e+00 5.867822e-01 -2.531925e+00 -8.084958e-01 5.771250e+01 -5.859056e-01 -3.312736e-01 1.017015e-01 -3.645158e-02 5.436956e-01 1.613022e-01 -1.646897e-01 -1.279758e-01 7.228214e-02 1.408041e-01 -1.954049e-01 2.336918e-01 -2.402654e-01 2.136612e-01 -1.113565e-01 2.028726e-01 -2.353131e-01 1.975601e-01 -1.177165e-02 2.457064e-03 -2.584895e-02 -1.409376e-01 -1.205523e-01 -2.911459e-02 3.016301e-02 3.834876e-01
<VARIANCE> 39
 4.142779e+01 4.744775e+01 3.701888e+01 2.367203e+01 6.756455e+01 4.143361e+01 4.960331e+01 2.905298e+01 3.642693e+01 1.545220e+01 1.614250e+01 2.171809e+01 4.462850e+01 1.060177e+00 1.823707e+00 1.273731e+00 2.339220e+00 2.783147e+00 1.458674e+00 3.426597e+00 1.705512e+00 2.526268e+00 1.377204e+00 1.216125e+00 1.273934e+00 2.079216e+00 3.033794e-01 3.395720e-01 2.772005e-01 4.740630e-01 6.000248e-01 2.514229e-01 7.514193e-01 4.176808e-01 4.464850e-01 3.200207e-01 2.778114e-01 2.215883e-01 4.538249e-01
<GCONST> 1.116961e+02
<TRANSP> 5
 0.000000e+00 1.000000e+00 0.000000e+00 0.000000e+00 0.000000e+00
 0.000000e+00 7.787885e-01 2.212114e-01 0.000000e+00 0.000000e+00
 0.000000e+00 0.000000e+00 6.157385e-01 3.842615e-01 0.000000e+00
 0.000000e+00 0.000000e+00 0.000000e+00 7.458330e-01 2.541670e-01
 0.000000e+00 0.000000e+00 0.000000e+00 0.000000e+00 0.000000e+00
<ENDHMM>
~h "eu"
<BEGINHMM>
<NUMSTATES> 5
<STATE> 2
<MEAN> 39
 -4.656398e+00 -1.957853e+00 5.595479e+00 -1.231616e+01 -9.112044e-01 -6.267823e+00 -8.332852e+00 -3.125928e+00 -1.303136e+01 -3.677855e+00 -3.607182e+00 1.557692e+00 6.886720e+01 9.418272e-01 6.381353e-02 -2.997722e-01 -5.115863e-01 -7.204760e-02 -4.572007e-01 -5.240710e-02 4.939820e-02 -6.499484e-01 -2.627028e-01 5.499613e-02 1.751718e-01 5.716642e-01 -6.003072e-02 2.583065e-02 -4.604893e-02 7.493664e-02 6.084096e-02 -5.600255e-02 2.781212e-02 5.331196e-02 1.221274e-01 4.138721e-02 -3.292667e-02 -6.642564e-02 1.546900e-03
<VARIANCE> 39
 1.377131e+02 6.679037e+01 8.798943e+01 1.091190e+02 6.959555e+01 7.216837e+01 8.346718e+01 8.001844e+01 1.020524e+02 6.360009e+01 4.147366e+01 2.904513e+01 4.782942e+01 1.046961e+01 5.940358e+00 6.765318e+00 8.168386e+00 4.288473e+00 6.907105e+00 7.843248e+00 4.736658e+00 8.390585e+00 3.911250e+00 3.702423e+00 2.434948e+00 3.857243e+00 1.193621e+00 9.037191e-01 1.033066e+00 1.346411e+00 6.702345e-01 1.138716e+00 1.376768e+00 9.145866e-01 1.222019e+00 6.908519e-01 6.518118e-01 4.933750e-01 5.943784e-01
<GCONST> 1.477692e+02
<STATE> 3
<MEAN> 39
 -1.183578e+00 -1.616886e+00 3.694756e+00 -1.273670e+01 -1.026771e+00 -7.695923e+00 -8.949225e+00 -2.532253e+00 -1.463354e+01 -4.319702e+00 -3.713589e+00 1.565113e+00 7.057922e+01 9.178525e-01 7.183810e-02 -5.565638e-01 -7.722642e-04 -5.421505e-02 -3.302141e-01 -2.556105e-01 2.781898e-01 -3.198327e-01 -1.901265e-02 -9.538166e-02 4.968800e-02 3.101738e-01 -2.052634e-01 1.677319e-02 4.064120e-02 1.474273e-01 4.375056e-02 8.723377e-02 3.235036e-02 3.293142e-02 1.922950e-01 8.410610e-02 -1.629039e-02 -4.412095e-02 -1.398761e-01
<VARIANCE> 39
 9.287623e+01 5.273351e+01 6.902950e+01 1.003417e+02 5.964770e+01 7.316037e+01 8.931097e+01 7.955400e+01 1.054616e+02 6.124341e+01 4.421294e+01 2.928904e+01 3.948988e+01 7.286521e+00 4.909220e+00 4.793205e+00 6.740263e+00 3.831391e+00 6.058674e+00 6.735524e+00 4.316407e+00 7.329773e+00 3.612276e+00 3.306858e+00 2.404547e+00 3.298394e+00 1.051555e+00 8.043290e-01 7.948561e-01 1.126643e+00 5.689866e-01 1.002365e+00 1.112760e+00 7.984145e-01 1.173664e+00 6.327892e-01 6.047308e-01 4.678267e-01 5.049762e-01
<GCONST> 1.427910e+02
<STATE> 4
<MEAN> 39
 2.587463e+00 -7.544894e-01 8.546597e-01 -9.873199e+00 -1.464922e+00 -9.117412e+00 -9.707229e+00 -7.436258e-01 -1.675291e+01 -3.990328e+00 -4.464866e+00 1.385258e+00 7.027091e+01 1.490768e-01 2.412264e-01 -2.288330e-01 3.242400e-01 3.912704e-02 7.155149e-02 -2.081430e-01 1.637349e-01 3.300869e-01 1.057570e-01 -8.731734e-02 4.370582e-02 -2.129040e-01 -1.390355e-01 6.632301e-03 6.032350e-02 5.352046e-02 -1.941744e-02 8.735622e-02 3.687525e-02 -5.269046e-02 9.941100e-02 -8.359855e-03 2.261226e-02 -1.152708e-02 -7.524984e-02
<VARIANCE> 39
 2.982329e+01 5.783823e+01 3.963577e+01 9.635105e+01 6.011856e+01 7.578410e+01 8.494621e+01 6.621826e+01 8.775096e+01 5.427614e+01 4.449805e+01 2.947388e+01 4.006199e+01 1.981784e+00 3.813729e+00 2.720667e+00 5.034754e+00 2.838853e+00 4.387161e+00 5.047077e+00 3.477930e+00 5.125481e+00 3.094237e+00 2.693113e+00 2.274732e+00 2.679500e+00 3.033325e-01 5.908373e-01 4.274827e-01 7.974526e-01 4.689459e-01 7.946115e-01 8.757200e-01 5.595645e-01 9.147221e-01 4.950184e-01 4.945846e-01 3.936424e-01 3.991777e-01
<GCONST> 1.315214e+02
<TRANSP> 5
 0.000000e+00 1.000000e+00 0.000000e+00 0.000000e+00 0.000000e+00
 0.000000e+00 6.365648e-01 3.634352e-01 0.000000e+00 0.000000e+00
 0.000000e+00 0.000000e+00 6.204185e-01 3.795815e-01 0.000000e+00
 0.000000e+00 0.000000e+00 0.000000e+00 6.945760e-01 3.054240e-01
 0.000000e+00 0.000000e+00 0.000000e+00 0.000000e+00 0.000000e+00
<ENDHMM>
~h "ng"
<BEGINHMM>
<NUMSTATES> 5
<STATE> 2
<MEAN> 39
 -8.432080e-01 -1.308947e-01 2.457388e+00 -9.185928e+00 -3.835261e+00 -5.115999e+00 -8.693837e+00 -1.897480e+00 -1.228373e+01 -3.074001e+00 -4.163553e+00 1.714158e+00 6.721962e+01 -3.703634e-01 -4.410011e-01 3.208448e-01 -1.607039e-01 1.708906e-01 1.052804e-01 1.713309e-01 -3.181334e-01 1.801642e-02 1.490444e-01 1.046693e-01 -8.013351e-02 1.918565e-01 -1.559284e-02 -8.975146e-02 7.830052e-02 -1.197572e-01 3.338132e-02 -1.264235e-01 -1.427103e-03 4.304730e-03 -3.138759e-02 -1.288685e-02 -1.901902e-02 -6.194852e-02 1.271589e-01
<VARIANCE> 39
 6.568315e+01 6.533810e+01 6.594743e+01 8.822040e+01 7.031018e+01 6.305336e+01 8.235853e+01 6.032995e+01 6.878763e+01 4.379471e+01 4.698796e+01 3.224501e+01 5.191036e+01 5.209647e+00 8.083833e+00 6.282425e+00 8.055194e+00 4.611033e+00 5.899698e+00 9.018655e+00 5.061140e+00 6.804074e+00 4.028831e+00 3.760293e+00 2.955379e+00 5.958484e+00 8.631601e-01 1.376294e+00 1.277685e+00 1.551794e+00 8.427756e-01 1.073552e+00 1.680259e+00 1.019885e+00 1.235691e+00 8.281797e-01 7.415204e-01 5.746698e-01 9.710122e-01
<GCONST> 1.476300e+02
<STATE> 3
<MEAN> 39
 -2.525957e+00 -2.007515e+00 4.408834e+00 -9.577203e+00 -3.126122e+00 -5.622235e+00 -8.490700e+00 -2.964841e+00 -1.208209e+01 -2.138512e+00 -3.737410e+00 9.057915e-01 6.816563e+01 3.541746e-02 -4.930427e-01 2.080315e-01 -3.561400e-01 7.564988e-02 -4.240491e-01 -8.326815e-03 -1.099299e-01 -2.001118e-01 6.158245e-02 6.620682e-02 -1.320865e-01 5.200927e-01 1.194623e-01 6.125253e-02 -6.544577e-02 1.813547e-02 -3.668237e-02 -9.585544e-02 -6.800358e-02 5.051107e-02 -4.876902e-02 -4.338552e-04 -6.026987e-03 -8.687557e-03 8.846217e-03
<VARIANCE> 39
 7.585901e+01 6.934956e+01 9.549030e+01 9.069136e+01 7.308736e+01 7.001317e+01 9.582018e+01 6.342068e+01 6.782013e+01 4.098472e+01 5.557644e+01 3.186507e+01 5.161968e+01 7.706362e+00 8.528932e+00 8.400723e+00 9.466712e+00 4.512263e+00 7.665776e+00 9.461195e+00 5.945338e+00 6.861363e+00 4.372660e+00 4.188316e+00 2.615775e+00 6.333731e+00 1.354294e+00 1.500827e+00 1.674410e+00 1.765606e+00 8.208797e-01 1.214975e+00 1.811667e+00 1.149764e+00 1.256139e+00 8.361538e-01 8.024355e-01 5.466974e-01 9.505250e-01
<GCONST> 1.513924e+02
<STATE> 4
<MEAN> 39
 -8.070858e-01 -1.639211e+00 3.619193e+00 -8.387530e+00 -3.658423e+00 -7.787815e+00 -9.760268e+00 -2.803637e+00 -1.574148e+01 -1.506541e+00 -4.891630e+00 -7.425516e-01 6.799726e+01 6.903663e-02 -3.247123e-02 -5.370270e-03 -4.301396e-02 -8.054550e-03 -1.016204e-01 -9.427996e-02 2.989580e-03 -2.733878e-02 4.715011e-02 2.215624e-02 -2.382710e-02 6.895522e-02 -2.471032e-03 3.103359e-02 -1.412182e-02 2.080900e-02 -2.920880e-02 3.016430e-02 -8.116618e-03 3.278018e-02 5.064330e-02 -1.076478e-03 -5.383668e-03 -4.071535e-04 -3.563805e-02
<VARIANCE> 39
 3.865967e+01 8.555896e+01 6.374625e+01 8.644308e+01 6.888230e+01 8.123747e+01 9.915836e+01 6.180111e+01 8.088970e+01 5.280648e+01 4.217477e+01 3.240093e+01 6.067355e+01 4.025292e+00 8.546146e+00 4.698276e+00 7.822987e+00 3.756190e+00 7.793268e+00 7.736202e+00 4.932308e+00 6.918207e+00 4.191159e+00 3.464727e+00 2.638274e+00 5.549438e+00 6.717206e-01 1.530032e+00 8.240898e-01 1.378032e+00 6.442733e-01 1.297964e+00 1.420481e+00 9.358845e-01 1.186006e+00 7.841756e-01 6.321961e-01 5.072033e-01 7.998379e-01
<GCONST> 1.457128e+02
<TRANSP> 5
 0.000000e+00 1.000000e+00 0.000000e+00 0.000000e+00 0.000000e+00
 0.000000e+00 8.098943e-01 1.901058e-01 0.000000e+00 0.000000e+00
 0.000000e+00 0.000000e+00 8.424150e-01 1.575850e-01 0.000000e+00
 0.000000e+00 0.000000e+00 0.000000e+00 9.500263e-01 4.997366e-02
 0.000000e+00 0.000000e+00 0.000000e+00 0.000000e+00 0.000000e+00
<ENDHMM>
~h "wa"
<BEGINHMM>
<NUMSTATES> 5
<STATE> 2
<MEAN> 39
 2.418709e+00 6.359289e+00 5.253063e+00 -1.368725e+01 -1.186793e+00 -5.758114e+00 -1.945703e+01 5.876101e+00 -1.521417e+01 -8.905496e+00 -7.878797e+00 -2.643018e+00 6.686988e+01 5.090551e-01 2.270695e-01 -1.782565e-02 -4.507784e-01 1.429490e-01 -5.976771e-02 -3.058770e-01 3.671282e-01 -3.045847e-01 -5.831739e-01 -1.441164e-01 -2.321806e-01 3.671782e-01 -4.362094e-02 -2.758922e-02 -9.641897e-02 -1.771640e-02 -1.174371e-03 8.477719e-02 5.910884e-02 -2.017961e-02 -7.364493e-03 1.789535e-03 2.682653e-02 2.537177e-02 -5.203861e-02
<VARIANCE> 39
 1.999146e+01 6.760377e+01 4.826676e+01 1.090728e+02 1.020138e+02 1.049148e+02 9.304794e+01 7.114421e+01 4.885340e+01 6.228170e+01 7.048092e+01 3.223512e+01 2.560740e+01 1.821875e+00 7.088240e+00 3.879742e+00 6.553454e+00 7.319299e+00 9.955039e+00 7.697997e+00 6.475856e+00 4.897272e+00 5.443263e+00 6.343090e+00 3.358728e+00 2.743296e+00 2.680479e-01 1.400999e+00 5.703437e-01 1.065481e+00 1.446287e+00 1.622383e+00 1.449015e+00 1.121885e+00 9.277049e-01 9.919022e-01 1.249029e+00 6.334970e-01 4.212019e-01
<GCONST> 1.445450e+02
<STATE> 3
<MEAN> 39
 3.707398e+00 5.875987e+00 2.861447e+00 -1.388363e+01 -9.787484e-01 -4.401143e+00 -1.770714e+01 5.999077e+00 -1.650930e+01 -1.092749e+01 -7.274625e+00 -2.906117e+00 6.753500e+01 1.273307e-01 -2.317927e-01 -7.024355e-02 -2.730331e-01 1.235163e-01 -1.178984e-01 2.256276e-02 1.895169e-01 -3.559834e-01 -2.168010e-01 1.689059e-02 -7.176206e-02 2.776626e-01 -6.439392e-02 -3.227885e-02 4.005588e-02 5.156432e-02 -7.073429e-02 -6.789031e-02 6.559934e-02 -9.866240e-03 2.459823e-02 1.221058e-01 4.729859e-02 1.976463e-02 -3.463975e-02
<VARIANCE> 39
 1.789573e+01 4.863208e+01 6.876934e+01 9.340211e+01 8.182363e+01 1.180834e+02 9.442250e+01 8.382825e+01 5.636357e+01 5.522260e+01 7.463940e+01 4.148509e+01 2.241342e+01 1.052791e+00 5.097462e+00 4.149906e+00 6.286152e+00 5.934956e+00 1.116312e+01 8.187333e+00 8.225703e+00 6.004936e+00 5.134352e+00 5.950016e+00 3.689023e+00 2.485509e+00 1.575018e-01 9.124464e-01 6.271460e-01 1.000432e+00 1.069835e+00 1.778732e+00 1.634950e+00 1.344642e+00 1.104020e+00 9.419717e-01 1.181519e+00 6.687803e-01 4.062807e-01
<GCONST> 1.432578e+02
<STATE> 4
<MEAN> 39
 3.350357e+00 2.706709e+00 2.752663e+00 -1.135457e+01 -5.790893e+00 -1.030147e+01 -1.149231e+01 7.239001e+00 -1.938766e+01 -8.791891e+00 -8.169031e+00 -4.452529e+00 6.834034e+01 -1.215896e-01 -2.881320e-01 -4.358054e-02 1.503856e-01 -6.538323e-02 -3.264824e-02 2.119925e-01 -2.015780e-01 1.254375e-01 3.017832e-01 6.863288e-02 1.935863e-01 1.085067e-02 -1.759789e-02 1.579541e-02 -3.301940e-02 4.836885e-02 -2.287612e-03 7.038385e-02 -7.679582e-03 -6.428134e-02 6.565155e-02 3.996858e-02 1.280624e-02 2.377472e-02 -4.978747e-02
<VARIANCE> 39
 1.730499e+01 5.220353e+01 6.290122e+01 8.955992e+01 1.039221e+02 1.115597e+02 1.133426e+02 7.575977e+01 8.047254e+01 6.038859e+01 6.663348e+01 5.812099e+01 2.698986e+01 8.685296e-01 3.845879e+00 3.654523e+00 4.190293e+00 4.448318e+00 6.986481e+00 5.817027e+00 5.327284e+00 5.075505e+00 3.867595e+00 3.858731e+00 3.068030e+00 2.024399e+00 1.288485e-01 6.065830e-01 5.630440e-01 6.655992e-01 7.040845e-01 1.032267e+00 1.031419e+00 8.817866e-01 8.841243e-01 6.621774e-01 6.625010e-01 5.201595e-01 2.649698e-01
<GCONST> 1.356672e+02
<TRANSP> 5
 0.000000e+00 1.000000e+00 0.000000e+00 0.000000e+00 0.000000e+00
 0.000000e+00 9.016520e-01 9.834796e-02 0.000000e+00 0.000000e+00
 0.000000e+00 0.000000e+00 8.709801e-01 1.290199e-01 0.000000e+00
 0.000000e+00 0.000000e+00 0.000000e+00 9.544063e-01 4.559376e-02
 0.000000e+00 0.000000e+00 0.000000e+00 0.000000e+00 0.000000e+00
<ENDHMM>
~h "sil"
<BEGINHMM>
<NUMSTATES> 5
<STATE> 2
<MEAN> 39
 -1.267904e+01 5.153957e+00 -2.811844e+00 3.305331e+00 -8.574635e+00 1.438331e+00 -9.526048e+00 1.497121e+00 -5.068123e+00 1.307855e+00 -7.174513e-01 7.446963e-01 4.827546e+01 -5.028281e-02 2.326674e-02 -7.584821e-03 3.012291e-02 -3.822997e-02 1.862908e-03 -1.505534e-02 1.499816e-02 1.839352e-02 7.816158e-03 -6.301078e-05 -6.718257e-03 -7.455420e-02 5.955793e-03 -1.412303e-03 4.655892e-03 -4.017966e-03 3.463496e-03 -3.149849e-03 -4.444376e-03 -7.113399e-04 -5.327116e-03 -3.468087e-03 -4.650406e-03 -2.785892e-03 8.498122e-03
<VARIANCE> 39
 5.610636e+00 6.122557e+00 7.607929e+00 1.421043e+01 1.781429e+01 1.619359e+01 1.750054e+01 1.385811e+01 1.192400e+01 1.080315e+01 1.121085e+01 1.000964e+01 1.065951e+01 1.121568e-01 2.627968e-01 3.688278e-01 5.051507e-01 7.065920e-01 8.286310e-01 8.988374e-01 9.056627e-01 8.517309e-01 8.988951e-01 9.197379e-01 7.911994e-01 6.739131e-02 1.867137e-02 5.280083e-02 7.258476e-02 9.523311e-02 1.414015e-01 1.653475e-01 1.824285e-01 1.861524e-01 1.724589e-01 1.849081e-01 1.883686e-01 1.600518e-01 1.030130e-02
<GCONST> 6.321277e+01
<STATE> 3
<MEAN> 39
 -1.322420e+01 5.081031e+00 -2.937312e+00 3.369618e+00 -8.377410e+00 1.455167e+00 -9.425449e+00 9.808081e-01 -5.419815e+00 1.664664e+00 -3.259620e-02 1.021042e+00 4.804092e+01 -3.517123e-02 -7.431126e-02 7.033472e-02 -1.210778e-01 -3.042169e-02 1.289166e-02 -9.449024e-02 -5.000751e-03 -1.206966e-01 -5.505705e-02 -8.335830e-02 -2.164259e-02 4.002730e-02 -6.617834e-03 -5.289574e-02 9.626762e-02 -3.440456e-02 8.085881e-02 4.570125e-02 -5.119991e-02 -4.908720e-02 -5.037269e-02 -1.415249e-02 -4.669726e-02 -1.826031e-02 6.556211e-02
<VARIANCE> 39
 7.504884e+00 1.699365e+01 1.358737e+01 1.913825e+01 2.321183e+01 1.935056e+01 2.432134e+01 1.774803e+01 1.671435e+01 1.268699e+01 1.425471e+01 1.115878e+01 1.453106e+01 3.164992e-01 1.423270e+00 9.829377e-01 1.796042e+00 1.713485e+00 1.348226e+00 1.766715e+00 1.371880e+00 1.702890e+00 1.132512e+00 1.322040e+00 1.282079e+00 3.790177e-01 7.460796e-02 3.096831e-01 2.465558e-01 3.569701e-01 3.677527e-01 2.755735e-01 3.639635e-01 2.654132e-01 3.633329e-01 2.243172e-01 2.768450e-01 2.550065e-01 8.738515e-02
<GCONST> 9.065193e+01
<STATE> 4
<MEAN> 39
 -7.896658e+00 2.013925e+00 9.565690e-01 8.391377e-02 -6.956633e+00 -4.152460e+00 -6.288328e+00 -1.329277e-01 -1.104428e+01 -5.638141e-01 -4.024603e+00 -2.064605e+00 5.742948e+01 2.054001e-02 5.656779e-04 3.081288e-02 -3.157648e-02 3.855464e-03 -9.866904e-03 -7.013273e-02 -1.427337e-02 -4.444199e-02 -1.284366e-02 -1.381499e-02 5.230908e-03 2.068699e-02 3.367289e-03 -1.403819e-02 3.026516e-02 -2.972263e-02 1.719115e-02 6.259307e-03 -1.178974e-02 -1.559517e-02 -1.199289e-02 -4.228402e-03 -1.285535e-02 -1.103835e-03 2.905023e-02
<VARIANCE> 39
 6.924013e+01 6.425665e+01 5.738723e+01 5.116474e+01 6.076049e+01 1.135363e+02 6.424364e+01 3.608178e+01 7.873632e+01 2.459103e+01 4.815693e+01 4.014591e+01 1.012943e+02 1.446604e+00 3.379481e+00 2.075525e+00 2.400270e+00 2.139814e+00 3.783104e+00 2.837415e+00 2.529468e+00 2.995160e+00 1.684580e+00 2.110482e+00 1.715114e+00 1.743480e+00 2.199619e-01 5.834788e-01 3.704991e-01 4.570638e-01 3.517229e-01 5.887035e-01 5.235437e-01 4.606117e-01 4.858838e-01 3.174539e-01 3.739451e-01 3.063590e-01 2.274215e-01
<GCONST> 1.227765e+02
<TRANSP> 5
 0.000000e+00 1.000000e+00 0.000000e+00 0.000000e+00 0.000000e+00
 0.000000e+00 9.824693e-01 1.753067e-02 0.000000e+00 0.000000e+00
 0.000000e+00 0.000000e+00 5.762073e-01 4.237927e-01 0.000000e+00
 0.000000e+00 0.000000e+00 0.000000e+00 8.709887e-01 1.290114e-01
 0.000000e+00 0.000000e+00 0.000000e+00 0.000000e+00 0.000000e+00
<ENDHMM>
